svm_type c_svc
kernel_type rbf
gamma 100
nr_class 2
total_sv 2058
rho 0.534529
label 1 -1
nr_sv 955 1103
SV
0.1 1:0.30116602 2:-3.454875 
0.1 1:0.3295625 2:-2.4216875 
0.1 1:0.19886328 2:-2.5488125 
0.1 1:0.37462109 2:-4.6270625 
0.1 1:0.2551543 2:-2.345875 
0.1 1:0.32316602 2:-2.5864375 
0.1 1:0.20381836 2:-2.5619375 
0.1 1:0.36222656 2:-4.23425 
0.1 1:0.45810547 2:-2.725875 
0.1 1:0.46744336 2:-3.1958125 
0.1 1:0.22953125 2:-4.0635 
0.1 1:0.28694336 2:-2.7929375 
0.1 1:0.43748438 2:-3.083 
0.1 1:0.25696484 2:-2.8865625 
0.1 1:0.27342773 2:-2.5523125 
0.1 1:0.42545898 2:-2.3104375 
0.1 1:0.45117969 2:-3.092 
0.1 1:0.32638281 2:-2.101875 
0.1 1:0.20154688 2:-2.2619375 
0.1 1:0.42557422 2:-2.0825625 
0.0434579597127901 1:0.35587305 2:-2.288625 
0.1 1:0.42245117 2:-2.2446875 
0.1 1:0.28378711 2:-2.2425 
0.1 1:0.29655078 2:-0.9794375 
0.1 1:0.43852344 2:-2.296 
0.1 1:0.16750391 2:-2.8849375 
0.1 1:0.33469531 2:-2.93075 
0.1 1:0.36936914 2:-3.5874375 
0.1 1:0.49775 2:-2.6403125 
0.1 1:0.45213672 2:-3.742375 
0.1 1:0.31682227 2:-3.2665 
0.1 1:0.3132207 2:-2.439 
0.1 1:0.36498437 2:-5.0790625 
0.1 1:0.25274414 2:-1.9728125 
0.1 1:0.2566543 2:-2.5156875 
0.1 1:0.35231641 2:-2.5646875 
0.1 1:0.23308594 2:-1.8355 
0.1 1:0.46012695 2:-2.757875 
0.1 1:0.29571094 2:-2.205125 
0.1 1:0.47210156 2:-2.5506875 
0.1 1:0.49887891 2:-3.0599375 
0.1 1:0.39027148 2:-3.910875 
0.1 1:0.23557227 2:-1.9678125 
0.1 1:0.46533398 2:-3.3760625 
0.1 1:0.2820918 2:-3.37775 
0.06880211587256127 1:0.32110547 2:-2.0231875 
0.1 1:0.25426758 2:-5.0411875 
0.1 1:0.28439453 2:-2.960375 
0.1 1:0.27822461 2:-1.836375 
0.1 1:0.52552539 2:-3.46175 
0.1 1:0.24919336 2:-1.8699375 
0.1 1:0.36602734 2:-1.5118125 
0.1 1:0.31341016 2:-3.07175 
0.1 1:0.4799043 2:-2.1899375 
0.1 1:0.47623633 2:-4.3488125 
0.1 1:0.50982422 2:-2.602875 
0.1 1:0.40191016 2:-2.013375 
0.1 1:0.41480664 2:-3.7495625 
0.1 1:0.42345313 2:-3.9575 
0.1 1:0.5656875 2:-1.8881875 
0.1 1:0.3034707 2:-4.362875 
0.1 1:0.29558984 2:-2.858 
0.1 1:0.2096543 2:-3.3384375 
0.1 1:0.37596094 2:-4.226625 
0.1 1:0.34317578 2:-3.28275 
0.1 1:0.28123828 2:-2.438375 
0.1 1:0.52775391 2:-2.3980625 
0.1 1:0.4820332 2:-1.2183125 
0.1 1:0.3309082 2:-3.58025 
0.1 1:0.50777344 2:-3.3566875 
0.1 1:0.29471094 2:-3.955125 
0.1 1:0.30439258 2:-3.55325 
0.1 1:0.34912305 2:-3.1158125 
0.1 1:0.3485625 2:-1.658125 
0.1 1:0.284625 2:-5.445375 
0.1 1:0.44303906 2:-2.2975625 
0.1 1:0.48641992 2:-1.735875 
0.1 1:0.39125781 2:-2.5903125 
0.1 1:0.39310937 2:-3.974875 
0.1 1:0.37757422 2:-4.804125 
0.1 1:0.31198242 2:-2.8375 
0.1 1:0.2688418 2:-2.9066875 
0.1 1:0.23729883 2:-1.4004375 
0.1 1:0.27155469 2:-3.040875 
0.1 1:0.40021875 2:-3.975125 
0.1 1:0.31 2:-3.2896875 
0.1 1:0.39408398 2:-5.8528125 
0.1 1:0.27366016 2:-3.7085625 
0.1 1:0.32065234 2:-3.4786875 
0.1 1:0.3802207 2:-3.17925 
0.1 1:0.52532227 2:-2.8126875 
0.1 1:0.31275195 2:-2.2413125 
0.1 1:0.28279492 2:-1.9401875 
0.1 1:0.21372266 2:-3.2156875 
0.1 1:0.31025977 2:-2.604625 
0.1 1:0.31803516 2:-0.858 
0.1 1:0.40333008 2:-3.0384375 
0.1 1:0.32245703 2:-3.907375 
0.1 1:0.30416992 2:-2.0409375 
0.1 1:0.22852344 2:-2.6631875 
0.002849846550707879 1:0.39700391 2:-2.647125 
0.1 1:0.34638672 2:-3.5878125 
0.1 1:0.42175977 2:-1.934 
0.1 1:0.29705078 2:-1.08675 
0.1 1:0.37252148 2:-3.554625 
0.1 1:0.13879883 2:-1.968 
0.1 1:0.32408008 2:-3.10675 
0.1 1:0.31139258 2:-3.1750625 
0.1 1:0.44792773 2:-5.903 
0.1 1:0.27998633 2:-3.1631875 
0.1 1:0.31277148 2:-4.653625 
0.06511713237207491 1:0.45823437 2:-2.62375 
0.1 1:0.45176563 2:-4.928 
0.1 1:0.46410742 2:-4.8941875 
0.1 1:0.53497656 2:-4.1345 
0.1 1:0.21825195 2:-3.4581875 
0.1 1:0.34080859 2:-1.552 
0.1 1:0.33381445 2:-2.8750625 
0.1 1:0.40038086 2:-2.0874375 
0.1 1:0.19224414 2:-3.40725 
0.1 1:0.28180078 2:-2.841625 
0.1 1:0.24414648 2:-2.412875 
0.1 1:0.30875 2:-3.484375 
0.1 1:0.39445898 2:-3.74275 
0.1 1:0.38800586 2:-4.0814375 
0.1 1:0.29856836 2:-1.3805625 
0.1 1:0.36829492 2:-2.7315 
0.1 1:0.44136914 2:-5.2418125 
0.1 1:0.25449219 2:-2.45125 
0.1 1:0.27999414 2:-2.9005 
0.1 1:0.59758984 2:-2.2580625 
0.1 1:0.27026563 2:-4.021375 
0.1 1:0.43997461 2:-1.51125 
0.1 1:0.4392168 2:-2.4121875 
0.1 1:0.33367383 2:-2.739 
0.1 1:0.43607617 2:-2.363125 
0.1 1:0.29637891 2:-4.25375 
0.1 1:0.35807031 2:-2.4820625 
0.1 1:0.471 2:-3.108 
0.1 1:0.48227734 2:-4.33475 
0.1 1:0.30418555 2:-2.98925 
0.1 1:0.23377734 2:-4.336375 
0.1 1:0.21630273 2:-1.4938125 
0.1 1:0.2208125 2:-2.5071875 
0.1 1:0.35253906 2:-2.61525 
0.1 1:0.64953711 2:-2.5906875 
0.1 1:0.52079883 2:-3.961125 
0.1 1:0.37298047 2:-3.0148125 
0.1 1:0.41253711 2:-2.4326875 
0.1 1:0.20394727 2:-3.174375 
0.1 1:0.28365039 2:-2.8665 
0.1 1:0.3230332 2:-5.3358125 
0.1 1:0.39529102 2:-4.564375 
0.1 1:0.28627148 2:-1.2314375 
0.1 1:0.28036523 2:-3.41475 
0.1 1:0.23373633 2:-3.3294375 
0.1 1:0.38279883 2:-3.2830625 
0.1 1:0.3195957 2:-4.8738125 
0.1 1:0.37463477 2:-3.621625 
0.1 1:0.28618945 2:-3.7015625 
0.1 1:0.34605859 2:-3.7740625 
0.1 1:0.24304883 2:-3.1459375 
0.1 1:0.53094922 2:-2.2313125 
0.1 1:0.24187695 2:-2.55675 
0.1 1:0.34261133 2:-3.0275 
0.1 1:0.30731445 2:-2.7576875 
0.1 1:0.30654297 2:-2.1839375 
0.1 1:0.23957617 2:-2.785375 
0.1 1:0.55075 2:-2.677 
0.1 1:0.21699023 2:-2.6715 
0.1 1:0.45385156 2:-2.0045625 
0.1 1:0.33468945 2:-3.2365 
0.1 1:0.30784375 2:-3.0463125 
0.1 1:0.29110156 2:-2.9788125 
0.1 1:0.29321875 2:-3.302 
0.1 1:0.38314062 2:-2.5246875 
0.1 1:0.34558203 2:-3.37725 
0.09469558633835753 1:0.40037695 2:-1.956125 
0.1 1:0.3462832 2:-4.65725 
0.1 1:0.35276562 2:-4.7933125 
0.1 1:0.31888086 2:-3.5965625 
0.1 1:0.35253516 2:-3.5119375 
0.1 1:0.4627793 2:-3.8699375 
0.1 1:0.36563477 2:-3.1015 
0.1 1:0.46525391 2:-4.268125 
0.1 1:0.17598242 2:-3.369 
0.1 1:0.26488281 2:-3.2199375 
0.1 1:0.20846289 2:-1.83875 
0.1 1:0.39329102 2:-2.96975 
0.1 1:0.44060156 2:-1.6279375 
0.1 1:0.36656836 2:-4.133375 
0.1 1:0.45213086 2:-3.090875 
0.1 1:0.21165039 2:-2.319875 
0.1 1:0.3807207 2:-4.4460625 
0.1 1:0.36598633 2:-2.9008125 
0.1 1:0.30421484 2:-4.210125 
0.1 1:0.33297852 2:-3.5381875 
0.1 1:0.34798633 2:-4.020125 
0.1 1:0.3705957 2:-2.8569375 
0.1 1:0.36310352 2:-2.8215625 
0.1 1:0.21700781 2:-2.3581875 
0.1 1:0.41381055 2:-3.4913125 
0.1 1:0.28428125 2:-3.5425 
0.1 1:0.2234082 2:-2.465375 
0.1 1:0.26932422 2:-1.75025 
0.1 1:0.18889648 2:-3.22025 
0.1 1:0.40568945 2:-3.4481875 
0.04009428071894818 1:0.40569336 2:-2.21375 
0.1 1:0.38989063 2:-2.975 
0.1 1:0.2871582 2:-5.202125 
0.1 1:0.3864375 2:-1.5735 
0.1 1:0.3078125 2:-3.290375 
0.1 1:0.2698418 2:-2.0849375 
0.1 1:0.39301562 2:-4.5141875 
0.1 1:0.39208203 2:-3.828125 
0.1 1:0.30070898 2:-1.913875 
0.1 1:0.42530273 2:-3.6656875 
0.1 1:0.16695508 2:-1.788625 
0.02395586396900756 1:0.43825586 2:-2.51575 
0.1 1:0.49108398 2:-1.9874375 
0.1 1:0.41433789 2:-4.3966875 
0.1 1:0.46235742 2:-5.634125 
0.1 1:0.38560742 2:-3.2704375 
0.1 1:0.24225781 2:-3.93575 
0.1 1:0.37899609 2:-6.203375 
0.1 1:0.31925977 2:-1.5941875 
0.1 1:0.24726953 2:-1.332625 
0.1 1:0.26806055 2:-2.1526875 
0.1 1:0.33559961 2:-4.079875 
0.1 1:0.30674414 2:-2.46875 
0.1 1:0.32263086 2:-5.6656875 
0.1 1:0.34041602 2:-3.856875 
0.1 1:0.28313086 2:-3.6645625 
0.1 1:0.339125 2:-1.304625 
0.1 1:0.28432422 2:-3.0955625 
0.09870647950834437 1:0.35105859 2:-2.2709375 
0.1 1:0.38666406 2:-2.618125 
0.1 1:0.27044922 2:-2.3269375 
0.1 1:0.32889453 2:-3.90775 
0.1 1:0.40568359 2:-4.743125 
0.1 1:0.43186914 2:-3.553875 
0.1 1:0.17680469 2:-0.7626875 
0.1 1:0.42924219 2:-6.279125 
0.1 1:0.17209766 2:-3.677625 
0.1 1:0.25826562 2:-1.6623125 
0.1 1:0.33449023 2:-3.8235625 
0.1 1:0.44346484 2:-2.4981875 
0.1 1:0.25616016 2:-2.35625 
0.1 1:0.28343945 2:-1.48925 
0.1 1:0.31999023 2:-3.4375 
0.1 1:0.48723242 2:-2.3460625 
0.1 1:0.17069531 2:-1.9250625 
0.1 1:0.28387695 2:-3.0823125 
0.1 1:0.42518555 2:-2.9306875 
0.1 1:0.34614648 2:-2.4749375 
0.1 1:0.24129883 2:-2.6834375 
0.1 1:0.28685352 2:-2.059875 
0.1 1:0.26744336 2:-2.9053125 
0.1 1:0.45036328 2:-3.8025 
0.1 1:0.26370703 2:-1.8264375 
0.1 1:0.24614648 2:-3.1475 
0.1 1:0.27175977 2:-2.2280625 
0.1 1:0.32193359 2:-4.249 
0.1 1:0.29429687 2:-3.6584375 
0.1 1:0.2154375 2:-2.541125 
0.1 1:0.23927539 2:-3.3649375 
0.1 1:0.28545508 2:-4.1744375 
0.1 1:0.33942383 2:-2.816875 
0.1 1:0.35426563 2:-2.5839375 
0.1 1:0.49133984 2:-4.1626875 
0.1 1:0.19125977 2:-2.2409375 
0.1 1:0.44405469 2:-4.3299375 
0.1 1:0.21495703 2:-1.86225 
0.1 1:0.27574414 2:-3.3558125 
0.1 1:0.2684375 2:-2.4340625 
0.1 1:0.28570312 2:-1.774 
0.1 1:0.18329492 2:-3.2108125 
0.1 1:0.32204492 2:-2.8611875 
0.1 1:0.39511719 2:-3.599125 
0.1 1:0.21323437 2:-1.5406875 
0.1 1:0.47037109 2:-1.6984375 
0.1 1:0.27299023 2:-1.2601875 
0.1 1:0.26838477 2:-3.1514375 
0.1 1:0.25358594 2:-0.9501875 
0.05253354711354635 1:0.31225977 2:-1.9321875 
0.1 1:0.41151367 2:-2.1315 
0.1 1:0.27617578 2:-2.6374375 
0.1 1:0.21975195 2:-2.9699375 
0.1 1:0.41301172 2:-4.127 
0.1 1:0.36764844 2:-3.4171875 
0.1 1:0.29420313 2:-1.9199375 
0.1 1:0.36944336 2:-1.555 
0.1 1:0.36937305 2:-4.2165 
0.02077169054367386 1:0.37977539 2:-2.7740625 
0.1 1:0.52628906 2:-2.6603125 
0.1 1:0.50256445 2:-4.464375 
0.1 1:0.4079668 2:-3.6353125 
0.1 1:0.49410352 2:-1.903625 
0.1 1:0.25866406 2:-5.145625 
0.1 1:0.24066016 2:-2.2091875 
0.1 1:0.14666406 2:-2.631125 
0.1 1:0.3515918 2:-1.2735625 
0.1 1:0.43983398 2:-1.9830625 
0.1 1:0.38029492 2:-2.6636875 
0.1 1:0.5178125 2:-2.3533125 
0.09314435425189073 1:0.34235156 2:-2.1496875 
0.1 1:0.3090957 2:-3.85075 
0.1 1:0.32251953 2:-3.13 
0.1 1:0.28976367 2:-2.34075 
0.1 1:0.30172266 2:-3.0673125 
0.1 1:0.36124023 2:-3.3540625 
0.1 1:0.4121875 2:-4.211 
0.1 1:0.27545312 2:-2.4158125 
0.1 1:0.25773828 2:-3.7175625 
0.1 1:0.3888457 2:-3.347625 
0.1 1:0.2248125 2:-1.0631875 
0.1 1:0.3094082 2:-3.7965 
0.1 1:0.27979883 2:-1.9578125 
0.1 1:0.41818359 2:-4.63875 
0.1 1:0.34983789 2:-4.0816875 
0.1 1:0.31676953 2:-2.14075 
0.1 1:0.29741211 2:-2.8059375 
0.1 1:0.30510547 2:-4.36925 
0.1 1:0.49548828 2:-3.364375 
0.1 1:0.4871875 2:-3.887125 
0.1 1:0.29102539 2:-2.3373125 
0.1 1:0.4947168 2:-2.6748125 
0.1 1:0.38763477 2:-1.709875 
0.1 1:0.23039844 2:-3.1139375 
0.1 1:0.47564063 2:-3.4048125 
0.1 1:0.26692383 2:-3.2095 
0.1 1:0.23089453 2:-1.5915 
0.1 1:0.29048438 2:-2.908625 
0.1 1:0.28708789 2:-2.5873125 
0.1 1:0.38156055 2:-2.6869375 
0.1 1:0.40867188 2:-3.7954375 
0.1 1:0.40251367 2:-3.5608125 
0.1 1:0.23420703 2:-1.3368125 
0.1 1:0.45466992 2:-2.942125 
0.1 1:0.25707813 2:-3.7184375 
0.1 1:0.24733008 2:-3.39625 
0.1 1:0.31573633 2:-3.224125 
0.1 1:0.37616602 2:-4.028 
0.1 1:0.26034961 2:-2.928375 
0.1 1:0.46006445 2:-4.03125 
0.1 1:0.30743164 2:-2.150375 
0.1 1:0.24718164 2:-3.4359375 
0.1 1:0.12339844 2:-2.0333125 
0.1 1:0.27236914 2:-3.7054375 
0.1 1:0.29544336 2:-3.8183125 
0.1 1:0.24520117 2:-3.8335625 
0.1 1:0.45814258 2:-3.6809375 
0.1 1:0.27910352 2:-3.861875 
0.1 1:0.3974043 2:-3.18575 
0.1 1:0.38060742 2:-4.1420625 
0.1 1:0.21552148 2:-3.5938125 
0.1 1:0.4660332 2:-3.523875 
0.1 1:0.25343945 2:-3.0164375 
0.1 1:0.31038086 2:-3.6683125 
0.1 1:0.35754883 2:-3.372625 
0.1 1:0.48700977 2:-3.3898125 
0.1 1:0.3609707 2:-1.736625 
0.1 1:0.50034766 2:-1.9210625 
0.1 1:0.51585742 2:-6.6545 
0.1 1:0.38122656 2:-3.5826875 
0.1 1:0.3885957 2:-2.639375 
0.1 1:0.31141211 2:-1.650875 
0.1 1:0.20134375 2:-1.7034375 
0.1 1:0.3054375 2:-1.9735625 
0.1 1:0.30149805 2:-3.2504375 
0.1 1:0.19261133 2:-1.907375 
0.1 1:0.22947852 2:-1.157625 
0.1 1:0.30507812 2:-4.5428125 
0.1 1:0.34345898 2:-3.634875 
0.1 1:0.31237305 2:-1.243125 
0.1 1:0.32942969 2:-1.7116875 
0.1 1:0.38344141 2:-3.6039375 
0.1 1:0.47981836 2:-2.9349375 
0.1 1:0.23607031 2:-2.3098125 
0.1 1:0.34260937 2:-1.451625 
0.1 1:0.26119531 2:-2.6723125 
0.1 1:0.42236328 2:-6.1394375 
0.1 1:0.27055078 2:-1.3105 
0.1 1:0.50997461 2:-1.53175 
0.1 1:0.24242187 2:-2.8604375 
0.1 1:0.20988281 2:-2.778625 
0.1 1:0.28082617 2:-2.2118125 
0.1 1:0.52735156 2:-4.2251875 
0.1 1:0.39567969 2:-3.775375 
0.1 1:0.33127734 2:-3.2449375 
0.1 1:0.34611328 2:-1.1154375 
0.1 1:0.19142383 2:-2.952 
0.1 1:0.27363867 2:-2.9935 
0.1 1:0.41257227 2:-1.71725 
0.1 1:0.25308594 2:-4.6645625 
0.1 1:0.34639453 2:-3.306375 
0.1 1:0.41735742 2:-1.526375 
0.1 1:0.28891602 2:-1.8748125 
0.1 1:0.45412305 2:-2.8335 
0.1 1:0.27432422 2:-2.5110625 
0.1 1:0.31316992 2:-2.777625 
0.1 1:0.27696094 2:-3.481375 
0.1 1:0.44555664 2:-2.8524375 
0.1 1:0.31175195 2:-2.6984375 
0.1 1:0.41161914 2:-3.4816875 
0.1 1:0.454125 2:-2.0156875 
0.1 1:0.42798047 2:-1.8614375 
0.1 1:0.24126758 2:-2.4735 
0.1 1:0.37527344 2:-4.52 
0.1 1:0.43533203 2:-3.6585 
0.1 1:0.35310156 2:-2.948625 
0.1 1:0.30602148 2:-4.477625 
0.1 1:0.43007617 2:-2.785 
0.1 1:0.44375781 2:-3.0615 
0.1 1:0.38577734 2:-2.6884375 
0.1 1:0.37047461 2:-4.07375 
0.1 1:0.25118164 2:-1.898125 
0.1 1:0.50326758 2:-2.3361875 
0.1 1:0.33640039 2:-2.6640625 
0.1 1:0.43242188 2:-1.561625 
0.1 1:0.33210742 2:-3.9484375 
0.1 1:0.31989258 2:-1.6335625 
0.1 1:0.4265625 2:-1.383125 
0.1 1:0.26782617 2:-3.1501875 
0.1 1:0.41479102 2:-3.7660625 
0.1 1:0.27367383 2:-2.1773125 
0.1 1:0.30839453 2:-3.525375 
0.1 1:0.47179688 2:-4.263875 
0.1 1:0.59392578 2:-2.6131875 
0.1 1:0.50018164 2:-4.394625 
0.1 1:0.43593359 2:-4.35875 
0.1 1:0.31301172 2:-2.7151875 
0.1 1:0.24892187 2:-2.3585625 
0.1 1:0.36638086 2:-3.2388125 
0.1 1:0.39370703 2:-3.9125 
0.1 1:0.31485156 2:-4.1795 
0.1 1:0.44803711 2:-4.523 
0.1 1:0.27632617 2:-1.724 
0.1 1:0.39248828 2:-3.027875 
0.1 1:0.24583008 2:-2.7515625 
0.1 1:0.51782031 2:-2.9840625 
0.1 1:0.35734766 2:-2.7428125 
0.1 1:0.28839453 2:-3.682625 
0.1 1:0.29299805 2:-3.0075 
0.1 1:0.30579492 2:-2.78075 
0.1 1:0.48751172 2:-4.2118125 
0.1 1:0.3464043 2:-3.0483125 
0.1 1:0.31988281 2:-3.0180625 
0.1 1:0.30395312 2:-2.4815625 
0.1 1:0.34071484 2:-2.841 
0.008181232097944875 1:0.3831875 2:-2.1104375 
0.1 1:0.45269336 2:-4.4751875 
0.1 1:0.34450977 2:-3.534625 
0.1 1:0.3136582 2:-3.195375 
0.1 1:0.47980859 2:-3.3043125 
0.1 1:0.31465625 2:-3.7899375 
0.1 1:0.2967832 2:-3.249875 
0.02140677597622448 1:0.42963477 2:-2.2746875 
0.1 1:0.43955078 2:-1.6426875 
0.1 1:0.38256445 2:-3.61 
0.1 1:0.27438672 2:-1.98 
0.1 1:0.24535742 2:-3.0871875 
0.1 1:0.37243359 2:-3.5903125 
0.09151690808261737 1:0.46189453 2:-3.329875 
0.1 1:0.50944336 2:-3.7714375 
0.1 1:0.28764844 2:-2.8450625 
0.1 1:0.30180469 2:-3.6710625 
0.1 1:0.28037109 2:-3.8800625 
0.1 1:0.37261328 2:-4.8285 
0.1 1:0.33874023 2:-3.620125 
0.1 1:0.45623047 2:-2.8043125 
0.1 1:0.2397168 2:-3.8524375 
0.1 1:0.36931641 2:-4.372125 
0.1 1:0.3907793 2:-2.0875625 
0.1 1:0.23803906 2:-1.2504375 
0.1 1:0.44498437 2:-3.3908125 
0.1 1:0.34374219 2:-3.757125 
0.1 1:0.26485742 2:-2.1836875 
0.1 1:0.42789844 2:-4.0163125 
0.1 1:0.43280273 2:-3.691 
0.1 1:0.43618359 2:-2.817625 
0.1 1:0.38744727 2:-3.2230625 
0.1 1:0.20821484 2:-2.039 
0.1 1:0.34324414 2:-3.4438125 
0.1 1:0.31656641 2:-2.7206875 
0.1 1:0.42745117 2:-4.3916875 
0.1 1:0.25310938 2:-3.3103125 
0.1 1:0.21710742 2:-3.57425 
0.1 1:0.4214707 2:-4.5469375 
0.1 1:0.27541992 2:-5.0645625 
0.0483514699817635 1:0.35805469 2:-1.609 
0.1 1:0.29695898 2:-1.7955625 
0.1 1:0.29000391 2:-4.12425 
0.1 1:0.28954102 2:-4.644125 
0.1 1:0.17488281 2:-1.0215 
0.1 1:0.54077734 2:-2.5634375 
0.1 1:0.44330078 2:-2.477875 
0.1 1:0.36345508 2:-3.368625 
0.1 1:0.31369727 2:-2.0728125 
0.1 1:0.40248242 2:-1.926875 
0.1 1:0.52707617 2:-4.68575 
0.1 1:0.3889375 2:-3.2738125 
0.1 1:0.35908984 2:-2.934875 
0.1 1:0.43425977 2:-1.4025 
0.1 1:0.40707813 2:-1.1791875 
0.1 1:0.22916406 2:-3.683875 
0.1 1:0.39049805 2:-3.56675 
0.1 1:0.32529102 2:-3.8465 
0.1 1:0.40748633 2:-4.45825 
0.1 1:0.4513125 2:-2.75075 
0.1 1:0.33716992 2:-1.6179375 
0.1 1:0.37858984 2:-2.6868125 
0.1 1:0.24449219 2:-1.5425 
0.1 1:0.34419531 2:-1.66775 
0.1 1:0.49461523 2:-4.0245625 
0.1 1:0.43799805 2:-3.4333125 
0.1 1:0.36775195 2:-2.4995625 
0.1 1:0.28496484 2:-2.3533125 
0.1 1:0.20956836 2:-2.620875 
0.1 1:0.49850195 2:-4.2493125 
0.1 1:0.25010547 2:-4.1759375 
0.1 1:0.28163281 2:-3.179375 
0.1 1:0.35166406 2:-3.349 
0.1 1:0.25545703 2:-2.2199375 
0.1 1:0.4695332 2:-3.23875 
0.1 1:0.39766406 2:-3.1635625 
0.1 1:0.22520898 2:-3.5239375 
0.1 1:0.371 2:-3.200125 
0.1 1:0.45438281 2:-2.711625 
0.1 1:0.26878906 2:-2.6270625 
0.1 1:0.38128516 2:-2.86675 
0.1 1:0.31540625 2:-5.0003125 
0.1 1:0.33163281 2:-3.3355 
0.02452248510933182 1:0.37437891 2:-1.7210625 
0.1 1:0.37240234 2:-3.902125 
0.1 1:0.32063867 2:-2.9024375 
0.1 1:0.27364648 2:-2.1978125 
0.1 1:0.26228125 2:-1.668 
0.1 1:0.20659375 2:-1.3813125 
0.1 1:0.34233203 2:-3.7615 
0.1 1:0.49304102 2:-2.30275 
0.1 1:0.38224414 2:-3.084 
0.1 1:0.38089844 2:-3.7419375 
0.1 1:0.30180859 2:-2.16275 
0.1 1:0.31682031 2:-3.3043125 
0.1 1:0.27570508 2:-1.7501875 
0.1 1:0.3222207 2:-2.497375 
0.1 1:0.25908398 2:-4.4743125 
0.1 1:0.27555469 2:-3.6163125 
0.1 1:0.51370117 2:-4.112625 
0.1 1:0.17244727 2:-3.071125 
0.1 1:0.32937891 2:-1.713375 
0.1 1:0.27693164 2:-3.3294375 
0.1 1:0.33814844 2:-3.5335 
0.1 1:0.45632617 2:-2.167125 
0.1 1:0.459 2:-5.2013125 
0.1 1:0.33414648 2:-4.8459375 
0.1 1:0.31291602 2:-3.3015625 
0.1 1:0.37326563 2:-4.7308125 
0.1 1:0.31138867 2:-2.953875 
0.1 1:0.50227539 2:-3.744 
0.1 1:0.25701367 2:-2.2314375 
0.1 1:0.15487695 2:-2.084875 
0.1 1:0.29614063 2:-3.1636875 
0.1 1:0.22948242 2:-2.170625 
0.1 1:0.29291016 2:-3.6591875 
0.1 1:0.32941602 2:-2.3140625 
0.1 1:0.28426953 2:-2.9063125 
0.1 1:0.33430664 2:-3.9859375 
0.1 1:0.19477539 2:-1.5100625 
0.1 1:0.4420332 2:-3.6693125 
0.1 1:0.33051172 2:-3.44125 
0.1 1:0.45107812 2:-2.0339375 
0.1 1:0.41648047 2:-2.96775 
0.1 1:0.21245312 2:-2.58725 
0.1 1:0.26169922 2:-2.8788125 
0.1 1:0.50749414 2:-4.0415625 
0.1 1:0.50226563 2:-3.4804375 
0.1 1:0.5994668 2:-2.6765 
0.1 1:0.30467383 2:-2.7651875 
0.1 1:0.43727148 2:-4.1584375 
0.1 1:0.3027832 2:-1.9758125 
0.1 1:0.40140625 2:-4.0538125 
0.1 1:0.29295898 2:-4.6575625 
0.1 1:0.24747852 2:-2.792 
0.1 1:0.29141602 2:-3.130625 
0.1 1:0.273625 2:-3.2185 
0.1 1:0.22231836 2:-4.296375 
0.1 1:0.38451172 2:-3.2376875 
0.1 1:0.434375 2:-2.9555625 
0.1 1:0.47286914 2:-4.1599375 
0.1 1:0.33169922 2:-2.062625 
0.1 1:0.2394668 2:-3.7249375 
0.1 1:0.52820117 2:-3.1533125 
0.1 1:0.34167578 2:-2.6451875 
0.1 1:0.3315957 2:-3.4609375 
0.1 1:0.44179297 2:-1.180625 
0.1 1:0.38176172 2:-3.197125 
0.1 1:0.44421484 2:-2.4914375 
0.1 1:0.3564043 2:-3.6638125 
0.1 1:0.34100781 2:-3.860125 
0.1 1:0.46979297 2:-3.54825 
0.1 1:0.27436719 2:-2.3890625 
0.1 1:0.46813867 2:-1.7313125 
0.1 1:0.22990625 2:-4.26575 
0.04524578023523224 1:0.39997852 2:-2.023 
0.1 1:0.46808789 2:-4.909125 
0.1 1:0.19701367 2:-2.13925 
0.1 1:0.21849805 2:-2.5488125 
0.1 1:0.49073242 2:-3.315625 
0.1 1:0.34409766 2:-1.65875 
0.1 1:0.47380469 2:-2.396625 
0.1 1:0.21723047 2:-2.405125 
0.1 1:0.35502539 2:-1.6113125 
0.1 1:0.49685547 2:-1.6393125 
0.1 1:0.3650957 2:-2.9554375 
0.1 1:0.40429687 2:-1.10175 
0.1 1:0.35033594 2:-2.7564375 
0.1 1:0.25664063 2:-5.19725 
0.1 1:0.46775 2:-3.990125 
0.1 1:0.34355469 2:-3.5971875 
0.1 1:0.41103125 2:-1.5165625 
0.1 1:0.41361328 2:-2.1330625 
0.1 1:0.31222266 2:-1.824 
0.1 1:0.56148633 2:-3.396 
0.1 1:0.35320508 2:-2.8369375 
0.1 1:0.26130078 2:-1.77575 
0.1 1:0.29473242 2:-3.053 
0.1 1:0.57983398 2:-1.5735625 
0.1 1:0.39617188 2:-4.6318125 
0.1 1:0.47471289 2:-1.781 
0.1 1:0.22771875 2:-1.64375 
0.1 1:0.38938672 2:-1.4563125 
0.1 1:0.27792773 2:-1.9775625 
0.1 1:0.42469531 2:-1.8178125 
0.1 1:0.30874805 2:-3.3035 
0.1 1:0.21661914 2:-2.7246875 
0.1 1:0.23667969 2:-3.285 
0.1 1:0.47751758 2:-4.1559375 
0.1 1:0.40448242 2:-3.771 
0.1 1:0.25164063 2:-3.43575 
0.1 1:0.29012891 2:-2.4004375 
0.1 1:0.45166016 2:-4.38775 
0.1 1:0.38722266 2:-1.817375 
0.1 1:0.24733789 2:-3.4609375 
0.1 1:0.17054102 2:-1.676875 
0.1 1:0.23882813 2:-3.4575625 
0.1 1:0.19270117 2:-2.1895 
0.1 1:0.29725586 2:-4.34775 
0.1 1:0.34693359 2:-2.9148125 
0.1 1:0.35210742 2:-4.3413125 
0.1 1:0.44779492 2:-1.6871875 
0.1 1:0.28016797 2:-2.0644375 
0.1 1:0.35406641 2:-3.704375 
0.1 1:0.37616406 2:-3.7056875 
0.1 1:0.59253906 2:-2.77375 
0.1 1:0.38841797 2:-3.018625 
0.1 1:0.27138867 2:-2.4171875 
0.1 1:0.47977344 2:-3.13125 
0.1 1:0.39108984 2:-1.8384375 
0.1 1:0.40020312 2:-5.3531875 
0.1 1:0.38823047 2:-3.969 
0.1 1:0.27660547 2:-3.0056875 
0.1 1:0.35098438 2:-2.575 
0.1 1:0.30670117 2:-1.691 
0.1 1:0.34263672 2:-3.112 
0.1 1:0.3902207 2:-3.342375 
0.1 1:0.35025195 2:-4.0530625 
0.1 1:0.29967383 2:-4.1315625 
0.1 1:0.18492578 2:-3.3076875 
0.1 1:0.22961328 2:-4.3941875 
0.1 1:0.44560547 2:-3.518625 
0.1 1:0.37343359 2:-2.9120625 
0.1 1:0.47799219 2:-2.5883125 
0.1 1:0.31063477 2:-3.77025 
0.1 1:0.37512109 2:-4.1375 
0.1 1:0.26678906 2:-3.29475 
0.1 1:0.35462891 2:-3.405125 
0.1 1:0.39734961 2:-4.196375 
0.1 1:0.40451953 2:-1.271 
0.1 1:0.39682227 2:-1.5556875 
0.1 1:0.38957813 2:-2.6315 
0.1 1:0.32289648 2:-3.127125 
0.1 1:0.42836523 2:-3.6604375 
0.1 1:0.49688477 2:-3.0741875 
0.1 1:0.5284082 2:-3.2651875 
0.001314086208853617 1:0.39325977 2:-3.343 
0.1 1:0.52732813 2:-2.161125 
0.1 1:0.41204297 2:-4.5963125 
0.1 1:0.43997461 2:-1.7660625 
0.1 1:0.45625781 2:-3.9156875 
0.1 1:0.43002148 2:-2.2696875 
0.1 1:0.35586719 2:-4.579125 
0.1 1:0.37255273 2:-4.0279375 
0.1 1:0.3046875 2:-2.61025 
0.1 1:0.35101172 2:-3.5235 
0.1 1:0.38924414 2:-2.8080625 
0.1 1:0.37061719 2:-3.7656875 
0.09348119618021111 1:0.34296484 2:-2.37725 
0.09064875449124271 1:0.38167773 2:-1.8676875 
0.1 1:0.18749023 2:-3.19425 
0.1 1:0.37676367 2:-5.549 
0.1 1:0.45131445 2:-4.8573125 
0.1 1:0.19851367 2:-2.452625 
0.1 1:0.23283398 2:-2.39575 
0.1 1:0.33852734 2:-1.579375 
0.1 1:0.33677148 2:-2.777375 
0.1 1:0.43819336 2:-6.483 
0.1 1:0.2265332 2:-1.9818125 
0.1 1:0.23301758 2:-2.77575 
0.1 1:0.26628711 2:-3.311375 
0.1 1:0.47086914 2:-2.552625 
0.1 1:0.35733008 2:-2.4945 
0.1 1:0.44328906 2:-1.86225 
0.1 1:0.30825586 2:-3.884125 
0.1 1:0.353 2:-2.7285 
0.1 1:0.34441992 2:-2.5821875 
0.1 1:0.30499609 2:-2.81075 
0.1 1:0.24638867 2:-2.7195625 
0.1 1:0.41318555 2:-4.2830625 
0.1 1:0.21296484 2:-1.6684375 
0.1 1:0.42250391 2:-2.2156875 
0.1 1:0.26945117 2:-2.346375 
0.1 1:0.32610547 2:-3.250875 
0.1 1:0.34706836 2:-4.571625 
0.1 1:0.46249414 2:-4.082 
0.1 1:0.53860547 2:-3.504 
0.1 1:0.31102734 2:-4.2288125 
0.1 1:0.37058984 2:-3.2365 
0.1 1:0.20431836 2:-1.3066875 
0.1 1:0.43891406 2:-2.859 
0.1 1:0.32032812 2:-4.418125 
0.1 1:0.46446094 2:-3.1174375 
0.1 1:0.37478516 2:-3.9449375 
0.1 1:0.34605078 2:-4.539 
0.1 1:0.44748633 2:-3.7504375 
0.1 1:0.22809766 2:-2.4148125 
0.1 1:0.37255469 2:-4.3179375 
0.1 1:0.26166016 2:-2.042 
0.1 1:0.25251367 2:-3.199625 
0.1 1:0.29399219 2:-2.9063125 
0.1 1:0.4058418 2:-3.4255 
0.1 1:0.32571484 2:-2.687 
0.1 1:0.36882227 2:-3.3408125 
0.1 1:0.25568945 2:-2.894875 
0.1 1:0.53393555 2:-3.7854375 
0.1 1:0.42650586 2:-1.8313125 
0.1 1:0.24608203 2:-2.3425625 
0.1 1:0.41775391 2:-2.2223125 
0.1 1:0.33288867 2:-4.261125 
0.1 1:0.38376562 2:-3.8575625 
0.1 1:0.37933789 2:-3.19475 
0.1 1:0.27089063 2:-2.5478125 
0.1 1:0.25674023 2:-4.3780625 
0.1 1:0.33810352 2:-4.35 
0.1 1:0.4534043 2:-3.5765625 
0.1 1:0.17047266 2:-2.255125 
0.1 1:0.32543164 2:-5.8575625 
0.03901256685131062 1:0.32834766 2:-1.8000625 
0.1 1:0.52543945 2:-1.5133125 
0.1 1:0.26674219 2:-3.784625 
0.1 1:0.31082422 2:-3.0363125 
0.1 1:0.28736133 2:-3.1313125 
0.1 1:0.42663086 2:-3.637125 
0.1 1:0.28710156 2:-3.6726875 
0.1 1:0.24403516 2:-3.33375 
0.1 1:0.30995313 2:-4.216375 
0.1 1:0.20203516 2:-1.9925 
0.1 1:0.27430469 2:-2.704875 
0.1 1:0.38346484 2:-2.8445 
0.1 1:0.38738477 2:-2.848625 
0.1 1:0.31504492 2:-5.0301875 
0.1 1:0.42405469 2:-2.2151875 
0.1 1:0.51979883 2:-1.8845625 
0.1 1:0.32591797 2:-3.0913125 
0.1 1:0.34125391 2:-1.1159375 
0.1 1:0.29425977 2:-3.531625 
0.1 1:0.2812207 2:-2.873125 
0.1 1:0.24593945 2:-2.1311875 
0.1 1:0.35154688 2:-4.05375 
0.07142271459278166 1:0.44778516 2:-2.7351875 
0.1 1:0.54441992 2:-4.3748125 
0.1 1:0.12336719 2:-2.2634375 
0.1 1:0.17296875 2:-1.639 
0.1 1:0.57900781 2:-2.849625 
0.1 1:0.32582227 2:-3.9795 
0.1 1:0.35726367 2:-4.68325 
0.1 1:0.36703125 2:-4.044 
0.1 1:0.29208203 2:-3.0359375 
0.1 1:0.35866016 2:-3.0785 
0.1 1:0.27773047 2:-3.5765625 
0.1 1:0.22897461 2:-3.203625 
0.1 1:0.29471289 2:-3.5785625 
0.1 1:0.29560352 2:-3.0410625 
0.1 1:0.27683008 2:-2.153625 
0.1 1:0.47579297 2:-3.768875 
0.1 1:0.39830078 2:-2.392625 
0.08343601847067456 1:0.34141797 2:-2.0791875 
0.1 1:0.33739062 2:-3.35425 
0.1 1:0.52434375 2:-2.0265 
0.1 1:0.28905078 2:-3.00425 
0.1 1:0.49211133 2:-2.1145 
0.1 1:0.37239258 2:-3.290125 
0.1 1:0.31274219 2:-3.13875 
0.1 1:0.29613086 2:-3.8143125 
0.1 1:0.47594336 2:-2.7745 
0.1 1:0.27545117 2:-3.180875 
0.1 1:0.39942773 2:-6.0199375 
0.1 1:0.44529687 2:-1.3795 
0.1 1:0.41696289 2:-3.655625 
0.1 1:0.32141992 2:-2.232125 
0.1 1:0.39460156 2:-2.5830625 
0.1 1:0.23672852 2:-2.6773125 
0.1 1:0.32716602 2:-2.767 
0.1 1:0.30773633 2:-3.180875 
0.1 1:0.41820312 2:-4.4476875 
0.1 1:0.47233984 2:-3.6100625 
0.08228500209628642 1:0.44310742 2:-3.224625 
0.1 1:0.24084375 2:-2.174125 
0.1 1:0.35717578 2:-3.3101875 
0.1 1:0.22896484 2:-3.422125 
0.1 1:0.21206055 2:-1.68725 
0.1 1:0.39318359 2:-3.0641875 
0.1 1:0.36907422 2:-4.377875 
0.1 1:0.54844922 2:-2.60875 
0.1 1:0.50880273 2:-2.163 
0.1 1:0.32132422 2:-3.2509375 
0.1 1:0.58155273 2:-2.5085 
0.1 1:0.48591406 2:-2.752 
0.1 1:0.30878516 2:-2.433625 
0.1 1:0.3324668 2:-3.562 
0.1 1:0.38302539 2:-3.317625 
0.1 1:0.33467969 2:-3.48525 
0.1 1:0.27303906 2:-3.471875 
0.1 1:0.18282422 2:-2.9845625 
0.1 1:0.52079102 2:-2.4798125 
0.1 1:0.45062109 2:-1.7868125 
0.1 1:0.50798047 2:-2.635 
0.1 1:0.33624805 2:-2.221875 
0.1 1:0.41620703 2:-3.46575 
0.1 1:0.43455859 2:-1.505125 
0.1 1:0.34212109 2:-3.7601875 
0.1 1:0.38345508 2:-2.8543125 
0.1 1:0.49512891 2:-1.64025 
0.1 1:0.32643555 2:-3.9843125 
0.1 1:0.34657227 2:-2.2581875 
0.1 1:0.4159707 2:-2.448625 
0.1 1:0.49329102 2:-2.5065625 
0.1 1:0.26388086 2:-2.4286875 
0.1 1:0.30484766 2:-2.807 
0.1 1:0.29772266 2:-2.9845 
0.1 1:0.49307031 2:-2.892875 
0.1 1:0.51006055 2:-1.950875 
0.1 1:0.31162891 2:-3.9908125 
0.1 1:0.31829297 2:-3.0553125 
0.1 1:0.33362305 2:-3.660375 
0.1 1:0.2080957 2:-1.8283125 
0.1 1:0.43245703 2:-6.32425 
0.1 1:0.22986133 2:-2.7025625 
0.1 1:0.42361328 2:-2.841875 
0.1 1:0.4467832 2:-4.06625 
0.1 1:0.36126172 2:-3.423875 
0.1 1:0.3836875 2:-4.3201875 
0.1 1:0.36358984 2:-4.906375 
0.1 1:0.1994082 2:-2.0345625 
0.1 1:0.22850586 2:-1.869875 
0.1 1:0.30292383 2:-2.5051875 
0.1 1:0.25369141 2:-3.0723125 
0.1 1:0.2792793 2:-4.419625 
0.1 1:0.22523437 2:-4.4809375 
0.1 1:0.24508984 2:-1.8170625 
0.1 1:0.29399805 2:-3.1081875 
0.1 1:0.25391211 2:-2.442625 
0.1 1:0.28305273 2:-2.2699375 
0.1 1:0.27932617 2:-4.1611875 
0.1 1:0.26952148 2:-1.5008125 
0.1 1:0.44163867 2:-4.752125 
0.1 1:0.33359961 2:-2.69725 
0.1 1:0.27570117 2:-2.78825 
0.1 1:0.27220703 2:-1.8994375 
0.1 1:0.42498437 2:-3.7625625 
0.1 1:0.38197852 2:-3.4344375 
0.1 1:0.25761328 2:-2.3586875 
0.1 1:0.45349219 2:-1.922625 
0.1 1:0.50985352 2:-2.284 
0.1 1:0.24311523 2:-2.8549375 
0.1 1:0.36006641 2:-3.2760625 
0.1 1:0.25060937 2:-5.4385 
0.03431385585890615 1:0.39201758 2:-3.277375 
0.05417850456465897 1:0.44503711 2:-3.56625 
0.1 1:0.65594141 2:-2.2291875 
0.1 1:0.33718359 2:-3.04075 
0.1 1:0.51713281 2:-3.2915625 
0.02832274680710279 1:0.39533203 2:-2.349875 
0.1 1:0.4066875 2:-5.1200625 
0.1 1:0.26153125 2:-3.40475 
0.1 1:0.34348047 2:-2.28275 
0.1 1:0.45833789 2:-3.199125 
0.1 1:0.32691016 2:-2.5905 
0.1 1:0.32730664 2:-4.8165625 
0.1 1:0.32287109 2:-2.40375 
0.1 1:0.31361914 2:-3.78425 
0.1 1:0.38394531 2:-3.999875 
0.1 1:0.37638477 2:-4.545875 
0.1 1:0.28655664 2:-3.3416875 
0.1 1:0.22565039 2:-2.6808125 
0.1 1:0.4495 2:-2.537375 
0.1 1:0.20806445 2:-2.2381875 
0.1 1:0.24961133 2:-3.538375 
0.1 1:0.36414062 2:-3.597 
0.1 1:0.54976758 2:-0.798875 
0.1 1:0.28090625 2:-1.948125 
0.1 1:0.31547266 2:-2.37125 
0.1 1:0.52864844 2:-2.0689375 
0.1 1:0.32152344 2:-4.0238125 
0.1 1:0.30707031 2:-1.776375 
0.1 1:0.29395313 2:-2.5784375 
0.1 1:0.42115039 2:-5.187125 
0.1 1:0.26811719 2:-3.05975 
0.1 1:0.36245508 2:-4.3391875 
0.1 1:0.42935742 2:-3.0300625 
0.1 1:0.25628516 2:-2.2579375 
0.1 1:0.32280273 2:-2.0461875 
0.1 1:0.33180469 2:-5.012375 
0.1 1:0.33852344 2:-3.2181875 
0.1 1:0.18727148 2:-2.3613125 
0.1 1:0.1862207 2:-1.8210625 
0.1 1:0.24247852 2:-2.04975 
0.1 1:0.47945508 2:-4.4569375 
0.1 1:0.33263867 2:-3.347125 
0.1 1:0.24601367 2:-2.191 
0.1 1:0.29455273 2:-1.8113125 
0.1 1:0.45496094 2:-4.1976875 
0.1 1:0.30219531 2:-2.524375 
0.1 1:0.2591543 2:-1.780875 
0.1 1:0.15948437 2:-2.029 
0.1 1:0.42260938 2:-4.761125 
0.1 1:0.23285156 2:-2.8511875 
0.1 1:0.2439375 2:-3.4745625 
0.1 1:0.38264258 2:-2.117875 
0.1 1:0.25717773 2:-2.1083125 
0.1 1:0.25153516 2:-2.034125 
0.1 1:0.27891211 2:-4.927 
0.1 1:0.44528125 2:-3.1585 
0.1 1:0.2563418 2:-2.9838125 
0.1 1:0.39503906 2:-4.05675 
0.1 1:0.2550293 2:-2.693875 
0.1 1:0.21819531 2:-2.891375 
0.1 1:0.31919531 2:-2.3588125 
0.1 1:0.46001953 2:-3.562375 
0.1 1:0.33024219 2:-3.121625 
0.1 1:0.31608789 2:-2.0230625 
0.1 1:0.22754492 2:-2.5660625 
0.1 1:0.37928906 2:-3.4013125 
0.1 1:0.33908984 2:-2.6120625 
-0.1 1:0.26292969 2:-2.64375 
-0.1 1:0.13750977 2:-3.2733125 
-0.1 1:0.21135742 2:-2.489 
-0.1 1:0.081677734 2:-1.615 
-0.1 1:0.25425781 2:-3.375125 
-0.1 1:0.15073828 2:-3.9104375 
-0.1 1:0.29617773 2:-2.55825 
-0.1 1:0.27573242 2:-2.024875 
-0.1 1:0.33609961 2:-3.7926875 
-0.1 1:0.45618164 2:-6.5829375 
-0.001869912518536757 1:0.11834375 2:-2.6625 
-0.01063438527764859 1:0.34460352 2:-4.310625 
-0.1 1:0.27708008 2:-6.11525 
-0.1 1:0.32594336 2:-3.5015 
-0.1 1:0.10792188 2:-2.571 
-0.1 1:0.45689844 2:-4.434625 
-0.086924512537654 1:0.36935156 2:-4.7301875 
-0.03510962693859931 1:0.17953516 2:-3.5239375 
-0.03550218600836095 1:0.32768555 2:-5.0791875 
-0.1 1:0.25279492 2:-3.1105 
-0.1 1:0.32357812 2:-3.277 
-0.05472277117511348 1:0.36293945 2:-4.72275 
-0.009467039494670471 1:0.2393457 2:-4.0664375 
-0.1 1:0.17704492 2:-3.367875 
-0.1 1:0.088917969 2:-0.41075 
-0.1 1:0.38054102 2:-4.196375 
-0.04249774103778381 1:0.41373437 2:-5.745875 
-0.1 1:0.24451562 2:-2.5500625 
-0.1 1:0.22633984 2:-2.71225 
-0.1 1:0.40533789 2:-6.4565 
-0.03857248201686221 1:0.31817187 2:-5.0755625 
-0.1 1:0.27103711 2:-3.3648125 
-0.1 1:0.20248633 2:-1.470125 
-0.1 1:0.21107031 2:-2.5110625 
-0.01179107393581822 1:0.28872656 2:-4.489375 
-0.06662400168279309 1:0.30620117 2:-4.9893125 
-0.1 1:0.23816016 2:-3.161375 
-0.1 1:0.20646875 2:-2.1166875 
-0.009090432021359514 1:0.35206836 2:-4.7219375 
-0.1 1:0.37414063 2:-4.146625 
-0.1 1:0.44216406 2:-4.5275 
-0.003373505441654486 1:0.309625 2:-4.95275 
-0.1 1:0.38049805 2:-4.2808125 
-0.04013325923167417 1:0.20630469 2:-3.6949375 
-0.1 1:0.29157422 2:-3.5221875 
-0.02713637024955521 1:0.32921094 2:-5.0735625 
-0.1 1:0.28529688 2:-4.429 
-0.1 1:0.3785957 2:-3.982125 
-0.1 1:0.24226758 2:-5.4451875 
-0.1 1:0.38328516 2:-4.62175 
-0.1 1:0.28290039 2:-3.3270625 
-0.1 1:0.29498828 2:-3.6255 
-0.1 1:0.18350195 2:-2.1923125 
-0.1 1:0.43591602 2:-5.860375 
-0.0270886820450142 1:0.31799219 2:-3.949 
-0.1 1:0.42146484 2:-5.1829375 
-0.003824796636041407 1:0.14148828 2:-3.1513125 
-0.1 1:0.30638672 2:-3.60425 
-0.1 1:0.21367187 2:-5.067625 
-0.08033032499444087 1:0.41813477 2:-4.671875 
-0.1 1:0.29561328 2:-3.4695625 
-0.05085068495431035 1:0.30451758 2:-4.920125 
-0.1 1:0.28626953 2:-2.63325 
-0.04135899815341964 1:0.33241016 2:-4.583 
-0.03702397741484613 1:0.28477148 2:-4.239375 
-0.1 1:0.20256055 2:-1.8050625 
-0.1 1:0.28405273 2:-2.7609375 
-0.1 1:0.068048828 2:-0.315 
-0.1 1:0.30611523 2:-2.9101875 
-0.1 1:0.30327344 2:-3.6006875 
-0.1 1:0.21907617 2:-2.309 
-0.1 1:0.38253711 2:-4.640375 
-0.1 1:0.38961328 2:-2.5674375 
-0.1 1:0.25565625 2:-1.4544375 
-0.02024245246478491 1:0.15527148 2:-3.574 
-0.01654767537065503 1:0.24172656 2:-0.6289375 
-0.1 1:0.17983789 2:-2.21075 
-0.1 1:0.32116602 2:-1.6766875 
-0.1 1:0.44980664 2:-3.9481875 
-0.04679577305362753 1:0.17485547 2:-4.1879375 
-0.1 1:0.24810742 2:-2.2230625 
-0.1 1:0.074298828 2:-1.0331875 
-0.09354789499666719 1:0.24185742 2:-3.9803125 
-0.1 1:0.35011133 2:-4.5961875 
-0.1 1:0.19193359 2:-1.929375 
-0.1 1:0.41708984 2:-7.1114375 
-0.1 1:0.32398242 2:-3.5039375 
-0.1 1:0.20130273 2:-2.4938125 
-0.04020193294855858 1:0.23418945 2:-3.1060625 
-0.1 1:0.47258203 2:-5.1478125 
-0.007129848372424077 1:0.27598633 2:-4.2910625 
-0.04124809867340475 1:0.21278516 2:-3.721375 
-0.1 1:0.23117383 2:-1.6263125 
-0.1 1:0.36822461 2:-3.207625 
-0.1 1:0.27883984 2:-3.5875625 
-0.1 1:0.28976953 2:-3.163375 
-0.1 1:0.33098047 2:-2.8483125 
-0.1 1:0.32233594 2:-3.5528125 
-0.06747614269928898 1:0.24395898 2:-0.680875 
-0.1 1:0.34348242 2:-3.792 
-0.1 1:0.22143555 2:-0.4406875 
-0.1 1:0.30372656 2:-3.7325 
-0.1 1:0.27022461 2:-3.434875 
-0.1 1:0.37456445 2:-3.8265 
-0.1 1:0.1423125 2:-3.2208125 
-0.1 1:0.29859766 2:-3.285875 
-0.1 1:0.36369141 2:-2.1930625 
-0.1 1:0.25544727 2:-3.8409375 
-0.06755776228545035 1:0.097283203 2:-2.3428125 
-0.1 1:0.24243945 2:-2.4279375 
-0.1 1:0.34318555 2:-4.044125 
-0.1 1:0.41662305 2:-5.1686875 
-0.09336381424351116 1:0.3435332 2:-5.4168125 
-0.1 1:0.1959375 2:-2.11625 
-0.1 1:0.082671875 2:-0.6861875 
-0.1 1:0.25462695 2:-3.4156875 
-0.1 1:0.24896289 2:-5.6844375 
-0.1 1:0.25451758 2:-1.7416875 
-0.1 1:0.20666406 2:-3.6920625 
-0.1 1:0.37288086 2:-4.37825 
-0.1 1:0.41108008 2:-4.3343125 
-0.1 1:0.38552344 2:-4.6464375 
-0.1 1:0.27303906 2:-3.137875 
-0.1 1:0.27030078 2:-1.6701875 
-0.1 1:0.41430469 2:-6.158625 
-0.1 1:0.42868164 2:-3.7133125 
-0.1 1:0.48124219 2:-4.2619375 
-0.1 1:0.33954297 2:-2.632375 
-0.1 1:0.37275586 2:-7.081375 
-0.1 1:0.3979668 2:-6.434375 
-0.1 1:0.32633594 2:-3.9435 
-0.1 1:0.26051563 2:-3.0916875 
-0.1 1:0.39812109 2:-4.224375 
-0.1 1:0.49560547 2:-4.876 
-0.1 1:0.30668164 2:-3.5968125 
-0.1 1:0.35044531 2:-4.216 
-0.08874470570494944 1:0.089236328 2:-0.6251875 
-0.1 1:0.34413281 2:-2.960375 
-0.1 1:0.19316602 2:-1.945125 
-0.1 1:0.18532422 2:-1.690875 
-0.1 1:0.32289844 2:-3.9433125 
-0.1 1:0.33358984 2:-2.0735 
-0.005675225649115065 1:0.32199023 2:-4.8565 
-0.1 1:0.18991211 2:-4.3025 
-0.1 1:0.22320313 2:-2.806375 
-0.1 1:0.1092793 2:-0.1195 
-0.1 1:0.2047832 2:-4.6410625 
-0.1 1:0.2628418 2:-2.9529375 
-0.02056172278754562 1:0.088027344 2:-1.490625 
-0.08689080676398021 1:0.40919141 2:-6.5406875 
-0.1 1:0.12451758 2:-2.9953125 
-0.1 1:0.22959961 2:-2.5274375 
-0.08878156546224512 1:0.31189453 2:-5.001625 
-0.1 1:0.28302148 2:-3.572375 
-0.1 1:0.42158008 2:-4.9910625 
-0.1 1:0.30995703 2:-2.99925 
-0.1 1:0.33678711 2:-3.9640625 
-0.1 1:0.4310957 2:-3.0286875 
-0.1 1:0.13378516 2:-3.048875 
-0.004556905332885901 1:0.2627793 2:-5.64825 
-0.1 1:0.22383594 2:-2.1114375 
-0.1 1:0.25189063 2:-3.2545 
-0.1 1:0.077263672 2:-1.0995 
-0.1 1:0.30793359 2:-6.8123125 
-0.1 1:0.23298633 2:-2.002375 
-0.1 1:0.43238867 2:-2.8535625 
-0.1 1:0.29736914 2:-3.4948125 
-0.03168349414429404 1:0.36618555 2:-6.76 
-0.1 1:0.23966797 2:-3.09075 
-0.003925922913874211 1:0.36661328 2:-6.022 
-0.05048480156915843 1:0.21464844 2:-5.0144375 
-0.1 1:0.24664258 2:-2.0425625 
-0.1 1:0.44727148 2:-5.6630625 
-0.1 1:0.11510742 2:-2.670625 
-0.1 1:0.20280859 2:-4.48875 
-0.1 1:0.3421875 2:-3.4231875 
-0.1 1:0.19296289 2:-2.1853125 
-0.1 1:0.27411523 2:-3.071875 
-0.1 1:0.2723418 2:-3.8523125 
-0.1 1:0.38985547 2:-3.799625 
-0.1 1:0.45111328 2:-4.638 
-0.1 1:0.28808594 2:-2.365375 
-0.1 1:0.19938086 2:-4.527 
-0.1 1:0.42489258 2:-5.367 
-0.1 1:0.28254102 2:-2.7315 
-0.09310046744312243 1:0.27195508 2:-4.1985625 
-0.01458659489399896 1:0.38785547 2:-6.0408125 
-0.1 1:0.35527734 2:-2.8031875 
-0.1 1:0.39397461 2:-3.8175 
-0.08931957226561416 1:0.34402344 2:-5.874 
-0.1 1:0.34483398 2:-3.801125 
-0.1 1:0.18063281 2:-1.7966875 
-0.1 1:0.33538281 2:-3.271875 
-0.06438844540228177 1:0.21219141 2:-4.848875 
-0.1 1:0.080568359 2:-0.575125 
-0.1 1:0.19609766 2:-1.8271875 
-0.1 1:0.046820312 2:-0.9586875 
-0.1 1:0.23354297 2:-3.1538125 
-0.06645840536734005 1:0.1933457 2:-2.478125 
-0.1 1:0.25854297 2:-1.9469375 
-0.1 1:0.22491602 2:-2.3835 
-0.1 1:0.27269141 2:-2.4061875 
-0.1 1:0.23831445 2:-5.6046875 
-0.1 1:0.087685547 2:-0.4531875 
-0.1 1:0.2519707 2:-2.6255625 
-0.1 1:0.369375 2:-4.5480625 
-0.0511158125743972 1:0.34061719 2:-4.7765625 
-0.05720220518809982 1:0.34291602 2:-5.659125 
-0.04607977138581202 1:0.33296875 2:-5.5289375 
-0.1 1:0.32814648 2:-4.10025 
-0.1 1:0.29636133 2:-3.4575 
-0.1 1:0.39553906 2:-4.077875 
-0.05193590068891737 1:0.35883984 2:-5.7729375 
-0.1 1:0.28992578 2:-2.24675 
-0.1 1:0.46754492 2:-5.648125 
-0.07050502285840209 1:0.41826953 2:-5.916375 
-0.1 1:0.24696484 2:-2.446625 
-0.1 1:0.28633789 2:-3.591 
-0.03176759099039701 1:0.2874082 2:-4.2813125 
-0.1 1:0.40599219 2:-2.685625 
-0.05573927686823957 1:0.30757422 2:-4.07725 
-0.1 1:0.30981836 2:-2.747 
-0.02847611919970368 1:0.21780273 2:-2.6044375 
-0.01135345978045546 1:0.1969668 2:-4.3445625 
-0.1 1:0.18408398 2:-1.84125 
-0.1 1:0.39202148 2:-4.8614375 
-0.1 1:0.29430664 2:-3.5336875 
-0.01588829039483007 1:0.27854297 2:-5.9966875 
-0.06809779046271368 1:0.24900586 2:-5.3428125 
-0.006128692107232339 1:0.2641543 2:-3.894125 
-0.03394243597398262 1:0.37595117 2:-6.845625 
-0.1 1:0.32016211 2:-4.0165625 
-0.1 1:0.25445313 2:-3.2235625 
-0.05751708567220203 1:0.1992207 2:-4.415625 
-0.1 1:0.20847656 2:-2.4965625 
-0.1 1:0.27479297 2:-3.251625 
-0.04346714474213312 1:0.089660156 2:-0.3435 
-0.1 1:0.31816797 2:-3.9778125 
-0.1 1:0.25547266 2:-3.1161875 
-0.1 1:0.35899219 2:-4.406625 
-0.1 1:0.26800977 2:-2.4195 
-0.04989474696814136 1:0.23321484 2:-5.1535625 
-0.1 1:0.25085156 2:-0.6616875 
-0.04166426206567581 1:0.28427539 2:-6.015875 
-0.1 1:0.22306445 2:-2.1304375 
-0.1 1:0.26711914 2:-3.2993125 
-0.1 1:0.093445313 2:-1.990875 
-0.1 1:0.48716016 2:-4.86025 
-0.1 1:0.44730469 2:-5.969375 
-0.08684417457495677 1:0.29255078 2:-4.3645 
-0.1 1:0.30953711 2:-4.07725 
-0.1 1:0.24884961 2:-0.97475 
-0.1 1:0.26649414 2:-2.323875 
-0.1 1:0.4509043 2:-6.5925625 
-0.1 1:0.26213867 2:-2.9094375 
-0.1 1:0.40074023 2:-6.8451875 
-0.09311099478800262 1:0.41386719 2:-5.3438125 
-0.1 1:0.22991602 2:-5.1326875 
-0.1 1:0.21329492 2:-2.4545 
-0.1 1:0.39804688 2:-4.837375 
-0.1 1:0.28832227 2:-3.2866875 
-0.1 1:0.28108203 2:-3.5603125 
-0.1 1:0.28070703 2:-3.386625 
-0.1 1:0.23394336 2:-2.904 
-0.1 1:0.44413086 2:-5.4968125 
-0.1 1:0.1732793 2:-3.3630625 
-0.1 1:0.40190039 2:-4.0061875 
-0.1 1:0.20046875 2:-2.5005 
-0.1 1:0.2102168 2:-2.0330625 
-0.1 1:0.42876367 2:-5.30325 
-0.05769440584007179 1:0.17953711 2:-3.50825 
-0.1 1:0.35157227 2:-1.6589375 
-0.1 1:0.32399805 2:-3.6455625 
-0.1 1:0.29769922 2:-3.3219375 
-0.1 1:0.23229883 2:-2.5465625 
-0.05378025189854927 1:0.31373047 2:-4.525875 
-0.1 1:0.19995117 2:-4.736 
-0.1 1:0.18168164 2:-1.866875 
-0.006631198793821115 1:0.30953906 2:-4.6729375 
-0.1 1:0.4074082 2:-3.9875 
-0.1 1:0.1427832 2:-3.6198125 
-0.1 1:0.24685352 2:-3.0428125 
-0.006412527618384145 1:0.29102344 2:-4.49575 
-0.05826895408577738 1:0.089394531 2:-0.407625 
-0.1 1:0.41378516 2:-2.7640625 
-0.02109700126437463 1:0.29016016 2:-4.3633125 
-0.1 1:0.24451758 2:-2.7610625 
-0.03080969574047212 1:0.17457617 2:-0.277875 
-0.1 1:0.19188281 2:-2.0279375 
-0.1 1:0.34156445 2:-3.5378125 
-0.1 1:0.38608594 2:-4.26 
-0.1 1:0.10803516 2:-0.1565625 
-0.09450304077841858 1:0.098121094 2:-1.977625 
-0.1 1:0.49851172 2:-4.012375 
-0.042498724864346 1:0.33244727 2:-5.4505 
-0.1 1:0.30048633 2:-3.50575 
-0.1 1:0.18665039 2:-4.4296875 
-0.1 1:0.25205078 2:-2.93175 
-0.02974598651938175 1:0.20321094 2:-4.504 
-0.1 1:0.47209961 2:-4.102375 
-0.0116343458376548 1:0.28778516 2:-4.2623125 
-0.1 1:0.27455664 2:-1.5620625 
-0.1 1:0.38399414 2:-3.8518125 
-0.1 1:0.37522461 2:-4.0751875 
-0.1 1:0.26879883 2:-3.4326875 
-0.06252938742299385 1:0.35661523 2:-5.604375 
-0.1 1:0.24193164 2:-3.122625 
-0.1 1:0.46312695 2:-4.068625 
-0.09886824030654151 1:0.34460547 2:-4.783125 
-0.1 1:0.26012891 2:-0.84825 
-0.1 1:0.20155859 2:-2.3331875 
-0.007083905269357964 1:0.097117188 2:-0.2763125 
-0.09352417916428714 1:0.32649414 2:-4.8268125 
-0.1 1:0.3052793 2:-3.3136875 
-0.1 1:0.26678516 2:-2.513375 
-0.1 1:0.27480078 2:-3.3963125 
-0.1 1:0.48145117 2:-3.388 
-0.1 1:0.1951543 2:-2.4258125 
-0.1 1:0.18249023 2:-1.704875 
-0.1 1:0.27866992 2:-3.1021875 
-0.07058281894738404 1:0.21717383 2:-4.7938125 
-0.04837773363965411 1:0.077703125 2:-1.7349375 
-0.1 1:0.32277539 2:-3.7033125 
-0.1 1:0.21851953 2:-2.33275 
-0.1 1:0.34680664 2:-2.6586875 
-0.1 1:0.26537109 2:-3.0890625 
-0.1 1:0.27839453 2:-2.256625 
-0.0194535071566453 1:0.34298242 2:-4.6171875 
-0.1 1:0.29499023 2:-2.921 
-0.1 1:0.2595918 2:-3.181375 
-0.1 1:0.2646582 2:-3.4330625 
-0.1 1:0.26123828 2:-4.1660625 
-0.1 1:0.37445117 2:-4.3005625 
-0.1 1:0.43250195 2:-4.395375 
-0.1 1:0.30803125 2:-3.0019375 
-0.02925666997664042 1:0.18212695 2:-3.46125 
-0.1 1:0.27666992 2:-2.86875 
-0.03378017444661992 1:0.32344922 2:-5.2779375 
-0.1 1:0.20280469 2:-1.346875 
-0.06395943872001376 1:0.23359961 2:-3.19325 
-0.1 1:0.30339062 2:-3.2913125 
-0.1 1:0.41063281 2:-3.0335 
-0.1 1:0.19752148 2:-2.3913125 
-0.1 1:0.31746484 2:-3.2116875 
-0.02020263656790308 1:0.26067187 2:-3.8223125 
-0.0151975932517541 1:0.084816406 2:-1.8560625 
-0.1 1:0.24236328 2:-2.9716875 
-0.1 1:0.41241016 2:-5.256375 
-0.04702108341413761 1:0.15552148 2:-3.5993125 
-0.1 1:0.25639453 2:-2.3706875 
-0.003012442383204316 1:0.23701172 2:-3.993 
-0.1 1:0.26342969 2:-3.8723125 
-0.1 1:0.32717578 2:-3.737625 
-0.1 1:0.30999805 2:-3.1918125 
-0.1 1:0.38616211 2:-3.214625 
-0.1 1:0.42748242 2:-5.4629375 
-0.1 1:0.39655859 2:-4.51775 
-0.01969558176563983 1:0.090445312 2:-1.3025 
-0.1 1:0.33252148 2:-2.671125 
-0.1 1:0.3371582 2:-3.8149375 
-0.04780156810966003 1:0.15538281 2:-0.9361875 
-0.1 1:0.47303906 2:-4.5331875 
-0.01340675981656624 1:0.27646094 2:-4.252875 
-0.1 1:0.24695898 2:-2.8726875 
-0.1 1:0.40966797 2:-3.993875 
-0.009285822764609212 1:0.41975 2:-5.11875 
-0.1 1:0.24426367 2:-5.466 
-0.06209327431608676 1:0.29107422 2:-4.6368125 
-0.1 1:0.38183594 2:-2.5176875 
-0.1 1:0.39603125 2:-4.306 
-0.049795592079481 1:0.28741406 2:-4.3654375 
-0.002887815546400817 1:0.19939453 2:-4.548 
-0.02592867968373492 1:0.31873438 2:-5.045375 
-0.1 1:0.067253906 2:-1.4940625 
-0.1 1:0.073650391 2:-1.0048125 
-0.1 1:0.20186328 2:-1.2709375 
-0.1 1:0.33418555 2:-2.956375 
-0.1 1:0.27775586 2:-1.43175 
-0.005286732069860884 1:0.35023242 2:-5.6015 
-0.1 1:0.34370508 2:-6.6133125 
-0.1 1:0.32547656 2:-3.5169375 
-0.1 1:0.29193555 2:-4.3520625 
-0.08594139959107275 1:0.12846289 2:-2.95275 
-0.1 1:0.27304883 2:-2.7235625 
-0.0270499012349708 1:0.20575391 2:-4.6519375 
-0.1 1:0.33603906 2:-3.70375 
-0.1 1:0.31619727 2:-6.3761875 
-0.1 1:0.31945313 2:-3.7214375 
-0.1 1:0.32033984 2:-3.4545625 
-0.03952753800750776 1:0.16965039 2:-0.768625 
-0.1 1:0.30881055 2:-3.461625 
-0.1 1:0.3218125 2:-4.0596875 
-0.1 1:0.35455664 2:-3.95475 
-0.1 1:0.48474609 2:-6.674125 
-0.1 1:0.25313672 2:-2.7315 
-0.1 1:0.35265234 2:-4.1054375 
-0.07279835328341581 1:0.26517773 2:-5.7705 
-0.1 1:0.30438672 2:-2.5859375 
-0.1 1:0.38444141 2:-4.484 
-0.1 1:0.18447266 2:-3.474625 
-0.1 1:0.23367578 2:-2.1321875 
-0.0006343260180827711 1:0.31249219 2:-4.5206875 
-0.1 1:0.32651172 2:-2.089 
-0.1 1:0.089603516 2:-0.2883125 
-0.1 1:0.26663086 2:-3.441375 
-0.01027220262069096 1:0.28458594 2:-6.0638125 
-0.1 1:0.16332227 2:-0.216 
-0.1 1:0.32626953 2:-3.5511875 
-0.1 1:0.32821484 2:-3.377375 
-0.009793363905472037 1:0.38733984 2:-6.4479375 
-0.1 1:0.29119141 2:-3.1743125 
-0.1 1:0.30962891 2:-2.9985 
-0.1 1:0.27466602 2:-6.4654375 
-0.1 1:0.36500586 2:-4.0619375 
-0.1 1:0.21820898 2:-2.6646875 
-0.1 1:0.26881055 2:-3.0364375 
-0.07073414827191946 1:0.31258008 2:-5.162375 
-0.1 1:0.29311328 2:-4.3414375 
-0.07459252988280032 1:0.15018359 2:-0.1978125 
-0.1 1:0.24942188 2:-1.6803125 
-0.1 1:0.33792773 2:-3.1846875 
-0.1 1:0.12804883 2:-2.8983125 
-0.1 1:0.27471484 2:-2.5206875 
-0.1 1:0.31943359 2:-2.8864375 
-0.1 1:0.36882813 2:-4.353 
-0.1 1:0.40943945 2:-2.8265625 
-0.02633965258042105 1:0.39028711 2:-4.6720625 
-0.002113270462563041 1:0.35910352 2:-6.03025 
-0.1 1:0.38944922 2:-2.8925625 
-0.1 1:0.46185352 2:-4.74475 
-0.1 1:0.47537305 2:-4.7585 
-0.1 1:0.39789844 2:-2.9333125 
-0.1 1:0.33693945 2:-3.259875 
-0.1 1:0.17793555 2:-1.9318125 
-0.1 1:0.29567383 2:-3.2821875 
-0.06146357073738431 1:0.34186523 2:-5.8350625 
-0.1 1:0.21675781 2:-2.693 
-0.03854730856829117 1:0.34221484 2:-5.6703125 
-0.08593541918419549 1:0.32640039 2:-3.9146875 
-0.04708137303238646 1:0.23095117 2:-0.7899375 
-0.1 1:0.20922266 2:-2.4875625 
-0.1 1:0.067634766 2:-1.410875 
-0.1 1:0.18048437 2:-4.2701875 
-0.1 1:0.46189453 2:-4.7460625 
-0.1 1:0.43398242 2:-2.614875 
-0.1 1:0.21485938 2:-2.81125 
-0.005647708520363147 1:0.11469336 2:-1.1860625 
-0.1 1:0.32683008 2:-4.0153125 
-0.1 1:0.25320117 2:-3.239875 
-0.1 1:0.31878516 2:-2.9740625 
-0.001844821087292434 1:0.34923437 2:-6.008875 
-0.1 1:0.28401758 2:-3.2515625 
-0.1 1:0.27514453 2:-3.4434375 
-0.1 1:0.63630273 2:-3.811125 
-0.02282354264695071 1:0.15819336 2:-0.981875 
-0.1 1:0.35747656 2:-4.5548125 
-0.1 1:0.24682813 2:-3.020875 
-0.1 1:0.32062891 2:-3.608625 
-0.1 1:0.18941211 2:-4.615375 
-0.02740197873194968 1:0.41253516 2:-4.57525 
-0.0637125312339558 1:0.28174219 2:-4.3183125 
-0.1 1:0.26848047 2:-2.389375 
-0.1 1:0.26035937 2:-1.318125 
-0.1 1:0.43492188 2:-5.8491875 
-0.1 1:0.48122461 2:-4.6288125 
-0.08817938063653361 1:0.31470898 2:-5.022375 
-0.1 1:0.34039258 2:-4.108125 
-0.05497737950431038 1:0.16407031 2:-0.9909375 
-0.1 1:0.12785937 2:-3.4310625 
-0.06472871192040977 1:0.2504668 2:-3.255625 
-0.1 1:0.36439648 2:-3.8094375 
-0.0006984128566970559 1:0.17469141 2:-2.1999375 
-0.1 1:0.27933008 2:-2.861125 
-0.1 1:0.4214043 2:-5.82125 
-0.1 1:0.365375 2:-2.8435 
-0.1 1:0.24000195 2:-3.0318125 
-0.1 1:0.24764258 2:-2.31925 
-0.1 1:0.26615234 2:-6.0169375 
-0.1 1:0.11232422 2:-2.5880625 
-0.03189355587022909 1:0.19722656 2:-4.386625 
-0.1 1:0.20885547 2:-2.3333125 
-0.07674331626958503 1:0.27525195 2:-4.4076875 
-0.1 1:0.35423242 2:-3.837 
-0.1 1:0.33487109 2:-3.044875 
-0.0651375433585578 1:0.2536543 2:-5.4265 
-0.1 1:0.37672852 2:-2.83925 
-0.1 1:0.35437891 2:-3.67175 
-0.05675768797305467 1:0.12012305 2:-2.803 
-0.1 1:0.37932617 2:-3.9695 
-0.03711895342039492 1:0.28167578 2:-4.304125 
-0.1 1:0.31408984 2:-5.2239375 
-0.1 1:0.3456543 2:-3.2239375 
-0.1 1:0.23958398 2:-2.7159375 
-0.06225302967027083 1:0.18112891 2:-2.400875 
-0.1 1:0.27832031 2:-3.4939375 
-0.1 1:0.28611328 2:-4.2628125 
-0.02409392303316679 1:0.31773438 2:-5.2178125 
-0.0618869566347698 1:0.2986543 2:-4.975125 
-0.08061311327600293 1:0.27363086 2:-4.206625 
-0.1 1:0.18776562 2:-4.5545625 
-0.1 1:0.30008594 2:-3.7301875 
-0.09752588194883915 1:0.093222656 2:-0.914125 
-0.1 1:0.18467578 2:-2.040125 
-0.003181981632327441 1:0.34478125 2:-5.5698125 
-0.02726088928956393 1:0.35895703 2:-6.632125 
-0.1 1:0.19375391 2:-2.2433125 
-0.1 1:0.36560547 2:-4.0115625 
-0.1 1:0.25330078 2:-2.620125 
-0.1 1:0.33480664 2:-2.5214375 
-0.1 1:0.28741406 2:-6.508375 
-0.1 1:0.28336523 2:-4.2206875 
-0.04199338178542571 1:0.084939453 2:-1.6044375 
-0.003273582764340275 1:0.15857227 2:-0.69325 
-0.01590088023330955 1:0.33986133 2:-5.56675 
-0.1 1:0.25077539 2:-1.1349375 
-0.1 1:0.30384375 2:-4.66825 
-0.1 1:0.18490625 2:-4.305 
-0.1 1:0.24325195 2:-0.4575625 
-0.1 1:0.1989707 2:-1.7538125 
-0.1 1:0.2531543 2:-3.0548125 
-0.1 1:0.33355664 2:-3.210625 
-0.1 1:0.19689648 2:-1.5423125 
-0.08717790137062884 1:0.31535937 2:-4.855125 
-0.005560842509905668 1:0.16481641 2:-0.7265625 
-0.1 1:0.18241406 2:-1.7259375 
-0.1 1:0.32364258 2:-0.9266875 
-0.1 1:0.34135156 2:-3.9849375 
-0.1 1:0.32971875 2:-3.6864375 
-0.1 1:0.30330469 2:-2.7196875 
-0.1 1:0.37650977 2:-3.31375 
-0.07834830257974411 1:0.32580078 2:-5.342 
-0.1 1:0.15420898 2:-1.619875 
-0.1 1:0.138125 2:-3.5304375 
-0.1 1:0.31178516 2:-2.6841875 
-0.1 1:0.1371543 2:-3.1536875 
-0.1 1:0.40245898 2:-4.9370625 
-0.1 1:0.33538672 2:-3.9215625 
-0.1 1:0.31093164 2:-4.075 
-0.05979824377955879 1:0.30993359 2:-5.042375 
-0.1 1:0.41219531 2:-7.08375 
-0.1 1:0.43701758 2:-4.488375 
-0.1 1:0.26586328 2:-1.8378125 
-0.1 1:0.089224609 2:-2.2149375 
-0.1 1:0.35457227 2:-3.133 
-0.09144083956728513 1:0.17305469 2:-1.5033125 
-0.1 1:0.35983789 2:-4.137 
-0.1 1:0.33836133 2:-3.841 
-0.1 1:0.30739453 2:-6.3014375 
-0.1 1:0.40119336 2:-7.3266875 
-0.1 1:0.2320293 2:-1.118875 
-0.1 1:0.30963086 2:-2.8083125 
-0.1 1:0.43064648 2:-5.9849375 
-0.01885922908555515 1:0.25285937 2:-4.1435625 
-0.1 1:0.076640625 2:-0.559 
-0.1 1:0.33401758 2:-3.5395 
-0.1 1:0.34435742 2:-4.3355625 
-0.1 1:0.34258594 2:-4.0031875 
-0.1 1:0.31787891 2:-2.8479375 
-0.1 1:0.2994707 2:-3.6604375 
-0.1 1:0.29933008 2:-3.1620625 
-0.1 1:0.31813086 2:-3.305625 
-0.1 1:0.096158203 2:-2.4403125 
-0.1 1:0.22541211 2:-5.2675 
-0.1 1:0.17179883 2:-4.12625 
-0.1 1:0.24110547 2:-0.6 
-0.03504985385128493 1:0.16712305 2:-0.8416875 
-0.007108283472412777 1:0.33728711 2:-5.5165625 
-0.1 1:0.41069727 2:-6.33175 
-0.1 1:0.26810547 2:-6.101125 
-0.1 1:0.31239258 2:-3.335375 
-0.1 1:0.41519336 2:-4.189625 
-0.1 1:0.4300293 2:-5.5360625 
-0.1 1:0.17107227 2:-1.879375 
-0.1 1:0.28838281 2:-3.5944375 
-0.1 1:0.094105469 2:-1.25525 
-0.1 1:0.23852734 2:-3.167 
-0.1 1:0.35771094 2:-4.2160625 
-0.1 1:0.21647656 2:-1.9361875 
-0.1 1:0.30742383 2:-3.268875 
-0.08335835801460416 1:0.26087305 2:-4.1783125 
-0.1 1:0.34244141 2:-3.0976875 
-0.1 1:0.25874023 2:-3.8271875 
-0.1 1:0.33104102 2:-2.396 
-0.1 1:0.43435742 2:-3.4658125 
-0.09054435643837157 1:0.28879688 2:-4.4715 
-0.1 1:0.40545312 2:-6.2274375 
-0.1 1:0.47109961 2:-4.566125 
-0.1 1:0.16263281 2:-4.21425 
-0.1 1:0.19974219 2:-2.46175 
-0.1 1:0.31439063 2:-1.372 
-0.1 1:0.22798828 2:-2.3349375 
-0.1 1:0.30717578 2:-3.554125 
-0.1 1:0.51403125 2:-6.2425 
-0.1 1:0.25332031 2:-3.16875 
-0.1 1:0.25099805 2:-3.2134375 
-0.1 1:0.16039453 2:-3.9334375 
-0.1 1:0.45595703 2:-5.719625 
-0.1 1:0.25750977 2:-2.2086875 
-0.1 1:0.161875 2:-1.8429375 
-0.1 1:0.41732812 2:-3.825625 
-0.1 1:0.22599609 2:-5.2086875 
-0.1 1:0.12781641 2:-3.3241875 
-0.1 1:0.14578711 2:-2.0193125 
-0.1 1:0.31158398 2:-5.0321875 
-0.0962177821577385 1:0.23692383 2:-5.2616875 
-0.1 1:0.16586328 2:-4.110875 
-0.009665518120133224 1:0.27689648 2:-4.442125 
-0.1 1:0.31657031 2:-3.592375 
-0.1 1:0.33880469 2:-3.9513125 
-0.1 1:0.35208398 2:-2.5773125 
-0.1 1:0.33055078 2:-3.4485 
-0.1 1:0.33725781 2:-3.869 
-0.1 1:0.29839258 2:-3.6773125 
-0.1 1:0.24679883 2:-3.1264375 
-0.1 1:0.45636133 2:-5.3300625 
-0.1 1:0.077960938 2:-0.51175 
-0.1 1:0.40826563 2:-3.8423125 
-0.1 1:0.45973828 2:-3.94875 
-0.1 1:0.43663086 2:-4.5245 
-0.1 1:0.37324023 2:-3.38975 
-0.1 1:0.25545898 2:-3.367125 
-0.04913021035293437 1:0.33002344 2:-4.5489375 
-0.01971244386368002 1:0.41218555 2:-5.1688125 
-0.01998915244909748 1:0.11764648 2:-2.7798125 
-0.1 1:0.34779297 2:-3.0171875 
-0.1 1:0.27653711 2:-3.3175625 
-0.1 1:0.24222656 2:-5.4225625 
-0.006041285187679482 1:0.22843164 2:-2.9856875 
-0.1 1:0.44066992 2:-4.3504375 
-0.1 1:0.34861719 2:-3.627625 
-0.1 1:0.41484961 2:-3.875875 
-0.1 1:0.30804102 2:-2.93125 
-0.1 1:0.35354297 2:-7.0851875 
-0.01660140600201041 1:0.41792383 2:-5.6728125 
-0.1 1:0.42968359 2:-4.415625 
-0.04891497685231423 1:0.42770703 2:-5.0911875 
-0.1 1:0.17676562 2:-2.18075 
-0.1 1:0.22776367 2:-2.785125 
-0.1 1:0.30438281 2:-3.43725 
-0.01373909900749074 1:0.15511914 2:-3.6179375 
-0.02321631722029061 1:0.31896094 2:-5.0758125 
-0.1 1:0.21317188 2:-0.3318125 
-0.05892161273840174 1:0.081978516 2:-1.5713125 
-0.1 1:0.20682227 2:-2.31725 
-0.003556405272110033 1:0.39870508 2:-6.2614375 
-0.1 1:0.076144531 2:-1.757125 
-0.1 1:0.11273828 2:-2.7833125 
-0.0434913233251748 1:0.19324805 2:-1.237 
-0.1 1:0.22644727 2:-1.011625 
-0.1 1:0.3555332 2:-3.0255 
-0.1 1:0.22081836 2:-3.715625 
-0.1 1:0.28196289 2:-3.4839375 
-0.1 1:0.30011328 2:-3.26075 
-0.1 1:0.23113867 2:-2.8440625 
-0.05133843101614086 1:0.2920332 2:-4.6695 
-0.1 1:0.25475977 2:-3.0795 
-0.1 1:0.4497168 2:-4.510125 
-0.1 1:0.29958203 2:-3.055375 
-0.05563423733186795 1:0.32995703 2:-5.0885625 
-0.0633532645006266 1:0.40051758 2:-6.0948125 
-0.1 1:0.36771484 2:-4.042875 
-0.1 1:0.25239062 2:-3.4129375 
-0.1 1:0.28443359 2:-2.0958125 
-0.1 1:0.34270508 2:-2.6396875 
-0.1 1:0.2912832 2:-3.3300625 
-0.04777734828048413 1:0.31123828 2:-5.179625 
-0.1 1:0.28879492 2:-3.6378125 
-0.05642089221238104 1:0.21010352 2:-2.54275 
-0.02214119298319803 1:0.18053125 2:-4.25075 
-0.1 1:0.37425977 2:-6.9378125 
-0.1 1:0.2579707 2:-2.818 
-0.1 1:0.21958984 2:-2.6198125 
-0.001579806712799968 1:0.2517832 2:-5.5881875 
-0.1 1:0.29116406 2:-4.66075 
-0.002446390636608954 1:0.23818945 2:-4.0943125 
-0.08368085351257677 1:0.28256055 2:-4.3718125 
-0.1 1:0.26014062 2:-5.9321875 
-0.06116434535532662 1:0.1772793 2:-0.761 
-0.1 1:0.22722266 2:-2.2946875 
-0.003187530527568191 1:0.15436523 2:-0.9586875 
-0.1 1:0.37282422 2:-4.1736875 
-0.1 1:0.34807617 2:-3.3745 
-0.0170044120176488 1:0.16685937 2:-0.8211875 
-0.09989432716251041 1:0.16737891 2:-4.012875 
-0.1 1:0.26974414 2:-2.4686875 
-0.1 1:0.46342969 2:-3.82325 
-0.1 1:0.18537305 2:-2.150125 
-0.1 1:0.48939844 2:-4.644625 
-0.1 1:0.18489648 2:-2.2105625 
-0.1 1:0.23009766 2:-1.691 
-0.1 1:0.22933008 2:-1.4585 
-0.1 1:0.34248828 2:-3.007375 
-0.1 1:0.40465039 2:-3.5784375 
-0.08727902149000051 1:0.14796484 2:-3.1890625 
-0.07142689744532842 1:0.23461328 2:-5.1766875 
-0.1 1:0.39958398 2:-4.91325 
-0.1 1:0.30524609 2:-3.7535625 
-0.1 1:0.44936328 2:-4.8013125 
-0.1 1:0.4166543 2:-6.32025 
-0.01556155342339153 1:0.32687305 2:-5.4759375 
-0.1 1:0.26019922 2:-3.834125 
-0.06173637359376094 1:0.098136719 2:-1.4321875 
-0.09878694498499337 1:0.16221484 2:-3.8394375 
-0.1 1:0.26091406 2:-2.994125 
-0.1 1:0.29560156 2:-2.88125 
-0.1 1:0.26745508 2:-3.3273125 
-0.1 1:0.32701953 2:-4.8238125 
-0.1 1:0.31308203 2:-6.5335625 
-0.1 1:0.23345117 2:-1.063375 
-0.1 1:0.28295508 2:-0.9159375 
-0.1 1:0.083269531 2:-1.9089375 
-0.1 1:0.24357227 2:-2.9170625 
-0.05572390547803237 1:0.16800391 2:-4.0455 
-0.1 1:0.45806641 2:-2.8064375 
-0.1 1:0.32199414 2:-3.3899375 
-0.1 1:0.15964258 2:-4.055 
-0.00566262865562402 1:0.35151367 2:-5.6770625 
-0.1 1:0.23986133 2:-2.677 
-0.02890160425107003 1:0.33588672 2:-4.1898125 
-0.1 1:0.32936133 2:-2.6848125 
-0.1 1:0.13451953 2:-3.1604375 
-0.1 1:0.087019531 2:-2.105 
-0.1 1:0.2675293 2:-3.2640625 
-0.1 1:0.20953125 2:-2.31975 
-0.1 1:0.54072852 2:-4.29325 
-0.06910368020660762 1:0.28265625 2:-4.24225 
-0.1 1:0.26740625 2:-0.86625 
-0.1 1:0.14812891 2:-1.9295625 
-0.1 1:0.19116602 2:-1.706625 
-0.1 1:0.23971289 2:-2.3139375 
-0.1 1:0.3217832 2:-2.419625 
-0.1 1:0.41233789 2:-5.5705 
-0.1 1:0.26600391 2:-5.95225 
-0.1 1:0.19230078 2:-1.6540625 
-0.1 1:0.23630273 2:-1.0464375 
-0.01058922528460367 1:0.099912109 2:-0.2281875 
-0.1 1:0.22355273 2:-2.8776875 
-0.04104731777878185 1:0.21106641 2:-1.4304375 
-0.1 1:0.23399219 2:-2.62225 
-0.1 1:0.55966797 2:-2.449125 
-0.02147604504909185 1:0.31324609 2:-4.533875 
-0.1 1:0.20406445 2:-1.2705625 
-0.1 1:0.24349805 2:-2.2509375 
-0.1 1:0.28567383 2:-3.5205 
-0.1 1:0.31235938 2:-3.728625 
-0.03928918759934914 1:0.34758984 2:-4.6420625 
-0.1 1:0.1523418 2:-3.6244375 
-0.04672035820155912 1:0.24998242 2:-3.8195625 
-0.1 1:0.17062695 2:-1.560375 
-0.001092574358667962 1:0.32075781 2:-5.06075 
-0.1 1:0.33624023 2:-6.860125 
-0.1 1:0.36108594 2:-3.895375 
-0.1 1:0.24112305 2:-2.88025 
-0.1 1:0.43722656 2:-4.279375 
-0.1 1:0.24887109 2:-0.7735625 
-0.06662159449428448 1:0.30098828 2:-6.4419375 
-0.1 1:0.44541211 2:-6.16325 
-0.1 1:0.23530273 2:-1.1014375 
-0.1 1:0.24281641 2:-5.575625 
-0.04911657149596266 1:0.091326172 2:-2.0931875 
-0.1 1:0.3277207 2:-3.7340625 
-0.1 1:0.22480859 2:-2.255625 
-0.1 1:0.24032227 2:-2.5743125 
-0.1 1:0.38985742 2:-2.2789375 
-0.04444312551123175 1:0.16242188 2:-3.9239375 
-0.1 1:0.22610742 2:-1.3413125 
-0.0003372655174314065 1:0.36061719 2:-4.7583125 
-0.1 1:0.37358398 2:-1.4289375 
-0.1 1:0.20781641 2:-1.73425 
-0.1 1:0.10053125 2:-1.1860625 
-0.1 1:0.4075293 2:-3.602375 
-0.1 1:0.31791016 2:-3.7708125 
-0.1 1:0.24561719 2:-2.2079375 
-0.1 1:0.33440625 2:-3.9676875 
-0.003591656126606766 1:0.16033008 2:-0.694875 
-0.1 1:0.26038281 2:-4.149125 
-0.09847036386512684 1:0.13599414 2:-3.2916875 
-0.1 1:0.40715039 2:-4.4429375 
-0.1 1:0.40238867 2:-4.4288125 
-0.1 1:0.38100195 2:-4.0913125 
-0.07302182925193225 1:0.33158594 2:-4.5533125 
-0.09644359472788998 1:0.39798438 2:-6.242 
-0.1 1:0.28346094 2:-1.1570625 
-0.09581651086822676 1:0.32946484 2:-5.1068125 
-0.1 1:0.24219531 2:-1.26275 
-0.1 1:0.33263477 2:-5.3505 
-0.1 1:0.22366797 2:-1.3763125 
-0.1 1:0.37639453 2:-2.792375 
-0.1 1:0.23202734 2:-1.8263125 
-0.02852660977310132 1:0.24993945 2:-5.5373125 
-0.1 1:0.46163086 2:-3.4993125 
-0.03655655077323311 1:0.22549609 2:-5.097125 
-0.03334120767850298 1:0.26129297 2:-3.4439375 
-0.1 1:0.21189258 2:-4.8935 
-0.1 1:0.29252734 2:-2.577 
-0.1 1:0.34011914 2:-4.586625 
-0.1 1:0.25238086 2:-5.8245 
-0.1 1:0.33430859 2:-3.2810625 
-0.0449683779520744 1:0.24013281 2:-3.9851875 
-0.1 1:0.30482617 2:-3.0379375 
-0.1 1:0.20150586 2:-2.223875 
-0.1 1:0.32058789 2:-2.162375 
-0.1 1:0.24589844 2:-2.381375 
-0.002473263605185977 1:0.20666992 2:-3.698125 
-0.1 1:0.23245703 2:-1.195625 
-0.1 1:0.30215625 2:-3.0803125 
-0.1 1:0.28662109 2:-4.48925 
-0.1 1:0.21903711 2:-2.3874375 
-0.1 1:0.24798438 2:-1.645375 
-0.1 1:0.076007812 2:-0.794375 
-0.1 1:0.35445117 2:-2.0418125 
-0.1 1:0.32765234 2:-4.0785625 
-0.1 1:0.5255957 2:-5.70775 
-0.1 1:0.24021875 2:-0.7291875 
-0.1 1:0.26129492 2:-2.958625 
-0.008292146395692434 1:0.34935352 2:-5.6198125 
-0.1 1:0.45663086 2:-6.1100625 
-0.1 1:0.23544531 2:-5.3535 
-0.0590046447954392 1:0.21966992 2:-3.706125 
-0.02247877794616604 1:0.16238672 2:-0.7190625 
-0.1 1:0.3599668 2:-4.7544375 
-0.1 1:0.15744727 2:-3.6728125 
-0.02320972050686091 1:0.2800332 2:-3.6730625 
-0.1 1:0.24440234 2:-2.9349375 
-0.002950795548479834 1:0.22086914 2:-3.7381875 
-0.1 1:0.079349609 2:-1.6896875 
-0.01957923658925408 1:0.31766992 2:-6.3675 
-0.1 1:0.22813086 2:-2.677875 
-0.1 1:0.36791797 2:-1.7798125 
-0.1 1:0.39512695 2:-4.9090625 
-0.1 1:0.36295508 2:-4.2379375 
-0.1 1:0.36907031 2:-3.72325 
-0.04600501357270102 1:0.081591797 2:-1.7980625 
-0.03507593136149922 1:0.29808984 2:-4.03125 
-0.1 1:0.23100195 2:-2.88675 
-0.1 1:0.27653906 2:-1.923375 
-0.1 1:0.25038867 2:-3.137 
-0.1 1:0.25980859 2:-2.995 
-0.04713938268745313 1:0.20847656 2:-4.722875 
-0.1 1:0.090146484 2:-2.255375 
-0.1 1:0.30313867 2:-3.5388125 
-0.002142745034220077 1:0.16987305 2:-0.8109375 
-0.1 1:0.27897461 2:-2.5580625 
-0.1 1:0.21419336 2:-1.8233125 
-0.02982978044312487 1:0.099566406 2:-2.39075 
-0.09687643609126281 1:0.14841406 2:-3.5308125 
-0.1 1:0.19761133 2:-2.0180625 
-0.1 1:0.073541016 2:-0.704625 
-0.1 1:0.31636133 2:-2.7805 
-0.1 1:0.23154102 2:-3.049125 
-0.07820757877409953 1:0.10349609 2:-2.527125 
-0.1 1:0.40971094 2:-4.368375 
-0.1 1:0.31895703 2:-3.3794375 
-0.1 1:0.27779687 2:-2.887375 
-0.001172400264895179 1:0.30235937 2:-4.5140625 
-0.1 1:0.27886328 2:-2.8150625 
-0.1 1:0.3845 2:-6.7055 
-0.1 1:0.15526172 2:-2.0664375 
-0.1 1:0.45179883 2:-3.507 
-0.1 1:0.39061133 2:-3.7198125 
-0.1 1:0.41155273 2:-6.8126875 
-0.1 1:0.23867578 2:-2.756 
-0.1 1:0.31481055 2:-3.7885625 
-0.1 1:0.2610918 2:-2.924625 
-0.1 1:0.2743457 2:-3.3559375 
-0.1 1:0.41067188 2:-4.9038125 
-0.1 1:0.26362891 2:-5.6733125 
-0.1 1:0.26001172 2:-3.86525 
-0.1 1:0.45997461 2:-6.2921875 
-0.1 1:0.35793945 2:-3.3578125 
-0.1 1:0.15591602 2:-3.776625 
-0.02243499237721218 1:0.29606055 2:-4.3289375 
-0.006227160130789834 1:0.434875 2:-4.560125 
-0.1 1:0.35748437 2:-4.221125 
-0.1 1:0.31226367 2:-3.6335625 
-0.01794350311846411 1:0.14642578 2:-1.6275625 
-0.1 1:0.20934766 2:-2.263375 
-0.06610368098697704 1:0.24606641 2:-4.011125 
-0.1 1:0.36505078 2:-3.2536875 
-0.1 1:0.25153906 2:-3.174125 
-0.1 1:0.22314258 2:-3.736875 
-0.1 1:0.093474609 2:-2.29 
-0.1 1:0.20897656 2:-5.02475 
-0.0636079382941481 1:0.35225586 2:-5.7073125 
-0.1 1:0.37868359 2:-4.4215 
-0.07991153879251295 1:0.41330273 2:-6.1581875 
-0.03169245937033897 1:0.30007813 2:-4.4925625 
-0.1 1:0.20410352 2:-5.0283125 
-0.05944689119636425 1:0.18333398 2:-3.381 
-0.1 1:0.25363281 2:-2.1921875 
-0.1 1:0.4163418 2:-3.113875 
-0.1 1:0.26771875 2:-2.972875 
-0.1 1:0.37254492 2:-3.54475 
-0.1 1:0.39165625 2:-3.201875 
-0.1 1:0.1295293 2:-3.367125 
-0.1 1:0.33484766 2:-6.761375 
-0.1 1:0.20061523 2:-1.3003125 
-0.008088893702745533 1:0.18247852 2:-3.4698125 
-0.1 1:0.27945898 2:-3.1124375 
-0.1 1:0.092449219 2:-1.3479375 
-0.1 1:0.35424609 2:-4.1588125 
-0.1 1:0.22277734 2:-1.3945 
-0.1 1:0.27688086 2:-3.00525 
-0.1 1:0.45968945 2:-5.043375 
-0.07296864544158024 1:0.27808203 2:-4.4469375 
-0.1 1:0.26929297 2:-2.8614375 
-0.1 1:0.086097656 2:-1.1035 
-0.1 1:0.24530078 2:-2.4893125 
-0.06021451458545609 1:0.15863672 2:-3.6760625 
-0.1 1:0.34100781 2:-3.5708125 
-0.1 1:0.34213672 2:-2.21525 
-0.1 1:0.32891211 2:-3.746125 
-0.1 1:0.23095703 2:-0.5875 
-0.1 1:0.30711719 2:-6.25125 
-0.1 1:0.25304492 2:-2.577 
-0.1 1:0.13801953 2:-3.2393125 
-0.1 1:0.42212695 2:-5.196375 
-0.0009262242897227367 1:0.1310332 2:-3.0138125 
-0.1 1:0.18283203 2:-1.520625 
-0.1 1:0.34518164 2:-3.089625 
-0.1 1:0.29001562 2:-3.314 
-0.1 1:0.40304883 2:-4.162625 
-0.005802132499959688 1:0.27826172 2:-4.4676875 
-0.1 1:0.29777344 2:-3.685375 
-0.1 1:0.35262109 2:-3.0621875 
-0.04654028489421413 1:0.42903711 2:-5.4879375 
-0.1 1:0.26134961 2:-5.7624375 
-0.1 1:0.35732227 2:-6.6468125 
-0.1 1:0.21916016 2:-2.79625 
-0.08082389460394425 1:0.35965234 2:-4.6843125 
-0.1 1:0.25274414 2:-3.2659375 
-0.07381864182269346 1:0.20523242 2:-0.36 
-0.1 1:0.25026758 2:-2.719625 
-0.1 1:0.28462109 2:-2.889125 
-0.1 1:0.25020898 2:-5.5086875 
-0.04727873959160937 1:0.34984961 2:-4.391 
-0.1 1:0.40342578 2:-6.348125 
-0.1 1:0.22082812 2:-2.6729375 
-0.1 1:0.11468945 2:-2.700125 
-0.05528937379602478 1:0.18959375 2:-3.477625 
-0.1 1:0.29147852 2:-2.597125 
-0.1 1:0.43359375 2:-3.0754375 
-0.1 1:0.25452539 2:-1.412375 
-0.0682304764189091 1:0.38851953 2:-5.6038125 
-0.1 1:0.21329102 2:-1.593375 
-0.06955905188903931 1:0.075421875 2:-0.745375 
-0.1 1:0.401375 2:-3.7811875 
-0.1 1:0.48453711 2:-3.700375 
-0.1 1:0.40959766 2:-4.346125 
-0.0134538869704484 1:0.33897266 2:-5.44625 
-0.1 1:0.40497656 2:-2.8505625 
-0.1 1:0.24613477 2:-3.1555 
-0.001255099808361177 1:0.16164062 2:-0.879 
-0.08396910957855847 1:0.21359375 2:-2.771125 
-0.1 1:0.19073438 2:-4.4073125 
-0.1 1:0.33290039 2:-3.62125 
-0.1 1:0.19434375 2:-2.10675 
-0.1 1:0.31800195 2:-2.7066875 
-0.1 1:0.25489844 2:-3.386625 
-0.1 1:0.2990332 2:-2.155 
-0.1 1:0.26273438 2:-3.28225 
-0.1 1:0.36937305 2:-4.2505625 
-0.1 1:0.20789648 2:-4.8635625 
-0.01469595226974204 1:0.09196875 2:-0.3141875 
-0.0270092269012798 1:0.30161523 2:-4.6424375 
-0.09614411022181735 1:0.4003418 2:-4.8186875 
-0.1 1:0.34663867 2:-2.43325 
-0.1 1:0.41551562 2:-4.2259375 
-0.1 1:0.27644531 2:-2.738125 
-0.1 1:0.4447832 2:-5.192375 
-0.02642185582859325 1:0.35510156 2:-5.9024375 
-0.1 1:0.1945957 2:-4.7073125 
-0.1 1:0.38073633 2:-3.9090625 
-0.07977591541405252 1:0.093728516 2:-0.86875 
-0.1 1:0.27028711 2:-2.9045 
-0.0101039783390463 1:0.40001758 2:-6.005875 
-0.1 1:0.24953906 2:-2.5758125 
-0.1 1:0.28387305 2:-3.2044375 
-0.1 1:0.083884766 2:-1.3044375 
-0.1 1:0.46247266 2:-6.5006875 
-0.1 1:0.18969141 2:-2.3571875 
-0.1 1:0.24621484 2:-2.1268125 
-0.01011985213299559 1:0.35916016 2:-4.7018125 
-0.08648545046091466 1:0.31378711 2:-4.869 
-0.1 1:0.56246484 2:-4.2535625 
-0.1 1:0.29553906 2:-3.6444375 
-0.1 1:0.23383398 2:-2.8864375 
-0.03929799748579978 1:0.42445703 2:-4.7930625 
-0.1 1:0.1174043 2:-2.6358125 
-0.02447813160435394 1:0.41664844 2:-5.8334375 
-0.09310161176890071 1:0.31078125 2:-6.1899375 
-0.1 1:0.34442578 2:-4.14075 
-0.01057512892668074 1:0.36280664 2:-5.8456875 
-0.0832233527365782 1:0.21192773 2:-2.841125 
-0.1 1:0.23984961 2:-2.801125 
-0.05568748156939848 1:0.19703125 2:-1.2106875 
-0.1 1:0.2521875 2:-3.2321875 
-0.009474531300279429 1:0.27323437 2:-4.4154375 
-0.1 1:0.44399023 2:-4.749625 
-0.009167625287703233 1:0.2793418 2:-3.8708125 
-0.004446178509272767 1:0.082849609 2:-0.51425 
-0.1 1:0.26702148 2:-5.8805 
-0.1 1:0.11562891 2:-3.0084375 
-0.1 1:0.19665234 2:-1.8435 
-0.1 1:0.38547461 2:-3.8594375 
-0.06658962679570198 1:0.21511719 2:-2.72775 
-0.1 1:0.27315234 2:-2.730375 
-0.1 1:0.38406055 2:-4.01 
-0.1 1:0.19602539 2:-4.35925 
-0.05951891902791509 1:0.2164375 2:-0.5284375 
-0.02925586825817954 1:0.27696484 2:-4.2766875 
-0.1 1:0.39117773 2:-4.3866875 
-0.1 1:0.28158398 2:-3.5241875 
-0.1 1:0.35942578 2:-2.83575 
-0.06795239323507445 1:0.25786328 2:-0.944125 
-0.01944661823528121 1:0.34873828 2:-5.89075 
-0.1 1:0.43275195 2:-5.0771875 
-0.1 1:0.29694531 2:-3.1875 
-0.1 1:0.44478125 2:-4.250625 
-0.1 1:0.25325586 2:-2.34125 
-0.0007870855551872368 1:0.31982812 2:-5.0585 
-0.1 1:0.22573437 2:-5.1725625 
-0.1 1:0.29282812 2:-3.0000625 
-0.1 1:0.28905469 2:-3.669375 
-0.1 1:0.40025 2:-3.6605 
-0.1 1:0.2762207 2:-0.91625 
-0.1 1:0.26445117 2:-6.1681875 
-0.1 1:0.33435352 2:-3.808875 
-0.1 1:0.4510293 2:-4.106875 
-0.01735801282918242 1:0.33854492 2:-5.526625 
-0.1 1:0.30931641 2:-2.750125 
-0.1 1:0.43723828 2:-7.1905 
-0.03515516729002875 1:0.29987109 2:-4.4885625 
-0.088978618840848 1:0.34149805 2:-4.603125 
-0.1 1:0.17382031 2:-1.9191875 
-0.1 1:0.343625 2:-3.1510625 
-0.1 1:0.26843555 2:-3.3073125 
-0.1 1:0.34373047 2:-3.911375 
-0.09968264620392595 1:0.10470117 2:-2.0403125 
-0.09161565142877351 1:0.42217578 2:-5.0205625 
-0.1 1:0.35279102 2:-1.1444375 
-0.1 1:0.24479297 2:-1.2194375 
-0.1 1:0.27837695 2:-4.208625 
-0.08835633275102334 1:0.13548828 2:-3.4148125 
-0.1 1:0.26486133 2:-3.8655625 
-0.1 1:0.24790234 2:-2.0054375 
-0.1 1:0.33156641 2:-3.792 
-0.1 1:0.21885156 2:-1.7906875 
-0.08052616977481615 1:0.30759375 2:-4.9255 
-0.1 1:0.10410156 2:-0.1661875 
-0.04839379075495713 1:0.40263672 2:-5.2531875 
-0.1 1:0.20225391 2:-2.3948125 
-0.09502500276926183 1:0.34576953 2:-4.79525 
-0.1 1:0.22915234 2:-1.374375 
-0.1 1:0.28249414 2:-2.825 
-0.1 1:0.39774414 2:-6.05375 
-0.1 1:0.43747852 2:-3.440125 
-0.1 1:0.36425586 2:-4.5600625 
-0.1 1:0.29733594 2:-3.103625 
-0.1 1:0.21986328 2:-4.9395 
-0.1 1:0.27007617 2:-3.8908125 
-0.1 1:0.23100195 2:-2.6498125 
-0.09179530113429037 1:0.25088867 2:-3.4085 
-0.1 1:0.45644531 2:-5.909 
-0.1 1:0.076214844 2:-0.8195 
-0.1 1:0.12914453 2:-2.9133125 
-0.1 1:0.21823438 2:-2.610625 
-0.1 1:0.15448633 2:-3.7628125 
-0.001140650432202364 1:0.30964648 2:-4.949125 
-0.1 1:0.29903516 2:-4.6679375 
-0.01681456091430472 1:0.3229082 2:-6.2829375 
-0.1 1:0.32322656 2:-3.5009375 
-0.03440456612781171 1:0.22682812 2:-0.9900625 
-0.02946098584216169 1:0.11625781 2:-1.134125 
-0.07251334158269435 1:0.22023828 2:-1.059 
-0.1 1:0.25126563 2:-2.5884375 
-0.1 1:0.24014258 2:-2.9931875 
-0.02446661344270024 1:0.2720625 2:-5.821875 
-0.1 1:0.50546875 2:-2.978125 
-0.1 1:0.29225195 2:-2.52325 
-0.1 1:0.35313672 2:-3.7525625 
-0.1 1:0.32254492 2:-3.2290625 
-0.1 1:0.38274609 2:-3.323375 
-0.1 1:0.28703906 2:-4.3553125 
-0.09420720104560783 1:0.1824375 2:-2.253375 
-0.07055283538726179 1:0.38066602 2:-7.1104375 
-0.1 1:0.19669336 2:-2.1111875 
-0.0858079798827201 1:0.22024414 2:-0.4883125 
-0.1 1:0.17200195 2:-1.5355625 
-0.1 1:0.29218359 2:-3.6641875 
-0.1 1:0.2700332 2:-3.06725 
-0.1 1:0.38613477 2:-4.4948125 
-0.1 1:0.40496289 2:-6.0150625 
-0.07297180030313799 1:0.29289258 2:-3.71 
-0.0226414181807404 1:0.36110156 2:-4.7130625 
-0.1 1:0.18338477 2:-1.7868125 
-0.1 1:0.21929688 2:-1.9210625 
-0.01988823309369434 1:0.18305664 2:-3.4683125 
-0.1 1:0.38280273 2:-4.365125 
-0.1 1:0.23102539 2:-0.31325 
-0.1 1:0.30196484 2:-2.5315 
-0.1 1:0.45030664 2:-4.5109375 
-0.1 1:0.32863477 2:-3.693375 
