svm_type c_svc
kernel_type rbf
gamma 1000
nr_class 2
total_sv 3270
rho 0.883139
label 1 -1
nr_sv 1027 2243
SV
0.1 1:0.49512891 2:-1.64025 
0.1 1:0.32543164 2:-5.8575625 
0.1 1:0.45385156 2:-2.0045625 
0.1 1:0.4627793 2:-3.8699375 
0.1 1:0.33716992 2:-1.6179375 
0.1 1:0.20806445 2:-2.2381875 
0.1 1:0.21552148 2:-3.5938125 
0.1 1:0.17680469 2:-0.7626875 
0.1 1:0.30499609 2:-2.81075 
0.1 1:0.44529687 2:-1.3795 
0.1 1:0.3831875 2:-2.1104375 
0.1 1:0.43258789 2:-3.1353125 
0.1 1:0.43852344 2:-2.296 
0.1 1:0.35166406 2:-3.349 
0.1 1:0.39370703 2:-3.9125 
0.1 1:0.3394668 2:-2.1010625 
0.1 1:0.31138867 2:-2.953875 
0.1 1:0.35462891 2:-3.405125 
0.1 1:0.40678711 2:-3.3389375 
0.1 1:0.52079102 2:-2.4798125 
0.1 1:0.59758984 2:-2.2580625 
0.1 1:0.23420703 2:-1.3368125 
0.1 1:0.34100781 2:-3.860125 
0.1 1:0.32691016 2:-2.5905 
0.1 1:0.37858984 2:-2.6868125 
0.1 1:0.2688418 2:-2.9066875 
0.1 1:0.32889453 2:-3.90775 
0.1 1:0.34035352 2:-2.68275 
0.1 1:0.23373633 2:-3.3294375 
0.1 1:0.454125 2:-2.0156875 
0.1 1:0.27364648 2:-2.1978125 
0.1 1:0.27342773 2:-2.5523125 
0.1 1:0.47037109 2:-1.6984375 
0.1 1:0.43819336 2:-6.483 
0.1 1:0.28487891 2:-2.8999375 
0.1 1:0.18727148 2:-2.3613125 
0.1 1:0.40474805 2:-2.588125 
0.1 1:0.37616406 2:-3.7056875 
0.1 1:0.35352734 2:-2.3345625 
0.1 1:0.2265332 2:-1.9818125 
0.1 1:0.3705957 2:-2.8569375 
0.1 1:0.18889648 2:-3.22025 
0.1 1:0.50798047 2:-2.635 
0.1 1:0.38666406 2:-2.618125 
0.1 1:0.31162891 2:-3.9908125 
0.1 1:0.25308594 2:-4.6645625 
0.1 1:0.3230332 2:-5.3358125 
0.1 1:0.28839453 2:-3.682625 
0.1 1:0.36598633 2:-2.9008125 
0.1 1:0.28278906 2:-2.4069375 
0.1 1:0.31301172 2:-2.7151875 
0.1 1:0.44060156 2:-1.6279375 
0.1 1:0.32942969 2:-1.7116875 
0.1 1:0.32716602 2:-2.767 
0.1 1:0.37616602 2:-4.028 
0.1 1:0.38256445 2:-3.61 
0.1 1:0.43889844 2:-2.67725 
0.1 1:0.30579492 2:-2.78075 
0.1 1:0.42250391 2:-2.2156875 
0.1 1:0.42245117 2:-2.2446875 
0.1 1:0.31341016 2:-3.07175 
0.1 1:0.33163281 2:-3.3355 
0.1 1:0.3195957 2:-4.8738125 
0.1 1:0.22809766 2:-2.4148125 
0.1 1:0.43521875 2:-2.7759375 
0.1 1:0.33263867 2:-3.347125 
0.1 1:0.54844922 2:-2.60875 
0.1 1:0.31682227 2:-3.2665 
0.1 1:0.3650957 2:-2.9554375 
0.1 1:0.24247852 2:-2.04975 
0.1 1:0.48641992 2:-1.735875 
0.1 1:0.37298047 2:-3.0148125 
0.1 1:0.39301562 2:-4.5141875 
0.1 1:0.29299805 2:-3.0075 
0.1 1:0.19125977 2:-2.2409375 
0.1 1:0.30986328 2:-2.678625 
0.1 1:0.40568945 2:-3.4481875 
0.1 1:0.38344141 2:-3.6039375 
0.1 1:0.40140625 2:-4.0538125 
0.1 1:0.30070898 2:-1.913875 
0.1 1:0.38885547 2:-2.417625 
0.1 1:0.30874805 2:-3.3035 
0.1 1:0.27430469 2:-2.704875 
0.1 1:0.35455273 2:-2.265 
0.1 1:0.36752344 2:-2.3046875 
0.1 1:0.41480664 2:-3.7495625 
0.1 1:0.44375781 2:-3.0615 
0.1 1:0.31504492 2:-5.0301875 
0.1 1:0.43707422 2:-3.3401875 
0.1 1:0.29741211 2:-2.8059375 
0.1 1:0.25664063 2:-5.19725 
0.1 1:0.24414648 2:-2.412875 
0.1 1:0.27138867 2:-2.4171875 
0.1 1:0.34235156 2:-2.1496875 
0.1 1:0.31082422 2:-3.0363125 
0.1 1:0.25773828 2:-3.7175625 
0.1 1:0.39027148 2:-3.910875 
0.1 1:0.32569141 2:-1.9805 
0.1 1:0.34041602 2:-3.856875 
0.1 1:0.44346484 2:-2.4981875 
0.1 1:0.28545508 2:-4.1744375 
0.1 1:0.45814258 2:-3.6809375 
0.1 1:0.30563867 2:-1.884125 
0.1 1:0.41301172 2:-4.127 
0.1 1:0.3094082 2:-3.7965 
0.1 1:0.46608398 2:-2.914875 
0.1 1:0.36563477 2:-3.1015 
0.1 1:0.35406641 2:-3.704375 
0.1 1:0.34324414 2:-3.4438125 
0.1 1:0.26628711 2:-3.311375 
0.1 1:0.41433789 2:-4.3966875 
0.1 1:0.33359961 2:-2.69725 
0.1 1:0.23927539 2:-3.3649375 
0.1 1:0.41796875 2:-3.0170625 
0.1 1:0.30439258 2:-3.55325 
0.1 1:0.22986133 2:-2.7025625 
0.1 1:0.28694336 2:-2.7929375 
0.1 1:0.27999414 2:-2.9005 
0.1 1:0.31682031 2:-3.3043125 
0.1 1:0.45166016 2:-4.38775 
0.1 1:0.35373047 2:-2.2044375 
0.1 1:0.32110547 2:-2.0231875 
0.1 1:0.37638477 2:-4.545875 
0.1 1:0.27175977 2:-2.2280625 
0.1 1:0.29000391 2:-4.12425 
0.1 1:0.22948242 2:-2.170625 
0.1 1:0.28343945 2:-1.48925 
0.1 1:0.42650586 2:-1.8313125 
0.1 1:0.43983398 2:-1.9830625 
0.1 1:0.25674023 2:-4.3780625 
0.1 1:0.27660547 2:-3.0056875 
0.1 1:0.34983789 2:-4.0816875 
0.1 1:0.49307031 2:-2.892875 
0.1 1:0.21206055 2:-1.68725 
0.1 1:0.31731445 2:-4.57025 
0.1 1:0.20203516 2:-1.9925 
0.1 1:0.30219531 2:-2.524375 
0.1 1:0.3418125 2:-4.4185625 
0.1 1:0.29110156 2:-2.9788125 
0.1 1:0.47945508 2:-4.4569375 
0.1 1:0.26811719 2:-3.05975 
0.1 1:0.28180078 2:-2.841625 
0.1 1:0.58155273 2:-2.5085 
0.1 1:0.3027832 2:-1.9758125 
0.1 1:0.39942773 2:-6.0199375 
0.1 1:0.44779492 2:-1.6871875 
0.1 1:0.32289648 2:-3.127125 
0.1 1:0.17054102 2:-1.676875 
0.1 1:0.4534043 2:-3.5765625 
0.1 1:0.19270117 2:-2.1895 
0.1 1:0.32316602 2:-2.5864375 
0.1 1:0.34409766 2:-1.65875 
0.1 1:0.21849805 2:-2.5488125 
0.1 1:0.32193359 2:-4.249 
0.1 1:0.27366016 2:-3.7085625 
0.1 1:0.27363867 2:-2.9935 
0.1 1:0.28618945 2:-3.7015625 
0.1 1:0.25761328 2:-2.3586875 
0.1 1:0.45833789 2:-3.199125 
0.1 1:0.42963477 2:-2.2746875 
0.1 1:0.43997461 2:-1.7660625 
0.1 1:0.37132227 2:-2.3320625 
0.1 1:0.19224414 2:-3.40725 
0.1 1:0.20956836 2:-2.620875 
0.1 1:0.21630273 2:-1.4938125 
0.1 1:0.26945117 2:-2.346375 
0.1 1:0.33624805 2:-2.221875 
0.1 1:0.28387695 2:-3.0823125 
0.1 1:0.396875 2:-1.6061875 
0.1 1:0.26034961 2:-2.928375 
0.1 1:0.20154688 2:-2.2619375 
0.1 1:0.37933789 2:-3.19475 
0.1 1:0.34605859 2:-3.7740625 
0.1 1:0.28016797 2:-2.0644375 
0.1 1:0.29781641 2:-4.276625 
0.1 1:0.33467969 2:-3.48525 
0.1 1:0.39049805 2:-3.56675 
0.1 1:0.37928906 2:-3.4013125 
0.1 1:0.35816797 2:-1.8958125 
0.1 1:0.38345508 2:-2.8543125 
0.1 1:0.34638672 2:-3.5878125 
0.1 1:0.37463477 2:-3.621625 
0.1 1:0.22990625 2:-4.26575 
0.1 1:0.42184766 2:-3.1485625 
0.1 1:0.45625781 2:-3.9156875 
0.1 1:0.17488281 2:-1.0215 
0.1 1:0.37512109 2:-4.1375 
0.1 1:0.29655078 2:-0.9794375 
0.1 1:0.32251953 2:-3.13 
0.1 1:0.29141602 2:-3.130625 
0.1 1:0.29727539 2:-3.397 
0.1 1:0.33908984 2:-2.6120625 
0.1 1:0.40021875 2:-3.975125 
0.1 1:0.47980859 2:-3.3043125 
0.1 1:0.34611328 2:-1.1154375 
0.1 1:0.36775195 2:-2.4995625 
0.1 1:0.22953125 2:-4.0635 
0.1 1:0.31888086 2:-3.5965625 
0.1 1:0.21323437 2:-1.5406875 
0.1 1:0.28655664 2:-3.3416875 
0.1 1:0.27617578 2:-2.6374375 
0.1 1:0.25672656 2:-1.856 
0.1 1:0.30674414 2:-2.46875 
0.1 1:0.23039844 2:-3.1139375 
0.1 1:0.37868555 2:-2.908625 
0.1 1:0.33593555 2:-1.454375 
0.1 1:0.43209766 2:-2.5886875 
0.1 1:0.4420332 2:-3.6693125 
0.1 1:0.27998633 2:-3.1631875 
0.1 1:0.46808789 2:-4.909125 
0.1 1:0.45885352 2:-2.1756875 
0.1 1:0.31038086 2:-3.6683125 
0.1 1:0.57900781 2:-2.849625 
0.1 1:0.35105859 2:-2.2709375 
0.1 1:0.46813867 2:-1.7313125 
0.1 1:0.43799805 2:-3.4333125 
0.1 1:0.28685352 2:-2.059875 
0.1 1:0.34599805 2:-2.140125 
0.1 1:0.40131641 2:-2.6543125 
0.1 1:0.32263086 2:-5.6656875 
0.1 1:0.39408398 2:-5.8528125 
0.1 1:0.39511719 2:-3.599125 
0.1 1:0.44310742 2:-3.224625 
0.1 1:0.36222656 2:-4.23425 
0.1 1:0.35426563 2:-2.5839375 
0.1 1:0.3046875 2:-2.61025 
0.1 1:0.30484766 2:-2.807 
0.1 1:0.14666406 2:-2.631125 
0.1 1:0.23308594 2:-1.8355 
0.1 1:0.33381445 2:-2.8750625 
0.1 1:0.35310156 2:-2.948625 
0.1 1:0.30416992 2:-2.0409375 
0.1 1:0.34886523 2:-2.161625 
0.1 1:0.34233203 2:-3.7615 
0.1 1:0.36414062 2:-3.597 
0.1 1:0.42236328 2:-6.1394375 
0.1 1:0.42437891 2:-2.695125 
0.1 1:0.31608789 2:-2.0230625 
0.1 1:0.43245703 2:-6.32425 
0.1 1:0.49329102 2:-2.5065625 
0.1 1:0.30577734 2:-2.7071875 
0.1 1:0.27767969 2:-2.165375 
0.1 1:0.50034766 2:-1.9210625 
0.1 1:0.3885957 2:-2.639375 
0.1 1:0.33156445 2:-3.9391875 
0.1 1:0.25060937 2:-5.4385 
0.1 1:0.40276563 2:-3.0210625 
0.1 1:0.41648047 2:-2.96775 
0.1 1:0.28428125 2:-3.5425 
0.1 1:0.33150781 2:-1.9401875 
0.1 1:0.26679102 2:-4.0938125 
0.1 1:0.32331641 2:-2.8158125 
0.1 1:0.17047266 2:-2.255125 
0.1 1:0.42266211 2:-3.6119375 
0.1 1:0.34141797 2:-2.0791875 
0.1 1:0.2698418 2:-2.0849375 
0.1 1:0.49741406 2:-2.678875 
0.1 1:0.24508984 2:-1.8170625 
0.1 1:0.49054687 2:-1.1923125 
0.1 1:0.25251367 2:-3.199625 
0.1 1:0.13879883 2:-1.968 
0.1 1:0.4159707 2:-2.448625 
0.1 1:0.26166016 2:-2.042 
0.1 1:0.22897461 2:-3.203625 
0.1 1:0.34332617 2:-3.66225 
0.1 1:0.25628516 2:-2.2579375 
0.1 1:0.47210156 2:-2.5506875 
0.1 1:0.30535547 2:-3.164875 
0.1 1:0.4799043 2:-2.1899375 
0.1 1:0.51585742 2:-6.6545 
0.1 1:0.40251367 2:-3.5608125 
0.1 1:0.21245312 2:-2.58725 
0.1 1:0.42498437 2:-3.7625625 
0.1 1:0.27693164 2:-3.3294375 
0.1 1:0.17244727 2:-3.071125 
0.1 1:0.35609766 2:-2.9411875 
0.1 1:0.34073438 2:-1.85625 
0.1 1:0.38264258 2:-2.117875 
0.1 1:0.48591406 2:-2.752 
0.1 1:0.27632617 2:-1.724 
0.1 1:0.28090625 2:-1.948125 
0.1 1:0.34263672 2:-3.112 
0.1 1:0.50997461 2:-1.53175 
0.1 1:0.30467383 2:-2.7651875 
0.1 1:0.33288867 2:-4.261125 
0.1 1:0.47564063 2:-3.4048125 
0.1 1:0.39345312 2:-2.227625 
0.1 1:0.40333008 2:-3.0384375 
0.1 1:0.4871875 2:-3.887125 
0.1 1:0.3078125 2:-3.290375 
0.1 1:0.40748633 2:-4.45825 
0.1 1:0.53497656 2:-4.1345 
0.1 1:0.35650586 2:-5.135 
0.1 1:0.27220703 2:-1.8994375 
0.1 1:0.31 2:-3.2896875 
0.1 1:0.30825586 2:-3.884125 
0.1 1:0.35231641 2:-2.5646875 
0.1 1:0.53860547 2:-3.504 
0.1 1:0.41635938 2:-3.8374375 
0.1 1:0.44136914 2:-5.2418125 
0.1 1:0.32235156 2:-4.26875 
0.1 1:0.37596094 2:-4.226625 
0.1 1:0.34277734 2:-2.4906875 
0.1 1:0.49497656 2:-2.2388125 
0.1 1:0.39319922 2:-2.43675 
0.1 1:0.25908398 2:-4.4743125 
0.1 1:0.31810938 2:-1.90625 
0.1 1:0.35870508 2:-2.239875 
0.1 1:0.29455273 2:-1.8113125 
0.1 1:0.29425977 2:-3.531625 
0.1 1:0.24187695 2:-2.55675 
0.1 1:0.40867188 2:-3.7954375 
0.1 1:0.46189453 2:-3.329875 
0.1 1:0.32643555 2:-3.9843125 
0.1 1:0.31369727 2:-2.0728125 
0.1 1:0.2080957 2:-1.8283125 
0.1 1:0.38668359 2:-2.8516875 
0.1 1:0.26838477 2:-3.1514375 
0.1 1:0.45795313 2:-3.3419375 
0.1 1:0.24919336 2:-1.8699375 
0.1 1:0.4214707 2:-4.5469375 
0.1 1:0.47233984 2:-3.6100625 
0.1 1:0.44389648 2:-2.2238125 
0.1 1:0.40248242 2:-1.926875 
0.1 1:0.39318359 2:-3.0641875 
0.1 1:0.30670117 2:-1.691 
0.1 1:0.2820918 2:-3.37775 
0.1 1:0.41818359 2:-4.63875 
0.1 1:0.19477539 2:-1.5100625 
0.1 1:0.52552539 2:-3.46175 
0.1 1:0.434375 2:-2.9555625 
0.1 1:0.20659375 2:-1.3813125 
0.1 1:0.44163867 2:-4.752125 
0.1 1:0.36345508 2:-3.368625 
0.1 1:0.3290957 2:-2.6263125 
0.1 1:0.26130078 2:-1.77575 
0.1 1:0.38329492 2:-1.7343125 
0.1 1:0.42545898 2:-2.3104375 
0.1 1:0.38234766 2:-2.281625 
0.1 1:0.42115039 2:-5.187125 
0.1 1:0.27822461 2:-1.836375 
0.1 1:0.29772266 2:-2.9845 
0.1 1:0.37652539 2:-2.0765 
0.1 1:0.25449219 2:-2.45125 
0.1 1:0.41820312 2:-4.4476875 
0.1 1:0.37261328 2:-4.8285 
0.1 1:0.44421484 2:-2.4914375 
0.1 1:0.407875 2:-3.1875625 
0.1 1:0.29637891 2:-4.25375 
0.1 1:0.46006445 2:-4.03125 
0.1 1:0.34657227 2:-2.2581875 
0.1 1:0.38500977 2:-1.758 
0.1 1:0.34317578 2:-3.28275 
0.1 1:0.3464043 2:-3.0483125 
0.1 1:0.46775 2:-3.990125 
0.1 1:0.35675586 2:-2.232875 
0.1 1:0.31275195 2:-2.2413125 
0.1 1:0.52079883 2:-3.961125 
0.1 1:0.32132422 2:-3.2509375 
0.1 1:0.19261133 2:-1.907375 
0.1 1:0.32876367 2:-2.7605 
0.1 1:0.38763477 2:-1.709875 
0.1 1:0.38128516 2:-2.86675 
0.1 1:0.36405664 2:-1.8345 
0.1 1:0.47981836 2:-2.9349375 
0.1 1:0.22000586 2:-2.8480625 
0.1 1:0.24535742 2:-3.0871875 
0.1 1:0.49461523 2:-4.0245625 
0.1 1:0.34693359 2:-2.9148125 
0.1 1:0.36394531 2:-1.63875 
0.1 1:0.34212109 2:-3.7601875 
0.1 1:0.46969531 2:-2.3004375 
0.1 1:0.46874414 2:-2.178875 
0.1 1:0.43997461 2:-1.51125 
0.1 1:0.34605078 2:-4.539 
0.1 1:0.27299023 2:-1.2601875 
0.1 1:0.47594336 2:-2.7745 
0.1 1:0.22565039 2:-2.6808125 
0.1 1:0.40037695 2:-1.956125 
0.1 1:0.39997852 2:-2.023 
0.1 1:0.29420313 2:-1.9199375 
0.1 1:0.29048438 2:-2.908625 
0.1 1:0.2394668 2:-3.7249375 
0.1 1:0.2550293 2:-2.693875 
0.1 1:0.22947852 2:-1.157625 
0.1 1:0.3888457 2:-3.347625 
0.1 1:0.31316992 2:-2.777625 
0.1 1:0.36936914 2:-3.5874375 
0.1 1:0.54976758 2:-0.798875 
0.1 1:0.32638281 2:-2.101875 
0.1 1:0.3889375 2:-3.2738125 
0.1 1:0.284625 2:-5.445375 
0.1 1:0.38738477 2:-2.848625 
0.1 1:0.38722266 2:-1.817375 
0.1 1:0.43593359 2:-4.35875 
0.1 1:0.40568359 2:-4.743125 
0.1 1:0.39012109 2:-2.077125 
0.1 1:0.29819141 2:-3.56975 
0.1 1:0.34103711 2:-3.227875 
0.1 1:0.33210742 2:-3.9484375 
0.1 1:0.35101172 2:-3.5235 
0.1 1:0.34419531 2:-1.66775 
0.1 1:0.41318555 2:-4.2830625 
0.1 1:0.41963086 2:-2.7916875 
0.1 1:0.27570117 2:-2.78825 
0.1 1:0.43002148 2:-2.2696875 
0.1 1:0.45823437 2:-2.62375 
0.1 1:0.37478516 2:-3.9449375 
0.1 1:0.49304102 2:-2.30275 
0.1 1:0.33559961 2:-4.079875 
0.1 1:0.2208125 2:-2.5071875 
0.1 1:0.28870508 2:-4.330625 
0.1 1:0.21495703 2:-1.86225 
0.1 1:0.34296484 2:-2.37725 
0.1 1:0.35734766 2:-2.7428125 
0.1 1:0.29189063 2:-3.62475 
0.1 1:0.37692773 2:-6.066 
0.1 1:0.45117969 2:-3.092 
0.1 1:0.27055078 2:-1.3105 
0.1 1:0.49108398 2:-1.9874375 
0.1 1:0.32571484 2:-2.687 
0.1 1:0.43425977 2:-1.4025 
0.1 1:0.20381836 2:-2.5619375 
0.1 1:0.43891406 2:-2.859 
0.1 1:0.50227539 2:-3.744 
0.1 1:0.28736133 2:-3.1313125 
0.1 1:0.2397168 2:-3.8524375 
0.1 1:0.42924219 2:-6.279125 
0.1 1:0.39028711 2:-2.472 
0.1 1:0.21700781 2:-2.3581875 
0.1 1:0.23525781 2:-3.2718125 
0.1 1:0.35807031 2:-2.4820625 
0.1 1:0.52735156 2:-4.2251875 
0.1 1:0.54441992 2:-4.3748125 
0.1 1:0.3974043 2:-3.18575 
0.1 1:0.37462109 2:-4.6270625 
0.1 1:0.30707031 2:-1.776375 
0.1 1:0.40182227 2:-3.1219375 
0.1 1:0.42175977 2:-1.934 
0.1 1:0.27438672 2:-1.98 
0.1 1:0.38853906 2:-2.2880625 
0.1 1:0.33874023 2:-3.620125 
0.1 1:0.41735742 2:-1.526375 
0.1 1:0.26541797 2:-2.87675 
0.1 1:0.45062109 2:-1.7868125 
0.1 1:0.4066875 2:-5.1200625 
0.1 1:0.43533203 2:-3.6585 
0.1 1:0.40778125 2:-2.2558125 
0.1 1:0.36245508 2:-4.3391875 
0.1 1:0.43955078 2:-1.6426875 
0.1 1:0.26330664 2:-1.4164375 
0.1 1:0.3324668 2:-3.562 
0.1 1:0.25616016 2:-2.35625 
0.1 1:0.33430664 2:-3.9859375 
0.1 1:0.29471289 2:-3.5785625 
0.1 1:0.28090234 2:-3.5523125 
0.1 1:0.348625 2:-2.0160625 
0.1 1:0.31547266 2:-2.37125 
0.1 1:0.33852734 2:-1.579375 
0.1 1:0.33362305 2:-3.660375 
0.1 1:0.24066016 2:-2.2091875 
0.1 1:0.43242188 2:-1.561625 
0.1 1:0.32834766 2:-1.8000625 
0.1 1:0.53094922 2:-2.2313125 
0.1 1:0.24733008 2:-3.39625 
0.1 1:0.49850195 2:-4.2493125 
0.1 1:0.57983398 2:-1.5735625 
0.1 1:0.2234082 2:-2.465375 
0.1 1:0.37255273 2:-4.0279375 
0.1 1:0.29560352 2:-3.0410625 
0.1 1:0.2096543 2:-3.3384375 
0.1 1:0.34348047 2:-2.28275 
0.1 1:0.26674219 2:-3.784625 
0.1 1:0.29291016 2:-3.6591875 
0.1 1:0.55480078 2:-3.3968125 
0.1 1:0.24638867 2:-2.7195625 
0.1 1:0.40707813 2:-1.1791875 
0.1 1:0.26488281 2:-3.2199375 
0.1 1:0.26388086 2:-2.4286875 
0.1 1:0.36821094 2:-2.479875 
0.1 1:0.29078711 2:-2.114 
0.1 1:0.37178516 2:-3.7303125 
0.1 1:0.37255469 2:-4.3179375 
0.1 1:0.12339844 2:-2.0333125 
0.1 1:0.50777344 2:-3.3566875 
0.1 1:0.28432422 2:-3.0955625 
0.1 1:0.38122656 2:-3.5826875 
0.1 1:0.42836523 2:-3.6604375 
0.1 1:0.42260938 2:-4.761125 
0.1 1:0.41620703 2:-3.46575 
0.1 1:0.44528125 2:-3.1585 
0.1 1:0.39529102 2:-4.564375 
0.1 1:0.33358203 2:-3.0415 
0.1 1:0.32065234 2:-3.4786875 
0.1 1:0.44555664 2:-2.8524375 
0.1 1:0.34355469 2:-3.5971875 
0.1 1:0.46533398 2:-3.3760625 
0.1 1:0.33297852 2:-3.5381875 
0.1 1:0.33718359 2:-3.04075 
0.1 1:0.21825195 2:-3.4581875 
0.1 1:0.45213672 2:-3.742375 
0.1 1:0.38451172 2:-3.2376875 
0.1 1:0.43018359 2:-4.062625 
0.1 1:0.47380469 2:-2.396625 
0.1 1:0.25153516 2:-2.034125 
0.1 1:0.39766406 2:-3.1635625 
0.1 1:0.31277148 2:-4.653625 
0.1 1:0.27026563 2:-4.021375 
0.1 1:0.50226563 2:-3.4804375 
0.1 1:0.5284082 2:-3.2651875 
0.1 1:0.24726953 2:-1.332625 
0.1 1:0.3090957 2:-3.85075 
0.1 1:0.35908984 2:-2.934875 
0.1 1:0.47579297 2:-3.768875 
0.1 1:0.4467832 2:-4.06625 
0.1 1:0.29695898 2:-1.7955625 
0.1 1:0.43748438 2:-3.083 
0.1 1:0.28352734 2:-3.212875 
0.1 1:0.39397461 2:-5.0691875 
0.1 1:0.32063867 2:-2.9024375 
0.1 1:0.31102734 2:-4.2288125 
0.1 1:0.16695508 2:-1.788625 
0.1 1:0.50749414 2:-4.0415625 
0.1 1:0.32941602 2:-2.3140625 
0.1 1:0.45623047 2:-2.8043125 
0.1 1:0.31485156 2:-4.1795 
0.1 1:0.273625 2:-3.2185 
0.1 1:0.20087109 2:-0.9624375 
0.1 1:0.25358594 2:-0.9501875 
0.1 1:0.23089453 2:-1.5915 
0.1 1:0.25422266 2:-2.438875 
0.1 1:0.25707813 2:-3.7184375 
0.1 1:0.35217578 2:-2.085125 
0.1 1:0.19886328 2:-2.5488125 
0.1 1:0.42663086 2:-3.637125 
0.1 1:0.39108984 2:-1.8384375 
0.1 1:0.25164063 2:-3.43575 
0.1 1:0.3836875 2:-4.3201875 
0.1 1:0.12336719 2:-2.2634375 
0.1 1:0.48700977 2:-3.3898125 
0.1 1:0.29399805 2:-3.1081875 
0.1 1:0.46525391 2:-4.268125 
0.1 1:0.2195625 2:-3.7606875 
0.1 1:0.35754883 2:-3.372625 
0.1 1:0.27367383 2:-2.1773125 
0.1 1:0.17069531 2:-1.9250625 
0.1 1:0.27979883 2:-1.9578125 
0.1 1:0.31611523 2:-3.318625 
0.1 1:0.44185156 2:-3.6235 
0.1 1:0.39460156 2:-2.5830625 
0.1 1:0.40689063 2:-2.2748125 
0.1 1:0.35253906 2:-2.61525 
0.1 1:0.15487695 2:-2.084875 
0.1 1:0.31465625 2:-3.7899375 
0.1 1:0.33942383 2:-2.816875 
0.1 1:0.2439375 2:-3.4745625 
0.1 1:0.47799219 2:-2.5883125 
0.1 1:0.28627148 2:-1.2314375 
0.1 1:0.27155469 2:-3.040875 
0.1 1:0.43280273 2:-3.691 
0.1 1:0.33723437 2:-1.4580625 
0.1 1:0.30507812 2:-4.5428125 
0.1 1:0.24601367 2:-2.191 
0.1 1:0.31989258 2:-1.6335625 
0.1 1:0.34951953 2:-2.8583125 
0.1 1:0.45213086 2:-3.090875 
0.1 1:0.37343359 2:-2.9120625 
0.1 1:0.49319727 2:-3.079625 
0.1 1:0.27044922 2:-2.3269375 
0.1 1:0.25627734 2:-1.8748125 
0.1 1:0.44330078 2:-2.477875 
0.1 1:0.40152148 2:-3.35125 
0.1 1:0.40037109 2:-2.6249375 
0.1 1:0.65594141 2:-2.2291875 
0.1 1:0.35795508 2:-2.40525 
0.1 1:0.52732813 2:-2.161125 
0.1 1:0.30743164 2:-2.150375 
0.1 1:0.29967383 2:-4.1315625 
0.1 1:0.4660332 2:-3.523875 
0.1 1:0.30395312 2:-2.4815625 
0.1 1:0.33169922 2:-2.062625 
0.1 1:0.34374219 2:-3.757125 
0.1 1:0.38376562 2:-3.8575625 
0.1 1:0.43075781 2:-3.5646875 
0.1 1:0.18282422 2:-2.9845625 
0.1 1:0.45269336 2:-4.4751875 
0.1 1:0.35320508 2:-2.8369375 
0.1 1:0.47471289 2:-1.781 
0.1 1:0.46979297 2:-3.54825 
0.1 1:0.39201758 2:-3.277375 
0.1 1:0.24608203 2:-2.3425625 
0.1 1:0.49688477 2:-3.0741875 
0.1 1:0.35717578 2:-3.3101875 
0.1 1:0.29102539 2:-2.3373125 
0.1 1:0.31656641 2:-2.7206875 
0.1 1:0.30881445 2:-2.2698125 
0.1 1:0.33810352 2:-4.35 
0.1 1:0.42306055 2:-3.1710625 
0.1 1:0.46308789 2:-2.4643125 
0.1 1:0.22574414 2:-2.3684375 
0.1 1:0.45107812 2:-2.0339375 
0.1 1:0.22906641 2:-1.590375 
0.1 1:0.32610547 2:-3.250875 
0.1 1:0.48751172 2:-4.2118125 
0.1 1:0.34125391 2:-1.1159375 
0.1 1:0.33127734 2:-3.2449375 
0.1 1:0.44514258 2:-3.364625 
0.1 1:0.50982422 2:-2.602875 
0.1 1:0.36720898 2:-2.2955 
0.1 1:0.38841797 2:-3.018625 
0.1 1:0.25369141 2:-3.0723125 
0.1 1:0.31803516 2:-0.858 
0.1 1:0.17209766 2:-3.677625 
0.1 1:0.38060742 2:-4.1420625 
0.1 1:0.21699023 2:-2.6715 
0.1 1:0.24311523 2:-2.8549375 
0.1 1:0.37282227 2:-1.704 
0.1 1:0.42789844 2:-4.0163125 
0.1 1:0.44405469 2:-4.3299375 
0.1 1:0.32937891 2:-1.713375 
0.1 1:0.2563418 2:-2.9838125 
0.1 1:0.35253516 2:-3.5119375 
0.1 1:0.29395313 2:-2.5784375 
0.1 1:0.40747852 2:-2.684 
0.1 1:0.3894082 2:-2.3775625 
0.1 1:0.20988281 2:-2.778625 
0.1 1:0.29208203 2:-3.0359375 
0.1 1:0.35587305 2:-2.288625 
0.1 1:0.48227734 2:-4.33475 
0.1 1:0.31220117 2:-1.354625 
0.1 1:0.31999023 2:-3.4375 
0.1 1:0.42345313 2:-3.9575 
0.1 1:0.27977539 2:-2.3631875 
0.1 1:0.24126758 2:-2.4735 
0.1 1:0.43007617 2:-2.785 
0.1 1:0.24583008 2:-2.7515625 
0.1 1:0.31676953 2:-2.14075 
0.1 1:0.43455859 2:-1.505125 
0.1 1:0.28305273 2:-2.2699375 
0.1 1:0.28426953 2:-2.9063125 
0.1 1:0.31833008 2:-2.2700625 
0.1 1:0.5178125 2:-2.3533125 
0.1 1:0.51782031 2:-2.9840625 
0.1 1:0.3668457 2:-1.7016875 
0.1 1:0.45496094 2:-4.1976875 
0.1 1:0.30172266 2:-3.0673125 
0.1 1:0.4495 2:-2.537375 
0.1 1:0.33677148 2:-2.777375 
0.1 1:0.26169922 2:-2.8788125 
0.1 1:0.32529102 2:-3.8465 
0.1 1:0.38744727 2:-3.2230625 
0.1 1:0.37977539 2:-2.7740625 
0.1 1:0.3807207 2:-4.4460625 
0.1 1:0.41676953 2:-3.57375 
0.1 1:0.37899609 2:-6.203375 
0.1 1:0.36498437 2:-5.0790625 
0.1 1:0.29725586 2:-4.34775 
0.1 1:0.45412305 2:-2.8335 
0.1 1:0.59392578 2:-2.6131875 
0.1 1:0.32730664 2:-4.8165625 
0.1 1:0.32758203 2:-4.008125 
0.1 1:0.45989258 2:-2.8385625 
0.1 1:0.4820332 2:-1.2183125 
0.1 1:0.22896484 2:-3.422125 
0.1 1:0.30768945 2:-2.5954375 
0.1 1:0.24520117 2:-3.8335625 
0.1 1:0.42413672 2:-4.6000625 
0.1 1:0.28710156 2:-3.6726875 
0.1 1:0.34985352 2:-2.4348125 
0.1 1:0.28037109 2:-3.8800625 
0.1 1:0.30878516 2:-2.433625 
0.1 1:0.42280859 2:-3.1426875 
0.1 1:0.45810547 2:-2.725875 
0.1 1:0.46001953 2:-3.562375 
0.1 1:0.52775391 2:-2.3980625 
0.1 1:0.27891211 2:-4.927 
0.1 1:0.3564043 2:-3.6638125 
0.1 1:0.15948437 2:-2.029 
0.1 1:0.17296875 2:-1.639 
0.1 1:0.54077734 2:-2.5634375 
0.1 1:0.39310937 2:-3.974875 
0.1 1:0.38823047 2:-3.969 
0.1 1:0.52864844 2:-2.0689375 
0.1 1:0.18749023 2:-3.19425 
0.1 1:0.24225781 2:-3.93575 
0.1 1:0.36859766 2:-2.314875 
0.1 1:0.35502539 2:-1.6113125 
0.1 1:0.40429687 2:-1.10175 
0.1 1:0.23803906 2:-1.2504375 
0.1 1:0.3515918 2:-1.2735625 
0.1 1:0.21661914 2:-2.7246875 
0.1 1:0.43761719 2:-3.33625 
0.1 1:0.29613086 2:-3.8143125 
0.1 1:0.42405469 2:-2.2151875 
0.1 1:0.28570312 2:-1.774 
0.1 1:0.34070508 2:-1.944125 
0.1 1:0.23285156 2:-2.8511875 
0.1 1:0.32287109 2:-2.40375 
0.1 1:0.37689063 2:-1.9815 
0.1 1:0.34912305 2:-3.1158125 
0.1 1:0.29012891 2:-2.4004375 
0.1 1:0.59253906 2:-2.77375 
0.1 1:0.3136582 2:-3.195375 
0.1 1:0.3658125 2:-1.961625 
0.1 1:0.45131445 2:-4.8573125 
0.1 1:0.33640039 2:-2.6640625 
0.1 1:0.27773047 2:-3.5765625 
0.1 1:0.50985352 2:-2.284 
0.1 1:0.50944336 2:-3.7714375 
0.1 1:0.39329102 2:-2.96975 
0.1 1:0.27436719 2:-2.3890625 
0.1 1:0.36310352 2:-2.8215625 
0.1 1:0.43607617 2:-2.363125 
0.1 1:0.1554707 2:-1.6245625 
0.1 1:0.30839453 2:-3.525375 
0.1 1:0.20846289 2:-1.83875 
0.1 1:0.38279883 2:-3.2830625 
0.1 1:0.17598242 2:-3.369 
0.1 1:0.34080859 2:-1.552 
0.1 1:0.31175195 2:-2.6984375 
0.1 1:0.36387305 2:-2.0845625 
0.1 1:0.32591797 2:-3.0913125 
0.1 1:0.28313086 2:-3.6645625 
0.1 1:0.27236914 2:-3.7054375 
0.1 1:0.26692383 2:-3.2095 
0.1 1:0.27545117 2:-3.180875 
0.1 1:0.41257227 2:-1.71725 
0.1 1:0.30602148 2:-4.477625 
0.1 1:0.23557227 2:-1.9678125 
0.1 1:0.36937305 2:-4.2165 
0.1 1:0.38675977 2:-4.5975 
0.1 1:0.24747852 2:-2.792 
0.1 1:0.36931641 2:-4.372125 
0.1 1:0.22231836 2:-4.296375 
0.1 1:0.37243359 2:-3.5903125 
0.1 1:0.42530273 2:-3.6656875 
0.1 1:0.26806055 2:-2.1526875 
0.1 1:0.47977344 2:-3.13125 
0.1 1:0.25118164 2:-1.898125 
0.1 1:0.37239258 2:-3.290125 
0.1 1:0.35033594 2:-2.7564375 
0.1 1:0.3315957 2:-3.4609375 
0.1 1:0.44328906 2:-1.86225 
0.1 1:0.27683008 2:-2.153625 
0.1 1:0.2248125 2:-1.0631875 
0.1 1:0.60116992 2:-1.4695625 
0.1 1:0.45349219 2:-1.922625 
0.1 1:0.47751758 2:-4.1559375 
0.1 1:0.25391211 2:-2.442625 
0.1 1:0.21723047 2:-2.405125 
0.1 1:0.48723242 2:-2.3460625 
0.1 1:0.30180859 2:-2.16275 
0.1 1:0.26782617 2:-3.1501875 
0.1 1:0.32152344 2:-4.0238125 
0.1 1:0.22523437 2:-4.4809375 
0.1 1:0.4513125 2:-2.75075 
0.1 1:0.49685547 2:-1.6393125 
0.1 1:0.47286914 2:-4.1599375 
0.1 1:0.32141992 2:-2.232125 
0.1 1:0.27089063 2:-2.5478125 
0.1 1:0.29571094 2:-2.205125 
0.1 1:0.50765234 2:-2.22525 
0.1 1:0.40037109 2:-2.33225 
0.1 1:0.2959082 2:-2.391625 
0.1 1:0.49775 2:-2.6403125 
0.1 1:0.33852344 2:-3.2181875 
0.1 1:0.35964258 2:-2.9628125 
0.1 1:0.24449219 2:-1.5425 
0.1 1:0.4747207 2:-3.821125 
0.1 1:0.42864844 2:-2.6571875 
0.1 1:0.3902207 2:-3.342375 
0.1 1:0.25717773 2:-2.1083125 
0.1 1:0.35397656 2:-1.859625 
0.1 1:0.24718164 2:-3.4359375 
0.1 1:0.3222207 2:-2.497375 
0.1 1:0.34558203 2:-3.37725 
0.1 1:0.25978906 2:-1.63275 
0.1 1:0.39682227 2:-1.5556875 
0.1 1:0.23957617 2:-2.785375 
0.1 1:0.25826562 2:-1.6623125 
0.1 1:0.339125 2:-1.304625 
0.1 1:0.53006445 2:-2.718375 
0.1 1:0.29295898 2:-4.6575625 
0.1 1:0.34706836 2:-4.571625 
0.1 1:0.32032812 2:-4.418125 
0.1 1:0.30654297 2:-2.1839375 
0.1 1:0.42469531 2:-1.8178125 
0.1 1:0.51979883 2:-1.8845625 
0.1 1:0.459 2:-5.2013125 
0.1 1:0.27932617 2:-4.1611875 
0.1 1:0.26952148 2:-1.5008125 
0.1 1:0.39248828 2:-3.027875 
0.1 1:0.49073242 2:-3.315625 
0.1 1:0.47415625 2:-4.8995625 
0.1 1:0.33469531 2:-2.93075 
0.1 1:0.28163281 2:-3.179375 
0.1 1:0.38560742 2:-3.2704375 
0.1 1:0.30292383 2:-2.5051875 
0.1 1:0.44560547 2:-3.518625 
0.1 1:0.26932422 2:-1.75025 
0.1 1:0.46235742 2:-5.634125 
0.1 1:0.35586719 2:-4.579125 
0.1 1:0.37676367 2:-5.549 
0.1 1:0.33924023 2:-3.7311875 
0.1 1:0.27570508 2:-1.7501875 
0.1 1:0.353 2:-2.7285 
0.1 1:0.42361328 2:-2.841875 
0.1 1:0.32204492 2:-2.8611875 
0.1 1:0.49887891 2:-3.0599375 
0.1 1:0.26744336 2:-2.9053125 
0.1 1:0.36882227 2:-3.3408125 
0.1 1:0.39445898 2:-3.74275 
0.1 1:0.34167578 2:-2.6451875 
0.1 1:0.43727148 2:-4.1584375 
0.1 1:0.39324414 2:-2.4733125 
0.1 1:0.27555469 2:-3.6163125 
0.1 1:0.28708789 2:-2.5873125 
0.1 1:0.23667969 2:-3.285 
0.1 1:0.36602734 2:-1.5118125 
0.1 1:0.5994668 2:-2.6765 
0.1 1:0.35558789 2:-3.6624375 
0.1 1:0.28954102 2:-4.644125 
0.1 1:0.35866016 2:-3.0785 
0.1 1:0.38197852 2:-3.4344375 
0.1 1:0.41161914 2:-3.4816875 
0.1 1:0.29558984 2:-2.858 
0.1 1:0.2388457 2:-2.1976875 
0.1 1:0.56148633 2:-3.396 
0.1 1:0.36124023 2:-3.3540625 
0.1 1:0.36764844 2:-3.4171875 
0.1 1:0.31925977 2:-1.5941875 
0.1 1:0.41151367 2:-2.1315 
0.1 1:0.53756055 2:-1.4563125 
0.1 1:0.47179688 2:-4.263875 
0.1 1:0.22961328 2:-4.3941875 
0.1 1:0.4081582 2:-2.5755 
0.1 1:0.31025977 2:-2.604625 
0.1 1:0.26133203 2:-4.7173125 
0.1 1:0.46410742 2:-4.8941875 
0.1 1:0.24733789 2:-3.4609375 
0.1 1:0.45466992 2:-2.942125 
0.1 1:0.44179297 2:-1.180625 
0.1 1:0.41267578 2:-2.2394375 
0.1 1:0.21710742 2:-3.57425 
0.1 1:0.2684375 2:-2.4340625 
0.1 1:0.38156055 2:-2.6869375 
0.1 1:0.41975977 2:-3.188 
0.1 1:0.22520898 2:-3.5239375 
0.1 1:0.30731445 2:-2.7576875 
0.1 1:0.49548828 2:-3.364375 
0.1 1:0.27541992 2:-5.0645625 
0.1 1:0.53393555 2:-3.7854375 
0.1 1:0.31274219 2:-3.13875 
0.1 1:0.36972461 2:-1.8185 
0.1 1:0.43040625 2:-3.1189375 
0.1 1:0.40728906 2:-2.4464375 
0.1 1:0.22850586 2:-1.869875 
0.1 1:0.29614063 2:-3.1636875 
0.1 1:0.23283398 2:-2.39575 
0.1 1:0.40866211 2:-2.91425 
0.1 1:0.38346484 2:-2.8445 
0.1 1:0.44778516 2:-2.7351875 
0.1 1:0.37757422 2:-4.804125 
0.1 1:0.30510547 2:-4.36925 
0.1 1:0.33367383 2:-2.739 
0.1 1:0.37888477 2:-1.45675 
0.1 1:0.37437891 2:-1.7210625 
0.1 1:0.39082422 2:-2.3981875 
0.1 1:0.34639453 2:-3.306375 
0.1 1:0.24242187 2:-2.8604375 
0.1 1:0.44498437 2:-3.3908125 
0.1 1:0.30421484 2:-4.210125 
0.1 1:0.38302539 2:-3.317625 
0.1 1:0.22852344 2:-2.6631875 
0.1 1:0.45632617 2:-2.167125 
0.1 1:0.5069082 2:-2.5089375 
0.1 1:0.26847266 2:-2.5329375 
0.1 1:0.22754492 2:-2.5660625 
0.1 1:0.30773633 2:-3.180875 
0.1 1:0.41479102 2:-3.7660625 
0.1 1:0.40937109 2:-2.7834375 
0.1 1:0.22610547 2:-2.844625 
0.1 1:0.30149805 2:-3.2504375 
0.1 1:0.21372266 2:-3.2156875 
0.1 1:0.26113086 2:-1.6146875 
0.1 1:0.43186914 2:-3.553875 
0.1 1:0.39793555 2:-2.6754375 
0.1 1:0.40038086 2:-2.0874375 
0.1 1:0.40569336 2:-2.21375 
0.1 1:0.19023633 2:-2.2865 
0.1 1:0.3864375 2:-1.5735 
0.1 1:0.52628906 2:-2.6603125 
0.1 1:0.2154375 2:-2.541125 
0.1 1:0.25010547 2:-4.1759375 
0.1 1:0.38577734 2:-2.6884375 
0.1 1:0.27696094 2:-3.481375 
0.1 1:0.44503711 2:-3.56625 
0.1 1:0.29705078 2:-1.08675 
0.1 1:0.25343945 2:-3.0164375 
0.1 1:0.33468945 2:-3.2365 
0.1 1:0.32280273 2:-2.0461875 
0.1 1:0.35805469 2:-1.609 
0.1 1:0.39567969 2:-3.775375 
0.1 1:0.25545703 2:-2.2199375 
0.1 1:0.28976367 2:-2.34075 
0.1 1:0.44792773 2:-5.903 
0.1 1:0.26153125 2:-3.40475 
0.1 1:0.20821484 2:-2.039 
0.1 1:0.40451953 2:-1.271 
0.1 1:0.31866406 2:-3.081875 
0.1 1:0.28365039 2:-2.8665 
0.1 1:0.36656836 2:-4.133375 
0.1 1:0.3609707 2:-1.736625 
0.1 1:0.24614648 2:-3.1475 
0.1 1:0.43825586 2:-2.51575 
0.1 1:0.32977539 2:-2.2985625 
0.1 1:0.29473242 2:-3.053 
0.1 1:0.47623633 2:-4.3488125 
0.1 1:0.39125781 2:-2.5903125 
0.1 1:0.52434375 2:-2.0265 
0.1 1:0.31198242 2:-2.8375 
0.1 1:0.29856836 2:-1.3805625 
0.1 1:0.44303906 2:-2.2975625 
0.1 1:0.38176172 2:-3.197125 
0.1 1:0.3295625 2:-2.4216875 
0.1 1:0.24084375 2:-2.174125 
0.1 1:0.33051172 2:-3.44125 
0.1 1:0.27910352 2:-3.861875 
0.1 1:0.35276562 2:-4.7933125 
0.1 1:0.35726367 2:-4.68325 
0.1 1:0.31829297 2:-3.0553125 
0.1 1:0.64953711 2:-2.5906875 
0.1 1:0.41696289 2:-3.655625 
0.1 1:0.42798047 2:-1.8614375 
0.1 1:0.39617188 2:-4.6318125 
0.1 1:0.33859375 2:-2.1930625 
0.1 1:0.38888086 2:-2.0305 
0.1 1:0.4339043 2:-3.1655625 
0.1 1:0.28953516 2:-4.65275 
0.1 1:0.27574414 2:-3.3558125 
0.1 1:0.32245703 2:-3.907375 
0.1 1:0.41381055 2:-3.4913125 
0.1 1:0.38224414 2:-3.084 
0.1 1:0.52532227 2:-2.8126875 
0.1 1:0.19851367 2:-2.452625 
0.1 1:0.31573633 2:-3.224125 
0.1 1:0.31063477 2:-3.77025 
0.1 1:0.23882813 2:-3.4575625 
0.1 1:0.34071484 2:-2.841 
0.1 1:0.44748633 2:-3.7504375 
0.1 1:0.24892187 2:-2.3585625 
0.1 1:0.39503906 2:-4.05675 
0.1 1:0.41204297 2:-4.5963125 
0.1 1:0.45176563 2:-4.928 
0.1 1:0.41361328 2:-2.1330625 
0.1 1:0.2551543 2:-2.345875 
0.1 1:0.27792773 2:-1.9775625 
0.1 1:0.42236523 2:-3.9070625 
0.1 1:0.25568945 2:-2.894875 
0.1 1:0.40580078 2:-3.350125 
0.1 1:0.23729883 2:-1.4004375 
0.1 1:0.30921484 2:-2.1234375 
0.1 1:0.30995313 2:-4.216375 
0.1 1:0.37252148 2:-3.554625 
0.1 1:0.23301758 2:-2.77575 
0.1 1:0.31291602 2:-3.3015625 
0.1 1:0.52707617 2:-4.68575 
0.1 1:0.21876367 2:-3.14925 
0.1 1:0.34798633 2:-4.020125 
0.1 1:0.4947168 2:-2.6748125 
0.1 1:0.30180469 2:-3.6710625 
0.1 1:0.40231445 2:-5.663875 
0.1 1:0.37058984 2:-3.2365 
0.1 1:0.31237305 2:-1.243125 
0.1 1:0.25310938 2:-3.3103125 
0.1 1:0.26485742 2:-2.1836875 
0.1 1:0.4079668 2:-3.6353125 
0.1 1:0.23672852 2:-2.6773125 
0.1 1:0.24961133 2:-3.538375 
0.1 1:0.1862207 2:-1.8210625 
0.1 1:0.31139258 2:-3.1750625 
0.1 1:0.35028711 2:-1.8460625 
0.1 1:0.50605664 2:-2.7380625 
0.1 1:0.3054375 2:-1.9735625 
0.1 1:0.2967832 2:-3.249875 
0.1 1:0.32062109 2:-1.7270625 
0.1 1:0.38314062 2:-2.5246875 
0.1 1:0.40404883 2:-2.433875 
0.1 1:0.36358984 2:-4.906375 
0.1 1:0.44145898 2:-2.5428125 
0.1 1:0.30418555 2:-2.98925 
0.1 1:0.43210742 2:-3.254625 
0.1 1:0.31988281 2:-3.0180625 
0.1 1:0.31225977 2:-1.9321875 
0.1 1:0.38989063 2:-2.975 
0.1 1:0.18492578 2:-3.3076875 
0.1 1:0.3755918 2:-2.10825 
0.1 1:0.51006055 2:-1.950875 
0.1 1:0.31919531 2:-2.3588125 
0.1 1:0.2614707 2:-3.76825 
0.1 1:0.49211133 2:-2.1145 
0.1 1:0.43618359 2:-2.817625 
0.1 1:0.20134375 2:-1.7034375 
0.1 1:0.19142383 2:-2.952 
0.1 1:0.38924414 2:-2.8080625 
0.1 1:0.46249414 2:-4.082 
0.1 1:0.36126172 2:-3.423875 
0.1 1:0.5656875 2:-1.8881875 
0.1 1:0.20561914 2:-2.3905625 
0.1 1:0.20394727 2:-3.174375 
0.1 1:0.3034707 2:-4.362875 
0.1 1:0.21975195 2:-2.9699375 
0.1 1:0.3485625 2:-1.658125 
0.1 1:0.50018164 2:-4.394625 
0.1 1:0.24304883 2:-3.1459375 
0.1 1:0.29429687 2:-3.6584375 
0.1 1:0.24593945 2:-2.1311875 
0.1 1:0.28891602 2:-1.8748125 
0.1 1:0.39734961 2:-4.196375 
0.1 1:0.31222266 2:-1.824 
0.1 1:0.27303906 2:-3.471875 
0.1 1:0.2591543 2:-1.780875 
0.1 1:0.49410352 2:-1.903625 
0.1 1:0.44803711 2:-4.523 
0.1 1:0.33625781 2:-1.9894375 
0.1 1:0.26878906 2:-2.6270625 
0.1 1:0.1994082 2:-2.0345625 
-0.02743548780225594 1:0.14189063 2:-0.6464375 
-0.01476832358585927 1:0.14504883 2:-2.4418125 
-0.001671746483949854 1:0.18887891 2:-3.604375 
-0.01737443561427487 1:0.32176758 2:-4.7096875 
-0.04147159495021568 1:0.23028906 2:-4.82625 
-0.008896621226910447 1:0.16342383 2:-1.017125 
-0.06812063493279899 1:0.076787109 2:-1.723625 
-0.002426607580605387 1:0.16974609 2:-0.8895625 
-0.002319895891255442 1:0.27174219 2:-5.023125 
-0.00824733481235467 1:0.1528457 2:-2.7433125 
-0.02308488132841436 1:0.19458984 2:-3.3660625 
-0.01827238773626683 1:0.30642578 2:-4.261 
-0.09601165642473555 1:0.26134961 2:-5.7624375 
-0.003117318293575126 1:0.28732031 2:-5.3385 
-0.1 1:0.38406055 2:-4.01 
-0.03760769114465542 1:0.24398438 2:-3.719375 
-0.1 1:0.29567383 2:-3.2821875 
-0.07776101507667034 1:0.11468945 2:-2.700125 
-0.04316051662049623 1:0.18298047 2:-3.544875 
-0.004846361752297468 1:0.2493457 2:-4.6851875 
-0.01053187975046747 1:0.30941602 2:-4.469125 
-0.002340166792601984 1:0.15900781 2:-0.5613125 
-0.0409426506222433 1:0.14280859 2:-2.5488125 
-0.1 1:0.29499023 2:-2.921 
-0.00785247636778664 1:0.16048437 2:-0.496375 
-0.08620586763483658 1:0.138125 2:-3.5304375 
-0.05683563345479226 1:0.24993945 2:-5.5373125 
-0.1 1:0.31603125 2:-3.776875 
-0.008274283337632998 1:0.36448047 2:-5.8969375 
-0.1 1:0.33104102 2:-2.396 
-0.1 1:0.37638086 2:-6.194875 
-0.1 1:0.33725781 2:-3.869 
-0.06790796195994252 1:0.36413867 2:-6.3994375 
-0.1 1:0.41975 2:-5.11875 
-0.08576652644455826 1:0.24310742 2:-3.7805625 
-0.0155641344861988 1:0.26120508 2:-4.383875 
-0.008326774247937967 1:0.30195117 2:-4.4536875 
-0.1 1:0.20934766 2:-2.263375 
-0.005116200562742645 1:0.30151758 2:-5.2821875 
-0.004675543457661117 1:0.13254688 2:-0.71225 
-0.01041662098780375 1:0.18468164 2:-3.602 
-0.0006992235928545033 1:0.22634375 2:-4.1656875 
-0.1 1:0.25332031 2:-3.16875 
-0.1 1:0.27979687 2:-4.1613125 
-0.04378759286265355 1:0.22288086 2:-0.879125 
-0.003798823857587138 1:0.18618164 2:-3.519625 
-0.0167455045272474 1:0.31304102 2:-5.107625 
-0.01263445098361718 1:0.28278711 2:-4.718 
-0.02042797530958172 1:0.3350332 2:-4.747125 
-0.06987882361097672 1:0.41219531 2:-7.08375 
-0.02568706099297374 1:0.25544727 2:-3.8409375 
-0.01266283337687769 1:0.29255078 2:-4.3645 
-0.06751374624645298 1:0.20061523 2:-1.3003125 
-0.07762704673998498 1:0.21986328 2:-4.9395 
-0.05579666116215396 1:0.16908984 2:-1.0158125 
-0.01384618613422805 1:0.18317383 2:-2.6414375 
-0.02781948954540264 1:0.34373047 2:-3.911375 
-0.07097341801797244 1:0.16586328 2:-4.110875 
-0.05583431746940837 1:0.30473828 2:-5.8505 
-0.003672737651629965 1:0.17526562 2:-0.863125 
-0.1 1:0.39370508 2:-2.9211875 
-0.07700719918489575 1:0.11273828 2:-2.7833125 
-0.03628830084050214 1:0.264375 2:-3.62875 
-0.01126519354572819 1:0.11400195 2:-1.7169375 
-0.1 1:0.4081543 2:-3.5719375 
-0.03231327740122699 1:0.28873242 2:-5.3585625 
-0.05882063648423435 1:0.19892578 2:-2.933375 
-0.006766286000599238 1:0.1968457 2:-2.86375 
-0.004373734439172439 1:0.20479687 2:-4.2284375 
-0.003091547646616476 1:0.2588418 2:-4.531875 
-0.02302506891504182 1:0.14158398 2:-1.0695625 
-0.02732928511019251 1:0.29868555 2:-5.44775 
-0.004326533256851022 1:0.19592383 2:-3.6909375 
-0.00923103773930057 1:0.2689082 2:-3.412375 
-0.07975977858063701 1:0.21741602 2:-3.2058125 
-0.03864062057323177 1:0.16170898 2:-3.8336875 
-0.0276757905184612 1:0.4509043 2:-6.5925625 
-0.01261926224264154 1:0.11510742 2:-2.670625 
-0.1 1:0.27323828 2:-3.409 
-0.0294472897370005 1:0.3285918 2:-5.3643125 
-0.08009593555555067 1:0.30597656 2:-4.17525 
-0.004236661620681025 1:0.22898633 2:-3.8538125 
-0.03018437160271283 1:0.12463281 2:-2.6011875 
-0.1 1:0.24054883 2:-3.2778125 
-0.03701942482256956 1:0.21317188 2:-0.3318125 
-0.05879057524685189 1:0.093474609 2:-2.29 
-0.003156328182036285 1:0.29319922 2:-4.9666875 
-0.01443420343076897 1:0.34679102 2:-4.3859375 
-0.1 1:0.30561719 2:-4.2335 
-0.004729128773697791 1:0.25605273 2:-4.287875 
-0.1 1:0.30804102 2:-2.93125 
-0.001931956360133285 1:0.2645 2:-3.494875 
-0.1 1:0.32874023 2:-3.8516875 
-0.00139449488705784 1:0.23288086 2:-4.4238125 
-0.049847489585969 1:0.23095703 2:-0.5875 
-0.009175104633579456 1:0.21592969 2:-0.6776875 
-0.004833174129341909 1:0.21548828 2:-3.7371875 
-0.1 1:0.33283984 2:-3.3153125 
-0.03666973627078506 1:0.20559375 2:-0.657125 
-0.01171853009314167 1:0.28054102 2:-4.74375 
-0.02198448271154851 1:0.17676562 2:-2.18075 
-0.006423193891785468 1:0.17768945 2:-0.8363125 
-0.01713279471020634 1:0.21966992 2:-3.706125 
-0.007321288767110103 1:0.15276953 2:-0.793625 
-0.1 1:0.4497168 2:-4.510125 
-0.08419871238658078 1:0.26073828 2:-4.4661875 
-0.02362621038460688 1:0.20055078 2:-4.0369375 
-0.03244336678534232 1:0.1082207 2:-2.2316875 
-0.008496109005270348 1:0.22170898 2:-2.994125 
-0.05586167879678065 1:0.40001758 2:-6.005875 
-0.004635591475235931 1:0.30229102 2:-4.7425 
-0.06252014696731012 1:0.13674414 2:-2.6331875 
-0.1 1:0.44400781 2:-5.9770625 
-0.01033139921610941 1:0.22185742 2:-4.004375 
-0.091803297734721 1:0.33949219 2:-4.249625 
-0.02131940287255447 1:0.27955469 2:-5.9626875 
-0.01543678510882748 1:0.12993359 2:-1.4123125 
-0.003267795539723512 1:0.18921875 2:-0.769625 
-0.02056583615484004 1:0.1367793 2:-1.2078125 
-0.01638061085425499 1:0.2792832 2:-4.56025 
-0.0104382281829247 1:0.31316406 2:-5.430125 
-0.001578172392350339 1:0.25774805 2:-4.7595 
-0.1 1:0.31269922 2:-4.47825 
-0.002031489890155396 1:0.33329102 2:-5.1855625 
-0.007048443449880288 1:0.249375 2:-5.0311875 
-0.001525501351370271 1:0.17282227 2:-3.03875 
-0.007175973560952398 1:0.35423242 2:-3.837 
-0.02715046870459841 1:0.22475195 2:-0.9225625 
-0.1 1:0.28108203 2:-3.5603125 
-0.004324726474684387 1:0.17560742 2:-3.4273125 
-0.05213881182557178 1:0.16279883 2:-1.3314375 
-0.03058180657285215 1:0.36280859 2:-5.7243125 
-0.00247785075504623 1:0.30321094 2:-5.1368125 
-0.02560338266828035 1:0.32441602 2:-5.6034375 
-0.1 1:0.45179883 2:-3.507 
-0.004419482781858747 1:0.17439648 2:-2.9799375 
-0.06243695637084126 1:0.35747656 2:-4.5548125 
-0.1 1:0.2531543 2:-3.0548125 
-0.0676520757468293 1:0.35107031 2:-5.908875 
-0.007525552688979861 1:0.27291406 2:-4.54875 
-0.1 1:0.25284766 2:-1.5586875 
-0.1 1:0.26678516 2:-2.513375 
-0.007488441035045109 1:0.3272793 2:-5.0328125 
-0.1 1:0.27933008 2:-2.861125 
-0.08111244067595877 1:0.099566406 2:-2.39075 
-0.07468458794065211 1:0.4188418 2:-5.466875 
-0.1 1:0.43722656 2:-4.279375 
-0.05224417899535298 1:0.076007812 2:-0.794375 
-0.03987299930426402 1:0.32765625 2:-6.1134375 
-0.01200602049902511 1:0.15358594 2:-0.56225 
-0.09613631802829706 1:0.46201172 2:-5.260375 
-0.00994144197714884 1:0.26782227 2:-4.34 
-0.1 1:0.41253516 2:-4.57525 
-0.01002787540344931 1:0.16781055 2:-3.1551875 
-0.01396606643173715 1:0.17598047 2:-3.4860625 
-0.07594429806232303 1:0.20493945 2:-4.4815625 
-0.005885593923331639 1:0.26298828 2:-4.5124375 
-0.004115039289038392 1:0.28648438 2:-5.312 
-0.05359932249888494 1:0.18168164 2:-1.866875 
-0.04676381309075969 1:0.3757207 2:-4.5140625 
-0.0887522316255944 1:0.11993555 2:-1.763125 
-0.004594377444580972 1:0.19753125 2:-3.80925 
-0.02948785039418944 1:0.12304297 2:-0.707875 
-0.1 1:0.26771875 2:-2.972875 
-0.06318544298338079 1:0.13867773 2:-2.1584375 
-0.001797944093215083 1:0.20377734 2:-3.9136875 
-0.09903280037479671 1:0.26944727 2:-3.795375 
-0.1 1:0.29282812 2:-3.0000625 
-0.05904106954077905 1:0.39804688 2:-4.837375 
-0.001379560065982841 1:0.29261328 2:-3.979625 
-0.032717843286585 1:0.3435332 2:-5.4168125 
-0.01742411956005205 1:0.17189844 2:-0.5083125 
-0.01632367915927994 1:0.29265039 2:-4.442625 
-0.01155718840266567 1:0.24784766 2:-3.7591875 
-0.1 1:0.30995703 2:-2.99925 
-0.1 1:0.4163418 2:-3.113875 
-0.02587624320194309 1:0.16594141 2:-2.926125 
-0.04679546787349621 1:0.18491797 2:-1.406 
-0.1 1:0.41519336 2:-4.189625 
-0.003583178567531606 1:0.32303516 2:-4.5411875 
-0.00720778746788051 1:0.1688457 2:-0.58225 
-0.1 1:0.41133203 2:-3.5669375 
-0.00514593160337037 1:0.27118945 2:-5.1365625 
-0.03525966532048106 1:0.16288086 2:-2.8126875 
-0.01232176914439611 1:0.19653906 2:-0.4888125 
-0.04204126233309376 1:0.27808203 2:-3.8909375 
-0.001427055971692091 1:0.15925781 2:-2.598 
-0.04000159988287932 1:0.22382227 2:-3.1024375 
-0.05634063448349844 1:0.28974219 2:-4.1793125 
-0.004366809672689299 1:0.28410352 2:-5.23025 
-0.002517049484068778 1:0.25876172 2:-4.4411875 
-0.000614179049735597 1:0.22876367 2:-4.0488125 
-0.01562232787865551 1:0.30044727 2:-5.491125 
-0.02278334867690712 1:0.21762695 2:-3.75125 
-0.0280454402613881 1:0.31054492 2:-4.243875 
-0.01103641337520343 1:0.22826562 2:-4.2855625 
-0.01043352691651149 1:0.27871484 2:-4.2055625 
-0.001189846285929449 1:0.24554297 2:-3.801875 
-0.1 1:0.38073633 2:-3.9090625 
-0.001372760665423677 1:0.24038672 2:-4.892 
-0.05454325221282343 1:0.076214844 2:-0.8195 
-0.06481885380710731 1:0.13378516 2:-3.048875 
-0.0008308641258124045 1:0.26038281 2:-4.149125 
-0.03575990814156352 1:0.2247832 2:-3.946875 
-0.007920562345638791 1:0.20174609 2:-3.821375 
-0.1 1:0.1732793 2:-3.3630625 
-0.02445980801291264 1:0.14129492 2:-0.4656875 
-0.04666876013423095 1:0.30993359 2:-4.1353125 
-0.01029709573151225 1:0.087550781 2:-0.7065 
-0.004828622231782653 1:0.24275586 2:-4.3421875 
-0.07910895816072291 1:0.4319082 2:-4.9931875 
-0.014266021982208 1:0.10433789 2:-0.7885625 
-0.05460356360820925 1:0.31200586 2:-4.8094375 
-0.01106592468078517 1:0.38126953 2:-4.8755625 
-0.1 1:0.43591602 2:-5.860375 
-0.02255295578732909 1:0.27125781 2:-5.2478125 
-0.001756784516454015 1:0.22183594 2:-4.183375 
-0.001071346120486683 1:0.19580078 2:-3.2155625 
-0.04622224848214751 1:0.09196875 2:-0.3166875 
-0.0416874133190916 1:0.31580664 2:-4.41175 
-0.1 1:0.33679883 2:-3.4530625 
-0.05035435950630198 1:0.17538867 2:-4.007875 
-0.04368696275174624 1:0.14702148 2:-1.28975 
-0.0266388936701021 1:0.27851172 2:-5.1588125 
-0.02495152901248347 1:0.2639082 2:-5.1389375 
-0.06023674013178119 1:0.37833398 2:-4.7169375 
-0.02087577454547408 1:0.1895625 2:-3.3044375 
-0.003386924431393604 1:0.14062305 2:-2.6523125 
-0.07451400487660287 1:0.21717383 2:-4.7938125 
-0.004659906760460283 1:0.28493359 2:-4.7819375 
-0.00343298812772597 1:0.15169531 2:-2.536625 
-0.01871556865195672 1:0.24149023 2:-4.4803125 
-0.02404190813395536 1:0.23572656 2:-3.5988125 
-0.08294374216218257 1:0.18665039 2:-4.4296875 
-0.09200049434121574 1:0.35732227 2:-6.6468125 
-0.00525008382661626 1:0.21766992 2:-0.907375 
-0.009890337862758489 1:0.22686523 2:-4.147 
-0.06603220057271962 1:0.25489844 2:-3.386625 
-0.01128655214082113 1:0.23221289 2:-4.4115625 
-0.01062022832770191 1:0.22447461 2:-3.3846875 
-0.02978143382856763 1:0.34442578 2:-4.14075 
-0.01945986103074062 1:0.21601367 2:-2.9423125 
-0.01036863080613566 1:0.32048242 2:-5.0265 
-0.1 1:0.37720898 2:-5.5465625 
-0.02325925629840262 1:0.11855664 2:-2.1941875 
-0.1 1:0.53747656 2:-5.9125 
-0.01735096204361621 1:0.14896484 2:-0.9749375 
-0.03123735461351562 1:0.17914844 2:-3.2561875 
-0.04228916892406295 1:0.16957227 2:-3.7373125 
-0.07554359537981607 1:0.23110156 2:-3.36125 
-0.005619292464971176 1:0.16266602 2:-3.3941875 
-0.05280971548034665 1:0.30438281 2:-3.43725 
-0.01762405068078163 1:0.17666211 2:-0.451375 
-0.08064303840397445 1:0.075421875 2:-0.745375 
-0.04418529257111845 1:0.19316602 2:-1.945125 
-0.01277499195837655 1:0.25526562 2:-5.0723125 
-0.1 1:0.24790234 2:-2.0054375 
-0.009289686221338675 1:0.29476172 2:-4.2281875 
-0.09312567629223881 1:0.077263672 2:-1.0995 
-0.1 1:0.31178516 2:-2.6841875 
-0.1 1:0.48707422 2:-3.45225 
-0.1 1:0.23675195 2:-3.4498125 
-0.1 1:0.27479297 2:-3.251625 
-0.03576982534402201 1:0.38264844 2:-5.1065 
-0.1 1:0.14812891 2:-1.9295625 
-0.1 1:0.33193359 2:-3.9718125 
-0.01074990227678655 1:0.26403125 2:-4.804125 
-0.01187205736415786 1:0.30663086 2:-4.8278125 
-0.007477369946668176 1:0.2731875 2:-5.0144375 
-0.01208736363683563 1:0.2314668 2:-4.4350625 
-0.001885707362001091 1:0.1918457 2:-3.4600625 
-0.1 1:0.31775 2:-3.28175 
-0.02285270239742618 1:0.35592578 2:-5.0685625 
-0.03704852054711172 1:0.17518555 2:-0.4829375 
-0.01525106582941277 1:0.21675391 2:-1.0773125 
-0.03709882987441532 1:0.39713867 2:-5.9639375 
-0.0169173243304731 1:0.11307227 2:-2.4548125 
-0.08002924612712675 1:0.15630078 2:-1.555375 
-0.02734441317111348 1:0.29561328 2:-3.4695625 
-0.002268664634277825 1:0.13907227 2:-0.529875 
-0.052615143930829 1:0.40074023 2:-6.8451875 
-0.02944523776364045 1:0.27646094 2:-4.252875 
-0.01544285995924773 1:0.092001953 2:-0.715875 
-0.1 1:0.3785957 2:-3.982125 
-0.0522691589337729 1:0.16949023 2:-1.1785 
-0.06873740340581747 1:0.40245898 2:-4.9370625 
-0.1 1:0.33418555 2:-2.956375 
-0.002819707255500188 1:0.31819336 2:-4.47875 
-0.01222479047903662 1:0.34190039 2:-5.7218125 
-0.03068231299343795 1:0.31775977 2:-6.0183125 
-0.0185662962127851 1:0.27334961 2:-5.794 
-0.1 1:0.30668164 2:-3.5968125 
-0.00904982992229101 1:0.39264844 2:-5.5818125 
-0.08525068108655856 1:0.16269141 2:-2.1070625 
-0.1 1:0.25026758 2:-2.719625 
-0.1 1:0.2102168 2:-2.0330625 
-0.009184606201057443 1:0.32563867 2:-6.033 
-0.001078509467936769 1:0.22938477 2:-4.071 
-0.03761949642336782 1:0.15187109 2:-2.5178125 
-0.1 1:0.33248828 2:-2.502 
-0.008361314915877421 1:0.18658008 2:-1.3195 
-0.1 1:0.23298633 2:-2.002375 
-0.004851637060359138 1:0.16629297 2:-3.0365625 
-0.04231213920540339 1:0.23667383 2:-3.7280625 
-0.004547224589065165 1:0.1909707 2:-3.004625 
-0.002065326147124312 1:0.41430469 2:-6.158625 
-0.1 1:0.31439063 2:-1.372 
-0.03375317993615148 1:0.31124219 2:-6.1073125 
-0.0008817784425355635 1:0.23818945 2:-4.0943125 
-0.1 1:0.29218359 2:-3.6641875 
-0.01857159068533593 1:0.19805664 2:-3.72775 
-0.09041050766742553 1:0.24077344 2:-3.8563125 
-0.04321322864606035 1:0.099912109 2:-0.2281875 
-0.0009724863865159805 1:0.20005273 2:-3.7125625 
-0.1 1:0.24589844 2:-2.381375 
-0.1 1:0.33624023 2:-6.860125 
-0.02790974399763118 1:0.26664453 2:-5.2673125 
-0.01038366977991242 1:0.12993359 2:-0.263125 
-0.01165154799055737 1:0.27678516 2:-4.6961875 
-0.0004546002498983432 1:0.12472852 2:-2.3263125 
-0.006743210963048628 1:0.309625 2:-4.95275 
-0.04004087230938115 1:0.37899609 2:-5.7434375 
-0.1 1:0.39195898 2:-3.22275 
-0.01406842406077484 1:0.21753125 2:-3.3175 
-0.01802110340077984 1:0.2751875 2:-4.6055625 
-0.1 1:0.33358984 2:-2.0735 
-0.006678073550916826 1:0.20828906 2:-3.446375 
-0.1 1:0.34680664 2:-2.6586875 
-0.1 1:0.5255957 2:-5.70775 
-0.08945820216168157 1:0.18330469 2:-1.0176875 
-0.04223507299757245 1:0.20922266 2:-2.4875625 
-0.01276829365569553 1:0.16992578 2:-3.4936875 
-0.1 1:0.44541211 2:-6.16325 
-0.04107035153542294 1:0.31887695 2:-4.1925625 
-0.01104931706727623 1:0.22507227 2:-4.09775 
-0.0700928087802096 1:0.40826563 2:-3.8423125 
-0.1 1:0.42868164 2:-3.7133125 
-0.002524100179180567 1:0.25849219 2:-4.3523125 
-0.01772383954849904 1:0.27704883 2:-4.812625 
-0.1 1:0.38328516 2:-4.62175 
-0.05566908321698169 1:0.3395625 2:-5.95575 
-0.09902717196438021 1:0.31331641 2:-3.9036875 
-0.01138226897584291 1:0.29344141 2:-5.347125 
-0.01057005262278715 1:0.31258008 2:-5.162375 
-0.003036284464735055 1:0.30964648 2:-4.949125 
-0.03155218630950185 1:0.15716602 2:-1.198625 
-0.08214940286123268 1:0.21885156 2:-1.7906875 
-0.01748391903429659 1:0.092449219 2:-1.3479375 
-0.01770036542190565 1:0.13687305 2:-2.3974375 
-0.1 1:0.29958203 2:-3.055375 
-0.1 1:0.20248633 2:-1.470125 
-0.02560155204334367 1:0.27832422 2:-5.4890625 
-0.009420292050956481 1:0.20782617 2:-3.9805 
-0.0150384673888412 1:0.28290039 2:-3.3270625 
-0.07711098182865504 1:0.36108594 2:-3.895375 
-0.007121426728471318 1:0.35357227 2:-5.38325 
-0.02588999690592768 1:0.30213477 2:-3.89275 
-0.003986453224332448 1:0.16587109 2:-3.019 
-0.09581148785051732 1:0.074298828 2:-1.0331875 
-0.004791164568492302 1:0.22332031 2:-3.847 
-0.0868617109435352 1:0.34460352 2:-4.310625 
-0.1 1:0.26292969 2:-2.64375 
-0.005346204982193664 1:0.16414062 2:-2.75425 
-0.004763500543891773 1:0.13647852 2:-0.844625 
-0.0009474795705433971 1:0.19554297 2:-3.01125 
-0.001899667615673651 1:0.36168359 2:-5.30275 
-0.1 1:0.40919141 2:-6.5406875 
-0.1 1:0.32936133 2:-2.6848125 
-0.006970332038028285 1:0.2449043 2:-4.3559375 
-0.005071921764341165 1:0.27804883 2:-4.917125 
-0.1 1:0.25445313 2:-3.2235625 
-0.06774472517948382 1:0.20789648 2:-4.8635625 
-0.04322616288007752 1:0.36959961 2:-5.9623125 
-0.08518069528335101 1:0.067634766 2:-1.410875 
-0.1 1:0.15191211 2:-2.062875 
-0.1 1:0.25786328 2:-0.944125 
-0.1 1:0.33538281 2:-3.271875 
-0.01738325409549593 1:0.13545703 2:-0.464375 
-0.003020376619032523 1:0.20003516 2:-3.9598125 
-0.1 1:0.40715039 2:-4.4429375 
-0.007093716018400198 1:0.27607813 2:-4.5745625 
-0.1 1:0.45689844 2:-4.434625 
-0.1 1:0.35157227 2:-1.6589375 
-0.003951406504986736 1:0.28778516 2:-4.2623125 
-0.1 1:0.14578711 2:-2.0193125 
-0.04056923525984601 1:0.2585625 2:-5.0456875 
-0.1 1:0.35011133 2:-4.5961875 
-8.639343490829919e-05 1:0.11040039 2:-1.0778125 
-0.1 1:0.27303906 2:-3.137875 
-0.01604657967941577 1:0.29987109 2:-4.4885625 
-0.06012210687363422 1:0.39850391 2:-5.1421875 
-0.06714607359186855 1:0.38851953 2:-5.6038125 
-0.00620583826056573 1:0.32909766 2:-4.8469375 
-0.1 1:0.21329492 2:-2.4545 
-0.1 1:0.36934766 2:-3.1859375 
-0.1 1:0.33174023 2:-5.8703125 
-0.001368480348917454 1:0.20066016 2:-0.89125 
-0.05903115561213236 1:0.088917969 2:-0.41075 
-0.00218163768486318 1:0.26807813 2:-5.1476875 
-0.06634539434816548 1:0.31258203 2:-4.3628125 
-0.08470992893211715 1:0.20256055 2:-1.8050625 
-0.05752076068455435 1:0.13801953 2:-3.2393125 
-0.1 1:0.30330469 2:-2.7196875 
-0.04009423451588343 1:0.26242773 2:-3.55675 
-0.1 1:0.33603906 2:-3.70375 
-0.1 1:0.4166543 2:-6.32025 
-0.02692877816327585 1:0.17179883 2:-4.12625 
-0.006530861200434422 1:0.21517578 2:-4.135625 
-0.01233348956928813 1:0.29109961 2:-4.8304375 
-0.02240610307918874 1:0.24952539 2:-3.982125 
-0.1 1:0.43192969 2:-5.2444375 
-0.01437151869321992 1:0.21239258 2:-2.7041875 
-0.1 1:0.35437891 2:-3.67175 
-0.1 1:0.26591016 2:-3.618625 
-0.008728377494830568 1:0.13932031 2:-1.2410625 
-0.1 1:0.30793359 2:-6.8123125 
-0.1 1:0.27562891 2:-3.6761875 
-0.1 1:0.23009766 2:-1.691 
-0.1 1:0.18442383 2:-2.95375 
-0.001625857274424371 1:0.20033008 2:-3.8315 
-0.1 1:0.54072852 2:-4.29325 
-0.06947501724860397 1:0.090345703 2:-0.9753125 
-0.06904066639059182 1:0.1397793 2:-3.1024375 
-0.02741768637679213 1:0.20717578 2:-4.2123125 
-0.01941397920208001 1:0.33055664 2:-5.0335 
-0.02471383122470018 1:0.30614453 2:-5.2485625 
-0.1 1:0.45663086 2:-6.1100625 
-0.1 1:0.63630273 2:-3.811125 
-0.01307444023023545 1:0.34291211 2:-6.461375 
-0.003120699339956265 1:0.15591992 2:-0.8040625 
-0.1 1:0.38608203 2:-5.83775 
-0.08094017423527097 1:0.23971289 2:-2.3139375 
-0.007831356291447052 1:0.23483008 2:-3.5435 
-0.02383128413758661 1:0.32114258 2:-3.879125 
-0.003406040667194862 1:0.21825586 2:-3.408625 
-0.04478615049248798 1:0.096371094 2:-1.652375 
-0.01946898875271229 1:0.32173438 2:-3.9305 
-0.0052720460372674 1:0.25723828 2:-4.764 
-0.1 1:0.36199023 2:-5.0789375 
-0.1 1:0.36505078 2:-3.2536875 
-0.04173116347651845 1:0.35369141 2:-5.0035 
-0.01447560225781751 1:0.28529688 2:-4.429 
-0.03310832329575063 1:0.28389648 2:-5.61625 
-0.004733707697442488 1:0.28589844 2:-4.4878125 
-0.08359151559406244 1:0.33484766 2:-6.761375 
-0.01018295649665214 1:0.22105273 2:-3.51125 
-0.1 1:0.39553906 2:-4.077875 
-0.02079842571352338 1:0.15875781 2:-2.5898125 
-0.0107834719425967 1:0.20420508 2:-4.030125 
-0.003812126764028921 1:0.18965039 2:-3.00175 
-0.07743044533568154 1:0.15527148 2:-3.574 
-0.002493259615347388 1:0.26469922 2:-4.9360625 
-0.007210229051880438 1:0.11825195 2:-0.527125 
-0.1 1:0.29933008 2:-3.1620625 
-0.1 1:0.32394141 2:-4.4250625 
-0.1 1:0.18283203 2:-1.520625 
-0.009606326300660417 1:0.1505293 2:-1.2823125 
-0.004535347122922445 1:0.2401582 2:-4.4295625 
-0.001942015311179116 1:0.33665625 2:-4.9698125 
-0.1 1:0.36500586 2:-4.0619375 
-0.05291682249736193 1:0.34186523 2:-5.8350625 
-0.03744942705865295 1:0.12036133 2:-1.40125 
-0.007480775118689383 1:0.28356641 2:-4.7535 
-0.1 1:0.25980859 2:-2.995 
-0.01759211294895597 1:0.27854297 2:-5.9966875 
-0.003660265632366642 1:0.2359043 2:-3.896125 
-0.1 1:0.28416211 2:-1.2368125 
-0.1 1:0.33836133 2:-3.841 
-0.1 1:0.19761133 2:-2.0180625 
-0.038453264980576 1:0.20828906 2:-3.7574375 
-0.06162380777011732 1:0.26810547 2:-6.101125 
-0.002717726443669086 1:0.23071094 2:-3.8465 
-0.1 1:0.24679883 2:-3.1264375 
-0.009925374532157694 1:0.30619336 2:-5.593375 
-0.1 1:0.1951543 2:-2.4258125 
-0.1 1:0.34213672 2:-2.21525 
-0.002217885339973198 1:0.24998438 2:-4.0945625 
-0.03571890545085356 1:0.13191211 2:-0.392625 
-0.003216778406072186 1:0.24999023 2:-4.23425 
-0.006290744836063892 1:0.20357812 2:-4.131875 
-0.03043596473308907 1:0.39456641 2:-5.40375 
-0.0008848394273345309 1:0.21088477 2:-4.1166875 
-0.1 1:0.43359375 2:-3.0754375 
-0.1 1:0.2994707 2:-3.6604375 
-0.08385543957696773 1:0.12761914 2:-3.1504375 
-0.08159203436028414 1:0.20410352 2:-5.0283125 
-0.08792389688589748 1:0.21728125 2:-3.6040625 
-0.1 1:0.39655859 2:-4.51775 
-0.1 1:0.19974219 2:-2.46175 
-0.007546199175433945 1:0.16573828 2:-3.3041875 
-0.006190735785607453 1:0.17176563 2:-3.2689375 
-0.02711639486943946 1:0.28017773 2:-4.6630625 
-0.00433774051705974 1:0.11336719 2:-0.547625 
-0.02081879391655567 1:0.36516211 2:-4.9870625 
-0.1 1:0.24349805 2:-2.2509375 
-0.01243818511808632 1:0.2085332 2:-3.418375 
-0.08817608871998153 1:0.068253906 2:-1.364625 
-0.07767701527083663 1:0.071806641 2:-0.5965625 
-0.0317036170529009 1:0.42770703 2:-5.0911875 
-0.1 1:0.2490625 2:-3.720875 
-0.1 1:0.25929492 2:-3.3233125 
-0.1 1:0.46158789 2:-6.3245 
-0.1 1:0.26213867 2:-2.9094375 
-0.01210504585629023 1:0.25745312 2:-3.471875 
-0.0135291650733546 1:0.2893125 2:-4.126625 
-0.09511136184599414 1:0.45595703 2:-5.719625 
-0.009321876951422104 1:0.13429297 2:-3.16725 
-0.01031780623466004 1:0.2882832 2:-4.770875 
-0.07413722454899577 1:0.23831445 2:-5.6046875 
-0.005052184773200359 1:0.31110156 2:-5.0136875 
-0.01918465954854404 1:0.35479102 2:-5.16575 
-0.003358040946868875 1:0.20646875 2:-2.1166875 
-0.05816298969173367 1:0.38066602 2:-7.1104375 
-0.1 1:0.45644531 2:-5.909 
-0.006861724880518559 1:0.20491992 2:-3.25725 
-0.0186297125786857 1:0.19360547 2:-2.5951875 
-0.08621891291306336 1:0.13169336 2:-2.097 
-0.002099060223530937 1:0.11981641 2:-0.8105625 
-0.1 1:0.23705078 2:-3.43175 
-0.03865547776414032 1:0.36369922 2:-5.36625 
-0.02222831539696031 1:0.17110742 2:-3.0755625 
-0.06747321649869668 1:0.22644727 2:-1.011625 
-0.04302876019124065 1:0.27007617 2:-3.8908125 
-0.006679347727639727 1:0.23970312 2:-3.829 
-0.01441743609405462 1:0.39191602 2:-5.2935 
-0.04489619113364221 1:0.17061133 2:-0.6801875 
-0.06354756292648539 1:0.21189258 2:-4.8935 
-0.01197556877615906 1:0.23814258 2:-3.4095 
-0.00404128615136275 1:0.25855664 2:-4.6235625 
-0.00765573023805281 1:0.13903711 2:-0.8685625 
-0.1 1:0.28249414 2:-2.825 
-0.003988849938322736 1:0.15851562 2:-3.6440625 
-0.01599199752961289 1:0.13685547 2:-1.0016875 
-0.1 1:0.22277734 2:-1.3945 
-0.0572101366458643 1:0.18854883 2:-1.38175 
-0.03360839154697368 1:0.19703906 2:-3.5065 
-0.03448164328742045 1:0.35910352 2:-6.03025 
-0.01013505928677673 1:0.2569082 2:-4.61875 
-0.07307842806780991 1:0.076640625 2:-0.559 
-0.004936243877169845 1:0.29403906 2:-5.0471875 
-0.03488051404462875 1:0.25748828 2:-0.9090625 
-0.04128788845300439 1:0.16221484 2:-3.8394375 
-0.03770217854314441 1:0.28567383 2:-3.5205 
-0.1 1:0.33252148 2:-2.671125 
-0.006501198900323801 1:0.14883398 2:-2.7278125 
-0.002521080596900706 1:0.34061719 2:-4.7765625 
-0.000544182775512045 1:0.1173418 2:-0.5135 
-0.1 1:0.21135742 2:-2.489 
-0.04167072982496191 1:0.20885156 2:-2.680375 
-0.01334931603319153 1:0.13340625 2:-0.3335625 
-0.004068396029612622 1:0.18955664 2:-0.8383125 
-0.0755440426231952 1:0.1523418 2:-3.6244375 
-0.01230305626960806 1:0.20781641 2:-1.73425 
-0.05334804124259369 1:0.24269336 2:-4.49325 
-0.07846331441884415 1:0.23815625 2:-3.5234375 
-0.01558917466306618 1:0.1494082 2:-2.75125 
-0.0712525991672537 1:0.47303906 2:-4.5331875 
-0.0223608997850918 1:0.15216406 2:-1.026125 
-0.05336271655583791 1:0.1989707 2:-1.7538125 
-0.03874272654511504 1:0.21647656 2:-1.9361875 
-0.09238958196752496 1:0.25813672 2:-5.1858125 
-0.05675696211199726 1:0.38269336 2:-5.2319375 
-0.0755357841247327 1:0.22514648 2:-3.759375 
-0.01992674543844413 1:0.10788672 2:-0.7638125 
-0.1 1:0.28254102 2:-2.7315 
-0.02661383356050476 1:0.30283789 2:-5.636875 
-0.002784071585521496 1:0.1419707 2:-0.6945625 
-0.1 1:0.36771484 2:-4.042875 
-0.1 1:0.25584961 2:-3.3073125 
-0.004447940204664052 1:0.20408203 2:-4.0919375 
-0.07273323105080534 1:0.44936328 2:-4.8013125 
-0.01999664426921843 1:0.24877344 2:-4.000875 
-0.01853577782562583 1:0.40841602 2:-5.890375 
-0.007539411393241522 1:0.29331641 2:-4.4920625 
-0.01929079777900585 1:0.22076563 2:-0.85375 
-0.008089997345673412 1:0.2695293 2:-5.125 
-0.02519512586587391 1:0.22048047 2:-4.1625 
-0.006487715139916128 1:0.11248828 2:-0.94625 
-0.1 1:0.2990332 2:-2.155 
-0.06197071815050592 1:0.21107031 2:-2.5110625 
-0.02420014107782048 1:0.26537109 2:-3.0890625 
-0.0762093854908881 1:0.41233789 2:-5.5705 
-0.01102796689616613 1:0.26604102 2:-4.314875 
-0.0369946441946159 1:0.30438672 2:-5.9503125 
-0.06544614436785741 1:0.22573437 2:-5.1725625 
-0.01536559096388509 1:0.17308008 2:-1.1093125 
-0.080853649267699 1:0.10053125 2:-1.1860625 
-0.01048941735053975 1:0.20337109 2:-3.343875 
-0.03451921184610787 1:0.13850586 2:-3.0759375 
-0.03787472239145147 1:0.39014258 2:-6.121875 
-0.1 1:0.22798828 2:-2.3349375 
-0.008803703097123951 1:0.13760156 2:-0.6756875 
-0.003125720006221605 1:0.1249668 2:-0.989125 
-0.02518097100131605 1:0.12868945 2:-0.7908125 
-0.003830891660790189 1:0.35150195 2:-5.98175 
-0.09006326795404611 1:0.15125977 2:-2.6233125 
-0.1 1:0.32016211 2:-4.0165625 
-0.001682880845157725 1:0.25726172 2:-4.3054375 
-0.01015932671145227 1:0.39998242 2:-5.83025 
-0.001914200653014083 1:0.18230469 2:-3.516875 
-0.01109085280021731 1:0.33034961 2:-5.5365 
-0.02040560873282991 1:0.21969531 2:-5.0075 
-0.02158902862581199 1:0.33367383 2:-4.751375 
-0.07870168899117011 1:0.1772793 2:-0.761 
-0.09214050165390558 1:0.29886328 2:-4.5400625 
-0.1 1:0.33480664 2:-2.5214375 
-0.002222413052840514 1:0.11476953 2:-0.8813125 
-0.02538934022644694 1:0.17242188 2:-3.959375 
-0.0244939600435743 1:0.33696094 2:-4.6469375 
-0.1 1:0.43238867 2:-2.8535625 
-0.04652695175429881 1:0.088638672 2:-1.6873125 
-0.005324129787948661 1:0.284875 2:-5.496625 
-0.01640701088963883 1:0.32863477 2:-3.693375 
-0.001152458467877658 1:0.14494531 2:-0.4871875 
-0.02845591819266258 1:0.088017578 2:-0.839125 
-0.003470348280010923 1:0.24061133 2:-4.476625 
-0.0331868484484882 1:0.20321094 2:-4.504 
-0.008072108251378735 1:0.19 2:-2.9119375 
-0.001335272415634067 1:0.27696484 2:-4.2766875 
-0.003120384721486077 1:0.15559375 2:-1.099625 
-0.08934194574007445 1:0.32233594 2:-3.5528125 
-0.1 1:0.10470117 2:-2.0403125 
-0.03284771445982209 1:0.34957617 2:-4.8681875 
-0.1 1:0.29252734 2:-2.577 
-0.010237021840078 1:0.30452148 2:-5.4704375 
-0.08370950960829986 1:0.32179492 2:-4.5561875 
-0.1 1:0.25325586 2:-2.34125 
-0.05588569972894573 1:0.30232617 2:-5.9131875 
-0.1 1:0.21675781 2:-2.693 
-0.04658991134034617 1:0.37858984 2:-6.0868125 
-0.07726542239968676 1:0.12781641 2:-3.3241875 
-0.008871928003058078 1:0.2822168 2:-4.0884375 
-0.1 1:0.37639453 2:-2.792375 
-0.04522707538506147 1:0.24110547 2:-0.6 
-0.1 1:0.35265234 2:-4.1054375 
-0.005859061567222823 1:0.25989063 2:-4.4441875 
-0.1 1:0.3006875 2:-3.8331875 
-0.1 1:0.26974414 2:-2.4686875 
-0.1 1:0.47007031 2:-3.4156875 
-0.003181294216162374 1:0.25939062 2:-4.4408125 
-0.05937659459899142 1:0.24281641 2:-5.575625 
-0.1 1:0.37358398 2:-1.4289375 
-0.01832646910475257 1:0.16304102 2:-0.6496875 
-0.02769514166833437 1:0.27653906 2:-3.705375 
-0.0452763429576727 1:0.090146484 2:-2.255375 
-0.0939501094921916 1:0.41155273 2:-6.8126875 
-0.1 1:0.36966211 2:-4.90725 
-0.03938552593534349 1:0.166 2:-1.25175 
-0.07932635847766864 1:0.12989258 2:-2.002875 
-0.008868215703163653 1:0.18260742 2:-0.348375 
-0.002805670809162555 1:0.26123828 2:-4.1660625 
-0.03759721323056281 1:0.22701367 2:-3.6714375 
-0.06052474762973783 1:0.30793164 2:-4.2683125 
-0.004288230293771417 1:0.20316992 2:-3.5863125 
-0.02658982775496146 1:0.31458398 2:-6.05 
-0.1 1:0.19113086 2:-0.9529375 
-0.002557411429207401 1:0.31211133 2:-5.5661875 
-0.01919713569324632 1:0.22622461 2:-3.44825 
-0.1 1:0.30987109 2:-4.26675 
-0.08024168656613442 1:0.45618164 2:-6.5829375 
-0.002123284928160806 1:0.26610156 2:-3.9569375 
-0.005911276506035229 1:0.11748828 2:-0.4265 
-0.1 1:0.22049219 2:-2.84775 
-0.0704030404414174 1:0.18626758 2:-0.37225 
-0.07665619596833893 1:0.18490625 2:-4.305 
-0.1 1:0.18467578 2:-2.040125 
-0.02355913365105986 1:0.22320313 2:-2.806375 
-0.1 1:0.26586328 2:-1.8378125 
-0.1 1:0.37324023 2:-3.38975 
-0.0860963523542948 1:0.30739453 2:-6.3014375 
-0.02117639833646982 1:0.22626367 2:-4.0438125 
-0.1 1:0.43701758 2:-4.488375 
-0.08876468343197813 1:0.18811523 2:-2.5400625 
-0.003048171603744006 1:0.25669336 2:-4.6960625 
-0.07539452948933717 1:0.10349609 2:-2.527125 
-0.04479072027297957 1:0.26757422 2:-3.5734375 
-0.1 1:0.56246484 2:-4.2535625 
-0.05137779859888204 1:0.26006055 2:-4.025625 
-0.02187060156016039 1:0.37115234 2:-5.0883125 
-0.0008912199836666255 1:0.21443945 2:-4.1285625 
-0.06266911122643612 1:0.31308203 2:-6.5335625 
-0.1 1:0.39061133 2:-3.7198125 
-0.0180516776853118 1:0.16658789 2:-0.4264375 
-0.01686953058161333 1:0.3889668 2:-4.9733125 
-0.1 1:0.26091406 2:-2.994125 
-0.1 1:0.29831641 2:-1.8839375 
-0.05086150127277777 1:0.31777148 2:-5.3259375 
-0.0531427951746453 1:0.3218125 2:-4.0596875 
-0.0009381738599698146 1:0.18877344 2:-3.624875 
-0.1 1:0.33098047 2:-2.8483125 
-0.04605742368607074 1:0.12178906 2:-2.817 
-0.1 1:0.34258594 2:-4.0031875 
-0.003200317658205498 1:0.21062695 2:-4.137 
-0.005156052507713849 1:0.18051758 2:-0.4456875 
-0.03480099186883179 1:0.27196875 2:-4.4168125 
-0.009401545387672895 1:0.37798242 2:-5.36075 
-0.002356770261657267 1:0.22086914 2:-3.7381875 
-0.1 1:0.37414063 2:-4.146625 
-0.006396896963793738 1:0.26625781 2:-5.1054375 
-0.0150554257034956 1:0.19458008 2:-3.5919375 
-0.08808951430736511 1:0.19568164 2:-2.5778125 
-0.01238700880220808 1:0.16398828 2:-2.6860625 
-0.001735803370185474 1:0.14385742 2:-0.716375 
-0.07095871581322924 1:0.093871094 2:-0.28325 
-0.01217655400398996 1:0.3622207 2:-4.4836875 
-0.0009138344875041944 1:0.29203516 2:-4.9071875 
-0.0174816892729601 1:0.26438477 2:-4.9513125 
-0.04688738390144642 1:0.42217578 2:-5.0205625 
-0.1 1:0.32199414 2:-3.3899375 
-0.1 1:0.46754492 2:-5.648125 
-0.00285156414634246 1:0.19322656 2:-3.948625 
-0.009500587222696293 1:0.14779688 2:-0.9204375 
-0.05971997611157611 1:0.12122656 2:-1.3519375 
-0.09371728257628723 1:0.37288086 2:-4.37825 
-0.1 1:0.27269141 2:-2.4061875 
-0.04775098533472616 1:0.23054297 2:-3.08525 
-0.07578420726317156 1:0.42124023 2:-5.3928125 
-0.1 1:0.38985547 2:-3.799625 
-0.00658250679199596 1:0.25940625 2:-5.0618125 
-0.1 1:0.22999023 2:-4.06075 
-0.1 1:0.31791016 2:-3.7708125 
-0.01672261741316186 1:0.22877148 2:-3.5505625 
-0.1 1:0.37650977 2:-3.31375 
-0.04775199333813768 1:0.15626562 2:-1.477 
-0.09181903825135883 1:0.40796094 2:-6.3503125 
-0.1 1:0.28302148 2:-3.572375 
-0.1 1:0.44478125 2:-4.250625 
-0.01584519302044132 1:0.25801758 2:-4.927125 
-0.03158493622077958 1:0.26600391 2:-5.95225 
-0.1 1:0.32651172 2:-2.089 
-0.01119714418886047 1:0.30280078 2:-5.24075 
-0.006869447840141865 1:0.18046875 2:-2.948375 
-0.1 1:0.33954297 2:-2.632375 
-0.02048987474789886 1:0.27834961 2:-3.9286875 
-0.01789791757726847 1:0.32594531 2:-4.93 
-0.04145904253837478 1:0.10382617 2:-1.89325 
-0.1 1:0.26848047 2:-2.389375 
-0.03591239702948242 1:0.3485918 2:-4.0465625 
-0.04010371781519385 1:0.1438125 2:-0.2509375 
-0.001279493364916141 1:0.28595703 2:-5.3775625 
-0.02399009473633936 1:0.22812891 2:-3.6428125 
-0.1 1:0.41484961 2:-3.875875 
-0.02566849659048169 1:0.34056836 2:-6.399125 
-0.05651983751717621 1:0.14630273 2:-2.197625 
-0.1 1:0.36791797 2:-1.7798125 
-0.05767964823237002 1:0.31034766 2:-5.7493125 
-0.1 1:0.37932617 2:-3.9695 
-0.006857925765952404 1:0.25238281 2:-3.4760625 
-0.04684366481028496 1:0.21326367 2:-4.75775 
-0.006459430366099457 1:0.14530859 2:-0.7505625 
-0.1 1:0.40190039 2:-4.0061875 
-0.1 1:0.31787891 2:-2.8479375 
-0.05562981685333743 1:0.21741797 2:-3.3318125 
-0.01582503486680018 1:0.15219141 2:-0.6 
-0.040496232496698 1:0.32963867 2:-4.34625 
-0.003546550873728572 1:0.24306445 2:-4.2538125 
-0.03541495134197803 1:0.12721289 2:-1.0301875 
-0.06708180606680463 1:0.15904297 2:-3.7005625 
-0.1 1:0.23283984 2:-3.2834375 
-0.0283355066632074 1:0.22074023 2:-4.273625 
-0.01179709601750633 1:0.12524609 2:-0.281875 
-0.09469128792176199 1:0.30098828 2:-6.4419375 
-0.0160004319046311 1:0.156 2:-3.389625 
-0.0344062397517803 1:0.18616406 2:-0.32975 
-0.09845096062629241 1:0.38613477 2:-4.4948125 
-0.01050266907424608 1:0.29880859 2:-4.723125 
-0.09929077989030241 1:0.1092793 2:-0.1195 
-0.04577566764300695 1:0.21148828 2:-4.67825 
-0.00825830055767676 1:0.19710742 2:-4.32825 
-0.04751416203407394 1:0.2175918 2:-2.9788125 
-0.05924752943151381 1:0.231125 2:-0.94875 
-0.00299486966128964 1:0.18567383 2:-3.1919375 
-0.07334009411058981 1:0.25078516 2:-2.29325 
-0.01123390696918482 1:0.25946094 2:-4.9086875 
-0.004656833473716454 1:0.15495508 2:-0.492875 
-0.004835155800191553 1:0.2052832 2:-4.142 
-0.004206951330551208 1:0.2477793 2:-3.9765 
-0.1 1:0.21851953 2:-2.33275 
-0.04312376421145681 1:0.19602539 2:-4.35925 
-0.1 1:0.46312695 2:-4.068625 
-0.1 1:0.37572656 2:-4.8021875 
-0.1 1:0.24561719 2:-2.2079375 
-0.05212091875006743 1:0.10207617 2:-1.067 
-0.002948721317527118 1:0.20044727 2:-3.71625 
-0.1 1:0.12591406 2:-1.9669375 
-0.01192123862161991 1:0.14024805 2:-2.6734375 
-0.01635809818344794 1:0.10355469 2:-1.358375 
-0.002610441868110421 1:0.32936523 2:-4.9815 
-0.02288983446273664 1:0.1559375 2:-0.8766875 
-0.03761185764410063 1:0.091390625 2:-0.3915625 
-0.1 1:0.37425977 2:-6.9378125 
-0.005017142538039537 1:0.22739063 2:-3.4049375 
-0.009643160965362675 1:0.27083008 2:-5.292 
-0.1 1:0.39603125 2:-4.306 
-0.03867003221975464 1:0.12610742 2:-0.953125 
-0.02375443097822007 1:0.17911133 2:-0.8889375 
-0.03341338070172468 1:0.14209961 2:-2.4654375 
-0.1 1:0.30999805 2:-3.1918125 
-0.04800695600612039 1:0.30686914 2:-4.639625 
-0.01935372104581312 1:0.36276172 2:-4.9273125 
-0.02658600869081164 1:0.33180273 2:-4.425125 
-0.09349910080261568 1:0.37297266 2:-4.1598125 
-0.1 1:0.365375 2:-2.8435 
-0.02433945504484915 1:0.25998047 2:-4.9770625 
-0.02097761626422011 1:0.36661328 2:-6.022 
-0.06317562173421563 1:0.40051758 2:-6.0948125 
-0.1 1:0.30438672 2:-2.5859375 
-0.004239497622439928 1:0.13374023 2:-0.63775 
-0.009078590868183649 1:0.20908984 2:-3.960375 
-0.1 1:0.33609961 2:-3.7926875 
-0.01867633038798544 1:0.24389258 2:-4.6166875 
-0.006026126365060692 1:0.27406641 2:-5.22475 
-0.01058389178535074 1:0.32289844 2:-3.9433125 
-0.002084911638214663 1:0.25291602 2:-4.2434375 
-0.03148857926831149 1:0.25708008 2:-4.588 
-0.1 1:0.22402539 2:-2.560375 
-0.0007597256674305441 1:0.11901953 2:-0.52775 
-0.00305423118064348 1:0.17012109 2:-0.9794375 
-0.1 1:0.24798438 2:-1.645375 
-0.047542456370266 1:0.35183594 2:-4.9570625 
-0.1 1:0.25205078 2:-2.93175 
-0.006666389126112815 1:0.28378711 2:-4.067625 
-0.04094188981476275 1:0.23467969 2:-3.3324375 
-0.008614347963197381 1:0.17560156 2:-3.320375 
-0.0401878983205049 1:0.34725 2:-6.13525 
-0.03018378779624058 1:0.36164258 2:-6.250875 
-0.01044736556412594 1:0.17105469 2:-2.7609375 
-0.1 1:0.3052793 2:-3.3136875 
-0.01238550734516073 1:0.20834961 2:-4.2320625 
-0.0011876529882166 1:0.15973242 2:-3.5840625 
-0.02666964321389616 1:0.1593418 2:-2.700125 
-0.0009733068167274471 1:0.18084375 2:-3.0259375 
-0.1 1:0.21903711 2:-2.3874375 
-0.0769301034495066 1:0.3429043 2:-4.523625 
-0.03508655310643177 1:0.13074219 2:-1.6263125 
-0.000809592713424568 1:0.2875332 2:-5.1054375 
-0.01595050114332288 1:0.29786133 2:-5.276125 
-0.02597771889881416 1:0.36405469 2:-5.506625 
-0.1 1:0.41732812 2:-3.825625 
-0.1 1:0.24219531 2:-1.26275 
-0.05546267541138965 1:0.37120117 2:-5.6313125 
-0.01207401323491286 1:0.39480078 2:-5.1758125 
-0.1 1:0.30717578 2:-3.554125 
-0.01997291478683095 1:0.29096289 2:-5.5216875 
-0.0009669695428198945 1:0.20891211 2:-4.05275 
-0.1 1:0.27304883 2:-2.7235625 
-0.01755701438887918 1:0.21740625 2:-4.2459375 
-0.1 1:0.32626953 2:-3.5511875 
-0.001438729385676018 1:0.22791016 2:-4.01 
-0.007024774254216654 1:0.24494141 2:-4.1144375 
-0.005922250337209301 1:0.1555293 2:-2.655 
-0.0990747362711363 1:0.42445703 2:-4.7930625 
-0.02011275458088313 1:0.25119336 2:-5.2188125 
-0.004630811482110184 1:0.17953516 2:-3.5239375 
-0.01376351807577115 1:0.29808984 2:-4.7075625 
-0.0038696653522439 1:0.34107617 2:-5.24025 
-0.006972919404455678 1:0.17282813 2:-0.844375 
-0.004897638313257214 1:0.29650781 2:-3.8868125 
-0.01146384655932122 1:0.17559766 2:-1.279625 
-0.02630445768876863 1:0.3085 2:-4.161875 
-0.1 1:0.26378125 2:-4.713375 
-0.05410651754255399 1:0.22368359 2:-2.012125 
-0.03605236405917763 1:0.26540234 2:-4.78625 
-0.1 1:0.27666992 2:-2.86875 
-0.03180119411547178 1:0.37776953 2:-5.1730625 
-0.1 1:0.33355664 2:-3.210625 
-0.003602312609153622 1:0.29903516 2:-4.6679375 
-0.1 1:0.23073047 2:-1.6185625 
-0.002086822827864741 1:0.16502344 2:-2.9746875 
-0.01433708323229088 1:0.20324609 2:-0.926125 
-0.1 1:0.44727148 2:-5.6630625 
-0.02199412872087197 1:0.24781445 2:-4.7665625 
-0.005379256992728882 1:0.17408984 2:-3.10925 
-0.02993106277284911 1:0.32485938 2:-5.72375 
-0.06583470261988786 1:0.32814648 2:-4.10025 
-0.01266636519236738 1:0.33454297 2:-4.7880625 
-0.1 1:0.16420898 2:-2.2751875 
-0.002953886506423299 1:0.1653418 2:-0.5401875 
-0.1 1:0.27562305 2:-3.7109375 
-0.006479396173572102 1:0.24904297 2:-4.2915 
-0.07223607390194621 1:0.23024805 2:-4.4745 
-0.02628577849416135 1:0.23702148 2:-4.3444375 
-0.1 1:0.27688086 2:-3.00525 
-0.1 1:0.29859766 2:-3.285875 
-0.1 1:0.24243945 2:-2.4279375 
-0.09850953292891176 1:0.22986914 2:-4.2670625 
-0.09962292217795733 1:0.30496484 2:-3.691125 
-0.02770668602556092 1:0.16800781 2:-3.335375 
-0.07252606633005201 1:0.20798828 2:-4.5903125 
-0.02506151135501361 1:0.19811523 2:-0.6894375 
-0.01683638112631449 1:0.19694531 2:-3.9195625 
-0.1 1:0.31636133 2:-2.7805 
-0.1 1:0.40119336 2:-7.3266875 
-0.1 1:0.28626953 2:-2.63325 
-0.1 1:0.21359375 2:-2.771125 
-0.04708482066607579 1:0.11805469 2:-2.27 
-0.03357439657810692 1:0.41588477 2:-5.7424375 
-0.004010719725992856 1:0.23759961 2:-3.883125 
-0.009044820058190845 1:0.38566406 2:-5.403625 
-0.004006846087677761 1:0.24904492 2:-3.73525 
-0.1 1:0.25854297 2:-1.9469375 
-0.02121018559754892 1:0.29001562 2:-3.314 
-0.1 1:0.369375 2:-4.5480625 
-0.03155728600859763 1:0.15374414 2:-2.988625 
-0.001383335844126532 1:0.27801758 2:-3.6923125 
-0.005561933979216872 1:0.26417188 2:-4.3373125 
-0.01101304914475951 1:0.29588281 2:-5.0153125 
-0.03120846413957522 1:0.19277148 2:-0.5951875 
-0.01467175575961011 1:0.13203906 2:-0.3524375 
-0.01007299416721853 1:0.15667773 2:-0.576625 
-0.003365088408949618 1:0.18373828 2:-0.7175625 
-0.1 1:0.34348242 2:-3.792 
-0.07999320755793569 1:0.13844727 2:-3.4694375 
-0.1 1:0.49851172 2:-4.012375 
-0.1 1:0.39505078 2:-4.75675 
-0.04154012941234705 1:0.23668945 2:-3.4695625 
-0.01868623329961538 1:0.14553125 2:-1.92825 
-0.04060027323508431 1:0.35155469 2:-4.9226875 
-0.002374397057966111 1:0.30873047 2:-4.7131875 
-0.0030923467549285 1:0.20453516 2:-4.0585 
-0.1 1:0.26035937 2:-1.318125 
-0.002447509860230888 1:0.32075781 2:-5.06075 
-0.02367697695459454 1:0.39239062 2:-5.2711875 
-0.05269532526720187 1:0.27905078 2:-4.1588125 
-0.1 1:0.21329102 2:-1.593375 
-0.02954450837639677 1:0.26938086 2:-3.7621875 
-0.1 1:0.22114844 2:-3.5301875 
-0.06390172659064487 1:0.34523242 2:-6.061875 
-0.0760217693188897 1:0.24439453 2:-4.17375 
-0.002191315573707791 1:0.34316211 2:-5.11375 
-0.01106781208234551 1:0.30969531 2:-4.8235625 
-0.04909228404098048 1:0.25514844 2:-3.4875 
-0.03741292402380204 1:0.1969668 2:-4.3445625 
-0.01892678198139022 1:0.39331055 2:-4.977875 
-0.02578771695249661 1:0.31481055 2:-3.7885625 
-0.1 1:0.40533789 2:-6.4565 
-0.1 1:0.32594336 2:-3.5015 
-0.1 1:0.25162305 2:-3.468375 
-0.1 1:0.35208398 2:-2.5773125 
-0.03613840077285193 1:0.4128457 2:-5.946 
-0.07746026049714974 1:0.4214043 2:-5.82125 
-0.07797938229864396 1:0.36618555 2:-6.76 
-0.07220874975187978 1:0.26014062 2:-5.9321875 
-0.00543451759857866 1:0.19646289 2:-3.268625 
-0.02183090298371034 1:0.28688477 2:-4.852125 
-0.07456691702327045 1:0.22366992 2:-1.713625 
-0.1 1:0.31895703 2:-3.3794375 
-0.03602834811521571 1:0.16803906 2:-1.3530625 
-0.04494685738624077 1:0.41218555 2:-5.1688125 
-0.05307728180515382 1:0.16618555 2:-3.896125 
-0.0182129116799769 1:0.19203906 2:-0.745625 
-0.04019043062131505 1:0.43275195 2:-5.0771875 
-0.1 1:0.14642578 2:-1.6275625 
-0.002025667440980979 1:0.25895117 2:-4.7979375 
-0.1 1:0.24451562 2:-2.5500625 
-0.007474111885697439 1:0.18247852 2:-3.4698125 
-0.001116603129830807 1:0.20713672 2:-3.63925 
-0.1 1:0.33136133 2:-4.273 
-0.05870802423825248 1:0.35369141 2:-4.686375 
-0.001964189106684641 1:0.18525781 2:-3.2083125 
-0.1 1:0.24077344 2:-3.4290625 
-0.006395784068534305 1:0.2635918 2:-5.0038125 
-0.1 1:0.55966797 2:-2.449125 
-0.04465882304188771 1:0.16238672 2:-0.7190625 
-0.06099457837604083 1:0.23005273 2:-3.1355625 
-0.01434850020908332 1:0.39371289 2:-5.3565 
-0.1 1:0.22425781 2:-3.2 
-0.1 1:0.34413281 2:-2.960375 
-0.07207477488730499 1:0.39997852 2:-5.778625 
-0.08064967331422246 1:0.32047656 2:-5.663 
-0.006044788229500607 1:0.18546289 2:-3.118 
-0.1 1:0.25076563 2:-3.720375 
-0.1 1:0.31657031 2:-3.592375 
-0.03433712849312392 1:0.19747266 2:-1.3880625 
-0.00846099462851284 1:0.29004102 2:-4.75775 
-0.1 1:0.19665234 2:-1.8435 
-0.08935407179134026 1:0.16263281 2:-4.21425 
-0.1 1:0.48716016 2:-4.86025 
-0.1 1:0.17835937 2:-2.29925 
-0.06272970868218358 1:0.25239062 2:-3.4129375 
-0.02253456218922761 1:0.41386719 2:-5.3438125 
-0.1 1:0.4447832 2:-5.192375 
-0.01570333175323302 1:0.18537695 2:-3.6905 
-0.02411271356961427 1:0.32592969 2:-5.55525 
-0.08634183371795331 1:0.096158203 2:-2.4403125 
-0.01830122279105695 1:0.15279492 2:-0.351375 
-0.07894476194411283 1:0.19657227 2:-2.5599375 
-0.01494947553840478 1:0.24125 2:-3.3565 
-0.09614250326998941 1:0.26469922 2:-4.0971875 
-0.006093083863308768 1:0.13075781 2:-0.4119375 
-0.1 1:0.31554102 2:-1.5011875 
-0.02004515530781743 1:0.24172656 2:-0.6289375 
-0.1 1:0.44066992 2:-4.3504375 
-0.00248931668519345 1:0.31982812 2:-5.0585 
-0.01117696845927757 1:0.15851172 2:-2.733375 
-0.01550841531118802 1:0.25285937 2:-4.1435625 
-0.1 1:0.47209961 2:-4.102375 
-0.00502944858607658 1:0.29718555 2:-5.8158125 
-0.1 1:0.2595918 2:-3.181375 
-0.04006942201205063 1:0.32455469 2:-6.3529375 
-0.0668535915553379 1:0.12264258 2:-1.255875 
-0.02416371713786825 1:0.32592383 2:-4.158 
-0.04455821666065704 1:0.19703125 2:-1.2106875 
-0.004071009629308594 1:0.36796094 2:-5.66 
-0.003750338074630681 1:0.28441602 2:-4.591875 
-0.1 1:0.25304492 2:-2.577 
-0.1 1:0.46342969 2:-3.82325 
-0.03490033739638002 1:0.19802344 2:-3.217 
-0.002416255953234406 1:0.2195957 2:-4.1358125 
-0.1 1:0.14204297 2:-1.8194375 
-0.002800962442571645 1:0.2949082 2:-5.2358125 
-0.004234085688364557 1:0.4003418 2:-4.8186875 
-0.1 1:0.29733594 2:-3.103625 
-0.009320629148452589 1:0.27999219 2:-5.3160625 
-0.03524548466917973 1:0.22355273 2:-2.8776875 
-0.1 1:0.37238281 2:-5.6673125 
-0.04335521432705425 1:0.25547266 2:-3.1161875 
-0.02410632644113218 1:0.30909961 2:-4.58375 
-0.09904222101358799 1:0.18064844 2:-2.9850625 
-0.04931349829708814 1:0.20792578 2:-2.2953125 
-0.1 1:0.24810742 2:-2.2230625 
-0.0794586427351379 1:0.082671875 2:-0.6861875 
-0.1 1:0.23383398 2:-2.8864375 
-0.1 1:0.29116406 2:-4.66075 
-0.06640239438518031 1:0.38706445 2:-4.7500625 
-5.077756368550518e-05 1:0.15094531 2:-2.6941875 
-0.06094503330017921 1:0.24942188 2:-1.6803125 
-0.002721439650150223 1:0.19515234 2:-3.8171875 
-0.1 1:0.21419336 2:-1.8233125 
-0.06831094003520601 1:0.32887109 2:-4.583875 
-0.01633601335297039 1:0.23111133 2:-4.5469375 
-0.004722228369862707 1:0.21409375 2:-4.2804375 
-0.0330757966472832 1:0.2040625 2:-3.052875 
-0.1 1:0.31239258 2:-3.335375 
-0.04250522035034367 1:0.18053125 2:-4.25075 
-0.004974277579010851 1:0.3414082 2:-4.7151875 
-0.1 1:0.29560156 2:-2.88125 
-0.00972042739989051 1:0.19564844 2:-3.46 
-0.1 1:0.34100781 2:-3.5708125 
-0.0005439277914351948 1:0.1925 2:-3.0773125 
-0.1 1:0.51403125 2:-6.2425 
-0.02941916231816893 1:0.23928711 2:-4.124 
-0.0162531149104586 1:0.24624609 2:-5.011375 
-0.1 1:0.27897461 2:-2.5580625 
-0.01216811395904337 1:0.17307031 2:-2.9628125 
-0.0671510760635476 1:0.088455078 2:-2.1455 
-0.005594196372484941 1:0.11905273 2:-0.72825 
-0.01257347117824244 1:0.22323828 2:-4.847625 
-0.01181169038351876 1:0.3021875 2:-4.1948125 
-0.08663991972976073 1:0.34370508 2:-6.6133125 
-0.1 1:0.30313867 2:-3.5388125 
-0.009213727831659656 1:0.25199023 2:-4.2998125 
-0.0361568175745793 1:0.13743359 2:-0.297875 
-0.07550477568762726 1:0.18386523 2:-2.3635 
-0.004857336335862377 1:0.27760547 2:-5.098 
-0.1 1:0.48474609 2:-6.674125 
-0.01874800174203201 1:0.41641016 2:-4.679 
-0.01491863142316473 1:0.14616992 2:-0.3716875 
-0.003941042559062625 1:0.23612695 2:-3.9413125 
-0.03210077469007644 1:0.13548828 2:-3.4148125 
-0.000931698061679695 1:0.17923633 2:-3.3268125 
-0.05799759949712421 1:0.24479297 2:-1.2194375 
-0.01298470728480516 1:0.32344922 2:-5.2779375 
-0.003194453371831168 1:0.19154492 2:-4.0826875 
-0.03983138917319808 1:0.34157617 2:-4.2260625 
-0.0184337280671139 1:0.12742188 2:-0.7746875 
-0.1 1:0.28387305 2:-3.2044375 
-0.0923466269423584 1:0.24222656 2:-5.4225625 
-0.01776492838395897 1:0.19598633 2:-3.6105625 
-0.06764202782410061 1:0.21916016 2:-2.79625 
-0.1 1:0.38183594 2:-2.5176875 
-0.1 1:0.24695898 2:-2.8726875 
-0.04279871496239328 1:0.20968945 2:-4.0735625 
-0.01836364049010608 1:0.36483398 2:-5.3958125 
-0.009961798679693934 1:0.28221484 2:-5.066125 
-0.02467483342922764 1:0.32238477 2:-4.7973125 
-0.1 1:0.30291602 2:-0.991625 
-0.01478227185476513 1:0.32649414 2:-4.8268125 
-0.06283380112550832 1:0.42876367 2:-5.30325 
-0.01379911402573231 1:0.2487207 2:-5.019875 
-0.1 1:0.22082812 2:-2.6729375 
-0.09800619820437485 1:0.19711133 2:-3.1739375 
-0.0968175151775649 1:0.28346094 2:-1.1570625 
-0.05524174405175999 1:0.12512305 2:-2.84225 
-0.007430879572612039 1:0.31721875 2:-5.6945 
-0.02915056883632716 1:0.15921289 2:-3.507 
-0.01799742994133847 1:0.1741582 2:-3.27975 
-0.07517206703876889 1:0.17457617 2:-0.277875 
-0.1 1:0.32633594 2:-3.9435 
-0.02302187044769238 1:0.2777793 2:-5.2920625 
-0.02542223754308443 1:0.24331641 2:-4.9111875 
-0.008069969948853752 1:0.18685742 2:-0.795125 
-0.1 1:0.3401875 2:-1.4686875 
-0.01944926591343694 1:0.12050391 2:-0.5638125 
-0.04432326549980839 1:0.26146289 2:-3.535125 
-0.0601670969162505 1:0.26012891 2:-0.84825 
-0.06628050532196431 1:0.34974219 2:-5.7724375 
-0.01709789953634119 1:0.15566016 2:-2.349875 
-0.007214995944113215 1:0.22366797 2:-1.3763125 
-0.005527458502796634 1:0.33091797 2:-5.019 
-0.02127796680295763 1:0.3138457 2:-6.0845625 
-0.08716393115534529 1:0.22023828 2:-1.059 
-0.0068421394617835 1:0.23323633 2:-4.245875 
-0.1 1:0.27809375 2:-4.651125 
-0.08586933039684694 1:0.081677734 2:-1.615 
-0.00779399994417713 1:0.24917187 2:-4.7546875 
-0.1 1:0.18408398 2:-1.84125 
-0.04145259784605611 1:0.17083203 2:-4.0699375 
-0.002542995516373346 1:0.31008008 2:-5.411625 
-0.002278321462568891 1:0.30526953 2:-5.664125 
-0.06458292634297834 1:0.28653711 2:-3.8649375 
-0.04181091085382411 1:0.41241016 2:-5.256375 
-0.002834793459103219 1:0.22222266 2:-3.8930625 
-0.001144626281713135 1:0.15263867 2:-0.5178125 
-0.002261429017306693 1:0.35835547 2:-6.3311875 
-0.01776992413844049 1:0.15686523 2:-1.1291875 
-0.01932031704173858 1:0.33228906 2:-5.591625 
-0.002450243935838278 1:0.21359961 2:-3.6458125 
-0.004362265822118059 1:0.21848242 2:-4.455375 
-0.1 1:0.41378516 2:-2.7640625 
-0.1 1:0.28167188 2:-1.3150625 
-0.1 1:0.35942578 2:-2.83575 
-0.02539154385173153 1:0.15173438 2:-0.3281875 
-0.04622537123977674 1:0.38785547 2:-6.0408125 
-0.1 1:0.49560547 2:-4.876 
-0.09076372832765164 1:0.23102539 2:-0.31325 
-0.009711195528989082 1:0.16608594 2:-3.4151875 
-0.1 1:0.23202734 2:-1.8263125 
-0.05058458586729121 1:0.11741211 2:-0.589875 
-0.0150191841377725 1:0.39990039 2:-5.5281875 
-0.02105758000296936 1:0.3510918 2:-5.0261875 
-0.1 1:0.32116602 2:-1.6766875 
-0.01512819632841159 1:0.23177344 2:-4.517375 
-0.09390957911663875 1:0.40974609 2:-6.5911875 
-0.1 1:0.19375391 2:-2.2433125 
-0.00936570714955959 1:0.15451758 2:-3.617125 
-0.05308459143342317 1:0.11567383 2:-2.49925 
-0.1 1:0.15744727 2:-3.6728125 
-0.01430457634038355 1:0.12067969 2:-1.18375 
-0.03007226383206935 1:0.30759375 2:-4.9255 
-0.03851255620721407 1:0.21110352 2:-3.1179375 
-0.004184443665733055 1:0.29452344 2:-5.858625 
-0.001734631456588919 1:0.25712695 2:-4.3881875 
-0.01922880732470272 1:0.13176758 2:-0.3184375 
-0.001421118849175049 1:0.2479082 2:-4.1050625 
-0.1 1:0.33538672 2:-3.9215625 
-0.1 1:0.36822461 2:-3.207625 
-0.04949109932721265 1:0.2184043 2:-3.258125 
-0.005361485166202352 1:0.22431836 2:-4.4473125 
-0.02268733285120292 1:0.2777832 2:-4.090375 
-0.03032450530107555 1:0.18249023 2:-1.704875 
-0.1 1:0.2800332 2:-3.6730625 
-0.03611610598135852 1:0.30638672 2:-3.60425 
-0.01538616106010705 1:0.32823438 2:-4.709125 
-0.1 1:0.28025586 2:-5.4515 
-0.006602432209336915 1:0.20242773 2:-2.74125 
-0.04203673174183739 1:0.305625 2:-5.8485 
-0.002696597537939571 1:0.20554492 2:-3.8453125 
-0.1 1:0.27030078 2:-1.6701875 
-0.01513852153033299 1:0.21092969 2:-3.133125 
-0.06017629176852368 1:0.39533594 2:-6.7176875 
-0.006506732961033926 1:0.29525 2:-4.57775 
-0.01930148131620187 1:0.15406055 2:-2.5658125 
-0.1 1:0.3116875 2:-3.424125 
-0.003221477528370744 1:0.14711914 2:-0.7550625 
-0.1 1:0.23113867 2:-2.8440625 
-0.1 1:0.2610918 2:-2.924625 
-0.002966462865797204 1:0.27118945 2:-3.6079375 
-0.01219845248132185 1:0.20708398 2:-4.1880625 
-0.1 1:0.29430664 2:-3.5336875 
-0.1 1:0.36425586 2:-4.5600625 
-0.01133791182363176 1:0.26500391 2:-5.61825 
-0.03001123732693747 1:0.26776367 2:-4.0185625 
-0.01002211860022635 1:0.12201367 2:-2.4213125 
-0.08435573091028052 1:0.394125 2:-5.0828125 
-0.03844096515672303 1:0.19955273 2:-3.771 
-0.1 1:0.30482617 2:-3.0379375 
-0.02006524770978141 1:0.20068359 2:-0.5784375 
-0.004372005415417672 1:0.11771094 2:-0.544125 
-0.01496498940961016 1:0.35513477 2:-5.2988125 
-0.03088594181752985 1:0.22727734 2:-3.095375 
-0.07325258047882424 1:0.37807812 2:-5.0475 
-0.1 1:0.22633984 2:-2.71225 
-0.01840618942875508 1:0.34079687 2:-4.7308125 
-0.1 1:0.2700332 2:-3.06725 
-0.002076571910701058 1:0.33061523 2:-4.770625 
-0.01756634892296585 1:0.26486133 2:-3.8655625 
-0.02481184415690529 1:0.15348438 2:-2.6431875 
-0.03781737873436551 1:0.19223047 2:-0.8635 
-0.01811537111062848 1:0.15344531 2:-0.9359375 
-0.02539782168980442 1:0.092617187 2:-0.48525 
-0.01595927171995036 1:0.10912695 2:-1.035375 
-0.1 1:0.38616211 2:-3.214625 
-0.007963465287574681 1:0.27881836 2:-4.3296875 
-0.02270615604104244 1:0.36050586 2:-5.13925 
-0.02815922457477362 1:0.30045117 2:-5.435 
-0.09179427663021297 1:0.089693359 2:-1.929 
-0.02006323904891488 1:0.21311133 2:-0.706 
-0.02677507176569918 1:0.28961328 2:-5.0679375 
-0.1 1:0.32058789 2:-2.162375 
-0.03545762897080838 1:0.29039648 2:-5.8028125 
-0.1 1:0.22776367 2:-2.785125 
-0.0835826743514807 1:0.40866992 2:-6.1975625 
-0.09442654772637374 1:0.17836914 2:-2.2420625 
-0.0604712776168597 1:0.2627793 2:-5.64825 
-0.06719938427132541 1:0.28458594 2:-6.0638125 
-0.1 1:0.28037109 2:-1.59875 
-0.01416520643382062 1:0.15877148 2:-2.7178125 
-0.08305403692370117 1:0.35701172 2:-4.0114375 
-0.02910626926828856 1:0.20650391 2:-3.9256875 
-0.09283063958526394 1:0.20376172 2:-0.978 
-0.01327583587637858 1:0.37275586 2:-7.081375 
-0.1 1:0.31813086 2:-3.305625 
-0.0238256546508335 1:0.31241797 2:-5.316625 
-0.03320580746498882 1:0.24682813 2:-3.020875 
-0.0002667764058936581 1:0.23346289 2:-4.9045 
-0.0728988703335893 1:0.23925195 2:-3.3940625 
-0.01330166481636952 1:0.13520312 2:-0.518125 
-0.01713196292890279 1:0.32137891 2:-4.984375 
-0.01574604177331655 1:0.18350391 2:-3.443625 
-0.00562314511604599 1:0.2153418 2:-4.1908125 
-0.1 1:0.26800977 2:-2.4195 
-0.009491828028008289 1:0.30944727 2:-5.53075 
-0.00893902678057967 1:0.17265039 2:-3.02575 
-0.07353986104442499 1:0.20287305 2:-3.1580625 
-0.03072715798097299 1:0.35023242 2:-5.6015 
-0.1 1:0.24664258 2:-2.0425625 
-0.03324679247463016 1:0.3152832 2:-4.88725 
-0.01028514130438432 1:0.24185742 2:-3.9803125 
-0.001525789790501142 1:0.23485742 2:-4.6140625 
-0.1 1:0.45111328 2:-4.638 
-0.0302833712656014 1:0.33277148 2:-4.6433125 
-0.008143562428282874 1:0.17952539 2:-2.6530625 
-0.02919091633860144 1:0.35225586 2:-5.7073125 
-0.005564240556832141 1:0.30724805 2:-5.9245625 
-0.01036022130973516 1:0.13186523 2:-0.550625 
-0.05000150077660643 1:0.29912695 2:-3.834875 
-0.01254469014131866 1:0.16257031 2:-3.3836875 
-0.02762192040366019 1:0.30325391 2:-4.8945625 
-0.04217427536769353 1:0.30686133 2:-6.5006875 
-0.01055660346764468 1:0.25239648 2:-4.017875 
-0.02159493051596758 1:0.10358594 2:-0.9358125 
-0.0176335798119193 1:0.18139648 2:-0.618875 
-0.08801087178484232 1:0.26087305 2:-4.1783125 
-0.09116054471116612 1:0.22789648 2:-4.39775 
-0.0669782660742913 1:0.27326758 2:-5.4265 
-0.04090183983365045 1:0.34958789 2:-6.155125 
-0.006892565255044113 1:0.13973242 2:-0.7441875 
-0.1 1:0.23100195 2:-2.6498125 
-0.07610134354982448 1:0.081591797 2:-1.7980625 
-0.009538374922716026 1:0.16884961 2:-3.4281875 
-0.1 1:0.2521875 2:-3.2321875 
-0.0369573487113647 1:0.27122852 2:-3.7273125 
-0.02639351156485035 1:0.42489258 2:-5.367 
-0.04578939317269491 1:0.38610742 2:-6.1371875 
-0.1 1:0.3217832 2:-2.419625 
-0.1 1:0.22813086 2:-2.677875 
-0.005018419951285991 1:0.20973633 2:-4.038875 
-0.04922747489262321 1:0.14176563 2:-2.326 
-0.02269347395824267 1:0.16120703 2:-0.412125 
-0.05399491427912903 1:0.12804883 2:-2.8983125 
-0.0007206282013967017 1:0.34628711 2:-5.7885625 
-0.005560361539406445 1:0.20053906 2:-3.7035 
-0.07384744440385517 1:0.093728516 2:-0.86875 
-0.003261416662652411 1:0.24354102 2:-4.6081875 
-0.07691795841496134 1:0.093222656 2:-0.914125 
-0.002562115466046677 1:0.22976758 2:-4.4234375 
-0.01835599544686674 1:0.27054883 2:-3.8561875 
-0.02814746178520217 1:0.35628711 2:-6.539625 
-0.1 1:0.24621484 2:-2.1268125 
-0.002881674379082762 1:0.23333008 2:-3.917375 
-0.04721074577038863 1:0.18048437 2:-4.2701875 
-0.05161181234683666 1:0.14162305 2:-1.396 
-0.04071816400286992 1:0.12140039 2:-1.143 
-0.05651932094929832 1:0.15910547 2:-4.0384375 
-0.06143328580861469 1:0.25020898 2:-5.5086875 
-0.04572159372922002 1:0.25031445 2:-4.073125 
-0.003271199460794492 1:0.18289453 2:-3.3156875 
-0.05060839641873339 1:0.096986328 2:-2.1764375 
-0.02350053555167152 1:0.32123828 2:-5.983375 
-0.001101675311657624 1:0.16488281 2:-0.8014375 
-0.04357646319904526 1:0.24000977 2:-3.822125 
-0.003084753631453505 1:0.2614707 2:-4.7341875 
-0.1 1:0.32765234 2:-4.0785625 
-0.1 1:0.38944922 2:-2.8925625 
-0.01680493230303232 1:0.28833789 2:-5.0376875 
-0.1 1:0.39472266 2:-4.070375 
-0.03018675799888308 1:0.27983203 2:-4.998 
-0.1 1:0.35369336 2:-3.8585 
-0.02909958335825693 1:0.26433008 2:-4.84575 
-0.0606974084162616 1:0.10792188 2:-2.571 
-0.09228067822155403 1:0.26702148 2:-5.8805 
-0.003225873582031663 1:0.16740625 2:-2.5234375 
-0.006376948785665877 1:0.25016406 2:-5.0289375 
-0.02034564043801357 1:0.3109375 2:-4.4159375 
-0.08456675542525968 1:0.27455664 2:-1.5620625 
-0.02218074374741567 1:0.23408203 2:-4.2324375 
-0.006920320428622173 1:0.29432422 2:-5.3350625 
-0.01441731125602063 1:0.21387305 2:-4.0073125 
-0.07903827766191368 1:0.22599609 2:-5.2086875 
-0.1 1:0.21192773 2:-2.841125 
-0.1 1:0.35445117 2:-2.0418125 
-0.05309519874743436 1:0.22549609 2:-5.097125 
-0.0313385650864365 1:0.29157422 2:-3.5221875 
-0.1 1:0.3421875 2:-3.4231875 
-0.07094507931763325 1:0.16041602 2:-1.4425625 
-0.1 1:0.50546875 2:-2.978125 
-0.1 1:0.32254492 2:-3.2290625 
-0.0926510132101957 1:0.31158398 2:-5.0321875 
-0.03501065723361987 1:0.21201367 2:-2.6100625 
-0.004672072828096633 1:0.099441406 2:-2.0795 
-0.02568742635375742 1:0.29649805 2:-4.5945 
-0.0283077874269484 1:0.40899219 2:-5.5123125 
-0.0137939659956111 1:0.18440625 2:-0.6248125 
-0.06387792863793879 1:0.47638086 2:-5.2835625 
-0.02807915063887972 1:0.15964258 2:-4.055 
-0.0006500311401580472 1:0.2801875 2:-4.254 
-0.06262683829406411 1:0.087019531 2:-2.105 
-0.00811954934516222 1:0.25779102 2:-4.3279375 
-0.08200612049835265 1:0.39870508 2:-6.2614375 
-0.05774078839868166 1:0.22480859 2:-2.255625 
-0.1 1:0.30011328 2:-3.26075 
-0.1 1:0.41330273 2:-6.1581875 
-0.09281305671440873 1:0.28956836 2:-6.3693125 
-0.001549039373707595 1:0.25571094 2:-4.712625 
-0.009998771712582212 1:0.2059375 2:-3.43675 
-0.1 1:0.19230078 2:-1.6540625 
-0.02807949418017208 1:0.23757422 2:-3.913375 
-0.0370729397765251 1:0.15547266 2:-1.14625 
-0.1 1:0.38547461 2:-3.8594375 
-0.007780106585089956 1:0.33577344 2:-4.9798125 
-0.01034926144058489 1:0.25771875 2:-4.141 
-0.003229421236751353 1:0.28154297 2:-5.29975 
-0.09095501279350192 1:0.29193555 2:-4.3520625 
-0.06027776188526865 1:0.39397461 2:-3.8175 
-0.001635511778175148 1:0.30721289 2:-5.265875 
-0.004626516761640831 1:0.19116797 2:-3.537 
-0.004829755765873528 1:0.17389258 2:-3.409 
-0.04022994170369452 1:0.21120898 2:-3.8875625 
-0.03061390219115469 1:0.21791797 2:-3.83625 
-0.01264230271880466 1:0.26019922 2:-3.834125 
-0.04607983928212425 1:0.38183594 2:-4.813125 
-0.008092350899775421 1:0.22005664 2:-4.01325 
-0.04736378764326018 1:0.45636133 2:-5.3300625 
-0.1 1:0.44749609 2:-3.6575625 
-0.03557110908729029 1:0.36478711 2:-5.8079375 
-0.01010495199480381 1:0.25320117 2:-3.239875 
-0.004497150290118647 1:0.15023633 2:-2.348625 
-0.001360942012519977 1:0.29611523 2:-5.2068125 
-0.09012442047728822 1:0.33615625 2:-4.82075 
-0.00321504119016838 1:0.24007813 2:-4.6259375 
-0.1 1:0.27839453 2:-2.256625 
-0.01892368975623792 1:0.1299375 2:-2.358625 
-0.01621059035642592 1:0.32923242 2:-4.2795625 
-0.006316080956375053 1:0.24028516 2:-3.94575 
-0.03014647771357548 1:0.38100195 2:-4.0913125 
-0.1 1:0.34663867 2:-2.43325 
-0.1 1:0.32033984 2:-3.4545625 
-0.001339843742925674 1:0.21361133 2:-3.8678125 
-0.07887327036232382 1:0.21583203 2:-3.4614375 
-0.08719537626079446 1:0.097283203 2:-2.3428125 
-0.0386856860745384 1:0.2628418 2:-2.9529375 
-0.04261701183152952 1:0.31833984 2:-3.9101875 
-0.1 1:0.27103711 2:-3.3648125 
-0.1 1:0.38985742 2:-2.2789375 
-0.1 1:0.24884961 2:-0.97475 
-0.01160966833544758 1:0.16695313 2:-0.54225 
-0.0082333714411757 1:0.30776562 2:-5.9931875 
-0.007505623239135985 1:0.17062695 2:-1.560375 
-0.005505055527828169 1:0.28523633 2:-5.0523125 
-0.01491092285758622 1:0.18447266 2:-3.1966875 
-0.03272261009641605 1:0.1423125 2:-3.2208125 
-0.05654620169226283 1:0.21511719 2:-2.72775 
-0.008171704821698478 1:0.29270117 2:-3.2854375 
-0.08830968252351741 1:0.18728125 2:-3.3040625 
-0.07090519616137589 1:0.28741406 2:-6.508375 
-0.1 1:0.22915234 2:-1.374375 
-0.1 1:0.18338477 2:-1.7868125 
-0.07567260989138749 1:0.16039453 2:-3.9334375 
-0.06335009430111127 1:0.076144531 2:-1.757125 
-0.1 1:0.29769922 2:-3.3219375 
-0.08909494011204071 1:0.23297852 2:-3.4668125 
-0.0754322741911773 1:0.18350195 2:-2.1923125 
-0.1 1:0.38054102 2:-4.196375 
-0.1 1:0.34518164 2:-3.089625 
-0.02108180419435043 1:0.13571484 2:-1.0553125 
-0.1 1:0.18969141 2:-2.3571875 
-0.0209818039915978 1:0.18877148 2:-3.6405625 
-0.002450342770747249 1:0.11802539 2:-0.5254375 
-0.1 1:0.21929688 2:-1.9210625 
-0.01568577261500914 1:0.34606445 2:-6.244125 
-0.01022974965925655 1:0.16870898 2:-3.1403125 
-0.05725051829784242 1:0.34438281 2:-4.893 
-0.04908796371754662 1:0.33461719 2:-6.2285 
-0.04290996433028924 1:0.16945117 2:-3.875125 
-0.02601349214471935 1:0.30346094 2:-5.1415 
-0.05543456748233939 1:0.094730469 2:-0.640625 
-0.00256735018528309 1:0.15972852 2:-0.6175625 
-0.06863733513994746 1:0.47109961 2:-4.566125 
-0.02712238679039476 1:0.16068945 2:-2.8523125 
-0.006469685245401808 1:0.21365234 2:-3.4150625 
-0.1 1:0.30227734 2:-2.2331875 
-0.1 1:0.4075293 2:-3.602375 
-0.008616929214509152 1:0.31595508 2:-5.7154375 
-0.1 1:0.2242832 2:-4.2979375 
-0.02122497252790187 1:0.22082227 2:-3.1940625 
-0.008931466825277368 1:0.31575195 2:-5.014625 
-0.00101736821402304 1:0.13131055 2:-0.839625 
-0.01612166391257588 1:0.16926563 2:-0.444 
-0.003102138101452804 1:0.23208594 2:-4.444875 
-0.1 1:0.38552344 2:-4.6464375 
-0.009005946404321974 1:0.13016992 2:-0.2438125 
-0.0903971236279114 1:0.35354297 2:-7.0851875 
-0.006201081422035515 1:0.18944141 2:-3.60075 
-0.002715681368102979 1:0.25216016 2:-4.95275 
-0.02558260282134271 1:0.33945508 2:-5.1548125 
-0.004831360104053583 1:0.16580273 2:-3.4043125 
-0.0155838134142056 1:0.2465293 2:-4.695875 
-0.02071577353937332 1:0.35425195 2:-5.4400625 
-0.00373875347249973 1:0.32064062 2:-4.5230625 
-0.1 1:0.24451758 2:-2.7610625 
-0.1 1:0.44399023 2:-4.749625 
-0.01113861405178813 1:0.19628125 2:-0.9126875 
-0.07974649968075438 1:0.2164375 2:-0.5284375 
-0.002723669731485093 1:0.24241602 2:-4.259875 
-0.1 1:0.21091211 2:-2.560125 
-0.04267301124943867 1:0.17535547 2:-2.8948125 
-0.002941242036339896 1:0.13176172 2:-0.646875 
-0.08862920534953402 1:0.2464082 2:-3.9310625 
-0.01641669511794781 1:0.45030664 2:-4.5109375 
-0.1 1:0.34270508 2:-2.6396875 
-0.005165653947338968 1:0.12051562 2:-0.6193125 
-0.02807925443926063 1:0.30542383 2:-4.773875 
-0.03980624618384121 1:0.33728711 2:-5.5165625 
-0.004198890250946043 1:0.11324219 2:-0.802375 
-0.0230785826809219 1:0.1700625 2:-0.4009375 
-0.005961796963397751 1:0.19146289 2:-3.1794375 
-0.06714912184819263 1:0.18132617 2:-3.2220625 
-0.004547975090885913 1:0.25 2:-4.624625 
-0.1 1:0.23867578 2:-2.756 
-0.03966409902974248 1:0.32469141 2:-4.671125 
-0.0143978752863701 1:0.3233418 2:-5.5028125 
-0.003694034660307528 1:0.33639062 2:-5.632125 
-0.02691884576893882 1:0.11264453 2:-1.797 
-0.1 1:0.32683008 2:-4.0153125 
-0.1 1:0.35983789 2:-4.137 
-0.03406941572936052 1:0.33588672 2:-4.1898125 
-0.02328304507744553 1:0.31408984 2:-5.2239375 
-0.01027297744714478 1:0.22213477 2:-4.2635625 
-0.04805564904346085 1:0.19193359 2:-1.929375 
-0.04066231792542774 1:0.38863281 2:-5.3104375 
-0.1 1:0.25451758 2:-1.7416875 
-0.008063695138902149 1:0.10139063 2:-0.265875 
-0.1 1:0.15420898 2:-1.619875 
-0.09662190514366956 1:0.25238086 2:-5.8245 
-0.1 1:0.47258203 2:-5.1478125 
-0.04415357144500326 1:0.3979668 2:-6.434375 
-0.01575533238261462 1:0.30164258 2:-5.5191875 
-0.06232672319358581 1:0.15448633 2:-3.7628125 
-0.1 1:0.29225195 2:-2.52325 
-0.0009208064438100654 1:0.17999805 2:-3.188375 
-0.04294616178233945 1:0.28834766 2:-5.5510625 
-0.05625563976251888 1:0.11278516 2:-1.221 
-0.01194315053405756 1:0.15125391 2:-0.55175 
-0.001629054732382757 1:0.22709961 2:-3.6794375 
-0.003586890048098045 1:0.31403516 2:-4.7519375 
-0.005309537346798043 1:0.29970312 2:-5.043875 
-0.01357773281957878 1:0.23300781 2:-4.5359375 
-0.1 1:0.3456543 2:-3.2239375 
-0.005870385242517349 1:0.12673438 2:-0.627125 
-0.009238651963107707 1:0.11959766 2:-2.1474375 
-0.08822975029638094 1:0.26716211 2:-0.6474375 
-0.02229373986106643 1:0.23649805 2:-4.5658125 
-0.06523352147900843 1:0.28295508 2:-0.9159375 
-0.07639053794971409 1:0.23117383 2:-1.6263125 
-0.04517195378520341 1:0.28174219 2:-4.3183125 
-0.01903445484485625 1:0.31678516 2:-5.1941875 
-0.008456188658884681 1:0.20280859 2:-4.48875 
-0.00165254131114457 1:0.26429297 2:-4.2974375 
-0.001282301962846594 1:0.24210937 2:-3.6994375 
-0.03000906903536018 1:0.20870898 2:-4.1036875 
-0.03248198069376722 1:0.13599414 2:-3.2916875 
-0.001576745850696823 1:0.37918555 2:-4.8870625 
-0.05162971148838784 1:0.18621875 2:-1.0839375 
-0.1 1:0.35457227 2:-3.133 
-0.1 1:0.30932617 2:-3.8633125 
-0.1 1:0.3155957 2:-4.250125 
-0.1 1:0.29729883 2:-3.9883125 
-0.003120091644999703 1:0.25904102 2:-4.564 
-0.0100612638684895 1:0.33357617 2:-5.66975 
-0.02616573473245926 1:0.35266797 2:-6.0053125 
-0.09854654831175672 1:0.26445117 2:-6.1681875 
-0.08816023224236269 1:0.19241016 2:-3.4095625 
-0.03429335457537425 1:0.23394336 2:-2.904 
-0.003603993037275424 1:0.23073633 2:-3.6994375 
-0.1 1:0.19116602 2:-1.706625 
-0.02154132830099693 1:0.16303125 2:-1.1005625 
-0.009623662552159358 1:0.24038672 2:-3.35325 
-0.03534291768557474 1:0.16145117 2:-2.4376875 
-0.04726960083788814 1:0.19501367 2:-2.6203125 
-0.1 1:0.40465039 2:-3.5784375 
-0.009588037854229481 1:0.31121484 2:-5.3504375 
-0.0777720928140864 1:0.24021875 2:-0.7291875 
-0.0319231241908669 1:0.15819336 2:-0.981875 
-0.0140438430565661 1:0.28276953 2:-4.7361875 
-0.1 1:0.2743457 2:-3.3559375 
-0.009022221880337473 1:0.3019375 2:-5.195875 
-0.02338792855976647 1:0.36097461 2:-6.4238125 
-0.07700270054278187 1:0.093445313 2:-1.990875 
-0.01621873281834818 1:0.37524414 2:-5.9794375 
-0.1 1:0.4074082 2:-3.9875 
-0.06251728413856356 1:0.21803711 2:-2.5533125 
-0.03372091966948749 1:0.26474805 2:-5.0976875 
-0.01517068719284592 1:0.11208398 2:-2.1299375 
-0.001949356634898052 1:0.23500977 2:-4.5056875 
-0.006950243596935069 1:0.11771484 2:-0.616875 
-0.1 1:0.33732617 2:-2.0031875 
-0.02402357922852066 1:0.18048438 2:-3.661 
-0.06642099711209756 1:0.3845 2:-6.7055 
-0.01863940376648881 1:0.19992188 2:-2.851375 
-0.0971855557006632 1:0.45968945 2:-5.043375 
-0.02123156175256502 1:0.20039648 2:-3.85675 
-0.02388103705096826 1:0.30248438 2:-5.774375 
-0.01767488839272036 1:0.18241406 2:-1.7259375 
-0.05246822594684069 1:0.11014844 2:-2.056 
-0.02511608158529897 1:0.1760957 2:-3.3080625 
-0.003526479109113772 1:0.31397852 2:-5.3356875 
-0.04101910471339662 1:0.26871289 2:-3.656875 
-0.1 1:0.32193164 2:-3.7441875 
-0.006566358388314208 1:0.2393457 2:-4.0664375 
-0.1 1:0.29874609 2:-4.2219375 
-0.08188844929506636 1:0.077960938 2:-0.51175 
-0.009971861948567199 1:0.23249414 2:-3.9426875 
-0.1 1:0.343625 2:-3.1510625 
-0.06878543949489607 1:0.21367187 2:-5.067625 
-0.01001765431311965 1:0.33854297 2:-5.295 
-0.08486624483031099 1:0.12846289 2:-2.95275 
-0.01198145672345368 1:0.11146289 2:-0.525625 
-0.05994011650425687 1:0.22061328 2:-3.57275 
-0.004947832320969729 1:0.1737207 2:-2.6514375 
-0.005770723603523059 1:0.27804688 2:-4.8784375 
-0.02230601106130823 1:0.30417187 2:-4.292125 
-0.1 1:0.22959961 2:-2.5274375 
-0.001969628874752112 1:0.19947461 2:-4.2119375 
-0.03682248232098237 1:0.11625781 2:-1.134125 
-0.001693465954721767 1:0.20492383 2:-3.8988125 
-0.02477813984596527 1:0.31619727 2:-6.3761875 
-0.006324929963603232 1:0.14965625 2:-0.3728125 
-0.009202500257817816 1:0.21464258 2:-4.6244375 
-0.00816368858158717 1:0.21973828 2:-3.86075 
-0.008698860870060948 1:0.19226758 2:-0.76975 
-0.003348981544936943 1:0.33870313 2:-4.6759375 
-0.09707724954600332 1:0.29339648 2:-3.8018125 
-0.05559791086315708 1:0.24755859 2:-4.672875 
-0.02939423115668166 1:0.35918359 2:-5.1936875 
-0.03441876639687955 1:0.23898828 2:-4.7155 
-0.02553559282411797 1:0.22955859 2:-3.2878125 
-0.0638287913155163 1:0.26740625 2:-0.86625 
-0.1 1:0.33401758 2:-3.5395 
-0.0226013012746223 1:0.091326172 2:-2.0931875 
-0.01934441653980825 1:0.19740234 2:-4.139 
-0.005786492489036077 1:0.23155859 2:-4.342375 
-0.1 1:0.33074023 2:-4.362625 
-0.07741947643482304 1:0.23229883 2:-2.5465625 
-0.001202040862780599 1:0.24060547 2:-4.2458125 
-0.1 1:0.25330078 2:-2.620125 
-0.1 1:0.25036328 2:-3.019875 
-0.04562122143528435 1:0.2542793 2:-4.8716875 
-0.02341148649538936 1:0.36280664 2:-5.8456875 
-0.1 1:0.1824375 2:-2.253375 
-0.003613716372624339 1:0.21610352 2:-3.9500625 
-0.0858477024038253 1:0.23245703 2:-1.195625 
-0.002651474851371124 1:0.2420918 2:-4.2074375 
-0.02952461637560064 1:0.14804297 2:-2.4165625 
-0.04076449022919754 1:0.20539844 2:-3.8018125 
-0.05491811598523046 1:0.22749609 2:-2.9654375 
-0.03634921103928672 1:0.28594531 2:-5.5890625 
-0.1 1:0.28633789 2:-3.591 
-0.0256055379495986 1:0.15018359 2:-0.1978125 
-0.00190450587571904 1:0.24218555 2:-4.0425625 
-0.002584895836080961 1:0.31765234 2:-5.4841875 
-0.0914917872236498 1:0.30384375 2:-4.66825 
-0.03127385425683887 1:0.10350977 2:-0.1501875 
-0.06976251135054769 1:0.21555273 2:-0.8249375 
-0.003787919488242031 1:0.12943359 2:-0.3091875 
-0.1 1:0.24696484 2:-2.446625 
-0.1 1:0.27598047 2:-3.708 
-0.1 1:0.34435742 2:-4.3355625 
-0.04889053250065212 1:0.36505469 2:-6.3261875 
-0.1 1:0.28070703 2:-3.386625 
-0.004638379076652123 1:0.094371094 2:-0.669875 
-0.01021730240866184 1:0.14083008 2:-0.521 
-0.04648635777838096 1:0.22188477 2:-3.3343125 
