svm_type c_svc
kernel_type rbf
gamma 10000
nr_class 2
total_sv 5191
rho 0.965345
label 1 -1
nr_sv 1029 4162
SV
0.1 1:0.35426563 2:-2.5839375 
0.1 1:0.31485156 2:-4.1795 
0.1 1:0.44792773 2:-5.903 
0.1 1:0.31222266 2:-1.824 
0.1 1:0.43521875 2:-2.7759375 
0.1 1:0.33414648 2:-4.8459375 
0.1 1:0.36563477 2:-3.1015 
0.1 1:0.30070898 2:-1.913875 
0.1 1:0.40568945 2:-3.4481875 
0.1 1:0.44328906 2:-1.86225 
0.1 1:0.36703125 2:-4.044 
0.1 1:0.46808789 2:-4.909125 
0.1 1:0.19886328 2:-2.5488125 
0.1 1:0.43008203 2:-2.4576875 
0.1 1:0.33814844 2:-3.5335 
0.1 1:0.40191016 2:-2.013375 
0.1 1:0.44185156 2:-3.6235 
0.1 1:0.33051172 2:-3.44125 
0.1 1:0.52735156 2:-4.2251875 
0.1 1:0.57983398 2:-1.5735625 
0.1 1:0.52532227 2:-2.8126875 
0.1 1:0.41318555 2:-4.2830625 
0.1 1:0.31275195 2:-2.2413125 
0.1 1:0.3864375 2:-1.5735 
0.1 1:0.26388086 2:-2.4286875 
0.1 1:0.28090234 2:-3.5523125 
0.1 1:0.39734961 2:-4.196375 
0.1 1:0.29695898 2:-1.7955625 
0.1 1:0.48227734 2:-4.33475 
0.1 1:0.34985352 2:-2.4348125 
0.1 1:0.26370703 2:-1.8264375 
0.1 1:0.32032812 2:-4.418125 
0.1 1:0.42530273 2:-3.6656875 
0.1 1:0.31682031 2:-3.3043125 
0.1 1:0.28343945 2:-1.48925 
0.1 1:0.26692383 2:-3.2095 
0.1 1:0.23373633 2:-3.3294375 
0.1 1:0.37326563 2:-4.7308125 
0.1 1:0.30439258 2:-3.55325 
0.1 1:0.44560547 2:-3.518625 
0.1 1:0.31361914 2:-3.78425 
0.1 1:0.31888086 2:-3.5965625 
0.1 1:0.3094082 2:-3.7965 
0.1 1:0.43852344 2:-2.296 
0.1 1:0.42518555 2:-2.9306875 
0.1 1:0.29705078 2:-1.08675 
0.1 1:0.32204492 2:-2.8611875 
0.1 1:0.24535742 2:-3.0871875 
0.1 1:0.5284082 2:-3.2651875 
0.1 1:0.40404883 2:-2.433875 
0.1 1:0.45625781 2:-3.9156875 
0.1 1:0.36358984 2:-4.906375 
0.1 1:0.29741211 2:-2.8059375 
0.1 1:0.42250391 2:-2.2156875 
0.1 1:0.27155469 2:-3.040875 
0.1 1:0.353 2:-2.7285 
0.1 1:0.27570508 2:-1.7501875 
0.1 1:0.24961133 2:-3.538375 
0.1 1:0.37240234 2:-3.902125 
0.1 1:0.32287109 2:-2.40375 
0.1 1:0.49133984 2:-4.1626875 
0.1 1:0.37255469 2:-4.3179375 
0.1 1:0.35675586 2:-2.232875 
0.1 1:0.28163281 2:-3.179375 
0.1 1:0.13879883 2:-1.968 
0.1 1:0.31175195 2:-2.6984375 
0.1 1:0.28905078 2:-3.00425 
0.1 1:0.32141992 2:-2.232125 
0.1 1:0.28694336 2:-2.7929375 
0.1 1:0.36987109 2:-1.69375 
0.1 1:0.21975195 2:-2.9699375 
0.1 1:0.28090625 2:-1.948125 
0.1 1:0.26130078 2:-1.77575 
0.1 1:0.21552148 2:-3.5938125 
0.1 1:0.27617578 2:-2.6374375 
0.1 1:0.43748438 2:-3.083 
0.1 1:0.30421484 2:-4.210125 
0.1 1:0.40333008 2:-3.0384375 
0.1 1:0.38451172 2:-3.2376875 
0.1 1:0.3836875 2:-4.3201875 
0.1 1:0.44529687 2:-1.3795 
0.1 1:0.27574414 2:-3.3558125 
0.1 1:0.22000586 2:-2.8480625 
0.1 1:0.30707031 2:-1.776375 
0.1 1:0.43819336 2:-6.483 
0.1 1:0.26060352 2:-0.900625 
0.1 1:0.42405469 2:-2.2151875 
0.1 1:0.46410742 2:-4.8941875 
0.1 1:0.40474805 2:-2.588125 
0.1 1:0.44528125 2:-3.1585 
0.1 1:0.3564043 2:-3.6638125 
0.1 1:0.2820918 2:-3.37775 
0.1 1:0.41963086 2:-2.7916875 
0.1 1:0.40037109 2:-2.6249375 
0.1 1:0.52864844 2:-2.0689375 
0.1 1:0.44145898 2:-2.5428125 
0.1 1:0.29837891 2:-1.868375 
0.1 1:0.47380469 2:-2.396625 
0.1 1:0.36859766 2:-2.314875 
0.1 1:0.22961328 2:-4.3941875 
0.1 1:0.3658125 2:-1.961625 
0.1 1:0.45989258 2:-2.8385625 
0.1 1:0.37021289 2:-3.356375 
0.1 1:0.30149805 2:-3.2504375 
0.1 1:0.47623633 2:-4.3488125 
0.1 1:0.2397168 2:-3.8524375 
0.1 1:0.30577734 2:-2.7071875 
0.1 1:0.41735742 2:-1.526375 
0.1 1:0.25164063 2:-3.43575 
0.1 1:0.23039844 2:-3.1139375 
0.1 1:0.38302539 2:-3.317625 
0.1 1:0.23283398 2:-2.39575 
0.1 1:0.38957813 2:-2.6315 
0.1 1:0.28387695 2:-3.0823125 
0.1 1:0.30874805 2:-3.3035 
0.1 1:0.27220703 2:-1.8994375 
0.1 1:0.30418555 2:-2.98925 
0.1 1:0.31301172 2:-2.7151875 
0.1 1:0.25761328 2:-2.3586875 
0.1 1:0.35025195 2:-4.0530625 
0.1 1:0.38197852 2:-3.4344375 
0.1 1:0.41479102 2:-3.7660625 
0.1 1:0.5994668 2:-2.6765 
0.1 1:0.34419531 2:-1.66775 
0.1 1:0.31220117 2:-1.354625 
0.1 1:0.42469531 2:-1.8178125 
0.1 1:0.27364648 2:-2.1978125 
0.1 1:0.41775391 2:-2.2223125 
0.1 1:0.28891602 2:-1.8748125 
0.1 1:0.28618945 2:-3.7015625 
0.1 1:0.35210742 2:-4.3413125 
0.1 1:0.42413672 2:-4.6000625 
0.1 1:0.47471289 2:-1.781 
0.1 1:0.47286914 2:-4.1599375 
0.1 1:0.33467969 2:-3.48525 
0.1 1:0.29420313 2:-1.9199375 
0.1 1:0.32941602 2:-2.3140625 
0.1 1:0.26806055 2:-2.1526875 
0.1 1:0.23377734 2:-4.336375 
0.1 1:0.42361328 2:-2.841875 
0.1 1:0.49850195 2:-4.2493125 
0.1 1:0.43533203 2:-3.6585 
0.1 1:0.28570312 2:-1.774 
0.1 1:0.30768945 2:-2.5954375 
0.1 1:0.35733008 2:-2.4945 
0.1 1:0.34141797 2:-2.0791875 
0.1 1:0.41103125 2:-1.5165625 
0.1 1:0.28870508 2:-4.330625 
0.1 1:0.4467832 2:-4.06625 
0.1 1:0.21630273 2:-1.4938125 
0.1 1:0.47980859 2:-3.3043125 
0.1 1:0.27822461 2:-1.836375 
0.1 1:0.40448242 2:-3.771 
0.1 1:0.28180078 2:-2.841625 
0.1 1:0.36006641 2:-3.2760625 
0.1 1:0.43040625 2:-3.1189375 
0.1 1:0.47037109 2:-1.6984375 
0.1 1:0.3309082 2:-3.58025 
0.1 1:0.34324414 2:-3.4438125 
0.1 1:0.35320508 2:-2.8369375 
0.1 1:0.25422266 2:-2.438875 
0.1 1:0.29781641 2:-4.276625 
0.1 1:0.25343945 2:-3.0164375 
0.1 1:0.39830078 2:-2.392625 
0.1 1:0.25568945 2:-2.894875 
0.1 1:0.3295625 2:-2.4216875 
0.1 1:0.35071875 2:-2.1446875 
0.1 1:0.40182227 2:-3.1219375 
0.1 1:0.36638086 2:-3.2388125 
0.1 1:0.49741406 2:-2.678875 
0.1 1:0.1862207 2:-1.8210625 
0.1 1:0.42175977 2:-1.934 
0.1 1:0.35908984 2:-2.934875 
0.1 1:0.32569141 2:-1.9805 
0.1 1:0.43593359 2:-4.35875 
0.1 1:0.40689063 2:-2.2748125 
0.1 1:0.31341016 2:-3.07175 
0.1 1:0.31198242 2:-2.8375 
0.1 1:0.21165039 2:-2.319875 
0.1 1:0.26153125 2:-3.40475 
0.1 1:0.41381055 2:-3.4913125 
0.1 1:0.4121875 2:-4.211 
0.1 1:0.49688477 2:-3.0741875 
0.1 1:0.32065234 2:-3.4786875 
0.1 1:0.2388457 2:-2.1976875 
0.1 1:0.44060156 2:-1.6279375 
0.1 1:0.54976758 2:-0.798875 
0.1 1:0.471 2:-3.108 
0.1 1:0.31622266 2:-2.7886875 
0.1 1:0.27683008 2:-2.153625 
0.1 1:0.28736133 2:-3.1313125 
0.1 1:0.42260938 2:-4.761125 
0.1 1:0.36126172 2:-3.423875 
0.1 1:0.33469531 2:-2.93075 
0.1 1:0.34409766 2:-1.65875 
0.1 1:0.50226563 2:-3.4804375 
0.1 1:0.30507812 2:-4.5428125 
0.1 1:0.31803516 2:-0.858 
0.1 1:0.41204297 2:-4.5963125 
0.1 1:0.39082422 2:-2.3981875 
0.1 1:0.40037695 2:-1.956125 
0.1 1:0.46874414 2:-2.178875 
0.1 1:0.34614648 2:-2.4749375 
0.1 1:0.32977539 2:-2.2985625 
0.1 1:0.27693164 2:-3.3294375 
0.1 1:0.33716992 2:-1.6179375 
0.1 1:0.41480664 2:-3.7495625 
0.1 1:0.45814258 2:-3.6809375 
0.1 1:0.33288867 2:-4.261125 
0.1 1:0.396875 2:-1.6061875 
0.1 1:0.38888086 2:-2.0305 
0.1 1:0.29919727 2:-3.645375 
0.1 1:0.25426758 2:-5.0411875 
0.1 1:0.35462891 2:-3.405125 
0.1 1:0.41361328 2:-2.1330625 
0.1 1:0.31141211 2:-1.650875 
0.1 1:0.3027832 2:-1.9758125 
0.1 1:0.3974043 2:-3.18575 
0.1 1:0.38278711 2:-1.911375 
0.1 1:0.4747207 2:-3.821125 
0.1 1:0.4799043 2:-2.1899375 
0.1 1:0.28378711 2:-2.2425 
0.1 1:0.31833008 2:-2.2700625 
0.1 1:0.1554707 2:-1.6245625 
0.1 1:0.25310938 2:-3.3103125 
0.1 1:0.52820117 2:-3.1533125 
0.1 1:0.41648047 2:-2.96775 
0.1 1:0.20988281 2:-2.778625 
0.1 1:0.31999023 2:-3.4375 
0.1 1:0.36656836 2:-4.133375 
0.1 1:0.24601367 2:-2.191 
0.1 1:0.26878906 2:-2.6270625 
0.1 1:0.42437891 2:-2.695125 
0.1 1:0.21206055 2:-1.68725 
0.1 1:0.19851367 2:-2.452625 
0.1 1:0.53860547 2:-3.504 
0.1 1:0.25717773 2:-2.1083125 
0.1 1:0.28279492 2:-1.9401875 
0.1 1:0.29102539 2:-2.3373125 
0.1 1:0.35217578 2:-2.085125 
0.1 1:0.36882227 2:-3.3408125 
0.1 1:0.28082617 2:-2.2118125 
0.1 1:0.53497656 2:-4.1345 
0.1 1:0.39329102 2:-2.96975 
0.1 1:0.3324668 2:-3.562 
0.1 1:0.34706836 2:-4.571625 
0.1 1:0.29725586 2:-4.34775 
0.1 1:0.33210742 2:-3.9484375 
0.1 1:0.2812207 2:-2.873125 
0.1 1:0.34103711 2:-3.227875 
0.1 1:0.38675977 2:-4.5975 
0.1 1:0.38722266 2:-1.817375 
0.1 1:0.33739062 2:-3.35425 
0.1 1:0.36936914 2:-3.5874375 
0.1 1:0.29655078 2:-0.9794375 
0.1 1:0.30292383 2:-2.5051875 
0.1 1:0.46608398 2:-2.914875 
0.1 1:0.35253516 2:-3.5119375 
0.1 1:0.43983398 2:-1.9830625 
0.1 1:0.4512207 2:-2.2161875 
0.1 1:0.39942773 2:-6.0199375 
0.1 1:0.29473242 2:-3.053 
0.1 1:0.26952148 2:-1.5008125 
0.1 1:0.41796875 2:-3.0170625 
0.1 1:0.28428125 2:-3.5425 
0.1 1:0.34071484 2:-2.841 
0.1 1:0.32543164 2:-5.8575625 
0.1 1:0.50798047 2:-2.635 
0.1 1:0.4534043 2:-3.5765625 
0.1 1:0.43707422 2:-3.3401875 
0.1 1:0.31138867 2:-2.953875 
0.1 1:0.53006445 2:-2.718375 
0.1 1:0.34167578 2:-2.6451875 
0.1 1:0.22896484 2:-3.422125 
0.1 1:0.39248828 2:-3.027875 
0.1 1:0.32132422 2:-3.2509375 
0.1 1:0.35734766 2:-2.7428125 
0.1 1:0.43245703 2:-6.32425 
0.1 1:0.32937891 2:-1.713375 
0.1 1:0.48700977 2:-3.3898125 
0.1 1:0.40140625 2:-4.0538125 
0.1 1:0.37868555 2:-2.908625 
0.1 1:0.43280273 2:-3.691 
0.1 1:0.3046875 2:-2.61025 
0.1 1:0.26113086 2:-1.6146875 
0.1 1:0.41257227 2:-1.71725 
0.1 1:0.4820332 2:-1.2183125 
0.1 1:0.33625781 2:-1.9894375 
0.1 1:0.34912305 2:-3.1158125 
0.1 1:0.43186914 2:-3.553875 
0.1 1:0.33468945 2:-3.2365 
0.1 1:0.33677148 2:-2.777375 
0.1 1:0.35870508 2:-2.239875 
0.1 1:0.42836523 2:-3.6604375 
0.1 1:0.50765234 2:-2.22525 
0.1 1:0.32062109 2:-1.7270625 
0.1 1:0.2154375 2:-2.541125 
0.1 1:0.18329492 2:-3.2108125 
0.1 1:0.24726953 2:-1.332625 
0.1 1:0.4947168 2:-2.6748125 
0.1 1:0.4695332 2:-3.23875 
0.1 1:0.29637891 2:-4.25375 
0.1 1:0.21661914 2:-2.7246875 
0.1 1:0.12336719 2:-2.2634375 
0.1 1:0.33362305 2:-3.660375 
0.1 1:0.35455273 2:-2.265 
0.1 1:0.34693359 2:-2.9148125 
0.1 1:0.27299023 2:-1.2601875 
0.1 1:0.45117969 2:-3.092 
0.1 1:0.23957617 2:-2.785375 
0.1 1:0.26847266 2:-2.5329375 
0.1 1:0.39766406 2:-3.1635625 
0.1 1:0.37676367 2:-5.549 
0.1 1:0.35231641 2:-2.5646875 
0.1 1:0.3650957 2:-2.9554375 
0.1 1:0.33859375 2:-2.1930625 
0.1 1:0.47977344 2:-3.13125 
0.1 1:0.21245312 2:-2.58725 
0.1 1:0.41161914 2:-3.4816875 
0.1 1:0.27792773 2:-1.9775625 
0.1 1:0.45810547 2:-2.725875 
0.1 1:0.47233984 2:-3.6100625 
0.1 1:0.45632617 2:-2.167125 
0.1 1:0.31274219 2:-3.13875 
0.1 1:0.29299805 2:-3.0075 
0.1 1:0.28037109 2:-3.8800625 
0.1 1:0.43209766 2:-2.5886875 
0.1 1:0.30773633 2:-3.180875 
0.1 1:0.34639453 2:-3.306375 
0.1 1:0.31989258 2:-1.6335625 
0.1 1:0.26541797 2:-2.87675 
0.1 1:0.44179297 2:-1.180625 
0.1 1:0.46189453 2:-3.329875 
0.1 1:0.27998633 2:-3.1631875 
0.1 1:0.32643555 2:-3.9843125 
0.1 1:0.31866406 2:-3.081875 
0.1 1:0.41975977 2:-3.188 
0.1 1:0.55075 2:-2.677 
0.1 1:0.30670117 2:-1.691 
0.1 1:0.30921484 2:-2.1234375 
0.1 1:0.25153516 2:-2.034125 
0.1 1:0.40276563 2:-3.0210625 
0.1 1:0.17680469 2:-0.7626875 
0.1 1:0.49497656 2:-2.2388125 
0.1 1:0.38853906 2:-2.2880625 
0.1 1:0.33449023 2:-3.8235625 
0.1 1:0.28953516 2:-4.65275 
0.1 1:0.47945508 2:-4.4569375 
0.1 1:0.26034961 2:-2.928375 
0.1 1:0.39324414 2:-2.4733125 
0.1 1:0.32907812 2:-1.86675 
0.1 1:0.42245117 2:-2.2446875 
0.1 1:0.21296484 2:-1.6684375 
0.1 1:0.38128516 2:-2.86675 
0.1 1:0.65594141 2:-2.2291875 
0.1 1:0.38256445 2:-3.61 
0.1 1:0.32638281 2:-2.101875 
0.1 1:0.22754492 2:-2.5660625 
0.1 1:0.42498437 2:-3.7625625 
0.1 1:0.42745117 2:-4.3916875 
0.1 1:0.23607031 2:-2.3098125 
0.1 1:0.24449219 2:-1.5425 
0.1 1:0.2688418 2:-2.9066875 
0.1 1:0.40131641 2:-2.6543125 
0.1 1:0.3195957 2:-4.8738125 
0.1 1:0.31277148 2:-4.653625 
0.1 1:0.39503906 2:-4.05675 
0.1 1:0.48751172 2:-4.2118125 
0.1 1:0.37757422 2:-4.804125 
0.1 1:0.31919531 2:-2.3588125 
0.1 1:0.36720898 2:-2.2955 
0.1 1:0.33430664 2:-3.9859375 
0.1 1:0.43799805 2:-3.4333125 
0.1 1:0.38616211 2:-2.294875 
0.1 1:0.27026563 2:-4.021375 
0.1 1:0.2208125 2:-2.5071875 
0.1 1:0.38279883 2:-3.2830625 
0.1 1:0.51370117 2:-4.112625 
0.1 1:0.27545312 2:-2.4158125 
0.1 1:0.3394668 2:-2.1010625 
0.1 1:0.45438281 2:-2.711625 
0.1 1:0.39511719 2:-3.599125 
0.1 1:0.30499609 2:-2.81075 
0.1 1:0.21819531 2:-2.891375 
0.1 1:0.20806445 2:-2.2381875 
0.1 1:0.20659375 2:-1.3813125 
0.1 1:0.38234766 2:-2.281625 
0.1 1:0.24583008 2:-2.7515625 
0.1 1:0.32582227 2:-3.9795 
0.1 1:0.372 2:-1.93875 
0.1 1:0.20203516 2:-1.9925 
0.1 1:0.36937305 2:-4.2165 
0.1 1:0.47594336 2:-2.7745 
0.1 1:0.29399805 2:-3.1081875 
0.1 1:0.46006445 2:-4.03125 
0.1 1:0.37178516 2:-3.7303125 
0.1 1:0.50880273 2:-2.163 
0.1 1:0.44555664 2:-2.8524375 
0.1 1:0.54077734 2:-2.5634375 
0.1 1:0.4079668 2:-3.6353125 
0.1 1:0.50034766 2:-1.9210625 
0.1 1:0.44346484 2:-2.4981875 
0.1 1:0.37596094 2:-4.226625 
0.1 1:0.3889375 2:-3.2738125 
0.1 1:0.49410352 2:-1.903625 
0.1 1:0.24187695 2:-2.55675 
0.1 1:0.35352734 2:-2.3345625 
0.1 1:0.55480078 2:-3.3968125 
0.1 1:0.35098438 2:-2.575 
0.1 1:0.4058418 2:-3.4255 
0.1 1:0.38668359 2:-2.8516875 
0.1 1:0.49108398 2:-1.9874375 
0.1 1:0.32245703 2:-3.907375 
0.1 1:0.37638477 2:-4.545875 
0.1 1:0.45166016 2:-4.38775 
0.1 1:0.34657227 2:-2.2581875 
0.1 1:0.34296484 2:-2.37725 
0.1 1:0.35101172 2:-3.5235 
0.1 1:0.35805469 2:-1.609 
0.1 1:0.22850586 2:-1.869875 
0.1 1:0.21723047 2:-2.405125 
0.1 1:0.43607617 2:-2.363125 
0.1 1:0.38885547 2:-2.417625 
0.1 1:0.34212109 2:-3.7601875 
0.1 1:0.29395313 2:-2.5784375 
0.1 1:0.40707813 2:-1.1791875 
0.1 1:0.52543945 2:-1.5133125 
0.1 1:0.32251953 2:-3.13 
0.1 1:0.43258789 2:-3.1353125 
0.1 1:0.1994082 2:-2.0345625 
0.1 1:0.31988281 2:-3.0180625 
0.1 1:0.21825195 2:-3.4581875 
0.1 1:0.39460156 2:-2.5830625 
0.1 1:0.22852344 2:-2.6631875 
0.1 1:0.36414062 2:-3.597 
0.1 1:0.22520898 2:-3.5239375 
0.1 1:0.24608203 2:-2.3425625 
0.1 1:0.37298047 2:-3.0148125 
0.1 1:0.2394668 2:-3.7249375 
0.1 1:0.34951953 2:-2.8583125 
0.1 1:0.48591406 2:-2.752 
0.1 1:0.38224414 2:-3.084 
0.1 1:0.49887891 2:-3.0599375 
0.1 1:0.14666406 2:-2.631125 
0.1 1:0.39028711 2:-2.472 
0.1 1:0.4392168 2:-2.4121875 
0.1 1:0.40580078 2:-3.350125 
0.1 1:0.45176563 2:-4.928 
0.1 1:0.39445898 2:-3.74275 
0.1 1:0.28313086 2:-3.6645625 
0.1 1:0.36394531 2:-1.63875 
0.1 1:0.17598242 2:-3.369 
0.1 1:0.22599414 2:-1.5581875 
0.1 1:0.33358203 2:-3.0415 
0.1 1:0.43727148 2:-4.1584375 
0.1 1:0.59758984 2:-2.2580625 
0.1 1:0.36124023 2:-3.3540625 
0.1 1:0.27303906 2:-3.471875 
0.1 1:0.26932422 2:-1.75025 
0.1 1:0.57900781 2:-2.849625 
0.1 1:0.47981836 2:-2.9349375 
0.1 1:0.36764844 2:-3.4171875 
0.1 1:0.31925977 2:-1.5941875 
0.1 1:0.30875 2:-3.484375 
0.1 1:0.5178125 2:-2.3533125 
0.1 1:0.32730664 2:-4.8165625 
0.1 1:0.35352148 2:-1.8081875 
0.1 1:0.24733789 2:-3.4609375 
0.1 1:0.40021875 2:-3.975125 
0.1 1:0.37261328 2:-4.8285 
0.1 1:0.43825586 2:-2.51575 
0.1 1:0.27773047 2:-3.5765625 
0.1 1:0.59253906 2:-2.77375 
0.1 1:0.33942383 2:-2.816875 
0.1 1:0.31139258 2:-3.1750625 
0.1 1:0.37058984 2:-3.2365 
0.1 1:0.24508984 2:-1.8170625 
0.1 1:0.42325586 2:-2.9004375 
0.1 1:0.47564063 2:-3.4048125 
0.1 1:0.51979883 2:-1.8845625 
0.1 1:0.29110156 2:-2.9788125 
0.1 1:0.30535547 2:-3.164875 
0.1 1:0.34235156 2:-2.1496875 
0.1 1:0.37282227 2:-1.704 
0.1 1:0.32889453 2:-3.90775 
0.1 1:0.47751758 2:-4.1559375 
0.1 1:0.33810352 2:-4.35 
0.1 1:0.27175977 2:-2.2280625 
0.1 1:0.21700781 2:-2.3581875 
0.1 1:0.35253906 2:-2.61525 
0.1 1:0.50605664 2:-2.7380625 
0.1 1:0.34263672 2:-3.112 
0.1 1:0.3078125 2:-3.290375 
0.1 1:0.33263867 2:-3.347125 
0.1 1:0.28710156 2:-3.6726875 
0.1 1:0.3315957 2:-3.4609375 
0.1 1:0.38176172 2:-3.197125 
0.1 1:0.25664063 2:-5.19725 
0.1 1:0.43264453 2:-2.5055 
0.1 1:0.43075781 2:-3.5646875 
0.1 1:0.41676953 2:-3.57375 
0.1 1:0.4081582 2:-2.5755 
0.1 1:0.28036523 2:-3.41475 
0.1 1:0.33024219 2:-3.121625 
0.1 1:0.38156055 2:-2.6869375 
0.1 1:0.32529102 2:-3.8465 
0.1 1:0.39798828 2:-2.7364375 
0.1 1:0.25358594 2:-0.9501875 
0.1 1:0.29425977 2:-3.531625 
0.1 1:0.30219531 2:-2.524375 
0.1 1:0.2248125 2:-1.0631875 
0.1 1:0.31162891 2:-3.9908125 
0.1 1:0.43889844 2:-2.67725 
0.1 1:0.42935742 2:-3.0300625 
0.1 1:0.34070508 2:-1.944125 
0.1 1:0.21323437 2:-1.5406875 
0.1 1:0.28627148 2:-1.2314375 
0.1 1:0.32716602 2:-2.767 
0.1 1:0.20561914 2:-2.3905625 
0.1 1:0.39997852 2:-2.023 
0.1 1:0.47799219 2:-2.5883125 
0.1 1:0.46813867 2:-1.7313125 
0.1 1:0.35609766 2:-2.9411875 
0.1 1:0.37692773 2:-6.066 
0.1 1:0.2234082 2:-2.465375 
0.1 1:0.21876367 2:-3.14925 
0.1 1:0.30180859 2:-2.16275 
0.1 1:0.19023633 2:-2.2865 
0.1 1:0.46446094 2:-3.1174375 
0.1 1:0.39682227 2:-1.5556875 
0.1 1:0.35028711 2:-1.8460625 
0.1 1:0.30602148 2:-4.477625 
0.1 1:0.37343359 2:-2.9120625 
0.1 1:0.36345508 2:-3.368625 
0.1 1:0.4480918 2:-3.61075 
0.1 1:0.32408008 2:-3.10675 
0.1 1:0.24066016 2:-2.2091875 
0.1 1:0.3230332 2:-5.3358125 
0.1 1:0.25908398 2:-4.4743125 
0.1 1:0.23420703 2:-1.3368125 
0.1 1:0.3462832 2:-4.65725 
0.1 1:0.3290957 2:-2.6263125 
0.1 1:0.54441992 2:-4.3748125 
0.1 1:0.3485625 2:-1.658125 
0.1 1:0.29429687 2:-3.6584375 
0.1 1:0.39310937 2:-3.974875 
0.1 1:0.44310742 2:-3.224625 
0.1 1:0.33874023 2:-3.620125 
0.1 1:0.34983789 2:-4.0816875 
0.1 1:0.42115039 2:-5.187125 
0.1 1:0.36752344 2:-2.3046875 
0.1 1:0.21253711 2:-1.875875 
0.1 1:0.35586719 2:-4.579125 
0.1 1:0.38346484 2:-2.8445 
0.1 1:0.30735547 2:-1.987125 
0.1 1:0.36829492 2:-2.7315 
0.1 1:0.18889648 2:-3.22025 
0.1 1:0.3515918 2:-1.2735625 
0.1 1:0.17047266 2:-2.255125 
0.1 1:0.54844922 2:-2.60875 
0.1 1:0.52732813 2:-2.161125 
0.1 1:0.49461523 2:-4.0245625 
0.1 1:0.40747852 2:-2.684 
0.1 1:0.284625 2:-5.445375 
0.1 1:0.35717578 2:-3.3101875 
0.1 1:0.3222207 2:-2.497375 
0.1 1:0.34611328 2:-1.1154375 
0.1 1:0.33127734 2:-3.2449375 
0.1 1:0.44503711 2:-3.56625 
0.1 1:0.29189063 2:-3.62475 
0.1 1:0.39318359 2:-3.0641875 
0.1 1:0.35502539 2:-1.6113125 
0.1 1:0.28439453 2:-2.960375 
0.1 1:0.31656641 2:-2.7206875 
0.1 1:0.53393555 2:-3.7854375 
0.1 1:0.31465625 2:-3.7899375 
0.1 1:0.52079102 2:-2.4798125 
0.1 1:0.27660547 2:-3.0056875 
0.1 1:0.27910352 2:-3.861875 
0.1 1:0.36931641 2:-4.372125 
0.1 1:0.22948242 2:-2.170625 
0.1 1:0.18727148 2:-2.3613125 
0.1 1:0.41151367 2:-2.1315 
0.1 1:0.39529102 2:-4.564375 
0.1 1:0.36972461 2:-1.8185 
0.1 1:0.42236328 2:-6.1394375 
0.1 1:0.45213672 2:-3.742375 
0.1 1:0.17054102 2:-1.676875 
0.1 1:0.34886523 2:-2.161625 
0.1 1:0.35558789 2:-3.6624375 
0.1 1:0.40937109 2:-2.7834375 
0.1 1:0.4214707 2:-4.5469375 
0.1 1:0.26133203 2:-4.7173125 
0.1 1:0.22953125 2:-4.0635 
0.1 1:0.33593555 2:-1.454375 
0.1 1:0.35726367 2:-4.68325 
0.1 1:0.40037109 2:-2.33225 
0.1 1:0.24747852 2:-2.792 
0.1 1:0.33156445 2:-3.9391875 
0.1 1:0.23803906 2:-1.2504375 
0.1 1:0.51782031 2:-2.9840625 
0.1 1:0.44803711 2:-4.523 
0.1 1:0.43018359 2:-4.062625 
0.1 1:0.34317578 2:-3.28275 
0.1 1:0.40569336 2:-2.21375 
0.1 1:0.40866211 2:-2.91425 
0.1 1:0.25978906 2:-1.63275 
0.1 1:0.42663086 2:-3.637125 
0.1 1:0.49054687 2:-1.1923125 
0.1 1:0.42798047 2:-1.8614375 
0.1 1:0.42789844 2:-4.0163125 
0.1 1:0.26169922 2:-2.8788125 
0.1 1:0.31063477 2:-3.77025 
0.1 1:0.27366016 2:-3.7085625 
0.1 1:0.44375781 2:-3.0615 
0.1 1:0.34798633 2:-4.020125 
0.1 1:0.25391211 2:-2.442625 
0.1 1:0.36413281 2:-1.5961875 
0.1 1:0.2684375 2:-2.4340625 
0.1 1:0.35587305 2:-2.288625 
0.1 1:0.30654297 2:-2.1839375 
0.1 1:0.34100781 2:-3.860125 
0.1 1:0.46744336 2:-3.1958125 
0.1 1:0.33367383 2:-2.739 
0.1 1:0.20154688 2:-2.2619375 
0.1 1:0.20134375 2:-1.7034375 
0.1 1:0.29208203 2:-3.0359375 
0.1 1:0.2967832 2:-3.249875 
0.1 1:0.36598633 2:-2.9008125 
0.1 1:0.12339844 2:-2.0333125 
0.1 1:0.20821484 2:-2.039 
0.1 1:0.3609707 2:-1.736625 
0.1 1:0.19701367 2:-2.13925 
0.1 1:0.45131445 2:-4.8573125 
0.1 1:0.3464043 2:-3.0483125 
0.1 1:0.16750391 2:-2.8849375 
0.1 1:0.52552539 2:-3.46175 
0.1 1:0.50997461 2:-1.53175 
0.1 1:0.46969531 2:-2.3004375 
0.1 1:0.21372266 2:-3.2156875 
0.1 1:0.2792793 2:-4.419625 
0.1 1:0.42345313 2:-3.9575 
0.1 1:0.35916211 2:-3.00925 
0.1 1:0.26838477 2:-3.1514375 
0.1 1:0.37462109 2:-4.6270625 
0.1 1:0.27236914 2:-3.7054375 
0.1 1:0.2563418 2:-2.9838125 
0.1 1:0.15487695 2:-2.084875 
0.1 1:0.30416992 2:-2.0409375 
0.1 1:0.43007617 2:-2.785 
0.1 1:0.4495 2:-2.537375 
0.1 1:0.46249414 2:-4.082 
0.1 1:0.39617188 2:-4.6318125 
0.1 1:0.21699023 2:-2.6715 
0.1 1:0.25826562 2:-1.6623125 
0.1 1:0.27891211 2:-4.927 
0.1 1:0.338875 2:-3.906625 
0.1 1:0.49685547 2:-1.6393125 
0.1 1:0.29613086 2:-3.8143125 
0.1 1:0.30878516 2:-2.433625 
0.1 1:0.34261133 2:-3.0275 
0.1 1:0.26678906 2:-3.29475 
0.1 1:0.36944336 2:-1.555 
0.1 1:0.24593945 2:-2.1311875 
0.1 1:0.27767969 2:-2.165375 
0.1 1:0.31291602 2:-3.3015625 
0.1 1:0.40678711 2:-3.3389375 
0.1 1:0.22990625 2:-4.26575 
0.1 1:0.34041602 2:-3.856875 
0.1 1:0.50777344 2:-3.3566875 
0.1 1:0.25627734 2:-1.8748125 
0.1 1:0.39027148 2:-3.910875 
0.1 1:0.37652539 2:-2.0765 
0.1 1:0.50982422 2:-2.602875 
0.1 1:0.47086914 2:-2.552625 
0.1 1:0.48641992 2:-1.735875 
0.1 1:0.434375 2:-2.9555625 
0.1 1:0.3668457 2:-1.7016875 
0.1 1:0.40248242 2:-1.926875 
0.1 1:0.34355469 2:-3.5971875 
0.1 1:0.46525391 2:-4.268125 
0.1 1:0.41947266 2:-3.2993125 
0.1 1:0.41820312 2:-4.4476875 
0.1 1:0.407875 2:-3.1875625 
0.1 1:0.45385156 2:-2.0045625 
0.1 1:0.32193359 2:-4.249 
0.1 1:0.42924219 2:-6.279125 
0.1 1:0.3888457 2:-3.347625 
0.1 1:0.39345312 2:-2.227625 
0.1 1:0.25773828 2:-3.7175625 
0.1 1:0.43242188 2:-1.561625 
0.1 1:0.32591797 2:-3.0913125 
0.1 1:0.2959082 2:-2.391625 
0.1 1:0.4513125 2:-2.75075 
0.1 1:0.38577734 2:-2.6884375 
0.1 1:0.18492578 2:-3.3076875 
0.1 1:0.35310156 2:-2.948625 
0.1 1:0.35166406 2:-3.349 
0.1 1:0.28432422 2:-3.0955625 
0.1 1:0.24614648 2:-3.1475 
0.1 1:0.39567969 2:-3.775375 
0.1 1:0.34374219 2:-3.757125 
0.1 1:0.36907422 2:-4.377875 
0.1 1:0.39533203 2:-2.349875 
0.1 1:0.42039648 2:-3.2233125 
0.1 1:0.28954102 2:-4.644125 
0.1 1:0.3136582 2:-3.195375 
0.1 1:0.27055078 2:-1.3105 
0.1 1:0.26744336 2:-2.9053125 
0.1 1:0.33852344 2:-3.2181875 
0.1 1:0.49329102 2:-2.5065625 
0.1 1:0.25251367 2:-3.199625 
0.1 1:0.30484766 2:-2.807 
0.1 1:0.44421484 2:-2.4914375 
0.1 1:0.33297852 2:-3.5381875 
0.1 1:0.27632617 2:-1.724 
0.1 1:0.3807207 2:-4.4460625 
0.1 1:0.25118164 2:-1.898125 
0.1 1:0.2080957 2:-1.8283125 
0.1 1:0.28976367 2:-2.34075 
0.1 1:0.3902207 2:-3.342375 
0.1 1:0.27696094 2:-3.481375 
0.1 1:0.34073438 2:-1.85625 
0.1 1:0.28487891 2:-2.8999375 
0.1 1:0.20087109 2:-0.9624375 
0.1 1:0.4265625 2:-1.383125 
0.1 1:0.28708789 2:-2.5873125 
0.1 1:0.35373047 2:-2.2044375 
0.1 1:0.35816797 2:-1.8958125 
0.1 1:0.29399219 2:-2.9063125 
0.1 1:0.42963477 2:-2.2746875 
0.1 1:0.29727539 2:-3.397 
0.1 1:0.24718164 2:-3.4359375 
0.1 1:0.44748633 2:-3.7504375 
0.1 1:0.17296875 2:-1.639 
0.1 1:0.23308594 2:-1.8355 
0.1 1:0.2614707 2:-3.76825 
0.1 1:0.28496484 2:-2.3533125 
0.1 1:0.39012109 2:-2.077125 
0.1 1:0.41301172 2:-4.127 
0.1 1:0.22388477 2:-2.2773125 
0.1 1:0.24084375 2:-2.174125 
0.1 1:0.21849805 2:-2.5488125 
0.1 1:0.23672852 2:-2.6773125 
0.1 1:0.29321875 2:-3.302 
0.1 1:0.31608789 2:-2.0230625 
0.1 1:0.31682227 2:-3.2665 
0.1 1:0.4627793 2:-3.8699375 
0.1 1:0.42236523 2:-3.9070625 
0.1 1:0.35807031 2:-2.4820625 
0.1 1:0.39208203 2:-3.828125 
0.1 1:0.37061719 2:-3.7656875 
0.1 1:0.22809766 2:-2.4148125 
0.1 1:0.30510547 2:-4.36925 
0.1 1:0.52434375 2:-2.0265 
0.1 1:0.52628906 2:-2.6603125 
0.1 1:0.49775 2:-2.6403125 
0.1 1:0.37689063 2:-1.9815 
0.1 1:0.41818359 2:-4.63875 
0.1 1:0.38560742 2:-3.2704375 
0.1 1:0.29772266 2:-2.9845 
0.1 1:0.3755918 2:-2.10825 
0.1 1:0.23285156 2:-2.8511875 
0.1 1:0.19125977 2:-2.2409375 
0.1 1:0.39793555 2:-2.6754375 
0.1 1:0.17488281 2:-1.0215 
0.1 1:0.37977539 2:-2.7740625 
0.1 1:0.34080859 2:-1.552 
0.1 1:0.30579492 2:-2.78075 
0.1 1:0.50018164 2:-4.394625 
0.1 1:0.20394727 2:-3.174375 
0.1 1:0.38029492 2:-2.6636875 
0.1 1:0.339125 2:-1.304625 
0.1 1:0.30172266 2:-3.0673125 
0.1 1:0.34441992 2:-2.5821875 
0.1 1:0.53756055 2:-1.4563125 
0.1 1:0.17209766 2:-3.677625 
0.1 1:0.29078711 2:-2.114 
0.1 1:0.3907793 2:-2.0875625 
0.1 1:0.34348047 2:-2.28275 
0.1 1:0.25060937 2:-5.4385 
0.1 1:0.32289648 2:-3.127125 
0.1 1:0.30743164 2:-2.150375 
0.1 1:0.46308789 2:-2.4643125 
0.1 1:0.29000391 2:-4.12425 
0.1 1:0.27044922 2:-2.3269375 
0.1 1:0.3090957 2:-3.85075 
0.1 1:0.30986328 2:-2.678625 
0.1 1:0.23882813 2:-3.4575625 
0.1 1:0.24126758 2:-2.4735 
0.1 1:0.45412305 2:-2.8335 
0.1 1:0.49304102 2:-2.30275 
0.1 1:0.34332617 2:-3.66225 
0.1 1:0.29856836 2:-1.3805625 
0.1 1:0.454125 2:-2.0156875 
0.1 1:0.50227539 2:-3.744 
0.1 1:0.49512891 2:-1.64025 
0.1 1:0.33180469 2:-5.012375 
0.1 1:0.25449219 2:-2.45125 
0.1 1:0.25616016 2:-2.35625 
0.1 1:0.32063867 2:-2.9024375 
0.1 1:0.29012891 2:-2.4004375 
0.1 1:0.23525781 2:-3.2718125 
0.1 1:0.49211133 2:-2.1145 
0.1 1:0.31102734 2:-4.2288125 
0.1 1:0.32942969 2:-1.7116875 
0.1 1:0.35373438 2:-2.158625 
0.1 1:0.39108984 2:-1.8384375 
0.1 1:0.24638867 2:-2.7195625 
0.1 1:0.41433789 2:-4.3966875 
0.1 1:0.25672656 2:-1.856 
0.1 1:0.32571484 2:-2.687 
0.1 1:0.25308594 2:-4.6645625 
0.1 1:0.37252148 2:-3.554625 
0.1 1:0.24129883 2:-2.6834375 
0.1 1:0.39700391 2:-2.647125 
0.1 1:0.34035352 2:-2.68275 
0.1 1:0.22906641 2:-1.590375 
0.1 1:0.38329492 2:-1.7343125 
0.1 1:0.32834766 2:-1.8000625 
0.1 1:0.25701367 2:-2.2314375 
0.1 1:0.30180469 2:-3.6710625 
0.1 1:0.40867188 2:-3.7954375 
0.1 1:0.45036328 2:-3.8025 
0.1 1:0.45349219 2:-1.922625 
0.1 1:0.40451953 2:-1.271 
0.1 1:0.31676953 2:-2.14075 
0.1 1:0.29141602 2:-3.130625 
0.1 1:0.3054375 2:-1.9735625 
0.1 1:0.42280859 2:-3.1426875 
0.1 1:0.24304883 2:-3.1459375 
0.1 1:0.27438672 2:-1.98 
0.1 1:0.46533398 2:-3.3760625 
0.1 1:0.47179688 2:-4.263875 
0.1 1:0.38345508 2:-2.8543125 
0.1 1:0.2439375 2:-3.4745625 
0.1 1:0.44778516 2:-2.7351875 
0.1 1:0.34450977 2:-3.534625 
0.1 1:0.23927539 2:-3.3649375 
0.1 1:0.30467383 2:-2.7651875 
0.1 1:0.25674023 2:-4.3780625 
0.1 1:0.38924414 2:-2.8080625 
0.1 1:0.45885352 2:-2.1756875 
0.1 1:0.3831875 2:-2.1104375 
0.1 1:0.43618359 2:-2.817625 
0.1 1:0.22523437 2:-4.4809375 
0.1 1:0.20431836 2:-1.3066875 
0.1 1:0.34638672 2:-3.5878125 
0.1 1:0.4159707 2:-2.448625 
0.1 1:0.30995313 2:-4.216375 
0.1 1:0.23301758 2:-2.77575 
0.1 1:0.30881445 2:-2.2698125 
0.1 1:0.38841797 2:-3.018625 
0.1 1:0.58155273 2:-2.5085 
0.1 1:0.38666406 2:-2.618125 
0.1 1:0.24403516 2:-3.33375 
0.1 1:0.24733008 2:-3.39625 
0.1 1:0.32263086 2:-5.6656875 
0.1 1:0.37616602 2:-4.028 
0.1 1:0.37933789 2:-3.19475 
0.1 1:0.50985352 2:-2.284 
0.1 1:0.24892187 2:-2.3585625 
0.1 1:0.37949805 2:-2.4606875 
0.1 1:0.33924023 2:-3.7311875 
0.1 1:0.273625 2:-3.2185 
0.1 1:0.30674414 2:-2.46875 
0.1 1:0.34260937 2:-1.451625 
0.1 1:0.2195625 2:-3.7606875 
0.1 1:0.45795313 2:-3.3419375 
0.1 1:0.36405664 2:-1.8345 
0.1 1:0.44405469 2:-4.3299375 
0.1 1:0.32876367 2:-2.7605 
0.1 1:0.45213086 2:-3.090875 
0.1 1:0.26330664 2:-1.4164375 
0.1 1:0.29614063 2:-3.1636875 
0.1 1:0.37255273 2:-4.0279375 
0.1 1:0.28305273 2:-2.2699375 
0.1 1:0.20846289 2:-1.83875 
0.1 1:0.42545898 2:-2.3104375 
0.1 1:0.22897461 2:-3.203625 
0.1 1:0.22986133 2:-2.7025625 
0.1 1:0.33163281 2:-3.3355 
0.1 1:0.5656875 2:-1.8881875 
0.1 1:0.33640039 2:-2.6640625 
0.1 1:0.40778125 2:-2.2558125 
0.1 1:0.32758203 2:-4.008125 
0.1 1:0.348625 2:-2.0160625 
0.1 1:0.49307031 2:-2.892875 
0.1 1:0.49319727 2:-3.079625 
0.1 1:0.29560352 2:-3.0410625 
0.1 1:0.2698418 2:-2.0849375 
0.1 1:0.40728906 2:-2.4464375 
0.1 1:0.31540625 2:-5.0003125 
0.1 1:0.29967383 2:-4.1315625 
0.1 1:0.39301562 2:-4.5141875 
0.1 1:0.37047461 2:-4.07375 
0.1 1:0.25696484 2:-2.8865625 
0.1 1:0.26228125 2:-1.668 
0.1 1:0.42184766 2:-3.1485625 
0.1 1:0.42266211 2:-3.6119375 
0.1 1:0.51713281 2:-3.2915625 
0.1 1:0.37463477 2:-3.621625 
0.1 1:0.38823047 2:-3.969 
0.1 1:0.35406641 2:-3.704375 
0.1 1:0.46012695 2:-2.757875 
0.1 1:0.25707813 2:-3.7184375 
0.1 1:0.64953711 2:-2.5906875 
0.1 1:0.33852734 2:-1.579375 
0.1 1:0.45823437 2:-2.62375 
0.1 1:0.15948437 2:-2.029 
0.1 1:0.38763477 2:-1.709875 
0.1 1:0.28655664 2:-3.3416875 
0.1 1:0.31082422 2:-3.0363125 
0.1 1:0.30839453 2:-3.525375 
0.1 1:0.25010547 2:-4.1759375 
0.1 1:0.32316602 2:-2.5864375 
0.1 1:0.45833789 2:-3.199125 
0.1 1:0.27089063 2:-2.5478125 
0.1 1:0.36498437 2:-5.0790625 
0.1 1:0.38314062 2:-2.5246875 
0.1 1:0.36310352 2:-2.8215625 
0.1 1:0.30784375 2:-3.0463125 
0.1 1:0.30118164 2:-2.975875 
0.1 1:0.24520117 2:-3.8335625 
0.1 1:0.28839453 2:-3.682625 
0.1 1:0.50944336 2:-3.7714375 
0.1 1:0.34345898 2:-3.634875 
0.1 1:0.33723437 2:-1.4580625 
0.1 1:0.37283398 2:-2.17775 
0.1 1:0.36245508 2:-4.3391875 
0.1 1:0.35754883 2:-3.372625 
0.1 1:0.37512109 2:-4.1375 
0.1 1:0.41696289 2:-3.655625 
0.1 1:0.2265332 2:-1.9818125 
0.1 1:0.29455273 2:-1.8113125 
0.1 1:0.35878516 2:-1.594875 
0.1 1:0.50749414 2:-4.0415625 
0.1 1:0.42885742 2:-3.095875 
0.1 1:0.26485742 2:-2.1836875 
0.1 1:0.3802207 2:-3.17925 
0.1 1:0.26811719 2:-3.05975 
0.1 1:0.59392578 2:-2.6131875 
0.1 1:0.34558203 2:-3.37725 
0.1 1:0.44163867 2:-4.752125 
0.1 1:0.2871582 2:-5.202125 
0.1 1:0.50256445 2:-4.464375 
0.1 1:0.23557227 2:-1.9678125 
0.1 1:0.35964258 2:-2.9628125 
0.1 1:0.32610547 2:-3.250875 
0.1 1:0.56148633 2:-3.396 
0.1 1:0.40507617 2:-2.5451875 
0.1 1:0.47415625 2:-4.8995625 
0.1 1:0.39397461 2:-5.0691875 
0.1 1:0.2550293 2:-2.693875 
0.1 1:0.27999414 2:-2.9005 
0.1 1:0.28365039 2:-2.8665 
0.1 1:0.41253711 2:-2.4326875 
0.1 1:0.19477539 2:-1.5100625 
0.1 1:0.40441406 2:-2.705 
0.1 1:0.46979297 2:-3.54825 
0.1 1:0.19224414 2:-3.40725 
0.1 1:0.29571094 2:-2.205125 
0.1 1:0.32110547 2:-2.0231875 
0.1 1:0.40251367 2:-3.5608125 
0.1 1:0.26679102 2:-4.0938125 
0.1 1:0.24919336 2:-1.8699375 
0.1 1:0.26628711 2:-3.311375 
0.1 1:0.45107812 2:-2.0339375 
0.1 1:0.27363867 2:-2.9935 
0.1 1:0.37437891 2:-1.7210625 
0.1 1:0.39370703 2:-3.9125 
0.1 1:0.31038086 2:-3.6683125 
0.1 1:0.32235156 2:-4.26875 
0.1 1:0.3894082 2:-2.3775625 
0.1 1:0.24414648 2:-2.412875 
0.1 1:0.43997461 2:-1.7660625 
0.1 1:0.44303906 2:-2.2975625 
0.1 1:0.36222656 2:-4.23425 
0.1 1:0.37899609 2:-6.203375 
0.1 1:0.38344141 2:-3.6039375 
0.1 1:0.41635938 2:-3.8374375 
0.1 1:0.27367383 2:-2.1773125 
0.1 1:0.4066875 2:-5.1200625 
0.1 1:0.35650586 2:-5.135 
0.1 1:0.39049805 2:-3.56675 
0.1 1:0.38744727 2:-3.2230625 
0.1 1:0.27430469 2:-2.704875 
0.1 1:0.31025977 2:-2.604625 
0.1 1:0.26782617 2:-3.1501875 
0.1 1:0.19261133 2:-1.907375 
0.1 1:0.39408398 2:-5.8528125 
0.1 1:0.17069531 2:-1.9250625 
0.1 1:0.31611523 2:-3.318625 
0.1 1:0.36821094 2:-2.479875 
0.1 1:0.31237305 2:-1.243125 
0.1 1:0.31504492 2:-5.0301875 
0.1 1:0.38264258 2:-2.117875 
0.1 1:0.22610547 2:-2.844625 
0.1 1:0.22574414 2:-2.3684375 
0.1 1:0.35795508 2:-2.40525 
0.1 1:0.29819141 2:-3.56975 
0.1 1:0.42980078 2:-3.1031875 
0.1 1:0.28764844 2:-2.8450625 
0.1 1:0.29558984 2:-2.858 
0.1 1:0.23667969 2:-3.285 
0.1 1:0.37616406 2:-3.7056875 
0.1 1:0.38500977 2:-1.758 
0.1 1:0.40152148 2:-3.35125 
0.1 1:0.40748633 2:-4.45825 
0.1 1:0.36602734 2:-1.5118125 
0.1 1:0.27541992 2:-5.0645625 
0.1 1:0.53094922 2:-2.2313125 
0.1 1:0.46775 2:-3.990125 
0.1 1:0.43210742 2:-3.254625 
0.1 1:0.28278906 2:-2.4069375 
0.1 1:0.29471094 2:-3.955125 
0.1 1:0.37858984 2:-2.6868125 
0.1 1:0.39125781 2:-2.5903125 
0.1 1:0.45753516 2:-3.1154375 
0.1 1:0.2551543 2:-2.345875 
0.1 1:0.43002148 2:-2.2696875 
0.1 1:0.29291016 2:-3.6591875 
0.1 1:0.37239258 2:-3.290125 
0.1 1:0.45269336 2:-4.4751875 
0.1 1:0.31225977 2:-1.9321875 
0.1 1:0.4420332 2:-3.6693125 
0.1 1:0.31316992 2:-2.777625 
0.1 1:0.41620703 2:-3.46575 
0.1 1:0.27977539 2:-2.3631875 
-0.03096669551329237 1:0.1684668 2:-3.364625 
-0.02167122142103867 1:0.24238281 2:-4.45375 
-0.001190377317758223 1:0.22968555 2:-4.1193125 
-0.01218679888565402 1:0.21854297 2:-4.6409375 
-0.004389525362764892 1:0.323375 2:-5.2134375 
-0.02683978117739644 1:0.11232422 2:-2.5880625 
-0.006821504042512575 1:0.32941016 2:-4.59175 
-0.004031371466193256 1:0.17507617 2:-3.6906875 
-0.01160887410215106 1:0.23701172 2:-3.993 
-0.009685806471533775 1:0.2189375 2:-4.7980625 
-0.02860792750874069 1:0.36351563 2:-4.783125 
-0.02188777004448847 1:0.26134961 2:-5.7624375 
-0.03297111856366031 1:0.13932031 2:-1.2410625 
-0.004253116821953729 1:0.34316602 2:-5.2844375 
-0.02204977579862133 1:0.20494531 2:-3.0038125 
-0.02112095227498245 1:0.38685742 2:-5.72125 
-0.009703955414733179 1:0.20826953 2:-3.633 
-0.01036200787169045 1:0.20780078 2:-3.6144375 
-0.07252702589975077 1:0.22749609 2:-2.9654375 
-0.02807873889815982 1:0.15226758 2:-2.5156875 
-0.008785393008620024 1:0.23178906 2:-3.548875 
-0.008788785405994901 1:0.22654297 2:-4.5641875 
-0.02971975462258505 1:0.41570703 2:-5.70025 
-0.06348261870554735 1:0.21206641 2:-3.21275 
-0.02195817353522639 1:0.34291602 2:-5.659125 
-0.03130356780115967 1:0.4515 2:-5.3444375 
-0.01156193029515482 1:0.25451562 2:-4.7883125 
-0.006744378444029351 1:0.099724609 2:-0.323875 
-0.02243380793509342 1:0.21526367 2:-4.8820625 
-0.007701551458753893 1:0.181125 2:-3.933125 
-0.02098389395607774 1:0.31373047 2:-4.525875 
-0.02706401067950727 1:0.29775781 2:-4.6875 
-0.006053374544150511 1:0.29403906 2:-5.0471875 
-0.005417481097114507 1:0.20435938 2:-4.2846875 
-0.01007943393099454 1:0.2215957 2:-3.9154375 
-0.02449605658284548 1:0.31241797 2:-5.316625 
-0.01109276840652705 1:0.29992578 2:-5.9721875 
-0.01783789635260524 1:0.24345898 2:-4.058625 
-0.006254050580133179 1:0.24328906 2:-4.71675 
-0.02424571010807069 1:0.36837695 2:-6.2575 
-0.008773033727922819 1:0.19822656 2:-0.4559375 
-0.05058853916993164 1:0.23229883 2:-2.5465625 
-0.009275214524999303 1:0.20948242 2:-3.10625 
-0.002601180692060749 1:0.22332031 2:-3.847 
-0.02934558030008017 1:0.17749023 2:-1.3291875 
-0.02244899136879969 1:0.23956055 2:-4.2628125 
-0.02886604209889199 1:0.10989844 2:-1.7845 
-0.01063790027524963 1:0.34974219 2:-5.7724375 
-0.01932456004167019 1:0.11510742 2:-2.670625 
-0.02716144065346643 1:0.10139063 2:-0.265875 
-0.002434704512410823 1:0.22111914 2:-4.2523125 
-0.1 1:0.26213867 2:-2.9094375 
-0.1 1:0.37288086 2:-4.37825 
-0.02560452514235487 1:0.15851562 2:-3.6440625 
-0.02283618571033084 1:0.24790039 2:-4.9433125 
-0.03457033435028603 1:0.046820312 2:-0.9586875 
-0.002659127302167081 1:0.232125 2:-4.18675 
-0.01710749918693288 1:0.20601758 2:-4.127125 
-0.02302525930222454 1:0.091390625 2:-0.3915625 
-0.01524682160607382 1:0.14886328 2:-0.40175 
-0.004665953613357137 1:0.20479688 2:-3.65725 
-0.01065209791021138 1:0.2905 2:-5.1194375 
-0.02188325110373162 1:0.22898633 2:-3.8538125 
-0.007092996588506685 1:0.15630273 2:-3.26325 
-0.004945917586163228 1:0.18139648 2:-0.618875 
-0.02258414536171227 1:0.11307227 2:-2.4548125 
-0.005470655960805495 1:0.22891992 2:-4.087 
-0.01131282031674869 1:0.17743555 2:-3.588875 
-0.01578552676859574 1:0.10581641 2:-0.5499375 
-0.01541241349012439 1:0.18362305 2:-3.7599375 
-0.03007029656855162 1:0.3574375 2:-5.559125 
-0.007858144153672628 1:0.19735547 2:-3.3311875 
-0.02249144703610858 1:0.33317188 2:-4.68725 
-0.03754553858554624 1:0.23009766 2:-1.691 
-0.005002479127840964 1:0.19798242 2:-3.7665 
-0.01284991435729865 1:0.29718555 2:-5.8158125 
-0.01949076345692681 1:0.32014844 2:-4.688375 
-0.03460536048607216 1:0.39750977 2:-6.3005625 
-0.01902982122997438 1:0.23461328 2:-5.1766875 
-0.03187777774327222 1:0.1174043 2:-2.6358125 
-0.02794394164446623 1:0.12955469 2:-1.1235625 
-0.08943954238643351 1:0.29886328 2:-4.5400625 
-0.02091206360439085 1:0.15041211 2:-2.840125 
-0.01071312605485857 1:0.3134707 2:-3.9344375 
-0.02779610662188521 1:0.35932617 2:-6.08425 
-0.03239473620326199 1:0.18626758 2:-0.37225 
-0.008586909116901567 1:0.1147207 2:-0.7149375 
-0.02598442268412748 1:0.16926563 2:-0.444 
-0.0690578517400134 1:0.15125977 2:-2.6233125 
-0.1 1:0.25605469 2:-4.37625 
-0.03436351105021554 1:0.40119336 2:-7.3266875 
-0.034719707508133 1:0.11993555 2:-1.763125 
-0.0330237367166995 1:0.16185547 2:-1.519125 
-0.02043376293770815 1:0.22276758 2:-4.9826875 
-0.008273030999594569 1:0.18101172 2:-3.5690625 
-0.02283930745166998 1:0.21398438 2:-4.000375 
-0.02782147266743951 1:0.12178906 2:-2.817 
-0.01667458886412792 1:0.20934961 2:-3.377625 
-0.02802339573507126 1:0.32821484 2:-3.377375 
-0.01420578449941944 1:0.21941016 2:-4.4713125 
-0.02065526682172703 1:0.27312891 2:-4.0998125 
-0.02289568978876894 1:0.12719922 2:-0.9071875 
-0.01815354486768816 1:0.26445117 2:-4.8659375 
-0.007559877330114167 1:0.29563281 2:-5.2989375 
-0.02571087635061026 1:0.28778516 2:-4.2623125 
-0.01376749171244912 1:0.29697656 2:-3.7760625 
-0.02170906147160789 1:0.28746484 2:-4.5245625 
-0.01669471517132151 1:0.16164258 2:-0.3683125 
-0.02259458147316898 1:0.34576953 2:-4.79525 
-0.01760617132477177 1:0.17485547 2:-4.1879375 
-0.02135893005060089 1:0.19559961 2:-2.8805625 
-0.01070519551339355 1:0.14004297 2:-0.4045 
-0.01518284748099674 1:0.34130664 2:-5.77475 
-0.01392643871478606 1:0.15921289 2:-3.507 
-0.02620951805208926 1:0.15392969 2:-0.8336875 
-0.0209091784582605 1:0.13232227 2:-1.697 
-0.02718759011679678 1:0.24172656 2:-0.6289375 
-0.03378922939159548 1:0.33461719 2:-6.2285 
-0.01867543238773606 1:0.31008008 2:-5.411625 
-0.05411588135843351 1:0.45030664 2:-4.5109375 
-0.03462479583744546 1:0.24887109 2:-0.7735625 
-0.05785628524798678 1:0.30611523 2:-2.9101875 
-0.08314875056663765 1:0.32580078 2:-5.342 
-0.01893783288635422 1:0.19994727 2:-3.95225 
-0.09257549161869313 1:0.35416211 2:-5.13225 
-0.02907952017739565 1:0.37276172 2:-6.2431875 
-0.02432839601801088 1:0.16075195 2:-3.208625 
-0.01126704088331119 1:0.29062305 2:-5.0640625 
-0.02387531461119363 1:0.22288086 2:-0.879125 
-0.006680292812346509 1:0.23149414 2:-3.71125 
-0.02479957773460587 1:0.20242773 2:-2.74125 
-0.02071181494332409 1:0.13827344 2:-2.6864375 
-0.007782183211929165 1:0.1582207 2:-0.76625 
-0.03309572752523704 1:0.25085156 2:-0.6616875 
-0.0221086493586052 1:0.15538281 2:-0.9361875 
-0.0222346418611159 1:0.0866875 2:-0.53075 
-0.01289858700138924 1:0.15819336 2:-0.981875 
-0.0159438014075524 1:0.3599668 2:-4.7544375 
-0.01869461352962132 1:0.13378516 2:-3.048875 
-0.03191191114529529 1:0.12512305 2:-2.84225 
-0.01163599491602551 1:0.15986133 2:-3.2423125 
-0.01255593519620277 1:0.2195957 2:-4.1358125 
-0.0009835822782238764 1:0.15815039 2:-3.1249375 
-0.01573421120156311 1:0.21667773 2:-5.065875 
-0.00175195975954362 1:0.32344922 2:-5.2779375 
-0.02799850144391969 1:0.2462207 2:-5.1228125 
-0.003381937335922069 1:0.12692578 2:-0.5176875 
-0.01292283827528784 1:0.16986914 2:-0.6136875 
-0.03289840581016245 1:0.31454688 2:-4.9918125 
-0.007058130719254593 1:0.1880293 2:-0.5796875 
-0.0250682329616832 1:0.28398047 2:-4.0013125 
-0.04666080875982541 1:0.25563281 2:-5.0321875 
-0.03304239006433204 1:0.48939844 2:-4.644625 
-0.003253259402386478 1:0.17663867 2:-3.0438125 
-0.01021606053063527 1:0.20039648 2:-3.85675 
-0.06824664356318275 1:0.19580078 2:-3.2155625 
-0.02584875339681331 1:0.11040039 2:-1.0778125 
-0.003886142869390703 1:0.20030078 2:-2.847375 
-0.01901264037578795 1:0.2645 2:-3.494875 
-0.01503052625830745 1:0.20746289 2:-3.017875 
-0.01422387053665185 1:0.20269141 2:-3.6675625 
-0.02797572787853114 1:0.1527168 2:-1.0211875 
-0.02019047092016674 1:0.27323438 2:-4.118625 
-0.03434931062486792 1:0.40097656 2:-4.777375 
-0.02881325892184153 1:0.28879492 2:-3.6378125 
-0.004758084097084237 1:0.2169375 2:-3.0226875 
-0.02285273239924895 1:0.23031055 2:-5.0878125 
-0.01822960196019006 1:0.29214844 2:-5.2791875 
-0.003279803221732935 1:0.24764258 2:-2.31925 
-0.0358362976866107 1:0.37324023 2:-3.38975 
-0.02030489424411186 1:0.24776758 2:-4.3211875 
-0.02533695919711367 1:0.268375 2:-5.1638125 
-0.01326931270187243 1:0.30213477 2:-3.89275 
-0.03858153553917357 1:0.21903711 2:-2.3874375 
-0.01196981950086261 1:0.30473828 2:-5.8505 
-0.02641254424009232 1:0.30825977 2:-4.8471875 
-0.01714604419034843 1:0.27821289 2:-3.98975 
-0.02670623246323076 1:0.10953125 2:-1.2106875 
-0.02153177612993075 1:0.25314258 2:-3.9844375 
-0.02304852770446214 1:0.097115234 2:-2.1411875 
-0.02930517269419303 1:0.31669531 2:-5.9090625 
-0.01217789454076162 1:0.16872461 2:-2.8725625 
-0.01070159461079975 1:0.19515234 2:-3.8171875 
-0.01869754532747258 1:0.33061523 2:-4.770625 
-0.02599761383474476 1:0.23266016 2:-3.5296875 
-0.08991272695457345 1:0.43359375 2:-3.0754375 
-0.0409999821340373 1:0.30941602 2:-4.469125 
-0.01741021806577706 1:0.25215234 2:-4.9543125 
-0.02331228909460004 1:0.11385937 2:-0.931375 
-0.02398227571330193 1:0.12050391 2:-0.5638125 
-0.01954613228071621 1:0.27386914 2:-3.9796875 
-0.01940002665854017 1:0.27126758 2:-4.673875 
-0.006872281371990074 1:0.24149023 2:-4.4803125 
-0.04252559085424099 1:0.21329102 2:-1.593375 
-0.02646435831194004 1:0.4003418 2:-4.8186875 
-0.01975498684782137 1:0.1933457 2:-2.478125 
-0.008376236681223644 1:0.33741797 2:-4.1974375 
-0.03019128062431509 1:0.26500391 2:-5.61825 
-0.01999333218955016 1:0.30285156 2:-5.0973125 
-0.04016206757111682 1:0.24729492 2:-4.18675 
-0.005441085844256567 1:0.25762891 2:-4.3735 
-0.006813310575491937 1:0.268375 2:-3.6995625 
-0.01927855717959509 1:0.15904297 2:-3.7005625 
-0.01188385302915634 1:0.31639063 2:-4.31275 
-0.02033702958355189 1:0.26342969 2:-3.8723125 
-0.05174754963906744 1:0.21091211 2:-2.560125 
-0.003119320045063421 1:0.19408398 2:-3.9269375 
-0.1 1:0.26800977 2:-2.4195 
-0.1 1:0.1642207 2:-2.02825 
-0.008592896127275833 1:0.22976758 2:-4.4234375 
-0.02106149217968202 1:0.12307812 2:-0.750125 
-0.02022246607732614 1:0.2047832 2:-4.6410625 
-0.1 1:0.17704492 2:-3.367875 
-0.0139358190731308 1:0.2493457 2:-4.6851875 
-0.01374356357868913 1:0.28383789 2:-4.0355 
-0.08363595487977241 1:0.26586328 2:-1.8378125 
-0.0285602988800881 1:0.35883984 2:-5.7729375 
-0.005524108246859864 1:0.2479082 2:-4.1050625 
-0.006432237649225512 1:0.17387305 2:-3.2475 
-0.01797861098638064 1:0.30873047 2:-4.7131875 
-0.02711517042980627 1:0.33994922 2:-5.904125 
-0.03164870986863737 1:0.35638672 2:-4.4035 
-0.02694818087735731 1:0.24347461 2:-0.5854375 
-0.0132763802150165 1:0.21139453 2:-0.498375 
-0.001865810980062554 1:0.16992578 2:-3.4936875 
-0.02816010068049349 1:0.30944727 2:-5.53075 
-0.0158539034140126 1:0.22843164 2:-2.9856875 
-0.006293999969386354 1:0.21905469 2:-3.8708125 
-0.0346102035001187 1:0.18941211 2:-4.615375 
-0.02127185508466657 1:0.24137305 2:-3.8963125 
-0.0233912800096139 1:0.16033008 2:-0.694875 
-0.03357111008356461 1:0.23544531 2:-5.3535 
-0.01430748418366608 1:0.13176172 2:-0.646875 
-0.02510174688600365 1:0.13518945 2:-1.040625 
-0.01756379987435208 1:0.26200195 2:-4.2871875 
-0.01385352215522028 1:0.28505859 2:-5.2948125 
-0.03450459728912034 1:0.30793359 2:-6.8123125 
-0.0140707625409693 1:0.21966992 2:-3.706125 
-0.01825220604283186 1:0.13147852 2:-2.66425 
-0.01429969799475809 1:0.161375 2:-3.141875 
-0.1 1:0.27028711 2:-2.9045 
-0.1 1:0.31178516 2:-2.6841875 
-0.01647647004403435 1:0.32270898 2:-4.6103125 
-0.002961056656842025 1:0.26391602 2:-4.205625 
-0.02616710927790145 1:0.1095 2:-2.187375 
-0.06648201698288728 1:0.27323828 2:-3.409 
-0.01705578874252088 1:0.12365625 2:-2.7953125 
-0.005873382237804148 1:0.28017773 2:-4.6630625 
-0.03245243646378074 1:0.38126953 2:-4.8755625 
-0.02339001310489408 1:0.2059375 2:-3.43675 
-0.01140191697471522 1:0.17061719 2:-0.85125 
-0.01630244946247367 1:0.14089453 2:-0.61575 
-0.004645980138400849 1:0.27080273 2:-4.5884375 
-0.01089202358713454 1:0.21201367 2:-2.6100625 
-0.01726691972540889 1:0.21123633 2:-4.2875 
-0.005856882993355536 1:0.25234375 2:-3.647875 
-0.01506138825654174 1:0.13744531 2:-0.3645625 
-0.006239231071242191 1:0.1553125 2:-0.3605 
-0.003294747775383688 1:0.14410742 2:-0.680875 
-0.02760064345843194 1:0.18099805 2:-0.7325625 
-0.01204396471712418 1:0.21383594 2:-4.016125 
-0.008728133209997723 1:0.29986719 2:-4.7735 
-0.004755839652763582 1:0.29904102 2:-4.7209375 
-0.02253744035227473 1:0.15285937 2:-3.283 
-0.0253115693789378 1:0.15173438 2:-0.3281875 
-0.02160528150160292 1:0.14902148 2:-2.405 
-0.01562623966946786 1:0.17536328 2:-3.52325 
-0.002909173962897215 1:0.25453125 2:-3.755625 
-0.02025400944952956 1:0.11748828 2:-0.4265 
-0.0162570490904841 1:0.20491992 2:-3.25725 
-0.001704873951609707 1:0.3091875 2:-5.107 
-0.01711234793840577 1:0.15299414 2:-3.1221875 
-0.01640976181846482 1:0.20560742 2:-3.632625 
-0.007405974555244221 1:0.19892578 2:-2.933375 
-0.01685925232356539 1:0.249375 2:-4.0724375 
-0.005442934519297837 1:0.33034961 2:-4.2894375 
-0.1 1:0.43250195 2:-4.395375 
-0.02764418788942263 1:0.096158203 2:-2.4403125 
-0.0375485429803625 1:0.22105273 2:-3.51125 
-0.01705246429895507 1:0.31258008 2:-5.162375 
-0.03173851112596493 1:0.099441406 2:-2.0795 
-0.001907625336199703 1:0.16715039 2:-3.0455 
-0.01402105425001182 1:0.31826172 2:-5.8076875 
-0.03437088568254912 1:0.37425977 2:-6.9378125 
-0.0236783995283148 1:0.12472852 2:-2.3263125 
-0.02632566617849708 1:0.19735156 2:-0.4304375 
-0.03177781150625131 1:0.302 2:-6.17125 
-0.01669802485218908 1:0.14755273 2:-0.888 
-0.01962067921255228 1:0.16150195 2:-3.2275625 
-0.0008880755210984304 1:0.16658594 2:-0.6339375 
-0.02194132065030049 1:0.30619336 2:-5.593375 
-0.0248062421232278 1:0.1367793 2:-1.2078125 
-0.0285607670259348 1:0.24109766 2:-4.7700625 
-0.01870698590382733 1:0.28149414 2:-4.88575 
-0.0109372744730388 1:0.13164844 2:-0.6746875 
-0.004659989393304032 1:0.23944336 2:-3.7123125 
-0.01798632676738203 1:0.21133984 2:-4.653 
-0.006136699819380309 1:0.27812891 2:-5.2914375 
-0.01318626150135584 1:0.1494082 2:-2.75125 
-0.01565377803588669 1:0.22622461 2:-3.44825 
-0.03568652098080691 1:0.39812109 2:-4.224375 
-0.02584904320430909 1:0.34549414 2:-5.2533125 
-0.02172186931373447 1:0.32683789 2:-6.4313125 
-0.02717896427083188 1:0.23139062 2:-0.6240625 
-0.01385011780411441 1:0.28550391 2:-5.3475 
-0.01567644014496822 1:0.37860742 2:-5.246875 
-0.0271810197049735 1:0.35232031 2:-6.1666875 
-0.02305578704123246 1:0.13176758 2:-0.3184375 
-0.03589432833172226 1:0.41330273 2:-6.1581875 
-0.01693267163544189 1:0.13629297 2:-3.055125 
-0.03120979155672338 1:0.21326367 2:-4.75775 
-0.03453768291308867 1:0.22355273 2:-2.8776875 
-0.006784837050919553 1:0.17638281 2:-2.750875 
-0.01358533014276997 1:0.25520117 2:-4.0563125 
-0.03621409491063562 1:0.29868555 2:-5.44775 
-0.01979842998921461 1:0.29419531 2:-5.00075 
-0.005038089240364085 1:0.28462305 2:-4.135875 
-0.01341087150221551 1:0.27746094 2:-4.6858125 
-0.09286501203631689 1:0.33193359 2:-3.9718125 
-0.003423126659184372 1:0.21730273 2:-4.058625 
-0.009961573993054048 1:0.27729492 2:-5.7964375 
-0.01362638829187851 1:0.15169531 2:-2.536625 
-0.006190734130735024 1:0.22876367 2:-4.0488125 
-0.01328679463394594 1:0.19924219 2:-3.78625 
-0.01398914069040956 1:0.18546484 2:-3.7265625 
-0.09644026607127207 1:0.33055078 2:-3.4485 
-0.02313999910153836 1:0.18644727 2:-3.10425 
-0.03474039565181894 1:0.40974609 2:-6.5911875 
-0.00381540434490093 1:0.25723633 2:-4.8356875 
-0.02602503667429867 1:0.37187109 2:-5.5975 
-0.008100100539578603 1:0.29096289 2:-5.5216875 
-0.08057019575756494 1:0.48124219 2:-4.2619375 
-0.01554561766197497 1:0.1528457 2:-2.7433125 
-0.006740140054164845 1:0.3021875 2:-4.1948125 
-0.003157428713666533 1:0.27296094 2:-5.079125 
-0.001223906748117454 1:0.12153516 2:-0.538125 
-0.03298076831404451 1:0.2720625 2:-5.821875 
-0.0861389100564017 1:0.31158398 2:-5.0321875 
-0.01902172339903702 1:0.171625 2:-3.0906875 
-0.00950446596182325 1:0.35523242 2:-5.1198125 
-0.005534675013872448 1:0.28666016 2:-4.5425625 
-0.0213488910518389 1:0.20155859 2:-2.3331875 
-0.01962396700863389 1:0.35138672 2:-6.545875 
-0.004799778283048327 1:0.16768555 2:-3.1911875 
-0.006638895957026121 1:0.1603418 2:-3.2399375 
-0.02092829373283649 1:0.10303711 2:-0.8368125 
-0.008807535339594446 1:0.14113086 2:-2.8803125 
-0.003098909742420021 1:0.22640625 2:-4.277375 
-0.02838018522501834 1:0.19628125 2:-0.9126875 
-0.02257974889570469 1:0.18622852 2:-3.6644375 
-0.02495602767760845 1:0.3448418 2:-4.1620625 
-0.01841102557804924 1:0.17422266 2:-3.7083125 
-0.01829153959333518 1:0.26612695 2:-4.95275 
-0.01069577850679243 1:0.24530469 2:-4.861 
-0.02237322692329935 1:0.18766016 2:-2.834875 
-0.01757973593551732 1:0.11921875 2:-0.508875 
-0.01758029273794043 1:0.25331055 2:-5.259125 
-0.03468761353413138 1:0.32364258 2:-0.9266875 
-0.02394129864684919 1:0.23528906 2:-5.5748125 
-0.07729129839043905 1:0.22610742 2:-1.3413125 
-0.01736763449638825 1:0.35706836 2:-5.6120625 
-0.01549944578594046 1:0.15392578 2:-3.3181875 
-0.0187265647823095 1:0.27218164 2:-4.5251875 
-0.02074530623481385 1:0.17283398 2:-3.513 
-0.03968529731786026 1:0.32909766 2:-4.8469375 
-0.02143239983491905 1:0.25489844 2:-3.386625 
-0.01926754211072224 1:0.15946289 2:-2.677 
-0.08215114498540196 1:0.34435742 2:-4.3355625 
-0.02560084342811325 1:0.27587695 2:-3.5220625 
-0.04345437725107895 1:0.35701172 2:-4.0114375 
-0.02056202274623958 1:0.2762207 2:-0.91625 
-0.01831327972878389 1:0.11639648 2:-1.314625 
-0.008733091022659093 1:0.2403418 2:-4.1645625 
-0.03665223848791563 1:0.26678516 2:-2.513375 
-0.03023276839532577 1:0.34460352 2:-4.310625 
-0.01476976338776202 1:0.15659961 2:-3.070875 
-0.02491137269395192 1:0.15559375 2:-1.099625 
-0.01625851556952399 1:0.18795117 2:-2.6435 
-0.03421762490626096 1:0.30686133 2:-6.5006875 
-0.02825568749596441 1:0.16408984 2:-3.7249375 
-0.09676292233779768 1:0.31189453 2:-5.001625 
-0.01120672216132449 1:0.15378711 2:-2.6814375 
-0.02973481784263016 1:0.32592383 2:-4.158 
-0.1 1:0.26469922 2:-4.0971875 
-0.0015606936947129 1:0.2614707 2:-4.7341875 
-0.0249760648759641 1:0.27886328 2:-2.8150625 
-0.00820721157343092 1:0.33589062 2:-4.5236875 
-0.01517290018604012 1:0.21616992 2:-4.3509375 
-0.01241621909577134 1:0.20363477 2:-4.17475 
-0.01556351635401069 1:0.28378711 2:-4.067625 
-0.02553795466816527 1:0.23580859 2:-4.9935 
-0.02007368021563442 1:0.32275195 2:-4.5200625 
-0.02908853059290534 1:0.32946484 2:-5.1068125 
-0.004274426692507352 1:0.28383789 2:-4.5254375 
-0.01770201413972559 1:0.2390918 2:-3.6419375 
-0.02741257256596752 1:0.37594727 2:-4.9313125 
-0.009958975592790974 1:0.21753125 2:-3.3175 
-0.0311439057936912 1:0.12122656 2:-1.3519375 
-0.01876478564731013 1:0.28785156 2:-4.107875 
-0.01382067529038672 1:0.13203906 2:-0.3524375 
-0.02036071674003453 1:0.20885547 2:-2.3333125 
-0.02038238086991251 1:0.17662891 2:-4.19575 
-0.0147951714725863 1:0.26907227 2:-4.04375 
-0.01633788843954662 1:0.23300781 2:-4.5359375 
-0.09016266396321262 1:0.37672852 2:-2.83925 
-0.06181481577604724 1:0.25394531 2:-3.7655 
-0.01551479854238054 1:0.19809375 2:-3.069 
-0.0184178342477189 1:0.2071875 2:-4.224 
-0.0586041843684332 1:0.4075293 2:-3.602375 
-0.01277717473598594 1:0.18011914 2:-3.4025625 
-0.06811257402792854 1:0.22114844 2:-3.5301875 
-0.01073844991684208 1:0.27041016 2:-4.537625 
-0.005893375507875295 1:0.20499219 2:-4.49775 
-0.01771264931684635 1:0.097087891 2:-0.6216875 
-0.02193769816523456 1:0.22701367 2:-3.6714375 
-0.01671258228331869 1:0.16400781 2:-3.708375 
-0.01080343575810963 1:0.13151758 2:-0.8149375 
-0.02108548350598075 1:0.22069727 2:-2.997375 
-0.02491709166350059 1:0.2517832 2:-5.5881875 
-0.01912769098638735 1:0.15851172 2:-2.733375 
-0.01921837563270301 1:0.31170117 2:-5.809375 
-0.02598631305576363 1:0.18063281 2:-1.7966875 
-0.09588540991014474 1:0.34861719 2:-3.627625 
-0.03619546957243028 1:0.4166543 2:-6.32025 
-0.03461676216048862 1:0.19324805 2:-1.237 
-0.01668852129986634 1:0.17264844 2:-2.9095625 
-0.01791691847198984 1:0.16488281 2:-0.8014375 
-0.01742741462212636 1:0.33577344 2:-4.9798125 
-0.034573346586012 1:0.34056836 2:-6.399125 
-0.01910642392819076 1:0.11253125 2:-0.847 
-0.01928818712584418 1:0.15789453 2:-2.7088125 
-0.003762361133084168 1:0.22874609 2:-4.1489375 
-0.03413214432877643 1:0.34190039 2:-5.7218125 
-0.01961264132229545 1:0.21464258 2:-4.6244375 
-0.03456587497036862 1:0.23102539 2:-0.31325 
-0.02347252704851758 1:0.21728125 2:-3.6040625 
-0.08966433436246127 1:0.21419336 2:-1.8233125 
-0.01957911534055549 1:0.2882832 2:-4.770875 
-0.01455134263962636 1:0.12993359 2:-0.263125 
-0.01629372615508998 1:0.2037168 2:-4.164625 
-0.01434195254483961 1:0.31799219 2:-3.949 
-0.02087175566635169 1:0.11367188 2:-0.2075625 
-0.01811633347107946 1:0.1710625 2:-3.46225 
-0.02334335759585728 1:0.32134961 2:-4.70525 
-0.02062733654954106 1:0.14812891 2:-1.9295625 
-0.009131670283275462 1:0.1927832 2:-4.0649375 
-0.02552692649270299 1:0.10687305 2:-0.574 
-0.01381250957318168 1:0.14189063 2:-0.6464375 
-0.01925703897685611 1:0.16300977 2:-0.52175 
-0.02416821173131908 1:0.31435742 2:-5.30375 
-0.007250646918425752 1:0.30280078 2:-5.24075 
-0.003474461850980997 1:0.21693359 2:-4.2391875 
-0.01868877794384774 1:0.19398438 2:-4.392625 
-0.03460774689074675 1:0.090345703 2:-0.9753125 
-0.08105634182636792 1:0.29791797 2:-4.2606875 
-0.01430203487503666 1:0.25723242 2:-3.903625 
-0.01795709150985716 1:0.12444727 2:-0.638875 
-0.03038557917880055 1:0.24884961 2:-0.97475 
-0.02028131865161441 1:0.13857031 2:-2.888125 
-0.0184447350548772 1:0.13395313 2:-2.58675 
-0.01227781743421952 1:0.21582812 2:-3.5631875 
-0.02073286144383435 1:0.25042773 2:-3.641875 
-0.04062890680250683 1:0.28443359 2:-2.0958125 
-0.04919739575653816 1:0.18073242 2:-3.306625 
-0.01668354644474068 1:0.21359961 2:-3.6458125 
-0.01727040889221937 1:0.35889258 2:-6.5419375 
-0.02814853409658158 1:0.20059961 2:-2.8238125 
-0.01940175465559546 1:0.17117969 2:-2.7189375 
-0.03338134709383772 1:0.38264844 2:-5.1065 
-0.01127904737958501 1:0.22929492 2:-4.1615 
-0.03303614150427794 1:0.41494922 2:-6.254125 
-0.01928918535727168 1:0.36110156 2:-4.7130625 
-0.006982396745743351 1:0.16608594 2:-3.4151875 
-0.02494879405701422 1:0.31121484 2:-5.3504375 
-0.01219199814219181 1:0.23572266 2:-3.609125 
-0.01579765693988709 1:0.22712305 2:-3.956625 
-0.008828371816920255 1:0.23894141 2:-3.915 
-0.02439791122690869 1:0.22937891 2:-0.679375 
-0.01701502893752643 1:0.13396289 2:-2.110125 
-0.005236013388261893 1:0.26100781 2:-4.4465625 
-0.04325934602519119 1:0.33174023 2:-5.8703125 
-0.02102638262430478 1:0.10433789 2:-0.7885625 
-0.03653537556402333 1:0.2089707 2:-2.9054375 
-0.02995067840486158 1:0.37282422 2:-4.1736875 
-0.01865251001563584 1:0.23397852 2:-4.0256875 
-0.02508976623451153 1:0.40891211 2:-5.9803125 
-0.01673812340118908 1:0.26214258 2:-3.674 
-0.02017787315123374 1:0.27463477 2:-4.7225625 
-0.01261618572609989 1:0.15900781 2:-0.5613125 
-0.03281681088033436 1:0.1947832 2:-3.4055625 
-0.03417661888225296 1:0.14104297 2:-2.236375 
-0.03253896317410178 1:0.43064648 2:-5.9849375 
-0.0203030720672246 1:0.18057031 2:-4.090625 
-0.01586206144137178 1:0.17201758 2:-2.700875 
-0.02457573972827548 1:0.27083008 2:-5.292 
-0.04505591394718674 1:0.33573047 2:-4.2478125 
-0.007359752183939848 1:0.14059961 2:-0.430375 
-0.02715526353573811 1:0.34348242 2:-3.792 
-0.01173774193114376 1:0.11047852 2:-0.599625 
-0.001306651305183455 1:0.16873047 2:-0.674 
-0.0204449258433661 1:0.29338672 2:-4.0900625 
-0.05077078016310924 1:0.29157422 2:-3.5221875 
-0.01915860701631844 1:0.40001758 2:-6.005875 
-0.03771187469143705 1:0.31553516 2:-3.8324375 
-0.03506689045601077 1:0.27466602 2:-6.4654375 
-0.01173642917127881 1:0.18120703 2:-0.5469375 
-0.01391384057139655 1:0.15584961 2:-2.3285625 
-0.01672428738971506 1:0.23999023 2:-4.5229375 
-0.01953265663288123 1:0.26931836 2:-4.2143125 
-0.006691001690260342 1:0.18596875 2:-3.7434375 
-0.03462795154825701 1:0.28956836 2:-6.3693125 
-0.02347291759677148 1:0.13742773 2:-2.704375 
-0.01931608003384158 1:0.22812891 2:-3.6428125 
-0.02707737570537535 1:0.35916016 2:-4.7018125 
-0.002534663451850019 1:0.14681641 2:-0.7633125 
-0.01827644919293675 1:0.39188867 2:-5.9671875 
-0.0208688490289273 1:0.28221484 2:-5.066125 
-0.03492289601289553 1:0.42124023 2:-5.3928125 
-0.01886898287607702 1:0.20223633 2:-4.10725 
-0.0345400262269332 1:0.068048828 2:-0.315 
-0.01456554857422243 1:0.20148437 2:-3.4808125 
-0.004060563221698002 1:0.21123242 2:-3.571625 
-0.01404405212372254 1:0.1603125 2:-3.0386875 
-0.004106306508332889 1:0.16050391 2:-3.176 
-0.01972230416470183 1:0.18579297 2:-1.535625 
-0.001493665530950089 1:0.20227148 2:-3.4111875 
-0.01275493931878872 1:0.16672461 2:-3.398875 
-0.003625497750098227 1:0.17717383 2:-3.5808125 
-0.008525441821754454 1:0.21078516 2:-3.50975 
-0.01065012941100563 1:0.18875977 2:-2.61775 
-0.03495152778323568 1:0.35455664 2:-3.95475 
-0.008040983555394041 1:0.2073418 2:-3.732875 
-0.01582002989447279 1:0.20573242 2:-2.702 
-0.09716039177300786 1:0.43747852 2:-3.440125 
-0.01548661708885973 1:0.28563477 2:-5.0140625 
-0.04155043917857179 1:0.24530078 2:-2.4893125 
-0.009034451019270659 1:0.31565234 2:-4.6780625 
-0.01885651861822306 1:0.32144727 2:-5.7114375 
-0.02289900989738532 1:0.27701758 2:-4.0153125 
-0.03065396740783471 1:0.2454043 2:-2.608125 
-0.06276953820111195 1:0.33248828 2:-2.502 
-0.006479412959107334 1:0.27167383 2:-5.0855 
-0.0215427546322013 1:0.26742578 2:-5.334625 
-0.02583151697051572 1:0.32581836 2:-5.1521875 
-0.1 1:0.27819727 2:-3.7015 
-0.05286984085529603 1:0.17793555 2:-1.9318125 
-0.02321772920773579 1:0.27383008 2:-5.41075 
-0.02363202264705516 1:0.17674609 2:-2.923375 
-0.00136593900247362 1:0.17423047 2:-3.274 
-0.01049249219034715 1:0.3061543 2:-5.050625 
-0.01622669979278252 1:0.15972852 2:-0.6175625 
-0.02246289231561563 1:0.13442383 2:-3.32075 
-0.08378584355741805 1:0.28948047 2:-5.2085 
-0.01448515464441002 1:0.23883203 2:-4.6520625 
-0.02572298238370541 1:0.27118945 2:-3.6079375 
-0.02942830158037679 1:0.22978125 2:-3.6273125 
-0.06780652220027275 1:0.40715039 2:-4.4429375 
-0.03259095510388738 1:0.17999414 2:-0.934875 
-0.002538736345016668 1:0.13314062 2:-0.5588125 
-0.01978909986848695 1:0.20745508 2:-3.2791875 
-0.03160532258803395 1:0.26322461 2:-5.4883125 
-0.008548857888317607 1:0.27169336 2:-5.148125 
-0.001565538411481326 1:0.16033594 2:-3.4038125 
-0.06608896688961421 1:0.33679883 2:-3.4530625 
-0.02643085721539551 1:0.33769336 2:-4.9349375 
-0.02848586387782931 1:0.10423633 2:-0.6513125 
-0.00193261379669829 1:0.30756836 2:-5.313125 
-0.01244886621487164 1:0.23346289 2:-4.9045 
-0.01064602507054445 1:0.1463125 2:-0.5529375 
-0.02276338109047593 1:0.11324219 2:-0.802375 
-0.004288213701948873 1:0.22185742 2:-4.004375 
-0.009651405436001959 1:0.15279492 2:-0.351375 
-0.005152617144816156 1:0.16295312 2:-0.648 
-0.001070884409484137 1:0.28873242 2:-4.8899375 
-0.005777800938466422 1:0.137 2:-0.6551875 
-0.0002126052093519813 1:0.27817773 2:-5.013 
-0.03567273097028753 1:0.365375 2:-2.8435 
-0.009810151186248672 1:0.33180273 2:-4.425125 
-0.06999164899877328 1:0.26745508 2:-3.3273125 
-0.02170199741799783 1:0.17012109 2:-0.9794375 
-0.1 1:0.23243945 2:-3.1105625 
-0.02642407379764305 1:0.32995703 2:-5.0885625 
-0.009624363973455341 1:0.26391211 2:-4.62975 
-0.003241975488717174 1:0.16926953 2:-3.60625 
-0.01732186665388873 1:0.11523828 2:-0.337875 
-0.03464584365505982 1:0.26445117 2:-6.1681875 
-0.01771416471227803 1:0.17890234 2:-3.84675 
-0.1 1:0.25036328 2:-3.019875 
-0.02919350245639785 1:0.32765625 2:-6.1134375 
-0.01391726942204996 1:0.19501367 2:-2.6203125 
-0.03462222354674732 1:0.36618555 2:-6.76 
-0.03482448590656301 1:0.30098828 2:-6.4419375 
-0.02060122441603414 1:0.33609766 2:-5.6264375 
-0.006949603744585179 1:0.23423242 2:-3.962625 
-0.02271640049625345 1:0.22739063 2:-3.4049375 
-0.03050013245707608 1:0.11562891 2:-3.0084375 
-0.03586997701792219 1:0.29912695 2:-3.834875 
-0.01835749204191078 1:0.29831055 2:-5.1241875 
-0.006493125431351382 1:0.25291602 2:-4.2434375 
-0.06808355038886019 1:0.28626953 2:-2.63325 
-0.004053611517041943 1:0.090535156 2:-0.549875 
-0.005711132776788141 1:0.082808594 2:-0.74025 
-0.01647968894224955 1:0.13647852 2:-0.844625 
-0.009159062100875512 1:0.17841406 2:-3.1833125 
-0.1 1:0.22789648 2:-4.39775 
-0.03588306046300119 1:0.27432812 2:-1.215 
-0.02407523868511829 1:0.35023242 2:-5.6015 
-0.05064434532057148 1:0.25099805 2:-3.2134375 
-0.01513376878920615 1:0.16573828 2:-3.3041875 
-0.01218789607011828 1:0.1077793 2:-2.3355 
-0.02838722916255809 1:0.2040625 2:-3.052875 
-0.03081501233569778 1:0.096371094 2:-1.652375 
-0.000745978025724247 1:0.19907422 2:-3.6469375 
-0.01684719031862536 1:0.10816211 2:-1.3498125 
-0.01457556816779867 1:0.22175977 2:-4.1065625 
-0.01950825630117192 1:0.18442383 2:-2.95375 
-0.03096689206830333 1:0.1800625 2:-2.518875 
-0.02762182911764138 1:0.42903711 2:-5.4879375 
-0.01592194546178266 1:0.37716016 2:-5.5358125 
-0.01412793549877119 1:0.33639062 2:-5.632125 
-0.009591715307256339 1:0.20086914 2:-3.31725 
-0.02155157332501915 1:0.20523242 2:-0.36 
-0.03467602437000158 1:0.45968945 2:-5.043375 
-0.03170271686110382 1:0.46185352 2:-4.74475 
-0.02018323155781143 1:0.24298438 2:-3.9543125 
-0.01100402746884631 1:0.31470898 2:-5.022375 
-0.0235278279216134 1:0.10000977 2:-0.54025 
-0.02113876250701508 1:0.11639844 2:-0.897625 
-0.01473275617245338 1:0.21740625 2:-4.2459375 
-0.0009064194278295967 1:0.34460547 2:-4.783125 
-0.02054253262518176 1:0.10491016 2:-0.7456875 
-0.02828256041922861 1:0.2802832 2:-4.3881875 
-0.03112787719136698 1:0.24395898 2:-0.680875 
-0.1 1:0.2800332 2:-3.6730625 
-0.0177028944188713 1:0.091064453 2:-0.33625 
-0.05301574394589156 1:0.33693945 2:-3.259875 
-0.003263351336833087 1:0.17999805 2:-3.188375 
-0.05150956937511671 1:0.23749609 2:-3.4766875 
-0.01580553763587417 1:0.11790625 2:-0.303625 
-0.01940967739798791 1:0.18010938 2:-3.24625 
-0.005346216500890159 1:0.14992773 2:-0.4365625 
-0.01831444993704512 1:0.19036914 2:-4.209875 
-0.01492202940124332 1:0.27144727 2:-4.3475 
-0.004380414530593747 1:0.20894531 2:-4.481875 
-0.009075778333930716 1:0.18545703 2:-3.2850625 
-0.01067008838769625 1:0.11754102 2:-2.3025625 
-0.01869053682944888 1:0.079640625 2:-0.79925 
-0.003608549879232336 1:0.22756836 2:-4.4533125 
-0.02973128149591472 1:0.35265234 2:-4.1054375 
-0.02131740965105078 1:0.16531836 2:-0.9685 
-0.0110623107134189 1:0.2812207 2:-4.057375 
-0.002434568249344888 1:0.20357812 2:-4.131875 
-0.01558672153545559 1:0.2464082 2:-3.9310625 
-0.0343340115407601 1:0.17925391 2:-0.3043125 
-0.01409380175692486 1:0.16424414 2:-1.067375 
-0.02030030724745743 1:0.39512695 2:-4.9090625 
-0.05685161757882434 1:0.28529688 2:-4.429 
-0.00323839211700505 1:0.33367383 2:-4.751375 
-0.005265940818017623 1:0.29567383 2:-3.2821875 
-0.02269728561119541 1:0.24723047 2:-4.4385 
-0.0247744887027746 1:0.17652344 2:-2.8240625 
-0.01330364752888884 1:0.11755859 2:-0.546625 
-0.0189872344179034 1:0.13402734 2:-3.0056875 
-0.03641458821986729 1:0.23100195 2:-2.88675 
-0.007984146663630625 1:0.1511875 2:-2.6685 
-0.03443850960120545 1:0.083269531 2:-1.9089375 
-0.0210976926663593 1:0.16957227 2:-3.7373125 
-0.01189794639898606 1:0.25907031 2:-4.19675 
-0.01997738128577109 1:0.16481641 2:-0.7265625 
-0.03602195713719611 1:0.43701758 2:-4.488375 
-0.0236333911011197 1:0.29039062 2:-4.55775 
-0.01897228480598429 1:0.29873633 2:-4.0429375 
-0.009866617215163491 1:0.14199219 2:-2.8046875 
-0.01042391749076645 1:0.11911719 2:-2.54775 
-0.03448274264310788 1:0.3845 2:-6.7055 
-0.00974388022692428 1:0.12066406 2:-0.7008125 
-0.01396466813231212 1:0.25238281 2:-3.4760625 
-0.027712211935115 1:0.22798828 2:-2.3349375 
-0.004081330736632576 1:0.16594141 2:-2.926125 
-0.01947166174712346 1:0.30117773 2:-4.08525 
-0.02456568510453646 1:0.18333398 2:-3.381 
-0.01709471652362905 1:0.26753125 2:-5.033 
-0.00788218189621126 1:0.35856055 2:-4.7313125 
-0.02535650555703717 1:0.30321094 2:-5.1368125 
-0.0126869762122677 1:0.11500781 2:-0.2405625 
-0.007806950807202343 1:0.11025195 2:-0.245875 
-0.08077860862833305 1:0.21798437 2:-2.28275 
-0.02010553141156649 1:0.43530664 2:-4.53675 
-0.07055072630474538 1:0.29874609 2:-4.2219375 
-0.07591541092357332 1:0.26378125 2:-4.713375 
-0.01273458136237767 1:0.20554492 2:-3.8453125 
-0.02429353367257236 1:0.27748437 2:-4.232625 
-0.03505746624169503 1:0.24439453 2:-4.17375 
-0.02134718228989224 1:0.24310742 2:-3.7805625 
-0.06042951903950552 1:0.42212695 2:-5.196375 
-0.007254221539857298 1:0.13327539 2:-0.8525 
-0.02322355501444523 1:0.10430078 2:-1.799125 
-0.03427337647457304 1:0.1989707 2:-1.7538125 
-0.04054215268572756 1:0.25451758 2:-1.7416875 
-0.008990655909018928 1:0.19645117 2:-3.3471875 
-0.04319100495622122 1:0.31439063 2:-1.372 
-0.01020527716732477 1:0.27479297 2:-3.251625 
-0.03501695292665005 1:0.089224609 2:-2.2149375 
-0.03040283013175174 1:0.089160156 2:-1.664875 
-0.03953444412119094 1:0.23520312 2:-3.8448125 
-0.009200918420909587 1:0.18033008 2:-2.7246875 
-0.007794518685789967 1:0.18840039 2:-3.832625 
-0.04815139169431268 1:0.33197852 2:-4.3599375 
-0.04821031081740376 1:0.3277207 2:-3.7340625 
-0.01525386508798656 1:0.23759961 2:-3.883125 
-0.03458976179667442 1:0.42445703 2:-4.7930625 
-0.01550029149394433 1:0.22346289 2:-3.69775 
-0.03384245796393229 1:0.28924414 2:-6.0709375 
-0.01653115753034918 1:0.14753516 2:-0.62325 
-0.003428878070540976 1:0.22680273 2:-4.3693125 
-0.001371680836010479 1:0.25823242 2:-4.5935 
-0.03181802210633131 1:0.32563867 2:-6.033 
-0.02931190907736653 1:0.34316211 2:-5.11375 
-0.0338141753807836 1:0.31239258 2:-3.335375 
-0.01276546596229533 1:0.15866602 2:-2.873375 
-0.01758591083304132 1:0.28410352 2:-5.23025 
-0.02536239310082705 1:0.25176172 2:-4.0845 
-0.004110263492502543 1:0.1520625 2:-0.365125 
-0.01359947723102356 1:0.25875391 2:-3.735125 
-0.01808874896136309 1:0.10494922 2:-0.7160625 
-0.05689270636990165 1:0.29289258 2:-3.71 
-0.01484097446311963 1:0.2242832 2:-4.2979375 
-0.08456072741844864 1:0.27592773 2:-3.5386875 
-0.02834479322216171 1:0.37776953 2:-5.1730625 
-0.006939993318590095 1:0.17953516 2:-3.5239375 
-0.01638322701285314 1:0.24275586 2:-4.3421875 
-0.02282961818763901 1:0.26038281 2:-4.149125 
-0.01523143390399934 1:0.18689844 2:-4.18925 
-0.08529758161409115 1:0.30438672 2:-2.5859375 
-0.07279563811125631 1:0.32394141 2:-4.4250625 
-0.03122716396917807 1:0.39804688 2:-4.837375 
-0.009005829758358671 1:0.26896484 2:-3.7311875 
-0.009233274521681189 1:0.12051562 2:-0.6193125 
-0.008535119675229097 1:0.26604883 2:-5.25375 
-0.01951167230108816 1:0.33458398 2:-5.768125 
-0.01820844775500091 1:0.23822656 2:-4.2061875 
-0.0222295906850527 1:0.13181055 2:-2.4746875 
-0.02208929368237903 1:0.31097266 2:-5.580875 
-0.001812195774442193 1:0.23622656 2:-4.2471875 
-0.0132345642144913 1:0.25586328 2:-3.9335625 
-0.02278184322039356 1:0.14333789 2:-2.5066875 
-0.02422145669845405 1:0.16217188 2:-2.327625 
-0.05778057257775657 1:0.32619922 2:-5.0000625 
-0.02306000000465874 1:0.14702148 2:-1.28975 
-0.02516187869132753 1:0.29528906 2:-5.3894375 
-0.02317222058494134 1:0.15686523 2:-0.94725 
-0.01665080078318482 1:0.19549805 2:-3.938375 
-0.006595158218394181 1:0.29367383 2:-5.8570625 
-0.006745606852140347 1:0.28879688 2:-4.4715 
-0.02594738134613783 1:0.18546289 2:-3.118 
-0.04151338792049125 1:0.33615625 2:-4.82075 
-0.008241160168537209 1:0.19795508 2:-4.1676875 
-0.0348865774579758 1:0.076144531 2:-1.757125 
-0.009113407623224651 1:0.31517969 2:-4.672375 
-0.01416942409650573 1:0.26805664 2:-5.3481875 
-0.02360892764244889 1:0.14821484 2:-2.779125 
-0.003600773831759507 1:0.11336719 2:-0.547625 
-0.02742957905988969 1:0.17189844 2:-0.5083125 
-0.0119877935521394 1:0.24904297 2:-4.2915 
-0.02330383409140138 1:0.29987891 2:-4.787625 
-0.01648267471974081 1:0.25359766 2:-4.1344375 
-0.02176365006164999 1:0.20873242 2:-0.837375 
-0.01583958460239159 1:0.16482422 2:-2.99575 
-0.01052710837011118 1:0.28198828 2:-4.9028125 
-0.03076756414240689 1:0.34298242 2:-4.6171875 
-0.08850438584584527 1:0.369375 2:-4.5480625 
-0.04198846103276774 1:0.3259375 2:-5.6773125 
-0.02238379532197859 1:0.17018359 2:-2.38025 
-0.009526739778273011 1:0.21081055 2:-3.7844375 
-0.02673320841739452 1:0.24222656 2:-5.4225625 
-0.01414239377712724 1:0.19359766 2:-3.0270625 
-0.1 1:0.35157227 2:-1.6589375 
-0.01284856584666895 1:0.19991992 2:-3.5648125 
-0.04408525999337484 1:0.30931641 2:-2.750125 
-0.07927858526475975 1:0.31269922 2:-4.47825 
-0.03179134982149517 1:0.13844727 2:-3.4694375 
-0.006091288568734736 1:0.24727539 2:-4.8033125 
-0.01579444520228779 1:0.27958203 2:-4.9163125 
-0.01883702138668978 1:0.28462695 2:-4.9796875 
-0.01810845615044193 1:0.11933008 2:-1.317 
-0.003938706676721379 1:0.24185742 2:-3.9803125 
-0.0267839912954182 1:0.26706836 2:-5.5515625 
-0.01585816459925547 1:0.13386328 2:-0.4603125 
-0.1 1:0.22531836 2:-4.4789375 
-0.01469847023644815 1:0.30072461 2:-5.2973125 
-0.01023388706280309 1:0.16830664 2:-4.0475 
-0.01324706292689906 1:0.31715625 2:-4.7206875 
-0.02721025579129449 1:0.11514062 2:-2.079875 
-0.006921797691000562 1:0.19210547 2:-3.7350625 
-0.01125583831346153 1:0.21409375 2:-4.2804375 
-0.1 1:0.36199023 2:-5.0789375 
-0.002941547310381432 1:0.28919727 2:-4.9364375 
-0.02060338869583545 1:0.27132227 2:-3.500875 
-0.0261995277238129 1:0.17242188 2:-3.959375 
-0.01711966042318502 1:0.17656055 2:-4.049 
-0.004446418498170287 1:0.19740234 2:-4.139 
-0.0004193106429550139 1:0.29372266 2:-4.1110625 
-0.02330977412963882 1:0.32278711 2:-6.0531875 
-0.04073093661471943 1:0.38253711 2:-4.640375 
-0.01745159123471146 1:0.089660156 2:-0.3435 
-0.01591021624030081 1:0.18350195 2:-2.1923125 
-0.04397090348048951 1:0.34213672 2:-2.21525 
-0.01045461538383412 1:0.18887695 2:-3.8695 
-0.001397436904675642 1:0.35900977 2:-5.2805 
-0.01314675273789976 1:0.1968457 2:-2.86375 
-0.02784354729010141 1:0.13560352 2:-2.6184375 
-0.001068548153456343 1:0.24389258 2:-4.6166875 
-0.02857243221670278 1:0.32441602 2:-5.6034375 
-0.023998109928141 1:0.14473438 2:-2.6431875 
-0.01817592873330748 1:0.14930469 2:-0.344 
-0.01028585474536483 1:0.19191992 2:-3.187125 
-0.01839424672025514 1:0.21939258 2:-4.7096875 
-0.03315789075161854 1:0.2320293 2:-1.118875 
-0.02555789739884251 1:0.28325391 2:-5.2513125 
-0.0238168060214346 1:0.23783789 2:-0.9815625 
-0.02765406924791505 1:0.33385547 2:-3.1575 
-0.03731121239163612 1:0.39603125 2:-4.306 
-0.02203773843565201 1:0.21874023 2:-0.899 
-0.01847733561660581 1:0.28249219 2:-5.382 
-0.02799881643284997 1:0.1662793 2:-2.6305 
-0.01594433767416146 1:0.32594336 2:-3.5015 
-0.01703395369864114 1:0.15511914 2:-3.6179375 
-0.017398957047631 1:0.34039844 2:-5.828875 
-0.1 1:0.19375391 2:-2.2433125 
-0.01291859574261037 1:0.17688867 2:-3.8666875 
-0.03207244948936169 1:0.35580078 2:-6.299125 
-0.01850149613625239 1:0.31182031 2:-5.115875 
-0.009503598799017694 1:0.13530078 2:-0.444875 
-0.09554641344941911 1:0.27499609 2:-5.066875 
-0.01261589087523438 1:0.20992187 2:-4.632125 
-0.001919175065677712 1:0.24242187 2:-4.7375625 
-0.02554474369748049 1:0.18109961 2:-2.77675 
-0.02064415217663357 1:0.32303516 2:-4.5411875 
-0.02787636487566969 1:0.39239062 2:-5.2711875 
-0.008840651636124852 1:0.14836328 2:-3.05775 
-0.06508641555465897 1:0.32963867 2:-4.34625 
-0.04224450571488983 1:0.31943359 2:-2.8864375 
-0.007133227603004666 1:0.27598633 2:-4.2910625 
-0.02022298766703789 1:0.10868945 2:-0.1948125 
-0.01871413532096211 1:0.25207813 2:-5.338125 
-0.02511880882186318 1:0.34935352 2:-5.6198125 
-0.1 1:0.35208398 2:-2.5773125 
-0.02169291542560788 1:0.23408984 2:-3.4955 
-0.01308800979488336 1:0.2559707 2:-4.602625 
-0.01524335054443249 1:0.12712305 2:-0.6914375 
-0.009734498642040824 1:0.23947656 2:-3.9203125 
-0.01769508981655405 1:0.2052832 2:-4.142 
-0.02413580291814948 1:0.29525 2:-4.57775 
-0.0325107192025213 1:0.27905078 2:-4.1588125 
-0.02141032647837393 1:0.28470117 2:-5.518375 
-0.05233540717187401 1:0.21625586 2:-3.218125 
-0.02381183791003182 1:0.2542793 2:-4.8716875 
-0.03016139328908563 1:0.090236328 2:-0.5974375 
-0.03414308087732656 1:0.26871289 2:-3.656875 
-0.06334919352562376 1:0.31787891 2:-2.8479375 
-0.02038076078737461 1:0.29176172 2:-4.8688125 
-0.07525573237638788 1:0.35529297 2:-4.68275 
-0.01215558917532817 1:0.20857617 2:-3.8 
-0.1 1:0.30545898 2:-3.800375 
-0.03022186046561149 1:0.23392188 2:-4.871875 
-0.02183058268537985 1:0.31054102 2:-4.9661875 
-0.06364461096166305 1:0.24810742 2:-2.2230625 
-0.03272948767255068 1:0.10053125 2:-1.1860625 
-0.02150813312004107 1:0.19133594 2:-3.9938125 
-0.01356298697052322 1:0.19804102 2:-3.9090625 
-0.09705715613622398 1:0.27030078 2:-1.6701875 
-0.01372584639497345 1:0.22319727 2:-3.79 
-0.04965247092100109 1:0.27945898 2:-3.1124375 
-0.03179312445462226 1:0.36457422 2:-5.483875 
-0.02464545172052118 1:0.23917187 2:-5.222875 
-0.01560922430462824 1:0.14973047 2:-0.452375 
-0.02979895490154116 1:0.13027148 2:-1.22175 
-0.005712276718385959 1:0.16975977 2:-3.0816875 
-0.01466784928484207 1:0.094521484 2:-0.787 
-0.01131039014749561 1:0.21967187 2:-4.086125 
-0.01967529501600951 1:0.17791992 2:-1.055 
-0.01541283560140243 1:0.17936523 2:-0.338875 
-0.02256441705886021 1:0.34079687 2:-4.7308125 
-0.02722971390207574 1:0.25126563 2:-2.5884375 
-0.01657269307402946 1:0.1526582 2:-3.2295625 
-0.02635900204311517 1:0.22991602 2:-5.1326875 
-0.0244270964895508 1:0.37807812 2:-5.0475 
-0.08839038886036646 1:0.28025586 2:-5.4515 
-0.01521737649261684 1:0.22941797 2:-3.9183125 
-0.0174910049084869 1:0.2393457 2:-4.0664375 
-0.03015818018060631 1:0.26848047 2:-2.389375 
-0.02943332874540694 1:0.17200195 2:-1.5355625 
-0.004761532651621538 1:0.28154297 2:-5.29975 
-0.02386297252644961 1:0.11643945 2:-0.48 
-0.03002108573494355 1:0.28427539 2:-6.015875 
-0.03931494106594854 1:0.38280273 2:-4.365125 
-0.06016377225075062 1:0.22082812 2:-2.6729375 
-0.009986472320107178 1:0.18330469 2:-3.5765 
-0.007198741641192151 1:0.17282813 2:-0.844375 
-0.02007294098968831 1:0.16221484 2:-3.8394375 
-0.01899898007022327 1:0.22255859 2:-2.02525 
-0.02054771769801126 1:0.14380859 2:-2.602 
-0.004953937340082995 1:0.14380469 2:-0.87225 
-0.03461656110713254 1:0.33792773 2:-3.1846875 
-0.05022701905763174 1:0.26292969 2:-2.64375 
-0.02580146216916746 1:0.29808984 2:-4.03125 
-0.03431585516358071 1:0.27455664 2:-1.5620625 
-0.02580555163025696 1:0.19073438 2:-4.4073125 
-0.02334079329638887 1:0.38399414 2:-3.8518125 
-0.01826803500195534 1:0.18312109 2:-3.7689375 
-0.03031511124896785 1:0.31775977 2:-6.0183125 
-0.01731304888946647 1:0.16155273 2:-2.772875 
-0.01941824927375652 1:0.27808203 2:-4.4469375 
-0.02487208630739211 1:0.14570117 2:-0.6723125 
-0.01555666587526035 1:0.13817969 2:-0.2635 
-0.01918356504178853 1:0.18005273 2:-0.5976875 
-0.02071338282152438 1:0.33418555 2:-2.956375 
-0.02813616121065526 1:0.33027148 2:-4.956875 
-0.008793624922990698 1:0.18807031 2:-4.1786875 
-0.007490655670165967 1:0.26959375 2:-4.9015 
-0.01284867416216413 1:0.23692383 2:-5.2616875 
-0.004467032970094255 1:0.17653516 2:-3.180875 
-0.04184667125383748 1:0.34258594 2:-4.0031875 
-0.04971567885836178 1:0.39472266 2:-4.070375 
-0.01640706875815398 1:0.16987305 2:-0.8109375 
-0.02910514311091314 1:0.19928711 2:-2.6759375 
-0.02913909024757094 1:0.15044922 2:-2.3756875 
-0.02735774271120728 1:0.343625 2:-3.1510625 
-0.02314434509748964 1:0.19591602 2:-0.486625 
-0.00423021292745096 1:0.12008008 2:-0.25775 
-0.02489960085540926 1:0.16068945 2:-2.8523125 
-0.02577506584635808 1:0.37045117 2:-4.9888125 
-0.01285707023786533 1:0.24606641 2:-4.011125 
-0.02467973906873577 1:0.16782812 2:-3.937 
-0.02805364732618111 1:0.15526172 2:-2.0664375 
-0.03133873411880117 1:0.33 2:-5.3965625 
-0.01435782883133006 1:0.16298828 2:-3.2735 
-0.03460260994936049 1:0.47638086 2:-5.2835625 
-0.02251254632615213 1:0.17439648 2:-2.9799375 
-0.03193751537264768 1:0.38570117 2:-6.1624375 
-0.0120799383121496 1:0.21005664 2:-3.972625 
-0.001233562476335883 1:0.18266797 2:-3.69325 
-0.01217042305130644 1:0.31235938 2:-3.728625 
-0.01009427867372513 1:0.16695313 2:-0.54225 
-0.01781956138072647 1:0.34613867 2:-4.878 
-0.02310253356553977 1:0.3327168 2:-4.190125 
-0.005082436828630129 1:0.29496094 2:-4.4983125 
-0.03437938248755532 1:0.43723828 2:-7.1905 
-0.01598157054048949 1:0.17105469 2:-2.7609375 
-0.01176745379277444 1:0.27294336 2:-4.2574375 
-0.01381704043038653 1:0.12889648 2:-0.521625 
-0.02158705228330771 1:0.28295508 2:-0.9159375 
-0.01778979118783553 1:0.2734082 2:-5.0863125 
-0.02503989662101275 1:0.079349609 2:-1.6896875 
-0.01316714262962741 1:0.27930469 2:-4.776375 
-0.02185753035509679 1:0.38547461 2:-3.8594375 
-0.007737458646902422 1:0.28805859 2:-4.6735 
-0.003646433338708377 1:0.22426367 2:-3.909375 
-0.03304365767680714 1:0.29561328 2:-3.4695625 
-0.01527208322083056 1:0.20026953 2:-3.1505 
-0.02664369675729206 1:0.27326758 2:-5.4265 
-0.03456000863166775 1:0.1082207 2:-2.2316875 
-0.006110961515867748 1:0.16485938 2:-3.327375 
-0.02540011368736531 1:0.10682617 2:-0.819125 
-0.02090308297959997 1:0.15878516 2:-3.40725 
-0.01480759023822236 1:0.16670117 2:-3.921 
-0.01657178956881306 1:0.20010547 2:-4.0784375 
-0.03647553669210288 1:0.29278125 2:-3.8043125 
-0.003943051616023529 1:0.30803125 2:-3.0019375 
-0.04827064934875516 1:0.1824375 2:-2.253375 
-0.01969977069483944 1:0.2792832 2:-4.56025 
-0.03141261209471646 1:0.16586328 2:-4.110875 
-0.01319415390925216 1:0.18523242 2:-3.55875 
-0.03459762073500444 1:0.19703125 2:-1.2106875 
-0.009086212677704432 1:0.22709961 2:-3.6794375 
-0.033993311577627 1:0.25238086 2:-5.8245 
-0.01919470759212968 1:0.21886133 2:-4.429125 
-0.04141641180986409 1:0.23005273 2:-3.1355625 
-0.02005046508122689 1:0.19360547 2:-2.5951875 
-0.003471489642665803 1:0.12403711 2:-0.45925 
-0.01167946453326439 1:0.305625 2:-5.8485 
-0.001171390169438809 1:0.20867383 2:-3.7443125 
-0.01472616699036439 1:0.21791797 2:-3.83625 
-0.01120604667984281 1:0.13310156 2:-0.8990625 
-0.1 1:0.23971289 2:-2.3139375 
-0.01119367462637977 1:0.252875 2:-4.820875 
-0.01131213671495794 1:0.23411719 2:-4.732375 
-0.03689266114460918 1:0.39061133 2:-3.7198125 
-0.01560691648663902 1:0.17753906 2:-2.79 
-0.03366817255975606 1:0.38049805 2:-4.2808125 
-0.02540554111957276 1:0.090515625 2:-0.3639375 
-0.01502029125939172 1:0.21278125 2:-4.3166875 
-0.03269372906052631 1:0.28625391 2:-5.183375 
-0.01269079247779899 1:0.14759375 2:-0.6025625 
-0.008280291731715114 1:0.33518359 2:-4.321625 
-0.009953065396355418 1:0.14449023 2:-3.170375 
-0.02980306977715086 1:0.15353906 2:-3.362 
-0.005959453288375854 1:0.32116211 2:-5.215 
-0.02516797436839968 1:0.37617578 2:-6.118875 
-0.01618064699075226 1:0.16311133 2:-3.194 
-0.03451887790740238 1:0.25077539 2:-1.1349375 
-0.02346545508220426 1:0.16867578 2:-0.6668125 
-0.1 1:0.32936133 2:-2.6848125 
-0.03291478044650828 1:0.24014258 2:-2.9931875 
-0.0250557322992136 1:0.3691582 2:-5.221 
-0.0218622705118813 1:0.20562109 2:-4.42025 
-0.01035892024285085 1:0.14607617 2:-3.1498125 
-0.009276570991754149 1:0.17312305 2:-0.571875 
-0.1 1:0.34663867 2:-2.43325 
-0.0345042167628965 1:0.4128457 2:-5.946 
-0.02543540736241889 1:0.30472266 2:-6.0991875 
-0.02908237221903384 1:0.29039648 2:-5.8028125 
-0.0166753492596552 1:0.18485742 2:-3.0564375 
-0.01163482658450053 1:0.23611133 2:-4.131375 
-0.01945717328217983 1:0.2670332 2:-4.2991875 
-0.01274368357277122 1:0.15425 2:-3.3069375 
-0.01844908230729353 1:0.28978516 2:-5.5816875 
-0.02612324791441929 1:0.30909961 2:-4.58375 
-0.013798803880029 1:0.13451953 2:-3.1604375 
-0.06334785040536919 1:0.33104102 2:-2.396 
-0.009180961672154399 1:0.28495703 2:-4.809125 
-0.01249941446966868 1:0.25593945 2:-4.45375 
-0.02417900963972197 1:0.28688477 2:-4.852125 
-0.04335051186046204 1:0.20150586 2:-2.223875 
-0.01120185842928006 1:0.25609961 2:-4.8286875 
-0.1 1:0.29933008 2:-3.1620625 
-0.02779400047498087 1:0.19147852 2:-2.9933125 
-0.03410674411438797 1:0.24349805 2:-2.2509375 
-0.008830045353679677 1:0.35628711 2:-6.539625 
-0.01167800255162764 1:0.31384961 2:-5.691875 
-0.08232248460857142 1:0.23202734 2:-1.8263125 
-0.02288848979840425 1:0.21932617 2:-4.9929375 
-0.05434858790139716 1:0.49851172 2:-4.012375 
-0.01279383741465995 1:0.2639082 2:-5.1389375 
-0.01709664613153009 1:0.14431055 2:-2.7098125 
-0.02710581208005542 1:0.36097656 2:-4.47375 
-0.002570421613864669 1:0.19408008 2:-3.92775 
-0.02448137827611144 1:0.1925 2:-3.0773125 
-0.01127605363966167 1:0.090884766 2:-1.8548125 
-0.0165114135991333 1:0.22323828 2:-4.847625 
-0.01792282960638395 1:0.20406445 2:-1.2705625 
-0.04082529504194746 1:0.35748437 2:-4.221125 
-0.008071384190958632 1:0.094498047 2:-0.5005 
-0.009540181917909526 1:0.32863477 2:-3.693375 
-0.0161145924064425 1:0.25251953 2:-4.5294375 
-0.01983310443019093 1:0.36276172 2:-4.9273125 
-0.01840000775287476 1:0.32199023 2:-4.8565 
-0.01832869446979308 1:0.22131836 2:-0.972 
-0.006077113881703925 1:0.19722656 2:-4.386625 
-0.005090211177266261 1:0.23560938 2:-4.2560625 
-0.04091858651716532 1:0.40497656 2:-2.8505625 
-0.02759509032376856 1:0.13239258 2:-0.7931875 
-0.0005662509081184042 1:0.26085938 2:-4.9448125 
-0.1 1:0.2990332 2:-2.155 
-0.03341063548176959 1:0.25207227 2:-3.5475625 
-0.01519921673819447 1:0.11079297 2:-1.479125 
-0.01654632343636497 1:0.16823828 2:-3.0603125 
-0.01270715896470788 1:0.27020117 2:-4.633875 
-0.01048448061193574 1:0.18046875 2:-2.948375 
-0.02353250359832778 1:0.35535352 2:-5.9386875 
-0.01644492614970448 1:0.14018359 2:-0.7805 
-0.0670659896899963 1:0.30597656 2:-4.17525 
-0.01250914475586781 1:0.27031445 2:-4.449 
-0.01286221249467414 1:0.13674023 2:-2.810375 
-0.01721063710192108 1:0.18832617 2:-3.489 
-0.03508597073308553 1:0.42868164 2:-3.7133125 
-0.02794347199416608 1:0.41617578 2:-5.48325 
-0.02371134673019726 1:0.10748437 2:-0.9036875 
-0.02028008621830879 1:0.21799805 2:-3.0160625 
-0.004324601090790268 1:0.22179883 2:-4.311125 
-0.08603376560236201 1:0.22425781 2:-3.2 
-0.007533430772071028 1:0.26625781 2:-5.1054375 
-0.02205137588290057 1:0.33728711 2:-5.5165625 
-0.01581910812388749 1:0.19214258 2:-4.0940625 
-0.01114621246190681 1:0.31507617 2:-5.15525 
-0.03438608506332749 1:0.48474609 2:-6.674125 
-0.01050950744321863 1:0.24992773 2:-4.3128125 
-0.02453781691937434 1:0.10355469 2:-1.358375 
-0.008389758562430218 1:0.15260742 2:-0.6134375 
-0.01479225224517588 1:0.1601543 2:-3.1286875 
-0.02301151432482951 1:0.3085 2:-4.161875 
-0.02820760069384265 1:0.22682812 2:-0.9900625 
-0.02362100924895563 1:0.4194082 2:-4.9998125 
-0.02707826020248549 1:0.1716875 2:-2.1968125 
-0.01542776539704821 1:0.15107227 2:-3.094 
-0.02413274468486337 1:0.19203906 2:-0.745625 
-0.02037439030770162 1:0.24595313 2:-5.170875 
-0.01465411352844986 1:0.30006445 2:-4.989 
-0.0169685716145633 1:0.28900781 2:-4.7948125 
-0.007944417363101298 1:0.17208594 2:-3.5984375 
-0.05709473503582205 1:0.13674414 2:-2.6331875 
-0.02272593383355382 1:0.2802793 2:-4.02175 
-0.0292616020440433 1:0.25051172 2:-4.4695625 
-0.0378154300549623 1:0.16515039 2:-2.889875 
-0.004692069125214091 1:0.22223242 2:-3.4744375 
-0.01949635788772503 1:0.23505469 2:-3.79325 
-0.01474679889499713 1:0.21603711 2:-4.561 
-0.03480665584562551 1:0.30739453 2:-6.3014375 
-0.02596201621603236 1:0.2560957 2:-3.5296875 
-0.05616481945069435 1:0.23025 2:-4.340625 
-0.02068997108591958 1:0.27826172 2:-4.4676875 
-0.01341474649222096 1:0.23712891 2:-4.3549375 
-0.01536164101154305 1:0.17764844 2:-3.2908125 
-0.005082369224213606 1:0.1918457 2:-3.4600625 
-0.009078197801305489 1:0.23757422 2:-3.913375 
-0.01397185753577152 1:0.18250586 2:-3.7494375 
-0.02987767854723944 1:0.39998242 2:-5.83025 
-0.01924140897120566 1:0.20570898 2:-3.3461875 
-0.01403287369845246 1:0.22977344 2:-4.459 
-0.02090435522213516 1:0.25075391 2:-3.267625 
-0.01330665755300568 1:0.22922852 2:-3.8128125 
-0.02976889707574676 1:0.28478516 2:-5.7710625 
-0.06298989188927637 1:0.19116602 2:-1.706625 
-0.02258014995729574 1:0.19761133 2:-2.0180625 
-0.03286288386840661 1:0.41664844 2:-5.8334375 
-0.01951174850740384 1:0.16502344 2:-2.9746875 
-0.0200102251186014 1:0.11146289 2:-0.525625 
-0.003457339495487403 1:0.23817383 2:-3.561625 
-0.1 1:0.33487109 2:-3.044875 
-0.03414427989566216 1:0.38985547 2:-3.799625 
-0.02768387065844286 1:0.15200391 2:-2.9595625 
-0.0149185346169658 1:0.1438125 2:-0.2509375 
-0.03008544555373777 1:0.40899219 2:-5.5123125 
-0.005938537838244154 1:0.17063867 2:-3.44675 
-0.02751157132933801 1:0.12264258 2:-1.255875 
-0.02930358581757475 1:0.15552148 2:-3.5993125 
-0.01703996709101274 1:0.17507617 2:-3.894 
-0.03482663379552595 1:0.35011133 2:-4.5961875 
-0.03462268337260119 1:0.087019531 2:-2.105 
-0.08298560912969868 1:0.3175 2:-5.6600625 
-0.01271586337448705 1:0.16311719 2:-0.6065 
-0.01084882622051892 1:0.12649023 2:-0.3653125 
-0.0272845217057664 1:0.076787109 2:-1.723625 
-0.02628256488781155 1:0.33329102 2:-5.1855625 
-0.1 1:0.27666992 2:-2.86875 
-0.01610716306399534 1:0.32294922 2:-4.96825 
-0.01352627976289616 1:0.22451172 2:-4.5419375 
-0.02520593001351071 1:0.17307031 2:-2.9628125 
-0.0109302323796549 1:0.17087695 2:-3.3160625 
-0.01720565496651747 1:0.2179043 2:-4.7313125 
-0.01739886467172808 1:0.26252539 2:-4.9896875 
-0.0279436952002358 1:0.14435352 2:-2.1880625 
-0.01432313316125841 1:0.30283789 2:-5.636875 
-0.05658708989031916 1:0.27881836 2:-4.3296875 
-0.05491763186252793 1:0.2568418 2:-4.657 
-0.01064954355485343 1:0.25285937 2:-4.1435625 
-0.01282810881046542 1:0.11400195 2:-1.7169375 
-0.02354346629701506 1:0.31316406 2:-5.430125 
-0.01594916714865027 1:0.21744336 2:-4.209875 
-0.02113814111796392 1:0.29332227 2:-5.5399375 
-0.01254996060236804 1:0.28710938 2:-4.5034375 
-0.02674706462191843 1:0.31093164 2:-4.075 
-0.03448095470839235 1:0.21885156 2:-1.7906875 
-0.002711705726215485 1:0.20696875 2:-3.8543125 
-0.01686188100899233 1:0.22915234 2:-1.374375 
-0.01572612320890917 1:0.24237109 2:-4.1006875 
-0.01421690030744954 1:0.28648438 2:-5.312 
-0.01668972331780427 1:0.20046875 2:-2.5005 
-0.02666481219965063 1:0.11307227 2:-2.437125 
-0.1 1:0.20682227 2:-2.31725 
-0.03342007687949222 1:0.32123828 2:-5.983375 
-0.02566654278273078 1:0.36968945 2:-4.4983125 
-0.04594025134025057 1:0.42295508 2:-4.58325 
-0.01029600687449443 1:0.12190039 2:-2.296 
-0.0958929955252618 1:0.21053711 2:-3.5961875 
-0.009099749123998753 1:0.15940039 2:-3.1838125 
-0.003716064053862616 1:0.19083008 2:-3.947625 
-0.01817149643774069 1:0.17954883 2:-3.3505625 
-0.01496102044436146 1:0.15913672 2:-2.57275 
-0.00363849330353834 1:0.30045117 2:-5.435 
-0.01623469593830956 1:0.15181445 2:-2.9251875 
-0.005055061521359407 1:0.2065918 2:-3.79375 
-0.01132828224334837 1:0.20908984 2:-3.960375 
-0.007734723538883042 1:0.22791016 2:-4.01 
-0.03201168434944718 1:0.22935352 2:-0.6626875 
-0.02154632720760141 1:0.2140918 2:-4.74425 
-0.02114608937414881 1:0.19564844 2:-3.46 
-0.04567052942581021 1:0.36822461 2:-3.207625 
-0.02720725973732024 1:0.28174219 2:-4.3183125 
-0.02379007880314098 1:0.129375 2:-2.6505625 
-0.003057717953872877 1:0.23288086 2:-4.4238125 
-0.02670243000584188 1:0.22447461 2:-3.3846875 
-0.01497284274669908 1:0.18500391 2:-0.453625 
-0.01514668628474286 1:0.28769141 2:-4.7579375 
-0.02683507771614982 1:0.33392969 2:-4.0231875 
-0.05972980183249957 1:0.31258203 2:-4.3628125 
-0.02514899775028835 1:0.30233398 2:-5.5493125 
-0.03087784600530488 1:0.22480859 2:-2.255625 
-0.02470703544969338 1:0.15037695 2:-2.9729375 
-0.06126685945726018 1:0.1791875 2:-3.6853125 
-0.07732208585427386 1:0.29311328 2:-4.3414375 
-0.0163080620167376 1:0.21088477 2:-4.1166875 
-0.01591048811576889 1:0.32984766 2:-4.237625 
-0.008432394527634711 1:0.1979668 2:-3.116375 
-0.01834700519845062 1:0.27871484 2:-4.2055625 
-0.01269254777235116 1:0.18390234 2:-3.9641875 
-0.03822576411146714 1:0.21762695 2:-3.75125 
-0.02267105189313602 1:0.25319922 2:-3.517625 
-0.01232712204535335 1:0.2009082 2:-3.641875 
-0.007067363569641827 1:0.21120898 2:-3.8875625 
-0.05641530399849695 1:0.30993359 2:-4.1353125 
-0.01490508804434253 1:0.18870117 2:-3.0108125 
-0.01212916977185578 1:0.21255078 2:-3.1623125 
-0.02656706881713711 1:0.14204297 2:-1.8194375 
-0.03259716797538467 1:0.18168164 2:-1.866875 
-0.03935345689889044 1:0.2689082 2:-3.412375 
-0.05790025441290172 1:0.32254492 2:-3.2290625 
-0.03397126038092319 1:0.18491797 2:-1.406 
-0.1 1:0.3456543 2:-3.2239375 
-0.0199251398492763 1:0.41662305 2:-5.1686875 
-0.0006869534135303113 1:0.22197656 2:-4.3826875 
-0.04183341331372362 1:0.29437695 2:-4.4804375 
-0.009767218741347417 1:0.1853418 2:-4.0305625 
-0.02385871873580581 1:0.18165039 2:-2.6295 
-0.02134317347088599 1:0.16446875 2:-3.5409375 
-0.01366544435619283 1:0.22634375 2:-4.1656875 
-0.01338235265766036 1:0.0925 2:-0.405875 
-0.05486660574069867 1:0.22732031 2:-4.0624375 
-0.01610514469556634 1:0.1232832 2:-0.8015625 
-0.06634953776558974 1:0.39944727 2:-5.0774375 
-0.01532300223073986 1:0.18184961 2:-4.1116875 
-0.01081318217266928 1:0.15711523 2:-0.3749375 
-0.02692430540117374 1:0.10912695 2:-1.035375 
-0.01327923655972954 1:0.11013086 2:-0.2614375 
-0.02551960034790768 1:0.087923828 2:-1.8408125 
-0.009741654783249731 1:0.15147266 2:-0.878625 
-0.004938567637473502 1:0.10791797 2:-0.749875 
-0.005900757470222978 1:0.19635742 2:-4.18325 
-0.0115711197788349 1:0.24345117 2:-3.248125 
-0.02177642668931145 1:0.29109961 2:-4.8304375 
-0.01269704385150431 1:0.22264258 2:-4.520375 
-0.02750656199451551 1:0.3218125 2:-4.0596875 
-0.1 1:0.30963086 2:-2.8083125 
-0.05671363006576494 1:0.21329492 2:-2.4545 
-0.007185210220530935 1:0.19082227 2:-4.2091875 
-0.02347852793346578 1:0.26067187 2:-3.8223125 
-0.1 1:0.30717578 2:-3.554125 
-0.01679360948885802 1:0.22875781 2:-3.6044375 
-0.01497002892657334 1:0.16448242 2:-2.1161875 
-0.0247075741562346 1:0.22861523 2:-3.7775 
-0.01629884998962098 1:0.2453125 2:-4.7945625 
-0.01463910981958633 1:0.30795703 2:-6.1831875 
-0.007182962569098847 1:0.13369531 2:-2.6811875 
-0.01564327265765127 1:0.28335937 2:-5.64725 
-0.04915018356243869 1:0.36369141 2:-2.1930625 
-0.01634918342778534 1:0.28005078 2:-4.63375 
-0.02654371503846326 1:0.20133203 2:-3.4996875 
-0.03819534227258906 1:0.43435742 2:-3.4658125 
-0.02848373694006207 1:0.3395625 2:-5.95575 
-0.001697209215947183 1:0.23536914 2:-4.077375 
-0.008951947329714383 1:0.099923828 2:-0.4315 
-0.00823845470073618 1:0.28731836 2:-4.74125 
-0.02214068817447052 1:0.33361914 2:-6.093125 
-0.05994909327179603 1:0.26830078 2:-4.02525 
-0.01634470860408859 1:0.1310332 2:-3.0138125 
-0.000640424562849351 1:0.15501172 2:-2.64975 
-0.02614298267028784 1:0.17536328 2:-2.5829375 
-0.0133139858454831 1:0.32263086 2:-4.926 
-0.01781921386042334 1:0.11264453 2:-1.797 
-0.01490377161837669 1:0.23556055 2:-4.2160625 
-0.02471067550168309 1:0.33506445 2:-4.2043125 
-0.07156142703791005 1:0.29606055 2:-4.3289375 
-0.02650052887599724 1:0.37899609 2:-5.7434375 
-0.01015926576862811 1:0.28493359 2:-4.7819375 
-0.02168667087213537 1:0.30229102 2:-4.7425 
-0.01498253429260607 1:0.3560332 2:-4.8226875 
-0.01980411560480552 1:0.17530078 2:-0.9114375 
-0.02933380358951621 1:0.12721289 2:-1.0301875 
-0.01589733193866 1:0.20760742 2:-3.0956875 
-0.03421866926299874 1:0.31554102 2:-1.5011875 
-0.0220021894443761 1:0.1784082 2:-4.033125 
-0.009030013351885635 1:0.33263477 2:-5.3505 
-0.07762223101444124 1:0.24451758 2:-2.7610625 
-0.004208387155477149 1:0.19827148 2:-3.9509375 
-0.002995644814644594 1:0.21783594 2:-3.912875 
-0.01678817555249596 1:0.27491016 2:-3.939 
-0.02561575252171922 1:0.19193359 2:-1.929375 
-0.009146700356515498 1:0.16563086 2:-3.213125 
-0.01988861302232814 1:0.25304492 2:-2.577 
-0.01834017721612663 1:0.13757031 2:-0.627 
-0.03452095659735643 1:0.36097461 2:-6.4238125 
-0.01546208181131257 1:0.22646094 2:-4.0330625 
-0.03968080298308282 1:0.21192773 2:-2.841125 
-0.02929893136439538 1:0.17518555 2:-0.4829375 
-0.005285806166007562 1:0.27646094 2:-4.252875 
-0.01602497661160688 1:0.23572656 2:-3.5988125 
-0.005902645567525885 1:0.13116602 2:-0.756125 
-0.01531809164016442 1:0.32357617 2:-5.043375 
-0.01929664046132307 1:0.19793945 2:-4.1524375 
-0.02120078670190073 1:0.096822266 2:-0.44275 
-0.03781982258397461 1:0.2531543 2:-3.0548125 
-0.04249690618898341 1:0.41551562 2:-4.2259375 
-0.01959431232570038 1:0.28038086 2:-4.51125 
-0.02244991063422139 1:0.30251172 2:-3.3386875 
-0.01069532474357388 1:0.24570312 2:-4.9655625 
-0.02517940139831243 1:0.20646875 2:-2.1166875 
-0.04287074265756208 1:0.31775 2:-3.28175 
-0.03386957335617927 1:0.16332227 2:-0.216 
-0.08784814257932608 1:0.34806836 2:-4.6636875 
-0.08358612174094501 1:0.41133203 2:-3.5669375 
-0.0157131364765401 1:0.2751875 2:-4.6055625 
-0.01845874463541536 1:0.21626563 2:-3.61525 
-0.02576665155253418 1:0.2519707 2:-2.6255625 
-0.02579048134938276 1:0.14779688 2:-0.9204375 
-0.01487368043112254 1:0.20539453 2:-4.3329375 
-0.04339320874273359 1:0.22074805 2:-3.112 
-0.02392419205746837 1:0.11278516 2:-1.221 
-0.0396645219123298 1:0.40025 2:-3.6605 
-0.1 1:0.30999805 2:-3.1918125 
-0.003747217576636223 1:0.15663281 2:-3.2999375 
-0.02188719652805138 1:0.22311914 2:-3.4271875 
-0.09736854848079277 1:0.23283984 2:-3.2834375 
-0.002144313225383478 1:0.27930078 2:-5.494625 
-0.01140925359614904 1:0.32936523 2:-4.9815 
-0.02305777534741973 1:0.37499023 2:-5.383375 
-0.02818183521357177 1:0.39191602 2:-5.2935 
-0.02106437833813427 1:0.29744727 2:-5.4004375 
-0.03416170219330211 1:0.35349219 2:-6.191 
-0.09022401487942958 1:0.2585625 2:-5.0456875 
-0.03405573369929998 1:0.22933008 2:-1.4585 
-0.02396565020139307 1:0.088638672 2:-1.6873125 
-0.01976627261645353 1:0.17560742 2:-3.198875 
-0.01118104876904118 1:0.12346875 2:-2.673375 
-0.02251460253554178 1:0.17061133 2:-0.6801875 
-0.03466738057177923 1:0.067253906 2:-1.4940625 
-0.02950038679102551 1:0.21780273 2:-2.6044375 
-0.01906845840128607 1:0.27081641 2:-5.5245 
-0.01586334938462693 1:0.20986328 2:-4.2008125 
-0.009382678528525101 1:0.26298828 2:-4.5124375 
-0.03039733170476616 1:0.20324609 2:-0.926125 
-0.02058295057138304 1:0.20483008 2:-3.5805 
-0.01990123453702274 1:0.27406641 2:-5.22475 
-0.02448382622291436 1:0.11625781 2:-1.134125 
-0.1 1:0.36966211 2:-4.90725 
-0.008022121626536094 1:0.20766602 2:-4.0169375 
-0.01749382835733302 1:0.22686523 2:-4.147 
-0.0105357544032227 1:0.21442773 2:-3.6674375 
-0.001145924094898308 1:0.21031055 2:-4.0326875 
-0.02111505121671969 1:0.30128711 2:-4.9530625 
-0.01904560433883085 1:0.28336523 2:-4.2206875 
-0.05190131434382317 1:0.38156445 2:-5.0653125 
-0.01685731202319558 1:0.1959375 2:-2.11625 
-0.009946356273564216 1:0.20524219 2:-0.7213125 
-0.02812775990442389 1:0.092617187 2:-0.48525 
-0.008099989192694546 1:0.22960742 2:-4.8444375 
-0.01639413764581849 1:0.25723828 2:-4.764 
-0.01414800229267931 1:0.2174043 2:-3.4804375 
-0.003969605026026713 1:0.30507812 2:-4.618125 
-0.1 1:0.18969141 2:-2.3571875 
-0.01317875139920816 1:0.1735625 2:-0.5236875 
-0.01234197766313988 1:0.1275957 2:-0.4744375 
-0.01616496960846835 1:0.2056543 2:-2.8788125 
-0.02420459562445315 1:0.35855859 2:-5.03625 
-0.01997170298038796 1:0.22826562 2:-4.2855625 
-0.02383909319527094 1:0.15241797 2:-2.6614375 
-0.0290940076847378 1:0.1775332 2:-4.1705625 
-0.02320401513295905 1:0.28607422 2:-5.5879375 
-0.0263487339778834 1:0.22024414 2:-0.4883125 
-0.003876869976837019 1:0.30623242 2:-5.047625 
-0.01294727550084163 1:0.14513867 2:-3.324375 
-0.01539041826143694 1:0.24138477 2:-4.280625 
-0.02129611198702147 1:0.38578516 2:-5.4433125 
-0.0221409301034066 1:0.10131836 2:-0.49875 
-0.1 1:0.24329297 2:-3.091 
-0.02192609506165957 1:0.16263672 2:-3.347625 
-0.02038500673968869 1:0.19273242 2:-3.776 
-0.02220154668195472 1:0.27161133 2:-4.981 
-0.01239724470236181 1:0.21938672 2:-3.08825 
-0.02398790365540094 1:0.24838867 2:-5.320625 
-0.00214684026950962 1:0.10144727 2:-0.3619375 
-0.02070725193572492 1:0.25118164 2:-5.15825 
-0.02561135979042212 1:0.2875332 2:-5.1054375 
-0.0174029796139891 1:0.23006445 2:-4.1926875 
-0.01975236318221307 1:0.11148242 2:-0.46475 
-0.1 1:0.25584961 2:-3.3073125 
-0.01126531077938553 1:0.23656641 2:-5.13225 
-0.03239407737697847 1:0.32301953 2:-5.892625 
-0.02897843251971672 1:0.15826172 2:-0.267 
-0.006201677399895633 1:0.15099805 2:-3.0730625 
-0.0272991070081493 1:0.22549609 2:-5.097125 
-0.01484432726919705 1:0.34343359 2:-4.500875 
-0.02835115540547276 1:0.21135742 2:-2.489 
-0.01411300637439099 1:0.19598633 2:-3.6105625 
-0.02721396318520829 1:0.31034766 2:-5.7493125 
-0.02977447958240703 1:0.26342773 2:-5.2706875 
-0.00726104951345736 1:0.17764258 2:-3.615625 
-0.0158966352809376 1:0.31408984 2:-5.2239375 
-0.03045434005533545 1:0.33156641 2:-3.792 
-0.01824448330264184 1:0.28028516 2:-4.858875 
-0.03574828620192752 1:0.25841797 2:-3.5398125 
-0.03246361374175796 1:0.27103711 2:-3.3648125 
-0.01736412154008461 1:0.26123828 2:-4.1660625 
-0.02959011662138991 1:0.29650781 2:-3.8868125 
-0.02383756941830939 1:0.13772852 2:-3.0235 
-0.006829293999678313 1:0.14902539 2:-3.169875 
-0.00666083558730196 1:0.2605957 2:-4.3708125 
-0.003073310146368628 1:0.20834961 2:-4.2320625 
-0.04136494955920397 1:0.31878516 2:-2.9740625 
-0.01278539865190031 1:0.29970312 2:-5.043875 
-0.0007788216907242407 1:0.27972656 2:-5.766375 
-0.01083256423134482 1:0.27471094 2:-5.619875 
-0.00501985693222087 1:0.19175 2:-3.8348125 
-0.06213504370309789 1:0.11845703 2:-2.042875 
-0.02652231012466377 1:0.34806445 2:-5.270625 
-0.006910380917082493 1:0.09196875 2:-0.3166875 
-0.04613503702422009 1:0.27779687 2:-2.887375 
-0.01512219604952897 1:0.2800918 2:-3.8188125 
-0.02919364183495057 1:0.338125 2:-5.053 
-0.03396033572540588 1:0.2627793 2:-5.64825 
-0.02098024832802856 1:0.21100977 2:-3.42 
-0.03456289146101954 1:0.28213672 2:-5.9331875 
-0.01171890004260181 1:0.27674609 2:-4.354375 
-0.008821828015266136 1:0.14464258 2:-3.03075 
-0.009917227471384989 1:0.10781641 2:-0.6705 
-0.02006152878957982 1:0.15448633 2:-3.7628125 
-0.02960266949061874 1:0.17179883 2:-4.12625 
-0.06763639387735605 1:0.26776367 2:-4.0185625 
-0.03316483872193909 1:0.29976758 2:-5.8829375 
-0.01019960002294398 1:0.1854707 2:-3.49675 
-0.04743297749043437 1:0.36882813 2:-4.353 
-0.03082109134050709 1:0.28936719 2:-4.1814375 
-0.01112560426682174 1:0.14062305 2:-2.6523125 
-0.002991733053786473 1:0.16208008 2:-2.296625 
-0.02106650523670754 1:0.1466582 2:-0.7234375 
-0.04647710434536464 1:0.26273438 2:-3.28225 
-0.01496869305494447 1:0.20027539 2:-3.534375 
-0.008011708230733574 1:0.13016797 2:-0.4386875 
-0.02063455189143498 1:0.18399219 2:-0.6701875 
-0.01415905386931514 1:0.094929688 2:-0.6895 
-0.03190687739422388 1:0.38566406 2:-5.403625 
-0.004551276293555208 1:0.25940625 2:-5.0618125 
-0.03469290042550813 1:0.23073047 2:-1.6185625 
-0.0308947167547925 1:0.35150195 2:-5.98175 
-0.03454779125674914 1:0.28249414 2:-2.825 
-0.01056133622264681 1:0.17773633 2:-3.628625 
-0.0154635202056535 1:0.11537109 2:-0.386 
-0.003789224713597878 1:0.16565625 2:-3.267125 
-0.1 1:0.21010352 2:-2.54275 
-0.005900134141483855 1:0.35218555 2:-4.829875 
-0.004311626659991755 1:0.41218555 2:-5.1688125 
-0.03375584589507521 1:0.26740625 2:-0.86625 
-0.01575759776489245 1:0.18196484 2:-0.68075 
-0.01507146127679445 1:0.16383984 2:-2.9104375 
-0.03021363990564566 1:0.12416602 2:-2.0903125 
-0.03454784833291724 1:0.44727148 2:-5.6630625 
-0.02416432187334244 1:0.18999219 2:-2.8030625 
-0.02637264721563659 1:0.1929668 2:-3.8806875 
-0.01152328166343598 1:0.10736719 2:-0.22725 
-0.02413314857358054 1:0.28100586 2:-4.2859375 
-0.02021205539085308 1:0.14083398 2:-3.0911875 
-0.1 1:0.30339062 2:-3.2913125 
-0.01439620184467031 1:0.18857422 2:-0.419 
-0.01158190729938262 1:0.2190332 2:-3.64075 
-0.00625316861355166 1:0.15137891 2:-3.006625 
-0.04165657441925127 1:0.24798438 2:-1.645375 
-0.01867782383612197 1:0.12719922 2:-1.6950625 
-0.01900240729369485 1:0.2899082 2:-4.8065 
-0.02135416426041931 1:0.13055664 2:-2.9695625 
-0.01500438711100882 1:0.27118945 2:-5.1365625 
-0.01735564028102041 1:0.34810156 2:-5.0919375 
-0.020422746688906 1:0.23851953 2:-4.312625 
-0.1 1:0.31481055 2:-3.7885625 
-0.04419330134399183 1:0.36631055 2:-4.4484375 
-0.01472563408482835 1:0.33769336 2:-4.283375 
-0.0282356098302281 1:0.2675293 2:-3.2640625 
-0.03459137294075521 1:0.23831445 2:-5.6046875 
-0.01540692298726909 1:0.31895703 2:-3.3794375 
-0.02156167913108582 1:0.38501367 2:-5.7355 
-0.03888842616458178 1:0.17897656 2:-3.216625 
-0.007638771474525082 1:0.18764453 2:-4.048125 
-0.03292427429058625 1:0.41186133 2:-5.304625 
-0.001427399595870692 1:0.16704688 2:-3.42775 
-0.008112400774888562 1:0.27235742 2:-4.1454375 
-0.02350427952654349 1:0.16263086 2:-2.6108125 
-0.02153333061768647 1:0.273875 2:-5.762125 
-0.02439652293275274 1:0.36937305 2:-4.2505625 
-0.005025648802626554 1:0.11573047 2:-0.8244375 
-0.02177840510176358 1:0.26068359 2:-4.4959375 
-0.02993298077069215 1:0.14504883 2:-2.4418125 
-0.06002117060046588 1:0.2912832 2:-3.3300625 
-0.1 1:0.34373047 2:-3.911375 
-0.02119888894172792 1:0.34071094 2:-6.2910625 
-0.03263609727638986 1:0.32033984 2:-3.4545625 
-0.02349809879912729 1:0.30007813 2:-4.4925625 
-0.01811106022022171 1:0.16587109 2:-3.019 
