svm_type c_svc
kernel_type rbf
gamma 1000
nr_class 2
total_sv 3272
rho 0.88197
label 1 -1
nr_sv 1029 2243
SV
0.1 1:0.35426563 2:-2.5839375 
0.1 1:0.31485156 2:-4.1795 
0.1 1:0.44792773 2:-5.903 
0.1 1:0.31222266 2:-1.824 
0.1 1:0.43521875 2:-2.7759375 
0.1 1:0.33414648 2:-4.8459375 
0.1 1:0.36563477 2:-3.1015 
0.1 1:0.30070898 2:-1.913875 
0.1 1:0.40568945 2:-3.4481875 
0.1 1:0.44328906 2:-1.86225 
0.1 1:0.36703125 2:-4.044 
0.1 1:0.46808789 2:-4.909125 
0.1 1:0.19886328 2:-2.5488125 
0.1 1:0.43008203 2:-2.4576875 
0.1 1:0.33814844 2:-3.5335 
0.1 1:0.40191016 2:-2.013375 
0.1 1:0.44185156 2:-3.6235 
0.1 1:0.33051172 2:-3.44125 
0.1 1:0.52735156 2:-4.2251875 
0.1 1:0.57983398 2:-1.5735625 
0.1 1:0.52532227 2:-2.8126875 
0.1 1:0.41318555 2:-4.2830625 
0.1 1:0.31275195 2:-2.2413125 
0.1 1:0.3864375 2:-1.5735 
0.1 1:0.26388086 2:-2.4286875 
0.1 1:0.28090234 2:-3.5523125 
0.1 1:0.39734961 2:-4.196375 
0.1 1:0.29695898 2:-1.7955625 
0.1 1:0.48227734 2:-4.33475 
0.1 1:0.34985352 2:-2.4348125 
0.1 1:0.26370703 2:-1.8264375 
0.1 1:0.32032812 2:-4.418125 
0.1 1:0.42530273 2:-3.6656875 
0.1 1:0.31682031 2:-3.3043125 
0.1 1:0.28343945 2:-1.48925 
0.1 1:0.26692383 2:-3.2095 
0.1 1:0.23373633 2:-3.3294375 
0.1 1:0.37326563 2:-4.7308125 
0.1 1:0.30439258 2:-3.55325 
0.1 1:0.44560547 2:-3.518625 
0.1 1:0.31361914 2:-3.78425 
0.1 1:0.31888086 2:-3.5965625 
0.1 1:0.3094082 2:-3.7965 
0.1 1:0.43852344 2:-2.296 
0.1 1:0.42518555 2:-2.9306875 
0.1 1:0.29705078 2:-1.08675 
0.1 1:0.32204492 2:-2.8611875 
0.1 1:0.24535742 2:-3.0871875 
0.1 1:0.5284082 2:-3.2651875 
0.1 1:0.40404883 2:-2.433875 
0.1 1:0.45625781 2:-3.9156875 
0.1 1:0.36358984 2:-4.906375 
0.1 1:0.29741211 2:-2.8059375 
0.1 1:0.42250391 2:-2.2156875 
0.1 1:0.27155469 2:-3.040875 
0.1 1:0.353 2:-2.7285 
0.1 1:0.27570508 2:-1.7501875 
0.1 1:0.24961133 2:-3.538375 
0.1 1:0.37240234 2:-3.902125 
0.1 1:0.32287109 2:-2.40375 
0.1 1:0.49133984 2:-4.1626875 
0.1 1:0.37255469 2:-4.3179375 
0.1 1:0.35675586 2:-2.232875 
0.1 1:0.28163281 2:-3.179375 
0.1 1:0.13879883 2:-1.968 
0.1 1:0.31175195 2:-2.6984375 
0.1 1:0.28905078 2:-3.00425 
0.1 1:0.32141992 2:-2.232125 
0.1 1:0.28694336 2:-2.7929375 
0.1 1:0.36987109 2:-1.69375 
0.1 1:0.21975195 2:-2.9699375 
0.1 1:0.28090625 2:-1.948125 
0.1 1:0.26130078 2:-1.77575 
0.1 1:0.21552148 2:-3.5938125 
0.1 1:0.27617578 2:-2.6374375 
0.1 1:0.43748438 2:-3.083 
0.1 1:0.30421484 2:-4.210125 
0.1 1:0.40333008 2:-3.0384375 
0.1 1:0.38451172 2:-3.2376875 
0.1 1:0.3836875 2:-4.3201875 
0.1 1:0.44529687 2:-1.3795 
0.1 1:0.27574414 2:-3.3558125 
0.1 1:0.22000586 2:-2.8480625 
0.1 1:0.30707031 2:-1.776375 
0.1 1:0.43819336 2:-6.483 
0.1 1:0.26060352 2:-0.900625 
0.1 1:0.42405469 2:-2.2151875 
0.1 1:0.46410742 2:-4.8941875 
0.1 1:0.40474805 2:-2.588125 
0.1 1:0.44528125 2:-3.1585 
0.1 1:0.3564043 2:-3.6638125 
0.1 1:0.2820918 2:-3.37775 
0.1 1:0.41963086 2:-2.7916875 
0.1 1:0.40037109 2:-2.6249375 
0.1 1:0.52864844 2:-2.0689375 
0.1 1:0.44145898 2:-2.5428125 
0.1 1:0.29837891 2:-1.868375 
0.1 1:0.47380469 2:-2.396625 
0.1 1:0.36859766 2:-2.314875 
0.1 1:0.22961328 2:-4.3941875 
0.1 1:0.3658125 2:-1.961625 
0.1 1:0.45989258 2:-2.8385625 
0.1 1:0.37021289 2:-3.356375 
0.1 1:0.30149805 2:-3.2504375 
0.1 1:0.47623633 2:-4.3488125 
0.1 1:0.2397168 2:-3.8524375 
0.1 1:0.30577734 2:-2.7071875 
0.1 1:0.41735742 2:-1.526375 
0.1 1:0.25164063 2:-3.43575 
0.1 1:0.23039844 2:-3.1139375 
0.1 1:0.38302539 2:-3.317625 
0.1 1:0.23283398 2:-2.39575 
0.1 1:0.38957813 2:-2.6315 
0.1 1:0.28387695 2:-3.0823125 
0.1 1:0.30874805 2:-3.3035 
0.1 1:0.27220703 2:-1.8994375 
0.1 1:0.30418555 2:-2.98925 
0.1 1:0.31301172 2:-2.7151875 
0.1 1:0.25761328 2:-2.3586875 
0.1 1:0.35025195 2:-4.0530625 
0.1 1:0.38197852 2:-3.4344375 
0.1 1:0.41479102 2:-3.7660625 
0.1 1:0.5994668 2:-2.6765 
0.1 1:0.34419531 2:-1.66775 
0.1 1:0.31220117 2:-1.354625 
0.1 1:0.42469531 2:-1.8178125 
0.1 1:0.27364648 2:-2.1978125 
0.1 1:0.41775391 2:-2.2223125 
0.1 1:0.28891602 2:-1.8748125 
0.1 1:0.28618945 2:-3.7015625 
0.1 1:0.35210742 2:-4.3413125 
0.1 1:0.42413672 2:-4.6000625 
0.1 1:0.47471289 2:-1.781 
0.1 1:0.47286914 2:-4.1599375 
0.1 1:0.33467969 2:-3.48525 
0.1 1:0.29420313 2:-1.9199375 
0.1 1:0.32941602 2:-2.3140625 
0.1 1:0.26806055 2:-2.1526875 
0.1 1:0.23377734 2:-4.336375 
0.1 1:0.42361328 2:-2.841875 
0.1 1:0.49850195 2:-4.2493125 
0.1 1:0.43533203 2:-3.6585 
0.1 1:0.28570312 2:-1.774 
0.1 1:0.30768945 2:-2.5954375 
0.1 1:0.35733008 2:-2.4945 
0.1 1:0.34141797 2:-2.0791875 
0.1 1:0.41103125 2:-1.5165625 
0.1 1:0.28870508 2:-4.330625 
0.1 1:0.4467832 2:-4.06625 
0.1 1:0.21630273 2:-1.4938125 
0.1 1:0.47980859 2:-3.3043125 
0.1 1:0.27822461 2:-1.836375 
0.1 1:0.40448242 2:-3.771 
0.1 1:0.28180078 2:-2.841625 
0.1 1:0.36006641 2:-3.2760625 
0.1 1:0.43040625 2:-3.1189375 
0.1 1:0.47037109 2:-1.6984375 
0.1 1:0.3309082 2:-3.58025 
0.1 1:0.34324414 2:-3.4438125 
0.1 1:0.35320508 2:-2.8369375 
0.1 1:0.25422266 2:-2.438875 
0.1 1:0.29781641 2:-4.276625 
0.1 1:0.25343945 2:-3.0164375 
0.1 1:0.39830078 2:-2.392625 
0.1 1:0.25568945 2:-2.894875 
0.1 1:0.3295625 2:-2.4216875 
0.1 1:0.35071875 2:-2.1446875 
0.1 1:0.40182227 2:-3.1219375 
0.1 1:0.36638086 2:-3.2388125 
0.1 1:0.49741406 2:-2.678875 
0.1 1:0.1862207 2:-1.8210625 
0.1 1:0.42175977 2:-1.934 
0.1 1:0.35908984 2:-2.934875 
0.1 1:0.32569141 2:-1.9805 
0.1 1:0.43593359 2:-4.35875 
0.1 1:0.40689063 2:-2.2748125 
0.1 1:0.31341016 2:-3.07175 
0.1 1:0.31198242 2:-2.8375 
0.1 1:0.21165039 2:-2.319875 
0.1 1:0.26153125 2:-3.40475 
0.1 1:0.41381055 2:-3.4913125 
0.1 1:0.4121875 2:-4.211 
0.1 1:0.49688477 2:-3.0741875 
0.1 1:0.32065234 2:-3.4786875 
0.1 1:0.2388457 2:-2.1976875 
0.1 1:0.44060156 2:-1.6279375 
0.1 1:0.54976758 2:-0.798875 
0.1 1:0.471 2:-3.108 
0.1 1:0.31622266 2:-2.7886875 
0.1 1:0.27683008 2:-2.153625 
0.1 1:0.28736133 2:-3.1313125 
0.1 1:0.42260938 2:-4.761125 
0.1 1:0.36126172 2:-3.423875 
0.1 1:0.33469531 2:-2.93075 
0.1 1:0.34409766 2:-1.65875 
0.1 1:0.50226563 2:-3.4804375 
0.1 1:0.30507812 2:-4.5428125 
0.1 1:0.31803516 2:-0.858 
0.1 1:0.41204297 2:-4.5963125 
0.1 1:0.39082422 2:-2.3981875 
0.1 1:0.40037695 2:-1.956125 
0.1 1:0.46874414 2:-2.178875 
0.1 1:0.34614648 2:-2.4749375 
0.1 1:0.32977539 2:-2.2985625 
0.1 1:0.27693164 2:-3.3294375 
0.1 1:0.33716992 2:-1.6179375 
0.1 1:0.41480664 2:-3.7495625 
0.1 1:0.45814258 2:-3.6809375 
0.1 1:0.33288867 2:-4.261125 
0.1 1:0.396875 2:-1.6061875 
0.1 1:0.38888086 2:-2.0305 
0.1 1:0.29919727 2:-3.645375 
0.1 1:0.25426758 2:-5.0411875 
0.1 1:0.35462891 2:-3.405125 
0.1 1:0.41361328 2:-2.1330625 
0.1 1:0.31141211 2:-1.650875 
0.1 1:0.3027832 2:-1.9758125 
0.1 1:0.3974043 2:-3.18575 
0.1 1:0.38278711 2:-1.911375 
0.1 1:0.4747207 2:-3.821125 
0.1 1:0.4799043 2:-2.1899375 
0.1 1:0.28378711 2:-2.2425 
0.1 1:0.31833008 2:-2.2700625 
0.1 1:0.1554707 2:-1.6245625 
0.1 1:0.25310938 2:-3.3103125 
0.1 1:0.52820117 2:-3.1533125 
0.1 1:0.41648047 2:-2.96775 
0.1 1:0.20988281 2:-2.778625 
0.1 1:0.31999023 2:-3.4375 
0.1 1:0.36656836 2:-4.133375 
0.1 1:0.24601367 2:-2.191 
0.1 1:0.26878906 2:-2.6270625 
0.1 1:0.42437891 2:-2.695125 
0.1 1:0.21206055 2:-1.68725 
0.1 1:0.19851367 2:-2.452625 
0.1 1:0.53860547 2:-3.504 
0.1 1:0.25717773 2:-2.1083125 
0.1 1:0.28279492 2:-1.9401875 
0.1 1:0.29102539 2:-2.3373125 
0.1 1:0.35217578 2:-2.085125 
0.1 1:0.36882227 2:-3.3408125 
0.1 1:0.28082617 2:-2.2118125 
0.1 1:0.53497656 2:-4.1345 
0.1 1:0.39329102 2:-2.96975 
0.1 1:0.3324668 2:-3.562 
0.1 1:0.34706836 2:-4.571625 
0.1 1:0.29725586 2:-4.34775 
0.1 1:0.33210742 2:-3.9484375 
0.1 1:0.2812207 2:-2.873125 
0.1 1:0.34103711 2:-3.227875 
0.1 1:0.38675977 2:-4.5975 
0.1 1:0.38722266 2:-1.817375 
0.1 1:0.33739062 2:-3.35425 
0.1 1:0.36936914 2:-3.5874375 
0.1 1:0.29655078 2:-0.9794375 
0.1 1:0.30292383 2:-2.5051875 
0.1 1:0.46608398 2:-2.914875 
0.1 1:0.35253516 2:-3.5119375 
0.1 1:0.43983398 2:-1.9830625 
0.1 1:0.4512207 2:-2.2161875 
0.1 1:0.39942773 2:-6.0199375 
0.1 1:0.29473242 2:-3.053 
0.1 1:0.26952148 2:-1.5008125 
0.1 1:0.41796875 2:-3.0170625 
0.1 1:0.28428125 2:-3.5425 
0.1 1:0.34071484 2:-2.841 
0.1 1:0.32543164 2:-5.8575625 
0.1 1:0.50798047 2:-2.635 
0.1 1:0.4534043 2:-3.5765625 
0.1 1:0.43707422 2:-3.3401875 
0.1 1:0.31138867 2:-2.953875 
0.1 1:0.53006445 2:-2.718375 
0.1 1:0.34167578 2:-2.6451875 
0.1 1:0.22896484 2:-3.422125 
0.1 1:0.39248828 2:-3.027875 
0.1 1:0.32132422 2:-3.2509375 
0.1 1:0.35734766 2:-2.7428125 
0.1 1:0.43245703 2:-6.32425 
0.1 1:0.32937891 2:-1.713375 
0.1 1:0.48700977 2:-3.3898125 
0.1 1:0.40140625 2:-4.0538125 
0.1 1:0.37868555 2:-2.908625 
0.1 1:0.43280273 2:-3.691 
0.1 1:0.3046875 2:-2.61025 
0.1 1:0.26113086 2:-1.6146875 
0.1 1:0.41257227 2:-1.71725 
0.1 1:0.4820332 2:-1.2183125 
0.1 1:0.33625781 2:-1.9894375 
0.1 1:0.34912305 2:-3.1158125 
0.1 1:0.43186914 2:-3.553875 
0.1 1:0.33468945 2:-3.2365 
0.1 1:0.33677148 2:-2.777375 
0.1 1:0.35870508 2:-2.239875 
0.1 1:0.42836523 2:-3.6604375 
0.1 1:0.50765234 2:-2.22525 
0.1 1:0.32062109 2:-1.7270625 
0.1 1:0.2154375 2:-2.541125 
0.1 1:0.18329492 2:-3.2108125 
0.1 1:0.24726953 2:-1.332625 
0.1 1:0.4947168 2:-2.6748125 
0.1 1:0.4695332 2:-3.23875 
0.1 1:0.29637891 2:-4.25375 
0.1 1:0.21661914 2:-2.7246875 
0.1 1:0.12336719 2:-2.2634375 
0.1 1:0.33362305 2:-3.660375 
0.1 1:0.35455273 2:-2.265 
0.1 1:0.34693359 2:-2.9148125 
0.1 1:0.27299023 2:-1.2601875 
0.1 1:0.45117969 2:-3.092 
0.1 1:0.23957617 2:-2.785375 
0.1 1:0.26847266 2:-2.5329375 
0.1 1:0.39766406 2:-3.1635625 
0.1 1:0.37676367 2:-5.549 
0.1 1:0.35231641 2:-2.5646875 
0.1 1:0.3650957 2:-2.9554375 
0.1 1:0.33859375 2:-2.1930625 
0.1 1:0.47977344 2:-3.13125 
0.1 1:0.21245312 2:-2.58725 
0.1 1:0.41161914 2:-3.4816875 
0.1 1:0.27792773 2:-1.9775625 
0.1 1:0.45810547 2:-2.725875 
0.1 1:0.47233984 2:-3.6100625 
0.1 1:0.45632617 2:-2.167125 
0.1 1:0.31274219 2:-3.13875 
0.1 1:0.29299805 2:-3.0075 
0.1 1:0.28037109 2:-3.8800625 
0.1 1:0.43209766 2:-2.5886875 
0.1 1:0.30773633 2:-3.180875 
0.1 1:0.34639453 2:-3.306375 
0.1 1:0.31989258 2:-1.6335625 
0.1 1:0.26541797 2:-2.87675 
0.1 1:0.44179297 2:-1.180625 
0.1 1:0.46189453 2:-3.329875 
0.1 1:0.27998633 2:-3.1631875 
0.1 1:0.32643555 2:-3.9843125 
0.1 1:0.31866406 2:-3.081875 
0.1 1:0.41975977 2:-3.188 
0.1 1:0.55075 2:-2.677 
0.1 1:0.30670117 2:-1.691 
0.1 1:0.30921484 2:-2.1234375 
0.1 1:0.25153516 2:-2.034125 
0.1 1:0.40276563 2:-3.0210625 
0.1 1:0.17680469 2:-0.7626875 
0.1 1:0.49497656 2:-2.2388125 
0.1 1:0.38853906 2:-2.2880625 
0.1 1:0.33449023 2:-3.8235625 
0.1 1:0.28953516 2:-4.65275 
0.1 1:0.47945508 2:-4.4569375 
0.1 1:0.26034961 2:-2.928375 
0.1 1:0.39324414 2:-2.4733125 
0.1 1:0.32907812 2:-1.86675 
0.1 1:0.42245117 2:-2.2446875 
0.1 1:0.21296484 2:-1.6684375 
0.1 1:0.38128516 2:-2.86675 
0.1 1:0.65594141 2:-2.2291875 
0.1 1:0.38256445 2:-3.61 
0.1 1:0.32638281 2:-2.101875 
0.1 1:0.22754492 2:-2.5660625 
0.1 1:0.42498437 2:-3.7625625 
0.1 1:0.42745117 2:-4.3916875 
0.1 1:0.23607031 2:-2.3098125 
0.1 1:0.24449219 2:-1.5425 
0.1 1:0.2688418 2:-2.9066875 
0.1 1:0.40131641 2:-2.6543125 
0.1 1:0.3195957 2:-4.8738125 
0.1 1:0.31277148 2:-4.653625 
0.1 1:0.39503906 2:-4.05675 
0.1 1:0.48751172 2:-4.2118125 
0.1 1:0.37757422 2:-4.804125 
0.1 1:0.31919531 2:-2.3588125 
0.1 1:0.36720898 2:-2.2955 
0.1 1:0.33430664 2:-3.9859375 
0.1 1:0.43799805 2:-3.4333125 
0.1 1:0.38616211 2:-2.294875 
0.1 1:0.27026563 2:-4.021375 
0.1 1:0.2208125 2:-2.5071875 
0.1 1:0.38279883 2:-3.2830625 
0.1 1:0.51370117 2:-4.112625 
0.1 1:0.27545312 2:-2.4158125 
0.1 1:0.3394668 2:-2.1010625 
0.1 1:0.45438281 2:-2.711625 
0.1 1:0.39511719 2:-3.599125 
0.1 1:0.30499609 2:-2.81075 
0.1 1:0.21819531 2:-2.891375 
0.1 1:0.20806445 2:-2.2381875 
0.1 1:0.20659375 2:-1.3813125 
0.1 1:0.38234766 2:-2.281625 
0.1 1:0.24583008 2:-2.7515625 
0.1 1:0.32582227 2:-3.9795 
0.1 1:0.372 2:-1.93875 
0.1 1:0.20203516 2:-1.9925 
0.1 1:0.36937305 2:-4.2165 
0.1 1:0.47594336 2:-2.7745 
0.1 1:0.29399805 2:-3.1081875 
0.1 1:0.46006445 2:-4.03125 
0.1 1:0.37178516 2:-3.7303125 
0.1 1:0.50880273 2:-2.163 
0.1 1:0.44555664 2:-2.8524375 
0.1 1:0.54077734 2:-2.5634375 
0.1 1:0.4079668 2:-3.6353125 
0.1 1:0.50034766 2:-1.9210625 
0.1 1:0.44346484 2:-2.4981875 
0.1 1:0.37596094 2:-4.226625 
0.1 1:0.3889375 2:-3.2738125 
0.1 1:0.49410352 2:-1.903625 
0.1 1:0.24187695 2:-2.55675 
0.1 1:0.35352734 2:-2.3345625 
0.1 1:0.55480078 2:-3.3968125 
0.1 1:0.35098438 2:-2.575 
0.1 1:0.4058418 2:-3.4255 
0.1 1:0.38668359 2:-2.8516875 
0.1 1:0.49108398 2:-1.9874375 
0.1 1:0.32245703 2:-3.907375 
0.1 1:0.37638477 2:-4.545875 
0.1 1:0.45166016 2:-4.38775 
0.1 1:0.34657227 2:-2.2581875 
0.1 1:0.34296484 2:-2.37725 
0.1 1:0.35101172 2:-3.5235 
0.1 1:0.35805469 2:-1.609 
0.1 1:0.22850586 2:-1.869875 
0.1 1:0.21723047 2:-2.405125 
0.1 1:0.43607617 2:-2.363125 
0.1 1:0.38885547 2:-2.417625 
0.1 1:0.34212109 2:-3.7601875 
0.1 1:0.29395313 2:-2.5784375 
0.1 1:0.40707813 2:-1.1791875 
0.1 1:0.52543945 2:-1.5133125 
0.1 1:0.32251953 2:-3.13 
0.1 1:0.43258789 2:-3.1353125 
0.1 1:0.1994082 2:-2.0345625 
0.1 1:0.31988281 2:-3.0180625 
0.1 1:0.21825195 2:-3.4581875 
0.1 1:0.39460156 2:-2.5830625 
0.1 1:0.22852344 2:-2.6631875 
0.1 1:0.36414062 2:-3.597 
0.1 1:0.22520898 2:-3.5239375 
0.1 1:0.24608203 2:-2.3425625 
0.1 1:0.37298047 2:-3.0148125 
0.1 1:0.2394668 2:-3.7249375 
0.1 1:0.34951953 2:-2.8583125 
0.1 1:0.48591406 2:-2.752 
0.1 1:0.38224414 2:-3.084 
0.1 1:0.49887891 2:-3.0599375 
0.1 1:0.14666406 2:-2.631125 
0.1 1:0.39028711 2:-2.472 
0.1 1:0.4392168 2:-2.4121875 
0.1 1:0.40580078 2:-3.350125 
0.1 1:0.45176563 2:-4.928 
0.1 1:0.39445898 2:-3.74275 
0.1 1:0.28313086 2:-3.6645625 
0.1 1:0.36394531 2:-1.63875 
0.1 1:0.17598242 2:-3.369 
0.1 1:0.22599414 2:-1.5581875 
0.1 1:0.33358203 2:-3.0415 
0.1 1:0.43727148 2:-4.1584375 
0.1 1:0.59758984 2:-2.2580625 
0.1 1:0.36124023 2:-3.3540625 
0.1 1:0.27303906 2:-3.471875 
0.1 1:0.26932422 2:-1.75025 
0.1 1:0.57900781 2:-2.849625 
0.1 1:0.47981836 2:-2.9349375 
0.1 1:0.36764844 2:-3.4171875 
0.1 1:0.31925977 2:-1.5941875 
0.1 1:0.30875 2:-3.484375 
0.1 1:0.5178125 2:-2.3533125 
0.1 1:0.32730664 2:-4.8165625 
0.1 1:0.35352148 2:-1.8081875 
0.1 1:0.24733789 2:-3.4609375 
0.1 1:0.40021875 2:-3.975125 
0.1 1:0.37261328 2:-4.8285 
0.1 1:0.43825586 2:-2.51575 
0.1 1:0.27773047 2:-3.5765625 
0.1 1:0.59253906 2:-2.77375 
0.1 1:0.33942383 2:-2.816875 
0.1 1:0.31139258 2:-3.1750625 
0.1 1:0.37058984 2:-3.2365 
0.1 1:0.24508984 2:-1.8170625 
0.1 1:0.42325586 2:-2.9004375 
0.1 1:0.47564063 2:-3.4048125 
0.1 1:0.51979883 2:-1.8845625 
0.1 1:0.29110156 2:-2.9788125 
0.1 1:0.30535547 2:-3.164875 
0.1 1:0.34235156 2:-2.1496875 
0.1 1:0.37282227 2:-1.704 
0.1 1:0.32889453 2:-3.90775 
0.1 1:0.47751758 2:-4.1559375 
0.1 1:0.33810352 2:-4.35 
0.1 1:0.27175977 2:-2.2280625 
0.1 1:0.21700781 2:-2.3581875 
0.1 1:0.35253906 2:-2.61525 
0.1 1:0.50605664 2:-2.7380625 
0.1 1:0.34263672 2:-3.112 
0.1 1:0.3078125 2:-3.290375 
0.1 1:0.33263867 2:-3.347125 
0.1 1:0.28710156 2:-3.6726875 
0.1 1:0.3315957 2:-3.4609375 
0.1 1:0.38176172 2:-3.197125 
0.1 1:0.25664063 2:-5.19725 
0.1 1:0.43264453 2:-2.5055 
0.1 1:0.43075781 2:-3.5646875 
0.1 1:0.41676953 2:-3.57375 
0.1 1:0.4081582 2:-2.5755 
0.1 1:0.28036523 2:-3.41475 
0.1 1:0.33024219 2:-3.121625 
0.1 1:0.38156055 2:-2.6869375 
0.1 1:0.32529102 2:-3.8465 
0.1 1:0.39798828 2:-2.7364375 
0.1 1:0.25358594 2:-0.9501875 
0.1 1:0.29425977 2:-3.531625 
0.1 1:0.30219531 2:-2.524375 
0.1 1:0.2248125 2:-1.0631875 
0.1 1:0.31162891 2:-3.9908125 
0.1 1:0.43889844 2:-2.67725 
0.1 1:0.42935742 2:-3.0300625 
0.1 1:0.34070508 2:-1.944125 
0.1 1:0.21323437 2:-1.5406875 
0.1 1:0.28627148 2:-1.2314375 
0.1 1:0.32716602 2:-2.767 
0.1 1:0.20561914 2:-2.3905625 
0.1 1:0.39997852 2:-2.023 
0.1 1:0.47799219 2:-2.5883125 
0.1 1:0.46813867 2:-1.7313125 
0.1 1:0.35609766 2:-2.9411875 
0.1 1:0.37692773 2:-6.066 
0.1 1:0.2234082 2:-2.465375 
0.1 1:0.21876367 2:-3.14925 
0.1 1:0.30180859 2:-2.16275 
0.1 1:0.19023633 2:-2.2865 
0.1 1:0.46446094 2:-3.1174375 
0.1 1:0.39682227 2:-1.5556875 
0.1 1:0.35028711 2:-1.8460625 
0.1 1:0.30602148 2:-4.477625 
0.1 1:0.37343359 2:-2.9120625 
0.1 1:0.36345508 2:-3.368625 
0.1 1:0.4480918 2:-3.61075 
0.1 1:0.32408008 2:-3.10675 
0.1 1:0.24066016 2:-2.2091875 
0.1 1:0.3230332 2:-5.3358125 
0.1 1:0.25908398 2:-4.4743125 
0.1 1:0.23420703 2:-1.3368125 
0.1 1:0.3462832 2:-4.65725 
0.1 1:0.3290957 2:-2.6263125 
0.1 1:0.54441992 2:-4.3748125 
0.1 1:0.3485625 2:-1.658125 
0.1 1:0.29429687 2:-3.6584375 
0.1 1:0.39310937 2:-3.974875 
0.1 1:0.44310742 2:-3.224625 
0.1 1:0.33874023 2:-3.620125 
0.1 1:0.34983789 2:-4.0816875 
0.1 1:0.42115039 2:-5.187125 
0.1 1:0.36752344 2:-2.3046875 
0.1 1:0.21253711 2:-1.875875 
0.1 1:0.35586719 2:-4.579125 
0.1 1:0.38346484 2:-2.8445 
0.1 1:0.30735547 2:-1.987125 
0.1 1:0.36829492 2:-2.7315 
0.1 1:0.18889648 2:-3.22025 
0.1 1:0.3515918 2:-1.2735625 
0.1 1:0.17047266 2:-2.255125 
0.1 1:0.54844922 2:-2.60875 
0.1 1:0.52732813 2:-2.161125 
0.1 1:0.49461523 2:-4.0245625 
0.1 1:0.40747852 2:-2.684 
0.1 1:0.284625 2:-5.445375 
0.1 1:0.35717578 2:-3.3101875 
0.1 1:0.3222207 2:-2.497375 
0.1 1:0.34611328 2:-1.1154375 
0.1 1:0.33127734 2:-3.2449375 
0.1 1:0.44503711 2:-3.56625 
0.1 1:0.29189063 2:-3.62475 
0.1 1:0.39318359 2:-3.0641875 
0.1 1:0.35502539 2:-1.6113125 
0.1 1:0.28439453 2:-2.960375 
0.1 1:0.31656641 2:-2.7206875 
0.1 1:0.53393555 2:-3.7854375 
0.1 1:0.31465625 2:-3.7899375 
0.1 1:0.52079102 2:-2.4798125 
0.1 1:0.27660547 2:-3.0056875 
0.1 1:0.27910352 2:-3.861875 
0.1 1:0.36931641 2:-4.372125 
0.1 1:0.22948242 2:-2.170625 
0.1 1:0.18727148 2:-2.3613125 
0.1 1:0.41151367 2:-2.1315 
0.1 1:0.39529102 2:-4.564375 
0.1 1:0.36972461 2:-1.8185 
0.1 1:0.42236328 2:-6.1394375 
0.1 1:0.45213672 2:-3.742375 
0.1 1:0.17054102 2:-1.676875 
0.1 1:0.34886523 2:-2.161625 
0.1 1:0.35558789 2:-3.6624375 
0.1 1:0.40937109 2:-2.7834375 
0.1 1:0.4214707 2:-4.5469375 
0.1 1:0.26133203 2:-4.7173125 
0.1 1:0.22953125 2:-4.0635 
0.1 1:0.33593555 2:-1.454375 
0.1 1:0.35726367 2:-4.68325 
0.1 1:0.40037109 2:-2.33225 
0.1 1:0.24747852 2:-2.792 
0.1 1:0.33156445 2:-3.9391875 
0.1 1:0.23803906 2:-1.2504375 
0.1 1:0.51782031 2:-2.9840625 
0.1 1:0.44803711 2:-4.523 
0.1 1:0.43018359 2:-4.062625 
0.1 1:0.34317578 2:-3.28275 
0.1 1:0.40569336 2:-2.21375 
0.1 1:0.40866211 2:-2.91425 
0.1 1:0.25978906 2:-1.63275 
0.1 1:0.42663086 2:-3.637125 
0.1 1:0.49054687 2:-1.1923125 
0.1 1:0.42798047 2:-1.8614375 
0.1 1:0.42789844 2:-4.0163125 
0.1 1:0.26169922 2:-2.8788125 
0.1 1:0.31063477 2:-3.77025 
0.1 1:0.27366016 2:-3.7085625 
0.1 1:0.44375781 2:-3.0615 
0.1 1:0.34798633 2:-4.020125 
0.1 1:0.25391211 2:-2.442625 
0.1 1:0.36413281 2:-1.5961875 
0.1 1:0.2684375 2:-2.4340625 
0.1 1:0.35587305 2:-2.288625 
0.1 1:0.30654297 2:-2.1839375 
0.1 1:0.34100781 2:-3.860125 
0.1 1:0.46744336 2:-3.1958125 
0.1 1:0.33367383 2:-2.739 
0.1 1:0.20154688 2:-2.2619375 
0.1 1:0.20134375 2:-1.7034375 
0.1 1:0.29208203 2:-3.0359375 
0.1 1:0.2967832 2:-3.249875 
0.1 1:0.36598633 2:-2.9008125 
0.1 1:0.12339844 2:-2.0333125 
0.1 1:0.20821484 2:-2.039 
0.1 1:0.3609707 2:-1.736625 
0.1 1:0.19701367 2:-2.13925 
0.1 1:0.45131445 2:-4.8573125 
0.1 1:0.3464043 2:-3.0483125 
0.1 1:0.16750391 2:-2.8849375 
0.1 1:0.52552539 2:-3.46175 
0.1 1:0.50997461 2:-1.53175 
0.1 1:0.46969531 2:-2.3004375 
0.1 1:0.21372266 2:-3.2156875 
0.1 1:0.2792793 2:-4.419625 
0.1 1:0.42345313 2:-3.9575 
0.1 1:0.35916211 2:-3.00925 
0.1 1:0.26838477 2:-3.1514375 
0.1 1:0.37462109 2:-4.6270625 
0.1 1:0.27236914 2:-3.7054375 
0.1 1:0.2563418 2:-2.9838125 
0.1 1:0.15487695 2:-2.084875 
0.1 1:0.30416992 2:-2.0409375 
0.1 1:0.43007617 2:-2.785 
0.1 1:0.4495 2:-2.537375 
0.1 1:0.46249414 2:-4.082 
0.1 1:0.39617188 2:-4.6318125 
0.1 1:0.21699023 2:-2.6715 
0.1 1:0.25826562 2:-1.6623125 
0.1 1:0.27891211 2:-4.927 
0.1 1:0.338875 2:-3.906625 
0.1 1:0.49685547 2:-1.6393125 
0.1 1:0.29613086 2:-3.8143125 
0.1 1:0.30878516 2:-2.433625 
0.1 1:0.34261133 2:-3.0275 
0.1 1:0.26678906 2:-3.29475 
0.1 1:0.36944336 2:-1.555 
0.1 1:0.24593945 2:-2.1311875 
0.1 1:0.27767969 2:-2.165375 
0.1 1:0.31291602 2:-3.3015625 
0.1 1:0.40678711 2:-3.3389375 
0.1 1:0.22990625 2:-4.26575 
0.1 1:0.34041602 2:-3.856875 
0.1 1:0.50777344 2:-3.3566875 
0.1 1:0.25627734 2:-1.8748125 
0.1 1:0.39027148 2:-3.910875 
0.1 1:0.37652539 2:-2.0765 
0.1 1:0.50982422 2:-2.602875 
0.1 1:0.47086914 2:-2.552625 
0.1 1:0.48641992 2:-1.735875 
0.1 1:0.434375 2:-2.9555625 
0.1 1:0.3668457 2:-1.7016875 
0.1 1:0.40248242 2:-1.926875 
0.1 1:0.34355469 2:-3.5971875 
0.1 1:0.46525391 2:-4.268125 
0.1 1:0.41947266 2:-3.2993125 
0.1 1:0.41820312 2:-4.4476875 
0.1 1:0.407875 2:-3.1875625 
0.1 1:0.45385156 2:-2.0045625 
0.1 1:0.32193359 2:-4.249 
0.1 1:0.42924219 2:-6.279125 
0.1 1:0.3888457 2:-3.347625 
0.1 1:0.39345312 2:-2.227625 
0.1 1:0.25773828 2:-3.7175625 
0.1 1:0.43242188 2:-1.561625 
0.1 1:0.32591797 2:-3.0913125 
0.1 1:0.2959082 2:-2.391625 
0.1 1:0.4513125 2:-2.75075 
0.1 1:0.38577734 2:-2.6884375 
0.1 1:0.18492578 2:-3.3076875 
0.1 1:0.35310156 2:-2.948625 
0.1 1:0.35166406 2:-3.349 
0.1 1:0.28432422 2:-3.0955625 
0.1 1:0.24614648 2:-3.1475 
0.1 1:0.39567969 2:-3.775375 
0.1 1:0.34374219 2:-3.757125 
0.1 1:0.36907422 2:-4.377875 
0.1 1:0.39533203 2:-2.349875 
0.1 1:0.42039648 2:-3.2233125 
0.1 1:0.28954102 2:-4.644125 
0.1 1:0.3136582 2:-3.195375 
0.1 1:0.27055078 2:-1.3105 
0.1 1:0.26744336 2:-2.9053125 
0.1 1:0.33852344 2:-3.2181875 
0.1 1:0.49329102 2:-2.5065625 
0.1 1:0.25251367 2:-3.199625 
0.1 1:0.30484766 2:-2.807 
0.1 1:0.44421484 2:-2.4914375 
0.1 1:0.33297852 2:-3.5381875 
0.1 1:0.27632617 2:-1.724 
0.1 1:0.3807207 2:-4.4460625 
0.1 1:0.25118164 2:-1.898125 
0.1 1:0.2080957 2:-1.8283125 
0.1 1:0.28976367 2:-2.34075 
0.1 1:0.3902207 2:-3.342375 
0.1 1:0.27696094 2:-3.481375 
0.1 1:0.34073438 2:-1.85625 
0.1 1:0.28487891 2:-2.8999375 
0.1 1:0.20087109 2:-0.9624375 
0.1 1:0.4265625 2:-1.383125 
0.1 1:0.28708789 2:-2.5873125 
0.1 1:0.35373047 2:-2.2044375 
0.1 1:0.35816797 2:-1.8958125 
0.1 1:0.29399219 2:-2.9063125 
0.1 1:0.42963477 2:-2.2746875 
0.1 1:0.29727539 2:-3.397 
0.1 1:0.24718164 2:-3.4359375 
0.1 1:0.44748633 2:-3.7504375 
0.1 1:0.17296875 2:-1.639 
0.1 1:0.23308594 2:-1.8355 
0.1 1:0.2614707 2:-3.76825 
0.1 1:0.28496484 2:-2.3533125 
0.1 1:0.39012109 2:-2.077125 
0.1 1:0.41301172 2:-4.127 
0.1 1:0.22388477 2:-2.2773125 
0.1 1:0.24084375 2:-2.174125 
0.1 1:0.21849805 2:-2.5488125 
0.1 1:0.23672852 2:-2.6773125 
0.1 1:0.29321875 2:-3.302 
0.1 1:0.31608789 2:-2.0230625 
0.1 1:0.31682227 2:-3.2665 
0.1 1:0.4627793 2:-3.8699375 
0.1 1:0.42236523 2:-3.9070625 
0.1 1:0.35807031 2:-2.4820625 
0.1 1:0.39208203 2:-3.828125 
0.1 1:0.37061719 2:-3.7656875 
0.1 1:0.22809766 2:-2.4148125 
0.1 1:0.30510547 2:-4.36925 
0.1 1:0.52434375 2:-2.0265 
0.1 1:0.52628906 2:-2.6603125 
0.1 1:0.49775 2:-2.6403125 
0.1 1:0.37689063 2:-1.9815 
0.1 1:0.41818359 2:-4.63875 
0.1 1:0.38560742 2:-3.2704375 
0.1 1:0.29772266 2:-2.9845 
0.1 1:0.3755918 2:-2.10825 
0.1 1:0.23285156 2:-2.8511875 
0.1 1:0.19125977 2:-2.2409375 
0.1 1:0.39793555 2:-2.6754375 
0.1 1:0.17488281 2:-1.0215 
0.1 1:0.37977539 2:-2.7740625 
0.1 1:0.34080859 2:-1.552 
0.1 1:0.30579492 2:-2.78075 
0.1 1:0.50018164 2:-4.394625 
0.1 1:0.20394727 2:-3.174375 
0.1 1:0.38029492 2:-2.6636875 
0.1 1:0.339125 2:-1.304625 
0.1 1:0.30172266 2:-3.0673125 
0.1 1:0.34441992 2:-2.5821875 
0.1 1:0.53756055 2:-1.4563125 
0.1 1:0.17209766 2:-3.677625 
0.1 1:0.29078711 2:-2.114 
0.1 1:0.3907793 2:-2.0875625 
0.1 1:0.34348047 2:-2.28275 
0.1 1:0.25060937 2:-5.4385 
0.1 1:0.32289648 2:-3.127125 
0.1 1:0.30743164 2:-2.150375 
0.1 1:0.46308789 2:-2.4643125 
0.1 1:0.29000391 2:-4.12425 
0.1 1:0.27044922 2:-2.3269375 
0.1 1:0.3090957 2:-3.85075 
0.1 1:0.30986328 2:-2.678625 
0.1 1:0.23882813 2:-3.4575625 
0.1 1:0.24126758 2:-2.4735 
0.1 1:0.45412305 2:-2.8335 
0.1 1:0.49304102 2:-2.30275 
0.1 1:0.34332617 2:-3.66225 
0.1 1:0.29856836 2:-1.3805625 
0.1 1:0.454125 2:-2.0156875 
0.1 1:0.50227539 2:-3.744 
0.1 1:0.49512891 2:-1.64025 
0.1 1:0.33180469 2:-5.012375 
0.1 1:0.25449219 2:-2.45125 
0.1 1:0.25616016 2:-2.35625 
0.1 1:0.32063867 2:-2.9024375 
0.1 1:0.29012891 2:-2.4004375 
0.1 1:0.23525781 2:-3.2718125 
0.1 1:0.49211133 2:-2.1145 
0.1 1:0.31102734 2:-4.2288125 
0.1 1:0.32942969 2:-1.7116875 
0.1 1:0.35373438 2:-2.158625 
0.1 1:0.39108984 2:-1.8384375 
0.1 1:0.24638867 2:-2.7195625 
0.1 1:0.41433789 2:-4.3966875 
0.1 1:0.25672656 2:-1.856 
0.1 1:0.32571484 2:-2.687 
0.1 1:0.25308594 2:-4.6645625 
0.1 1:0.37252148 2:-3.554625 
0.1 1:0.24129883 2:-2.6834375 
0.1 1:0.39700391 2:-2.647125 
0.1 1:0.34035352 2:-2.68275 
0.1 1:0.22906641 2:-1.590375 
0.1 1:0.38329492 2:-1.7343125 
0.1 1:0.32834766 2:-1.8000625 
0.1 1:0.25701367 2:-2.2314375 
0.1 1:0.30180469 2:-3.6710625 
0.1 1:0.40867188 2:-3.7954375 
0.1 1:0.45036328 2:-3.8025 
0.1 1:0.45349219 2:-1.922625 
0.1 1:0.40451953 2:-1.271 
0.1 1:0.31676953 2:-2.14075 
0.1 1:0.29141602 2:-3.130625 
0.1 1:0.3054375 2:-1.9735625 
0.1 1:0.42280859 2:-3.1426875 
0.1 1:0.24304883 2:-3.1459375 
0.1 1:0.27438672 2:-1.98 
0.1 1:0.46533398 2:-3.3760625 
0.1 1:0.47179688 2:-4.263875 
0.1 1:0.38345508 2:-2.8543125 
0.1 1:0.2439375 2:-3.4745625 
0.1 1:0.44778516 2:-2.7351875 
0.1 1:0.34450977 2:-3.534625 
0.1 1:0.23927539 2:-3.3649375 
0.1 1:0.30467383 2:-2.7651875 
0.1 1:0.25674023 2:-4.3780625 
0.1 1:0.38924414 2:-2.8080625 
0.1 1:0.45885352 2:-2.1756875 
0.1 1:0.3831875 2:-2.1104375 
0.1 1:0.43618359 2:-2.817625 
0.1 1:0.22523437 2:-4.4809375 
0.1 1:0.20431836 2:-1.3066875 
0.1 1:0.34638672 2:-3.5878125 
0.1 1:0.4159707 2:-2.448625 
0.1 1:0.30995313 2:-4.216375 
0.1 1:0.23301758 2:-2.77575 
0.1 1:0.30881445 2:-2.2698125 
0.1 1:0.38841797 2:-3.018625 
0.1 1:0.58155273 2:-2.5085 
0.1 1:0.38666406 2:-2.618125 
0.1 1:0.24403516 2:-3.33375 
0.1 1:0.24733008 2:-3.39625 
0.1 1:0.32263086 2:-5.6656875 
0.1 1:0.37616602 2:-4.028 
0.1 1:0.37933789 2:-3.19475 
0.1 1:0.50985352 2:-2.284 
0.1 1:0.24892187 2:-2.3585625 
0.1 1:0.37949805 2:-2.4606875 
0.1 1:0.33924023 2:-3.7311875 
0.1 1:0.273625 2:-3.2185 
0.1 1:0.30674414 2:-2.46875 
0.1 1:0.34260937 2:-1.451625 
0.1 1:0.2195625 2:-3.7606875 
0.1 1:0.45795313 2:-3.3419375 
0.1 1:0.36405664 2:-1.8345 
0.1 1:0.44405469 2:-4.3299375 
0.1 1:0.32876367 2:-2.7605 
0.1 1:0.45213086 2:-3.090875 
0.1 1:0.26330664 2:-1.4164375 
0.1 1:0.29614063 2:-3.1636875 
0.1 1:0.37255273 2:-4.0279375 
0.1 1:0.28305273 2:-2.2699375 
0.1 1:0.20846289 2:-1.83875 
0.1 1:0.42545898 2:-2.3104375 
0.1 1:0.22897461 2:-3.203625 
0.1 1:0.22986133 2:-2.7025625 
0.1 1:0.33163281 2:-3.3355 
0.1 1:0.5656875 2:-1.8881875 
0.1 1:0.33640039 2:-2.6640625 
0.1 1:0.40778125 2:-2.2558125 
0.1 1:0.32758203 2:-4.008125 
0.1 1:0.348625 2:-2.0160625 
0.1 1:0.49307031 2:-2.892875 
0.1 1:0.49319727 2:-3.079625 
0.1 1:0.29560352 2:-3.0410625 
0.1 1:0.2698418 2:-2.0849375 
0.1 1:0.40728906 2:-2.4464375 
0.1 1:0.31540625 2:-5.0003125 
0.1 1:0.29967383 2:-4.1315625 
0.1 1:0.39301562 2:-4.5141875 
0.1 1:0.37047461 2:-4.07375 
0.1 1:0.25696484 2:-2.8865625 
0.1 1:0.26228125 2:-1.668 
0.1 1:0.42184766 2:-3.1485625 
0.1 1:0.42266211 2:-3.6119375 
0.1 1:0.51713281 2:-3.2915625 
0.1 1:0.37463477 2:-3.621625 
0.1 1:0.38823047 2:-3.969 
0.1 1:0.35406641 2:-3.704375 
0.1 1:0.46012695 2:-2.757875 
0.1 1:0.25707813 2:-3.7184375 
0.1 1:0.64953711 2:-2.5906875 
0.1 1:0.33852734 2:-1.579375 
0.1 1:0.45823437 2:-2.62375 
0.1 1:0.15948437 2:-2.029 
0.1 1:0.38763477 2:-1.709875 
0.1 1:0.28655664 2:-3.3416875 
0.1 1:0.31082422 2:-3.0363125 
0.1 1:0.30839453 2:-3.525375 
0.1 1:0.25010547 2:-4.1759375 
0.1 1:0.32316602 2:-2.5864375 
0.1 1:0.45833789 2:-3.199125 
0.1 1:0.27089063 2:-2.5478125 
0.1 1:0.36498437 2:-5.0790625 
0.1 1:0.38314062 2:-2.5246875 
0.1 1:0.36310352 2:-2.8215625 
0.1 1:0.30784375 2:-3.0463125 
0.1 1:0.30118164 2:-2.975875 
0.1 1:0.24520117 2:-3.8335625 
0.1 1:0.28839453 2:-3.682625 
0.1 1:0.50944336 2:-3.7714375 
0.1 1:0.34345898 2:-3.634875 
0.1 1:0.33723437 2:-1.4580625 
0.1 1:0.37283398 2:-2.17775 
0.1 1:0.36245508 2:-4.3391875 
0.1 1:0.35754883 2:-3.372625 
0.1 1:0.37512109 2:-4.1375 
0.1 1:0.41696289 2:-3.655625 
0.1 1:0.2265332 2:-1.9818125 
0.1 1:0.29455273 2:-1.8113125 
0.1 1:0.35878516 2:-1.594875 
0.1 1:0.50749414 2:-4.0415625 
0.1 1:0.42885742 2:-3.095875 
0.1 1:0.26485742 2:-2.1836875 
0.1 1:0.3802207 2:-3.17925 
0.1 1:0.26811719 2:-3.05975 
0.1 1:0.59392578 2:-2.6131875 
0.1 1:0.34558203 2:-3.37725 
0.1 1:0.44163867 2:-4.752125 
0.1 1:0.2871582 2:-5.202125 
0.1 1:0.50256445 2:-4.464375 
0.1 1:0.23557227 2:-1.9678125 
0.1 1:0.35964258 2:-2.9628125 
0.1 1:0.32610547 2:-3.250875 
0.1 1:0.56148633 2:-3.396 
0.1 1:0.40507617 2:-2.5451875 
0.1 1:0.47415625 2:-4.8995625 
0.1 1:0.39397461 2:-5.0691875 
0.1 1:0.2550293 2:-2.693875 
0.1 1:0.27999414 2:-2.9005 
0.1 1:0.28365039 2:-2.8665 
0.1 1:0.41253711 2:-2.4326875 
0.1 1:0.19477539 2:-1.5100625 
0.1 1:0.40441406 2:-2.705 
0.1 1:0.46979297 2:-3.54825 
0.1 1:0.19224414 2:-3.40725 
0.1 1:0.29571094 2:-2.205125 
0.1 1:0.32110547 2:-2.0231875 
0.1 1:0.40251367 2:-3.5608125 
0.1 1:0.26679102 2:-4.0938125 
0.1 1:0.24919336 2:-1.8699375 
0.1 1:0.26628711 2:-3.311375 
0.1 1:0.45107812 2:-2.0339375 
0.1 1:0.27363867 2:-2.9935 
0.1 1:0.37437891 2:-1.7210625 
0.1 1:0.39370703 2:-3.9125 
0.1 1:0.31038086 2:-3.6683125 
0.1 1:0.32235156 2:-4.26875 
0.1 1:0.3894082 2:-2.3775625 
0.1 1:0.24414648 2:-2.412875 
0.1 1:0.43997461 2:-1.7660625 
0.1 1:0.44303906 2:-2.2975625 
0.1 1:0.36222656 2:-4.23425 
0.1 1:0.37899609 2:-6.203375 
0.1 1:0.38344141 2:-3.6039375 
0.1 1:0.41635938 2:-3.8374375 
0.1 1:0.27367383 2:-2.1773125 
0.1 1:0.4066875 2:-5.1200625 
0.1 1:0.35650586 2:-5.135 
0.1 1:0.39049805 2:-3.56675 
0.1 1:0.38744727 2:-3.2230625 
0.1 1:0.27430469 2:-2.704875 
0.1 1:0.31025977 2:-2.604625 
0.1 1:0.26782617 2:-3.1501875 
0.1 1:0.19261133 2:-1.907375 
0.1 1:0.39408398 2:-5.8528125 
0.1 1:0.17069531 2:-1.9250625 
0.1 1:0.31611523 2:-3.318625 
0.1 1:0.36821094 2:-2.479875 
0.1 1:0.31237305 2:-1.243125 
0.1 1:0.31504492 2:-5.0301875 
0.1 1:0.38264258 2:-2.117875 
0.1 1:0.22610547 2:-2.844625 
0.1 1:0.22574414 2:-2.3684375 
0.1 1:0.35795508 2:-2.40525 
0.1 1:0.29819141 2:-3.56975 
0.1 1:0.42980078 2:-3.1031875 
0.1 1:0.28764844 2:-2.8450625 
0.1 1:0.29558984 2:-2.858 
0.1 1:0.23667969 2:-3.285 
0.1 1:0.37616406 2:-3.7056875 
0.1 1:0.38500977 2:-1.758 
0.1 1:0.40152148 2:-3.35125 
0.1 1:0.40748633 2:-4.45825 
0.1 1:0.36602734 2:-1.5118125 
0.1 1:0.27541992 2:-5.0645625 
0.1 1:0.53094922 2:-2.2313125 
0.1 1:0.46775 2:-3.990125 
0.1 1:0.43210742 2:-3.254625 
0.1 1:0.28278906 2:-2.4069375 
0.1 1:0.29471094 2:-3.955125 
0.1 1:0.37858984 2:-2.6868125 
0.1 1:0.39125781 2:-2.5903125 
0.1 1:0.45753516 2:-3.1154375 
0.1 1:0.2551543 2:-2.345875 
0.1 1:0.43002148 2:-2.2696875 
0.1 1:0.29291016 2:-3.6591875 
0.1 1:0.37239258 2:-3.290125 
0.1 1:0.45269336 2:-4.4751875 
0.1 1:0.31225977 2:-1.9321875 
0.1 1:0.4420332 2:-3.6693125 
0.1 1:0.31316992 2:-2.777625 
0.1 1:0.41620703 2:-3.46575 
0.1 1:0.27977539 2:-2.3631875 
-0.009316115844181957 1:0.3255625 2:-6.09575 
-0.0196486680474846 1:0.323375 2:-5.2134375 
-0.05005076011852815 1:0.11232422 2:-2.5880625 
-0.01702823485995204 1:0.28441602 2:-4.591875 
-0.01355151067354019 1:0.23701172 2:-3.993 
-0.09549854789958137 1:0.26134961 2:-5.7624375 
-0.02482975825895536 1:0.13932031 2:-1.2410625 
-0.006480659801417236 1:0.34316602 2:-5.2844375 
-0.03166567804258887 1:0.22749609 2:-2.9654375 
-0.0008706173914526105 1:0.15226758 2:-2.5156875 
-0.003072241170556245 1:0.22654297 2:-4.5641875 
-0.07688977593395921 1:0.41570703 2:-5.70025 
-0.01031456665986103 1:0.21206641 2:-3.21275 
-0.05347456628449403 1:0.4515 2:-5.3444375 
-0.01437253913204051 1:0.31373047 2:-4.525875 
-0.0554208307602956 1:0.31241797 2:-5.316625 
-0.007196158702195605 1:0.29669727 2:-5.4954375 
-0.01820080161761044 1:0.24328906 2:-4.71675 
-0.02001155058894196 1:0.36837695 2:-6.2575 
-0.02873539123966333 1:0.19822656 2:-0.4559375 
-0.1 1:0.23229883 2:-2.5465625 
-0.03905140748516878 1:0.17749023 2:-1.3291875 
-0.003248854515373676 1:0.13105469 2:-0.5008125 
-0.001779004841166113 1:0.23956055 2:-4.2628125 
-0.003773833883762926 1:0.11510742 2:-2.670625 
-0.04452267526617458 1:0.10139063 2:-0.265875 
-0.1 1:0.26213867 2:-2.9094375 
-0.1 1:0.37288086 2:-4.37825 
-0.01439236615423087 1:0.15851562 2:-3.6440625 
-0.1 1:0.046820312 2:-0.9586875 
-0.01786792840977735 1:0.232125 2:-4.18675 
-0.001064396553805413 1:0.20601758 2:-4.127125 
-0.03319121306522975 1:0.091390625 2:-0.3915625 
-0.00515267685029852 1:0.19905664 2:-3.7884375 
-0.007787175803221381 1:0.22388477 2:-3.3609375 
-0.01527187042056018 1:0.18139648 2:-0.618875 
-0.0218478049247649 1:0.11307227 2:-2.4548125 
-0.06033117234349386 1:0.3574375 2:-5.559125 
-0.1 1:0.23009766 2:-1.691 
-0.0132140978066061 1:0.29718555 2:-5.8158125 
-0.07145125499926933 1:0.39750977 2:-6.3005625 
-0.1 1:0.29886328 2:-4.5400625 
-0.03629602675077098 1:0.35932617 2:-6.08425 
-0.01269756914916245 1:0.1147207 2:-0.7149375 
-0.00671855169608093 1:0.16926563 2:-0.444 
-0.05801943494159371 1:0.15125977 2:-2.6233125 
-0.0961529474135682 1:0.25605469 2:-4.37625 
-0.1 1:0.40119336 2:-7.3266875 
-0.07087164762337803 1:0.11993555 2:-1.763125 
-0.01294455023645808 1:0.22276758 2:-4.9826875 
-0.0006582901953892071 1:0.21398438 2:-4.000375 
-0.04721051746604656 1:0.12178906 2:-2.817 
-0.1 1:0.32821484 2:-3.377375 
-0.0005304032878644463 1:0.12719922 2:-0.9071875 
-0.002820394383210428 1:0.15593555 2:-3.0060625 
-0.05619537546761213 1:0.29697656 2:-3.7760625 
-0.006958498342759633 1:0.16164258 2:-0.3683125 
-0.008526855236458332 1:0.34576953 2:-4.79525 
-0.04462506147260454 1:0.19559961 2:-2.8805625 
-0.00105923253159996 1:0.17658008 2:-3.196125 
-0.006415634997426048 1:0.15392969 2:-0.8336875 
-0.1 1:0.13232227 2:-1.697 
-0.02305539220306549 1:0.24172656 2:-0.6289375 
-0.04477237283712449 1:0.33461719 2:-6.2285 
-0.004917788688419522 1:0.23009766 2:-4.3459375 
-0.1 1:0.45030664 2:-4.5109375 
-0.09594208988567973 1:0.24887109 2:-0.7735625 
-0.1 1:0.30611523 2:-2.9101875 
-0.09605130825201488 1:0.32580078 2:-5.342 
-0.1 1:0.35416211 2:-5.13225 
-0.01416863746154524 1:0.20151953 2:-4.1438125 
-0.05352239280676661 1:0.37276172 2:-6.2431875 
-0.004952924892830895 1:0.29062305 2:-5.0640625 
-0.04363346303507113 1:0.22288086 2:-0.879125 
-0.02114232019466853 1:0.20242773 2:-2.74125 
-0.02225692796517909 1:0.15819336 2:-0.981875 
-0.0185511635766321 1:0.3599668 2:-4.7544375 
-0.06653677573200004 1:0.13378516 2:-3.048875 
-0.05811082840524842 1:0.12512305 2:-2.84225 
-0.01389111561989459 1:0.32344922 2:-5.2779375 
-0.005243983942764541 1:0.16986914 2:-0.6136875 
-0.07733543161983174 1:0.48939844 2:-4.644625 
-0.001989388508162492 1:0.17663867 2:-3.0438125 
-0.05469460786695565 1:0.19580078 2:-3.2155625 
-0.00547786257199933 1:0.23030078 2:-4.562125 
-0.02606558816711829 1:0.1527168 2:-1.0211875 
-0.0130150457759862 1:0.29339648 2:-3.8018125 
-0.05384069086735485 1:0.40097656 2:-4.777375 
-0.1 1:0.28879492 2:-3.6378125 
-0.1 1:0.24764258 2:-2.31925 
-0.1 1:0.37324023 2:-3.38975 
-0.1 1:0.21903711 2:-2.3874375 
-0.02712954097511379 1:0.31669531 2:-5.9090625 
-0.004093031549428583 1:0.16872461 2:-2.8725625 
-0.006876849318871323 1:0.33061523 2:-4.770625 
-0.08469776677426705 1:0.23266016 2:-3.5296875 
-0.1 1:0.43359375 2:-3.0754375 
-0.04595329505898649 1:0.30941602 2:-4.469125 
-0.01711633338507723 1:0.24149023 2:-4.4803125 
-0.1 1:0.21329102 2:-1.593375 
-0.01707756933687127 1:0.11033203 2:-0.3363125 
-0.0172287920371896 1:0.4003418 2:-4.8186875 
-0.06593898448450999 1:0.1933457 2:-2.478125 
-0.03090557492501911 1:0.26500391 2:-5.61825 
-0.03724204405238989 1:0.30285156 2:-5.0973125 
-0.002592502023162356 1:0.24729492 2:-4.18675 
-0.0007663158971116914 1:0.25762891 2:-4.3735 
-0.04833369231807837 1:0.15904297 2:-3.7005625 
-0.00687764106311885 1:0.26342969 2:-3.8723125 
-0.1 1:0.21091211 2:-2.560125 
-0.008503164664304541 1:0.17355273 2:-3.04975 
-0.1 1:0.26800977 2:-2.4195 
-0.06514584091766386 1:0.1642207 2:-2.02825 
-0.007207245966438859 1:0.22976758 2:-4.4234375 
-0.02364238832164985 1:0.12307812 2:-0.750125 
-0.1 1:0.17704492 2:-3.367875 
-0.005709285743275985 1:0.2493457 2:-4.6851875 
-0.1 1:0.26586328 2:-1.8378125 
-0.0418555667543393 1:0.35883984 2:-5.7729375 
-0.003625493008541053 1:0.17387305 2:-3.2475 
-0.07841212522468646 1:0.35638672 2:-4.4035 
-0.09684104581749155 1:0.24347461 2:-0.5854375 
-0.005723240930059617 1:0.21139453 2:-0.498375 
-0.009256427828707682 1:0.30944727 2:-5.53075 
-0.08130715555437022 1:0.18941211 2:-4.615375 
-0.01008330171635576 1:0.16033008 2:-0.694875 
-0.08249332390016109 1:0.23544531 2:-5.3535 
-0.02630978109617966 1:0.13176172 2:-0.646875 
-0.008025892873498319 1:0.13518945 2:-1.040625 
-0.1 1:0.30793359 2:-6.8123125 
-0.1 1:0.27028711 2:-2.9045 
-0.1 1:0.31178516 2:-2.6841875 
-0.01767155980862992 1:0.1095 2:-2.187375 
-0.1 1:0.27323828 2:-3.409 
-0.01432684983796623 1:0.38126953 2:-4.8755625 
-0.0162555598285603 1:0.2059375 2:-3.43675 
-0.03577733321438901 1:0.14089453 2:-0.61575 
-0.003624488360714392 1:0.13545703 2:-0.464375 
-0.01827795186678832 1:0.24061133 2:-4.476625 
-0.009915516515105553 1:0.18099805 2:-0.7325625 
-0.02439429642491226 1:0.21383594 2:-4.016125 
-0.007809613109215496 1:0.15173438 2:-0.3281875 
-0.01909051847643332 1:0.14902148 2:-2.405 
-0.003834550993605935 1:0.20560742 2:-3.632625 
-0.006514156713039652 1:0.249375 2:-4.0724375 
-0.1 1:0.43250195 2:-4.395375 
-0.08707588948691815 1:0.096158203 2:-2.4403125 
-0.05240830299235506 1:0.22105273 2:-3.51125 
-0.01406311549588767 1:0.19958594 2:-3.75225 
-0.02902069915642387 1:0.099441406 2:-2.0795 
-4.849119499220804e-05 1:0.16715039 2:-3.0455 
-0.01368316653304785 1:0.31826172 2:-5.8076875 
-0.1 1:0.37425977 2:-6.9378125 
-0.00727429165815356 1:0.12472852 2:-2.3263125 
-0.008208062336003292 1:0.302 2:-6.17125 
-0.02644476436348196 1:0.1367793 2:-1.2078125 
-0.01332059008872136 1:0.24109766 2:-4.7700625 
-0.01257426021765014 1:0.28149414 2:-4.88575 
-0.006193439955718359 1:0.20431445 2:-3.215375 
-0.1 1:0.24683398 2:-3.15875 
-0.002234188865486103 1:0.23944336 2:-3.7123125 
-0.003467092650343316 1:0.27812891 2:-5.2914375 
-0.004499607184593859 1:0.1494082 2:-2.75125 
-0.04031303482685407 1:0.22622461 2:-3.44825 
-0.1 1:0.39812109 2:-4.224375 
-0.008379856432611011 1:0.34549414 2:-5.2533125 
-0.009372377721263449 1:0.32683789 2:-6.4313125 
-0.02345934280557988 1:0.23139062 2:-0.6240625 
-0.0008875946210445398 1:0.16685937 2:-0.8211875 
-0.003757460964252065 1:0.37860742 2:-5.246875 
-0.02832562989289279 1:0.13176758 2:-0.3184375 
-0.07688735138833 1:0.41330273 2:-6.1581875 
-0.03360706133486704 1:0.21326367 2:-4.75775 
-0.01018339231479045 1:0.24242383 2:-3.8374375 
-0.02081067899454361 1:0.29868555 2:-5.44775 
-0.002147156807924266 1:0.28462305 2:-4.135875 
-0.1 1:0.33193359 2:-3.9718125 
-0.01321392667598664 1:0.22876367 2:-4.0488125 
-0.1 1:0.33055078 2:-3.4485 
-0.01468673320755976 1:0.18644727 2:-3.10425 
-0.09385998681838267 1:0.40974609 2:-6.5911875 
-0.03061081151502949 1:0.29096289 2:-5.5216875 
-0.1 1:0.48124219 2:-4.2619375 
-0.02169156344308383 1:0.1528457 2:-2.7433125 
-0.01101045162937287 1:0.20644336 2:-4.13675 
-0.1 1:0.31158398 2:-5.0321875 
-0.01047645727022055 1:0.16768555 2:-3.1911875 
-0.02067263275474166 1:0.27491992 2:-5.1063125 
-0.01264391651950872 1:0.19628125 2:-0.9126875 
-0.0325231278951163 1:0.18622852 2:-3.6644375 
-0.02341637221987078 1:0.29558789 2:-5.2064375 
-0.1 1:0.32364258 2:-0.9266875 
-0.0699623717490398 1:0.23528906 2:-5.5748125 
-0.1 1:0.22610742 2:-1.3413125 
-0.01176611895566531 1:0.27218164 2:-4.5251875 
-0.06242276751603509 1:0.32909766 2:-4.8469375 
-0.1 1:0.34435742 2:-4.3355625 
-0.04569540880514111 1:0.35701172 2:-4.0114375 
-0.1 1:0.26678516 2:-2.513375 
-0.1 1:0.34460352 2:-4.310625 
-0.03787817887395428 1:0.15559375 2:-1.099625 
-0.03621214831341227 1:0.30686133 2:-6.5006875 
-0.04998038610673723 1:0.16408984 2:-3.7249375 
-0.09923725246059845 1:0.31189453 2:-5.001625 
-0.005269143662104516 1:0.15378711 2:-2.6814375 
-0.02321789619067914 1:0.32592383 2:-4.158 
-0.1 1:0.26469922 2:-4.0971875 
-0.1 1:0.27886328 2:-2.8150625 
-0.003587155356164031 1:0.19823438 2:-3.312625 
-0.02337908154698832 1:0.32946484 2:-5.1068125 
-0.05033140376459983 1:0.37594727 2:-4.9313125 
-0.07144020527284096 1:0.12122656 2:-1.3519375 
-0.02191564527610285 1:0.13203906 2:-0.3524375 
-0.08168659642360576 1:0.20885547 2:-2.3333125 
-0.003358934698875084 1:0.23300781 2:-4.5359375 
-0.1 1:0.37672852 2:-2.83925 
-0.03363156467895699 1:0.25394531 2:-3.7655 
-0.002861781279809275 1:0.2071875 2:-4.224 
-0.1 1:0.4075293 2:-3.602375 
-0.03058307344734807 1:0.22114844 2:-3.5301875 
-0.08932858161317156 1:0.18063281 2:-1.7966875 
-0.01140123135270834 1:0.27122852 2:-3.7273125 
-0.1 1:0.34861719 2:-3.627625 
-0.1 1:0.4166543 2:-6.32025 
-0.01290993498648664 1:0.26691406 2:-3.8111875 
-0.046262926393416 1:0.19324805 2:-1.237 
-0.004504838830804906 1:0.16488281 2:-0.8014375 
-0.02074079950787745 1:0.34056836 2:-6.399125 
-0.005757692209680407 1:0.22874609 2:-4.1489375 
-0.03611340878796639 1:0.34190039 2:-5.7218125 
-0.09884661909395351 1:0.23102539 2:-0.31325 
-0.1 1:0.21419336 2:-1.8233125 
-0.03160939892334073 1:0.2882832 2:-4.770875 
-0.1 1:0.31799219 2:-3.949 
-0.004806661213516032 1:0.32134961 2:-4.70525 
-0.1 1:0.14812891 2:-1.9295625 
-0.01443580235884895 1:0.33074023 2:-4.362625 
-0.01405729038685456 1:0.2777793 2:-5.2920625 
-0.002897819566469348 1:0.14189063 2:-0.6464375 
-0.008281608427633867 1:0.16300977 2:-0.52175 
-0.02270836236916725 1:0.30280078 2:-5.24075 
-0.05891989697442587 1:0.19398438 2:-4.392625 
-0.06898971111700446 1:0.090345703 2:-0.9753125 
-0.0292563333324503 1:0.12254492 2:-0.5324375 
-0.1 1:0.24884961 2:-0.97475 
-0.1 1:0.28443359 2:-2.0958125 
-0.1 1:0.18073242 2:-3.306625 
-0.04915845674701833 1:0.35889258 2:-6.5419375 
-0.07661885167856188 1:0.38264844 2:-5.1065 
-0.001056735873840642 1:0.22929492 2:-4.1615 
-0.1 1:0.41494922 2:-6.254125 
-0.008168409075568799 1:0.22712305 2:-3.956625 
-0.001560583145804197 1:0.23894141 2:-3.915 
-0.1 1:0.33174023 2:-5.8703125 
-0.006650605272268577 1:0.10433789 2:-0.7885625 
-0.0349813380368814 1:0.37282422 2:-4.1736875 
-0.02539183117331806 1:0.1947832 2:-3.4055625 
-0.08529077908248334 1:0.14104297 2:-2.236375 
-0.02700993992189163 1:0.43064648 2:-5.9849375 
-0.02358162084734188 1:0.27083008 2:-5.292 
-0.1 1:0.34348242 2:-3.792 
-0.006361743437035909 1:0.11047852 2:-0.599625 
-0.002622481426256476 1:0.16873047 2:-0.674 
-0.1 1:0.29157422 2:-3.5221875 
-0.05054557997149227 1:0.40001758 2:-6.005875 
-0.1 1:0.31553516 2:-3.8324375 
-0.08568485542910485 1:0.27466602 2:-6.4654375 
-0.01207724632879418 1:0.15584961 2:-2.3285625 
-0.09431186966834355 1:0.28956836 2:-6.3693125 
-0.01294823596063256 1:0.22812891 2:-3.6428125 
-0.02066729994543977 1:0.26807813 2:-5.1476875 
-0.05441928264170703 1:0.39188867 2:-5.9671875 
-0.09218648689639382 1:0.42124023 2:-5.3928125 
-0.08806600732919687 1:0.068048828 2:-0.315 
-0.0159794231213921 1:0.20148437 2:-3.4808125 
-0.0204563701946304 1:0.18579297 2:-1.535625 
-0.03350669571202566 1:0.25626172 2:-5.3840625 
-0.009409226042173459 1:0.20227148 2:-3.4111875 
-0.1 1:0.35455664 2:-3.95475 
-0.006442422192200627 1:0.2073418 2:-3.732875 
-0.1 1:0.43747852 2:-3.440125 
-0.1 1:0.24530078 2:-2.4893125 
-0.003690771383203104 1:0.16420898 2:-2.2751875 
-0.02558920426345867 1:0.32144727 2:-5.7114375 
-0.1 1:0.33248828 2:-2.502 
-0.05747587660952024 1:0.27819727 2:-3.7015 
-0.05402212625217737 1:0.27315234 2:-2.730375 
-0.008187983243920704 1:0.25825195 2:-4.7050625 
-0.01124506800542181 1:0.3061543 2:-5.050625 
-0.07713399974866897 1:0.13442383 2:-3.32075 
-0.04904616753348279 1:0.28948047 2:-5.2085 
-0.01279301336852514 1:0.23883203 2:-4.6520625 
-0.1 1:0.40715039 2:-4.4429375 
-0.004326949134068832 1:0.13314062 2:-0.5588125 
-0.004402042994651253 1:0.16033594 2:-3.4038125 
-0.1 1:0.33679883 2:-3.4530625 
-0.03409963452335745 1:0.10423633 2:-0.6513125 
-0.03537997257264216 1:0.16234766 2:-0.581 
-0.001135057898627319 1:0.1463125 2:-0.5529375 
-0.01507354252253754 1:0.11324219 2:-0.802375 
-0.008594439199588659 1:0.11741602 2:-0.7308125 
-0.02108531401909115 1:0.15279492 2:-0.351375 
-0.006062700439804031 1:0.28873242 2:-4.8899375 
-0.1 1:0.365375 2:-2.8435 
-0.1 1:0.26745508 2:-3.3273125 
-0.01291204468751107 1:0.17012109 2:-0.9794375 
-0.004625759507148043 1:0.11523828 2:-0.337875 
-0.09540854493022791 1:0.26445117 2:-6.1681875 
-0.1 1:0.25036328 2:-3.019875 
-0.0139558807415154 1:0.23815625 2:-3.5234375 
-0.08224789560739384 1:0.36618555 2:-6.76 
-0.06633481222285467 1:0.30098828 2:-6.4419375 
-0.0006731707280749322 1:0.32768555 2:-5.0791875 
-0.01568457601466191 1:0.33609766 2:-5.6264375 
-0.003719672411302773 1:0.23423242 2:-3.962625 
-0.005008015714709516 1:0.22739063 2:-3.4049375 
-0.09040403089803663 1:0.11562891 2:-3.0084375 
-0.02388041498013786 1:0.27708008 2:-3.813875 
-0.07105621603521964 1:0.29912695 2:-3.834875 
-0.01765333533954932 1:0.25291602 2:-4.2434375 
-0.1 1:0.28626953 2:-2.63325 
-0.00219275206910075 1:0.13647852 2:-0.844625 
-0.1 1:0.22789648 2:-4.39775 
-0.1 1:0.27432812 2:-1.215 
-0.02466182536001891 1:0.35023242 2:-5.6015 
-0.1 1:0.25099805 2:-3.2134375 
-0.04392736672990417 1:0.2040625 2:-3.052875 
-0.03907657517228497 1:0.37716016 2:-5.5358125 
-0.02411511751258057 1:0.33639062 2:-5.632125 
-0.1 1:0.45968945 2:-5.043375 
-0.1 1:0.30981836 2:-2.747 
-0.07697321023622816 1:0.46185352 2:-4.74475 
-0.007301612485786084 1:0.24298438 2:-3.9543125 
-0.00161412623766181 1:0.31470898 2:-5.022375 
-0.009533294545896917 1:0.21740625 2:-4.2459375 
-0.07063321199108294 1:0.24395898 2:-0.680875 
-0.1 1:0.2800332 2:-3.6730625 
-0.00207495758834237 1:0.30620117 2:-4.9893125 
-0.1 1:0.33693945 2:-3.259875 
-0.006166638829551712 1:0.17999805 2:-3.188375 
-0.03537351230620332 1:0.18545703 2:-3.2850625 
-0.1 1:0.35265234 2:-4.1054375 
-0.03882342794352599 1:0.2812207 2:-4.057375 
-0.0719042498746686 1:0.17925391 2:-0.3043125 
-0.0400140553380777 1:0.28529688 2:-4.429 
-0.02971484658481659 1:0.33367383 2:-4.751375 
-0.02854584805305902 1:0.29567383 2:-3.2821875 
-0.002603815127169157 1:0.24723047 2:-4.4385 
-0.01205293540489635 1:0.23100195 2:-2.88675 
-0.00581836894096922 1:0.1511875 2:-2.6685 
-0.1 1:0.083269531 2:-1.9089375 
-0.01352475604398951 1:0.25907031 2:-4.19675 
-0.004065197158440219 1:0.16481641 2:-0.7265625 
-0.1 1:0.43701758 2:-4.488375 
-0.005308137030762806 1:0.29039062 2:-4.55775 
-0.1 1:0.3845 2:-6.7055 
-0.1 1:0.22798828 2:-2.3349375 
-0.003974048792122191 1:0.18333398 2:-3.381 
-0.07216595777643359 1:0.35856055 2:-4.7313125 
-0.03490293821405745 1:0.30321094 2:-5.1368125 
-0.09830573655101885 1:0.21798437 2:-2.28275 
-0.1 1:0.43530664 2:-4.53675 
-0.1 1:0.29874609 2:-4.2219375 
-0.1 1:0.26378125 2:-4.713375 
-0.000660938359327623 1:0.20554492 2:-3.8453125 
-0.005868310091147856 1:0.24310742 2:-3.7805625 
-0.1 1:0.42212695 2:-5.196375 
-0.005666460906261388 1:0.13327539 2:-0.8525 
-0.07001751051671404 1:0.1989707 2:-1.7538125 
-0.1 1:0.25451758 2:-1.7416875 
-0.1 1:0.31439063 2:-1.372 
-0.07900877561285938 1:0.27479297 2:-3.251625 
-0.07520624270958168 1:0.089224609 2:-2.2149375 
-0.005269992971029114 1:0.089160156 2:-1.664875 
-0.1 1:0.33197852 2:-4.3599375 
-0.04930322293475167 1:0.3277207 2:-3.7340625 
-0.02057363580333103 1:0.23759961 2:-3.883125 
-0.06399168525611999 1:0.42445703 2:-4.7930625 
-0.02986785659402979 1:0.22346289 2:-3.69775 
-0.05826971181140651 1:0.28924414 2:-6.0709375 
-0.06288943776895961 1:0.26885156 2:-3.674875 
-0.001385604210242738 1:0.25823242 2:-4.5935 
-0.007428860198827864 1:0.32563867 2:-6.033 
-0.009662467545738249 1:0.34316211 2:-5.11375 
-0.1 1:0.31239258 2:-3.335375 
-0.01309420445629039 1:0.15866602 2:-2.873375 
-0.01107183296317003 1:0.25176172 2:-4.0845 
-0.03060325889680286 1:0.10494922 2:-0.7160625 
-0.02120248898604993 1:0.2242832 2:-4.2979375 
-0.1 1:0.27592773 2:-3.5386875 
-0.002439614996663509 1:0.24275586 2:-4.3421875 
-0.1 1:0.30438672 2:-2.5859375 
-0.03545453207860411 1:0.23816602 2:-3.424875 
-0.0435067174207601 1:0.32394141 2:-4.4250625 
-0.05789701588687126 1:0.39804688 2:-4.837375 
-0.007128903190908852 1:0.26604883 2:-5.25375 
-0.01931927519138075 1:0.33458398 2:-5.768125 
-0.03220190303411586 1:0.13181055 2:-2.4746875 
-0.04779233964541805 1:0.2822168 2:-4.0884375 
-0.009623306103942561 1:0.16217188 2:-2.327625 
-0.07852624820968003 1:0.32619922 2:-5.0000625 
-0.06366378867612925 1:0.14702148 2:-1.28975 
-0.02872076495192812 1:0.29528906 2:-5.3894375 
-0.005499114814267045 1:0.19549805 2:-3.938375 
-0.01071503910603473 1:0.29367383 2:-5.8570625 
-0.01903719164388059 1:0.28879688 2:-4.4715 
-0.02372682901635706 1:0.18546289 2:-3.118 
-0.004200668703194695 1:0.33615625 2:-4.82075 
-0.009618204956680452 1:0.2849375 2:-5.4588125 
-0.02571790020114886 1:0.25745312 2:-3.471875 
-0.06972579048607963 1:0.076144531 2:-1.757125 
-0.003828697561003314 1:0.14821484 2:-2.779125 
-0.006112794992295154 1:0.25249414 2:-4.8134375 
-0.02683385108536824 1:0.17189844 2:-0.5083125 
-0.004630447038778354 1:0.24904297 2:-4.2915 
-0.02379692807618042 1:0.25359766 2:-4.1344375 
-0.00475200908091113 1:0.16482422 2:-2.99575 
-0.002132518080818985 1:0.28198828 2:-4.9028125 
-0.1 1:0.369375 2:-4.5480625 
-0.0762391608217113 1:0.3259375 2:-5.6773125 
-0.01020653506213992 1:0.30842383 2:-5.3401875 
-0.09550275996150222 1:0.24222656 2:-5.4225625 
-0.01122730951854882 1:0.19359766 2:-3.0270625 
-0.1 1:0.35157227 2:-1.6589375 
-0.1 1:0.30931641 2:-2.750125 
-0.07043085058117721 1:0.31269922 2:-4.47825 
-0.07880849267146992 1:0.13844727 2:-3.4694375 
-0.02364430935906522 1:0.27958203 2:-4.9163125 
-0.002540048248789719 1:0.28462695 2:-4.9796875 
-0.04895018855104581 1:0.11933008 2:-1.317 
-0.01743668250221412 1:0.26706836 2:-5.5515625 
-0.005765392318825834 1:0.13386328 2:-0.4603125 
-0.08944824584225378 1:0.36199023 2:-5.0789375 
-0.0396357683426416 1:0.17242188 2:-3.959375 
-0.004868830968339517 1:0.19740234 2:-4.139 
-0.005845872333813475 1:0.29372266 2:-4.1110625 
-0.1 1:0.38253711 2:-4.640375 
-0.02246817256175549 1:0.089660156 2:-0.3435 
-0.1 1:0.34213672 2:-2.21525 
-0.005737210287555774 1:0.24245508 2:-4.3968125 
-0.05546731801391159 1:0.13560352 2:-2.6184375 
-0.07059244766522239 1:0.14473438 2:-2.6431875 
-0.02622573759402404 1:0.28325391 2:-5.2513125 
-0.004008224265423591 1:0.22086914 2:-3.7381875 
-0.1 1:0.33385547 2:-3.1575 
-0.1 1:0.39603125 2:-4.306 
-0.01413631086277021 1:0.1662793 2:-2.6305 
-0.1 1:0.32594336 2:-3.5015 
-0.1 1:0.19375391 2:-2.2433125 
-0.007941164622416935 1:0.2016543 2:-3.640125 
-0.06654501410337831 1:0.35580078 2:-6.299125 
-0.008073173208341481 1:0.13530078 2:-0.444875 
-0.1 1:0.27499609 2:-5.066875 
-0.1 1:0.32963867 2:-4.34625 
-0.1 1:0.31943359 2:-2.8864375 
-0.1 1:0.35208398 2:-2.5773125 
-0.02383167034365923 1:0.23947656 2:-3.9203125 
-0.01445912211939164 1:0.27905078 2:-4.1588125 
-0.03797541064496164 1:0.2542793 2:-4.8716875 
-0.01097483678630092 1:0.28202344 2:-4.859375 
-0.08574497744222984 1:0.26871289 2:-3.656875 
-0.1 1:0.31787891 2:-2.8479375 
-0.1 1:0.35529297 2:-4.68275 
-0.07635627709256991 1:0.30545898 2:-3.800375 
-0.1 1:0.24810742 2:-2.2230625 
-0.08615859933547755 1:0.10053125 2:-1.1860625 
-0.004442063820023157 1:0.19804102 2:-3.9090625 
-0.1 1:0.27030078 2:-1.6701875 
-0.1 1:0.27945898 2:-3.1124375 
-0.02088058702586091 1:0.36457422 2:-5.483875 
-0.03210832541978515 1:0.17936523 2:-0.338875 
-0.07190083160041258 1:0.22991602 2:-5.1326875 
-0.02632077940896469 1:0.37807812 2:-5.0475 
-0.1 1:0.28025586 2:-5.4515 
-0.00530683383598779 1:0.2393457 2:-4.0664375 
-0.1 1:0.26848047 2:-2.389375 
-0.1 1:0.38280273 2:-4.365125 
-0.1 1:0.22082812 2:-2.6729375 
-0.003532423951325194 1:0.17282813 2:-0.844375 
-0.07018408745603701 1:0.16221484 2:-3.8394375 
-0.03364780955171198 1:0.22255859 2:-2.02525 
-0.1 1:0.33792773 2:-3.1846875 
-0.1 1:0.26292969 2:-2.64375 
-0.08884492937319047 1:0.27455664 2:-1.5620625 
-0.03085720709642623 1:0.38399414 2:-3.8518125 
-0.04670283671714952 1:0.31775977 2:-6.0183125 
-0.03149395321005131 1:0.16155273 2:-2.772875 
-0.02476837748442607 1:0.14570117 2:-0.6723125 
-0.1 1:0.33418555 2:-2.956375 
-0.006555896248422128 1:0.33027148 2:-4.956875 
-0.1 1:0.34258594 2:-4.0031875 
-0.1 1:0.39472266 2:-4.070375 
-0.006171451388853695 1:0.16987305 2:-0.8109375 
-0.01921411405669976 1:0.15044922 2:-2.3756875 
-0.1 1:0.343625 2:-3.1510625 
-0.002658361136688527 1:0.19591602 2:-0.486625 
-0.001818460172089309 1:0.16068945 2:-2.8523125 
-0.00303572770094096 1:0.24606641 2:-4.011125 
-0.03448230082293756 1:0.16782812 2:-3.937 
-0.1 1:0.15526172 2:-2.0664375 
-0.04341895862503192 1:0.33 2:-5.3965625 
-0.0842691278954765 1:0.47638086 2:-5.2835625 
-0.0006457269123854581 1:0.38570117 2:-6.1624375 
-0.004736264816289472 1:0.21005664 2:-3.972625 
-0.019675583416806 1:0.3327168 2:-4.190125 
-0.1 1:0.43723828 2:-7.1905 
-0.01916686848565301 1:0.27294336 2:-4.2574375 
-0.07846513073112973 1:0.28295508 2:-0.9159375 
-0.06995624731433053 1:0.079349609 2:-1.6896875 
-0.006222401337858015 1:0.20744336 2:-3.7363125 
-0.1 1:0.38547461 2:-3.8594375 
-0.0736482498256758 1:0.29561328 2:-3.4695625 
-0.06338179742288549 1:0.27326758 2:-5.4265 
-0.01824717761940457 1:0.1082207 2:-2.2316875 
-0.02307464071154992 1:0.31054492 2:-4.243875 
-0.008060461679515289 1:0.20010547 2:-4.0784375 
-0.04751968373147288 1:0.29278125 2:-3.8043125 
-0.1 1:0.30803125 2:-3.0019375 
-0.1 1:0.1824375 2:-2.253375 
-0.0113751818588354 1:0.2792832 2:-4.56025 
-0.06991604776975346 1:0.16586328 2:-4.110875 
-0.001115721605986946 1:0.18523242 2:-3.55875 
-0.05117301515564606 1:0.19703125 2:-1.2106875 
-0.005952859290130338 1:0.22709961 2:-3.6794375 
-0.1 1:0.25238086 2:-5.8245 
-0.1 1:0.23005273 2:-3.1355625 
-0.08620877304349352 1:0.305625 2:-5.8485 
-0.03277457277631839 1:0.13310156 2:-0.8990625 
-0.04447946521493249 1:0.23971289 2:-2.3139375 
-0.009015027845499715 1:0.252875 2:-4.820875 
-0.1 1:0.39061133 2:-3.7198125 
-0.02571542869073547 1:0.17753906 2:-2.79 
-0.005227493096094201 1:0.38049805 2:-4.2808125 
-0.05711684285077703 1:0.090515625 2:-0.3639375 
-0.02505750450392564 1:0.28625391 2:-5.183375 
-0.07209357230657262 1:0.25077539 2:-1.1349375 
-0.1 1:0.32936133 2:-2.6848125 
-0.06267842709136714 1:0.24014258 2:-2.9931875 
-0.006637281301554387 1:0.3691582 2:-5.221 
-0.1 1:0.34663867 2:-2.43325 
-0.03209843020186091 1:0.4128457 2:-5.946 
-0.01070005634863204 1:0.29039648 2:-5.8028125 
-0.003886091765787423 1:0.23611133 2:-4.131375 
-0.01766633398451002 1:0.13451953 2:-3.1604375 
-0.1 1:0.33104102 2:-2.396 
-0.00733932159566139 1:0.28688477 2:-4.852125 
-0.1 1:0.20150586 2:-2.223875 
-0.1 1:0.29933008 2:-3.1620625 
-0.1 1:0.24349805 2:-2.2509375 
-0.01725652248590168 1:0.35628711 2:-6.539625 
-0.1 1:0.23202734 2:-1.8263125 
-0.05061052819122931 1:0.21932617 2:-4.9929375 
-0.1 1:0.49851172 2:-4.012375 
-0.02690373837128941 1:0.27436328 2:-4.999875 
-0.02689734106649207 1:0.36097656 2:-4.47375 
-0.003622331617609765 1:0.19408008 2:-3.92775 
-0.07440270101317617 1:0.20406445 2:-1.2705625 
-0.1 1:0.35748437 2:-4.221125 
-0.1 1:0.32863477 2:-3.693375 
-0.009754624109306024 1:0.32199023 2:-4.8565 
-0.001923163359125447 1:0.23560938 2:-4.2560625 
-0.1 1:0.40497656 2:-2.8505625 
-0.02603516233896627 1:0.26085938 2:-4.9448125 
-0.1 1:0.2990332 2:-2.155 
-0.01151549555976827 1:0.14530859 2:-0.7505625 
-0.07731417914197811 1:0.11079297 2:-1.479125 
-0.002036962069462265 1:0.27020117 2:-4.633875 
-0.01255470462343704 1:0.35535352 2:-5.9386875 
-0.07090555195396807 1:0.30597656 2:-4.17525 
-0.1 1:0.42868164 2:-3.7133125 
-0.1 1:0.22425781 2:-3.2 
-0.002074685572372802 1:0.26625781 2:-5.1054375 
-0.01157048222739609 1:0.33728711 2:-5.5165625 
-0.002969839804838742 1:0.31507617 2:-5.15525 
-0.1 1:0.48474609 2:-6.674125 
-0.008467155360504654 1:0.10355469 2:-1.358375 
-0.02573495072087312 1:0.3085 2:-4.161875 
-0.004748385285306354 1:0.18390039 2:-3.3836875 
-0.006507856061085633 1:0.13674414 2:-2.6331875 
-0.09454669839341853 1:0.30739453 2:-6.3014375 
-0.04205383168864502 1:0.23025 2:-4.340625 
-0.001307695879060312 1:0.27826172 2:-4.4676875 
-0.01810221742117511 1:0.26513867 2:-4.947625 
-0.006514560711345809 1:0.23712891 2:-4.3549375 
-0.005713153528258817 1:0.17764844 2:-3.2908125 
-0.001602565996259686 1:0.23757422 2:-3.913375 
-0.002946300078242366 1:0.28069141 2:-5.3175625 
-0.00323311595455522 1:0.20570898 2:-3.3461875 
-0.005314857261571557 1:0.22922852 2:-3.8128125 
-0.004690573664640832 1:0.31582422 2:-4.7633125 
-0.1 1:0.19116602 2:-1.706625 
-0.1 1:0.19761133 2:-2.0180625 
-0.06941038155479753 1:0.41664844 2:-5.8334375 
-0.02471495125436679 1:0.16502344 2:-2.9746875 
-0.1 1:0.33487109 2:-3.044875 
-0.1 1:0.38985547 2:-3.799625 
-0.006903945468972661 1:0.1438125 2:-0.2509375 
-0.1 1:0.26366992 2:-3.5430625 
-0.04145898959166083 1:0.40899219 2:-5.5123125 
-0.02789434303225306 1:0.15552148 2:-3.5993125 
-0.1 1:0.35011133 2:-4.5961875 
-0.07179362503689292 1:0.087019531 2:-2.105 
-0.08608624322033918 1:0.3175 2:-5.6600625 
-0.05337375988816762 1:0.076787109 2:-1.723625 
-0.02784845858956731 1:0.33329102 2:-5.1855625 
-0.1 1:0.27666992 2:-2.86875 
-0.004330974968138513 1:0.32294922 2:-4.96825 
-0.01907490681045593 1:0.17307031 2:-2.9628125 
-0.007314981964596218 1:0.26252539 2:-4.9896875 
-0.006080434331280824 1:0.14435352 2:-2.1880625 
-0.01581841527529357 1:0.30283789 2:-5.636875 
-0.04342510685257244 1:0.27881836 2:-4.3296875 
-0.03085255541812508 1:0.2568418 2:-4.657 
-0.003915825495919399 1:0.11400195 2:-1.7169375 
-0.00074488052577526 1:0.31316406 2:-5.430125 
-0.01962051339947326 1:0.23297852 2:-3.4668125 
-0.1 1:0.21885156 2:-1.7906875 
-0.01111005475116377 1:0.20696875 2:-3.8543125 
-0.1 1:0.22915234 2:-1.374375 
-0.009069490480725627 1:0.25649609 2:-4.84025 
-0.02264163214534049 1:0.32123828 2:-5.983375 
-0.1 1:0.42295508 2:-4.58325 
-0.002394645257282423 1:0.12190039 2:-2.296 
-0.08810885571207466 1:0.21053711 2:-3.5961875 
-0.01080244350987275 1:0.30045117 2:-5.435 
-0.006140013181617332 1:0.20908984 2:-3.960375 
-0.01094914772057205 1:0.19564844 2:-3.46 
-0.1 1:0.36822461 2:-3.207625 
-0.002298014142784108 1:0.28174219 2:-4.3183125 
-0.03496722772701299 1:0.22447461 2:-3.3846875 
-0.003840433447830006 1:0.18500391 2:-0.453625 
-0.01819683607705162 1:0.33392969 2:-4.0231875 
-0.003175526373201466 1:0.30233398 2:-5.5493125 
-0.05924730453831253 1:0.22480859 2:-2.255625 
-0.04329921165517304 1:0.1791875 2:-3.6853125 
-0.01403202847265984 1:0.29311328 2:-4.3414375 
-0.0009245426143959714 1:0.21088477 2:-4.1166875 
-0.01537050378022564 1:0.20699023 2:-4.0103125 
-0.0233749799439512 1:0.21762695 2:-3.75125 
-0.00248772866532078 1:0.21120898 2:-3.8875625 
-0.04993157674656345 1:0.30993359 2:-4.1353125 
-0.04236761400705842 1:0.14204297 2:-1.8194375 
-0.01101468262424205 1:0.17964063 2:-3.5225 
-0.08550166839428645 1:0.18168164 2:-1.866875 
-0.09370955749833029 1:0.2689082 2:-3.412375 
-0.1 1:0.32254492 2:-3.2290625 
-0.01890006049309025 1:0.18491797 2:-1.406 
-0.1 1:0.3456543 2:-3.2239375 
-0.0376719709123372 1:0.41662305 2:-5.1686875 
-0.02336659161306759 1:0.29437695 2:-4.4804375 
-0.009407596385954132 1:0.18165039 2:-2.6295 
-0.003400744935138922 1:0.22634375 2:-4.1656875 
-0.0985816293685477 1:0.22732031 2:-4.0624375 
-0.02360840770829955 1:0.1232832 2:-0.8015625 
-0.0899294856459948 1:0.39944727 2:-5.0774375 
-0.1 1:0.29859766 2:-3.285875 
-0.00619629054775585 1:0.15711523 2:-0.3749375 
-0.0191613182849192 1:0.10912695 2:-1.035375 
-0.02290876558540893 1:0.3218125 2:-4.0596875 
-0.1 1:0.30963086 2:-2.8083125 
-0.1 1:0.21329492 2:-2.4545 
-0.02299399454937071 1:0.26067187 2:-3.8223125 
-0.1 1:0.30717578 2:-3.554125 
-0.05333550960334274 1:0.22875781 2:-3.6044375 
-0.1 1:0.36369141 2:-2.1930625 
-0.03246599578736321 1:0.28005078 2:-4.63375 
-0.01722339134842376 1:0.20133203 2:-3.4996875 
-0.1 1:0.43435742 2:-3.4658125 
-0.02915982005277537 1:0.3395625 2:-5.95575 
-0.01032434049922158 1:0.23536914 2:-4.077375 
-0.05073912736298984 1:0.26830078 2:-4.02525 
-0.007213000441969771 1:0.11264453 2:-1.797 
-0.09369950446961989 1:0.29606055 2:-4.3289375 
-0.01689788639662104 1:0.24211719 2:-3.517375 
-0.03077326665203086 1:0.37899609 2:-5.7434375 
-0.002734163611389194 1:0.30229102 2:-4.7425 
-0.03285674690166399 1:0.12721289 2:-1.0301875 
-0.1 1:0.31554102 2:-1.5011875 
-0.1 1:0.24451758 2:-2.7610625 
-0.02662025315448176 1:0.11088867 2:-0.5460625 
-0.03603313636748214 1:0.27491016 2:-3.939 
-0.1 1:0.19193359 2:-1.929375 
-0.007303861563714754 1:0.13757031 2:-0.627 
-0.02993354873504884 1:0.36097461 2:-6.4238125 
-0.1 1:0.21192773 2:-2.841125 
-0.02807563824294415 1:0.17518555 2:-0.4829375 
-0.006373735368830367 1:0.27646094 2:-4.252875 
-0.1 1:0.2531543 2:-3.0548125 
-0.01500294316105302 1:0.22181641 2:-4.1625625 
-0.1 1:0.41551562 2:-4.2259375 
-0.01255781867759453 1:0.28038086 2:-4.51125 
-0.1 1:0.30251172 2:-3.3386875 
-0.1 1:0.31775 2:-3.28175 
-0.07183687378153686 1:0.16332227 2:-0.216 
-0.02070266529956829 1:0.34806836 2:-4.6636875 
-0.1 1:0.41133203 2:-3.5669375 
-0.01520494043095821 1:0.2519707 2:-2.6255625 
-0.00309079705572643 1:0.12619336 2:-0.4399375 
-0.009007996406944403 1:0.14779688 2:-0.9204375 
-0.03983430459153342 1:0.11278516 2:-1.221 
-0.1 1:0.40025 2:-3.6605 
-0.1 1:0.30999805 2:-3.1918125 
-0.1 1:0.23283984 2:-3.2834375 
-0.022844165243735 1:0.27930078 2:-5.494625 
-0.05950817896175867 1:0.35349219 2:-6.191 
-0.09358663985518498 1:0.2585625 2:-5.0456875 
-0.03893771690308223 1:0.22933008 2:-1.4585 
-0.001800730221308445 1:0.17061133 2:-0.6801875 
-0.1 1:0.067253906 2:-1.4940625 
-0.04740039886103657 1:0.21780273 2:-2.6044375 
-0.01473834397718199 1:0.20986328 2:-4.2008125 
-0.01568004665277441 1:0.20324609 2:-0.926125 
-0.03469119681558521 1:0.11625781 2:-1.134125 
-0.1 1:0.36966211 2:-4.90725 
-0.009246798967591705 1:0.34374023 2:-5.2498125 
-0.02255702134181421 1:0.30128711 2:-4.9530625 
-0.09701846217112831 1:0.38156445 2:-5.0653125 
-0.06616917103500056 1:0.1959375 2:-2.11625 
-0.02872395186555881 1:0.092617187 2:-0.48525 
-0.02362509136905873 1:0.25723828 2:-4.764 
-0.1 1:0.18969141 2:-2.3571875 
-0.01531850296966249 1:0.2056543 2:-2.8788125 
-0.0793971315207299 1:0.1775332 2:-4.1705625 
-0.04316590731565845 1:0.28607422 2:-5.5879375 
-0.05971805553325565 1:0.22024414 2:-0.4883125 
-0.05351237312362364 1:0.38578516 2:-5.4433125 
-0.02856861405604484 1:0.21938672 2:-3.08825 
-0.03073666969428542 1:0.24838867 2:-5.320625 
-0.008067161608494727 1:0.24952539 2:-3.982125 
-0.01727620280366629 1:0.24919336 2:-3.9710625 
-0.004512946467328256 1:0.23006445 2:-4.1926875 
-0.1 1:0.25584961 2:-3.3073125 
-0.0739410919285903 1:0.15826172 2:-0.267 
-0.0527057817727287 1:0.22549609 2:-5.097125 
-0.1 1:0.21135742 2:-2.489 
-0.1 1:0.33640234 2:-3.262875 
-0.06715489561346694 1:0.31034766 2:-5.7493125 
-0.06228594342560838 1:0.33156641 2:-3.792 
-0.002301383772864239 1:0.28028516 2:-4.858875 
-0.1 1:0.27103711 2:-3.3648125 
-0.01358549890981604 1:0.26123828 2:-4.1660625 
-0.003256363854292364 1:0.20834961 2:-4.2320625 
-0.1 1:0.31878516 2:-2.9740625 
-0.0779302579555433 1:0.11845703 2:-2.042875 
-0.1 1:0.27779687 2:-2.887375 
-0.02241709929410737 1:0.338125 2:-5.053 
-0.046591570031229 1:0.2627793 2:-5.64825 
-0.07445018934196274 1:0.15448633 2:-3.7628125 
-0.03136368055985846 1:0.17179883 2:-4.12625 
-0.01455686378657831 1:0.26776367 2:-4.0185625 
-0.001125878400214926 1:0.1854707 2:-3.49675 
-0.1 1:0.36882813 2:-4.353 
-0.0167789676678489 1:0.13987891 2:-0.900375 
-0.02556737012324917 1:0.13016797 2:-0.4386875 
-0.004492041691129284 1:0.18399219 2:-0.6701875 
-0.04013276576955726 1:0.38566406 2:-5.403625 
-0.003748381714107513 1:0.25940625 2:-5.0618125 
-0.1 1:0.23073047 2:-1.6185625 
-0.03069037559401494 1:0.35150195 2:-5.98175 
-0.1 1:0.28249414 2:-2.825 
-0.1 1:0.21010352 2:-2.54275 
-0.09199775427121001 1:0.26740625 2:-0.86625 
-0.05106836810223876 1:0.12416602 2:-2.0903125 
-0.06663344212339321 1:0.44727148 2:-5.6630625 
-0.003949266544437167 1:0.15938086 2:-2.61975 
-0.02615957831798876 1:0.28100586 2:-4.2859375 
-0.1 1:0.30339062 2:-3.2913125 
-0.02870734424480316 1:0.2190332 2:-3.64075 
-0.1 1:0.24798438 2:-1.645375 
-0.01544172529903953 1:0.2899082 2:-4.8065 
-0.002001878035138412 1:0.13055664 2:-2.9695625 
-0.02783408015440118 1:0.27118945 2:-5.1365625 
-0.0204950966345655 1:0.34810156 2:-5.0919375 
-0.1 1:0.31481055 2:-3.7885625 
-0.1 1:0.36631055 2:-4.4484375 
-0.009857380205503086 1:0.34817773 2:-5.007625 
-0.06622460606322184 1:0.23831445 2:-5.6046875 
-0.1 1:0.31895703 2:-3.3794375 
-0.003402033723312234 1:0.23752344 2:-3.9145 
-0.05340483596548327 1:0.41186133 2:-5.304625 
-0.001044520512224312 1:0.27235742 2:-4.1454375 
-0.01827843717335005 1:0.36937305 2:-4.2505625 
-0.02816315676658564 1:0.12050781 2:-0.4821875 
-0.08140868529820847 1:0.2912832 2:-3.3300625 
-0.1 1:0.34373047 2:-3.911375 
-0.02008664825377892 1:0.34071094 2:-6.2910625 
-0.1 1:0.32033984 2:-3.4545625 
-0.02448289717269283 1:0.30007813 2:-4.4925625 
-0.01792550321058107 1:0.16587109 2:-3.019 
-0.1 1:0.29831641 2:-1.8839375 
-0.03092388601842061 1:0.095677734 2:-1.830875 
-0.1 1:0.51403125 2:-6.2425 
-0.01156900219882878 1:0.19711133 2:-3.1739375 
-0.05260944857422234 1:0.10279687 2:-0.2023125 
-0.004789483687675556 1:0.18440625 2:-0.6248125 
-0.02082549492669738 1:0.16266602 2:-3.3941875 
-0.04391931286699611 1:0.33097266 2:-4.5104375 
-0.01164768177578011 1:0.28774805 2:-4.69975 
-0.05609186672508373 1:0.2893125 2:-4.126625 
-0.00543062050002412 1:0.19066406 2:-3.7959375 
-0.01425678606150349 1:0.10416406 2:-1.4846875 
-0.01376477512530471 1:0.20395117 2:-3.1853125 
-0.0804476331122396 1:0.22599609 2:-5.2086875 
-0.09057023242771389 1:0.068253906 2:-1.364625 
-0.02473858334109125 1:0.13290039 2:-2.3090625 
-0.06382233537408788 1:0.16737891 2:-4.012875 
-0.1 1:0.36791797 2:-1.7798125 
-0.0245100500713539 1:0.12742188 2:-0.7746875 
-0.006721083316160181 1:0.23249414 2:-3.9426875 
-0.001276191240793347 1:0.26083203 2:-4.1255 
-0.1 1:0.1665918 2:-2.88275 
-0.001002041351354536 1:0.19740234 2:-3.2804375 
-0.0202669203953051 1:0.29211523 2:-5.5613125 
-0.02174224614403711 1:0.31208594 2:-5.566 
-0.002371559181642687 1:0.17560742 2:-3.4273125 
-0.1 1:0.46247266 2:-6.5006875 
-0.04377663179109342 1:0.36405469 2:-5.506625 
-0.009437199259395845 1:0.43275195 2:-5.0771875 
-0.1 1:0.20792578 2:-2.2953125 
-0.003476637258094008 1:0.23067773 2:-3.8641875 
-0.0006487923580786896 1:0.25251563 2:-4.2004375 
-0.02444442287467772 1:0.094371094 2:-0.669875 
-0.007785137797293112 1:0.31555273 2:-3.88875 
-0.02852304875421469 1:0.28324609 2:-4.5954375 
-0.0566914373962644 1:0.18854883 2:-1.38175 
-0.05996206060649979 1:0.093474609 2:-2.29 
-0.1 1:0.28992578 2:-2.24675 
-0.002913810090617 1:0.23155859 2:-4.342375 
-0.02433479825078509 1:0.16791992 2:-3.2544375 
-0.07114877492234031 1:0.24755859 2:-4.672875 
-0.008464247781626945 1:0.18728125 2:-3.3040625 
-0.02001688794214002 1:0.21092969 2:-3.133125 
-0.1 1:0.25750977 2:-2.2086875 
-0.005746864599874571 1:0.20247656 2:-3.79575 
-0.01928957501068431 1:0.27334961 2:-5.794 
-0.02230704930711752 1:0.15309961 2:-0.517875 
-0.1 1:0.35279102 2:-1.1444375 
-0.02035134587918216 1:0.16690234 2:-2.8409375 
-0.01759849047496542 1:0.22826563 2:-3.2530625 
-0.06680399514491774 1:0.13429297 2:-3.16725 
-0.02416181094693009 1:0.1972168 2:-0.7253125 
-0.1 1:0.26711914 2:-3.2993125 
-0.02542248250036978 1:0.35107031 2:-5.908875 
-0.01233438163363397 1:0.12067969 2:-1.18375 
-0.004863597355595791 1:0.22242773 2:-3.79525 
-0.01724841065795554 1:0.35369141 2:-5.0035 
-0.001980348393893383 1:0.13794531 2:-0.4776875 
-0.03660086651395927 1:0.13074219 2:-1.6263125 
-0.02019131686728837 1:0.11208398 2:-2.1299375 
-0.1 1:0.34270508 2:-2.6396875 
-0.1 1:0.2743457 2:-3.3559375 
-0.00674240041992972 1:0.20492383 2:-3.8988125 
-0.06861584920146635 1:0.29336914 2:-4.1166875 
-0.1 1:0.11805469 2:-2.27 
-0.0223364513898118 1:0.24758594 2:-5.0631875 
-0.004544514055435014 1:0.12449023 2:-0.4356875 
-0.1 1:0.29252734 2:-2.577 
-0.06507514566659475 1:0.19602539 2:-4.35925 
-0.0749276212926141 1:0.32923242 2:-4.2795625 
-0.02539728188413045 1:0.16345508 2:-1.4323125 
-0.002305949567177374 1:0.20339844 2:-3.30575 
-0.08589886224612583 1:0.067634766 2:-1.410875 
-0.04176135915338714 1:0.27808203 2:-3.8909375 
-0.04731477262615615 1:0.37120117 2:-5.6313125 
-0.02506800525522364 1:0.27562305 2:-3.7109375 
-0.09450193536409193 1:0.077263672 2:-1.0995 
-0.005857503875366497 1:0.27663672 2:-4.79175 
-0.0788701507404254 1:0.42146484 2:-5.1829375 
-0.0174397072988608 1:0.23776758 2:-4.4204375 
-0.02314257592781817 1:0.14896484 2:-0.9749375 
-0.02008335222514099 1:0.31027734 2:-5.6106875 
-0.01293131615397569 1:0.22788086 2:-4.53975 
-0.1 1:0.25639453 2:-2.3706875 
-0.02739011912860251 1:0.1909707 2:-3.004625 
-0.0167673297777643 1:0.19805664 2:-3.72775 
-0.1 1:0.27839453 2:-2.256625 
-0.01690338262574604 1:0.21866016 2:-3.9565625 
-0.01362669877551221 1:0.26405078 2:-4.7771875 
-0.01381355588743714 1:0.25408203 2:-4.2065 
-0.08466163885949134 1:0.34069922 2:-4.6513125 
-0.006289450750908532 1:0.25044922 2:-4.85525 
-0.03685199875890521 1:0.34156641 2:-4.8388125 
-0.05143741946692724 1:0.37999023 2:-5.022125 
-0.0007885113301527645 1:0.31932422 2:-5.7755 
-0.000737657679375392 1:0.17631641 2:-3.155625 
-0.009065330146373849 1:0.31383203 2:-5.590375 
-0.1 1:0.45179883 2:-3.507 
-0.02722849342981013 1:0.18862109 2:-3.5570625 
-0.004380688960653234 1:0.17878906 2:-0.7194375 
-0.04107804676301906 1:0.30238477 2:-4.3874375 
-0.03554030435185947 1:0.14083398 2:-2.108625 
-0.1 1:0.35771094 2:-4.2160625 
-0.06587676143688458 1:0.26362891 2:-5.6733125 
-0.02150920419050369 1:0.33438867 2:-4.930875 
-0.1 1:0.36505078 2:-3.2536875 
-0.1 1:0.32322656 2:-3.5009375 
-0.1 1:0.15420898 2:-1.619875 
-0.0171033239540535 1:0.16663672 2:-0.9226875 
-0.009248377456287963 1:0.20823437 2:-3.4113125 
-0.1 1:0.33098047 2:-2.8483125 
-0.005235018082503446 1:0.22445117 2:-4.268625 
-0.04019887913822218 1:0.20025195 2:-2.91475 
-0.001382631507734156 1:0.28589844 2:-4.4878125 
-0.0006554839113027677 1:0.15058984 2:-0.7519375 
-0.1 1:0.26771875 2:-2.972875 
-0.01928594015994206 1:0.1231543 2:-0.2958125 
-0.07672516163062698 1:0.36801953 2:-6.04 
-0.006625361406171947 1:0.39990039 2:-5.5281875 
-0.1 1:0.28196289 2:-3.4839375 
-0.0684663061042315 1:0.21367187 2:-5.067625 
-0.004289255742323464 1:0.20708398 2:-4.1880625 
-0.03047749514047737 1:0.29255078 2:-4.3645 
-0.06824739553768483 1:0.088455078 2:-2.1455 
-0.02455391816578539 1:0.18877344 2:-3.624875 
-0.02695077518548627 1:0.35183594 2:-4.9570625 
-0.01611598521965747 1:0.20397266 2:-2.873625 
-0.1 1:0.24696484 2:-2.446625 
-0.001179398260707673 1:0.34107617 2:-5.24025 
-0.06326581124367515 1:0.47109961 2:-4.566125 
-0.01960281628806215 1:0.36516211 2:-4.9870625 
-0.1 1:0.33252148 2:-2.671125 
-0.1 1:0.25854297 2:-1.9469375 
-0.1 1:0.2610918 2:-2.924625 
-0.09180429220775232 1:0.23245703 2:-1.195625 
-0.0107785839824243 1:0.32538672 2:-5.82175 
-0.1 1:0.30995703 2:-2.99925 
-0.02881050212747601 1:0.16880273 2:-3.3520625 
-0.03078218441029074 1:0.15566016 2:-2.349875 
-0.1 1:0.29147852 2:-2.597125 
-0.02894947046943738 1:0.14385742 2:-0.716375 
-0.01956995825019315 1:0.34291211 2:-6.461375 
-0.009809057929967006 1:0.28389648 2:-5.61625 
-0.1 1:0.39500586 2:-4.4770625 
-0.00817993031618163 1:0.2731875 2:-5.0144375 
-0.009098252213618794 1:0.36472656 2:-5.27075 
-0.007637457455268171 1:0.16991992 2:-2.7774375 
-0.002346616565002147 1:0.17342969 2:-3.4353125 
-0.1 1:0.40943945 2:-2.8265625 
-0.01653497490402383 1:0.16238672 2:-0.7190625 
-0.09302180800203355 1:0.1772793 2:-0.761 
-0.00210247008288563 1:0.21555469 2:-4.5850625 
-0.1 1:0.32717578 2:-3.737625 
-0.04571277566915129 1:0.26012891 2:-0.84825 
-0.0009273096204267456 1:0.30478516 2:-5.997625 
-0.01968439414027437 1:0.17308008 2:-1.1093125 
-0.0008402601423311284 1:0.24912695 2:-4.228375 
-0.003745199329989591 1:0.23514258 2:-3.5215 
-0.0852261244728922 1:0.24186328 2:-3.3234375 
-0.03869859770702223 1:0.22061328 2:-3.57275 
-0.08269160340076162 1:0.45618164 2:-6.5829375 
-0.06606831629154129 1:0.1523418 2:-3.6244375 
-0.002232898941980408 1:0.34011523 2:-5.440375 
-0.007523882930143944 1:0.20137891 2:-0.74275 
-0.006811425635867261 1:0.19694531 2:-3.9195625 
-0.001302422926477306 1:0.26556641 2:-4.6180625 
-0.0016343156108101 1:0.30444727 2:-5.1534375 
-0.01360081230216746 1:0.11030664 2:-0.315125 
-0.08723035153443029 1:0.23612891 2:-4.33225 
-0.002270683957680001 1:0.35916992 2:-5.396 
-0.02119990630419519 1:0.34183008 2:-6.1061875 
-0.03170829482831734 1:0.15191211 2:-2.062875 
-0.01197793312515847 1:0.26664453 2:-5.2673125 
-0.1 1:0.37297266 2:-4.1598125 
-0.0314928500734656 1:0.36796094 2:-5.66 
-0.0515474613503801 1:0.22320313 2:-2.806375 
-0.09813846970846203 1:0.29676953 2:-4.008375 
-0.0009229693201009415 1:0.14553125 2:-1.92825 
-0.01947640025615519 1:0.2469043 2:-4.0656875 
-0.01494512678281447 1:0.17110742 2:-3.1444375 
-0.06681771531556775 1:0.22573437 2:-5.1725625 
-0.04595561736525211 1:0.3979668 2:-6.434375 
-0.0163018595851867 1:0.14024805 2:-2.6734375 
-0.1 1:0.4510293 2:-4.106875 
-0.1 1:0.24357227 2:-2.9170625 
-0.01281764878061652 1:0.14313281 2:-2.5671875 
-0.04310672754510217 1:0.11248828 2:-0.94625 
-0.1 1:0.34807617 2:-3.3745 
-0.002425128503433636 1:0.16263477 2:-0.3573125 
-0.1 1:0.26610156 2:-3.7638125 
-0.01654613220057951 1:0.24111133 2:-4.3975625 
-0.02981226792015679 1:0.2978125 2:-5.98225 
-0.008400958847351449 1:0.37076953 2:-6.1594375 
-0.1 1:0.45806641 2:-2.8064375 
-0.004809434295888404 1:0.12524609 2:-0.281875 
-0.01188076890277058 1:0.32921094 2:-5.0735625 
-0.1 1:0.22776367 2:-2.785125 
-0.06364593289510674 1:0.17836914 2:-2.2420625 
-0.01973182036643388 1:0.15488867 2:-2.5001875 
-0.01287102212596783 1:0.156 2:-3.389625 
-0.02150899781643365 1:0.27503906 2:-3.7306875 
-0.08879470977808993 1:0.22514648 2:-3.759375 
-0.1 1:0.38961328 2:-2.5674375 
-0.0139302314230512 1:0.2636875 2:-4.38825 
-0.001226884605371416 1:0.27745898 2:-4.6110625 
-0.1 1:0.26649414 2:-2.323875 
-0.002322413316475322 1:0.19732812 2:-3.4299375 
-0.03718329836171796 1:0.36026172 2:-5.9035625 
-0.001452934816979496 1:0.23233203 2:-4.4281875 
-0.01358883840557403 1:0.37423047 2:-5.276625 
-0.07419718588604272 1:0.38608594 2:-4.26 
-0.001948052192407741 1:0.17437305 2:-1.1169375 
-0.01351234985522354 1:0.13685547 2:-1.0016875 
-0.02172432841507767 1:0.18249219 2:-0.9104375 
-0.1 1:0.36771484 2:-4.042875 
-0.01703976986312834 1:0.18004883 2:-0.660875 
-0.02586045286189745 1:0.35266797 2:-6.0053125 
-0.1 1:0.26779102 2:-3.713875 
-0.01809877786816967 1:0.34047852 2:-4.48025 
-0.07685498942583097 1:0.1944375 2:-2.5219375 
-0.03405341793275006 1:0.38863281 2:-5.3104375 
-0.03452630222011331 1:0.40545312 2:-6.2274375 
-0.05850985691690821 1:0.42217578 2:-5.0205625 
-0.008752749314178741 1:0.2803125 2:-4.0429375 
-0.01252451514730857 1:0.11771484 2:-0.616875 
-0.0498989511096735 1:0.24993945 2:-5.5373125 
-0.003233886970053149 1:0.27573242 2:-5.548875 
-0.01059512329067519 1:0.26983984 2:-5.2569375 
-0.003788055500791107 1:0.16998047 2:-2.7985625 
-0.0893957818816887 1:0.1092793 2:-0.1195 
-0.01325106243292228 1:0.35357227 2:-5.38325 
-0.01230623526342779 1:0.2801875 2:-4.254 
-0.1 1:0.081978516 2:-1.5713125 
-0.0155207472074104 1:0.2487207 2:-5.019875 
-0.07716996964574513 1:0.41233789 2:-5.5705 
-0.01071506999527157 1:0.33357617 2:-5.66975 
-0.01336488967189918 1:0.2030957 2:-3.4150625 
-0.02144962633037661 1:0.35733008 2:-5.43475 
-0.05171235693640022 1:0.2023457 2:-0.782375 
-0.007328827041183835 1:0.20660742 2:-3.4691875 
-0.006693642255843131 1:0.23970312 2:-3.829 
-0.001958618385591097 1:0.12463281 2:-2.6011875 
-0.0812309092367165 1:0.26615234 2:-6.0169375 
-0.09209294692533328 1:0.41826953 2:-5.916375 
-0.006523349915198997 1:0.14452539 2:-0.301 
-0.009706372071863331 1:0.3138457 2:-6.0845625 
-0.003148558726218482 1:0.31440039 2:-5.4684375 
-0.003898980968873031 1:0.36196094 2:-4.796 
-0.02229754531782549 1:0.14639062 2:-1.8294375 
-0.007532918738809124 1:0.26769531 2:-4.6426875 
-0.1 1:0.2853125 2:-2.308875 
-0.1 1:0.20248633 2:-1.470125 
-0.1 1:0.45663086 2:-6.1100625 
-0.03230476062035516 1:0.29107422 2:-4.6368125 
-0.002328041327114726 1:0.21548828 2:-3.7371875 
-0.03553202310198289 1:0.26000781 2:-4.66625 
-0.07243733569158083 1:0.23530273 2:-1.1014375 
-0.1 1:0.28808594 2:-2.365375 
-0.1 1:0.33440625 2:-3.9676875 
-0.004286575951862667 1:0.27851172 2:-5.1588125 
-0.0187854351922081 1:0.26445508 2:-4.4808125 
-0.01675583215011962 1:0.1700625 2:-0.4009375 
-0.1 1:0.36500586 2:-4.0619375 
-0.002659985502417306 1:0.14279883 2:-0.327 
-0.01900390707294344 1:0.23808984 2:-4.31375 
-0.01503456802956066 1:0.15686523 2:-1.1291875 
-0.04184024488586948 1:0.17675195 2:-3.076 
-0.1 1:0.25363281 2:-2.1921875 
-0.007050546191183196 1:0.2194043 2:-3.8799375 
-0.1 1:0.31833984 2:-3.9101875 
-0.1 1:0.3555332 2:-3.0255 
-0.0972102867896192 1:0.074298828 2:-1.0331875 
-0.005481566606121402 1:0.15201953 2:-0.5875625 
-0.02548564605764185 1:0.29874609 2:-4.3555625 
-0.00950060888101633 1:0.27525195 2:-4.4076875 
-0.02824446364778487 1:0.20822461 2:-0.7538125 
-0.02614039921084516 1:0.35155469 2:-4.9226875 
-0.1 1:0.48707422 2:-3.45225 
-0.03011873476221094 1:0.13548828 2:-3.4148125 
-0.06959084707616855 1:0.42402148 2:-4.7025625 
-0.07720077466803829 1:0.13750977 2:-3.2733125 
-0.001169231133284497 1:0.28788477 2:-4.9349375 
-0.1 1:0.24219531 2:-1.26275 
-0.1 1:0.24695898 2:-2.8726875 
-0.08114868016069046 1:0.081591797 2:-1.7980625 
-0.01769939839117447 1:0.32268945 2:-6.0975 
-0.002189274155144139 1:0.25415039 2:-4.566625 
-0.1 1:0.34248828 2:-3.007375 
-0.03433583762307618 1:0.40051758 2:-6.0948125 
-0.1 1:0.34244141 2:-3.0976875 
-0.01450052946045906 1:0.39870508 2:-6.2614375 
-0.07831189823810789 1:0.42748242 2:-5.4629375 
-0.06818775171817956 1:0.38851953 2:-5.6038125 
-0.01109623538221806 1:0.13301367 2:-0.365 
-0.03010879408731074 1:0.19777344 2:-3.8985625 
-0.005163829377192683 1:0.293625 2:-4.611625 
-0.0195080934787665 1:0.13299805 2:-2.9773125 
-0.07493704433540475 1:0.41588477 2:-5.7424375 
-0.008754910120407113 1:0.35743555 2:-5.2845 
-0.1 1:0.18525781 2:-3.2083125 
-0.1 1:0.24451562 2:-2.5500625 
-0.01708646370035128 1:0.34503711 2:-5.2139375 
-0.08444568666671487 1:0.18665039 2:-4.4296875 
-0.009613562083710669 1:0.15307227 2:-0.6921875 
-0.09733408748797104 1:0.31378711 2:-4.869 
-0.03092581270609591 1:0.35479102 2:-5.16575 
-0.1 1:0.29193555 2:-4.3520625 
-0.1 1:0.31791016 2:-3.7708125 
-0.1 1:0.45997461 2:-6.2921875 
-0.00646067263540666 1:0.17914844 2:-3.2561875 
-0.007162805895322422 1:0.1252207 2:-0.51525 
-0.003024602576389578 1:0.18955664 2:-0.8383125 
-0.1 1:0.39195898 2:-3.22275 
-0.003740242336207584 1:0.30759375 2:-4.9255 
-0.02255480516470483 1:0.32304297 2:-5.7953125 
-0.1 1:0.25284766 2:-1.5586875 
-0.009917352220397649 1:0.29069922 2:-5.8220625 
-0.01696762143095798 1:0.28633789 2:-3.591 
-0.00122894740482996 1:0.28758984 2:-5.0668125 
-0.05380945568482494 1:0.2184043 2:-3.258125 
-0.1 1:0.29217773 2:-3.0855625 
-0.1 1:0.43722656 2:-4.279375 
-0.098468246984955 1:0.17835937 2:-2.29925 
-0.0130955684709755 1:0.2986543 2:-4.975125 
-0.07422744860447526 1:0.21555273 2:-0.8249375 
-0.07172492782653753 1:0.42158008 2:-4.9910625 
-0.1 1:0.3217832 2:-2.419625 
-0.02042193664080824 1:0.24305469 2:-4.645625 
-0.002428685175904984 1:0.15863672 2:-3.6760625 
-0.01638253967422735 1:0.25982422 2:-4.185375 
-0.1 1:0.19230078 2:-1.6540625 
-0.1 1:0.34135156 2:-3.9849375 
-0.06844892069742763 1:0.20566406 2:-0.5256875 
-0.01613581542305964 1:0.33800977 2:-5.073625 
-0.1 1:0.30161523 2:-4.6424375 
-0.06598075425183147 1:0.1397793 2:-3.1024375 
-0.1 1:0.27892383 2:-4.925875 
-0.01179090110877187 1:0.16818945 2:-3.3835 
-0.003722223258359699 1:0.20436328 2:-0.445625 
-0.1 1:0.33954297 2:-2.632375 
-0.1 1:0.32357812 2:-3.277 
-0.003279351963376112 1:0.2949082 2:-5.2358125 
-0.1 1:0.36425586 2:-4.5600625 
-0.01127756910253777 1:0.13743359 2:-0.297875 
-0.1 1:0.32547656 2:-3.5169375 
-0.09579226554063298 1:0.39505078 2:-4.75675 
-0.003213770812334393 1:0.2971875 2:-5.19825 
-0.07095183172077693 1:0.39997852 2:-5.778625 
-0.02562303587608973 1:0.21311133 2:-0.706 
-0.1 1:0.30215625 2:-3.0803125 
-0.1 1:0.32233594 2:-3.5528125 
-0.1 1:0.44541211 2:-6.16325 
-0.1 1:0.25748828 2:-0.9090625 
-0.1 1:0.5193418 2:-3.74275 
-0.01316473490243488 1:0.20559375 2:-0.657125 
-0.1 1:0.55966797 2:-2.449125 
-0.1 1:0.3116875 2:-3.424125 
-0.006123538877100045 1:0.21264844 2:-2.9796875 
-0.009431395387115554 1:0.27027148 2:-4.435875 
-0.03680703227649901 1:0.30384375 2:-4.66825 
-0.05120212618392062 1:0.15964258 2:-4.055 
-0.002726327424241794 1:0.22532617 2:-3.8934375 
-0.03508920510594772 1:0.19938086 2:-4.527 
-0.1 1:0.39397461 2:-3.8175 
-0.005173724556818621 1:0.27357227 2:-4.515875 
-0.07389496287220458 1:0.31735547 2:-3.8170625 
-0.01424350001823436 1:0.30526953 2:-5.664125 
-0.1 1:0.42770703 2:-5.0911875 
-0.1 1:0.24613477 2:-3.1555 
-0.001450657731661662 1:0.22247266 2:-3.88825 
-0.002106665932789162 1:0.34061719 2:-4.7765625 
-0.01132264944546032 1:0.13354297 2:-0.4223125 
-0.08526352948624126 1:0.060169922 2:-0.6791875 
-0.06344150064189794 1:0.25020898 2:-5.5086875 
-0.003376343010772729 1:0.28662109 2:-4.48925 
-0.08304713612323253 1:0.1423125 2:-3.2208125 
-0.007213879734237 1:0.16048437 2:-0.496375 
-0.01432006799161252 1:0.28834766 2:-5.5510625 
-0.02017433759155493 1:0.13848047 2:-2.4273125 
-0.1 1:0.27323437 2:-4.4154375 
-0.08512722011201028 1:0.37833398 2:-4.7169375 
-0.03846107256221226 1:0.12141992 2:-0.1913125 
-0.03371979629691428 1:0.13850586 2:-3.0759375 
-0.08720242278645819 1:0.2079375 2:-2.7189375 
-0.05411260906409343 1:0.46201172 2:-5.260375 
-0.006661162299753537 1:0.22920898 2:-4.2850625 
-0.1 1:0.40496289 2:-6.0150625 
-0.1 1:0.25445313 2:-3.2235625 
-0.08893489189561814 1:0.25813672 2:-5.1858125 
-0.02936067041751483 1:0.37478125 2:-5.4715 
-0.04378806317474047 1:0.17454883 2:-3.9793125 
-0.02511293544106211 1:0.38183594 2:-4.813125 
-0.005490772315914326 1:0.21798242 2:-3.359625 
-0.09824027918812964 1:0.43591602 2:-5.860375 
-0.004033342041439252 1:0.28875781 2:-4.933 
-0.02605672537373682 1:0.33665625 2:-4.9698125 
-0.02725852749429408 1:0.28824609 2:-6.03575 
-0.06445581288744467 1:0.3889668 2:-4.9733125 
-0.05126931002580971 1:0.13053516 2:-1.8559375 
-0.01144688499672297 1:0.24987891 2:-4.8996875 
-1.319901169845902e-05 1:0.35918359 2:-5.1936875 
-0.1 1:0.46342969 2:-3.82325 
-0.1 1:0.35457227 2:-3.133 
-0.01937459523287607 1:0.18685742 2:-0.795125 
-0.1 1:0.29430664 2:-3.5336875 
-0.1 1:0.36907031 2:-3.72325 
-0.01664099979216337 1:0.19176563 2:-3.596625 
-0.1 1:0.25565625 2:-1.4544375 
-0.00159199151490963 1:0.16342383 2:-1.017125 
-0.02609599053217865 1:0.23354297 2:-3.1538125 
-0.1 1:0.15744727 2:-3.6728125 
-0.0129976936105425 1:0.15344531 2:-0.9359375 
-0.1 1:0.231125 2:-0.94875 
-0.1 1:0.30932617 2:-3.8633125 
-0.05672735651415847 1:0.23319922 2:-5.2978125 
-0.04520674013174519 1:0.30793164 2:-4.2683125 
-0.08459200383353753 1:0.19241016 2:-3.4095625 
-0.005315554788318161 1:0.31595508 2:-5.7154375 
-0.02375450941914211 1:0.11741211 2:-0.589875 
-0.003516565674851366 1:0.25419531 2:-4.5434375 
-0.006967846721970835 1:0.12306641 2:-0.3733125 
-0.002111793532012241 1:0.23883594 2:-4.293125 
-0.03667630217529267 1:0.30394922 2:-5.17475 
-0.1 1:0.36295508 2:-4.2379375 
-0.1 1:0.21916016 2:-2.79625 
-0.1 1:0.22049219 2:-2.84775 
-0.002447465605693478 1:0.12527344 2:-0.50725 
-0.02860834600976412 1:0.2322168 2:-4.5760625 
-0.01203975920794433 1:0.24007813 2:-4.6259375 
-0.1 1:0.48145117 2:-3.388 
-0.03505890591986018 1:0.25998047 2:-4.9770625 
-0.05342022368486626 1:0.30577539 2:-4.2723125 
-0.08388938912645477 1:0.093222656 2:-0.914125 
-0.003664726582673186 1:0.27255078 2:-4.94375 
-0.09571187775748553 1:0.23630273 2:-1.0464375 
-0.05898863711956919 1:0.21675391 2:-1.0773125 
-0.01151467644386069 1:0.23004102 2:-4.380125 
-0.0222653499462154 1:0.19223047 2:-0.8635 
-0.006525828873500595 1:0.16627539 2:-0.5924375 
-0.007409736591522328 1:0.17333594 2:-1.2938125 
-0.04240005115521101 1:0.34725 2:-6.13525 
-0.003327918009644031 1:0.2641543 2:-5.26025 
-0.0160603772863234 1:0.21741602 2:-3.2058125 
-0.0047429063744236 1:0.27183984 2:-5.1100625 
-0.01721887585939976 1:0.16394531 2:-1.220625 
-0.005066292463582197 1:0.19366406 2:-0.4765 
-0.1 1:0.38183594 2:-2.5176875 
-0.1 1:0.37650977 2:-3.31375 
-0.00996515691390496 1:0.17456055 2:-2.679625 
-0.0973400144975827 1:0.18330469 2:-1.0176875 
-0.08724651247988369 1:0.44936328 2:-4.8013125 
-0.01824940174607572 1:0.17063867 2:-2.7429375 
-0.02646809368676413 1:0.27267773 2:-3.639 
-0.06899504608902959 1:0.32199414 2:-3.3899375 
-0.1 1:0.56246484 2:-4.2535625 
-0.09687105055973744 1:0.23668945 2:-3.4695625 
-0.1 1:0.16313281 2:-2.268625 
-0.1 1:0.4074082 2:-3.9875 
-0.08426831669719234 1:0.081677734 2:-1.615 
-0.01936120534042032 1:0.24498437 2:-4.217875 
-0.007530591735787405 1:0.19199219 2:-3.532125 
-0.0009650108929400465 1:0.13424219 2:-0.5000625 
-0.01967579519768983 1:0.20055078 2:-4.0369375 
-0.03255783144302279 1:0.36369922 2:-5.36625 
-0.02000683821036386 1:0.27689648 2:-4.442125 
-0.1 1:0.29733594 2:-3.103625 
-0.01446890332976803 1:0.30044727 2:-5.491125 
-0.05116834713300741 1:0.15626562 2:-1.477 
-0.06867588697320444 1:0.23024805 2:-4.4745 
-0.004512517596225896 1:0.15219141 2:-0.6 
-0.03377530779806329 1:0.31042773 2:-4.4314375 
-0.0221581403899247 1:0.22792773 2:-3.4629375 
-0.003717744087733985 1:0.2695293 2:-5.125 
-0.09272903353746667 1:0.22366992 2:-1.713625 
-0.06799524655276595 1:0.2375957 2:-3.8353125 
-0.05517977142756234 1:0.20280469 2:-1.346875 
-0.0174901594069487 1:0.24639063 2:-4.836125 
-0.004133712600366768 1:0.27832422 2:-5.4890625 
-0.002089426648289342 1:0.098625 2:-0.66875 
-0.02714915746714719 1:0.36860742 2:-5.2060625 
-0.1 1:0.2439668 2:-3.3909375 
-0.1 1:0.46158789 2:-6.3245 
-0.007601217809232486 1:0.22305664 2:-3.5366875 
-0.009848417606121557 1:0.39264844 2:-5.5818125 
-0.02440491521003282 1:0.17101563 2:-2.8414375 
-0.05459892621123772 1:0.20975977 2:-3.153625 
-0.1 1:0.25452539 2:-1.412375 
-0.03470693500102592 1:0.170125 2:-0.8236875 
-0.004234911334976746 1:0.30970703 2:-5.2878125 
-0.004831488772218298 1:0.29679883 2:-4.7449375 
-0.1 1:0.45111328 2:-4.638 
-0.1 1:0.40599219 2:-2.685625 
-0.1 1:0.19665234 2:-1.8435 
-0.06450126271406464 1:0.31580664 2:-4.41175 
-0.02030825598932923 1:0.22076563 2:-0.85375 
-0.1 1:0.25162305 2:-3.468375 
-0.1 1:0.35423242 2:-3.837 
-0.001106443128507369 1:0.20280859 2:-4.48875 
-0.01630072597779504 1:0.37798242 2:-5.36075 
-0.05531024458005087 1:0.11468945 2:-2.700125 
-0.03820173871093712 1:0.15878711 2:-2.5393125 
-0.02773021516213179 1:0.17297461 2:-3.49175 
-0.02015605902634749 1:0.10909375 2:-1.11075 
-0.001266102120812012 1:0.27822461 2:-4.0888125 
-0.007901174227568945 1:0.19563672 2:-3.308 
-0.1 1:0.2102168 2:-2.0330625 
-0.1 1:0.4163418 2:-3.113875 
-0.04383700543971671 1:0.36164258 2:-5.9445 
-0.009607277417144615 1:0.20408203 2:-4.0919375 
-0.02597226876323705 1:0.2892832 2:-4.5595 
-0.01026648124954528 1:0.21239258 2:-2.7041875 
-0.08452508952022474 1:0.15073828 2:-3.9104375 
-0.1 1:0.2700332 2:-3.06725 
-0.1 1:0.20934766 2:-2.263375 
-0.003400145302671713 1:0.17188867 2:-0.9570625 
-0.1 1:0.1951543 2:-2.4258125 
-0.007155423726890649 1:0.14626172 2:-2.79875 
-0.01555997075362246 1:0.36598828 2:-5.2701875 
-0.02518033113266601 1:0.22498242 2:-4.971 
-0.1 1:0.29958203 2:-3.055375 
-0.007652550536974782 1:0.14494531 2:-0.4871875 
-0.1 1:0.30668164 2:-3.5968125 
-0.1 1:0.29225195 2:-2.52325 
-0.01773925975492639 1:0.12764062 2:-0.390375 
-0.1 1:0.34680664 2:-2.6586875 
-0.0271411733428738 1:0.38100195 2:-4.0913125 
-0.1 1:0.53747656 2:-5.9125 
-0.000825906707983548 1:0.2657168 2:-4.5379375 
-0.1 1:0.44066992 2:-4.3504375 
-0.03553129843802504 1:0.12333398 2:-0.8314375 
-0.01068177103045548 1:0.37031445 2:-6.1486875 
-0.1 1:0.31226367 2:-3.6335625 
-0.1 1:0.40533789 2:-6.4565 
-0.03089704248165604 1:0.088017578 2:-0.839125 
-0.05504573912543471 1:0.17714062 2:-2.3680625 
-0.03181896383926523 1:0.15716602 2:-1.198625 
-0.1 1:0.22986914 2:-4.2670625 
-0.005992081869918522 1:0.1249668 2:-0.989125 
-0.02156125410083678 1:0.27955469 2:-5.9626875 
-0.1 1:0.22633984 2:-2.71225 
-0.0007754225640610969 1:0.26612891 2:-5.0080625 
-0.01811836312292539 1:0.2707832 2:-5.3389375 
-0.008647790569521419 1:0.18694922 2:-1.42925 
-0.05176430385373529 1:0.25022266 2:-4.73425 
-0.1 1:0.47007031 2:-3.4156875 
-0.003126774215310992 1:0.22918164 2:-3.73375 
-0.03645638681892141 1:0.1352793 2:-2.868875 
-0.05070003256215398 1:0.18658008 2:-1.3195 
-0.007801052633843397 1:0.15537305 2:-0.8425 
-0.08749929949615953 1:0.1295293 2:-3.367125 
-0.08248247400262934 1:0.28197461 2:-5.886 
-0.04375133536923956 1:0.18408398 2:-1.84125 
-0.007387689964464292 1:0.34041602 2:-5.3165625 
-0.06525132829509088 1:0.4300293 2:-5.5360625 
-0.08787190993189345 1:0.26716211 2:-0.6474375 
-0.009515841037273882 1:0.20287305 2:-3.1580625 
-0.03497924657993629 1:0.21882617 2:-0.8991875 
-0.001645616281491671 1:0.20799219 2:-4.0975625 
-0.05544448731300266 1:0.34523242 2:-6.061875 
-0.001535274491929654 1:0.17468945 2:-3.070375 
-0.07155531762467794 1:0.21282422 2:-4.698 
-0.0005714685792764335 1:0.17742578 2:-3.540875 
-0.04726048808435721 1:0.40452344 2:-5.27575 
-0.0123097982964021 1:0.1173418 2:-0.5135 
-0.01381817616615208 1:0.10651563 2:-2.3258125 
-0.1 1:0.27590625 2:-3.695875 
-0.001517584533033653 1:0.23073633 2:-3.6994375 
-0.04825324696871069 1:0.30724805 2:-5.9245625 
-0.1 1:0.19752148 2:-2.3913125 
-0.1 1:0.37532617 2:-3.6785 
-0.05951716443946992 1:0.25470508 2:-0.922875 
-0.03817327714404899 1:0.29476172 2:-4.2281875 
-0.01541482669798987 1:0.14204102 2:-0.9299375 
-0.003602554915343984 1:0.12369336 2:-0.511125 
-0.1 1:0.48453711 2:-3.700375 
-0.00343475378634914 1:0.36611328 2:-5.1491875 
-0.03229134136200217 1:0.2424082 2:-4.52975 
-0.0270503708864692 1:0.34991016 2:-4.7875 
-0.1 1:0.27304883 2:-2.7235625 
-0.1 1:0.44399023 2:-4.749625 
-0.002017588006028753 1:0.22812305 2:-4.5526875 
-0.002207380568104766 1:0.20053906 2:-3.7035 
-0.02017570936281152 1:0.28833789 2:-5.0376875 
-0.02009250031859806 1:0.11673633 2:-2.6884375 
-0.01041160866409337 1:0.37456445 2:-3.8265 
-0.007212697175139735 1:0.19811523 2:-0.6894375 
-0.1 1:0.19657227 2:-2.5599375 
-0.04551440063707791 1:0.20330078 2:-3.322625 
-0.1 1:0.27653906 2:-1.923375 
-0.001044539708086172 1:0.19692188 2:-3.39575 
-0.1 1:0.40304883 2:-4.162625 
-0.06869774843246049 1:0.18490625 2:-4.305 
-0.1 1:0.26129492 2:-2.958625 
-0.1 1:0.28387305 2:-3.2044375 
-0.02658376292368379 1:0.21319141 2:-3.8570625 
-0.002301696457874279 1:0.31765234 2:-5.4841875 
-0.05716113488522782 1:0.45636133 2:-5.3300625 
-0.01774617886826258 1:0.2922207 2:-5.43275 
-0.004361799722695285 1:0.28523633 2:-5.0523125 
-0.1 1:0.31657031 2:-3.592375 
-0.1 1:0.39553906 2:-4.077875 
-0.1 1:0.31813086 2:-3.305625 
-0.0763671533593132 1:0.26014062 2:-5.9321875 
-0.1 1:0.26974414 2:-2.4686875 
-0.1 1:0.38944922 2:-2.8925625 
-0.02339723449167983 1:0.22074023 2:-4.273625 
-0.1 1:0.45644531 2:-5.909 
-0.04211619602904146 1:0.166 2:-1.25175 
-0.1 1:0.27573242 2:-2.024875 
-0.002723919269755245 1:0.21227734 2:-3.9625 
-0.05673244487047786 1:0.25078516 2:-2.29325 
-0.03355822392342706 1:0.20798828 2:-4.5903125 
-0.04736052107550455 1:0.13479492 2:-1.7898125 
-0.02172481546959429 1:0.18848047 2:-3.5241875 
-0.1 1:0.35983789 2:-4.137 
-0.1 1:0.21389453 2:-2.7635625 
-0.07487857461831825 1:0.35028711 2:-6.351625 
-0.002947125152064601 1:0.13136719 2:-0.8565625 
-0.0316240771529438 1:0.26124219 2:-4.48975 
-0.002045223352214328 1:0.15460156 2:-3.2545625 
-0.05332873993257545 1:0.35314844 2:-5.3280625 
-0.03203073885710783 1:0.26600391 2:-5.95225 
-0.07302429888560366 1:0.20575391 2:-4.6519375 
-0.004446091465955405 1:0.14311133 2:-0.8130625 
-0.09290848937290197 1:0.24325195 2:-0.4575625 
-0.1 1:0.28405273 2:-2.7609375 
-0.004332328932572072 1:0.27324805 2:-4.7464375 
-0.1 1:0.37638086 2:-6.194875 
-0.1 1:0.2951543 2:-3.1799375 
-0.1 1:0.29777344 2:-3.685375 
-0.01167181375392199 1:0.19857227 2:-3.7183125 
-0.007351607208732601 1:0.30508008 2:-5.212875 
-0.0513797601268768 1:0.12804883 2:-2.8983125 
-0.1 1:0.2793418 2:-3.8708125 
-0.01489077060766314 1:0.21583203 2:-3.4614375 
-0.07853205169990203 1:0.20551367 2:-0.3664375 
-0.1 1:0.23113867 2:-2.8440625 
-0.002789692732748992 1:0.20022656 2:-3.5161875 
-0.003214638855712864 1:0.10522656 2:-1.86675 
-0.001444859408723249 1:0.2544375 2:-4.094875 
-0.006000355333177625 1:0.25855664 2:-4.6235625 
-0.1 1:0.27598047 2:-3.708 
-0.01591659534417905 1:0.28354492 2:-5.3231875 
-0.1 1:0.29116406 2:-4.66075 
-0.03695175369646197 1:0.28167578 2:-4.304125 
-0.001629379068466585 1:0.11247852 2:-0.70775 
-0.007466243405871315 1:0.28095313 2:-3.7199375 
-0.02353100514135176 1:0.21380859 2:-4.451875 
-0.007330195512564088 1:0.23649805 2:-4.5658125 
-0.03777905270519641 1:0.22727734 2:-3.095375 
-0.03213960186617508 1:0.24078906 2:-3.714875 
-0.1 1:0.28462109 2:-2.889125 
-0.0786445259894428 1:0.087685547 2:-0.4531875 
-0.0202411161593089 1:0.20870898 2:-4.1036875 
-0.07130176759352305 1:0.17305469 2:-1.5033125 
-0.07120231688607281 1:0.098136719 2:-1.4321875 
-0.07518011341135797 1:0.10350977 2:-0.1501875 
-0.05823005049141817 1:0.35803711 2:-4.82725 
-0.074996000999367 1:0.12846289 2:-2.95275 
-0.1 1:0.20105469 2:-3.171 
-0.01040020802220744 1:0.33949219 2:-4.249625 
-0.1 1:0.30962891 2:-2.9985 
-0.07821045857584193 1:0.35354297 2:-7.0851875 
-0.1 1:0.32399805 2:-3.6455625 
-0.1 1:0.41155273 2:-6.8126875 
-0.0305006548406592 1:0.28777148 2:-3.8546875 
-0.02487647082213201 1:0.3371582 2:-3.8149375 
-0.1 1:0.27303906 2:-3.137875 
-0.01671295019675816 1:0.3152832 2:-4.88725 
-0.08223210332367191 1:0.46754492 2:-5.648125 
-0.01469374787669327 1:0.19514063 2:-3.7558125 
-0.01375616947965824 1:0.19822656 2:-4.0500625 
-0.1 1:0.17382031 2:-1.9191875 
-0.02692298492943002 1:0.33055664 2:-5.0335 
-0.002807096134164282 1:0.33832227 2:-4.7073125 
-0.1 1:0.19689648 2:-1.5423125 
-0.01860994014433226 1:0.25383398 2:-5.38075 
-0.0009040659230843907 1:0.23304492 2:-3.69675 
-0.05233390756972897 1:0.304 2:-4.2009375 
-0.1 1:0.37572656 2:-4.8021875 
-0.1 1:0.37445117 2:-4.3005625 
-0.03761311521372822 1:0.19626367 2:-2.565125 
-0.001942906204255139 1:0.20078906 2:-3.7110625 
-0.07145831327512957 1:0.29921875 2:-4.207375 
-0.04180013254457156 1:0.20357617 2:-2.9443125 
-0.1 1:0.48716016 2:-4.86025 
-0.1 1:0.18283203 2:-1.520625 
-0.01484355431105599 1:0.3160957 2:-4.733375 
-0.04957838020597763 1:0.21106641 2:-1.4304375 
-0.01017108997181674 1:0.12993359 2:-1.4123125 
-0.008009613500585672 1:0.25910937 2:-4.9125 
-0.1 1:0.28037109 2:-1.59875 
-0.005070553017393287 1:0.30709375 2:-4.985375 
-0.05854608545893562 1:0.47537305 2:-4.7585 
-0.1 1:0.39850391 2:-5.1421875 
-0.01437165535045641 1:0.20291211 2:-3.866875 
-0.04610456453580977 1:0.12989258 2:-2.002875 
-0.07186094714103808 1:0.241125 2:-3.359 
-0.1 1:0.41378516 2:-2.7640625 
-0.01653706566032597 1:0.16974609 2:-0.8895625 
-0.05307433595824531 1:0.20427539 2:-3.7735625 
-0.1 1:0.22368359 2:-2.012125 
-0.01889101448112099 1:0.13432812 2:-2.488 
-0.0698000272610806 1:0.34370508 2:-6.6133125 
-0.02463263593444062 1:0.16288086 2:-2.8126875 
-0.05406989613916689 1:0.32238477 2:-4.7973125 
-0.02054067349844699 1:0.33034961 2:-5.5365 
-0.0315671524839766 1:0.29444336 2:-5.786 
-0.04603792169146981 1:0.15018359 2:-0.1978125 
-0.0117760509676432 1:0.23153711 2:-4.829875 
-0.1 1:0.2595918 2:-3.181375 
-0.0117720113375552 1:0.15406055 2:-2.5658125 
-0.1 1:0.27037305 2:-5.205125 
-0.0008438690783394986 1:0.31575195 2:-5.014625 
-0.0713679795381832 1:0.31990625 2:-4.2178125 
-0.0201242479812291 1:0.16690234 2:-0.4658125 
-0.1 1:0.434875 2:-4.560125 
-0.01647525020278602 1:0.22183594 2:-4.183375 
-0.03936650198239734 1:0.12914453 2:-2.9133125 
-0.02021355343982651 1:0.3109375 2:-4.4159375 
-0.03683606753658868 1:0.33244727 2:-5.4505 
-0.07635441268277585 1:0.44413086 2:-5.4968125 
-0.07411916799742582 1:0.31887695 2:-4.1925625 
-0.01159566561599047 1:0.25603906 2:-5.0956875 
-0.067634039680251 1:0.15527148 2:-3.574 
-0.002157178593143389 1:0.26486133 2:-3.8655625 
-0.03781976629458608 1:0.20321094 2:-4.504 
-0.04619407724242194 1:0.10207617 2:-1.067 
-0.03741718077442233 1:0.12187695 2:-0.573875 
-0.03910298957500911 1:0.12036133 2:-1.40125 
-0.1 1:0.45689844 2:-4.434625 
-0.00331209327030919 1:0.25349023 2:-4.5400625 
-0.1 1:0.22959961 2:-2.5274375 
-0.1 1:0.3301582 2:-4.557875 
-0.04534978368145855 1:0.26777344 2:-3.47225 
-0.003502844437455567 1:0.17282227 2:-3.03875 
-0.01413720538907751 1:0.19192969 2:-3.6740625 
-0.1 1:0.34269922 2:-4.25825 
-0.02980936560419694 1:0.13950586 2:-0.9530625 
-0.1 1:0.25325586 2:-2.34125 
-0.01265508199513668 1:0.14672852 2:-0.4580625 
-0.01083839781396199 1:0.25155859 2:-4.918375 
-0.006204715474110258 1:0.20772852 2:-4.1331875 
-0.007831664961683554 1:0.30438672 2:-5.9503125 
-0.1 1:0.33355664 2:-3.210625 
-0.002916666178052412 1:0.41241016 2:-5.256375 
-0.01238477388309944 1:0.19188281 2:-2.0279375 
-0.02687910365346062 1:0.21031641 2:-3.1408125 
-0.03132879541110535 1:0.19408398 2:-3.2364375 
-0.001427782369592104 1:0.32716211 2:-4.7526875 
-0.1 1:0.41108008 2:-4.3343125 
-0.1 1:0.32701953 2:-4.8238125 
-0.0005359482860550213 1:0.286375 2:-4.498375 
-0.1 1:0.32971875 2:-3.6864375 
-0.007345324836609417 1:0.30364453 2:-5.5271875 
-0.002705455997598698 1:0.24031641 2:-4.144875 
-0.02942047321528314 1:0.20635352 2:-3.929625 
-0.00249578057100025 1:0.18048438 2:-3.661 
-0.02333526390186037 1:0.27854297 2:-5.9966875 
-0.1 1:0.35369336 2:-3.8585 
-0.008970157854145412 1:0.17768945 2:-0.8363125 
-0.1 1:0.4310957 2:-3.0286875 
-0.005230788754382235 1:0.32593555 2:-5.2068125 
-0.06900395773670548 1:0.27054883 2:-3.8561875 
-0.1 1:0.27630664 2:-2.03475 
-0.001024577952432382 1:0.13801367 2:-0.5496875 
-0.006366491985362693 1:0.25199023 2:-4.2998125 
-0.03464739646236081 1:0.23654492 2:-4.495125 
-0.002729266075306228 1:0.3360625 2:-5.0768125 
-0.01511445699626364 1:0.28276953 2:-4.7361875 
-0.06691051738171674 1:0.24953906 2:-2.5758125 
-0.02209340185587672 1:0.21878516 2:-3.5774375 
-0.0006953226828113355 1:0.11476953 2:-0.8813125 
-0.003869701151860463 1:0.28783594 2:-4.0601875 
-0.08659864907616963 1:0.18132617 2:-3.2220625 
-0.1 1:0.26881055 2:-3.0364375 
-0.0875574275333669 1:0.19316602 2:-1.945125 
-0.004275183968883227 1:0.24999023 2:-4.23425 
-0.001818271598327022 1:0.15591992 2:-0.8040625 
-0.0607079522975915 1:0.090832031 2:-0.413625 
-0.02094175566926028 1:0.27696484 2:-4.2766875 
-0.008117515993786448 1:0.35025195 2:-5.4346875 
-0.03579109729660385 1:0.38610742 2:-6.1371875 
-0.002057874395186843 1:0.23833789 2:-3.5234375 
-0.02183569082327663 1:0.21317188 2:-0.3318125 
-0.05127561409684874 1:0.3104043 2:-6.1365 
-0.05060196343138635 1:0.10792188 2:-2.571 
-0.006503100121011568 1:0.30721289 2:-5.265875 
-0.02986395936412536 1:0.18833008 2:-0.6915625 
-0.003291733460730497 1:0.21743555 2:-0.8601875 
-0.1 1:0.29001562 2:-3.314 
-0.01100622541110719 1:0.25145898 2:-4.9026875 
-0.02332891442828695 1:0.1375918 2:-0.3901875 
-0.02323496708143302 1:0.13006055 2:-2.3679375 
-0.003092290496732777 1:0.22802539 2:-3.4985 
-0.04962230740933342 1:0.19510156 2:-0.5563125 
-0.002337095084767286 1:0.2401582 2:-4.4295625 
-0.02012647707813071 1:0.16210352 2:-2.9211875 
-0.008128804215832704 1:0.29611523 2:-5.2068125 
-0.004059490702247463 1:0.35018164 2:-5.125875 
-0.06543811336514264 1:0.43192969 2:-5.2444375 
-0.043934760575752 1:0.24236328 2:-2.9716875 
-0.08458157183797277 1:0.27883984 2:-3.5875625 
-0.03055763284716792 1:0.32608203 2:-5.2506875 
-0.005943787567661397 1:0.31110156 2:-5.0136875 
-0.1 1:0.28416211 2:-1.2368125 
-0.07961988260637162 1:0.31078125 2:-6.1899375 
-0.02218589568300242 1:0.3435332 2:-5.4168125 
