svm_type c_svc
kernel_type rbf
gamma 1000
nr_class 2
total_sv 3350
rho 0.881285
label 1 -1
nr_sv 1047 2303
SV
0.1 1:0.30116602 2:-3.454875 
0.1 1:0.3295625 2:-2.4216875 
0.1 1:0.35397656 2:-1.859625 
0.1 1:0.19886328 2:-2.5488125 
0.1 1:0.37462109 2:-4.6270625 
0.1 1:0.2551543 2:-2.345875 
0.1 1:0.32316602 2:-2.5864375 
0.1 1:0.20381836 2:-2.5619375 
0.1 1:0.36222656 2:-4.23425 
0.1 1:0.45810547 2:-2.725875 
0.1 1:0.46744336 2:-3.1958125 
0.1 1:0.22953125 2:-4.0635 
0.1 1:0.36394531 2:-1.63875 
0.1 1:0.28694336 2:-2.7929375 
0.1 1:0.43748438 2:-3.083 
0.1 1:0.25696484 2:-2.8865625 
0.1 1:0.42437891 2:-2.695125 
0.1 1:0.27342773 2:-2.5523125 
0.1 1:0.42545898 2:-2.3104375 
0.1 1:0.45117969 2:-3.092 
0.1 1:0.32638281 2:-2.101875 
0.1 1:0.20154688 2:-2.2619375 
0.1 1:0.42557422 2:-2.0825625 
0.1 1:0.35587305 2:-2.288625 
0.1 1:0.42245117 2:-2.2446875 
0.1 1:0.28378711 2:-2.2425 
0.1 1:0.29655078 2:-0.9794375 
0.1 1:0.35455273 2:-2.265 
0.1 1:0.43075781 2:-3.5646875 
0.1 1:0.43852344 2:-2.296 
0.1 1:0.16750391 2:-2.8849375 
0.1 1:0.33469531 2:-2.93075 
0.1 1:0.36936914 2:-3.5874375 
0.1 1:0.49775 2:-2.6403125 
0.1 1:0.45213672 2:-3.742375 
0.1 1:0.31682227 2:-3.2665 
0.1 1:0.3132207 2:-2.439 
0.1 1:0.36498437 2:-5.0790625 
0.1 1:0.42885742 2:-3.095875 
0.1 1:0.25274414 2:-1.9728125 
0.1 1:0.2566543 2:-2.5156875 
0.1 1:0.35231641 2:-2.5646875 
0.1 1:0.23308594 2:-1.8355 
0.1 1:0.46012695 2:-2.757875 
0.1 1:0.33150781 2:-1.9401875 
0.1 1:0.29571094 2:-2.205125 
0.1 1:0.47210156 2:-2.5506875 
0.1 1:0.49887891 2:-3.0599375 
0.1 1:0.40580078 2:-3.350125 
0.1 1:0.39027148 2:-3.910875 
0.1 1:0.23557227 2:-1.9678125 
0.1 1:0.46533398 2:-3.3760625 
0.1 1:0.2820918 2:-3.37775 
0.1 1:0.32110547 2:-2.0231875 
0.1 1:0.25426758 2:-5.0411875 
0.1 1:0.28439453 2:-2.960375 
0.1 1:0.27822461 2:-1.836375 
0.1 1:0.52552539 2:-3.46175 
0.1 1:0.24919336 2:-1.8699375 
0.1 1:0.36602734 2:-1.5118125 
0.1 1:0.35816797 2:-1.8958125 
0.1 1:0.31341016 2:-3.07175 
0.1 1:0.35870508 2:-2.239875 
0.1 1:0.4799043 2:-2.1899375 
0.1 1:0.47623633 2:-4.3488125 
0.1 1:0.50982422 2:-2.602875 
0.1 1:0.40191016 2:-2.013375 
0.1 1:0.41480664 2:-3.7495625 
0.1 1:0.42345313 2:-3.9575 
0.1 1:0.5656875 2:-1.8881875 
0.1 1:0.3034707 2:-4.362875 
0.1 1:0.29558984 2:-2.858 
0.1 1:0.2096543 2:-3.3384375 
0.1 1:0.37596094 2:-4.226625 
0.1 1:0.34317578 2:-3.28275 
0.1 1:0.43264453 2:-2.5055 
0.1 1:0.28123828 2:-2.438375 
0.1 1:0.52775391 2:-2.3980625 
0.1 1:0.4820332 2:-1.2183125 
0.1 1:0.3309082 2:-3.58025 
0.1 1:0.50777344 2:-3.3566875 
0.1 1:0.29471094 2:-3.955125 
0.1 1:0.30439258 2:-3.55325 
0.1 1:0.34912305 2:-3.1158125 
0.1 1:0.3485625 2:-1.658125 
0.1 1:0.284625 2:-5.445375 
0.1 1:0.44303906 2:-2.2975625 
0.1 1:0.48641992 2:-1.735875 
0.1 1:0.39125781 2:-2.5903125 
0.1 1:0.39310937 2:-3.974875 
0.1 1:0.37757422 2:-4.804125 
0.1 1:0.31198242 2:-2.8375 
0.1 1:0.2688418 2:-2.9066875 
0.1 1:0.23729883 2:-1.4004375 
0.1 1:0.39793555 2:-2.6754375 
0.1 1:0.27155469 2:-3.040875 
0.1 1:0.40021875 2:-3.975125 
0.1 1:0.31 2:-3.2896875 
0.1 1:0.39408398 2:-5.8528125 
0.1 1:0.27366016 2:-3.7085625 
0.1 1:0.42864844 2:-2.6571875 
0.1 1:0.32065234 2:-3.4786875 
0.1 1:0.3802207 2:-3.17925 
0.1 1:0.52532227 2:-2.8126875 
0.1 1:0.31275195 2:-2.2413125 
0.1 1:0.38278711 2:-1.911375 
0.1 1:0.28279492 2:-1.9401875 
0.1 1:0.21372266 2:-3.2156875 
0.1 1:0.31025977 2:-2.604625 
0.1 1:0.31803516 2:-0.858 
0.1 1:0.40333008 2:-3.0384375 
0.1 1:0.32245703 2:-3.907375 
0.1 1:0.30416992 2:-2.0409375 
0.1 1:0.22852344 2:-2.6631875 
0.1 1:0.35352148 2:-1.8081875 
0.1 1:0.39700391 2:-2.647125 
0.1 1:0.42280859 2:-3.1426875 
0.1 1:0.34638672 2:-3.5878125 
0.1 1:0.42175977 2:-1.934 
0.1 1:0.29705078 2:-1.08675 
0.1 1:0.37252148 2:-3.554625 
0.1 1:0.13879883 2:-1.968 
0.1 1:0.407875 2:-3.1875625 
0.1 1:0.32408008 2:-3.10675 
0.1 1:0.31139258 2:-3.1750625 
0.1 1:0.44792773 2:-5.903 
0.1 1:0.27998633 2:-3.1631875 
0.1 1:0.31277148 2:-4.653625 
0.1 1:0.45823437 2:-2.62375 
0.1 1:0.45176563 2:-4.928 
0.1 1:0.46410742 2:-4.8941875 
0.1 1:0.53497656 2:-4.1345 
0.1 1:0.21825195 2:-3.4581875 
0.1 1:0.34080859 2:-1.552 
0.1 1:0.33381445 2:-2.8750625 
0.1 1:0.348625 2:-2.0160625 
0.1 1:0.40038086 2:-2.0874375 
0.1 1:0.19224414 2:-3.40725 
0.1 1:0.28180078 2:-2.841625 
0.1 1:0.24414648 2:-2.412875 
0.1 1:0.30875 2:-3.484375 
0.1 1:0.39445898 2:-3.74275 
0.1 1:0.38800586 2:-4.0814375 
0.1 1:0.29856836 2:-1.3805625 
0.1 1:0.36829492 2:-2.7315 
0.1 1:0.44136914 2:-5.2418125 
0.1 1:0.25449219 2:-2.45125 
0.1 1:0.27999414 2:-2.9005 
0.1 1:0.59758984 2:-2.2580625 
0.1 1:0.27026563 2:-4.021375 
0.1 1:0.43997461 2:-1.51125 
0.1 1:0.4392168 2:-2.4121875 
0.1 1:0.39319922 2:-2.43675 
0.1 1:0.33367383 2:-2.739 
0.1 1:0.43607617 2:-2.363125 
0.1 1:0.29637891 2:-4.25375 
0.1 1:0.35807031 2:-2.4820625 
0.1 1:0.471 2:-3.108 
0.1 1:0.32569141 2:-1.9805 
0.1 1:0.48227734 2:-4.33475 
0.1 1:0.30418555 2:-2.98925 
0.1 1:0.23377734 2:-4.336375 
0.1 1:0.21630273 2:-1.4938125 
0.1 1:0.2208125 2:-2.5071875 
0.1 1:0.35253906 2:-2.61525 
0.1 1:0.64953711 2:-2.5906875 
0.1 1:0.52079883 2:-3.961125 
0.1 1:0.37298047 2:-3.0148125 
0.1 1:0.41253711 2:-2.4326875 
0.1 1:0.20394727 2:-3.174375 
0.1 1:0.28365039 2:-2.8665 
0.1 1:0.3230332 2:-5.3358125 
0.1 1:0.39529102 2:-4.564375 
0.1 1:0.28627148 2:-1.2314375 
0.1 1:0.28036523 2:-3.41475 
0.1 1:0.23373633 2:-3.3294375 
0.1 1:0.38279883 2:-3.2830625 
0.1 1:0.3195957 2:-4.8738125 
0.1 1:0.37463477 2:-3.621625 
0.1 1:0.28618945 2:-3.7015625 
0.1 1:0.34605859 2:-3.7740625 
0.1 1:0.24304883 2:-3.1459375 
0.1 1:0.53094922 2:-2.2313125 
0.1 1:0.24187695 2:-2.55675 
0.1 1:0.34261133 2:-3.0275 
0.1 1:0.30731445 2:-2.7576875 
0.1 1:0.36720898 2:-2.2955 
0.1 1:0.30654297 2:-2.1839375 
0.1 1:0.23957617 2:-2.785375 
0.1 1:0.55075 2:-2.677 
0.1 1:0.21699023 2:-2.6715 
0.1 1:0.45385156 2:-2.0045625 
0.1 1:0.33468945 2:-3.2365 
0.1 1:0.30784375 2:-3.0463125 
0.1 1:0.29110156 2:-2.9788125 
0.1 1:0.37652539 2:-2.0765 
0.1 1:0.29321875 2:-3.302 
0.1 1:0.38314062 2:-2.5246875 
0.1 1:0.34558203 2:-3.37725 
0.1 1:0.40037695 2:-1.956125 
0.1 1:0.3462832 2:-4.65725 
0.1 1:0.35276562 2:-4.7933125 
0.1 1:0.31888086 2:-3.5965625 
0.1 1:0.35253516 2:-3.5119375 
0.1 1:0.4627793 2:-3.8699375 
0.1 1:0.36563477 2:-3.1015 
0.1 1:0.46525391 2:-4.268125 
0.1 1:0.17598242 2:-3.369 
0.1 1:0.26488281 2:-3.2199375 
0.1 1:0.20846289 2:-1.83875 
0.1 1:0.39329102 2:-2.96975 
0.1 1:0.44060156 2:-1.6279375 
0.1 1:0.36656836 2:-4.133375 
0.1 1:0.45213086 2:-3.090875 
0.1 1:0.21165039 2:-2.319875 
0.1 1:0.3807207 2:-4.4460625 
0.1 1:0.36598633 2:-2.9008125 
0.1 1:0.30421484 2:-4.210125 
0.1 1:0.33297852 2:-3.5381875 
0.1 1:0.35028711 2:-1.8460625 
0.1 1:0.34798633 2:-4.020125 
0.1 1:0.3705957 2:-2.8569375 
0.1 1:0.36310352 2:-2.8215625 
0.1 1:0.21700781 2:-2.3581875 
0.1 1:0.41381055 2:-3.4913125 
0.1 1:0.28428125 2:-3.5425 
0.1 1:0.2234082 2:-2.465375 
0.1 1:0.26932422 2:-1.75025 
0.1 1:0.18889648 2:-3.22025 
0.1 1:0.40568945 2:-3.4481875 
0.1 1:0.40569336 2:-2.21375 
0.1 1:0.37132227 2:-2.3320625 
0.1 1:0.38989063 2:-2.975 
0.1 1:0.2871582 2:-5.202125 
0.1 1:0.3864375 2:-1.5735 
0.1 1:0.3078125 2:-3.290375 
0.1 1:0.2698418 2:-2.0849375 
0.1 1:0.39301562 2:-4.5141875 
0.1 1:0.39208203 2:-3.828125 
0.1 1:0.30070898 2:-1.913875 
0.1 1:0.42530273 2:-3.6656875 
0.1 1:0.16695508 2:-1.788625 
0.1 1:0.43825586 2:-2.51575 
0.1 1:0.49108398 2:-1.9874375 
0.1 1:0.41433789 2:-4.3966875 
0.1 1:0.46235742 2:-5.634125 
0.1 1:0.38560742 2:-3.2704375 
0.1 1:0.24225781 2:-3.93575 
0.1 1:0.43210742 2:-3.254625 
0.1 1:0.37899609 2:-6.203375 
0.1 1:0.31925977 2:-1.5941875 
0.1 1:0.24726953 2:-1.332625 
0.1 1:0.26806055 2:-2.1526875 
0.1 1:0.33559961 2:-4.079875 
0.1 1:0.30674414 2:-2.46875 
0.1 1:0.32263086 2:-5.6656875 
0.1 1:0.34041602 2:-3.856875 
0.1 1:0.35217578 2:-2.085125 
0.1 1:0.28313086 2:-3.6645625 
0.1 1:0.339125 2:-1.304625 
0.1 1:0.28432422 2:-3.0955625 
0.1 1:0.35105859 2:-2.2709375 
0.1 1:0.38666406 2:-2.618125 
0.1 1:0.27044922 2:-2.3269375 
0.1 1:0.32889453 2:-3.90775 
0.1 1:0.40568359 2:-4.743125 
0.1 1:0.43186914 2:-3.553875 
0.1 1:0.17680469 2:-0.7626875 
0.1 1:0.42924219 2:-6.279125 
0.1 1:0.17209766 2:-3.677625 
0.1 1:0.25826562 2:-1.6623125 
0.1 1:0.33449023 2:-3.8235625 
0.1 1:0.44346484 2:-2.4981875 
0.1 1:0.25616016 2:-2.35625 
0.1 1:0.28343945 2:-1.48925 
0.1 1:0.31999023 2:-3.4375 
0.1 1:0.48723242 2:-2.3460625 
0.1 1:0.17069531 2:-1.9250625 
0.1 1:0.3894082 2:-2.3775625 
0.1 1:0.28387695 2:-3.0823125 
0.1 1:0.42518555 2:-2.9306875 
0.1 1:0.34614648 2:-2.4749375 
0.1 1:0.24129883 2:-2.6834375 
0.1 1:0.28685352 2:-2.059875 
0.1 1:0.26744336 2:-2.9053125 
0.1 1:0.45036328 2:-3.8025 
0.1 1:0.26370703 2:-1.8264375 
0.1 1:0.24614648 2:-3.1475 
0.1 1:0.27175977 2:-2.2280625 
0.1 1:0.32193359 2:-4.249 
0.1 1:0.29429687 2:-3.6584375 
0.1 1:0.2154375 2:-2.541125 
0.1 1:0.23927539 2:-3.3649375 
0.1 1:0.28545508 2:-4.1744375 
0.1 1:0.33942383 2:-2.816875 
0.1 1:0.35426563 2:-2.5839375 
0.1 1:0.49133984 2:-4.1626875 
0.1 1:0.19125977 2:-2.2409375 
0.1 1:0.44405469 2:-4.3299375 
0.1 1:0.21495703 2:-1.86225 
0.1 1:0.27574414 2:-3.3558125 
0.1 1:0.2684375 2:-2.4340625 
0.1 1:0.28570312 2:-1.774 
0.1 1:0.18329492 2:-3.2108125 
0.1 1:0.32204492 2:-2.8611875 
0.1 1:0.39511719 2:-3.599125 
0.1 1:0.21323437 2:-1.5406875 
0.1 1:0.47037109 2:-1.6984375 
0.1 1:0.27299023 2:-1.2601875 
0.1 1:0.26838477 2:-3.1514375 
0.1 1:0.25358594 2:-0.9501875 
0.1 1:0.31225977 2:-1.9321875 
0.1 1:0.41151367 2:-2.1315 
0.1 1:0.27617578 2:-2.6374375 
0.1 1:0.21975195 2:-2.9699375 
0.1 1:0.41301172 2:-4.127 
0.1 1:0.36764844 2:-3.4171875 
0.1 1:0.29420313 2:-1.9199375 
0.1 1:0.36944336 2:-1.555 
0.1 1:0.36937305 2:-4.2165 
0.1 1:0.37977539 2:-2.7740625 
0.1 1:0.52628906 2:-2.6603125 
0.1 1:0.50256445 2:-4.464375 
0.1 1:0.4079668 2:-3.6353125 
0.1 1:0.49410352 2:-1.903625 
0.1 1:0.4081582 2:-2.5755 
0.1 1:0.25866406 2:-5.145625 
0.1 1:0.24066016 2:-2.2091875 
0.1 1:0.14666406 2:-2.631125 
0.1 1:0.3515918 2:-1.2735625 
0.1 1:0.43983398 2:-1.9830625 
0.1 1:0.38029492 2:-2.6636875 
0.1 1:0.5178125 2:-2.3533125 
0.1 1:0.34235156 2:-2.1496875 
0.1 1:0.3090957 2:-3.85075 
0.1 1:0.32251953 2:-3.13 
0.1 1:0.28976367 2:-2.34075 
0.1 1:0.30172266 2:-3.0673125 
0.1 1:0.36124023 2:-3.3540625 
0.1 1:0.4121875 2:-4.211 
0.1 1:0.27545312 2:-2.4158125 
0.1 1:0.25773828 2:-3.7175625 
0.1 1:0.3888457 2:-3.347625 
0.1 1:0.2248125 2:-1.0631875 
0.1 1:0.3094082 2:-3.7965 
0.1 1:0.27979883 2:-1.9578125 
0.1 1:0.41818359 2:-4.63875 
0.1 1:0.34983789 2:-4.0816875 
0.1 1:0.31676953 2:-2.14075 
0.1 1:0.29741211 2:-2.8059375 
0.1 1:0.30510547 2:-4.36925 
0.1 1:0.49548828 2:-3.364375 
0.1 1:0.4871875 2:-3.887125 
0.1 1:0.29102539 2:-2.3373125 
0.1 1:0.4947168 2:-2.6748125 
0.1 1:0.38763477 2:-1.709875 
0.1 1:0.23039844 2:-3.1139375 
0.1 1:0.47564063 2:-3.4048125 
0.1 1:0.40037109 2:-2.33225 
0.1 1:0.26692383 2:-3.2095 
0.1 1:0.23089453 2:-1.5915 
0.1 1:0.29048438 2:-2.908625 
0.1 1:0.28708789 2:-2.5873125 
0.1 1:0.38156055 2:-2.6869375 
0.1 1:0.40867188 2:-3.7954375 
0.1 1:0.40251367 2:-3.5608125 
0.1 1:0.23420703 2:-1.3368125 
0.1 1:0.33625781 2:-1.9894375 
0.1 1:0.45466992 2:-2.942125 
0.1 1:0.25707813 2:-3.7184375 
0.1 1:0.24733008 2:-3.39625 
0.1 1:0.31573633 2:-3.224125 
0.1 1:0.37616602 2:-4.028 
0.1 1:0.26034961 2:-2.928375 
0.1 1:0.46006445 2:-4.03125 
0.1 1:0.31810938 2:-1.90625 
0.1 1:0.30743164 2:-2.150375 
0.1 1:0.24718164 2:-3.4359375 
0.1 1:0.12339844 2:-2.0333125 
0.1 1:0.27236914 2:-3.7054375 
0.1 1:0.29544336 2:-3.8183125 
0.1 1:0.24520117 2:-3.8335625 
0.1 1:0.45814258 2:-3.6809375 
0.1 1:0.27910352 2:-3.861875 
0.1 1:0.3974043 2:-3.18575 
0.1 1:0.38060742 2:-4.1420625 
0.1 1:0.21552148 2:-3.5938125 
0.1 1:0.43707422 2:-3.3401875 
0.1 1:0.4660332 2:-3.523875 
0.1 1:0.25343945 2:-3.0164375 
0.1 1:0.31038086 2:-3.6683125 
0.1 1:0.35754883 2:-3.372625 
0.1 1:0.48700977 2:-3.3898125 
0.1 1:0.3609707 2:-1.736625 
0.1 1:0.32907812 2:-1.86675 
0.1 1:0.50034766 2:-1.9210625 
0.1 1:0.51585742 2:-6.6545 
0.1 1:0.38122656 2:-3.5826875 
0.1 1:0.3885957 2:-2.639375 
0.1 1:0.31141211 2:-1.650875 
0.1 1:0.20134375 2:-1.7034375 
0.1 1:0.35373438 2:-2.158625 
0.1 1:0.3054375 2:-1.9735625 
0.1 1:0.30149805 2:-3.2504375 
0.1 1:0.19261133 2:-1.907375 
0.1 1:0.22947852 2:-1.157625 
0.1 1:0.30507812 2:-4.5428125 
0.1 1:0.34345898 2:-3.634875 
0.1 1:0.31237305 2:-1.243125 
0.1 1:0.32942969 2:-1.7116875 
0.1 1:0.38344141 2:-3.6039375 
0.1 1:0.47981836 2:-2.9349375 
0.1 1:0.23607031 2:-2.3098125 
0.1 1:0.34260937 2:-1.451625 
0.1 1:0.26119531 2:-2.6723125 
0.1 1:0.42236328 2:-6.1394375 
0.1 1:0.27055078 2:-1.3105 
0.1 1:0.50997461 2:-1.53175 
0.1 1:0.39028711 2:-2.472 
0.1 1:0.24242187 2:-2.8604375 
0.1 1:0.20988281 2:-2.778625 
0.1 1:0.28082617 2:-2.2118125 
0.1 1:0.52735156 2:-4.2251875 
0.1 1:0.39567969 2:-3.775375 
0.1 1:0.33127734 2:-3.2449375 
0.1 1:0.34611328 2:-1.1154375 
0.1 1:0.19142383 2:-2.952 
0.1 1:0.396875 2:-1.6061875 
0.1 1:0.27363867 2:-2.9935 
0.1 1:0.41257227 2:-1.71725 
0.1 1:0.25308594 2:-4.6645625 
0.1 1:0.34639453 2:-3.306375 
0.1 1:0.41735742 2:-1.526375 
0.1 1:0.28891602 2:-1.8748125 
0.1 1:0.39345312 2:-2.227625 
0.1 1:0.45412305 2:-2.8335 
0.1 1:0.27432422 2:-2.5110625 
0.1 1:0.41963086 2:-2.7916875 
0.1 1:0.31316992 2:-2.777625 
0.1 1:0.27696094 2:-3.481375 
0.1 1:0.44555664 2:-2.8524375 
0.1 1:0.31175195 2:-2.6984375 
0.1 1:0.41161914 2:-3.4816875 
0.1 1:0.454125 2:-2.0156875 
0.1 1:0.42798047 2:-1.8614375 
0.1 1:0.24126758 2:-2.4735 
0.1 1:0.37527344 2:-4.52 
0.1 1:0.43533203 2:-3.6585 
0.1 1:0.35310156 2:-2.948625 
0.1 1:0.30602148 2:-4.477625 
0.1 1:0.43007617 2:-2.785 
0.1 1:0.44375781 2:-3.0615 
0.1 1:0.38577734 2:-2.6884375 
0.1 1:0.37047461 2:-4.07375 
0.1 1:0.25118164 2:-1.898125 
0.1 1:0.50326758 2:-2.3361875 
0.1 1:0.33640039 2:-2.6640625 
0.1 1:0.43242188 2:-1.561625 
0.1 1:0.33210742 2:-3.9484375 
0.1 1:0.31989258 2:-1.6335625 
0.1 1:0.40778125 2:-2.2558125 
0.1 1:0.40037109 2:-2.6249375 
0.1 1:0.4265625 2:-1.383125 
0.1 1:0.26782617 2:-3.1501875 
0.1 1:0.41479102 2:-3.7660625 
0.1 1:0.27367383 2:-2.1773125 
0.1 1:0.30839453 2:-3.525375 
0.1 1:0.47179688 2:-4.263875 
0.1 1:0.40507617 2:-2.5451875 
0.1 1:0.59392578 2:-2.6131875 
0.1 1:0.50018164 2:-4.394625 
0.1 1:0.43593359 2:-4.35875 
0.1 1:0.31301172 2:-2.7151875 
0.1 1:0.24892187 2:-2.3585625 
0.1 1:0.36638086 2:-3.2388125 
0.1 1:0.39370703 2:-3.9125 
0.1 1:0.31485156 2:-4.1795 
0.1 1:0.44803711 2:-4.523 
0.1 1:0.27632617 2:-1.724 
0.1 1:0.39248828 2:-3.027875 
0.1 1:0.24583008 2:-2.7515625 
0.1 1:0.51782031 2:-2.9840625 
0.1 1:0.35734766 2:-2.7428125 
0.1 1:0.28839453 2:-3.682625 
0.1 1:0.29299805 2:-3.0075 
0.1 1:0.30579492 2:-2.78075 
0.1 1:0.48751172 2:-4.2118125 
0.1 1:0.3464043 2:-3.0483125 
0.1 1:0.31988281 2:-3.0180625 
0.1 1:0.30395312 2:-2.4815625 
0.1 1:0.34071484 2:-2.841 
0.1 1:0.3831875 2:-2.1104375 
0.1 1:0.45269336 2:-4.4751875 
0.1 1:0.34450977 2:-3.534625 
0.1 1:0.3136582 2:-3.195375 
0.1 1:0.47980859 2:-3.3043125 
0.1 1:0.31465625 2:-3.7899375 
0.1 1:0.2967832 2:-3.249875 
0.1 1:0.39798828 2:-2.7364375 
0.1 1:0.42963477 2:-2.2746875 
0.1 1:0.43955078 2:-1.6426875 
0.1 1:0.38256445 2:-3.61 
0.1 1:0.27438672 2:-1.98 
0.1 1:0.24535742 2:-3.0871875 
0.1 1:0.37243359 2:-3.5903125 
0.1 1:0.46189453 2:-3.329875 
0.1 1:0.50944336 2:-3.7714375 
0.1 1:0.28764844 2:-2.8450625 
0.1 1:0.30180469 2:-3.6710625 
0.1 1:0.40678711 2:-3.3389375 
0.1 1:0.28037109 2:-3.8800625 
0.1 1:0.37261328 2:-4.8285 
0.1 1:0.33874023 2:-3.620125 
0.1 1:0.45623047 2:-2.8043125 
0.1 1:0.2397168 2:-3.8524375 
0.1 1:0.36931641 2:-4.372125 
0.1 1:0.3907793 2:-2.0875625 
0.1 1:0.34073438 2:-1.85625 
0.1 1:0.23803906 2:-1.2504375 
0.1 1:0.44498437 2:-3.3908125 
0.1 1:0.34374219 2:-3.757125 
0.1 1:0.26485742 2:-2.1836875 
0.1 1:0.42789844 2:-4.0163125 
0.1 1:0.43280273 2:-3.691 
0.1 1:0.40182227 2:-3.1219375 
0.1 1:0.43618359 2:-2.817625 
0.1 1:0.38744727 2:-3.2230625 
0.1 1:0.20821484 2:-2.039 
0.1 1:0.34324414 2:-3.4438125 
0.1 1:0.31656641 2:-2.7206875 
0.1 1:0.42745117 2:-4.3916875 
0.1 1:0.25310938 2:-3.3103125 
0.1 1:0.21710742 2:-3.57425 
0.1 1:0.4214707 2:-4.5469375 
0.1 1:0.27541992 2:-5.0645625 
0.1 1:0.35805469 2:-1.609 
0.1 1:0.29695898 2:-1.7955625 
0.1 1:0.29000391 2:-4.12425 
0.1 1:0.28954102 2:-4.644125 
0.1 1:0.17488281 2:-1.0215 
0.1 1:0.54077734 2:-2.5634375 
0.1 1:0.3755918 2:-2.10825 
0.1 1:0.44330078 2:-2.477875 
0.1 1:0.36345508 2:-3.368625 
0.1 1:0.31369727 2:-2.0728125 
0.1 1:0.40248242 2:-1.926875 
0.1 1:0.52707617 2:-4.68575 
0.1 1:0.3889375 2:-3.2738125 
0.1 1:0.35908984 2:-2.934875 
0.1 1:0.43425977 2:-1.4025 
0.1 1:0.40707813 2:-1.1791875 
0.1 1:0.22916406 2:-3.683875 
0.1 1:0.39049805 2:-3.56675 
0.1 1:0.32529102 2:-3.8465 
0.1 1:0.40748633 2:-4.45825 
0.1 1:0.4513125 2:-2.75075 
0.1 1:0.33716992 2:-1.6179375 
0.1 1:0.37858984 2:-2.6868125 
0.1 1:0.24449219 2:-1.5425 
0.1 1:0.34419531 2:-1.66775 
0.1 1:0.49461523 2:-4.0245625 
0.1 1:0.43799805 2:-3.4333125 
0.1 1:0.36775195 2:-2.4995625 
0.1 1:0.28496484 2:-2.3533125 
0.1 1:0.20956836 2:-2.620875 
0.1 1:0.49850195 2:-4.2493125 
0.1 1:0.25010547 2:-4.1759375 
0.1 1:0.28163281 2:-3.179375 
0.1 1:0.35166406 2:-3.349 
0.1 1:0.25545703 2:-2.2199375 
0.1 1:0.4695332 2:-3.23875 
0.1 1:0.39766406 2:-3.1635625 
0.1 1:0.22520898 2:-3.5239375 
0.1 1:0.3658125 2:-1.961625 
0.1 1:0.40728906 2:-2.4464375 
0.1 1:0.371 2:-3.200125 
0.1 1:0.45438281 2:-2.711625 
0.1 1:0.26878906 2:-2.6270625 
0.1 1:0.38128516 2:-2.86675 
0.1 1:0.31540625 2:-5.0003125 
0.1 1:0.33163281 2:-3.3355 
0.1 1:0.37437891 2:-1.7210625 
0.1 1:0.37240234 2:-3.902125 
0.1 1:0.32063867 2:-2.9024375 
0.1 1:0.27364648 2:-2.1978125 
0.1 1:0.26228125 2:-1.668 
0.1 1:0.20659375 2:-1.3813125 
0.1 1:0.34233203 2:-3.7615 
0.1 1:0.49304102 2:-2.30275 
0.1 1:0.38224414 2:-3.084 
0.1 1:0.38089844 2:-3.7419375 
0.1 1:0.30180859 2:-2.16275 
0.1 1:0.31682031 2:-3.3043125 
0.1 1:0.27570508 2:-1.7501875 
0.1 1:0.3222207 2:-2.497375 
0.1 1:0.25908398 2:-4.4743125 
0.1 1:0.27555469 2:-3.6163125 
0.1 1:0.51370117 2:-4.112625 
0.1 1:0.41947266 2:-3.2993125 
0.1 1:0.17244727 2:-3.071125 
0.1 1:0.32937891 2:-1.713375 
0.1 1:0.27693164 2:-3.3294375 
0.1 1:0.33814844 2:-3.5335 
0.1 1:0.39082422 2:-2.3981875 
0.1 1:0.45632617 2:-2.167125 
0.1 1:0.459 2:-5.2013125 
0.1 1:0.36752344 2:-2.3046875 
0.1 1:0.33414648 2:-4.8459375 
0.1 1:0.31291602 2:-3.3015625 
0.1 1:0.37326563 2:-4.7308125 
0.1 1:0.38616211 2:-2.294875 
0.1 1:0.31138867 2:-2.953875 
0.1 1:0.50227539 2:-3.744 
0.1 1:0.25701367 2:-2.2314375 
0.1 1:0.37282227 2:-1.704 
0.1 1:0.15487695 2:-2.084875 
0.1 1:0.29614063 2:-3.1636875 
0.1 1:0.22948242 2:-2.170625 
0.1 1:0.29291016 2:-3.6591875 
0.1 1:0.32941602 2:-2.3140625 
0.1 1:0.28426953 2:-2.9063125 
0.1 1:0.33430664 2:-3.9859375 
0.1 1:0.19477539 2:-1.5100625 
0.1 1:0.4420332 2:-3.6693125 
0.1 1:0.33051172 2:-3.44125 
0.1 1:0.45107812 2:-2.0339375 
0.1 1:0.41648047 2:-2.96775 
0.1 1:0.21245312 2:-2.58725 
0.1 1:0.26169922 2:-2.8788125 
0.1 1:0.50749414 2:-4.0415625 
0.1 1:0.50226563 2:-3.4804375 
0.1 1:0.5994668 2:-2.6765 
0.1 1:0.36387305 2:-2.0845625 
0.1 1:0.30467383 2:-2.7651875 
0.1 1:0.43727148 2:-4.1584375 
0.1 1:0.42980078 2:-3.1031875 
0.1 1:0.3027832 2:-1.9758125 
0.1 1:0.40140625 2:-4.0538125 
0.1 1:0.29295898 2:-4.6575625 
0.1 1:0.24747852 2:-2.792 
0.1 1:0.29141602 2:-3.130625 
0.1 1:0.273625 2:-3.2185 
0.1 1:0.4339043 2:-3.1655625 
0.1 1:0.22231836 2:-4.296375 
0.1 1:0.38451172 2:-3.2376875 
0.1 1:0.434375 2:-2.9555625 
0.1 1:0.47286914 2:-4.1599375 
0.1 1:0.40474805 2:-2.588125 
0.1 1:0.33169922 2:-2.062625 
0.1 1:0.2394668 2:-3.7249375 
0.1 1:0.52820117 2:-3.1533125 
0.1 1:0.34167578 2:-2.6451875 
0.1 1:0.3315957 2:-3.4609375 
0.1 1:0.44179297 2:-1.180625 
0.1 1:0.38176172 2:-3.197125 
0.1 1:0.44421484 2:-2.4914375 
0.1 1:0.3564043 2:-3.6638125 
0.1 1:0.34100781 2:-3.860125 
0.1 1:0.46979297 2:-3.54825 
0.1 1:0.27436719 2:-2.3890625 
0.1 1:0.46813867 2:-1.7313125 
0.1 1:0.22990625 2:-4.26575 
0.1 1:0.39997852 2:-2.023 
0.1 1:0.46808789 2:-4.909125 
0.1 1:0.19701367 2:-2.13925 
0.1 1:0.36413281 2:-1.5961875 
0.1 1:0.21849805 2:-2.5488125 
0.1 1:0.49073242 2:-3.315625 
0.1 1:0.34409766 2:-1.65875 
0.1 1:0.47380469 2:-2.396625 
0.1 1:0.21723047 2:-2.405125 
0.1 1:0.35502539 2:-1.6113125 
0.1 1:0.49685547 2:-1.6393125 
0.1 1:0.3650957 2:-2.9554375 
0.1 1:0.40429687 2:-1.10175 
0.1 1:0.34599805 2:-2.140125 
0.1 1:0.35033594 2:-2.7564375 
0.1 1:0.25664063 2:-5.19725 
0.1 1:0.46775 2:-3.990125 
0.1 1:0.34355469 2:-3.5971875 
0.1 1:0.41103125 2:-1.5165625 
0.1 1:0.41361328 2:-2.1330625 
0.1 1:0.31222266 2:-1.824 
0.1 1:0.56148633 2:-3.396 
0.1 1:0.35320508 2:-2.8369375 
0.1 1:0.26130078 2:-1.77575 
0.1 1:0.29473242 2:-3.053 
0.1 1:0.57983398 2:-1.5735625 
0.1 1:0.38234766 2:-2.281625 
0.1 1:0.39617188 2:-4.6318125 
0.1 1:0.39012109 2:-2.077125 
0.1 1:0.47471289 2:-1.781 
0.1 1:0.22771875 2:-1.64375 
0.1 1:0.38938672 2:-1.4563125 
0.1 1:0.27792773 2:-1.9775625 
0.1 1:0.42184766 2:-3.1485625 
0.1 1:0.42469531 2:-1.8178125 
0.1 1:0.30874805 2:-3.3035 
0.1 1:0.21661914 2:-2.7246875 
0.1 1:0.23667969 2:-3.285 
0.1 1:0.47751758 2:-4.1559375 
0.1 1:0.36405664 2:-1.8345 
0.1 1:0.35675586 2:-2.232875 
0.1 1:0.40448242 2:-3.771 
0.1 1:0.25164063 2:-3.43575 
0.1 1:0.34985352 2:-2.4348125 
0.1 1:0.29012891 2:-2.4004375 
0.1 1:0.45166016 2:-4.38775 
0.1 1:0.38722266 2:-1.817375 
0.1 1:0.24733789 2:-3.4609375 
0.1 1:0.17054102 2:-1.676875 
0.1 1:0.23882813 2:-3.4575625 
0.1 1:0.19270117 2:-2.1895 
0.1 1:0.29725586 2:-4.34775 
0.1 1:0.34693359 2:-2.9148125 
0.1 1:0.35210742 2:-4.3413125 
0.1 1:0.44779492 2:-1.6871875 
0.1 1:0.28016797 2:-2.0644375 
0.1 1:0.35406641 2:-3.704375 
0.1 1:0.37616406 2:-3.7056875 
0.1 1:0.59253906 2:-2.77375 
0.1 1:0.38841797 2:-3.018625 
0.1 1:0.27138867 2:-2.4171875 
0.1 1:0.47977344 2:-3.13125 
0.1 1:0.39108984 2:-1.8384375 
0.1 1:0.40020312 2:-5.3531875 
0.1 1:0.38823047 2:-3.969 
0.1 1:0.27660547 2:-3.0056875 
0.1 1:0.35098438 2:-2.575 
0.1 1:0.30670117 2:-1.691 
0.1 1:0.34263672 2:-3.112 
0.1 1:0.3902207 2:-3.342375 
0.1 1:0.35025195 2:-4.0530625 
0.1 1:0.29967383 2:-4.1315625 
0.1 1:0.18492578 2:-3.3076875 
0.1 1:0.22961328 2:-4.3941875 
0.1 1:0.44560547 2:-3.518625 
0.1 1:0.37343359 2:-2.9120625 
0.1 1:0.47799219 2:-2.5883125 
0.1 1:0.31063477 2:-3.77025 
0.1 1:0.37512109 2:-4.1375 
0.1 1:0.26678906 2:-3.29475 
0.1 1:0.35462891 2:-3.405125 
0.1 1:0.39734961 2:-4.196375 
0.1 1:0.42039648 2:-3.2233125 
0.1 1:0.43040625 2:-3.1189375 
0.1 1:0.40451953 2:-1.271 
0.1 1:0.39682227 2:-1.5556875 
0.1 1:0.38957813 2:-2.6315 
0.1 1:0.32289648 2:-3.127125 
0.1 1:0.42836523 2:-3.6604375 
0.1 1:0.49688477 2:-3.0741875 
0.1 1:0.5284082 2:-3.2651875 
0.1 1:0.39325977 2:-3.343 
0.1 1:0.52732813 2:-2.161125 
0.1 1:0.41204297 2:-4.5963125 
0.1 1:0.43997461 2:-1.7660625 
0.1 1:0.45625781 2:-3.9156875 
0.1 1:0.43002148 2:-2.2696875 
0.1 1:0.35586719 2:-4.579125 
0.1 1:0.37255273 2:-4.0279375 
0.1 1:0.40131641 2:-2.6543125 
0.1 1:0.3046875 2:-2.61025 
0.1 1:0.35101172 2:-3.5235 
0.1 1:0.38924414 2:-2.8080625 
0.1 1:0.37061719 2:-3.7656875 
0.1 1:0.34296484 2:-2.37725 
0.1 1:0.38167773 2:-1.8676875 
0.1 1:0.18749023 2:-3.19425 
0.1 1:0.35795508 2:-2.40525 
0.1 1:0.37676367 2:-5.549 
0.1 1:0.45131445 2:-4.8573125 
0.1 1:0.19851367 2:-2.452625 
0.1 1:0.23283398 2:-2.39575 
0.1 1:0.33852734 2:-1.579375 
0.1 1:0.33677148 2:-2.777375 
0.1 1:0.43819336 2:-6.483 
0.1 1:0.2265332 2:-1.9818125 
0.1 1:0.23301758 2:-2.77575 
0.1 1:0.26628711 2:-3.311375 
0.1 1:0.47086914 2:-2.552625 
0.1 1:0.40152148 2:-3.35125 
0.1 1:0.35733008 2:-2.4945 
0.1 1:0.44328906 2:-1.86225 
0.1 1:0.30825586 2:-3.884125 
0.1 1:0.353 2:-2.7285 
0.1 1:0.34441992 2:-2.5821875 
0.1 1:0.30499609 2:-2.81075 
0.1 1:0.24638867 2:-2.7195625 
0.1 1:0.41318555 2:-4.2830625 
0.1 1:0.21296484 2:-1.6684375 
0.1 1:0.44185156 2:-3.6235 
0.1 1:0.42250391 2:-2.2156875 
0.1 1:0.26945117 2:-2.346375 
0.1 1:0.32610547 2:-3.250875 
0.1 1:0.34706836 2:-4.571625 
0.1 1:0.40937109 2:-2.7834375 
0.1 1:0.46249414 2:-4.082 
0.1 1:0.53860547 2:-3.504 
0.1 1:0.31102734 2:-4.2288125 
0.1 1:0.37058984 2:-3.2365 
0.1 1:0.20431836 2:-1.3066875 
0.1 1:0.43891406 2:-2.859 
0.1 1:0.32032812 2:-4.418125 
0.1 1:0.46446094 2:-3.1174375 
0.1 1:0.37478516 2:-3.9449375 
0.1 1:0.34605078 2:-4.539 
0.1 1:0.44748633 2:-3.7504375 
0.1 1:0.22809766 2:-2.4148125 
0.1 1:0.42306055 2:-3.1710625 
0.1 1:0.37255469 2:-4.3179375 
0.1 1:0.26166016 2:-2.042 
0.1 1:0.34070508 2:-1.944125 
0.1 1:0.25251367 2:-3.199625 
0.1 1:0.29399219 2:-2.9063125 
0.1 1:0.4058418 2:-3.4255 
0.1 1:0.32571484 2:-2.687 
0.1 1:0.36882227 2:-3.3408125 
0.1 1:0.25568945 2:-2.894875 
0.1 1:0.53393555 2:-3.7854375 
0.1 1:0.42650586 2:-1.8313125 
0.1 1:0.24608203 2:-2.3425625 
0.1 1:0.41775391 2:-2.2223125 
0.1 1:0.33288867 2:-4.261125 
0.1 1:0.38376562 2:-3.8575625 
0.1 1:0.37933789 2:-3.19475 
0.1 1:0.27089063 2:-2.5478125 
0.1 1:0.25674023 2:-4.3780625 
0.1 1:0.33810352 2:-4.35 
0.1 1:0.4534043 2:-3.5765625 
0.1 1:0.17047266 2:-2.255125 
0.1 1:0.32543164 2:-5.8575625 
0.1 1:0.32834766 2:-1.8000625 
0.1 1:0.52543945 2:-1.5133125 
0.1 1:0.26674219 2:-3.784625 
0.1 1:0.31082422 2:-3.0363125 
0.1 1:0.28736133 2:-3.1313125 
0.1 1:0.42663086 2:-3.637125 
0.1 1:0.28710156 2:-3.6726875 
0.1 1:0.24403516 2:-3.33375 
0.1 1:0.30995313 2:-4.216375 
0.1 1:0.20203516 2:-1.9925 
0.1 1:0.27430469 2:-2.704875 
0.1 1:0.38346484 2:-2.8445 
0.1 1:0.38738477 2:-2.848625 
0.1 1:0.31504492 2:-5.0301875 
0.1 1:0.42405469 2:-2.2151875 
0.1 1:0.51979883 2:-1.8845625 
0.1 1:0.32591797 2:-3.0913125 
0.1 1:0.34125391 2:-1.1159375 
0.1 1:0.29425977 2:-3.531625 
0.1 1:0.2812207 2:-2.873125 
0.1 1:0.24593945 2:-2.1311875 
0.1 1:0.35154688 2:-4.05375 
0.1 1:0.44778516 2:-2.7351875 
0.1 1:0.40747852 2:-2.684 
0.1 1:0.37689063 2:-1.9815 
0.1 1:0.54441992 2:-4.3748125 
0.1 1:0.12336719 2:-2.2634375 
0.1 1:0.17296875 2:-1.639 
0.1 1:0.57900781 2:-2.849625 
0.1 1:0.32582227 2:-3.9795 
0.1 1:0.37949805 2:-2.4606875 
0.1 1:0.35726367 2:-4.68325 
0.1 1:0.36703125 2:-4.044 
0.1 1:0.29208203 2:-3.0359375 
0.1 1:0.35866016 2:-3.0785 
0.1 1:0.27773047 2:-3.5765625 
0.1 1:0.22897461 2:-3.203625 
0.1 1:0.29471289 2:-3.5785625 
0.1 1:0.29560352 2:-3.0410625 
0.1 1:0.27683008 2:-2.153625 
0.1 1:0.47579297 2:-3.768875 
0.1 1:0.39830078 2:-2.392625 
0.1 1:0.34141797 2:-2.0791875 
0.1 1:0.33739062 2:-3.35425 
0.1 1:0.52434375 2:-2.0265 
0.1 1:0.28905078 2:-3.00425 
0.1 1:0.49211133 2:-2.1145 
0.1 1:0.40404883 2:-2.433875 
0.1 1:0.37239258 2:-3.290125 
0.1 1:0.31274219 2:-3.13875 
0.1 1:0.29613086 2:-3.8143125 
0.1 1:0.33859375 2:-2.1930625 
0.1 1:0.47594336 2:-2.7745 
0.1 1:0.27545117 2:-3.180875 
0.1 1:0.39942773 2:-6.0199375 
0.1 1:0.44529687 2:-1.3795 
0.1 1:0.41696289 2:-3.655625 
0.1 1:0.32141992 2:-2.232125 
0.1 1:0.39460156 2:-2.5830625 
0.1 1:0.23672852 2:-2.6773125 
0.1 1:0.32716602 2:-2.767 
0.1 1:0.30773633 2:-3.180875 
0.1 1:0.41820312 2:-4.4476875 
0.1 1:0.47233984 2:-3.6100625 
0.1 1:0.44310742 2:-3.224625 
0.1 1:0.4480918 2:-3.61075 
0.1 1:0.24084375 2:-2.174125 
0.1 1:0.35717578 2:-3.3101875 
0.1 1:0.22896484 2:-3.422125 
0.1 1:0.21206055 2:-1.68725 
0.1 1:0.39318359 2:-3.0641875 
0.1 1:0.36907422 2:-4.377875 
0.1 1:0.54844922 2:-2.60875 
0.1 1:0.50880273 2:-2.163 
0.1 1:0.32132422 2:-3.2509375 
0.1 1:0.38853906 2:-2.2880625 
0.1 1:0.58155273 2:-2.5085 
0.1 1:0.48591406 2:-2.752 
0.1 1:0.30878516 2:-2.433625 
0.1 1:0.3324668 2:-3.562 
0.1 1:0.36987109 2:-1.69375 
0.1 1:0.38302539 2:-3.317625 
0.1 1:0.33467969 2:-3.48525 
0.1 1:0.27303906 2:-3.471875 
0.1 1:0.18282422 2:-2.9845625 
0.1 1:0.52079102 2:-2.4798125 
0.1 1:0.45062109 2:-1.7868125 
0.1 1:0.50798047 2:-2.635 
0.1 1:0.33624805 2:-2.221875 
0.1 1:0.35373047 2:-2.2044375 
0.1 1:0.41620703 2:-3.46575 
0.1 1:0.43455859 2:-1.505125 
0.1 1:0.34212109 2:-3.7601875 
0.1 1:0.38345508 2:-2.8543125 
0.1 1:0.49512891 2:-1.64025 
0.1 1:0.32643555 2:-3.9843125 
0.1 1:0.34657227 2:-2.2581875 
0.1 1:0.4159707 2:-2.448625 
0.1 1:0.49329102 2:-2.5065625 
0.1 1:0.26388086 2:-2.4286875 
0.1 1:0.41975977 2:-3.188 
0.1 1:0.43209766 2:-2.5886875 
0.1 1:0.30484766 2:-2.807 
0.1 1:0.29772266 2:-2.9845 
0.1 1:0.38885547 2:-2.417625 
0.1 1:0.37283398 2:-2.17775 
0.1 1:0.49307031 2:-2.892875 
0.1 1:0.51006055 2:-1.950875 
0.1 1:0.31162891 2:-3.9908125 
0.1 1:0.31829297 2:-3.0553125 
0.1 1:0.33362305 2:-3.660375 
0.1 1:0.2080957 2:-1.8283125 
0.1 1:0.43245703 2:-6.32425 
0.1 1:0.22986133 2:-2.7025625 
0.1 1:0.38888086 2:-2.0305 
0.1 1:0.42361328 2:-2.841875 
0.1 1:0.4467832 2:-4.06625 
0.1 1:0.36126172 2:-3.423875 
0.1 1:0.42266211 2:-3.6119375 
0.1 1:0.3836875 2:-4.3201875 
0.1 1:0.36358984 2:-4.906375 
0.1 1:0.1994082 2:-2.0345625 
0.1 1:0.22850586 2:-1.869875 
0.1 1:0.30292383 2:-2.5051875 
0.1 1:0.25369141 2:-3.0723125 
0.1 1:0.36972461 2:-1.8185 
0.1 1:0.2792793 2:-4.419625 
0.1 1:0.22523437 2:-4.4809375 
0.1 1:0.24508984 2:-1.8170625 
0.1 1:0.29399805 2:-3.1081875 
0.1 1:0.25391211 2:-2.442625 
0.1 1:0.28305273 2:-2.2699375 
0.1 1:0.27932617 2:-4.1611875 
0.1 1:0.26952148 2:-1.5008125 
0.1 1:0.44163867 2:-4.752125 
0.1 1:0.33359961 2:-2.69725 
0.1 1:0.27570117 2:-2.78825 
0.1 1:0.27220703 2:-1.8994375 
0.1 1:0.42498437 2:-3.7625625 
0.1 1:0.38197852 2:-3.4344375 
0.1 1:0.25761328 2:-2.3586875 
0.1 1:0.45349219 2:-1.922625 
0.1 1:0.50985352 2:-2.284 
0.1 1:0.24311523 2:-2.8549375 
0.1 1:0.36006641 2:-3.2760625 
0.1 1:0.25060937 2:-5.4385 
0.1 1:0.39201758 2:-3.277375 
0.1 1:0.44503711 2:-3.56625 
0.1 1:0.65594141 2:-2.2291875 
0.1 1:0.33718359 2:-3.04075 
0.1 1:0.51713281 2:-3.2915625 
0.1 1:0.39533203 2:-2.349875 
0.1 1:0.4066875 2:-5.1200625 
0.1 1:0.26153125 2:-3.40475 
0.1 1:0.34348047 2:-2.28275 
0.1 1:0.45833789 2:-3.199125 
0.1 1:0.32691016 2:-2.5905 
0.1 1:0.32730664 2:-4.8165625 
0.1 1:0.32287109 2:-2.40375 
0.1 1:0.31361914 2:-3.78425 
0.1 1:0.38394531 2:-3.999875 
0.1 1:0.37638477 2:-4.545875 
0.1 1:0.28655664 2:-3.3416875 
0.1 1:0.22565039 2:-2.6808125 
0.1 1:0.4495 2:-2.537375 
0.1 1:0.20806445 2:-2.2381875 
0.1 1:0.24961133 2:-3.538375 
0.1 1:0.36414062 2:-3.597 
0.1 1:0.54976758 2:-0.798875 
0.1 1:0.28090625 2:-1.948125 
0.1 1:0.31547266 2:-2.37125 
0.1 1:0.52864844 2:-2.0689375 
0.1 1:0.32152344 2:-4.0238125 
0.1 1:0.30707031 2:-1.776375 
0.1 1:0.29395313 2:-2.5784375 
0.1 1:0.42115039 2:-5.187125 
0.1 1:0.26811719 2:-3.05975 
0.1 1:0.36245508 2:-4.3391875 
0.1 1:0.42935742 2:-3.0300625 
0.1 1:0.25628516 2:-2.2579375 
0.1 1:0.32280273 2:-2.0461875 
0.1 1:0.33180469 2:-5.012375 
0.1 1:0.33852344 2:-3.2181875 
0.1 1:0.18727148 2:-2.3613125 
0.1 1:0.1862207 2:-1.8210625 
0.1 1:0.24247852 2:-2.04975 
0.1 1:0.47945508 2:-4.4569375 
0.1 1:0.33263867 2:-3.347125 
0.1 1:0.24601367 2:-2.191 
0.1 1:0.29455273 2:-1.8113125 
0.1 1:0.45496094 2:-4.1976875 
0.1 1:0.30219531 2:-2.524375 
0.1 1:0.2591543 2:-1.780875 
0.1 1:0.15948437 2:-2.029 
0.1 1:0.42260938 2:-4.761125 
0.1 1:0.23285156 2:-2.8511875 
0.1 1:0.2439375 2:-3.4745625 
0.1 1:0.38264258 2:-2.117875 
0.1 1:0.25717773 2:-2.1083125 
0.1 1:0.25153516 2:-2.034125 
0.1 1:0.27891211 2:-4.927 
0.1 1:0.44528125 2:-3.1585 
0.1 1:0.2563418 2:-2.9838125 
0.1 1:0.39503906 2:-4.05675 
0.1 1:0.2550293 2:-2.693875 
0.1 1:0.21819531 2:-2.891375 
0.1 1:0.44145898 2:-2.5428125 
0.1 1:0.31919531 2:-2.3588125 
0.1 1:0.46001953 2:-3.562375 
0.1 1:0.33024219 2:-3.121625 
0.1 1:0.31608789 2:-2.0230625 
0.1 1:0.41267578 2:-2.2394375 
0.1 1:0.22754492 2:-2.5660625 
0.1 1:0.37928906 2:-3.4013125 
0.1 1:0.33908984 2:-2.6120625 
-0.009523287418024773 1:0.16823828 2:-3.0603125 
-0.1 1:0.26292969 2:-2.64375 
-0.003475191698484887 1:0.3866875 2:-5.8071875 
-0.06488421548431758 1:0.24038672 2:-3.35325 
-0.02660909791196103 1:0.25626172 2:-5.3840625 
-0.004208517454646636 1:0.1944375 2:-2.5219375 
-0.02092938795392489 1:0.23148828 2:-3.603875 
-0.0514976390906664 1:0.13750977 2:-3.2733125 
-0.02788279715448271 1:0.10909375 2:-1.11075 
-0.0257304497366818 1:0.094730469 2:-0.640625 
-0.004645447884599809 1:0.25216211 2:-4.5590625 
-0.009318212101253011 1:0.21092969 2:-3.133125 
-0.001819675070014822 1:0.12719922 2:-0.9071875 
-0.1 1:0.21135742 2:-2.489 
-0.08881394876442557 1:0.081677734 2:-1.615 
-0.00138788533895011 1:0.15219141 2:-0.6 
-0.0773931912658307 1:0.15073828 2:-3.9104375 
-0.04582587192575873 1:0.29697656 2:-3.7760625 
-0.1 1:0.29617773 2:-2.55825 
-0.1 1:0.27573242 2:-2.024875 
-0.005013139646471734 1:0.26000781 2:-4.66625 
-0.007778519859962448 1:0.30248438 2:-5.774375 
-0.04395194022210505 1:0.19568164 2:-2.5778125 
-0.1 1:0.33609961 2:-3.7926875 
-0.0104083815820567 1:0.29319922 2:-4.9666875 
-0.02549823050499631 1:0.29941016 2:-4.748375 
-0.001408795252698364 1:0.13973242 2:-0.7441875 
-0.08048327135308937 1:0.45618164 2:-6.5829375 
-0.1 1:0.34460352 2:-4.310625 
-0.001661650958714017 1:0.20572852 2:-3.8619375 
-0.1 1:0.36199023 2:-5.0789375 
-0.07587453801208374 1:0.14104297 2:-2.236375 
-0.03251194454530797 1:0.27708008 2:-6.11525 
-0.0188105882592596 1:0.21893164 2:-4.2990625 
-0.02976438430838119 1:0.17675195 2:-3.076 
-0.1 1:0.32594336 2:-3.5015 
-0.006519900154190988 1:0.18071289 2:-3.5975 
-0.05794637982584283 1:0.10792188 2:-2.571 
-0.01395387552219413 1:0.25155859 2:-4.918375 
-0.1 1:0.45689844 2:-4.434625 
-0.005476551386066163 1:0.17953516 2:-3.5239375 
-0.1 1:0.31887695 2:-4.1925625 
-0.006375238865649346 1:0.32768555 2:-5.0791875 
-0.02983057882480029 1:0.10355469 2:-1.358375 
-0.1 1:0.32357812 2:-3.277 
-0.05338687502686409 1:0.33136133 2:-4.273 
-0.09485880962111357 1:0.37572656 2:-4.8021875 
-0.008597845166781182 1:0.21798242 2:-3.359625 
-0.01103008698929448 1:0.2393457 2:-4.0664375 
-0.1 1:0.17704492 2:-3.367875 
-0.04376271640402785 1:0.31241797 2:-5.316625 
-0.002725018379208355 1:0.27503906 2:-3.7306875 
-0.0693220744325854 1:0.088917969 2:-0.41075 
-0.006080568078166849 1:0.15276953 2:-0.793625 
-0.005486532726865704 1:0.32485938 2:-5.72375 
-0.02840531733094031 1:0.34220117 2:-4.86175 
-0.1 1:0.38054102 2:-4.196375 
-0.0009091208878851039 1:0.22929492 2:-4.1615 
-0.06220261321329155 1:0.41373437 2:-5.745875 
-0.04699511479084111 1:0.33461719 2:-6.2285 
-0.01078431453206403 1:0.21626563 2:-3.61525 
-0.001585809145024208 1:0.16800781 2:-3.335375 
-0.1 1:0.24451562 2:-2.5500625 
-0.1 1:0.22633984 2:-2.71225 
-0.005399193668494827 1:0.20745508 2:-3.2791875 
-0.02504910060335768 1:0.1275957 2:-0.4744375 
-0.01401939975150279 1:0.35810352 2:-5.0428125 
-0.004712968425244604 1:0.19592383 2:-3.6909375 
-0.01921075721465565 1:0.18685742 2:-0.795125 
-0.08481970669479498 1:0.1947832 2:-3.4055625 
-0.01627528932036887 1:0.34810156 2:-5.0919375 
-0.005558155232820184 1:0.25910937 2:-4.9125 
-0.03619710572631549 1:0.25748828 2:-0.9090625 
-0.1 1:0.40533789 2:-6.4565 
-0.003054962805010413 1:0.31817187 2:-5.0755625 
-0.1 1:0.27103711 2:-3.3648125 
-0.1 1:0.20248633 2:-1.470125 
-0.003908127239596815 1:0.23408984 2:-3.4955 
-0.001246287738575324 1:0.19197266 2:-3.4304375 
-0.06075103057292054 1:0.21107031 2:-2.5110625 
-0.007261423879022844 1:0.30620117 2:-4.9893125 
-0.09068313718336359 1:0.20867188 2:-2.972625 
-0.01268790719023462 1:0.35232031 2:-6.1666875 
-0.001495712188778434 1:0.20483008 2:-3.5805 
-0.03603780380996302 1:0.35206836 2:-4.7219375 
-0.00763366373042505 1:0.16215625 2:-3.688625 
-0.1 1:0.37414063 2:-4.146625 
-0.01133763976526464 1:0.24718359 2:-3.56925 
-0.02743387989240711 1:0.44216406 2:-4.5275 
-0.07938966653703206 1:0.20493945 2:-4.4815625 
-0.02066835150682526 1:0.27832422 2:-5.4890625 
-0.04163036371311003 1:0.35835547 2:-6.3311875 
-0.007705355397050809 1:0.38049805 2:-4.2808125 
-0.05977194966420785 1:0.16945117 2:-3.875125 
-0.007088563611587268 1:0.24125 2:-3.3565 
-0.01920747127158412 1:0.29444336 2:-5.786 
-0.01443092676676216 1:0.15169531 2:-2.536625 
-0.04864186776796599 1:0.28529688 2:-4.429 
-0.1 1:0.3785957 2:-3.982125 
-0.01216751803778111 1:0.25998047 2:-4.9770625 
-0.07925159147840569 1:0.24226758 2:-5.4451875 
-0.1 1:0.38328516 2:-4.62175 
-0.00248749722014736 1:0.12764062 2:-0.390375 
-0.02558696221196249 1:0.23030078 2:-4.562125 
-0.01084319931801376 1:0.28728125 2:-5.9145 
-0.08194395481819242 1:0.18350195 2:-2.1923125 
-0.1 1:0.43591602 2:-5.860375 
-0.002931715580830014 1:0.23783594 2:-4.166125 
-0.006345068119519154 1:0.19994727 2:-3.95225 
-0.1 1:0.27037305 2:-5.205125 
-0.01689123000589361 1:0.18373828 2:-0.7175625 
-0.04645804238762031 1:0.31799219 2:-3.949 
-0.0097577638299256 1:0.42146484 2:-5.1829375 
-0.007114660298786413 1:0.33573047 2:-4.2478125 
-0.06883038295997471 1:0.21367187 2:-5.067625 
-0.05328707250132869 1:0.20376172 2:-0.978 
-0.00823274985725389 1:0.16880273 2:-3.3520625 
-0.03328674799843047 1:0.20798828 2:-4.5903125 
-0.09109732405596851 1:0.41813477 2:-4.671875 
-0.003535383387807747 1:0.30674414 2:-6.0086875 
-0.007363067105489691 1:0.31765234 2:-5.4841875 
-0.1 1:0.36631055 2:-4.4484375 
-0.007065197618759172 1:0.31899414 2:-5.4053125 
-0.02496293575370805 1:0.33544727 2:-5.1939375 
-0.1 1:0.29561328 2:-3.4695625 
-0.001135300082283 1:0.30451758 2:-4.920125 
-0.0119777539438727 1:0.1740918 2:-0.6516875 
-0.1 1:0.28626953 2:-2.63325 
-0.06576969195210472 1:0.16345508 2:-1.4323125 
-0.07696723942433004 1:0.23283984 2:-3.2834375 
-0.005479770554264968 1:0.22507227 2:-4.09775 
-0.0889590468724276 1:0.21206641 2:-3.21275 
-0.01012770796242068 1:0.12050781 2:-0.4821875 
-0.1 1:0.28405273 2:-2.7609375 
-0.09094655230192381 1:0.068048828 2:-0.315 
-0.001595932821621922 1:0.18057031 2:-4.090625 
-0.1 1:0.30611523 2:-2.9101875 
-0.01299537730241703 1:0.26500391 2:-5.61825 
-0.01705996967586135 1:0.29333203 2:-5.2593125 
-0.03783483427189879 1:0.19626367 2:-2.565125 
-0.1 1:0.20105469 2:-3.171 
-0.06323108962584215 1:0.24838867 2:-5.320625 
-0.003829541555614558 1:0.27745898 2:-4.6110625 
-0.1 1:0.38253711 2:-4.640375 
-0.008696158734363132 1:0.14083398 2:-2.108625 
-0.1 1:0.38961328 2:-2.5674375 
-0.07991121986330221 1:0.25565625 2:-1.4544375 
-0.07648502371094129 1:0.15527148 2:-3.574 
-0.01265575325451986 1:0.16594141 2:-2.926125 
-0.004038446295431091 1:0.23333008 2:-3.917375 
-0.05587663296897683 1:0.24172656 2:-0.6289375 
-0.01996095209211683 1:0.2941543 2:-5.671 
-0.1 1:0.32116602 2:-1.6766875 
-0.0776860256652049 1:0.24957031 2:-3.7960625 
-0.1 1:0.44980664 2:-3.9481875 
-0.01546028397345045 1:0.13191211 2:-0.392625 
-0.026716813343445 1:0.18051758 2:-0.4456875 
-0.1 1:0.24810742 2:-2.2230625 
-0.07452157836198023 1:0.074298828 2:-1.0331875 
-0.03849476131721918 1:0.26025391 2:-4.943875 
-0.01457502849212175 1:0.089160156 2:-1.664875 
-0.003811017027952634 1:0.24185742 2:-3.9803125 
-0.1 1:0.35011133 2:-4.5961875 
-0.03205309142111539 1:0.13936914 2:-2.2974375 
-0.03077911133825032 1:0.17189844 2:-0.5083125 
-0.006080629867728242 1:0.1560293 2:-0.5514375 
-0.06276843323249234 1:0.39750977 2:-6.3005625 
-0.007577830640098336 1:0.2849375 2:-5.4588125 
-0.02268903165977925 1:0.21365234 2:-3.4150625 
-0.0005601109203958172 1:0.24795898 2:-3.6968125 
-0.03848940603108431 1:0.14164258 2:-1.2774375 
-0.09626716529508256 1:0.14204297 2:-1.8194375 
-0.01599415870032055 1:0.19223047 2:-0.8635 
-0.01483999456188229 1:0.22949023 2:-4.5896875 
-0.1 1:0.23705078 2:-3.43175 
-0.003928362902539296 1:0.20183789 2:-3.868875 
-0.06967025398697363 1:0.41708984 2:-7.1114375 
-0.009202268406780057 1:0.10139063 2:-0.265875 
-0.03636612851343306 1:0.17340039 2:-2.8970625 
-0.1 1:0.32398242 2:-3.5039375 
-0.03977237996675654 1:0.1791875 2:-3.6853125 
-0.1 1:0.47258203 2:-5.1478125 
-0.006982976767410432 1:0.16381641 2:-3.3376875 
-0.01032528492426266 1:0.30914844 2:-5.638125 
-0.005755577458646674 1:0.1895625 2:-3.3044375 
-0.03885345612454796 1:0.29303711 2:-5.9831875 
-0.1 1:0.23117383 2:-1.6263125 
-0.1 1:0.36822461 2:-3.207625 
-0.08410960233079288 1:0.27883984 2:-3.5875625 
-0.1 1:0.28976953 2:-3.163375 
-0.00220866472293436 1:0.14530859 2:-0.7505625 
-0.0208057457910049 1:0.13075781 2:-0.4119375 
-0.1 1:0.33098047 2:-2.8483125 
-0.00362067856469289 1:0.24298438 2:-3.9543125 
-0.1 1:0.32233594 2:-3.5528125 
-0.006426512900430351 1:0.29791797 2:-4.2606875 
-0.01253183556794541 1:0.30915625 2:-4.5255 
-0.0292205119745997 1:0.29336914 2:-4.1166875 
-0.05180266869304964 1:0.24395898 2:-0.680875 
-0.01638006993583246 1:0.36369922 2:-5.36625 
-0.1 1:0.34348242 2:-3.792 
-0.006856224887230401 1:0.28387695 2:-4.8706875 
-0.01141741273935919 1:0.22143555 2:-0.4406875 
-0.001361573299252405 1:0.2614707 2:-4.7341875 
-0.03562674374508818 1:0.17188867 2:-0.9570625 
-0.04693569509045113 1:0.090236328 2:-0.5974375 
-0.008669034859041889 1:0.15309961 2:-0.517875 
-0.1 1:0.29874609 2:-4.3555625 
-0.03042736372523734 1:0.34079687 2:-4.7308125 
-0.04047633973159884 1:0.1423125 2:-3.2208125 
-0.006036143458654014 1:0.24972461 2:-4.840625 
-0.1 1:0.29859766 2:-3.285875 
-0.1 1:0.36369141 2:-2.1930625 
-0.017478826670878 1:0.37807812 2:-5.0475 
-0.008137894062786368 1:0.14675 2:-2.513125 
-0.001774018976293358 1:0.16562695 2:-2.3655 
-0.05304457110748523 1:0.15626562 2:-1.477 
-0.06873780246871559 1:0.23668945 2:-3.4695625 
-0.02999490538016735 1:0.31229102 2:-6.0148125 
-0.02141735348421912 1:0.26534961 2:-4.584875 
-0.007827488098745106 1:0.24811523 2:-4.385125 
-0.08468186865400348 1:0.097283203 2:-2.3428125 
-0.01727554099741941 1:0.22727734 2:-3.095375 
-0.1 1:0.24243945 2:-2.4279375 
-0.0206180029473676 1:0.11418945 2:-0.9640625 
-0.1 1:0.34318555 2:-4.044125 
-0.08769124390935357 1:0.41662305 2:-5.1686875 
-0.1 1:0.29849609 2:-3.9649375 
-0.006718088542600134 1:0.12304297 2:-0.707875 
-0.007387755061085396 1:0.23166406 2:-4.7021875 
-0.01319255641539597 1:0.13817969 2:-0.2635 
-0.008496836877544038 1:0.24904297 2:-4.2915 
-0.0330316439968857 1:0.3435332 2:-5.4168125 
-0.01171016878219748 1:0.19564844 2:-3.46 
-0.02475424778245805 1:0.17175391 2:-2.844375 
-0.00894972932463447 1:0.18582227 2:-3.371625 
-0.01715764725247074 1:0.082671875 2:-0.6861875 
-0.1 1:0.25462695 2:-3.4156875 
-0.07257657715346368 1:0.33039063 2:-4.84375 
-0.08996013030342229 1:0.24896289 2:-5.6844375 
-0.1 1:0.25451758 2:-1.7416875 
-0.02688273192513593 1:0.25383398 2:-5.38075 
-0.04408628995984223 1:0.36164258 2:-6.250875 
-0.006648169206289169 1:0.24031641 2:-4.144875 
-0.1 1:0.23962695 2:-3.3054375 
-0.1 1:0.37288086 2:-4.37825 
-0.02000868068630749 1:0.19900977 2:-1.1204375 
-0.1 1:0.41108008 2:-4.3343125 
-0.01156405290064084 1:0.23031836 2:-4.3780625 
-0.02577100939543434 1:0.14204102 2:-0.9299375 
-0.03563921292597787 1:0.37671289 2:-6.0123125 
-0.1 1:0.38552344 2:-4.6464375 
-0.1 1:0.15125977 2:-2.6233125 
-0.002546251384572978 1:0.12333398 2:-0.8314375 
-0.002061336742835949 1:0.1684668 2:-3.364625 
-0.01140867582993131 1:0.27471094 2:-5.619875 
-0.003678613485048053 1:0.28121875 2:-5.2725 
-0.00125226444864278 1:0.22876367 2:-4.0488125 
-0.04019815283865354 1:0.15348438 2:-2.6431875 
-0.002588161545180552 1:0.22945312 2:-4.614625 
-0.004307535923369956 1:0.17456055 2:-2.679625 
-0.1 1:0.27303906 2:-3.137875 
-0.1 1:0.27030078 2:-1.6701875 
-0.008144972252271492 1:0.13687305 2:-2.3974375 
-0.02080853965483714 1:0.41430469 2:-6.158625 
-0.1 1:0.27819727 2:-3.7015 
-0.001335814146772196 1:0.20766602 2:-4.0169375 
-0.1 1:0.42868164 2:-3.7133125 
-0.1 1:0.48124219 2:-4.2619375 
-0.03559631853719544 1:0.13932031 2:-1.2410625 
-0.02526596011888053 1:0.30747852 2:-5.424875 
-0.02252010630234801 1:0.28926172 2:-5.3529375 
-0.000809333726626556 1:0.21762695 2:-3.75125 
-0.1 1:0.33954297 2:-2.632375 
-0.01628727941191317 1:0.13950195 2:-0.3895625 
-0.01028866090725282 1:0.28378711 2:-4.067625 
-0.002394750744053189 1:0.17743945 2:-2.8775625 
-0.000746269454160009 1:0.16974609 2:-0.8895625 
-0.01353806339384106 1:0.37275586 2:-7.081375 
-0.03592930245999745 1:0.3259375 2:-5.6773125 
-0.01687097623310147 1:0.29669727 2:-5.4954375 
-0.08439488403407422 1:0.20121484 2:-2.59925 
-0.04625134898884375 1:0.3979668 2:-6.434375 
-0.003027461918545265 1:0.21073242 2:-3.7155625 
-0.06977372679934477 1:0.13169336 2:-2.097 
-0.1 1:0.39812109 2:-4.224375 
-0.01336449801908863 1:0.22447461 2:-3.3846875 
-0.1 1:0.31331641 2:-3.9036875 
-0.1 1:0.49560547 2:-4.876 
-0.1 1:0.30668164 2:-3.5968125 
-0.05754377472450596 1:0.16408984 2:-3.7249375 
-0.02197976554550806 1:0.33826953 2:-5.990625 
-0.05403992249379617 1:0.089236328 2:-0.6251875 
-0.006944905558261315 1:0.30542383 2:-4.773875 
-0.1 1:0.34413281 2:-2.960375 
-0.007878909031403732 1:0.34219727 2:-5.2260625 
-0.07020637063384236 1:0.19316602 2:-1.945125 
-0.1 1:0.18532422 2:-1.690875 
-0.04849090821708765 1:0.17242188 2:-3.959375 
-0.004433203506036169 1:0.26531055 2:-4.804 
-0.0009317725113372119 1:0.1688457 2:-0.58225 
-0.02001084741055226 1:0.1466582 2:-0.7234375 
-0.004109355627738872 1:0.20644336 2:-4.13675 
-0.008171794434643165 1:0.12784375 2:-2.3675 
-0.01788445650981229 1:0.14077734 2:-2.5475 
-0.01219031955539514 1:0.29718555 2:-5.8158125 
-0.01710149052983663 1:0.35592578 2:-5.0685625 
-0.002654103131719278 1:0.18317383 2:-2.6414375 
-0.04573354985001996 1:0.16145117 2:-2.4376875 
-0.004443122049846482 1:0.28355469 2:-4.5768125 
-0.1 1:0.33358984 2:-2.0735 
-0.01363461946850792 1:0.1929082 2:-3.553125 
-0.002950861808863323 1:0.32199023 2:-4.8565 
-0.05722334377187518 1:0.25937695 2:-3.4583125 
-0.01091873389498735 1:0.25196094 2:-4.2266875 
-0.006576928356085201 1:0.30721289 2:-5.265875 
-0.02437606262298972 1:0.36959961 2:-5.9623125 
-0.005554118519022155 1:0.18055859 2:-0.52275 
-0.007001632847296628 1:0.34549414 2:-5.2533125 
-0.00246284101880762 1:0.20576172 2:-4.013875 
-0.003003899109691274 1:0.23947656 2:-3.9203125 
-0.02197495518404058 1:0.12307812 2:-0.750125 
-0.1 1:0.1092793 2:-0.1195 
-0.006009969463296012 1:0.17791992 2:-1.055 
-0.1 1:0.2628418 2:-2.9529375 
-0.1 1:0.40919141 2:-6.5406875 
-0.04341277053085185 1:0.28638672 2:-4.4854375 
-0.01047960392994866 1:0.35369141 2:-5.0035 
-0.1 1:0.2585625 2:-5.0456875 
-0.003269933932162238 1:0.19514063 2:-3.7558125 
-0.01379803769968063 1:0.16926563 2:-0.444 
-0.1 1:0.22959961 2:-2.5274375 
-0.09903920220920062 1:0.24605078 2:-3.83775 
-0.1 1:0.31189453 2:-5.001625 
-0.1 1:0.28302148 2:-3.572375 
-0.07618799392844791 1:0.42158008 2:-4.9910625 
-0.02190501075213527 1:0.10847266 2:-0.7294375 
-0.03422944917523515 1:0.32481836 2:-6.3535 
-0.1 1:0.30995703 2:-2.99925 
-0.02499691708833797 1:0.33678711 2:-3.9640625 
-0.1 1:0.4310957 2:-3.0286875 
-0.060913492041647 1:0.13378516 2:-3.048875 
-0.01785383909109072 1:0.17307031 2:-2.9628125 
-0.06007715682418839 1:0.2627793 2:-5.64825 
-0.001126764623054411 1:0.21604492 2:-4.5743125 
-0.003733587753118546 1:0.21192969 2:-0.6360625 
-0.02800381170387295 1:0.22383594 2:-2.1114375 
-0.02196267152919706 1:0.23304492 2:-3.69675 
-0.1 1:0.21878516 2:-3.5774375 
-0.00953105085588485 1:0.31331836 2:-5.234625 
-0.02395281893658966 1:0.26988086 2:-3.72675 
-0.09453325955062306 1:0.077263672 2:-1.0995 
-0.1 1:0.30793359 2:-6.8123125 
-0.1 1:0.30475 2:-3.782375 
-0.002912720672984061 1:0.30049023 2:-4.7780625 
-0.003695060690628351 1:0.28758984 2:-5.0668125 
-0.003396681394875906 1:0.10382617 2:-1.89325 
-0.1 1:0.23298633 2:-2.002375 
-0.1 1:0.43238867 2:-2.8535625 
-0.02305576973111387 1:0.13055664 2:-2.9695625 
-0.00357354637810161 1:0.29736914 2:-3.4948125 
-0.01115870326336653 1:0.23483008 2:-3.5435 
-0.01436844016814146 1:0.19742383 2:-3.058375 
-0.08273159588936732 1:0.36618555 2:-6.76 
-0.07718964128886362 1:0.1665918 2:-2.88275 
-0.002401693561239658 1:0.36661328 2:-6.022 
-0.06537480699585385 1:0.38566406 2:-5.403625 
-0.01053500086102403 1:0.13896484 2:-2.837125 
-0.1 1:0.24664258 2:-2.0425625 
-0.07120807349416067 1:0.44727148 2:-5.6630625 
-0.05327450081222603 1:0.11510742 2:-2.670625 
-0.004300573830233893 1:0.20280859 2:-4.48875 
-0.03540036408268744 1:0.30680469 2:-5.958625 
-0.003546408490431419 1:0.24713086 2:-4.376625 
-0.1 1:0.3421875 2:-3.4231875 
-0.1 1:0.19296289 2:-2.1853125 
-0.002753473380066686 1:0.32398437 2:-5.519 
-0.1 1:0.27411523 2:-3.071875 
-0.01095104282512668 1:0.34759375 2:-5.3243125 
-0.007272094220111003 1:0.31383203 2:-5.590375 
-0.06426150433816175 1:0.27562891 2:-3.6761875 
-0.02641039011654368 1:0.2723418 2:-3.8523125 
-0.00953677002716702 1:0.1857832 2:-3.4355625 
-0.1 1:0.38985547 2:-3.799625 
-0.01468212553483135 1:0.28550391 2:-5.3475 
-0.03259049747973501 1:0.22076758 2:-3.50925 
-0.02243536807611728 1:0.091894531 2:-1.8661875 
-0.1 1:0.45111328 2:-4.638 
-0.1 1:0.28808594 2:-2.365375 
-0.009275287939731314 1:0.33651953 2:-5.174875 
-0.05087732523446292 1:0.35889258 2:-6.5419375 
-0.03509181413383968 1:0.19938086 2:-4.527 
-0.09114563436802338 1:0.42489258 2:-5.367 
-0.002678547787216903 1:0.23993359 2:-3.5594375 
-0.03177983946347145 1:0.28254102 2:-2.7315 
-0.06346218694589686 1:0.10989844 2:-1.7845 
-0.01406886416218533 1:0.22181641 2:-4.1625625 
-0.01656054248235948 1:0.2040625 2:-3.052875 
-0.003541354184316423 1:0.21740625 2:-4.2459375 
-0.01352495661076687 1:0.38785547 2:-6.0408125 
-0.006658898938107392 1:0.1582207 2:-0.76625 
-0.1 1:0.35527734 2:-2.8031875 
-0.1 1:0.39397461 2:-3.8175 
-0.01241562398613164 1:0.22276758 2:-4.9826875 
-0.0467888882674026 1:0.20137891 2:-0.74275 
-0.006021100103280883 1:0.23483594 2:-5.0375 
-0.01174517685147231 1:0.34402344 2:-5.874 
-0.1 1:0.18063281 2:-1.7966875 
-0.0377211164505598 1:0.25394531 2:-3.7655 
-0.1 1:0.33538281 2:-3.271875 
-0.04543013911105601 1:0.30993359 2:-4.1353125 
-0.008267016202020807 1:0.30438672 2:-5.9503125 
-0.06055125133073169 1:0.21219141 2:-4.848875 
-0.01650520498325218 1:0.080568359 2:-0.575125 
-0.1 1:0.19609766 2:-1.8271875 
-0.05481236249018766 1:0.2175918 2:-2.9788125 
-0.01742215597392979 1:0.18426758 2:-3.6134375 
-0.04880497841721502 1:0.28948047 2:-5.2085 
-0.1 1:0.046820312 2:-0.9586875 
-0.01909174446795201 1:0.23354297 2:-3.1538125 
-0.03633921107843537 1:0.21148828 2:-4.67825 
-0.08152630036024269 1:0.42402148 2:-4.7025625 
-0.001988186986721596 1:0.21832617 2:-3.3679375 
-0.09513843322659575 1:0.34679102 2:-4.3859375 
-0.1 1:0.25854297 2:-1.9469375 
-0.01304681684915454 1:0.35900977 2:-5.2805 
-0.1 1:0.39505078 2:-4.75675 
-0.1 1:0.22491602 2:-2.3835 
-0.004570660273059652 1:0.13794531 2:-0.4776875 
-0.1 1:0.27269141 2:-2.4061875 
-0.07373785908217446 1:0.23831445 2:-5.6046875 
-0.03084953452611658 1:0.22158984 2:-3.21225 
-0.07762054698324349 1:0.087685547 2:-0.4531875 
-0.002770325130775405 1:0.26645117 2:-3.9381875 
-0.01989838694179583 1:0.2519707 2:-2.6255625 
-0.1 1:0.369375 2:-4.5480625 
-0.005679793447246378 1:0.34061719 2:-4.7765625 
-0.002061370142525708 1:0.19176953 2:-3.300375 
-0.002437850332730137 1:0.25771875 2:-4.141 
-0.1 1:0.29525195 2:-4.3768125 
-0.0736751259337457 1:0.32814648 2:-4.10025 
-0.05116053044007226 1:0.29636133 2:-3.4575 
-0.05256471644153547 1:0.2247832 2:-3.946875 
-0.01269023445247453 1:0.14711914 2:-0.7550625 
-0.1 1:0.39553906 2:-4.077875 
-0.01471556370104947 1:0.31420117 2:-4.928125 
-0.04960415641868618 1:0.35883984 2:-5.7729375 
-0.02728567057577726 1:0.32294922 2:-4.96825 
-0.01419836291917541 1:0.17342969 2:-3.4353125 
-0.001872204217543911 1:0.34806445 2:-5.270625 
-0.0350408319942828 1:0.27678516 2:-4.6961875 
-0.1 1:0.28992578 2:-2.24675 
-0.1 1:0.46754492 2:-5.648125 
-0.09357030084926796 1:0.41826953 2:-5.916375 
-0.02671658655936848 1:0.28594531 2:-5.5890625 
-0.01044849300695464 1:0.21825586 2:-3.408625 
-0.04431317817411116 1:0.22940039 2:-3.371875 
-0.001152270132612103 1:0.38016016 2:-4.81675 
-0.01035972886892311 1:0.12742188 2:-0.7746875 
-0.02706435055876408 1:0.14753516 2:-0.62325 
-0.02357748087177272 1:0.30364453 2:-5.5271875 
-0.1 1:0.24696484 2:-2.446625 
-0.003631911213830847 1:0.16587109 2:-3.019 
-0.02600975286372056 1:0.11855664 2:-2.1941875 
-0.01852672230961644 1:0.2874082 2:-4.2813125 
-0.02784152495842961 1:0.16414062 2:-2.75425 
-0.09787914679888282 1:0.29921875 2:-4.207375 
-0.01220411067995304 1:0.30566992 2:-4.4906875 
-0.01324839819580628 1:0.21592969 2:-0.6776875 
-0.007733173766740396 1:0.24310742 2:-3.7805625 
-0.1 1:0.40599219 2:-2.685625 
-0.1 1:0.30981836 2:-2.747 
-0.09105140706280726 1:0.37411719 2:-4.8251875 
-0.009708550349774116 1:0.26540234 2:-4.78625 
-0.004268469437176248 1:0.16155273 2:-2.772875 
-0.09009685582532069 1:0.21780273 2:-2.6044375 
-0.004743268967740133 1:0.2936582 2:-4.881 
-0.07809431878270393 1:0.38377344 2:-6.2124375 
-0.04538433487386296 1:0.1969668 2:-4.3445625 
-0.02108319694936951 1:0.37046094 2:-5.16625 
-0.03592878231378449 1:0.15110547 2:-2.586875 
-0.0603733741198838 1:0.18408398 2:-1.84125 
-0.002156825601150733 1:0.19022852 2:-3.45175 
-0.1 1:0.3006875 2:-3.8331875 
-0.007870941058276492 1:0.30970703 2:-5.2878125 
-0.05293890575740747 1:0.39202148 2:-4.8614375 
-0.007207763033636936 1:0.16658789 2:-0.4264375 
-0.1 1:0.29430664 2:-3.5336875 
-0.01601122479374479 1:0.27854297 2:-5.9966875 
-0.001592132485141479 1:0.2641543 2:-3.894125 
-0.06390995015293532 1:0.37595117 2:-6.845625 
-0.08352740181550589 1:0.23011133 2:-4.3325 
-0.0971960536840106 1:0.25605469 2:-4.37625 
-0.1 1:0.32016211 2:-4.0165625 
-0.1 1:0.25445313 2:-3.2235625 
-0.01931131047369786 1:0.29912695 2:-3.834875 
-0.05530963767879431 1:0.11567383 2:-2.49925 
-0.006898007012533083 1:0.24210937 2:-3.6994375 
-0.005954341225832677 1:0.17070117 2:-3.2515 
-0.0537366556085505 1:0.27479297 2:-3.251625 
-0.02261354419143815 1:0.089660156 2:-0.3435 
-0.1 1:0.31816797 2:-3.9778125 
-0.005302439466064544 1:0.35899219 2:-4.406625 
-0.008126478353550123 1:0.21100977 2:-3.42 
-0.1 1:0.26800977 2:-2.4195 
-0.01110670352559443 1:0.20660742 2:-3.4691875 
-0.02577544382941857 1:0.17518555 2:-0.4829375 
-0.05456124912589173 1:0.25085156 2:-0.6616875 
-0.01734889698685247 1:0.38603711 2:-5.7089375 
-0.08582389239273844 1:0.22306445 2:-2.1304375 
-0.1 1:0.26711914 2:-3.2993125 
-0.06852625507613871 1:0.2860332 2:-5.7048125 
-0.002847712278960907 1:0.13176172 2:-0.646875 
-0.08187178402938258 1:0.093445313 2:-1.990875 
-0.0109100184163891 1:0.37918555 2:-4.8870625 
-0.0008197584208074482 1:0.26896484 2:-3.7311875 
-0.0980507226617027 1:0.48716016 2:-4.86025 
-0.005022689289657937 1:0.16488281 2:-0.8014375 
-0.003569117176696607 1:0.19924219 2:-3.78625 
-0.08852839961339692 1:0.44730469 2:-5.969375 
-0.02628395102240265 1:0.29255078 2:-4.3645 
-0.0706442498734064 1:0.2639082 2:-5.1389375 
-0.01978191689734527 1:0.25119336 2:-5.2188125 
-0.1 1:0.24884961 2:-0.97475 
-0.1 1:0.26649414 2:-2.323875 
-0.02891866090125945 1:0.4509043 2:-6.5925625 
-0.1 1:0.26213867 2:-2.9094375 
-0.006264123585138216 1:0.23712891 2:-4.3549375 
-0.007706912424309952 1:0.1929668 2:-3.8806875 
-0.05364676342674405 1:0.40074023 2:-6.8451875 
-0.03522003986716393 1:0.41386719 2:-5.3438125 
-0.07573034630391753 1:0.22991602 2:-5.1326875 
-0.005366496006238815 1:0.17290039 2:-0.6088125 
-0.1 1:0.21329492 2:-2.4545 
-0.002968351994650478 1:0.20601758 2:-4.127125 
-0.05460104501536263 1:0.39804688 2:-4.837375 
-0.08087854461528914 1:0.28108203 2:-3.5603125 
-0.0836582404730539 1:0.28070703 2:-3.386625 
-0.0007192557880467687 1:0.23394336 2:-2.904 
-0.0785194156088552 1:0.44413086 2:-5.4968125 
-0.003417965072757852 1:0.22188477 2:-3.3343125 
-0.05905010264842565 1:0.1550625 2:-3.471625 
-0.004442594490961822 1:0.1732793 2:-3.3630625 
-0.03775583057572857 1:0.35570117 2:-4.8763125 
-0.1 1:0.40190039 2:-4.0061875 
-0.06633717454909724 1:0.25951953 2:-5.152625 
-0.06262694571602895 1:0.27326758 2:-5.4265 
-0.1 1:0.2102168 2:-2.0330625 
-0.0009751658552891057 1:0.27365625 2:-5.3413125 
-0.004415739156634957 1:0.23572656 2:-3.5988125 
-0.07572648455554312 1:0.23024805 2:-4.4745 
-0.1 1:0.23054297 2:-3.08525 
-0.01030321981525355 1:0.15566016 2:-2.349875 
-0.04312623116782103 1:0.22812891 2:-3.6428125 
-0.05971664682948633 1:0.22622461 2:-3.44825 
-0.07020593997357537 1:0.42876367 2:-5.30325 
-0.002830025882223308 1:0.18686914 2:-3.620375 
-0.02106575694644744 1:0.17953711 2:-3.50825 
-0.1 1:0.35157227 2:-1.6589375 
-0.1 1:0.32399805 2:-3.6455625 
-0.1 1:0.29769922 2:-3.3219375 
-0.007580754631286133 1:0.18031055 2:-3.44725 
-0.1 1:0.23229883 2:-2.5465625 
-0.002788595459624252 1:0.14083398 2:-3.0911875 
-0.02282474636144 1:0.38706445 2:-4.7500625 
-0.06249525972356574 1:0.19995117 2:-4.736 
-0.0006828851955684723 1:0.23379883 2:-4.032375 
-0.07456065904813371 1:0.18168164 2:-1.866875 
-0.1 1:0.4074082 2:-3.9875 
-0.05914513249752761 1:0.16279883 2:-1.3314375 
-0.08882703635236336 1:0.1427832 2:-3.6198125 
-0.01443404086798954 1:0.24007813 2:-4.6259375 
-0.04419938711117963 1:0.35028711 2:-6.351625 
-0.01407179488888771 1:0.16263672 2:-3.347625 
-0.009504513737016797 1:0.34041602 2:-5.3165625 
-0.04823847995782285 1:0.24685352 2:-3.0428125 
-0.02150579290889557 1:0.32004297 2:-4.86475 
-0.1 1:0.41378516 2:-2.7640625 
-0.03368881310134578 1:0.27436328 2:-4.999875 
-0.07035863603951246 1:0.12641016 2:-2.8191875 
-0.002253795774801503 1:0.232125 2:-4.18675 
-0.006247010016489956 1:0.28505859 2:-5.2948125 
-0.01206988714257872 1:0.26625781 2:-5.1054375 
-0.1 1:0.24451758 2:-2.7610625 
-0.02248042063453546 1:0.13950586 2:-0.9530625 
-0.06430041148889683 1:0.17835937 2:-2.29925 
-0.07076988508067963 1:0.17457617 2:-0.277875 
-0.07613864124148748 1:0.19188281 2:-2.0279375 
-0.01839328208799657 1:0.36801953 2:-6.04 
-0.1 1:0.34156445 2:-3.5378125 
-0.03918137395347155 1:0.15044922 2:-2.3756875 
-0.07295224801159436 1:0.38608594 2:-4.26 
-0.0008307440007581716 1:0.29062891 2:-4.898125 
-0.02187953501407346 1:0.34291211 2:-6.461375 
-0.01670338235326615 1:0.12803125 2:-1.108625 
-0.09851472759450339 1:0.18132617 2:-3.2220625 
-0.03550504765201305 1:0.1367793 2:-1.2078125 
-0.02676535015475828 1:0.19811523 2:-0.6894375 
-0.02375173033104241 1:0.10803516 2:-0.1565625 
-0.009598688718451549 1:0.27208203 2:-3.9379375 
-0.1 1:0.49851172 2:-4.012375 
-0.002009827800535467 1:0.15559766 2:-0.45925 
-0.004569185482785193 1:0.29341211 2:-5.0375625 
-0.001871770470516065 1:0.29497266 2:-5.505625 
-0.02926083201531593 1:0.14821484 2:-2.779125 
-0.01245272828266675 1:0.16690234 2:-2.8409375 
-0.07948836858188721 1:0.18665039 2:-4.4296875 
-0.01036428621557076 1:0.25205078 2:-2.93175 
-0.001084381989662828 1:0.26091406 2:-5.306875 
-0.003792341094271951 1:0.20539844 2:-3.8018125 
-0.03657456801009198 1:0.20321094 2:-4.504 
-0.02376441472364155 1:0.29868555 2:-5.44775 
-0.0286659065824353 1:0.16305664 2:-0.8150625 
-0.0147749100414107 1:0.39191602 2:-5.2935 
-0.002230112701656128 1:0.25603906 2:-5.0956875 
-0.001549360627632843 1:0.25609961 2:-4.8286875 
-0.002862848908371213 1:0.163125 2:-2.3531875 
-0.004978393103221065 1:0.19991992 2:-3.5648125 
-0.001963070104240937 1:0.18004688 2:-0.73 
-0.1 1:0.47209961 2:-4.102375 
-0.02254395879224343 1:0.28778516 2:-4.2623125 
-0.1 1:0.27455664 2:-1.5620625 
-0.0326556829779162 1:0.29528906 2:-5.3894375 
-0.002866013291202957 1:0.17560742 2:-3.4273125 
-0.06214843822021428 1:0.16182812 2:-3.80425 
-0.08157269477056059 1:0.38399414 2:-3.8518125 
-0.002757699694588904 1:0.18048438 2:-3.661 
-0.05578501953989216 1:0.3301582 2:-4.557875 
-0.1 1:0.37522461 2:-4.0751875 
-0.01532317692930882 1:0.30232617 2:-5.9131875 
-0.00817531312569498 1:0.3350332 2:-4.747125 
-0.0007810240497337373 1:0.22739063 2:-3.4049375 
-0.08455035773402102 1:0.2542207 2:-4.6595 
-0.0159243769422469 1:0.16872461 2:-2.8725625 
-0.1 1:0.26879883 2:-3.4326875 
-0.01131749052076509 1:0.31819336 2:-4.47875 
-0.01207928946301585 1:0.1299668 2:-0.6614375 
-0.001837016583001869 1:0.28356641 2:-4.7535 
-0.004356054655143732 1:0.24193164 2:-3.122625 
-0.004697624006739251 1:0.23177344 2:-4.517375 
-0.02937237701783765 1:0.088017578 2:-0.839125 
-0.1 1:0.46312695 2:-4.068625 
-0.04413906867841335 1:0.34460547 2:-4.783125 
-0.1 1:0.39258008 2:-5.3465 
-0.05844783703691154 1:0.26012891 2:-0.84825 
-0.02483345931068594 1:0.20155859 2:-2.3331875 
-0.0473727735477442 1:0.097117188 2:-0.2763125 
-0.1 1:0.3052793 2:-3.3136875 
-0.02832978620458665 1:0.36097461 2:-6.4238125 
-0.003076469335767716 1:0.1994375 2:-0.463375 
-0.1 1:0.26678516 2:-2.513375 
-0.0183114488832046 1:0.16453125 2:-1.2055625 
-0.05109466362345355 1:0.24755859 2:-4.672875 
-0.1 1:0.27480078 2:-3.3963125 
-0.1 1:0.48145117 2:-3.388 
-0.1 1:0.1951543 2:-2.4258125 
-0.009363827404912071 1:0.21744336 2:-4.209875 
-0.001880735076397387 1:0.16165234 2:-2.727625 
-0.05468226181845125 1:0.18249023 2:-1.704875 
-0.1 1:0.27866992 2:-3.1021875 
-0.033017150236854 1:0.15975391 2:-3.0234375 
-0.002578147208289043 1:0.16845703 2:-3.3035 
-0.05024325822835941 1:0.093355469 2:-1.65375 
-0.07874882433111709 1:0.21717383 2:-4.7938125 
-0.04979741502812973 1:0.096986328 2:-2.1764375 
-0.08293752026410878 1:0.22074805 2:-3.112 
-0.03600242965120865 1:0.077703125 2:-1.7349375 
-0.1 1:0.21851953 2:-2.33275 
-0.002461235668788775 1:0.13571484 2:-1.0553125 
-0.1 1:0.34680664 2:-2.6586875 
-0.09723373643875664 1:0.26537109 2:-3.0890625 
-0.1 1:0.27839453 2:-2.256625 
-0.02893391844314691 1:0.34190039 2:-5.7218125 
-0.02890824983073686 1:0.20022656 2:-3.5161875 
-0.008398077660728665 1:0.11033203 2:-0.3363125 
-0.005596471630919421 1:0.31331055 2:-5.447375 
-0.009878535881756401 1:0.35732422 2:-5.45525 
-0.0008557610716858899 1:0.23047852 2:-4.1770625 
-0.03479730344552016 1:0.30873047 2:-4.7131875 
-0.1 1:0.29499023 2:-2.921 
-0.0955854999946911 1:0.32047656 2:-5.663 
-0.0257497487053025 1:0.30483594 2:-5.0721875 
-0.02215644833554174 1:0.13301367 2:-0.365 
-0.004956242829455226 1:0.18412891 2:-3.661625 
-0.1 1:0.2595918 2:-3.181375 
-0.03662967206265443 1:0.2646582 2:-3.4330625 
-0.03508274175701873 1:0.26123828 2:-4.1660625 
-0.01219002143157505 1:0.19823438 2:-3.312625 
-0.1 1:0.37445117 2:-4.3005625 
-0.0234809882788053 1:0.17432422 2:-2.6551875 
-0.1 1:0.43250195 2:-4.395375 
-0.01303417924619867 1:0.33885938 2:-5.4545 
-0.1 1:0.30803125 2:-3.0019375 
-0.05095155235872104 1:0.21031641 2:-3.1408125 
-0.1 1:0.27666992 2:-2.86875 
-0.01817606888696491 1:0.32344922 2:-5.2779375 
-0.06657086232402851 1:0.20280469 2:-1.346875 
-0.02934549141677991 1:0.28625391 2:-5.183375 
-0.002244652476941369 1:0.23359961 2:-3.19325 
-0.1 1:0.30339062 2:-3.2913125 
-0.007872858579662833 1:0.20242773 2:-2.74125 
-0.1 1:0.41063281 2:-3.0335 
-0.03130300466731771 1:0.21239258 2:-2.7041875 
-0.001649400804184156 1:0.13639648 2:-0.3523125 
-0.004335320944442519 1:0.13186523 2:-0.550625 
-0.01529597075159822 1:0.22405859 2:-3.8614375 
-0.1 1:0.31746484 2:-3.2116875 
-0.02414578310229879 1:0.22626367 2:-4.0438125 
-0.04529598452323654 1:0.084816406 2:-1.8560625 
-0.01358294199961521 1:0.14025977 2:-2.854375 
-0.04209594734402179 1:0.15686523 2:-1.1291875 
-0.0206161477659639 1:0.302 2:-6.17125 
-0.01824121339734237 1:0.21265039 2:-3.7266875 
-0.06040533365351552 1:0.089693359 2:-1.929 
-0.1 1:0.41241016 2:-5.256375 
-0.008895466152140062 1:0.11959766 2:-2.1474375 
-0.01489523339841326 1:0.17282227 2:-3.03875 
-0.01180759363050698 1:0.14779688 2:-0.9204375 
-0.1 1:0.25639453 2:-2.3706875 
-0.001510768704817412 1:0.21398438 2:-4.000375 
-0.0108618357739513 1:0.23701172 2:-3.993 
-0.1 1:0.22425781 2:-3.2 
-0.1 1:0.32717578 2:-3.737625 
-0.1 1:0.30999805 2:-3.1918125 
-0.1 1:0.38616211 2:-3.214625 
-0.07367403372720768 1:0.20357617 2:-2.9443125 
-0.003846674412370136 1:0.12610742 2:-0.953125 
-0.07919222374394094 1:0.42748242 2:-5.4629375 
-0.1 1:0.39655859 2:-4.51775 
-0.002031837748847011 1:0.23667187 2:-4.167375 
-0.0006795323381836874 1:0.15209375 2:-0.8670625 
-0.007277488293733288 1:0.28688477 2:-4.852125 
-0.02157375353609848 1:0.33143359 2:-5.4431875 
-0.01863563094639225 1:0.2792832 2:-4.56025 
-0.007026456353751378 1:0.22775977 2:-4.160375 
-0.1 1:0.33252148 2:-2.671125 
-0.08072630177412514 1:0.47303906 2:-4.5331875 
-0.03729405780287862 1:0.27646094 2:-4.252875 
-0.1 1:0.24695898 2:-2.8726875 
-0.01083351275808049 1:0.31336523 2:-3.929875 
-0.1 1:0.40966797 2:-3.993875 
-0.03701894338422972 1:0.27812891 2:-5.2914375 
-0.1 1:0.41975 2:-5.11875 
-0.06354920223661324 1:0.24426367 2:-5.466 
-0.006458617514845108 1:0.22875781 2:-3.6044375 
-0.05018145397329075 1:0.29107422 2:-4.6368125 
-0.0409297787428357 1:0.12721289 2:-1.0301875 
-0.1 1:0.38183594 2:-2.5176875 
-0.002519910947975823 1:0.24223242 2:-4.5849375 
-0.003070310911871488 1:0.16990234 2:-3.0521875 
-0.01850621973698975 1:0.25239648 2:-4.017875 
-0.1 1:0.39603125 2:-4.306 
-0.003321085222862962 1:0.15704297 2:-2.8084375 
-0.04935947223141691 1:0.19187109 2:-2.8835625 
-0.002322483632116312 1:0.19905664 2:-3.7884375 
-0.01810337605306216 1:0.15406055 2:-2.5658125 
-0.02236825507653332 1:0.16041602 2:-1.4425625 
-0.007237932885512206 1:0.30164258 2:-5.5191875 
-0.002213541914696872 1:0.31873438 2:-5.045375 
-0.1 1:0.067253906 2:-1.4940625 
-0.001488479505432782 1:0.17560742 2:-3.198875 
-0.01389794406677886 1:0.11088867 2:-0.5460625 
-0.05256356132138026 1:0.073650391 2:-1.0048125 
-0.1 1:0.33418555 2:-2.956375 
-0.004240057130021755 1:0.27467578 2:-4.279375 
-0.06141172574293557 1:0.27775586 2:-1.43175 
-0.02996283802975865 1:0.35023242 2:-5.6015 
-0.09786811310547135 1:0.30932617 2:-3.8633125 
-0.003251446020097019 1:0.18283984 2:-1.0160625 
-0.005603700216450557 1:0.12187695 2:-0.573875 
-0.1 1:0.25162305 2:-3.468375 
-0.004139011869098477 1:0.20388867 2:-4.0078125 
-0.1 1:0.1970332 2:-1.14525 
-0.005269872967333642 1:0.23957422 2:-3.8883125 
-0.01763004745659916 1:0.36168359 2:-5.30275 
-0.08873593402142024 1:0.34370508 2:-6.6133125 
-0.006048878672561759 1:0.20749805 2:-4.2295 
-0.1 1:0.32547656 2:-3.5169375 
-0.01130074562763451 1:0.28873242 2:-4.8899375 
-0.08554772236626847 1:0.29193555 2:-4.3520625 
-0.01200867408141758 1:0.12996289 2:-2.3450625 
-0.06986306382453193 1:0.12846289 2:-2.95275 
-0.1 1:0.27304883 2:-2.7235625 
-0.06373029269621046 1:0.20575391 2:-4.6519375 
-0.01826477131113402 1:0.31669531 2:-5.9090625 
-0.1 1:0.3757207 2:-4.5140625 
-0.0138569620170139 1:0.27169336 2:-5.148125 
-0.02601864970023124 1:0.16695313 2:-0.54225 
-0.01060740371595213 1:0.14623242 2:-1.0671875 
-0.0700646367603765 1:0.33603906 2:-3.70375 
-0.08051942444011109 1:0.31619727 2:-6.3761875 
-0.1 1:0.32033984 2:-3.4545625 
-0.1 1:0.30881055 2:-3.461625 
-0.005756774257309378 1:0.18050977 2:-2.87525 
-0.1 1:0.3218125 2:-4.0596875 
-0.01500571063163581 1:0.22802539 2:-3.4985 
-0.01423798248859117 1:0.29096289 2:-5.5216875 
-0.1 1:0.35455664 2:-3.95475 
-0.1 1:0.24186328 2:-3.3234375 
-0.1 1:0.48474609 2:-6.674125 
-0.01030820920449452 1:0.32592969 2:-5.55525 
-0.006414549666232089 1:0.25313672 2:-2.7315 
-0.1 1:0.35265234 2:-4.1054375 
-0.04026515947502918 1:0.20376953 2:-0.6386875 
-0.003762972932608572 1:0.17631641 2:-3.155625 
-0.02803302252479683 1:0.31208594 2:-5.566 
-0.006575961303519933 1:0.13388281 2:-0.929875 
-0.1 1:0.30438672 2:-2.5859375 
-0.08075548841932943 1:0.1775332 2:-4.1705625 
-0.07221280030933086 1:0.31855273 2:-4.2399375 
-0.03548051982739072 1:0.21074023 2:-3.88475 
-0.06499633875941223 1:0.21555273 2:-0.8249375 
-0.1 1:0.38444141 2:-4.484 
-0.003922046731688662 1:0.15875781 2:-2.5898125 
-0.1 1:0.23367578 2:-2.1321875 
-0.01151604872834886 1:0.32322461 2:-4.9383125 
-0.01284852218968088 1:0.37524414 2:-5.9794375 
-0.1 1:0.29278125 2:-3.8043125 
-0.009329236811700095 1:0.11573047 2:-0.8244375 
-0.1 1:0.32651172 2:-2.089 
-0.0333413072580826 1:0.1220293 2:-0.50725 
-0.02170293494590663 1:0.089603516 2:-0.2883125 
-0.01652394477921651 1:0.17559766 2:-1.279625 
-0.06706497771156798 1:0.28458594 2:-6.0638125 
-0.002411127927461155 1:0.20157422 2:-3.8138125 
-0.02568937003291746 1:0.18298047 2:-3.544875 
-0.0814023562942536 1:0.16332227 2:-0.216 
-0.001268925458081382 1:0.14504883 2:-2.4418125 
-0.03124987387829027 1:0.2777832 2:-4.090375 
-0.1 1:0.32626953 2:-3.5511875 
-0.1 1:0.32821484 2:-3.377375 
-0.1 1:0.22789648 2:-4.39775 
-0.1 1:0.29119141 2:-3.1743125 
-0.06136634492654062 1:0.35155469 2:-4.9226875 
-0.1 1:0.30962891 2:-2.9985 
-0.03917647158612136 1:0.16740625 2:-2.5234375 
-0.01434665816337409 1:0.15023633 2:-2.348625 
-0.08651462156648218 1:0.27466602 2:-6.4654375 
-0.1 1:0.36500586 2:-4.0619375 
-0.0609261895222612 1:0.090515625 2:-0.3639375 
-0.1 1:0.21820898 2:-2.6646875 
-0.1 1:0.22732031 2:-4.0624375 
-0.1 1:0.26881055 2:-3.0364375 
-0.002125709634025447 1:0.31258008 2:-5.162375 
-0.03649298860273061 1:0.12987891 2:-0.588625 
-0.02892056668051154 1:0.25057227 2:-4.1718125 
-0.01489311442816586 1:0.18796484 2:-3.4426875 
-0.01203458916313889 1:0.12841406 2:-0.606875 
-0.02615787319984374 1:0.15018359 2:-0.1978125 
-0.03043078496570853 1:0.3560332 2:-4.8226875 
-0.1 1:0.24942188 2:-1.6803125 
-0.1 1:0.33792773 2:-3.1846875 
-0.04099907951019162 1:0.12804883 2:-2.8983125 
-0.0305439644498392 1:0.17753906 2:-2.79 
-0.1 1:0.27471484 2:-2.5206875 
-0.1 1:0.31943359 2:-2.8864375 
-0.002053706600269388 1:0.226 2:-4.10375 
-0.1 1:0.36882813 2:-4.353 
-0.02212404117513631 1:0.166 2:-1.25175 
-0.004406462077378183 1:0.20934961 2:-3.377625 
-0.03081155093101591 1:0.34071094 2:-6.2910625 
-0.1 1:0.40943945 2:-2.8265625 
-0.007610165603936726 1:0.21200391 2:-3.2475 
-0.004060178004117921 1:0.31054102 2:-4.9661875 
-0.003774593329782528 1:0.28563477 2:-5.0140625 
-0.0637752642436144 1:0.31990625 2:-4.2178125 
-0.01782779306536281 1:0.19580078 2:-3.2155625 
-0.01955420868468586 1:0.35910352 2:-6.03025 
-0.006567459218791946 1:0.34943555 2:-4.5045 
-0.00535282917885445 1:0.23815625 2:-3.5234375 
-0.1 1:0.38944922 2:-2.8925625 
-0.01701946826953733 1:0.12190039 2:-2.296 
-0.08394793102699423 1:0.46185352 2:-4.74475 
-0.05453068379352573 1:0.47537305 2:-4.7585 
-0.1 1:0.39789844 2:-2.9333125 
-0.1 1:0.33693945 2:-3.259875 
-0.07987605826847727 1:0.20551367 2:-0.3664375 
-0.05908742124332567 1:0.17793555 2:-1.9318125 
-0.08590964986048191 1:0.29567383 2:-3.2821875 
-0.06630096417214942 1:0.34186523 2:-5.8350625 
-0.1 1:0.21675781 2:-2.693 
-0.01459013105413544 1:0.10912695 2:-1.035375 
-0.03918940398906547 1:0.20554492 2:-3.8453125 
-0.03037542074251359 1:0.12066406 2:-0.7008125 
-0.0484364358703618 1:0.25738867 2:-4.4885 
-0.004716711615412572 1:0.25314258 2:-3.9844375 
-0.08680340033799282 1:0.27592773 2:-3.5386875 
-0.06585231246332236 1:0.32640039 2:-3.9146875 
-0.03094161992168889 1:0.23095117 2:-0.7899375 
-0.01471107843137068 1:0.2892832 2:-4.5595 
-0.01936296385688577 1:0.20922266 2:-2.4875625 
-0.09617817652110935 1:0.067634766 2:-1.410875 
-0.02309034795262628 1:0.31595508 2:-5.7154375 
-0.04845377817864077 1:0.18048437 2:-4.2701875 
-0.002994840530555331 1:0.26363281 2:-4.3346875 
-0.1 1:0.18525781 2:-3.2083125 
-0.05665050048156751 1:0.1352793 2:-2.868875 
-0.1 1:0.43398242 2:-2.614875 
-0.0107519397306763 1:0.21485938 2:-0.885625 
-0.01118375394246417 1:0.20870898 2:-4.1036875 
-0.01988976545300992 1:0.099154297 2:-0.773875 
-0.03791583717812611 1:0.34023633 2:-5.672375 
-0.1 1:0.32683008 2:-4.0153125 
-0.01886079407660448 1:0.24305469 2:-4.645625 
-0.004868017685821876 1:0.25044922 2:-4.85525 
-0.01807275781859087 1:0.37833008 2:-5.1865 
-0.002306697269115058 1:0.19192969 2:-3.6740625 
-0.003425767858124347 1:0.3019375 2:-5.195875 
-0.04990145271210717 1:0.3050957 2:-3.9534375 
-0.1 1:0.2490625 2:-3.720875 
-0.1 1:0.31878516 2:-2.9740625 
-0.005830768326658348 1:0.23277148 2:-3.7389375 
-0.0148162649768015 1:0.32304297 2:-5.7953125 
-0.02308660319118129 1:0.34923437 2:-6.008875 
-0.01180830388407201 1:0.19945117 2:-3.270625 
-0.01274787898008134 1:0.25359766 2:-4.1344375 
-0.1 1:0.28401758 2:-3.2515625 
-0.1 1:0.63630273 2:-3.811125 
-0.0114898197342203 1:0.17652344 2:-2.8240625 
-0.008815908447174082 1:0.22111914 2:-4.2523125 
-0.009739555317455378 1:0.12264258 2:-1.255875 
-0.03564815367722272 1:0.30686133 2:-6.5006875 
-0.02339727532586245 1:0.15819336 2:-0.981875 
-0.00475728573143984 1:0.19053711 2:-0.814 
-0.1 1:0.35747656 2:-4.5548125 
-0.1 1:0.24682813 2:-3.020875 
-0.1 1:0.32062891 2:-3.608625 
-0.009061728138336389 1:0.24781445 2:-4.7665625 
-0.08291481646535598 1:0.18941211 2:-4.615375 
-0.04594284464721449 1:0.21675391 2:-1.0773125 
-0.1 1:0.27499609 2:-5.066875 
-0.1 1:0.41253516 2:-4.57525 
-0.02985462876746009 1:0.28174219 2:-4.3183125 
-0.005537681343489782 1:0.17110742 2:-3.0755625 
-0.1 1:0.26848047 2:-2.389375 
-0.03709506367022667 1:0.21882617 2:-0.8991875 
-0.001734975287844028 1:0.35918359 2:-5.1936875 
-0.1 1:0.26035937 2:-1.318125 
-0.04912951669871428 1:0.36196094 2:-4.796 
-0.0022330786422875 1:0.43492188 2:-5.8491875 
-0.01704338375142855 1:0.48122461 2:-4.6288125 
-0.002199764606763395 1:0.31470898 2:-5.022375 
-0.001435494681895349 1:0.34039258 2:-4.108125 
-0.002570039019757331 1:0.13248242 2:-0.472 
-0.07381114551402529 1:0.12785937 2:-3.4310625 
-0.0007619670732624817 1:0.20375781 2:-3.5795625 
-0.1 1:0.27933008 2:-2.861125 
-0.07769722081722313 1:0.4214043 2:-5.82125 
-0.1 1:0.365375 2:-2.8435 
-0.06300001102043613 1:0.30597656 2:-4.17525 
-0.1 1:0.24764258 2:-2.31925 
-0.08569646656526739 1:0.26615234 2:-6.0169375 
-0.04203122012382083 1:0.11232422 2:-2.5880625 
-0.0492096291918012 1:0.19722656 2:-4.386625 
-0.005667791563097661 1:0.20885547 2:-2.3333125 
-0.02677826898416718 1:0.37451172 2:-5.1918125 
-0.01801930927410284 1:0.16117578 2:-0.577 
-0.01667829732749024 1:0.20247656 2:-3.79575 
-0.001694134892854201 1:0.27525195 2:-4.4076875 
-0.09587985385024458 1:0.35423242 2:-3.837 
-0.01426942098312665 1:0.28069141 2:-5.3175625 
-0.04985113052835331 1:0.11933008 2:-1.317 
-0.1 1:0.33487109 2:-3.044875 
-0.1 1:0.37672852 2:-2.83925 
-0.00245388735615837 1:0.24398438 2:-3.719375 
-0.02167968323066726 1:0.33 2:-5.3965625 
-0.1 1:0.35437891 2:-3.67175 
-0.099038183044909 1:0.22709961 2:-3.6794375 
-0.01151186064530744 1:0.3282168 2:-6.19075 
-0.002971028418570777 1:0.14550586 2:-0.4994375 
-0.007605615610069884 1:0.31505469 2:-4.7126875 
-0.07246559830295583 1:0.11079297 2:-1.479125 
-0.005055983178105121 1:0.26061328 2:-5.075375 
-0.02857146436444784 1:0.31777148 2:-5.3259375 
-0.1 1:0.37932617 2:-3.9695 
-0.06367546897472304 1:0.12900781 2:-1.6446875 
-0.01805490269097968 1:0.28167578 2:-4.304125 
-0.01679072423563814 1:0.31408984 2:-5.2239375 
-0.0052241661330807 1:0.3091875 2:-5.107 
-0.1 1:0.18728125 2:-3.3040625 
-0.03007489210786296 1:0.19339844 2:-3.679375 
-0.1 1:0.3456543 2:-3.2239375 
-0.00576902156500867 1:0.17012109 2:-0.9794375 
-0.02760335053943219 1:0.17423047 2:-3.274 
-0.1 1:0.23958398 2:-2.7159375 
-0.01079786353262213 1:0.12841992 2:-0.312625 
-0.05086013745266753 1:0.27832031 2:-3.4939375 
-0.00391908908724172 1:0.28611328 2:-4.2628125 
-0.004539191759430951 1:0.31773438 2:-5.2178125 
-0.00126210523829956 1:0.2986543 2:-4.975125 
-0.02427814108987889 1:0.1366582 2:-0.8914375 
-0.03703958858968476 1:0.19694531 2:-3.9195625 
-0.08421837635237037 1:0.18776562 2:-4.5545625 
-0.07758436333069589 1:0.093222656 2:-0.914125 
-0.003596683213097112 1:0.1644043 2:-0.570625 
-0.1 1:0.18467578 2:-2.040125 
-0.01286557564106618 1:0.16515039 2:-2.889875 
-0.1 1:0.19375391 2:-2.2433125 
-0.02596209908028963 1:0.20520508 2:-3.3331875 
-0.01545877677746866 1:0.22076563 2:-0.85375 
-0.004005992050671825 1:0.15900781 2:-0.5613125 
-0.01865958178213751 1:0.2971875 2:-5.19825 
-0.006432326128727186 1:0.32689258 2:-5.5529375 
-0.1 1:0.36560547 2:-4.0115625 
-0.1 1:0.25330078 2:-2.620125 
-0.1 1:0.33480664 2:-2.5214375 
-0.00429106821022129 1:0.20600586 2:-0.7874375 
-0.06376605749109997 1:0.28741406 2:-6.508375 
-0.01457670396600399 1:0.20067773 2:-3.568125 
-0.01391946899070008 1:0.13987891 2:-0.900375 
-0.0784658300518694 1:0.20337891 2:-3.3363125 
-0.09157908033183482 1:0.26591016 2:-3.618625 
-0.06786846543181185 1:0.39997852 2:-5.778625 
-0.01386006004007247 1:0.1249668 2:-0.989125 
-0.0007475888563919843 1:0.15857227 2:-0.69325 
-0.1 1:0.25077539 2:-1.1349375 
-0.09691773830251764 1:0.29676953 2:-4.008375 
-0.06680926206125883 1:0.30384375 2:-4.66825 
-0.006922553767400367 1:0.19994922 2:-3.4756875 
-0.003023395433671678 1:0.3285918 2:-5.3643125 
-0.004240846944323954 1:0.16164258 2:-0.3683125 
-0.07960319596312565 1:0.18490625 2:-4.305 
-0.09026215130653431 1:0.24325195 2:-0.4575625 
-0.02917662292297155 1:0.1989707 2:-1.7538125 
-0.01969697343920915 1:0.17750586 2:-0.406875 
-0.1 1:0.2531543 2:-3.0548125 
-0.1 1:0.33355664 2:-3.210625 
-0.02051716741158019 1:0.24328906 2:-4.71675 
-0.1 1:0.19689648 2:-1.5423125 
-0.01191435496959682 1:0.16481641 2:-0.7265625 
-0.02205046191122704 1:0.27125781 2:-5.2478125 
-0.09404664986788006 1:0.29886328 2:-4.5400625 
-0.1 1:0.32364258 2:-0.9266875 
-0.1 1:0.34135156 2:-3.9849375 
-0.02715686652178104 1:0.24657422 2:-5.283375 
-0.1 1:0.32971875 2:-3.6864375 
-0.05483932105267404 1:0.231125 2:-0.94875 
-0.1 1:0.30330469 2:-2.7196875 
-0.04939972418786724 1:0.26871289 2:-3.656875 
-0.1 1:0.37650977 2:-3.31375 
-0.008008989584183867 1:0.2322168 2:-4.5760625 
-0.01249143007156732 1:0.1494082 2:-2.75125 
-0.09595327845744431 1:0.32580078 2:-5.342 
-0.004813451515165278 1:0.12882031 2:-0.76225 
-0.1 1:0.15420898 2:-1.619875 
-0.08784897002433031 1:0.138125 2:-3.5304375 
-0.001050271444073547 1:0.26100195 2:-3.587125 
-0.01675545584160615 1:0.25526562 2:-5.0723125 
-0.1 1:0.31178516 2:-2.6841875 
-0.01763781399671318 1:0.1231543 2:-0.2958125 
-0.0122381053964966 1:0.2875332 2:-5.1054375 
-0.06918811577716664 1:0.40245898 2:-4.9370625 
-0.1 1:0.31553516 2:-3.8324375 
-0.05595332694941183 1:0.33538672 2:-3.9215625 
-0.03748361383843465 1:0.1505293 2:-1.2823125 
-0.001270133247499529 1:0.20184766 2:-3.3630625 
-0.0117388427908206 1:0.14473438 2:-2.6431875 
-0.02034324197922333 1:0.11030664 2:-0.315125 
-0.07047675263247269 1:0.41219531 2:-7.08375 
-0.02918344971664315 1:0.31735547 2:-3.8170625 
-0.003281167316690282 1:0.30006445 2:-4.989 
-0.1 1:0.43701758 2:-4.488375 
-0.009656895243282247 1:0.2117207 2:-4.1814375 
-0.1 1:0.26586328 2:-1.8378125 
-0.02517997248008246 1:0.14209961 2:-2.4654375 
-0.01553566238368963 1:0.1712168 2:-3.1375625 
-0.03089576735236713 1:0.27821289 2:-3.98975 
-0.02120086405968939 1:0.31289453 2:-4.549 
-0.01201279992213045 1:0.36457422 2:-5.483875 
-0.008865396235872793 1:0.30238477 2:-4.3874375 
-0.03004591263678745 1:0.36478711 2:-5.8079375 
-0.08134968269910378 1:0.089224609 2:-2.2149375 
-0.02673410827516994 1:0.11805469 2:-2.27 
-0.1 1:0.35457227 2:-3.133 
-0.07905912767308801 1:0.17305469 2:-1.5033125 
-0.04314816525857119 1:0.34374023 2:-5.2498125 
-0.009537158425122004 1:0.29617187 2:-4.460625 
-0.1 1:0.21091211 2:-2.560125 
-0.1 1:0.35983789 2:-4.137 
-0.1 1:0.33836133 2:-3.841 
-0.09388304974634679 1:0.30739453 2:-6.3014375 
-0.009620905557304474 1:0.18165039 2:-2.6295 
-0.1 1:0.40119336 2:-7.3266875 
-0.01700266262832355 1:0.2320293 2:-1.118875 
-0.1 1:0.30963086 2:-2.8083125 
-0.06255917817706649 1:0.29650781 2:-3.8868125 
-0.02645196103116946 1:0.43064648 2:-5.9849375 
-0.006539798957335463 1:0.25285937 2:-4.1435625 
-0.07509498480051897 1:0.076640625 2:-0.559 
-0.0492887239984956 1:0.16310547 2:-2.4914375 
-0.002771302788318719 1:0.24641211 2:-4.2855 
-0.006694211448446169 1:0.31124219 2:-6.1073125 
-0.1 1:0.33401758 2:-3.5395 
-0.01886242620677392 1:0.25145898 2:-4.9026875 
-0.002384395818881915 1:0.26200195 2:-4.2871875 
-0.1 1:0.34435742 2:-4.3355625 
-0.02585159313227134 1:0.17530078 2:-0.9114375 
-0.1 1:0.34258594 2:-4.0031875 
-0.01487772700149394 1:0.28198828 2:-4.9028125 
-0.1 1:0.31787891 2:-2.8479375 
-0.1 1:0.2994707 2:-3.6604375 
-0.003385613216994108 1:0.17070703 2:-2.7125625 
-0.02011245201630166 1:0.18749414 2:-3.6476875 
-0.01564292301827563 1:0.15851562 2:-3.6440625 
-0.01125095367607518 1:0.13006055 2:-2.3679375 
-0.1 1:0.29933008 2:-3.1620625 
-0.1 1:0.31813086 2:-3.305625 
-0.008127104772482846 1:0.16311719 2:-0.6065 
-0.04076232902991507 1:0.18616406 2:-0.32975 
-0.08612721821274215 1:0.096158203 2:-2.4403125 
-0.01109980042171176 1:0.284875 2:-5.496625 
-0.08665593967604139 1:0.22541211 2:-5.2675 
-0.03136265497374421 1:0.17179883 2:-4.12625 
-0.04234008542694431 1:0.24110547 2:-0.6 
-0.01681194529712986 1:0.29039648 2:-5.8028125 
-0.0232609935485561 1:0.23970312 2:-3.829 
-0.05312004525893749 1:0.32619922 2:-5.0000625 
-0.005547869606703856 1:0.22826562 2:-4.2855625 
-0.007746665727150395 1:0.16712305 2:-0.8416875 
-0.005073007389155332 1:0.22866016 2:-3.083125 
-0.008346660936417017 1:0.30116211 2:-5.28175 
-0.00401473792364721 1:0.40561133 2:-5.3205 
-0.03818793734977589 1:0.33728711 2:-5.5165625 
-0.01039619893477822 1:0.41069727 2:-6.33175 
-0.07107267061718903 1:0.26810547 2:-6.101125 
-0.01651236885626993 1:0.37286523 2:-4.83775 
-0.01860703421418999 1:0.32026367 2:-6.1031875 
-0.1 1:0.31239258 2:-3.335375 
-0.1 1:0.41519336 2:-4.189625 
-0.004131295732889753 1:0.13203906 2:-0.3524375 
-0.03677078753504475 1:0.15628906 2:-3.502625 
-0.01152497555011062 1:0.28978516 2:-5.5816875 
-0.06788257703934315 1:0.4300293 2:-5.5360625 
-0.04157539205071208 1:0.24211719 2:-3.517375 
-0.01693910344863735 1:0.33854297 2:-5.295 
-0.05222623071200617 1:0.17107227 2:-1.879375 
-0.08935851207056762 1:0.094105469 2:-1.25525 
-0.1 1:0.35771094 2:-4.2160625 
-0.05496406660433281 1:0.21647656 2:-1.9361875 
-0.007346754116594526 1:0.32134961 2:-4.70525 
-0.1 1:0.30742383 2:-3.268875 
-0.02283687508312362 1:0.35733008 2:-5.43475 
-0.0019266477237481 1:0.14311133 2:-0.8130625 
-0.05613909320126544 1:0.38048438 2:-5.484625 
-0.06016733103520607 1:0.26087305 2:-4.1783125 
-0.1 1:0.42295508 2:-4.58325 
-0.1 1:0.34244141 2:-3.0976875 
-0.003985146052193442 1:0.12355664 2:-0.64775 
-0.02646643380730504 1:0.3662168 2:-5.5426875 
-0.1 1:0.33104102 2:-2.396 
-0.1 1:0.43435742 2:-3.4658125 
-0.00731878477370068 1:0.28879688 2:-4.4715 
-0.006469759980138045 1:0.1440918 2:-0.530375 
-0.06061337114061797 1:0.40545312 2:-6.2274375 
-0.06696405563279267 1:0.47109961 2:-4.566125 
-0.09030093947015624 1:0.16263281 2:-4.21425 
-0.1 1:0.19974219 2:-2.46175 
-0.1 1:0.31439063 2:-1.372 
-0.03276911993667417 1:0.13903711 2:-0.8685625 
-0.07960391891771403 1:0.27653906 2:-3.705375 
-0.01538697776291727 1:0.13503906 2:-2.462875 
-0.02521553471816228 1:0.10168555 2:-0.2433125 
-0.1 1:0.22798828 2:-2.3349375 
-0.01075124341400773 1:0.20545117 2:-3.250625 
-0.1 1:0.30717578 2:-3.554125 
-0.1 1:0.51403125 2:-6.2425 
-0.1 1:0.25332031 2:-3.16875 
-0.01642155982458593 1:0.26589258 2:-4.75925 
-0.01395054270180053 1:0.17083203 2:-4.0699375 
-0.0107804003477769 1:0.36276172 2:-4.9273125 
-0.1 1:0.25099805 2:-3.2134375 
-0.03512717174267133 1:0.16039453 2:-3.9334375 
-0.1 1:0.45595703 2:-5.719625 
-0.02646357373945133 1:0.40899219 2:-5.5123125 
-0.1 1:0.25750977 2:-2.2086875 
-0.01968027754964515 1:0.28595703 2:-5.3775625 
-0.1 1:0.41732812 2:-3.825625 
-0.082194638639578 1:0.22599609 2:-5.2086875 
-0.07626520643826434 1:0.12781641 2:-3.3241875 
-0.004301373276698762 1:0.099441406 2:-2.0795 
-0.001804922331772983 1:0.2487207 2:-5.019875 
-0.1 1:0.2439668 2:-3.3909375 
-0.008410848455498433 1:0.24624609 2:-5.011375 
-0.01730350794556111 1:0.26983984 2:-5.2569375 
-0.002635592339127482 1:0.25924219 2:-5.2435 
-0.06192201688659667 1:0.13867773 2:-2.1584375 
-0.09526407565280112 1:0.40974609 2:-6.5911875 
-0.02841544897414863 1:0.2322793 2:-4.3825625 
-0.1 1:0.14578711 2:-2.0193125 
-0.03364794718590411 1:0.14902148 2:-2.405 
-0.0009861109778931954 1:0.30735742 2:-5.0974375 
-0.1 1:0.31158398 2:-5.0321875 
-0.02482452834372956 1:0.3395625 2:-5.95575 
-0.02792104031129114 1:0.11981641 2:-0.8105625 
-0.06951137804681583 1:0.16586328 2:-4.110875 
-0.006426086268292359 1:0.27689648 2:-4.442125 
-0.006369394276292331 1:0.25514844 2:-3.4875 
-0.01377688272194709 1:0.25223437 2:-3.971 
-0.03526509637622646 1:0.16261914 2:-3.700375 
-0.01059691822887318 1:0.1909707 2:-3.004625 
-0.001223230375697722 1:0.24530469 2:-4.861 
-0.1 1:0.31657031 2:-3.592375 
-0.004581168827436221 1:0.20033008 2:-3.8315 
-0.04832483970439341 1:0.18621875 2:-1.0839375 
-0.005859772779196094 1:0.22725781 2:-4.50175 
-0.07735541895952727 1:0.36413867 2:-6.3994375 
-0.00436525585694433 1:0.28005078 2:-4.63375 
-0.1 1:0.35208398 2:-2.5773125 
-0.03101235787527878 1:0.16342383 2:-1.017125 
-0.1 1:0.33055078 2:-3.4485 
-0.03312073968957269 1:0.20250391 2:-3.0280625 
-0.02211640811945039 1:0.26446094 2:-4.773 
-0.1 1:0.38399023 2:-4.735 
-0.01723879944389164 1:0.21123242 2:-3.571625 
-0.1 1:0.33725781 2:-3.869 
-0.1 1:0.29839258 2:-3.6773125 
-0.007656171966604397 1:0.22514648 2:-3.759375 
-0.1 1:0.24679883 2:-3.1264375 
-0.03358840488357816 1:0.17749023 2:-1.3291875 
-0.08970931948906 1:0.45636133 2:-5.3300625 
-0.05793992690545954 1:0.328875 2:-6.424 
-0.01062064979842389 1:0.14083008 2:-0.521 
-0.08572069575331254 1:0.077960938 2:-0.51175 
-0.06292582703407273 1:0.37238281 2:-5.6673125 
-0.01882787652571139 1:0.19154492 2:-4.0826875 
-0.1 1:0.45973828 2:-3.94875 
-0.1 1:0.34069922 2:-4.6513125 
-0.1 1:0.43663086 2:-4.5245 
-0.04585778992494476 1:0.39713867 2:-5.9639375 
-0.05281845412294006 1:0.23667383 2:-3.7280625 
-0.01741882014551017 1:0.40841602 2:-5.890375 
-0.01557021435890712 1:0.304 2:-4.2009375 
-0.000275033530390799 1:0.19595898 2:-3.7265625 
-0.02690922496174256 1:0.22061328 2:-3.57275 
-0.05345972673465292 1:0.11014844 2:-2.056 
-0.03477719340403921 1:0.37899609 2:-5.7434375 
-0.1 1:0.37324023 2:-3.38975 
-0.01060104837298822 1:0.25545898 2:-3.367125 
-0.06321184616830212 1:0.17836914 2:-2.2420625 
-0.009207237298866322 1:0.19224023 2:-3.7641875 
-0.0008584408870576387 1:0.23842773 2:-4.6815 
-0.006280566585950536 1:0.33034961 2:-5.5365 
-0.0100716712960227 1:0.2695293 2:-5.125 
-0.01127590228158385 1:0.26403125 2:-4.804125 
-0.09881747410035328 1:0.2242832 2:-4.2979375 
-0.004730973403826604 1:0.30283789 2:-5.636875 
-0.0350500254398465 1:0.38264844 2:-5.1065 
-0.05703917034219988 1:0.28653711 2:-3.8649375 
-0.01468857141007025 1:0.1065625 2:-1.722625 
-0.1 1:0.34779297 2:-3.0171875 
-0.03050499771920026 1:0.27653711 2:-3.3175625 
-0.09574833104913466 1:0.24222656 2:-5.4225625 
-0.005362621362357206 1:0.26468555 2:-4.594875 
-0.02782018399058729 1:0.28044922 2:-4.8344375 
-0.008451033551941208 1:0.32357617 2:-5.043375 
-0.1 1:0.44066992 2:-4.3504375 
-0.03809995447867881 1:0.33639062 2:-5.632125 
-0.1 1:0.34861719 2:-3.627625 
-0.01212705526502199 1:0.34718164 2:-5.0629375 
-0.001719656901244615 1:0.15711523 2:-0.3749375 
-0.05570365865734024 1:0.23297852 2:-3.4668125 
-0.009273561432617736 1:0.35218555 2:-4.829875 
-0.1 1:0.41484961 2:-3.875875 
-0.1 1:0.30804102 2:-2.93125 
-0.0339872764283212 1:0.3138457 2:-6.0845625 
-0.01695180121553162 1:0.19591602 2:-0.486625 
-0.006890132061548919 1:0.25571094 2:-4.712625 
-0.02384137540372545 1:0.25346875 2:-4.811125 
-0.03962192736904707 1:0.40289063 2:-5.0608125 
-0.002037123414085824 1:0.15187109 2:-2.5178125 
-0.04093736576436132 1:0.35183594 2:-4.9570625 
-0.009529533690000366 1:0.12201367 2:-2.4213125 
-0.09188611831935098 1:0.35354297 2:-7.0851875 
-0.05972442280778597 1:0.41792383 2:-5.6728125 
-0.1 1:0.42968359 2:-4.415625 
-0.007150531323709093 1:0.31355664 2:-4.3781875 
-0.002951332427526934 1:0.14089453 2:-0.61575 
-0.03971338053029543 1:0.42770703 2:-5.0911875 
-0.01568644379850227 1:0.20391602 2:-4.0611875 
-0.02079605199082604 1:0.16303125 2:-1.1005625 
-0.003202439673241218 1:0.16295312 2:-0.648 
-0.05813927058632029 1:0.17454492 2:-1.0478125 
-0.007196079244663102 1:0.23925195 2:-3.3940625 
-0.002346232080788047 1:0.19501367 2:-2.6203125 
-0.02335011034796806 1:0.23776758 2:-4.4204375 
-0.001697841885251273 1:0.29904102 2:-4.7209375 
-0.008288644637163537 1:0.25332422 2:-3.5625625 
-0.1 1:0.22776367 2:-2.785125 
-0.004131028221656926 1:0.17560156 2:-3.320375 
-0.01187576729208966 1:0.27760547 2:-5.098 
-0.1 1:0.30438281 2:-3.43725 
-0.006572934493279071 1:0.2253418 2:-3.977875 
-0.01646542357073131 1:0.21317188 2:-0.3318125 
-0.002461666982728816 1:0.21693359 2:-4.2391875 
-0.1 1:0.081978516 2:-1.5713125 
-0.09632802350562622 1:0.13232227 2:-1.697 
-0.01664820572215497 1:0.11802539 2:-0.5254375 
-0.01182308645449235 1:0.14896484 2:-0.9749375 
-0.0248640478969077 1:0.1653418 2:-1.166875 
-0.03606270551119847 1:0.20682227 2:-2.31725 
-0.09618674979428807 1:0.39870508 2:-6.2614375 
-0.05457243798178704 1:0.076144531 2:-1.757125 
-0.001271801992957563 1:0.20492383 2:-3.8988125 
-0.04890481882953879 1:0.18915625 2:-2.730375 
-0.005514096753922596 1:0.29744727 2:-5.4004375 
-0.07711032139802829 1:0.11273828 2:-2.7833125 
-0.06324554159068191 1:0.14358984 2:-3.1105 
-0.005404332356037622 1:0.20772852 2:-4.1331875 
-0.08213205393809406 1:0.25813672 2:-5.1858125 
-0.0147041452224111 1:0.20147461 2:-0.6586875 
-0.01182035362072143 1:0.13560352 2:-2.6184375 
-0.001095382788668941 1:0.15307227 2:-0.6921875 
-0.09349680717480838 1:0.24077344 2:-3.8563125 
-0.01586207020465341 1:0.25723633 2:-4.8356875 
-0.04741289370424263 1:0.19324805 2:-1.237 
-0.05961311571461134 1:0.22644727 2:-1.011625 
-0.005540452401053948 1:0.13289453 2:-2.4026875 
-0.1 1:0.3555332 2:-3.0255 
-0.002455552253406101 1:0.16224609 2:-2.8259375 
-0.01693102854854581 1:0.35628711 2:-6.539625 
-0.02678663149901006 1:0.20727734 2:-4.0871875 
-0.1 1:0.28196289 2:-3.4839375 
-0.1 1:0.30011328 2:-3.26075 
-0.1 1:0.23113867 2:-2.8440625 
-0.0135244621635522 1:0.20491992 2:-3.25725 
-0.05347126496553908 1:0.25475977 2:-3.0795 
-0.07056864621163447 1:0.4497168 2:-4.510125 
-0.1 1:0.29958203 2:-3.055375 
-0.00167877098760183 1:0.32995703 2:-5.0885625 
-0.06845755907744031 1:0.40051758 2:-6.0948125 
-0.03760049997807605 1:0.1652832 2:-0.774875 
-0.1 1:0.36771484 2:-4.042875 
-0.007571449732901081 1:0.16874414 2:-0.8499375 
-0.02671725245230301 1:0.11346094 2:-0.9969375 
-0.001135163019625649 1:0.25239062 2:-3.4129375 
-0.007795684613580784 1:0.29853516 2:-5.612 
-0.0004202463821663626 1:0.19722461 2:-3.7011875 
-0.1 1:0.28443359 2:-2.0958125 
-0.1 1:0.34270508 2:-2.6396875 
-0.0103305052820894 1:0.19740234 2:-4.139 
-0.08117819513359112 1:0.2912832 2:-3.3300625 
-0.02935699796965496 1:0.35357227 2:-5.38325 
-0.02729642820736945 1:0.31123828 2:-5.179625 
-0.009640079506187796 1:0.16690234 2:-0.4658125 
-0.01090552290256428 1:0.28879492 2:-3.6378125 
-0.1 1:0.21010352 2:-2.54275 
-0.01448240282482636 1:0.15826172 2:-0.267 
-0.001122504804500813 1:0.31284375 2:-5.4084375 
-0.00801089730679376 1:0.32538672 2:-5.82175 
-0.01703681636486757 1:0.23871094 2:-3.58175 
-0.04268295891540755 1:0.18053125 2:-4.25075 
-0.04783101365063221 1:0.32654492 2:-4.898875 
-0.01262396570266183 1:0.17573242 2:-3.1003125 
-0.1 1:0.37425977 2:-6.9378125 
-0.1 1:0.2579707 2:-2.818 
-0.1 1:0.29421289 2:-4.131125 
-0.001706610288482513 1:0.2777793 2:-5.2920625 
-0.01914994404842246 1:0.11208398 2:-2.1299375 
-0.1 1:0.31269922 2:-4.47825 
-0.006315059579249045 1:0.20382617 2:-3.0071875 
-0.1 1:0.37638086 2:-6.194875 
-0.003082177771561688 1:0.20908984 2:-3.960375 
-0.009550214685715666 1:0.2059375 2:-3.43675 
-0.1 1:0.29116406 2:-4.66075 
-0.01760610876190043 1:0.23818945 2:-4.0943125 
-0.0217852377737847 1:0.25590625 2:-4.9785625 
-0.001668859234360959 1:0.22213477 2:-4.2635625 
-0.08755134928064566 1:0.29339648 2:-3.8018125 
-0.01079761060318573 1:0.25022266 2:-4.73425 
-0.0231023112514927 1:0.31907031 2:-6.0515625 
-0.008864731019938519 1:0.27573242 2:-5.548875 
-0.06648756879509729 1:0.26014062 2:-5.9321875 
-0.02552442422588179 1:0.16263477 2:-0.3573125 
-0.001899984652713157 1:0.28038086 2:-4.51125 
-0.0007045223985365778 1:0.1082207 2:-2.2316875 
-0.01825820802419271 1:0.16288086 2:-2.8126875 
-0.04321992165222095 1:0.16942969 2:-3.3154375 
-0.01740996829733669 1:0.27845508 2:-4.615 
-0.005593623789509247 1:0.1064707 2:-1.0458125 
-0.08815326986823492 1:0.1772793 2:-0.761 
-0.05546040193992945 1:0.22722266 2:-2.2946875 
-0.007927856227848992 1:0.25708008 2:-4.588 
-0.02130222224572565 1:0.37282422 2:-4.1736875 
-0.01122800839191613 1:0.29062305 2:-5.0640625 
-0.01773532275698664 1:0.36448047 2:-5.8969375 
-0.001679776952364668 1:0.241125 2:-4.6085 
-0.02103142954488094 1:0.082208984 2:-0.7716875 
-0.02566142053054385 1:0.25096484 2:-4.1090625 
-0.1 1:0.34807617 2:-3.3745 
-0.009639101596467532 1:0.16685937 2:-0.8211875 
-0.0007134492740602062 1:0.19158008 2:-3.4986875 
-0.02236757883549338 1:0.28833789 2:-5.0376875 
-0.07567950455350572 1:0.16737891 2:-4.012875 
-0.001735109563326767 1:0.15877148 2:-2.7178125 
-0.08401292366058562 1:0.18567578 2:-3.196375 
-0.1 1:0.26974414 2:-2.4686875 
-0.1 1:0.46342969 2:-3.82325 
-0.1 1:0.18537305 2:-2.150125 
-0.08933309888819688 1:0.48939844 2:-4.644625 
-0.1 1:0.23009766 2:-1.691 
-0.02692777562705287 1:0.22749609 2:-2.9654375 
-0.04413593745143338 1:0.22933008 2:-1.4585 
-0.1 1:0.34248828 2:-3.007375 
-0.1 1:0.40465039 2:-3.5784375 
-0.07389831603012313 1:0.11708789 2:-2.7410625 
-0.04710963401966204 1:0.14796484 2:-3.1890625 
-0.002303861167278002 1:0.28325391 2:-5.2513125 
-0.02460494416947486 1:0.30524609 2:-3.7535625 
-0.08978333579573303 1:0.44936328 2:-4.8013125 
-0.1 1:0.4166543 2:-6.32025 
-0.02105063030506483 1:0.26019922 2:-3.834125 
-0.08404028786190829 1:0.098136719 2:-1.4321875 
-0.02225661142381472 1:0.13685547 2:-1.0016875 
-0.01470097260084134 1:0.22574219 2:-3.81975 
-0.07094632206597361 1:0.16221484 2:-3.8394375 
-0.1 1:0.26091406 2:-2.994125 
-0.1 1:0.29560156 2:-2.88125 
-0.1 1:0.26745508 2:-3.3273125 
-0.02339495959431043 1:0.38610742 2:-6.1371875 
-0.002784937108867106 1:0.25419531 2:-4.5434375 
-0.01534203218053474 1:0.23485742 2:-4.6140625 
-0.0772123282824935 1:0.32701953 2:-4.8238125 
-0.003703141660914533 1:0.22725195 2:-4.150375 
-0.001231171904862138 1:0.17355273 2:-3.04975 
-0.07335172062812902 1:0.35208008 2:-4.6825 
-0.06845107828245459 1:0.31308203 2:-6.5335625 
-0.07308393795863431 1:0.23345117 2:-1.063375 
-0.01931112006568378 1:0.12050391 2:-0.5638125 
-0.01072943156850436 1:0.1463125 2:-0.5529375 
-0.009768484483515997 1:0.17123437 2:-3.3623125 
-0.01453197912939828 1:0.27764062 2:-4.09275 
-0.06163837930681389 1:0.33393945 2:-5.0185 
-0.04987357823818074 1:0.23387695 2:-4.2503125 
-0.005212982939404674 1:0.27167383 2:-5.0855 
-0.02339021506772872 1:0.26445117 2:-4.8659375 
-0.007564355293554526 1:0.2016543 2:-3.640125 
-0.02862582841956324 1:0.17372852 2:-0.3841875 
-0.06426455130764286 1:0.28295508 2:-0.9159375 
-0.05618207421690237 1:0.32768164 2:-3.8809375 
-0.02983991493175817 1:0.32179492 2:-4.5561875 
-0.05949654188484158 1:0.083269531 2:-1.9089375 
-0.01704145194509248 1:0.2424082 2:-4.52975 
-0.01423458060318558 1:0.29109961 2:-4.8304375 
-0.00167391405441321 1:0.26083203 2:-4.1255 
-0.1 1:0.24357227 2:-2.9170625 
-0.01923170997101542 1:0.20823437 2:-3.4113125 
-0.1 1:0.45806641 2:-2.8064375 
-0.05414031307574899 1:0.32199414 2:-3.3899375 
-0.08053667684218713 1:0.15964258 2:-4.055 
-0.01693943942975449 1:0.19802344 2:-3.217 
-0.01921348586535046 1:0.13918359 2:-0.2368125 
-0.01227553413936047 1:0.13743359 2:-0.297875 
-0.01251408101844931 1:0.28095313 2:-3.7199375 
-0.00786186649694314 1:0.12463281 2:-2.6011875 
-0.1 1:0.23986133 2:-2.677 
-0.01557330774808863 1:0.35932617 2:-6.08425 
-0.1 1:0.32936133 2:-2.6848125 
-0.006925604576269015 1:0.23742969 2:-4.69325 
-0.0811143192805044 1:0.13451953 2:-3.1604375 
-0.004775983590582457 1:0.23406836 2:-3.316875 
-0.06037349730540637 1:0.087019531 2:-2.105 
-0.02272535633403615 1:0.14883398 2:-2.7278125 
-0.03728218688016431 1:0.26988281 2:-3.781125 
-0.005685919837694135 1:0.13455859 2:-0.41975 
-0.05703837435650448 1:0.27809375 2:-4.651125 
-0.1 1:0.54072852 2:-4.29325 
-0.05075536628484336 1:0.21932617 2:-4.9929375 
-0.06749427520583955 1:0.26740625 2:-0.86625 
-0.09141975533134353 1:0.14812891 2:-1.9295625 
-0.03981548367445969 1:0.17061133 2:-0.6801875 
-0.0364282814873659 1:0.17454883 2:-3.9793125 
-0.1 1:0.19116602 2:-1.706625 
-0.09779532629474828 1:0.23971289 2:-2.3139375 
-0.05679511637929331 1:0.18386523 2:-2.3635 
-0.1 1:0.3217832 2:-2.419625 
-0.02133479213777592 1:0.30285156 2:-5.0973125 
-0.1 1:0.27892383 2:-4.925875 
-0.04866860941816996 1:0.12221289 2:-1.896 
-0.07581174133682667 1:0.41233789 2:-5.5705 
-0.002660445600733668 1:0.33074023 2:-4.362625 
-0.0498796827314723 1:0.26600391 2:-5.95225 
-0.1 1:0.19230078 2:-1.6540625 
-0.06316564449316575 1:0.23630273 2:-1.0464375 
-0.02908476714560629 1:0.3109375 2:-4.4159375 
-0.05037151779239527 1:0.099912109 2:-0.2281875 
-0.00265898969793918 1:0.15241797 2:-2.6614375 
-0.02444512914594021 1:0.23905859 2:-4.34175 
-0.06949221175043598 1:0.24054883 2:-3.2778125 
-0.0216828776627888 1:0.33367383 2:-4.751375 
-0.0642963985307132 1:0.22355273 2:-2.8776875 
-0.001285810487804063 1:0.28000586 2:-5.0475 
-0.01103902883535278 1:0.17710352 2:-0.5270625 
-0.04695490313522704 1:0.21106641 2:-1.4304375 
-0.009041174357957081 1:0.15450781 2:-0.4694375 
-0.03575480991261362 1:0.23658008 2:-4.75075 
-0.1 1:0.33349023 2:-5.87225 
-0.1 1:0.55966797 2:-2.449125 
-0.01220102628385914 1:0.31324609 2:-4.533875 
-0.07433660242306392 1:0.20406445 2:-1.2705625 
-0.1 1:0.24349805 2:-2.2509375 
-0.02208463510203998 1:0.20068359 2:-0.5784375 
-0.03664401695993828 1:0.1593418 2:-2.700125 
-0.0005363673658144164 1:0.26664453 2:-5.2673125 
-0.04100702258139564 1:0.34758984 2:-4.6420625 
-0.002777127488008698 1:0.20078516 2:-3.2855 
-0.07089064172115203 1:0.17062695 2:-1.560375 
-0.1 1:0.33624023 2:-6.860125 
-0.1 1:0.36108594 2:-3.895375 
-0.1 1:0.24112305 2:-2.88025 
-0.1 1:0.43722656 2:-4.279375 
-0.003367761012596138 1:0.28523633 2:-5.0523125 
-0.0827049148242357 1:0.24887109 2:-0.7735625 
-0.01510092313068147 1:0.3164668 2:-4.8870625 
-0.000806701604501608 1:0.23275 2:-3.6356875 
-0.03717715338539085 1:0.20885156 2:-2.680375 
-0.1 1:0.22783594 2:-4.2703125 
-0.01965796390203 1:0.19226758 2:-0.76975 
-0.03303021200264494 1:0.18491797 2:-1.406 
-0.06652202927594847 1:0.30098828 2:-6.4419375 
-0.1 1:0.44541211 2:-6.16325 
-0.003105058885070448 1:0.23999219 2:-3.8719375 
-0.01154214792957486 1:0.30964844 2:-4.2974375 
-0.03395423341891272 1:0.35349219 2:-6.191 
-0.01360035817513869 1:0.24987891 2:-4.8996875 
-0.003706566502220541 1:0.24149023 2:-4.4803125 
-0.05145570274487025 1:0.23530273 2:-1.1014375 
-0.01053227184969554 1:0.34628711 2:-5.7885625 
-0.08669166636301831 1:0.35224805 2:-6.4756875 
-0.06115605488165057 1:0.24281641 2:-5.575625 
-0.02793174049768118 1:0.091326172 2:-2.0931875 
-0.01353541729201214 1:0.38183594 2:-4.813125 
-0.04685026283466574 1:0.087923828 2:-1.8408125 
-0.07864255610790549 1:0.21121289 2:-0.41525 
-0.08661172780768603 1:0.22480859 2:-2.255625 
-0.01407210882633343 1:0.31042773 2:-4.4314375 
-0.02220781895494544 1:0.34674805 2:-4.9859375 
-0.02316778511357269 1:0.23125195 2:-4.1251875 
-0.02744565617124716 1:0.29649805 2:-4.5945 
-0.03679088664243881 1:0.28834766 2:-5.5510625 
-0.02279950186173816 1:0.13848047 2:-2.4273125 
-0.006737212453525345 1:0.22859766 2:-4.4310625 
-0.1 1:0.305625 2:-5.8485 
-0.01491540057504087 1:0.22701367 2:-3.6714375 
-0.02022839674115204 1:0.21728125 2:-3.6040625 
-0.05413771424677127 1:0.13053516 2:-1.8559375 
-0.004895147666558171 1:0.33233008 2:-5.5936875 
-0.05262590698315182 1:0.38578516 2:-5.4433125 
-0.1 1:0.24032227 2:-2.5743125 
-0.1 1:0.24443555 2:-3.5398125 
-0.004938659464266316 1:0.21072852 2:-3.4869375 
-0.1 1:0.38985742 2:-2.2789375 
-0.01458337854824381 1:0.17928516 2:-2.8095 
-0.01800333346852279 1:0.39990039 2:-5.5281875 
-0.1 1:0.22610742 2:-1.3413125 
-0.07278975189135325 1:0.15191211 2:-2.062875 
-0.00945392449561574 1:0.20559375 2:-0.657125 
-0.04972708354250752 1:0.17389258 2:-3.409 
-0.1 1:0.37358398 2:-1.4289375 
-0.003157168861655838 1:0.31775977 2:-6.0183125 
-0.07172063129075495 1:0.20781641 2:-1.73425 
-0.08463022599019963 1:0.10053125 2:-1.1860625 
-0.1 1:0.25745312 2:-3.471875 
-0.05388700576641762 1:0.1322207 2:-0.179 
-0.1 1:0.4075293 2:-3.602375 
-0.1 1:0.31791016 2:-3.7708125 
-0.005052391937898614 1:0.23757422 2:-3.913375 
-0.1 1:0.24561719 2:-2.2079375 
-0.006575192562459681 1:0.26198242 2:-4.4570625 
-0.1 1:0.33440625 2:-3.9676875 
-0.005871421411207571 1:0.16033008 2:-0.694875 
-0.0910039431390019 1:0.38236328 2:-5.1270625 
-0.008468760332032251 1:0.23095508 2:-3.7495625 
-0.009302944031093694 1:0.20431445 2:-3.215375 
-0.01321397649114895 1:0.19804102 2:-3.9090625 
-0.0232188670820034 1:0.20570898 2:-3.3461875 
-0.009081940760723946 1:0.1760957 2:-3.3080625 
-0.008001520709202237 1:0.26783984 2:-4.52525 
-0.1 1:0.33197852 2:-4.3599375 
