svm_type c_svc
kernel_type polynomial
degree 2
gamma 1
coef0 2
nr_class 2
total_sv 5
rho 1.6665
label 1 -1
nr_sv 3 2
SV
0.533250626258244 1:-1 2:0 
0.0329963769942641 1:0 2:2 
0.3669619512516624 1:0 2:-2 
-0.132638902994687 1:0 2:1 
-0.8005700515094837 1:0 2:-1 
