svm_type epsilon_svr
kernel_type rbf
gamma 32
nr_class 2
total_sv 400
rho -0.1
SV
0.3994140625 1:4.115 2:5.02 3:-7.879 4:-11.78 5:2.004 6:-0.353 7:-0.735 8:3.561 9:2.441 10:-9.822 
0.3994140625 1:-3.557 2:0.997 3:2.932 4:7.672 5:5.43 6:-0.137 7:1.635 8:-5.19 9:-0.394 10:-7.667 
0.3994140625 1:6.417 2:5.878 3:5.066 4:-7.209 5:-6.953 6:7.639 7:-2.937 8:-1.023 9:3.963 10:-11.069 
0.3994140625 1:-2.247 2:6.532 3:6.437 4:2.293 5:6.302 6:2.187 7:3.429 8:-3.453 9:9.172 10:-4.548 
0.3994140625 1:3.708 2:5.834 3:3.676 4:-4.403 5:-5.296 6:9.08 7:-3.11 8:-3.294 9:3.189 10:-8.51 
-0.6005859375 1:-1.586 2:1.96 3:-5.506 4:-8.767 5:7.871 6:0.613 7:-4.693 8:4.302 9:-1.219 10:-8.478 
0.3994140625 1:-4.181 2:-6.797 3:-4.187 4:8.622 5:0.771 6:5.851 7:-3.893 8:3.779 9:4.47 10:-9.433 
0.3994140625 1:-5.589 2:-7.01 3:-5.297 4:7.329 5:1.872 6:3.953 7:-3.425 8:3.097 9:1.677 10:-11.32 
-0.6005859375 1:8.124 2:4.813 3:3.519 4:-7.539 5:-4.723 6:8.129 7:-5.165 8:-3.411 9:3.552 10:-9.192 
-0.6005859375 1:-7.536 2:-0.448 3:-10.633 4:3.777 5:0.728 6:-1.386 7:-7.756 8:8.166 9:-2.979 10:0.629 
-0.6005859375 1:2.963 2:3.801 3:0.763 4:4.595 5:-4.334 6:-4.267 7:-0.809 8:-5.677 9:6.073 10:6.625 
0.3994140625 1:2.009 2:4.874 3:-0.2 4:3.469 5:-6.495 6:-5.364 7:-1.56 8:-7.233 9:6.703 10:8.024 
-0.6005859375 1:1.117 2:-4.978 3:4.81 4:0.904 5:-0.16 6:1.036 7:-4.53 8:-0.242 9:-9.777 10:-7.043 
0.3994140625 1:2.5 2:-5.283 3:2.861 4:2.062 5:-1.05 6:-1.513 7:-3.469 8:-0.396 9:-9.007 10:-6.55 
0.3994140625 1:4.308 2:5.177 3:-7.454 4:-8.63 5:0.831 6:1.02 7:2.347 8:4.464 9:3.176 10:-6.249 
0.3994140625 1:2.139 2:5.88 3:0.415 4:2.731 5:-7.112 6:-9.191 7:-2.697 8:-8.236 9:6.473 10:5.862 
0.3994140625 1:1.32 2:-5.006 3:4.664 4:2.597 5:-0.844 6:-3.269 7:-4.123 8:-1.583 9:-8.507 10:-6.115 
0.3994140625 1:0.9 2:-4.961 3:5.714 4:3.565 5:-0.242 6:0.251 7:-5.14 8:-1.287 9:-8.431 10:-6.103 
0.3994140625 1:-8.505 2:-1.866 3:0.366 4:3.879 5:-8.945 6:-8.063 7:-0.133 8:7.214 9:4.57 10:-1.74 
0.3994140625 1:-3.385 2:-1.143 3:-5.207 4:-6.163 5:9.599 6:-1.535 7:-6.582 8:2.827 9:-0.883 10:-6.998 
0.3994140625 1:-9.586 2:-0.54 3:-9.988 4:2.891 5:0.859 6:-2.123 7:-6.347 8:8.064 9:-3.331 10:-3.336 
0.3994140625 1:-8.433 2:-1.523 3:-3.372 4:3.808 5:-6.863 6:-5.143 7:1.558 8:7.131 9:5.446 10:-1.187 
0.3994140625 1:4.298 2:3.835 3:-8.633 4:-9.632 5:3.692 6:-0.16 7:-0.957 8:3.33 9:4.571 10:-6.648 
0.3994140625 1:-1.017 2:5.133 3:11.423 4:0.284 5:6.29 6:0.421 7:5.239 8:-3.398 9:9.082 10:-1.691 
0.3994140625 1:-10.169 2:-2.113 3:-2.671 4:5.976 5:-6.393 6:-4.706 7:1.48 8:6.266 9:4.243 10:-0.733 
-0.6005859375 1:5.881 2:4.734 3:4.417 4:-4.664 5:-4.853 6:11.036 7:-3.709 8:-3.193 9:2.504 10:-9.894 
0.3994140625 1:-3.249 2:-0.915 3:-6.549 4:-5.577 5:10.211 6:-0.041 7:-3.965 8:5.207 9:-0.911 10:-7.836 
0.3994140625 1:5.191 2:6.167 3:-7.047 4:-9.895 5:0.665 6:0.546 7:1.352 8:5.773 9:-0.029 10:-5.556 
0.3994140625 1:-2.959 2:-9.453 3:-6.481 4:8.026 5:-0.529 6:4.413 7:-5.293 8:3.165 9:2.229 10:-11.325 
0.3994140625 1:3.626 2:6.115 3:1.207 4:4.291 5:-6.699 6:-7.621 7:-1.535 8:-7.21 9:4.938 10:5.219 
-0.6005859375 1:-4.65 2:0.542 3:2.459 4:7.701 5:5.423 6:0.505 7:1.665 8:-8.834 9:-0.976 10:-7.722 
-0.6005859375 1:-3.955 2:2.397 3:0.266 4:9.077 5:3.636 6:-1.677 7:1.649 8:-6.768 9:-2.33 10:-8.549 
0.3994140625 1:-8.819 2:-1.605 3:-4.14 4:4.988 5:-6.863 6:-3.568 7:0.397 8:4.664 9:5.731 10:-2.408 
-0.6005859375 1:4.916 2:6.91 3:-8.017 4:-9.443 5:1.8 6:0.296 7:0.339 8:4.603 9:1.225 10:-4.997 
0.3994140625 1:-10.791 2:0.246 3:-10.659 4:4.901 5:1.168 6:-1.746 7:-5.982 8:8.414 9:-3.182 10:-0.838 
-0.6005859375 1:-7.895 2:0.639 3:-10.262 4:2.478 5:-0.674 6:-3.111 7:-6.627 8:8.107 9:-4.353 10:-1.397 
-0.6005859375 1:-0.77 2:5.931 3:7.932 4:1.505 5:7.155 6:-0.092 7:7.127 8:-2.159 9:10.771 10:-3.074 
0.3994140625 1:-5.626 2:2.599 3:0.068 4:8.718 5:4.228 6:-0.674 7:1.307 8:-7.047 9:-1.415 10:-9.168 
-0.6005859375 1:0.891 2:-5.484 3:6.637 4:2.72 5:-1.019 6:-3.543 7:-3.921 8:-0.897 9:-9.728 10:-4.806 
0.3994140625 1:8.535 2:6.167 3:3.994 4:-5.313 5:-5.637 6:9.061 7:-2.521 8:-2.764 9:2.235 10:-12.641 
0.3994140625 1:4.28 2:5.218 3:3.566 4:-5.915 5:-4.272 6:8.28 7:-3.916 8:-3.052 9:3.816 10:-8.616 
-0.6005859375 1:-4.759 2:2.619 3:-1.06 4:7.965 5:5.833 6:-4.019 7:1.57 8:-7.312 9:-0.249 10:-7.866 
-0.6005859375 1:3.132 2:6.571 3:1.362 4:1.703 5:-6.748 6:-7.654 7:-1.628 8:-6.511 9:4.822 10:6.55 
-0.6005859375 1:6.782 2:6.938 3:5.336 4:-4.787 5:-4.603 6:7.569 7:-4.233 8:-0.615 9:3.159 10:-10.304 
-0.6005859375 1:-0.583 2:6.9 3:7.912 4:3.73 5:7.027 6:1.934 7:5.372 8:-3.433 9:10.812 10:-2.2 
-0.6005859375 1:4.84 2:7.431 3:-7.744 4:-9.574 5:0.965 6:0.24 7:0.591 8:4.692 9:3.116 10:-6.623 
-0.6005859375 1:-4.42 2:1.819 3:2.501 4:8.22 5:4.367 6:-2.095 7:0.769 8:-7.181 9:-0.567 10:-6.66 
0.3994140625 1:-0.795 2:-1.118 3:-7.311 4:-5.878 5:8.168 6:0.979 7:-3.316 8:4.087 9:-0.988 10:-8.003 
-0.6005859375 1:5.659 2:4.14 3:-6.471 4:-10.457 5:1.824 6:-0.334 7:0.099 8:2.734 9:1.224 10:-6.261 
0.3994140625 1:7.974 2:5.18 3:4.776 4:-7.408 5:-5.707 6:7.341 7:-5.293 8:-1.798 9:3.771 10:-8.3 
0.3994140625 1:-2.679 2:0.729 3:-4.449 4:-5.961 5:8.414 6:1.169 7:-5.426 8:4.117 9:-1.174 10:-7.767 
0.3994140625 1:-0.427 2:5.178 3:9.514 4:0.148 5:6.685 6:0.719 7:4.482 8:-2.98 9:8.438 10:-3.062 
0.3994140625 1:-1.967 2:-0.026 3:-6.229 4:-5.985 5:9.445 6:1.692 7:-3.345 8:3.132 9:-1.094 10:-8.401 
0.3994140625 1:3.131 2:-5.369 3:2.64 4:2.675 5:-0.893 6:-2.043 7:-3.904 8:-0.563 9:-10.155 10:-5.159 
-0.6005859375 1:2.332 2:5.231 3:1.006 4:3.158 5:-6.437 6:-7.038 7:0.362 8:-6.965 9:4.354 10:8.201 
-0.6005859375 1:-7.347 2:-1.18 3:-10.294 4:5.292 5:1.245 6:-2.057 7:-6.797 8:8.518 9:-0.452 10:0.238 
0.3994140625 1:-3.133 2:-8.588 3:-3.362 4:8.571 5:0.257 6:4.284 7:-4.388 8:4.049 9:0.243 10:-10.081 
0.3994140625 1:-8.778 2:-1.45 3:-9.743 4:6.791 5:2.364 6:-1.851 7:-5.703 8:7.911 9:-4.481 10:-0.18 
-0.6005859375 1:-9.865 2:-0.119 3:-7.887 4:4.48 5:3.787 6:-2.222 7:-6.296 8:7.716 9:-4.788 10:1.71 
0.3994140625 1:-1.084 2:5.909 3:8.7 4:1.866 5:6.083 6:0.312 7:4.922 8:-2.853 9:9.602 10:-2.491 
0.3994140625 1:-0.652 2:6.175 3:8.262 4:3.616 5:7.318 6:0.034 7:6.869 8:-3.246 9:8.962 10:-3.962 
0.3994140625 1:-9.141 2:-2.324 3:-1.272 4:6.891 5:-7.169 6:-5.01 7:1.881 8:5.505 9:5.182 10:-1.413 
0.3994140625 1:3.826 2:6.812 3:-7.423 4:-9.002 5:5.015 6:1.454 7:0.677 8:4.932 9:-0.557 10:-7.331 
-0.6005859375 1:2.853 2:-6.336 3:6.125 4:4.319 5:-0.066 6:-2.087 7:-3.725 8:-1.454 9:-9.157 10:-5.885 
0.3994140625 1:5.411 2:5.431 3:-6.787 4:-9.601 5:2.823 6:-0.167 7:0.352 8:5.524 9:1.936 10:-7.719 
0.3994140625 1:7.854 2:5.357 3:-6.846 4:-9.678 5:4.764 6:-0.284 7:0.754 8:3.434 9:3.365 10:-6.61 
-0.6005859375 1:6.532 2:5.439 3:-6.322 4:-9.672 5:2.431 6:-0.004 7:0.321 8:3.74 9:2.993 10:-6.737 
0.3994140625 1:-4.732 2:-6.321 3:-4.68 4:8.078 5:-0.217 6:2.704 7:-4.915 8:2.855 9:1.712 10:-9.608 
-0.6005859375 1:0.064 2:5.604 3:6.813 4:1.402 5:5.402 6:0.742 7:4.31 8:-2.1 9:10.459 10:-2.29 
0.3994140625 1:-8.589 2:-1.728 3:-2.947 4:5.245 5:-7.021 6:-3.864 7:-1.232 8:6.449 9:5.548 10:-0.65 
0.3994140625 1:6.578 2:4.353 3:-7.62 4:-9.929 5:4.814 6:0.504 7:0.98 8:4.633 9:1.697 10:-5.866 
-0.6005859375 1:1.573 2:4.288 3:-0.448 4:-0.42 5:-6.488 6:-3.77 7:-3.418 8:-4.929 9:6.407 10:5.994 
-0.6005859375 1:-4.954 2:1.338 3:0.702 4:8.589 5:5.902 6:0.026 7:1.801 8:-6.844 9:-1.33 10:-8.314 
0.3994140625 1:-2.014 2:5.196 3:9.231 4:-0.425 5:6.895 6:-1.635 7:6.785 8:-2.817 9:10.101 10:-0.401 
0.3994140625 1:-0.01 2:-4.977 3:4.682 4:3.681 5:1.037 6:-1.826 7:-3.418 8:-1.74 9:-8.81 10:-6.386 
0.3994140625 1:-8.138 2:-0.487 3:-9.604 4:3.637 5:0.569 6:-1.899 7:-5.892 8:8.035 9:-3.46 10:-0.107 
0.3994140625 1:5.045 2:6.222 3:-7.199 4:-9.585 5:3.124 6:0.082 7:0.817 8:3.374 9:1.952 10:-6.567 
-0.6005859375 1:-4.948 2:0.852 3:0.183 4:8.077 5:4.751 6:0.701 7:2.38 8:-6.599 9:1.134 10:-9.094 
0.3994140625 1:-8.74 2:-0.32 3:-2.992 4:4.478 5:-6.718 6:-5.079 7:2.312 8:7.159 9:4.796 10:-2.332 
0.3994140625 1:2.682 2:7.61 3:-7.683 4:-10.276 5:3.099 6:-1.305 7:1.073 8:4.17 9:0.236 10:-7.14 
0.400390625 1:3.917 2:3.505 3:0.877 4:5.224 5:-6.773 6:-3.14 7:-1.477 8:-5.889 9:6.423 10:7.597 
0.400390625 1:-8.157 2:-1.596 3:-4.363 4:6.037 5:-7.769 6:-6.663 7:0.969 8:7.091 9:3.8 10:-1.25 
0.400390625 1:-9.408 2:-1.456 3:-2.715 4:5.103 5:-9.686 6:-6.715 7:0.728 8:7.079 9:4.798 10:0.251 
-0.6005859375 1:-3.641 2:-7.252 3:-3.941 4:7.945 5:2.431 6:4.446 7:-3.981 8:3.368 9:2.845 10:-9.809 
0.400390625 1:4.812 2:2.337 3:-0.376 4:2.483 5:-7.404 6:-5.82 7:-0.191 8:-6.761 9:5.57 10:5.013 
-0.6005859375 1:-5.5 2:3.374 3:1.294 4:7.357 5:5.001 6:-1.921 7:0.99 8:-7.808 9:-1.066 10:-10.102 
-0.6005859375 1:2.575 2:2.171 3:2.455 4:5.891 5:-7.37 6:-7.409 7:-0.026 8:-7.493 9:7.37 10:6.98 
0.400390625 1:-2.153 2:0.232 3:-7.624 4:-5.311 5:7.312 6:-0.809 7:-5.16 8:4.234 9:1.726 10:-6.618 
0.400390625 1:6.913 2:4.938 3:4.72 4:-5.212 5:-4.812 6:8.178 7:-3.251 8:-2.13 9:2.856 10:-8.222 
-0.6005859375 1:-0.411 2:-4.961 3:6.381 4:1.425 5:0.344 6:-1.397 7:-2.604 8:-0.851 9:-9.382 10:-6.602 
0.400390625 1:-2.061 2:-0.285 3:-7.629 4:-4.463 5:6.703 6:0.323 7:-2.274 8:3.681 9:-0.086 10:-7.429 
0.400390625 1:-6.239 2:-6.682 3:-5.617 4:6.685 5:2.339 6:2.792 7:-3.935 8:3.833 9:1.666 10:-10.045 
0.400390625 1:4.211 2:7.745 3:-8.556 4:-9.207 5:2.47 6:0.298 7:2.335 8:2.817 9:2.374 10:-6.429 
0.400390625 1:6.645 2:6.441 3:3.767 4:-5.465 5:-5.385 6:6.789 7:-4.18 8:-1.66 9:2.092 10:-8.242 
0.400390625 1:6.61 2:5.905 3:3.981 4:-7.357 5:-5.514 6:8.624 7:-3.72 8:0.211 9:1.955 10:-8.851 
0.400390625 1:-3.248 2:-6.134 3:-3.858 4:7.747 5:2.178 6:8.041 7:-4.551 8:4.052 9:2.187 10:-10.626 
0.400390625 1:-2.236 2:-1.124 3:-5.879 4:-6.315 5:9.215 6:-1.938 7:-3.013 8:2.736 9:-0.864 10:-7.738 
0.400390625 1:-4.392 2:-0.15 3:-10.347 4:5.617 5:1.046 6:-0.959 7:-6.793 8:8.693 9:-4.79 10:0.188 
-0.6005859375 1:6.872 2:5.701 3:4.602 4:-6.117 5:-4.664 6:10.661 7:-3.108 8:-3.64 9:2.973 10:-10.674 
0.400390625 1:-1.755 2:5.482 3:6.142 4:1.632 5:7.135 6:1.635 7:6.834 8:-1.858 9:11.811 10:-2.227 
-0.6005859375 1:-6.256 2:0.388 3:-10.079 4:3.799 5:2.087 6:-2.341 7:-7.282 8:8.459 9:-3.679 10:0.412 
-0.6005859375 1:-1.276 2:6.384 3:6.348 4:-0.051 5:6.124 6:1.466 7:4.638 8:-3.209 9:10.863 10:-2.389 
0.400390625 1:5.926 2:6.444 3:3.945 4:-4.608 5:-3.603 6:10.439 7:-2.594 8:-2.331 9:2.904 10:-10.766 
0.400390625 1:-8.55 2:-0.834 3:-10.248 4:4.996 5:0.687 6:-0.991 7:-7.671 8:8.352 9:-3.443 10:0.178 
0.400390625 1:-1.155 2:5.956 3:7.357 4:0.185 5:7.22 6:1.703 7:6.063 8:-3.769 9:9.618 10:-1.495 
0.400390625 1:6.997 2:5.4 3:5.012 4:-5.799 5:-4.046 6:10.91 7:-2.945 8:-2.216 9:2.397 10:-6.441 
-0.599609375 1:-5.065 2:2.099 3:0.535 4:7.544 5:4.438 6:-4.473 7:1.442 8:-6.602 9:-0.941 10:-7.318 
0.400390625 1:-1.42 2:6.415 3:8.903 4:1.041 5:7.208 6:1.58 7:5.844 8:-4.193 9:10.135 10:-1.924 
-0.599609375 1:6.961 2:6.23 3:-7.001 4:-9.252 5:2.884 6:0.693 7:1.736 8:4.75 9:3.741 10:-5.074 
0.400390625 1:1.351 2:-5.987 3:3.332 4:2.113 5:0.213 6:-2.929 7:-3.772 8:-0.38 9:-7.765 10:-5.345 
0.400390625 1:-1.127 2:5.672 3:9.248 4:1.263 5:7.302 6:1.712 7:6.765 8:-2.418 9:8.386 10:-2.086 
-0.599609375 1:-2.63 2:-0.051 3:-4.637 4:-5.768 5:8.618 6:-0.928 7:-4.783 8:3.79 9:-1.481 10:-6.27 
0.400390625 1:-8.283 2:-1.071 3:-2.014 4:3.774 5:-6.1 6:-5.396 7:-0.413 8:4.315 9:4.053 10:0.214 
-0.599609375 1:-2.992 2:1.554 3:3.113 4:8.568 5:4.967 6:-3.031 7:2.42 8:-7.111 9:-2.04 10:-7.763 
0.400390625 1:-7.837 2:0.615 3:-8.344 4:4.497 5:-1.297 6:-2.42 7:-4.729 8:8.042 9:-5.784 10:1.819 
0.400390625 1:-0.243 2:-5.611 3:6.342 4:1.267 5:-1.072 6:-0.712 7:-4.068 8:-1.872 9:-8.461 10:-7.084 
-0.599609375 1:-6.084 2:1.042 3:-0.04 4:7.162 5:4.647 6:-0.347 7:0.56 8:-8.214 9:-1.619 10:-7.271 
0.400390625 1:-3.54 2:-8.169 3:-4.066 4:8.252 5:2.373 6:4.306 7:-3.494 8:2.693 9:0.979 10:-9.578 
0.400390625 1:6.916 2:6.541 3:-6.625 4:-10.379 5:3.221 6:-0.509 7:1.724 8:4.288 9:1.466 10:-6.12 
-0.599609375 1:-4.577 2:1.145 3:0.018 4:8.636 5:4.904 6:-1.771 7:2.728 8:-7.585 9:-0.765 10:-8.252 
0.400390625 1:-2.088 2:5.42 3:8.673 4:2.062 5:6.167 6:2.134 7:4.895 8:-3.544 9:9.727 10:-2.45 
0.400390625 1:-8.332 2:-2.237 3:-1.628 4:4.356 5:-6.523 6:-5.951 7:4.414 8:6.667 9:4.411 10:-2.119 
-0.599609375 1:4.118 2:6.508 3:-8.193 4:-10.069 5:0.924 6:0.272 7:0.214 8:2.981 9:2.223 10:-7.489 
-0.599609375 1:-3.778 2:2.341 3:-0.524 4:8.103 5:4.319 6:-2.082 7:1.083 8:-8.321 9:-1.278 10:-8.798 
0.400390625 1:-7.499 2:-1.619 3:-5.535 4:5.272 5:-7.705 6:-4.91 7:1.819 8:6.528 9:4.041 10:-1.326 
0.400390625 1:-4.127 2:-8.291 3:-5.695 4:8.201 5:0.255 6:4.76 7:-4.044 8:3.385 9:2.516 10:-9.594 
0.400390625 1:6.7 2:6.428 3:3.379 4:-5.159 5:-6.715 6:8.083 7:-3.434 8:-2.235 9:2.929 10:-9.637 
0.400390625 1:-8.896 2:-0.723 3:-10.147 4:5.064 5:2.771 6:-0.994 7:-7.294 8:8.339 9:-3.044 10:1.959 
0.400390625 1:-2.081 2:5.609 3:9.552 4:0.565 5:6.738 6:1.296 7:7.947 8:-2.53 9:8.325 10:-3.514 
-0.599609375 1:-4.579 2:1.811 3:0.125 4:8.145 5:4.92 6:-1.556 7:1.678 8:-7.921 9:-1.772 10:-7.744 
-0.599609375 1:3.338 2:3.986 3:1.646 4:3.777 5:-6.921 6:-4.542 7:0.766 8:-6.226 9:6.967 10:6.841 
-0.599609375 1:-3.681 2:-2.079 3:-6.78 4:-5.467 5:9.234 6:-1.248 7:-3.114 8:6.309 9:-1.221 10:-8.676 
-0.599609375 1:-7.764 2:0.769 3:-10.165 4:4.007 5:3.064 6:-2.622 7:-5.701 8:9.786 9:-4.234 10:-0.198 
0.400390625 1:-0.103 2:4.958 3:7.498 4:-0.883 5:6.983 6:0.276 7:6.726 8:-3.949 9:10.369 10:-2.753 
-0.599609375 1:-1.282 2:5.773 3:5.468 4:0.11 5:7.565 6:0.387 7:4.91 8:-3.717 9:9.294 10:-2.532 
0.400390625 1:-3.644 2:2.526 3:1.554 4:7.596 5:4.93 6:-1.231 7:0.818 8:-7.979 9:-1.956 10:-7.666 
-0.599609375 1:2.139 2:5.779 3:1.79 4:4.46 5:-6.577 6:-6.135 7:0.49 8:-6.959 9:7.422 10:5.758 
0.400390625 1:-1.808 2:0.114 3:-7.154 4:-6.344 5:9.181 6:-1.016 7:-4.927 8:3.439 9:-0.777 10:-7.513 
-0.599609375 1:2.854 2:-5.731 3:5.084 4:1.759 5:-1.098 6:-3.791 7:-2.922 8:-0.496 9:-8.222 10:-6.198 
0.400390625 1:6.471 2:6.798 3:4.05 4:-4.488 5:-5.648 6:11.293 7:-4.32 8:-2.142 9:1.47 10:-9.715 
0.400390625 1:-5.485 2:-0.627 3:-9.876 4:3.538 5:1.541 6:-2.476 7:-4.259 8:7.926 9:-4.939 10:2.149 
0.400390625 1:0.916 2:-5.387 3:5.192 4:0.723 5:-1.094 6:-0.188 7:-1.759 8:-1.139 9:-8.333 10:-5.284 
0.400390625 1:-5.212 2:1.695 3:0.94 4:8.174 5:4.717 6:-1.298 7:1.289 8:-5.919 9:-0.446 10:-8.292 
0.400390625 1:8.011 2:6.266 3:2.979 4:-4.359 5:-5.176 6:13.096 7:-4.099 8:-3.256 9:2.077 10:-9.859 
-0.599609375 1:-3.767 2:3.225 3:-2.11 4:7.279 5:3.848 6:-1.321 7:1.645 8:-8.115 9:0.427 10:-8.156 
-0.599609375 1:1.888 2:-5.258 3:7.152 4:0.85 5:-1.702 6:-1.501 7:-3.574 8:-0.168 9:-8.261 10:-5.569 
0.400390625 1:9.239 2:5.532 3:4.031 4:-5.931 5:-4.377 6:10.68 7:-3.779 8:-2.304 9:2.012 10:-10.972 
0.400390625 1:-2.322 2:6.891 3:6.215 4:1.403 5:6.963 6:0.839 7:6.151 8:-1.961 9:9.993 10:-3.2 
-0.599609375 1:-1.789 2:0.868 3:-5.404 4:-6.718 5:7.999 6:-0.144 7:-5.168 8:4.204 9:-1.345 10:-6.917 
0.400390625 1:-7.952 2:0.002 3:-9.189 4:5.021 5:-0.484 6:-2.36 7:-6.115 8:8.219 9:-6.282 10:-1.265 
-0.599609375 1:-0.618 2:5.592 3:6.8 4:1.547 5:6.485 6:2.449 7:6.361 8:-2.989 9:10.185 10:-2.822 
-0.599609375 1:7.707 2:5.983 3:4.693 4:-6.202 5:-4.484 6:8.751 7:-2.613 8:0.363 9:1.905 10:-8.644 
-0.599609375 1:-9.597 2:-0.306 3:-9.028 4:4.716 5:-0.849 6:-1.641 7:-6.569 8:8.838 9:-2.019 10:1.103 
0.400390625 1:7.175 2:5.759 3:-7.95 4:-8.947 5:2.314 6:-0.005 7:1.227 8:5.692 9:2.41 10:-5.556 
0.400390625 1:4.042 2:3.199 3:2.77 4:5.799 5:-6.211 6:-8.208 7:0.108 8:-6.156 9:5.386 10:6.49 
0.400390625 1:-6.662 2:0.013 3:-9.189 4:2.85 5:1.247 6:-1.528 7:-6.067 8:7.85 9:-3.12 10:-1.4 
-0.599609375 1:1.866 2:-5.467 3:5.208 4:3.228 5:-1.233 6:-6.272 7:-2.764 8:-0.942 9:-9.654 10:-5.125 
0.400390625 1:6.178 2:6.683 3:-6.793 4:-10.433 5:2.63 6:1.573 7:3.203 8:3.56 9:1.192 10:-6.76 
-0.599609375 1:4.404 2:6.471 3:-8.628 4:-10.263 5:0.546 6:-0.785 7:-1.379 8:4.971 9:0.945 10:-6.517 
-0.599609375 1:2.83 2:5.288 3:2.452 4:2.067 5:-7.073 6:-4.866 7:0.739 8:-6.474 9:5.704 10:5.364 
-0.599609375 1:-7.967 2:-2.479 3:-3.869 4:3.8 5:-4.5 6:-6.947 7:0.394 8:6.505 9:5.023 10:-0.365 
-0.599609375 1:-3.186 2:-5.401 3:-5.584 4:8.341 5:0.273 6:5.109 7:-3.846 8:3.769 9:3.69 10:-8.67 
0.400390625 1:3.042 2:-5.875 3:4.841 4:2.752 5:-0.467 6:-1.516 7:-4.943 8:-1.005 9:-9.157 10:-6.15 
-0.599609375 1:0.539 2:-4.784 3:5.733 4:4.097 5:0.145 6:-1.556 7:-2.958 8:-1.512 9:-7.56 10:-4.535 
0.400390625 1:4.625 2:5.233 3:-8.12 4:-9.934 5:0.489 6:-0.455 7:-1.659 8:3.412 9:1.378 10:-5.683 
0.400390625 1:-8.733 2:-1.835 3:-1.65 4:4.976 5:-6.945 6:-4.674 7:2.375 8:4.609 9:5.639 10:-2.29 
-0.599609375 1:-0.466 2:6.559 3:8.754 4:-0.231 5:7.224 6:2.998 7:6.898 8:-3.43 9:8.565 10:-1.06 
0.400390625 1:-0.865 2:5.144 3:8.207 4:1.192 5:6.084 6:1.155 7:5.331 8:-3.126 9:9.157 10:-3.207 
0.400390625 1:-0.022 2:5.73 3:8.387 4:1.255 5:7.384 6:1.017 7:4.4 8:-2.846 9:10.586 10:-3.489 
-0.599609375 1:5.439 2:6.092 3:-7.1 4:-10.325 5:3.498 6:0.833 7:-0.281 8:3.43 9:1.834 10:-7.245 
0.400390625 1:-7.569 2:0.194 3:-10.366 4:6.283 5:2.071 6:-1.023 7:-6.174 8:8.408 9:-4.831 10:-1.185 
0.400390625 1:-1.75 2:0.687 3:-5.114 4:-4.529 5:8.394 6:0.77 7:-4.963 8:4.571 9:-0.727 10:-7.298 
0.400390625 1:4.597 2:5.546 3:-8.52 4:-9.138 5:2.789 6:-0.273 7:0.36 8:4.965 9:2.472 10:-5.244 
0.400390625 1:-8.323 2:0.669 3:-11.349 4:2.705 5:1.221 6:-2.074 7:-6.373 8:8.807 9:-3.238 10:-1.817 
0.400390625 1:-2.184 2:5.352 3:8.065 4:3.459 5:6.565 6:0.444 7:7.074 8:-4.236 9:9.396 10:-2.711 
-0.599609375 1:3.767 2:3.291 3:-0.242 4:3.792 5:-6.161 6:-3.967 7:-0.817 8:-6.28 9:4.807 10:5.923 
0.400390625 1:4.795 2:3.925 3:6.631 4:-5.293 5:-5.935 6:7.521 7:-3.511 8:-3.955 9:3.555 10:-10.096 
-0.599609375 1:-9.241 2:-0.362 3:-2.991 4:4.013 5:-8.989 6:-6.874 7:3.217 8:4.96 9:5.205 10:-1.888 
0.400390625 1:0.429 2:4.442 3:8.563 4:0.293 5:6.011 6:0.603 7:5.592 8:-2.659 9:10.29 10:-3.131 
0.400390625 1:3.476 2:5.109 3:-1.095 4:2.931 5:-6.582 6:-6.347 7:-0.097 8:-6.013 9:4.376 10:5.678 
-0.599609375 1:2.144 2:5.27 3:1.413 4:1.263 5:-6.007 6:-6.181 7:0.071 8:-6.618 9:5.838 10:6.503 
-0.599609375 1:3.277 2:6.351 3:-0.028 4:3.541 5:-8.034 6:-8.531 7:-2.265 8:-6.717 9:6.439 10:6.543 
-0.599609375 1:5.013 2:5.591 3:4.512 4:-5.542 5:-5.802 6:5.731 7:-4.263 8:-2.472 9:2.052 10:-9.905 
0.400390625 1:-2.232 2:0.579 3:-5.879 4:-4.579 5:7.947 6:-2.397 7:-3.095 8:3.271 9:-3.134 10:-8.32 
-0.599609375 1:-2.758 2:-0.066 3:-5.145 4:-5.348 5:9.777 6:-1.301 7:-3.477 8:2.773 9:-0.874 10:-8.199 
0.400390625 1:-5.129 2:0.227 3:1.746 4:8.025 5:5.438 6:-1.946 7:1.22 8:-6.18 9:0.906 10:-8.899 
0.400390625 1:4.198 2:5.374 3:4.346 4:-7.673 5:-5.763 6:8.559 7:-3.556 8:-1.363 9:2.789 10:-7.626 
0.400390625 1:-9.323 2:0.107 3:-10.142 4:4.542 5:2.629 6:-1.358 7:-8.702 8:8.454 9:-4.786 10:-0.555 
0.400390625 1:2.362 2:-4.501 3:5.237 4:3.684 5:-1.139 6:-1.001 7:-2.275 8:-1.158 9:-8.785 10:-5.817 
0.400390625 1:-0.764 2:6.681 3:9.425 4:-0.636 5:6.87 6:2.624 7:6.03 8:-2.238 9:12.248 10:-2.721 
0.400390625 1:2.923 2:3.025 3:1.335 4:3.82 5:-6.625 6:-5.58 7:-4.995 8:-7.714 9:6.252 10:5.988 
0.400390625 1:0.693 2:-5.281 3:5.864 4:2.641 5:-1.042 6:-0.757 7:-3.794 8:-1.036 9:-9.183 10:-5.905 
0.400390625 1:-5.274 2:1.798 3:1.497 4:8.571 5:4.555 6:-4.9 7:1.83 8:-5.855 9:-0.732 10:-6.855 
0.400390625 1:1.733 2:-5.583 3:6.956 4:2.121 5:-1.803 6:-0.135 7:-5.146 8:-1.563 9:-8.93 10:-7.657 
0.400390625 1:-1.927 2:7.339 3:9.159 4:3.224 5:6.826 6:0.894 7:7.225 8:-1.962 9:9.118 10:-2.038 
0.400390625 1:5.76 2:5.009 3:-8.217 4:-9.673 5:4.005 6:-0.549 7:-0.374 8:5.807 9:1.055 10:-6.332 
-0.599609375 1:-0.705 2:1.045 3:-6.571 4:-6.344 5:9.61 6:-0.464 7:-4.253 8:3.818 9:-0.502 10:-7.687 
0.400390625 1:-8.293 2:-0.93 3:-0.633 4:5.22 5:-8.254 6:-3.769 7:0.946 8:6.666 9:4.577 10:-1.415 
-0.599609375 1:-1.523 2:-0.312 3:-5.636 4:-6.122 5:7.87 6:-0.527 7:-4.586 8:4.968 9:1.003 10:-5.981 
0.400390625 1:4.249 2:5.291 3:-6.698 4:-10.248 5:1.897 6:-0.164 7:1.712 8:2.982 9:0.539 10:-8.26 
0.400390625 1:-2.006 2:6.121 3:8.103 4:2.193 5:5.494 6:2.63 7:5.953 8:-3.511 9:9.145 10:-3.904 
-0.599609375 1:4.413 2:4.445 3:-0.586 4:0.89 5:-7.339 6:-6.237 7:-1.696 8:-7.711 9:6.161 10:7.545 
0.400390625 1:-3.56 2:-5.024 3:-4.258 4:8.596 5:0.966 6:5.184 7:-2.894 8:2.502 9:2.604 10:-10.258 
0.400390625 1:-2.474 2:2.824 3:-5.808 4:-6.55 5:6.573 6:0.008 7:-3.746 8:5.479 9:0.33 10:-7.359 
0.400390625 1:-7.859 2:-1.596 3:1.01 4:5.621 5:-7.566 6:-4.637 7:2.103 8:6.376 9:4.889 10:1.402 
0.400390625 1:-4.651 2:2.26 3:1.462 4:8.053 5:5.43 6:-1.623 7:-0.716 8:-8.179 9:1.228 10:-8.143 
-0.599609375 1:-0.783 2:6.127 3:4.604 4:2.568 5:6.617 6:1.704 7:6.001 8:-2.683 9:10.872 10:-3.133 
-0.599609375 1:2.678 2:2.955 3:0.344 4:0.503 5:-6.516 6:-7.583 7:-0.207 8:-6.987 9:6.295 10:7.872 
-0.599609375 1:-2.509 2:1.906 3:-6.302 4:-5.88 5:9.403 6:-1.257 7:-3.508 8:3.211 9:-0.22 10:-7.552 
0.400390625 1:-1.896 2:6.234 3:8.849 4:2.563 5:6.99 6:1.841 7:5.651 8:-3.253 9:11.076 10:-0.986 
0.400390625 1:-9.713 2:-0.42 3:-10.105 4:6.329 5:3.22 6:-1.063 7:-6.538 8:7.911 9:-3.845 10:-1.739 
-0.599609375 1:-0.415 2:7.472 3:7.034 4:2.21 5:6.565 6:1.928 7:6.684 8:-1.903 9:11.166 10:-3.272 
0.400390625 1:-7.142 2:-5.75 3:-5.846 4:7.481 5:1.999 6:4.381 7:-3.73 8:3.105 9:2.398 10:-10.237 
-0.599609375 1:1.391 2:-5.256 3:6.731 4:2.081 5:-1.669 6:-0.324 7:-4.756 8:-1.295 9:-8.806 10:-5.846 
-0.599609375 1:1.753 2:5.326 3:1.933 4:1.902 5:-7.083 6:-4.438 7:-1.877 8:-7.107 9:4.623 10:6.101 
0.400390625 1:-2.151 2:-6.875 3:-4.433 4:8.77 5:1.118 6:4.888 7:-3.571 8:3.241 9:2.007 10:-7.799 
0.400390625 1:-2.014 2:5.71 3:9.246 4:3.85 5:7.204 6:0.287 7:6.447 8:-2.878 9:8.89 10:-0.307 
-0.599609375 1:-7.782 2:0.347 3:-8.807 4:4.387 5:-0.647 6:-1.965 7:-8.834 8:8.42 9:-4.99 10:-0.948 
-0.599609375 1:7.588 2:4.54 3:-6.787 4:-9.729 5:2.953 6:-0.209 7:1.813 8:3.606 9:1.747 10:-6.13 
0.400390625 1:7.142 2:4.726 3:-7.765 4:-10.49 5:1.607 6:0.368 7:-0.526 8:3.837 9:2.788 10:-8.127 
-0.599609375 1:2.056 2:5.547 3:0.015 4:2.604 5:-6.097 6:-5.719 7:-0.314 8:-6.381 9:6.328 10:5.141 
0.400390625 1:8.677 2:6.093 3:4.703 4:-5.326 5:-4.8 6:7.339 7:-4.149 8:-1.857 9:2.699 10:-10.233 
-0.599609375 1:-3.324 2:1.317 3:1.473 4:7.126 5:5.022 6:-2.593 7:0.303 8:-7.187 9:0.808 10:-7.879 
0.400390625 1:-3.158 2:-7.521 3:-3.963 4:6.835 5:1.673 6:3.166 7:-3.805 8:4.292 9:1.042 10:-10.653 
-0.599609375 1:7.925 2:6.245 3:5.96 4:-6.178 5:-5.902 6:11.287 7:-4.209 8:-2.372 9:3.589 10:-10.645 
-0.599609375 1:-3.443 2:2.63 3:0.515 4:7.553 5:4.519 6:-2.748 7:2.332 8:-7.029 9:0.098 10:-8.239 
-0.599609375 1:-4.718 2:-6.824 3:-4.942 4:7.214 5:1.462 6:5.154 7:-4.228 8:3.367 9:-0.011 10:-9.1 
0.400390625 1:7.08 2:5.742 3:3.429 4:-5.993 5:-3.535 6:8.239 7:-2.792 8:0.359 9:2.361 10:-8.536 
0.400390625 1:-0.852 2:-7.071 3:-4.359 4:7.536 5:1.957 6:2.28 7:-3.76 8:2.801 9:2.809 10:-9.58 
0.400390625 1:-1.532 2:-0.192 3:-6.591 4:-6.911 5:7.075 6:0.778 7:-4.093 8:3.748 9:0.616 10:-7.632 
0.400390625 1:-6.712 2:-7.735 3:-4.815 4:6.398 5:0.294 6:1.512 7:-3.349 8:4.214 9:2.039 10:-10.836 
0.400390625 1:8.033 2:5.119 3:4.766 4:-6.732 5:-4.829 6:9.764 7:-1.482 8:-0.846 9:3.586 10:-10.025 
-0.599609375 1:1.706 2:-5.624 3:8.557 4:3.066 5:-1.179 6:-0.761 7:-3.236 8:0.002 9:-9.547 10:-7.327 
-0.599609375 1:-3.463 2:0.585 3:1.924 4:8.009 5:4.792 6:-0.508 7:1.448 8:-8.16 9:0.34 10:-6.83 
-0.599609375 1:-2.598 2:-6.845 3:-3.476 4:7.869 5:0.287 6:4.306 7:-4.058 8:3.922 9:1.101 10:-10.293 
0.400390625 1:-3.475 2:2.028 3:2.009 4:7.495 5:4.762 6:-2.689 7:1.586 8:-6.9 9:-1.646 10:-7.905 
0.400390625 1:-8.255 2:0.091 3:-9.486 4:3.446 5:-0.143 6:-0.807 7:-5.925 8:7.493 9:-5.908 10:-1.79 
-0.599609375 1:-6.767 2:0.758 3:-8.37 4:4.203 5:0.615 6:-1.988 7:-7.116 8:7.437 9:-4.305 10:-0.52 
-0.599609375 1:-3.681 2:0.25 3:-7.871 4:-4.88 5:7.221 6:-0.02 7:-5.079 8:4.578 9:-2.222 10:-8.052 
0.400390625 1:-0.749 2:6.243 3:6.971 4:2.826 5:6.998 6:2.803 7:7.31 8:-3.696 9:9.884 10:-3.274 
-0.599609375 1:-0.829 2:6.678 3:8.453 4:-1.518 5:6.792 6:1.431 7:5.221 8:-2.182 9:9.329 10:-1.503 
0.400390625 1:1.177 2:-5.613 3:7.038 4:3.492 5:0.268 6:1.377 7:-2.086 8:-0.543 9:-9.64 10:-5.498 
0.400390625 1:-7.674 2:-1.412 3:-1.973 4:5.062 5:-5.179 6:-4.284 7:1.183 8:6.459 9:4.909 10:-1.777 
0.400390625 1:-0.315 2:6.642 3:8.127 4:-1.441 5:5.698 6:0.477 7:5.759 8:-4.455 9:9.716 10:-2.348 
-0.599609375 1:3.525 2:4.083 3:1.552 4:2.874 5:-8.319 6:-4.16 7:-0.411 8:-7.347 9:6.096 10:5.876 
-0.599609375 1:-5.714 2:-6.678 3:-3.286 4:7.395 5:2.147 6:4.717 7:-3.539 8:3.234 9:1.22 10:-9.735 
0.400390625 1:-1.762 2:5.602 3:7.446 4:-0.114 5:6.699 6:0.313 7:4.415 8:-2.354 9:10.878 10:-3.609 
-0.599609375 1:-4.299 2:0.706 3:3.162 4:8.094 5:4.145 6:-0.751 7:0.87 8:-6.757 9:-1.607 10:-9.485 
-0.599609375 1:3.211 2:3.371 3:0.458 4:2.179 5:-8.394 6:-5.114 7:-1.232 8:-5.99 9:6.589 10:5.609 
0.400390625 1:-8.707 2:-1.624 3:-2.606 4:4.438 5:-7.559 6:-3.912 7:1.046 8:6.056 9:4.617 10:-0.18 
-0.599609375 1:5.726 2:4.774 3:-8.386 4:-10.067 5:0.897 6:0.524 7:2.056 8:5.007 9:1.272 10:-6.774 
-0.599609375 1:-0.832 2:6.785 3:10.273 4:1.464 5:6.606 6:0.518 7:4.346 8:-3.885 9:10.469 10:-1.879 
0.400390625 1:-3.869 2:-6.875 3:-6.205 4:6.679 5:1.487 6:4.298 7:-4.438 8:2.89 9:1.197 10:-9.38 
0.400390625 1:-2.399 2:0.387 3:-5.276 4:-4.611 5:7.636 6:0.035 7:-4.991 8:3.487 9:0.088 10:-6.565 
-0.599609375 1:-2.819 2:1.3 3:-1.81 4:8.04 5:5.078 6:-1.623 7:0.179 8:-8.269 9:-1.627 10:-7.077 
-0.599609375 1:-6.007 2:1.477 3:-0.287 4:8.175 5:4.708 6:-0.726 7:2.102 8:-7.566 9:0.579 10:-7.598 
0.400390625 1:-9.166 2:-0.679 3:-9.957 4:7.168 5:1.583 6:-2.132 7:-7.852 8:8.35 9:-5.006 10:-2.45 
-0.599609375 1:1.257 2:6.908 3:2.454 4:4.031 5:-6.557 6:-5.672 7:-2.441 8:-6.631 9:6.57 10:7.011 
-0.599609375 1:-6.422 2:2.107 3:3.821 4:7.421 5:5.143 6:-1.129 7:2.439 8:-7.326 9:0.459 10:-8.605 
0.400390625 1:-6.344 2:-6.089 3:-4.315 4:6.933 5:1.881 6:3.235 7:-3.803 8:3.599 9:1.854 10:-9.43 
-0.599609375 1:7.792 2:6.501 3:-9.372 4:-10.504 5:3.557 6:0.352 7:0.278 8:2.841 9:3.901 10:-6.192 
0.400390625 1:-3.973 2:-9.911 3:-4.569 4:6.718 5:0.066 6:4.383 7:-3.652 8:3.386 9:2.113 10:-9.294 
0.400390625 1:2.416 2:4.027 3:-1.025 4:3.061 5:-7.181 6:-4.562 7:0.498 8:-6.607 9:5.378 10:5.695 
0.400390625 1:7.394 2:6.001 3:5.042 4:-5.549 5:-4.211 6:6.551 7:-3.708 8:-1.36 9:4.204 10:-9.432 
0.400390625 1:6.629 2:5.908 3:-6.68 4:-9.916 5:3.525 6:0.138 7:1.608 8:4.875 9:1.332 10:-7.695 
-0.599609375 1:-5.905 2:2.701 3:1.233 4:8.132 5:4.873 6:-2.032 7:0.524 8:-6.642 9:-1.207 10:-8.545 
-0.599609375 1:0.609 2:-3.847 3:6.607 4:1.102 5:-0.363 6:-1.234 7:-3.521 8:-0.791 9:-9.061 10:-6.059 
-0.599609375 1:-4.691 2:-7.628 3:-3.542 4:7.226 5:1.089 6:4.458 7:-4.125 8:3.101 9:1.894 10:-8.601 
0.400390625 1:-8.023 2:-0.901 3:0.054 4:3.7 5:-6.796 6:-6.696 7:0.442 8:5.998 9:4.674 10:-0.615 
0.400390625 1:5.572 2:5.276 3:-6.537 4:-9.661 5:2.055 6:1.137 7:1.919 8:3.106 9:2.731 10:-5.978 
0.400390625 1:-6.367 2:0.159 3:-10.008 4:5.421 5:2.09 6:-1.276 7:-7.927 8:8.343 9:-5.579 10:-1.032 
0.400390625 1:-6.378 2:1.759 3:0.715 4:7.491 5:4.259 6:-3.111 7:2.806 8:-7.839 9:-1.088 10:-9.439 
-0.599609375 1:3.967 2:-1.019 3:2.133 4:5.792 5:-6.929 6:-5.928 7:-0.268 8:-6.795 9:5.724 10:4.65 
0.400390625 1:8.263 2:5.104 3:5.745 4:-5.32 5:-4.966 6:10.428 7:-3.132 8:-3.36 9:2.047 10:-9.205 
0.400390625 1:-5.82 2:0.467 3:-10.767 4:2.496 5:-0.751 6:-2.411 7:-5.743 8:8.046 9:-5.629 10:1.24 
0.400390625 1:6.431 2:4.807 3:-7.295 4:-9.106 5:0.996 6:0.192 7:1.16 8:3.628 9:1.927 10:-5.878 
0.400390625 1:-4.129 2:-6.545 3:-4.528 4:7.976 5:1.51 6:3.924 7:-4.761 8:3.784 9:2.046 10:-10.982 
-0.599609375 1:3.543 2:4.565 3:1.778 4:2.643 5:-6.222 6:-4.868 7:-0.768 8:-6.073 9:6.415 10:6.195 
-0.599609375 1:-6.517 2:-4.983 3:-4.072 4:7.783 5:-0.166 6:3.811 7:-3.516 8:2.891 9:4.508 10:-8.14 
0.400390625 1:1.439 2:3.638 3:-0.287 4:2.853 5:-7.761 6:-6.776 7:-1.24 8:-6.376 9:5.773 10:6.349 
0.400390625 1:5.462 2:4.157 3:-8.129 4:-10.474 5:2.366 6:-0.722 7:0.657 8:3.097 9:3.652 10:-3.534 
0.400390625 1:-4.106 2:-7.816 3:-5.455 4:6.949 5:0.561 6:2.738 7:-4.009 8:3.975 9:3.155 10:-8.936 
-0.599609375 1:-7.175 2:0.157 3:-10.808 4:3.818 5:0.389 6:-1.515 7:-7.039 8:8.807 9:-4.465 10:-0.701 
0.400390625 1:-6.079 2:-7.477 3:-0.727 4:7.754 5:2.665 6:4.761 7:-3.968 8:3.146 9:4.109 10:-9.934 
-0.599609375 1:6.656 2:5.903 3:4.012 4:-4.883 5:-5.636 6:7.255 7:-2.273 8:-1.523 9:2.834 10:-10.313 
0.400390625 1:2.724 2:-4.975 3:4.256 4:3.423 5:0.236 6:-3.708 7:-4.931 8:-1.191 9:-8.818 10:-5.169 
0.400390625 1:4.737 2:5.18 3:-7.778 4:-9.136 5:5.585 6:0.284 7:0.028 8:2.284 9:2.538 10:-6.198 
-0.599609375 1:-1.099 2:6.206 3:7.983 4:2.022 5:8.003 6:0.448 7:5.443 8:-3.655 9:8.099 10:-3.126 
0.400390625 1:-1.743 2:0.841 3:-5.984 4:-5.825 5:9.02 6:-0.503 7:-3.812 8:2.87 9:-1.001 10:-7.226 
0.400390625 1:2.231 2:-6.136 3:6.364 4:3.448 5:-1.673 6:-0.081 7:-3.62 8:-0.143 9:-8.281 10:-6.869 
-0.599609375 1:5.263 2:6.044 3:5.478 4:-6.798 5:-4.625 6:7.145 7:-3.986 8:-2.527 9:2.82 10:-7.77 
0.400390625 1:5.777 2:6.135 3:4.806 4:-4.871 5:-4.304 6:12.551 7:-3.372 8:-2.023 9:1.558 10:-10.054 
-0.599609375 1:2.193 2:4.527 3:-1.901 4:5.45 5:-7.859 6:-7.979 7:-2.231 8:-5.99 9:5.115 10:6.232 
0.400390625 1:5.651 2:5.011 3:-8.566 4:-10.276 5:1.562 6:1.574 7:0.399 8:4.406 9:0.369 10:-5.681 
-0.599609375 1:7.891 2:6.801 3:4.003 4:-5.973 5:-5.365 6:10.051 7:-3.764 8:-2.87 9:2.374 10:-10.327 
-0.599609375 1:3.85 2:5.373 3:0.914 4:2.613 5:-7.433 6:-5.996 7:-0.058 8:-7.043 9:5.058 10:6.944 
0.400390625 1:-2.434 2:0.353 3:-5.131 4:-5.942 5:8.648 6:0.984 7:-4.277 8:4.474 9:-1.2 10:-7.019 
0.400390625 1:-1.008 2:6.285 3:7.081 4:1.437 5:7.663 6:1.543 7:5.205 8:-4.399 9:8.916 10:-0.203 
-0.599609375 1:5.003 2:5.724 3:-7.364 4:-8 5:3.611 6:-0.231 7:-0.748 8:5.405 9:2.394 10:-7.743 
0.400390625 1:-2.624 2:0.858 3:-4.845 4:-6.918 5:8.687 6:-0.707 7:-3.48 8:3.973 9:-0.891 10:-8.051 
-0.599609375 1:1.464 2:-4.276 3:3.334 4:1.884 5:-0.886 6:-1.546 7:-3.126 8:-1.064 9:-9.749 10:-6.356 
-0.599609375 1:6.225 2:7.233 3:-8.02 4:-9.274 5:-0.119 6:0.891 7:0.1 8:4.839 9:0.012 10:-8.921 
-0.599609375 1:1.722 2:-4.012 3:5.621 4:3.485 5:0.088 6:-1.591 7:-2.811 8:-1.963 9:-7.967 10:-7.273 
-0.599609375 1:3.004 2:-6.267 3:2.829 4:3.613 5:-0.396 6:0.921 7:-3.649 8:-0.926 9:-9.158 10:-5.312 
-0.599609375 1:5.692 2:4.756 3:-8.852 4:-9.458 5:2.976 6:1.888 7:0.86 8:4.868 9:-0.559 10:-4.433 
-0.599609375 1:2.03 2:-4.922 3:4.176 4:2.178 5:-0.307 6:0.196 7:-3.44 8:-1.232 9:-8.587 10:-6.708 
-0.599609375 1:-7.538 2:0.494 3:-8.725 4:2.961 5:2.802 6:-2.111 7:-7.976 8:8.487 9:-4.914 10:0.032 
0.400390625 1:-8.885 2:0.68 3:-10.858 4:3.238 5:0.621 6:-2.39 7:-7.387 8:8.098 9:-2.926 10:2.386 
0.400390625 1:-4.773 2:1.929 3:-0.898 4:7.948 5:4.55 6:-0.181 7:1.63 8:-7.243 9:-2.025 10:-7.574 
0.400390625 1:-8.049 2:-4.044 3:-3.275 4:4.869 5:-8.505 6:-4.167 7:-0.164 8:6.025 9:4.398 10:0.209 
0.400390625 1:6.201 2:6.013 3:-8.111 4:-8.903 5:3.144 6:0.392 7:-1.349 8:5.022 9:2.839 10:-6.505 
0.400390625 1:-2.798 2:5.791 3:9.271 4:-0.173 5:6.994 6:0.903 7:5.37 8:-3.538 9:7.848 10:-2.691 
0.400390625 1:-7.233 2:-2.326 3:-1.252 4:6.438 5:-5.161 6:-1.437 7:1.121 8:6.48 9:4.978 10:-2.03 
0.400390625 1:-1.095 2:5.147 3:9.854 4:1.986 5:7.16 6:3.414 7:5.109 8:-4.253 9:9.949 10:-1.311 
0.400390625 1:-2.873 2:-6.619 3:-1.646 4:7.302 5:0.758 6:5.524 7:-3.723 8:4.073 9:2.488 10:-10.506 
0.400390625 1:4.565 2:8.202 3:-7.724 4:-8.328 5:2.532 6:-1.008 7:-1.008 8:4.784 9:2.382 10:-6.042 
0.400390625 1:4.717 2:5.916 3:-8.213 4:-8.97 5:6.478 6:0.875 7:3.326 8:5.233 9:-0.091 10:-8.471 
0.400390625 1:-1.981 2:6.596 3:7.826 4:1.003 5:5.852 6:0.853 7:7.305 8:-2.718 9:10.325 10:-3.17 
-0.599609375 1:7.171 2:4.728 3:-6.881 4:-9.61 5:1.548 6:1.813 7:0.491 8:4.645 9:2.687 10:-8.191 
0.400390625 1:-3.926 2:-7.95 3:-4.234 4:6.869 5:2.573 6:3.486 7:-4.068 8:3.807 9:2.889 10:-9.677 
0.3994140625 1:-9.151 2:-1.903 3:-3.377 4:3.593 5:-7.582 6:-6.373 7:1.87 8:8.02 9:4.393 10:-2.483 
0.3994140625 1:-4.673 2:-7.102 3:-6.241 4:7.444 5:0.791 6:3.114 7:-3.723 8:4.474 9:1.969 10:-9.692 
-0.599609375 1:-1.231 2:5.115 3:7.698 4:0.514 5:5.929 6:0.493 7:5.744 8:-2.413 9:11.25 10:-2.47 
-0.599609375 1:-9.925 2:-3.662 3:-4.188 4:4.727 5:-6.516 6:-5.854 7:1.596 8:6.389 9:4.816 10:-0.917 
0.3994140625 1:2.068 2:-6.36 3:6.958 4:0.813 5:0.766 6:-0.611 7:-4.261 8:-1.181 9:-8.017 10:-5.27 
0.3994140625 1:5.827 2:5.652 3:4.328 4:-7.03 5:-3.499 6:7.953 7:-1.801 8:-2.024 9:3.255 10:-11.173 
-0.599609375 1:-2.298 2:-0.283 3:-7.065 4:-4.636 5:10.891 6:-1.194 7:-4.52 8:4.7 9:-1.253 10:-8.059 
-0.599609375 1:-8.464 2:-0.988 3:-9.429 4:5.043 5:2.038 6:-1.767 7:-5.178 8:8.256 9:-4.479 10:0.154 
-0.599609375 1:3.82 2:7.769 3:-0.962 4:3.911 5:-6.438 6:-3.596 7:-3.348 8:-7.499 9:3.854 10:6.656 
-0.599609375 1:3.752 2:4.612 3:0.478 4:-0.848 5:-7.932 6:-4.231 7:-3.04 8:-6.612 9:6.104 10:6.346 
0.3994140625 1:-0.238 2:6.392 3:10.185 4:2.541 5:6.064 6:0.649 7:4.526 8:-3.207 9:9.792 10:-2.512 
0.3994140625 1:3.119 2:7.668 3:2.159 4:-1.783 5:-7.626 6:-6.007 7:-2.462 8:-5.53 9:6.918 10:6.069 
-0.599609375 1:-9.004 2:0.8 3:-10.256 4:5.447 5:4.221 6:-2.111 7:-7.422 8:8.896 9:-5.211 10:2.579 
0.3994140625 1:6.017 2:4.119 3:-7.042 4:-9.737 5:1.957 6:0.235 7:1.421 8:3.272 9:-0.687 10:-6.584 
-0.6005859375 1:-8.119 2:-1.111 3:-10.318 4:6.06 5:1.569 6:-2.663 7:-6.453 8:7.929 9:-1.783 10:-0.917 
-0.6005859375 1:-8.488 2:-2.332 3:-2.476 4:5.459 5:-5.607 6:-3.834 7:2.266 8:6.382 9:4.527 10:-0.77 
0.3994140625 1:0.568 2:-5.869 3:4.952 4:1.14 5:1.018 6:-1.235 7:-3.413 8:-0.855 9:-9.328 10:-7.212 
-0.6005859375 1:-4.839 2:0.933 3:0.202 4:7.79 5:5.395 6:-3.289 7:1.227 8:-8.203 9:-1.413 10:-9.869 
-0.6005859375 1:-8.76 2:-0.326 3:-10.529 4:1.91 5:-0.263 6:-0.929 7:-6.715 8:7.81 9:-2.706 10:1.433 
0.3994140625 1:-0.284 2:6.958 3:6.839 4:2.459 5:6.129 6:0.94 7:5.532 8:-3.432 9:8.715 10:-2.26 
0.3994140625 1:-1.624 2:6.873 3:9.028 4:-1.054 5:6.434 6:0.993 7:6.624 8:-3.529 9:9.804 10:-0.915 
-0.6005859375 1:-4.248 2:1.071 3:-3.464 4:7.893 5:5.376 6:-0.436 7:0.95 8:-7.357 9:-0.028 10:-8.329 
-0.6005859375 1:-0.641 2:6.61 3:8.746 4:0.039 5:6.665 6:0.197 7:6.678 8:-2.448 9:12.394 10:-1.59 
0.3994140625 1:6.612 2:5.6 3:4.956 4:-5.216 5:-3.496 6:8.224 7:-4.414 8:-3.459 9:4.452 10:-8.653 
0.3994140625 1:-4.49 2:-8.382 3:-4.436 4:7.333 5:2.326 6:5.041 7:-3.457 8:2.344 9:3.055 10:-9.357 
-0.6005859375 1:3.573 2:-3.9 3:4.278 4:2.291 5:0.727 6:-0.775 7:-3.318 8:0.029 9:-10.289 10:-6.616 
-0.6005859375 1:-7.434 2:-0.448 3:-9.703 4:4.605 5:0.944 6:-1.396 7:-5.677 8:7.732 9:-5.213 10:-0.343 
0.3994140625 1:-7.881 2:-0.39 3:-10.634 4:4.78 5:0.251 6:-1.846 7:-5.829 8:8.455 9:-2.621 10:-1.207 
-0.6005859375 1:-2.095 2:-4.869 3:4.851 4:2.763 5:-1.397 6:0.99 7:-3.605 8:-0.876 9:-7.683 10:-7.807 
-0.6005859375 1:-1.208 2:1.818 3:-5.719 4:-5.556 5:8.429 6:-1.426 7:-4.684 8:5.311 9:-0.041 10:-6.598 
-0.6005859375 1:4.152 2:5.008 3:-1.478 4:0.971 5:-8.751 6:-5.787 7:-2.27 8:-7.157 9:6.239 10:5.692 
0.3994140625 1:-6.884 2:0.455 3:-9.346 4:5.867 5:-0.062 6:-1.73 7:-7.3 8:8.937 9:-6.271 10:2.756 
0.3994140625 1:7.938 2:5.203 3:4.191 4:-6.029 5:-5.208 6:7.718 7:-3.368 8:-1.079 9:1.903 10:-8.886 
0.3994140625 1:0.202 2:6.971 3:7.583 4:1.801 5:6.539 6:1.742 7:5.523 8:-3.578 9:8.701 10:-2.527 
0.3994140625 1:-0.026 2:-6.426 3:6.069 4:3.574 5:-1.596 6:-0.553 7:-3.6 8:-1.192 9:-8.805 10:-6.646 
0.3994140625 1:8.208 2:4.483 3:2.763 4:-7.481 5:-6.468 6:9.898 7:-3.304 8:-1.374 9:3.029 10:-8.775 
0.3994140625 1:6.281 2:5.583 3:-7.503 4:-7.668 5:5.419 6:-0.11 7:0.965 8:4.756 9:3.741 10:-5.703 
-0.6005859375 1:2.958 2:4.436 3:1.801 4:2.774 5:-8.075 6:-7.866 7:-1.911 8:-6.808 9:5.985 10:5.736 
-0.6005859375 1:0.494 2:6.4 3:6.572 4:-1.288 5:6.775 6:0.781 7:5.259 8:-4.405 9:10.165 10:-1.104 
0.3994140625 1:-9.328 2:-0.66 3:-11.965 4:4.023 5:0.927 6:-1.703 7:-7.162 8:8.172 9:-5.045 10:-1 
0.3994140625 1:1.316 2:-6.137 3:4.746 4:0.19 5:2.097 6:1.615 7:-5.116 8:-0.813 9:-9.433 10:-5.934 
0.3994140625 1:-7.972 2:-0.258 3:-9.187 4:4.383 5:1.665 6:-1.541 7:-5.607 8:7.869 9:-4.654 10:-0.795 
-0.6005859375 1:-3.726 2:2.144 3:2.433 4:7.247 5:5.178 6:-0.869 7:1.515 8:-6.156 9:1.103 10:-8.318 
-0.6005859375 1:-3.926 2:1.981 3:0.751 4:7.547 5:4.147 6:-3.003 7:0.429 8:-7.713 9:-0.384 10:-9.326 
-0.6005859375 1:-9.833 2:1.469 3:-10.52 4:3.746 5:2.302 6:-2.616 7:-7.043 8:8.607 9:-5.09 10:-1.343 
0.3994140625 1:-8.008 2:0.987 3:-10.157 4:6.133 5:1.762 6:-2.381 7:-7.602 8:8.185 9:-3.957 10:0.542 
-0.6005859375 1:-8.628 2:-1.474 3:-10.593 4:5.74 5:1.659 6:-1.961 7:-5.137 8:8.163 9:-5.49 10:-1.407 
0.3994140625 1:6.922 2:5.927 3:-8.339 4:-9.354 5:2.921 6:-0.514 7:0.351 8:5.014 9:2.749 10:-7.578 
0.3994140625 1:-6.471 2:-8.202 3:-5.932 4:7.185 5:1.365 6:6.482 7:-3.754 8:2.655 9:1.143 10:-10.536 
0.3994140625 1:-8.547 2:0.538 3:-8.516 4:3.892 5:4.064 6:-1.982 7:-9.893 8:8.662 9:-4.898 10:0.557 
0.3994140625 1:-0.755 2:6.001 3:8.265 4:3.163 5:7.237 6:1.467 7:6.029 8:-2.435 9:11.385 10:-1.985 
0.3994140625 1:-8.46 2:0.426 3:-9.784 4:3.933 5:-0.685 6:-0.511 7:-5.004 8:8.049 9:-3.115 10:-0.186 
0.3994140625 1:0.632 2:-5.854 3:5.718 4:2.577 5:-0.83 6:-1.964 7:-2.568 8:-0.845 9:-8.97 10:-6.272 
-0.6005859375 1:-3.979 2:-1.884 3:-5.2 4:-5.006 5:7.716 6:0.57 7:-3.196 8:5.36 9:0.275 10:-8.04 
-0.6005859375 1:1.769 2:-4.502 3:3.941 4:2.974 5:0.85 6:-2.342 7:-4.477 8:-1.007 9:-9.208 10:-5.495 
-0.6005859375 1:6.772 2:6.387 3:5.414 4:-4.961 5:-3.682 6:8.962 7:-2.472 8:-3.286 9:3.529 10:-8.793 
0.3994140625 1:0.667 2:-4.597 3:6.416 4:2.585 5:-0.327 6:0.59 7:-3.816 8:-0.565 9:-7.926 10:-6.556 
-0.6005859375 1:-7.527 2:-1.55 3:-3.908 4:3.734 5:-7.522 6:-5.395 7:0.067 8:6.45 9:4.247 10:0.182 
0.3994140625 1:5.737 2:8.264 3:-8.082 4:-9.077 5:1.485 6:0.076 7:2.216 8:4.065 9:2.803 10:-7.277 
0.3994140625 1:-0.61 2:5.862 3:6.308 4:-0.418 5:6.477 6:1.528 7:7.516 8:-4.328 9:12.051 10:-2.959 
0.3994140625 1:5.819 2:5.359 3:-8.457 4:-9.039 5:3.058 6:-0.149 7:-0.066 8:4.331 9:2.433 10:-5.632 
-0.6005859375 1:2.329 2:4.223 3:2.504 4:4.245 5:-6.482 6:-6.946 7:-3.359 8:-7.289 9:8.628 10:7.143 
0.3994140625 1:-7.764 2:-0.188 3:-9.481 4:5.43 5:2.069 6:-1.953 7:-9.165 8:7.921 9:-5.494 10:1.391 
-0.6005859375 1:-4.437 2:2.035 3:1.359 4:6.898 5:5.199 6:-2.787 7:0.872 8:-6.967 9:-1.535 10:-8.368 
-0.6005859375 1:-4.284 2:-6.381 3:-3.255 4:8.574 5:0.156 6:4.492 7:-3.875 8:2.238 9:2.52 10:-11.35 
0.3994140625 1:-1.778 2:0.907 3:-4.992 4:-5.202 5:8.714 6:-0.654 7:-5.289 8:3.59 9:-1.355 10:-7.578 
-0.6005859375 1:-8.197 2:-1.338 3:-11.017 4:5.257 5:3.611 6:-2.895 7:-7.278 8:8.837 9:-5.702 10:-0.386 
0.3994140625 1:5.1 2:6.107 3:-8.469 4:-9.301 5:2.879 6:0.466 7:-0.628 8:4.598 9:1.798 10:-7.366 
0.3994140625 1:2.383 2:5.946 3:1.216 4:2.582 5:-6.973 6:-5.847 7:-2.141 8:-7.296 9:4.821 10:6.592 
0.3994140625 1:7.976 2:6.017 3:5.573 4:-5.967 5:-3.845 6:9.89 7:-3.643 8:-1.808 9:1.963 10:-10.2 
-0.6005859375 1:-1.979 2:0.744 3:-7.093 4:-6.453 5:6.408 6:0.582 7:-4.91 8:2.731 9:-0.183 10:-6.814 
0.3994140625 1:-8.257 2:-1.609 3:-1.211 4:4.823 5:-6.166 6:-5.782 7:3.521 8:6.115 9:4.95 10:-0.718 
0.3994140625 1:6.332 2:4.735 3:3.987 4:-7.36 5:-4.863 6:9.147 7:-3.768 8:-2.522 9:2.117 10:-7.705 
0.3994140625 1:-4.02 2:-5.722 3:-6.07 4:8.781 5:1.662 6:6.528 7:-3.53 8:3.511 9:3.025 10:-9.252 
-0.6005859375 1:3.697 2:6.262 3:0.258 4:1.851 5:-7.757 6:-7.813 7:-2.241 8:-7.29 9:3.711 10:6.558 
-0.6005859375 1:-0.916 2:5.35 3:7.704 4:3.578 5:7.424 6:1.908 7:4.965 8:-3.517 9:8.692 10:-3.968 
0.3994140625 1:-4.951 2:-5.591 3:-6.133 4:6.554 5:1.579 6:5.645 7:-3.659 8:4.618 9:3.405 10:-7.887 
0.3994140625 1:-9.371 2:-1.341 3:-10.31 4:5.209 5:1.225 6:-2.096 7:-6.725 8:8.471 9:-2.507 10:1.249 
0.3994140625 1:7.389 2:4.864 3:6.078 4:-5.094 5:-5.306 6:10.265 7:-4.797 8:-1.599 9:3.644 10:-10.225 
0.3994140625 1:-1.399 2:7.345 3:7.467 4:1.183 5:6.794 6:2.489 7:5.417 8:-3.007 9:11.262 10:-2.548 
