svm_type c_svc
kernel_type polynomial
degree 2
gamma 1
coef0 1
nr_class 2
total_sv 1323
rho 0.999335
label 1 -1
nr_sv 542 781
SV
1 1:0.44066992 2:-4.3504375 
1 1:0.27822461 2:-4.0888125 
1 1:0.28741406 2:-4.3654375 
1 1:0.18921094 2:-3.328375 
1 1:0.34156641 2:-4.8388125 
1 1:0.28816211 2:-3.75325 
1 1:0.42295508 2:-4.58325 
1 1:0.35011133 2:-4.5961875 
1 1:0.30645703 2:-2.082 
1 1:0.33792773 2:-3.1846875 
1 1:0.41233789 2:-5.5705 
1 1:0.35138672 2:-4.4420625 
1 1:0.24904883 2:-4.0290625 
1 1:0.26214258 2:-4.100125 
1 1:0.27826172 2:-4.4676875 
1 1:0.33248828 2:-2.502 
1 1:0.36280664 2:-5.8456875 
1 1:0.35701172 2:-4.0114375 
1 1:0.33430859 2:-3.2810625 
1 1:0.29611523 2:-5.2068125 
1 1:0.32277539 2:-3.7033125 
1 1:0.33418555 2:-2.956375 
1 1:0.16690234 2:-2.8409375 
1 1:0.33725781 2:-3.869 
1 1:0.25451758 2:-1.7416875 
1 1:0.30048633 2:-3.50575 
1 1:0.24953906 2:-2.5758125 
1 1:0.2707207 2:-4.2679375 
1 1:0.37868359 2:-4.4215 
1 1:0.22776367 2:-2.785125 
1 1:0.33098047 2:-2.8483125 
1 1:0.39789844 2:-2.9333125 
1 1:0.31657031 2:-3.592375 
1 1:0.21885156 2:-1.7906875 
1 1:0.31800195 2:-2.7066875 
1 1:0.19188281 2:-2.0279375 
1 1:0.17126758 2:-2.6516875 
1 1:0.29497461 2:-2.2556875 
1 1:0.28387305 2:-3.2044375 
1 1:0.40943945 2:-2.8265625 
1 1:0.20573242 2:-2.702 
1 1:0.34373047 2:-3.911375 
1 1:0.24505859 2:-3.2475 
1 1:0.26678516 2:-2.513375 
1 1:0.25408203 2:-4.2065 
1 1:0.3456543 2:-3.2239375 
1 1:0.24648828 2:-3.09025 
1 1:0.19146289 2:-3.1794375 
1 1:0.32058789 2:-2.162375 
1 1:0.343625 2:-3.1510625 
1 1:0.30064063 2:-4.62675 
1 1:0.25929492 2:-3.3233125 
1 1:0.23530273 2:-1.1014375 
1 1:0.28984375 2:-4.7261875 
1 1:0.25291602 2:-4.2434375 
1 1:0.20922266 2:-2.4875625 
1 1:0.18249414 2:-3.0206875 
1 1:0.2452207 2:-4.069625 
1 1:0.47007031 2:-3.4156875 
1 1:0.25875391 2:-3.735125 
1 1:0.25331055 2:-5.259125 
1 1:0.33484375 2:-4.3180625 
1 1:0.19809375 2:-3.069 
1 1:0.23054297 2:-3.08525 
1 1:0.22968555 2:-4.1193125 
1 1:0.39870508 2:-6.2614375 
1 1:0.33263477 2:-5.3505 
1 1:0.25126563 2:-2.5884375 
1 1:0.28254102 2:-2.7315 
1 1:0.24461719 2:-3.759875 
1 1:0.30981836 2:-2.747 
1 1:0.25489844 2:-3.386625 
1 1:0.28346094 2:-1.1570625 
1 1:0.26345898 2:-4.1485 
1 1:0.28462109 2:-2.889125 
1 1:0.1962832 2:-2.790375 
1 1:0.16263086 2:-2.6108125 
1 1:0.17793555 2:-1.9318125 
1 1:0.28441602 2:-4.591875 
1 1:0.29831641 2:-1.8839375 
1 1:0.32322461 2:-4.9383125 
1 1:0.22491602 2:-2.3835 
1 1:0.29147852 2:-2.597125 
1 1:0.19753516 2:-3.424375 
1 1:0.27897461 2:-2.5580625 
1 1:0.43238867 2:-2.8535625 
1 1:0.32033984 2:-3.4545625 
1 1:0.27245117 2:-3.922625 
1 1:0.12591406 2:-1.9669375 
1 1:0.23814258 2:-3.4095 
1 1:0.3985957 2:-4.82175 
1 1:0.24329297 2:-3.091 
1 1:0.25313672 2:-2.7315 
1 1:0.27132227 2:-3.500875 
1 1:0.35445117 2:-2.0418125 
1 1:0.31777148 2:-5.3259375 
1 1:0.41664844 2:-5.8334375 
1 1:0.37456445 2:-3.8265 
1 1:0.29933008 2:-3.1620625 
1 1:0.17382031 2:-1.9191875 
1 1:0.16448242 2:-2.1161875 
1 1:0.37798242 2:-5.36075 
1 1:0.35523242 2:-5.1198125 
1 1:0.2519707 2:-2.6255625 
1 1:0.30011328 2:-3.26075 
1 1:0.2056543 2:-2.8788125 
1 1:0.2994707 2:-3.6604375 
1 1:0.28832227 2:-3.2866875 
1 1:0.12416602 2:-2.0903125 
1 1:0.11805469 2:-2.27 
1 1:0.17107227 2:-1.879375 
1 1:0.26833398 2:-4.8129375 
1 1:0.17469141 2:-2.1999375 
1 1:0.18063281 2:-1.7966875 
1 1:0.15491016 2:-3.04925 
1 1:0.23418945 2:-3.1060625 
1 1:0.34679102 2:-4.3859375 
1 1:0.18732031 2:-3.1871875 
1 1:0.24810742 2:-2.2230625 
1 1:0.20545117 2:-3.250625 
1 1:0.20155859 2:-2.3331875 
1 1:0.34156445 2:-3.5378125 
1 1:0.37650977 2:-3.31375 
1 1:0.35983789 2:-4.137 
1 1:0.18253516 2:-3.388375 
1 1:0.31178516 2:-2.6841875 
1 1:0.28626953 2:-2.63325 
1 1:0.3564082 2:-4.6351875 
1 1:0.29650781 2:-3.8868125 
1 1:0.31982812 2:-5.0585 
1 1:0.30227734 2:-2.2331875 
1 1:0.28037109 2:-1.59875 
1 1:0.21647656 2:-1.9361875 
1 1:0.24942188 2:-1.6803125 
1 1:0.25853125 2:-4.44175 
1 1:0.21929688 2:-1.9210625 
1 1:0.3401875 2:-1.4686875 
1 1:0.32116602 2:-1.6766875 
1 1:0.23394336 2:-2.904 
1 1:0.2692793 2:-4.3863125 
1 1:0.28656836 2:-5.2745 
1 1:0.34270508 2:-2.6396875 
1 1:0.22915234 2:-1.374375 
1 1:0.33480664 2:-2.5214375 
1 1:0.27562891 2:-3.6761875 
1 1:0.28976953 2:-3.163375 
1 1:0.34318555 2:-4.044125 
1 1:0.26531055 2:-4.804 
1 1:0.26812109 2:-3.9265625 
1 1:0.241125 2:-3.359 
1 1:0.35424609 2:-4.1588125 
1 1:0.1582793 2:-2.42875 
1 1:0.2905 2:-5.1194375 
1 1:0.20248633 2:-1.470125 
1 1:0.21135742 2:-2.489 
1 1:0.31603125 2:-3.776875 
1 1:0.23958398 2:-2.7159375 
1 1:0.34157617 2:-4.2260625 
1 1:0.36369141 2:-2.1930625 
1 1:0.32398242 2:-3.5039375 
1 1:0.20150586 2:-2.223875 
1 1:0.21023242 2:-3.081125 
1 1:0.38706445 2:-4.7500625 
1 1:0.25750977 2:-2.2086875 
1 1:0.3180957 2:-4.3368125 
1 1:0.31791016 2:-3.7708125 
1 1:0.48707422 2:-3.45225 
1 1:0.3085 2:-4.161875 
1 1:0.26771875 2:-2.972875 
1 1:0.22813086 2:-2.677875 
1 1:0.40599219 2:-2.685625 
1 1:0.27122852 2:-3.7273125 
1 1:0.20182617 2:-3.198125 
1 1:0.24357227 2:-2.9170625 
1 1:0.42968359 2:-4.415625 
1 1:0.27746094 2:-4.6858125 
1 1:0.16998047 2:-2.7985625 
1 1:0.11469336 2:-1.1860625 
1 1:0.34663867 2:-2.43325 
1 1:0.30842383 2:-5.3401875 
1 1:0.30995703 2:-2.99925 
1 1:0.36791797 2:-1.7798125 
1 1:0.38985742 2:-2.2789375 
1 1:0.32626953 2:-3.5511875 
1 1:0.2986543 2:-4.975125 
1 1:0.1933457 2:-2.478125 
1 1:0.19559961 2:-2.8805625 
1 1:0.22288086 2:-0.879125 
1 1:0.22076758 2:-3.50925 
1 1:0.44749609 2:-3.6575625 
1 1:0.18795117 2:-2.6435 
1 1:0.21619336 2:-3.8670625 
1 1:0.16503906 2:-2.1281875 
1 1:0.27644531 2:-2.738125 
1 1:0.21367188 2:-3.5629375 
1 1:0.22887305 2:-3.4574375 
1 1:0.23996094 2:-4.4979375 
1 1:0.34984961 2:-4.391 
1 1:0.29217773 2:-3.0855625 
1 1:0.45689844 2:-4.434625 
1 1:0.43435742 2:-3.4658125 
1 1:0.18168164 2:-1.866875 
1 1:0.1979668 2:-3.116375 
1 1:0.20913672 2:-3.9043125 
1 1:0.20894531 2:-4.481875 
1 1:0.22959961 2:-2.5274375 
1 1:0.24679883 2:-3.1264375 
1 1:0.27471484 2:-2.5206875 
1 1:0.32786133 2:-4.434 
1 1:0.30963086 2:-2.8083125 
1 1:0.38985547 2:-3.799625 
1 1:0.21798437 2:-2.28275 
1 1:0.26881055 2:-3.0364375 
1 1:0.20781641 2:-1.73425 
1 1:0.32364258 2:-0.9266875 
1 1:0.18230469 2:-3.516875 
1 1:0.20025195 2:-2.91475 
1 1:0.19434375 2:-2.10675 
1 1:0.17934961 2:-4.0168125 
1 1:0.23202734 2:-1.8263125 
1 1:0.29225195 2:-2.52325 
1 1:0.19449023 2:-2.5605 
1 1:0.22368359 2:-2.012125 
1 1:0.20332227 2:-4.2685625 
1 1:0.22722266 2:-2.2946875 
1 1:0.26252344 2:-3.743625 
1 1:0.17598047 2:-3.4860625 
1 1:0.29560156 2:-2.88125 
1 1:0.33454297 2:-4.7880625 
1 1:0.33392969 2:-4.0231875 
1 1:0.30508789 2:-5.8201875 
1 1:0.26403125 2:-4.804125 
1 1:0.19893359 2:-3.0593125 
1 1:0.25470508 2:-0.922875 
1 1:0.42402148 2:-4.7025625 
1 1:0.38944922 2:-2.8925625 
1 1:0.26929297 2:-2.8614375 
1 1:0.27592773 2:-3.5386875 
1 1:0.26537109 2:-3.0890625 
1 1:0.38280273 2:-4.365125 
1 1:0.23808984 2:-4.31375 
1 1:0.22843164 2:-2.9856875 
1 1:0.33358984 2:-2.0735 
1 1:0.47258203 2:-5.1478125 
1 1:0.27886328 2:-2.8150625 
1 1:0.33678711 2:-3.9640625 
1 1:0.24440234 2:-2.9349375 
1 1:0.29697656 2:-3.7760625 
1 1:0.25325586 2:-2.34125 
1 1:0.23811523 2:-3.25 
1 1:0.25968164 2:-4.701 
1 1:0.25855664 2:-4.6235625 
1 1:0.19732812 2:-3.4299375 
1 1:0.39165625 2:-3.201875 
1 1:0.23148828 2:-3.603875 
1 1:0.38961328 2:-2.5674375 
1 1:0.53747656 2:-5.9125 
1 1:0.49851172 2:-4.012375 
1 1:0.34680664 2:-2.6586875 
1 1:0.32651172 2:-2.089 
1 1:0.23910742 2:-3.884375 
1 1:0.22402539 2:-2.560375 
1 1:0.19187109 2:-2.8835625 
1 1:0.25475977 2:-3.0795 
1 1:0.34861719 2:-3.627625 
1 1:0.26051563 2:-3.0916875 
1 1:0.26091406 2:-2.994125 
1 1:0.18579297 2:-1.535625 
1 1:0.27365625 2:-5.3413125 
1 1:0.4163418 2:-3.113875 
1 1:0.25458203 2:-3.885375 
1 1:0.17887109 2:-3.1995625 
1 1:0.16845703 2:-3.3035 
1 1:0.1959375 2:-2.11625 
1 1:0.23158594 2:-3.2494375 
1 1:0.11993555 2:-1.763125 
1 1:0.19563672 2:-3.308 
1 1:0.34460352 2:-4.310625 
1 1:0.27666992 2:-2.86875 
1 1:0.18776562 2:-4.5545625 
1 1:0.22798828 2:-2.3349375 
1 1:0.22554688 2:-3.4891875 
1 1:0.20121484 2:-2.59925 
1 1:0.20608203 2:-3.458125 
1 1:0.20105078 2:-2.6285625 
1 1:0.30475 2:-3.782375 
1 1:0.30993359 2:-4.1353125 
1 1:0.26016406 2:-4.3838125 
1 1:0.2137168 2:-3.3163125 
1 1:0.4074082 2:-3.9875 
1 1:0.25452539 2:-1.412375 
1 1:0.27808203 2:-3.8909375 
1 1:0.24561719 2:-2.2079375 
1 1:0.28167578 2:-4.304125 
1 1:0.27562695 2:-4.340375 
1 1:0.24125 2:-3.3565 
1 1:0.23192383 2:-3.22575 
1 1:0.28276953 2:-4.7361875 
1 1:0.34100781 2:-3.5708125 
1 1:0.23352539 2:-3.975125 
1 1:0.34244141 2:-3.0976875 
1 1:0.13290039 2:-2.3090625 
1 1:0.36560547 2:-4.0115625 
1 1:0.25330078 2:-2.620125 
1 1:0.21359375 2:-2.771125 
1 1:0.32594336 2:-3.5015 
1 1:0.33538281 2:-3.271875 
1 1:0.27471094 2:-5.619875 
1 1:0.24695898 2:-2.8726875 
1 1:0.25708008 2:-4.588 
1 1:0.17051563 2:-3.0683125 
1 1:0.19397852 2:-3.848375 
1 1:0.19169922 2:-3.3955 
1 1:0.27269141 2:-2.4061875 
1 1:0.24682813 2:-3.020875 
1 1:0.21110352 2:-3.1179375 
1 1:0.31226367 2:-3.6335625 
1 1:0.3218125 2:-4.0596875 
1 1:0.34258594 2:-4.0031875 
1 1:0.3360625 2:-5.0768125 
1 1:0.18131836 2:-2.6103125 
1 1:0.16165234 2:-2.727625 
1 1:0.2047832 2:-4.6410625 
1 1:0.20130273 2:-2.4938125 
1 1:0.252875 2:-4.820875 
1 1:0.28405273 2:-2.7609375 
1 1:0.20524805 2:-3.2940625 
1 1:0.23007227 2:-3.1764375 
1 1:0.22306445 2:-2.1304375 
1 1:0.26711914 2:-3.2993125 
1 1:0.24388867 2:-4.0931875 
1 1:0.28783594 2:-4.0601875 
1 1:0.15414062 2:-2.2021875 
1 1:0.22633984 2:-2.71225 
1 1:0.24400781 2:-3.856625 
1 1:0.23644727 2:-3.2451875 
1 1:0.29218359 2:-3.6641875 
1 1:0.28443359 2:-2.0958125 
1 1:0.23073047 2:-1.6185625 
1 1:0.36822461 2:-3.207625 
1 1:0.2292832 2:-3.793375 
1 1:0.23611133 2:-4.131375 
1 1:0.43701758 2:-4.488375 
1 1:0.38616211 2:-3.214625 
1 1:0.31565234 2:-4.6780625 
1 1:0.19752148 2:-2.3913125 
1 1:0.22680664 2:-3.8293125 
1 1:0.17201758 2:-2.700875 
1 1:0.30742383 2:-3.268875 
1 1:0.27598047 2:-3.708 
1 1:0.29252734 2:-2.577 
1 1:0.27103711 2:-3.3648125 
1 1:0.32322656 2:-3.5009375 
1 1:0.22158984 2:-3.21225 
1 1:0.23028906 2:-4.82625 
1 1:0.17536328 2:-3.52325 
1 1:0.24296484 2:-4.9265625 
1 1:0.20635547 2:-3.31375 
1 1:0.20316992 2:-3.5863125 
1 1:0.34807617 2:-3.3745 
1 1:0.23117383 2:-1.6263125 
1 1:0.17340039 2:-2.8970625 
1 1:0.1824375 2:-2.253375 
1 1:0.22170898 2:-2.994125 
1 1:0.2059375 2:-3.43675 
1 1:0.18333789 2:-2.972125 
1 1:0.32995703 2:-5.0885625 
1 1:0.34518164 2:-3.089625 
1 1:0.21728125 2:-3.6040625 
1 1:0.24790234 2:-2.0054375 
1 1:0.24279883 2:-4.3206875 
1 1:0.16273437 2:-3.362 
1 1:0.14829883 2:-3.12725 
1 1:0.28289062 2:-4.6854375 
1 1:0.29769922 2:-3.3219375 
1 1:0.26974414 2:-2.4686875 
1 1:0.41063281 2:-3.0335 
1 1:0.27291406 2:-4.54875 
1 1:0.33769336 2:-4.9349375 
1 1:0.37672852 2:-2.83925 
1 1:0.27688086 2:-3.00525 
1 1:0.34779297 2:-3.0171875 
1 1:0.23342188 2:-3.4863125 
1 1:0.28263867 2:-4.5860625 
1 1:0.3217832 2:-2.419625 
1 1:0.39533594 2:-6.7176875 
1 1:0.28213672 2:-5.9331875 
1 1:0.32939453 2:-4.4934375 
1 1:0.32936133 2:-2.6848125 
1 1:0.32199414 2:-3.3899375 
1 1:0.21166602 2:-4.4863125 
1 1:0.28295508 2:-0.9159375 
1 1:0.28249219 2:-5.382 
1 1:0.37358398 2:-1.4289375 
1 1:0.45644531 2:-5.909 
1 1:0.28070703 2:-3.386625 
1 1:0.40866992 2:-6.1975625 
1 1:0.25119922 2:-4.5901875 
1 1:0.35639844 2:-5.66275 
1 1:0.29777344 2:-3.685375 
1 1:0.21851953 2:-2.33275 
1 1:0.32717578 2:-3.737625 
1 1:0.28992578 2:-2.24675 
1 1:0.35313672 2:-3.7525625 
1 1:0.24664258 2:-2.0425625 
1 1:0.38183594 2:-2.5176875 
1 1:0.36061719 2:-4.7583125 
1 1:0.24798438 2:-1.645375 
1 1:0.26118359 2:-3.87125 
1 1:0.16975977 2:-3.0816875 
1 1:0.33693945 2:-3.259875 
1 1:0.25019141 2:-3.5898125 
1 1:0.29958203 2:-3.055375 
1 1:0.23005273 2:-3.1355625 
1 1:0.26474414 2:-4.135375 
1 1:0.39456641 2:-5.40375 
1 1:0.33640234 2:-3.262875 
1 1:0.31878516 2:-2.9740625 
1 1:0.19802344 2:-3.217 
1 1:0.18999219 2:-2.8030625 
1 1:0.48124219 2:-4.2619375 
1 1:0.39850391 2:-5.1421875 
1 1:0.29498828 2:-3.6255 
1 1:0.22382227 2:-3.1024375 
1 1:0.63630273 2:-3.811125 
1 1:0.39998242 2:-5.83025 
1 1:0.30944727 2:-4.920875 
1 1:0.38100195 2:-4.0913125 
1 1:0.19657227 2:-2.5599375 
1 1:0.28523633 2:-5.0523125 
1 1:0.30372656 2:-3.7325 
1 1:0.34957617 2:-4.8681875 
1 1:0.22933008 2:-1.4585 
1 1:0.20953125 2:-2.31975 
1 1:0.33252148 2:-2.671125 
1 1:0.33732617 2:-2.0031875 
1 1:0.24621484 2:-2.1268125 
1 1:0.26848047 2:-2.389375 
1 1:0.20867188 2:-2.972625 
1 1:0.26129297 2:-3.4439375 
1 1:0.36631055 2:-4.4484375 
1 1:0.21107031 2:-2.5110625 
1 1:0.24078906 2:-3.714875 
1 1:0.36097656 2:-4.47375 
1 1:0.22273828 2:-3.67025 
1 1:0.21485938 2:-2.81125 
1 1:0.15041211 2:-2.840125 
1 1:0.26586328 2:-1.8378125 
1 1:0.16663672 2:-0.9226875 
1 1:0.33104102 2:-2.396 
1 1:0.24013281 2:-3.9851875 
1 1:0.29282812 2:-3.0000625 
1 1:0.21201367 2:-2.6100625 
1 1:0.25363281 2:-2.1921875 
1 1:0.31439063 2:-1.372 
1 1:0.32114258 2:-3.879125 
1 1:0.34213672 2:-2.21525 
1 1:0.31833984 2:-3.9101875 
1 1:0.18915625 2:-2.730375 
1 1:0.2424082 2:-4.52975 
1 1:0.12989258 2:-2.002875 
1 1:0.16420898 2:-2.2751875 
1 1:0.35279102 2:-1.1444375 
1 1:0.37254492 2:-3.54475 
1 1:0.32970117 2:-4.3779375 
1 1:0.32062891 2:-3.608625 
1 1:0.23587695 2:-3.104625 
1 1:0.20524414 2:-2.742625 
1 1:0.34828516 2:-4.4009375 
1 1:0.4075293 2:-3.602375 
1 1:0.27020117 2:-4.633875 
1 1:0.34442578 2:-4.14075 
1 1:0.28167188 2:-1.3150625 
1 1:0.33244727 2:-5.4505 
1 1:0.25854297 2:-1.9469375 
1 1:0.28335937 2:-5.64725 
1 1:0.21907617 2:-2.309 
1 1:0.20453516 2:-2.7575 
1 1:0.24589844 2:-2.381375 
1 1:0.38547461 2:-3.8594375 
1 1:0.18537305 2:-2.150125 
1 1:0.2485918 2:-3.072625 
1 1:0.2670332 2:-4.2991875 
1 1:0.32821484 2:-3.377375 
1 1:0.27573242 2:-2.024875 
1 1:0.27304883 2:-2.7235625 
1 1:0.35416211 2:-5.13225 
1 1:0.2853125 2:-2.308875 
1 1:0.35437891 2:-3.67175 
1 1:0.48145117 2:-3.388 
1 1:0.27879883 2:-4.7460625 
1 1:0.19296289 2:-2.1853125 
1 1:0.27455664 2:-1.5620625 
1 1:0.24530078 2:-2.4893125 
1 1:0.31470898 2:-5.022375 
1 1:0.37425977 2:-6.9378125 
1 1:0.18386523 2:-2.3635 
1 1:0.22955859 2:-3.2878125 
1 1:0.20196094 2:-2.5460625 
1 1:0.19316602 2:-1.945125 
1 1:0.24685352 2:-3.0428125 
1 1:0.24696484 2:-2.446625 
1 1:0.26777344 2:-3.47225 
1 1:0.25980469 2:-4.1055 
1 1:0.17983789 2:-2.21075 
1 1:0.44936328 2:-4.8013125 
1 1:0.41378516 2:-2.7640625 
1 1:0.3052793 2:-3.3136875 
1 1:0.20828906 2:-3.446375 
1 1:0.16669336 2:-3.11175 
1 1:0.24243945 2:-2.4279375 
1 1:0.55966797 2:-2.449125 
1 1:0.27969727 2:-5.0708125 
1 1:0.34248828 2:-3.007375 
1 1:0.26470703 2:-3.743375 
1 1:0.2560957 2:-3.5296875 
1 1:0.21010352 2:-2.54275 
1 1:0.33385547 2:-3.1575 
1 1:0.22311914 2:-3.4271875 
1 1:0.40074023 2:-6.8451875 
1 1:0.16269141 2:-2.1070625 
1 1:0.33954297 2:-2.632375 
1 1:0.25723242 2:-3.903625 
1 1:0.41551562 2:-4.2259375 
1 1:0.2454043 2:-2.608125 
1 1:0.16996094 2:-2.7726875 
1 1:0.27501172 2:-4.4645625 
1 1:0.33283984 2:-3.3153125 
1 1:0.30686133 2:-6.5006875 
1 1:0.26757422 2:-3.5734375 
1 1:0.27630664 2:-2.03475 
1 1:0.30235937 2:-5.8390625 
1 1:0.24019922 2:-3.4763125 
1 1:0.4194082 2:-4.9998125 
1 1:0.28808594 2:-2.365375 
1 1:0.3371582 2:-3.8149375 
1 1:0.29001562 2:-3.314 
1 1:0.29567383 2:-3.2821875 
1 1:0.2689082 2:-3.412375 
1 1:0.24613477 2:-3.1555 
1 1:0.14553125 2:-1.92825 
1 1:0.25189063 2:-3.2545 
-0.3609825219077982 1:0.14435352 2:-2.1880625 
-0.758856596414818 1:0.22463867 2:-4.466625 
-0.9247063262048544 1:0.26739844 2:-3.47025 
-0.7819600402140761 1:0.17676562 2:-2.18075 
-0.5480448677798488 1:0.29141602 2:-3.130625 
-0.3315073172141471 1:0.23461914 2:-3.3475 
-0.03145323159732571 1:0.57900781 2:-2.849625 
-1 1:0.30213477 2:-3.89275 
-1 1:0.31656641 2:-2.7206875 
-1 1:0.31361914 2:-3.78425 
-0.2661121119605947 1:0.30116602 2:-3.454875 
-0.06063681007009092 1:0.41161914 2:-3.4816875 
-0.001834951764141785 1:0.29937891 2:-5.5686875 
-0.4590734884787973 1:0.29694531 2:-3.1875 
-1 1:0.3470957 2:-5.96525 
-1 1:0.18338477 2:-1.7868125 
-1 1:0.39408398 2:-5.8528125 
-1 1:0.38668359 2:-2.8516875 
-0.09397294948186599 1:0.21601367 2:-2.9423125 
-0.1966777287925699 1:0.29733594 2:-3.103625 
-1 1:0.36934766 2:-3.1859375 
-0.02670838318381567 1:0.22682812 2:-0.9900625 
-1 1:0.30149805 2:-3.2504375 
-1 1:0.20792578 2:-2.2953125 
-1 1:0.31355664 2:-4.3781875 
-0.888576828428286 1:0.25545898 2:-3.367125 
-0.5054882520390545 1:0.39345312 2:-2.227625 
-0.9658464931578001 1:0.28839453 2:-3.682625 
-1 1:0.17282227 2:-3.03875 
-0.9999999999999999 1:0.27570508 2:-1.7501875 
-1 1:0.27545117 2:-3.180875 
-0.1058617961836209 1:0.29000391 2:-4.12425 
-1 1:0.31611523 2:-3.318625 
-0.8709506812720343 1:0.2853125 2:-5.6540625 
-1 1:0.10989844 2:-1.7845 
-1 1:0.20691602 2:-3.74675 
-1 1:0.17995508 2:-2.70825 
-1 1:0.26169922 2:-2.8788125 
-1 1:0.23298633 2:-2.002375 
-1 1:0.22383594 2:-2.1114375 
-1 1:0.32070508 2:-4.3083125 
-0.02828269719873671 1:0.29344141 2:-5.347125 
-0.2377171605197132 1:0.24242383 2:-3.8374375 
-1 1:0.19375391 2:-2.2433125 
-1 1:0.34798633 2:-4.020125 
-0.06152454068649545 1:0.44145898 2:-2.5428125 
-0.3536514505319147 1:0.20066016 2:-0.89125 
-1 1:0.19016016 2:-2.035125 
-1 1:0.34317578 2:-3.28275 
-0.0008051048001945976 1:0.11248828 2:-0.94625 
-0.06625194810439761 1:0.22948242 2:-2.170625 
-1 1:0.24360156 2:-4.0944375 
-0.03635101304904582 1:0.17200195 2:-1.5355625 
-1 1:0.27144727 2:-4.3475 
-0.08176409488310118 1:0.11208398 2:-2.1299375 
-0.944402396942491 1:0.35231641 2:-2.5646875 
-1 1:0.18875977 2:-2.61775 
-0.3283595281054782 1:0.26806055 2:-2.1526875 
-1 1:0.27436719 2:-2.3890625 
-0.9764606547129603 1:0.22574414 2:-2.3684375 
-1 1:0.32558398 2:-5.3535625 
-1 1:0.33800977 2:-5.073625 
-0.3889947454800169 1:0.2579707 2:-2.818 
-1 1:0.29736914 2:-3.4948125 
-0.7478473365726637 1:0.21820898 2:-2.6646875 
-1 1:0.28378711 2:-2.2425 
-0.005278271631372036 1:0.32110547 2:-2.0231875 
-1 1:0.35166406 2:-3.349 
-0.01552112282625693 1:0.44421484 2:-2.4914375 
-0.002675972812420973 1:0.2959082 2:-2.391625 
-1 1:0.33640039 2:-2.6640625 
-0.03147343077614065 1:0.21958984 2:-2.6198125 
-0.02068213974181773 1:0.30784375 2:-3.0463125 
-1 1:0.38376562 2:-3.8575625 
-0.1024542622178668 1:0.35373438 2:-2.158625 
-1 1:0.1092793 2:-0.1195 
-0.9965515129741854 1:0.2551543 2:-2.345875 
-0.9483339045844011 1:0.33625781 2:-1.9894375 
-0.7614043224471734 1:0.3046875 2:-2.61025 
-1 1:0.3295625 2:-2.4216875 
-1 1:0.33897266 2:-5.44625 
-0.02238307712503633 1:0.30416992 2:-2.0409375 
-0.07291862483415917 1:0.15304688 2:-2.4975 
-1 1:0.18969141 2:-2.3571875 
-0.01644788131688472 1:0.35352734 2:-2.3345625 
-0.1107774236394923 1:0.16129102 2:-2.2840625 
-0.5188290783697257 1:0.3222207 2:-2.497375 
-1 1:0.27315234 2:-2.730375 
-1 1:0.17047266 2:-2.255125 
-0.1812080167182164 1:0.23729883 2:-1.4004375 
-1 1:0.21120898 2:-3.8875625 
-0.5122341542105946 1:0.15191211 2:-2.062875 
-0.1070378189115791 1:0.16104883 2:-3.1120625 
-0.767862621388162 1:0.18749023 2:-3.19425 
-1 1:0.32707617 2:-5.3795 
-1 1:0.31063477 2:-3.77025 
-1 1:0.28365039 2:-2.8665 
-1 1:0.30485937 2:-4.899375 
-0.9999999999999998 1:0.4319082 2:-4.9931875 
-1 1:0.3230332 2:-5.3358125 
-0.5574474096755958 1:0.27342773 2:-2.5523125 
-1 1:0.25826562 2:-1.6623125 
-0.9580119327375514 1:0.31220117 2:-1.354625 
-1 1:0.46158789 2:-6.3245 
-0.3589382605891324 1:0.35771094 2:-4.2160625 
-1 1:0.28666016 2:-4.5425625 
-0.002563635580614081 1:0.34599805 2:-2.140125 
-1 1:0.23962695 2:-3.3054375 
-1 1:0.24601367 2:-2.191 
-1 1:0.38256445 2:-3.61 
-1 1:0.16482422 2:-2.99575 
-1 1:0.29109961 2:-4.8304375 
-0.5083691834349964 1:0.35217578 2:-2.085125 
-1 1:0.16550391 2:-3.13475 
-1 1:0.37238281 2:-5.6673125 
-0.466543489035418 1:0.38500977 2:-1.758 
-1 1:0.3622207 2:-4.4836875 
-1 1:0.22565039 2:-2.6808125 
-1 1:0.27693164 2:-3.3294375 
-1 1:0.32582617 2:-5.0324375 
-0.01312063622031637 1:0.35406641 2:-3.704375 
-0.006145453659564477 1:0.4695332 2:-3.23875 
-0.0003582504421749533 1:0.53756055 2:-1.4563125 
-1 1:0.25118164 2:-1.898125 
-1 1:0.24236328 2:-2.9716875 
-1 1:0.23749609 2:-3.4766875 
-0.7742439890335899 1:0.16313281 2:-2.268625 
-0.2177733877102644 1:0.23810742 2:-3.604625 
-0.8290882428263554 1:0.24764258 2:-2.31925 
-0.4015622793373981 1:0.16411133 2:-2.5801875 
-0.3704471830200097 1:0.28378711 2:-4.067625 
-0.9799517904178803 1:0.16185547 2:-1.519125 
-1 1:0.1925 2:-3.0773125 
-1 1:0.3485918 2:-4.0465625 
-0.002826862922294754 1:0.1559375 2:-0.8766875 
-0.3649865293622403 1:0.35276562 2:-4.7933125 
-0.9728549537991054 1:0.20505078 2:-3.0623125 
-0.05021229125281733 1:0.40429687 2:-1.10175 
-1 1:0.21748633 2:-2.4785 
-1 1:0.3195957 2:-4.8738125 
-0.02684096132227047 1:0.18468164 2:-3.602 
-0.0661129706360629 1:0.12512305 2:-2.84225 
-1 1:0.2555332 2:-4.80425 
-0.002067915989493273 1:0.42557422 2:-2.0825625 
-1 1:0.18543555 2:-3.180375 
-1 1:0.18949023 2:-2.7203125 
-0.3545151686559092 1:0.29157422 2:-3.5221875 
-0.05757316459393458 1:0.21916016 2:-2.79625 
-0.2507039539506538 1:0.65594141 2:-2.2291875 
-0.8146988642263846 1:0.30238477 2:-4.3874375 
-1 1:0.30545898 2:-3.800375 
-0.9881266945564261 1:0.3482832 2:-5.8353125 
-1 1:0.40966797 2:-3.993875 
-0.06720226865393536 1:0.28426953 2:-2.9063125 
-0.5218281158009287 1:0.35253906 2:-2.61525 
-1 1:0.32357812 2:-3.277 
-1 1:0.13291602 2:-2.10625 
-0.03589170862235542 1:0.30735547 2:-1.987125 
-1 1:0.43250195 2:-4.395375 
-1 1:0.27411523 2:-3.071875 
-1 1:0.22775977 2:-4.160375 
-0.6300439591517414 1:0.22425781 2:-3.2 
-0.004908861478810943 1:0.19691602 2:-3.7170625 
-1 1:0.31275195 2:-2.2413125 
-1 1:0.27755664 2:-5.39075 
-0.8826151464187748 1:0.23359961 2:-3.19325 
-0.01016556398641259 1:0.14280859 2:-2.5488125 
-0.04962867438552906 1:0.10350977 2:-0.1501875 
-1 1:0.22850586 2:-1.869875 
-0.3719578136940115 1:0.28685352 2:-2.059875 
-1 1:0.48700977 2:-3.3898125 
-0.7129709268649822 1:0.20992187 2:-4.632125 
-1 1:0.22999023 2:-4.06075 
-1 1:0.2698418 2:-2.0849375 
-1 1:0.25077539 2:-1.1349375 
-1 1:0.41662305 2:-5.1686875 
-1 1:0.36931641 2:-4.372125 
-1 1:0.31426953 2:-4.364125 
-0.4839724461212704 1:0.30395312 2:-2.4815625 
-1 1:0.371 2:-3.200125 
-1 1:0.15704688 2:-3.08375 
-0.3506818672763107 1:0.28398047 2:-4.0013125 
-1 1:0.25672656 2:-1.856 
-0.2438763148577872 1:0.16949023 2:-1.1785 
-0.001463462553566029 1:0.47037109 2:-1.6984375 
-1 1:0.40182227 2:-3.1219375 
-1 1:0.32571484 2:-2.687 
-1 1:0.27933008 2:-2.861125 
-0.7746397312598046 1:0.25565625 2:-1.4544375 
-1 1:0.22255859 2:-2.02525 
-0.5797436033825757 1:0.14883398 2:-2.7278125 
-0.5682347970751986 1:0.30467383 2:-2.7651875 
-1 1:0.35457227 2:-3.133 
-1 1:0.33180273 2:-4.425125 
-1 1:0.30118164 2:-2.975875 
-1 1:0.2563418 2:-2.9838125 
-1 1:0.25343945 2:-3.0164375 
-1 1:0.19023633 2:-2.2865 
-0.1505005984574326 1:0.14889258 2:-2.6009375 
-1 1:0.27866992 2:-3.1021875 
-0.524421479226938 1:0.19886328 2:-2.5488125 
-1 1:0.19649414 2:-3.4255 
-1 1:0.34758984 2:-4.6420625 
-0.06559718498213066 1:0.4820332 2:-1.2183125 
-0.4288352597284776 1:0.12210156 2:-2.33825 
-1 1:0.31465625 2:-3.7899375 
-1 1:0.22727734 2:-3.095375 
-1 1:0.20256055 2:-1.8050625 
-1 1:0.17264844 2:-2.9095625 
-0.8941268643802389 1:0.23301758 2:-2.77575 
-1 1:0.20287305 2:-3.1580625 
-0.006139932239573574 1:0.17018359 2:-2.38025 
-1 1:0.20826953 2:-2.767125 
-1 1:0.22986133 2:-2.7025625 
-0.0137859310352731 1:0.18523242 2:-3.55875 
-0.003522443229273292 1:0.38278711 2:-1.911375 
-0.1248391242036066 1:0.37021289 2:-3.356375 
-0.6583640171430892 1:0.24349805 2:-2.2509375 
-1 1:0.33543164 2:-4.2331875 
-1 1:0.20337109 2:-3.343875 
-0.0004547342757742255 1:0.10953125 2:-1.2106875 
-0.001333962463784166 1:0.073541016 2:-0.704625 
-0.2833062545713695 1:0.28279492 2:-1.9401875 
-0.634407817332188 1:0.57983398 2:-1.5735625 
-1 1:0.29967383 2:-4.1315625 
-1 1:0.27999414 2:-2.9005 
-1 1:0.1989707 2:-1.7538125 
-0.2522720777616668 1:0.26678906 2:-3.29475 
-1 1:0.27678516 2:-4.6961875 
-0.01459324315927317 1:0.13147852 2:-2.66425 
-0.1219425565107139 1:0.47977344 2:-3.13125 
-0.1398659814099564 1:0.14821484 2:-2.779125 
-1 1:0.17999219 2:-3.5201875 
-0.3656322137849353 1:0.24884961 2:-0.97475 
-1 1:0.20362305 2:-3.25075 
-0.02510173140251736 1:0.30563672 2:-5.15925 
-0.004401536862332467 1:0.36126172 2:-3.423875 
-1 1:0.17897656 2:-3.216625 
-1 1:0.16884961 2:-3.4281875 
-0.5473519232408243 1:0.17573242 2:-3.1003125 
-0.01928595364541376 1:0.29137109 2:-5.3916875 
-0.2845650052280181 1:0.29455273 2:-1.8113125 
-1 1:0.1800625 2:-2.518875 
-0.1183972808859337 1:0.067634766 2:-1.410875 
-0.9290208422536532 1:0.33136133 2:-4.273 
-0.01183472031610946 1:0.46235742 2:-5.634125 
-1 1:0.43891406 2:-2.859 
-1 1:0.36124023 2:-3.3540625 
-1 1:0.45269336 2:-4.4751875 
-0.04776251066101136 1:0.40038086 2:-2.0874375 
-1 1:0.26485742 2:-2.1836875 
-0.1579829771426315 1:0.17601953 2:-3.165375 
-0.6074600887665511 1:0.38073633 2:-3.9090625 
-0.02658630774169731 1:0.28158398 2:-3.5241875 
-0.2337479887260004 1:0.16944336 2:-2.302875 
-1 1:0.33193359 2:-3.9718125 
-1 1:0.24345117 2:-3.248125 
-0.8295855859464811 1:0.3564043 2:-3.6638125 
-1 1:0.44560547 2:-3.518625 
-0.3039175606935426 1:0.45062109 2:-1.7868125 
-0.1049554449527005 1:0.21762109 2:-0.919625 
-0.006101281554310445 1:0.14162305 2:-1.396 
-0.3529906249073476 1:0.24077344 2:-3.4290625 
-1 1:0.30768945 2:-2.5954375 
-1 1:0.22320313 2:-2.806375 
-1 1:0.32263086 2:-4.926 
-0.1397941180394544 1:0.19616016 2:-0.8749375 
-0.05670723529271213 1:0.46813867 2:-1.7313125 
-1 1:0.26663086 2:-3.441375 
-1 1:0.19199219 2:-3.532125 
-0.6646168348563151 1:0.37616602 2:-4.028 
-0.04540135880079407 1:0.25164063 2:-3.43575 
-0.3761205247129578 1:0.24451562 2:-2.5500625 
-1 1:0.19193359 2:-1.929375 
-1 1:0.30986328 2:-2.678625 
-0.08483488680067673 1:0.29772266 2:-2.9845 
-0.09753640603183786 1:0.16531836 2:-0.9685 
-1 1:0.32907812 2:-1.86675 
-1 1:0.28352734 2:-3.212875 
-1 1:0.23229883 2:-2.5465625 
-0.9635806086145675 1:0.2688418 2:-2.9066875 
-1 1:0.25779102 2:-4.3279375 
-1 1:0.18485742 2:-3.0564375 
-0.9431964470087476 1:0.26034961 2:-2.928375 
-0.02772332007807042 1:0.26783984 2:-4.52525 
-1 1:0.20331055 2:-3.11325 
-1 1:0.20148437 2:-3.4808125 
-1 1:0.25285937 2:-4.1435625 
-0.04208000648174291 1:0.44216406 2:-4.5275 
-0.5560900677440518 1:0.43761719 2:-3.33625 
-0.8776867586431647 1:0.34103711 2:-3.227875 
-1 1:0.22388477 2:-2.2773125 
-0.001689812168972847 1:0.16909375 2:-2.936 
-1 1:0.37757422 2:-4.804125 
-0.01154278162433259 1:0.12839844 2:-1.844625 
-0.9172199439008081 1:0.23153711 2:-4.829875 
-1 1:0.23161719 2:-3.56975 
-1 1:0.2800332 2:-3.6730625 
-1 1:0.30330469 2:-2.7196875 
-1 1:0.30875 2:-3.484375 
-0.001574556891543926 1:0.38089258 2:-4.9790625 
-0.1372811091326258 1:0.18467578 2:-2.040125 
-1 1:0.26800977 2:-2.4195 
-1 1:0.25274414 2:-3.2659375 
-1 1:0.29695703 2:-4.6118125 
-1 1:0.35126758 2:-4.4229375 
-0.1217862947371881 1:0.20746289 2:-3.017875 
-0.1116881822827376 1:0.27487305 2:-4.0334375 
-1 1:0.23367578 2:-2.1321875 
-1 1:0.23607227 2:-3.982375 
-0.003519452644079722 1:0.18136328 2:-3.9119375 
-0.7996082541125205 1:0.31408984 2:-5.2239375 
-1 1:0.24269336 2:-4.49325 
-1 1:0.18350195 2:-2.1923125 
-1 1:0.26228125 2:-1.668 
-1 1:0.3324668 2:-3.562 
-1 1:0.19701367 2:-2.13925 
-1 1:0.33487109 2:-3.044875 
-0.004566370442464244 1:0.31833008 2:-2.2700625 
-0.01470767128403629 1:0.49685547 2:-1.6393125 
-1 1:0.24230469 2:-3.88125 
-1 1:0.23039844 2:-3.1139375 
-1 1:0.25456445 2:-3.6688125 
-0.002341552697915361 1:0.20848437 2:-3.6273125 
-0.975311076754206 1:0.3394668 2:-2.1010625 
-1 1:0.25320117 2:-3.239875 
-1 1:0.17408984 2:-3.10925 
-0.2231011499852908 1:0.29427539 2:-5.2129375 
-0.9883717153883452 1:0.25951563 2:-3.7545625 
-0.5361171302245171 1:0.41301172 2:-4.127 
-0.466239921467824 1:0.2320293 2:-1.118875 
-1 1:0.18617969 2:-3.2291875 
-1 1:0.30161523 2:-4.6424375 
-0.05381135901708173 1:0.17592578 2:-2.996875 
-0.01901561326852739 1:0.28953516 2:-4.65275 
-0.009580840386936315 1:0.32645508 2:-5.77125 
-0.08410747860441486 1:0.20406445 2:-1.2705625 
-1 1:0.41641016 2:-4.679 
-1 1:0.20323047 2:-3.2955625 
-1 1:0.27363867 2:-2.9935 
-0.9784327321948328 1:0.29000781 2:-4.585125 
-1 1:0.31787891 2:-2.8479375 
-0.9819536292764046 1:0.24168555 2:-5.2645625 
-1 1:0.28100586 2:-4.2859375 
-0.1010056560359344 1:0.1847168 2:-3.0435625 
-1 1:0.47579297 2:-3.768875 
-1 1:0.30931641 2:-2.750125 
-0.7876229323286758 1:0.37639453 2:-2.792375 
-1 1:0.1924707 2:-2.783375 
-0.01778543338748968 1:0.47471289 2:-1.781 
-1 1:0.27312891 2:-4.0998125 
-0.0002457364920914493 1:0.64953711 2:-2.5906875 
-1 1:0.20885547 2:-2.3333125 
-0.04652914562997218 1:0.32141992 2:-2.232125 
-0.4726321551132299 1:0.4513125 2:-2.75075 
-0.9095312955095995 1:0.26035937 2:-1.318125 
-0.3657416587845967 1:0.19900977 2:-1.1204375 
-0.07996792260831481 1:0.40728906 2:-2.4464375 
-1 1:0.30874805 2:-3.3035 
-0.2501628297379902 1:0.15376367 2:-2.8881875 
-0.9930857829565028 1:0.29395313 2:-2.5784375 
-1 1:0.17305469 2:-1.5033125 
-1 1:0.20646875 2:-2.1166875 
-1 1:0.14578711 2:-2.0193125 
-1 1:0.20718359 2:-3.8455625 
-1 1:0.12099414 2:-1.974625 
-1 1:0.17536328 2:-2.5829375 
-0.03800377953043185 1:0.13873633 2:-2.1679375 
-1 1:0.40830859 2:-5.9036875 
-1 1:0.21823438 2:-2.610625 
-0.0044633574599407 1:0.15175 2:-2.97025 
-0.3363304824446113 1:0.38328516 2:-4.62175 
-0.006914217043497183 1:0.32691016 2:-2.5905 
-1 1:0.35916211 2:-3.00925 
-0.9950836987481033 1:0.20204688 2:-3.360375 
-0.5967534620669329 1:0.25084766 2:-3.399625 
-0.7901650315797607 1:0.46006445 2:-4.03125 
-1 1:0.29425977 2:-3.531625 
-1 1:0.18891602 2:-2.479875 
-0.5034230027161372 1:0.33852344 2:-3.2181875 
-1 1:0.22622461 2:-3.44825 
-1 1:0.21264844 2:-2.9796875 
-1 1:0.31517969 2:-4.672375 
-1 1:0.19359766 2:-3.0270625 
-0.0005950021097021157 1:0.088455078 2:-2.1455 
-0.01136058043170232 1:0.4660332 2:-3.523875 
-0.02444395748285031 1:0.28069141 2:-5.3175625 
-0.9333972364154717 1:0.26863672 2:-3.92925 
-0.1617212633268919 1:0.33615625 2:-4.82075 
-1 1:0.37671289 2:-4.9030625 
-0.6896392258848307 1:0.27839453 2:-2.256625 
-1 1:0.16407617 2:-2.637875 
-1 1:0.25674023 2:-4.3780625 
-0.002738858295879844 1:0.17954883 2:-3.3505625 
-1 1:0.29611914 2:-4.7405 
-1 1:0.19264258 2:-2.876 
-1 1:0.18132617 2:-3.2220625 
-1 1:0.27832031 2:-3.4939375 
-1 1:0.20948242 2:-3.10625 
-1 1:0.29553906 2:-3.6444375 
-1 1:0.26292969 2:-2.64375 
-0.01199170167797105 1:0.32569141 2:-1.9805 
-1 1:0.27375977 2:-5.0396875 
-1 1:0.32245703 2:-3.907375 
-1 1:0.31895703 2:-3.3794375 
-0.8004752187191989 1:0.30638672 2:-3.60425 
-0.9230935725424946 1:0.22771875 2:-1.64375 
-0.5464799513119855 1:0.16963086 2:-3.181375 
-1 1:0.30602148 2:-4.477625 
-1 1:0.40238867 2:-4.4288125 
-1 1:0.33367383 2:-4.751375 
-1 1:0.21819531 2:-2.891375 
-0.9999999999999999 1:0.27311133 2:-4.796125 
-0.01090104454268355 1:0.14104297 2:-2.236375 
-0.589392367877683 1:0.21941992 2:-4.12225 
-0.4543136955464455 1:0.29571094 2:-2.205125 
-0.1344951478430807 1:0.33814844 2:-3.5335 
-1 1:0.38274023 2:-5.827375 
-0.7500942933480634 1:0.44792773 2:-5.903 
-1 1:0.17069531 2:-1.9250625 
-1 1:0.28618945 2:-3.7015625 
-1 1:0.22406641 2:-3.3175 
-1 1:0.33 2:-5.3965625 
-0.7643155478079272 1:0.43747852 2:-3.440125 
-1 1:0.18489648 2:-2.2105625 
-0.4732446808646997 1:0.26166016 2:-2.042 
-1 1:0.28428125 2:-3.5425 
-1 1:0.20431055 2:-3.3575625 
-1 1:0.32287109 2:-2.40375 
-1 1:0.22468359 2:-4.2766875 
-1 1:0.34345898 2:-3.634875 
-1 1:0.31027734 2:-5.6106875 
-1 1:0.23668945 2:-3.4695625 
-0.5829386205572832 1:0.25172266 2:-5.077125 
-1 1:0.28167578 2:-3.8419375 
-1 1:0.31989258 2:-1.6335625 
-1 1:0.1943125 2:-3.39925 
-1 1:0.27155469 2:-3.040875 
-1 1:0.15643164 2:-2.609 
-0.008879523556151545 1:0.23113867 2:-2.8440625 
-2.220446049250313e-16 1:0.32567383 2:-4.7173125 
-0.9999999999999998 1:0.30421484 2:-4.210125 
-1 1:0.32640039 2:-3.9146875 
-1 1:0.31301172 2:-2.7151875 
-0.4209857985436504 1:0.16494336 2:-2.7305625 
-0.004233714902614122 1:0.35314844 2:-5.3280625 
-0.004096513173082303 1:0.35870508 2:-2.239875 
-1 1:0.25422266 2:-2.438875 
-1 1:0.28783203 2:-5.12625 
-1 1:0.37899609 2:-6.203375 
-0.3650961178440898 1:0.16224609 2:-2.8259375 
-1 1:0.24639453 2:-3.246 
-0.4608780336174848 1:0.37616406 2:-3.7056875 
-1 1:0.39700391 2:-2.647125 
-0.7420373183531807 1:0.25590625 2:-4.9785625 
-1 1:0.38800586 2:-4.0814375 
-0.07389418179706764 1:0.15599219 2:-0.976125 
-0.1414866110509673 1:0.19032617 2:-3.7165 
-0.4257489620545867 1:0.25349023 2:-4.5400625 
-1 1:0.2839375 2:-3.751 
-1 1:0.23816016 2:-3.161375 
-1 1:0.35650586 2:-5.135 
-1 1:0.21389453 2:-2.7635625 
-1 1:0.4066875 2:-5.1200625 
-1 1:0.24638867 2:-2.7195625 
-1 1:0.23267969 2:-4.1489375 
-1 1:0.26486133 2:-3.8655625 
-1 1:0.23749609 2:-3.3665625 
-1 1:0.32280273 2:-2.0461875 
-0.9967659274675432 1:0.25026758 2:-2.719625 
-1 1:0.19875 2:-2.709875 
-1 1:0.28462695 2:-4.9796875 
-0.01988903330106591 1:0.25994336 2:-3.6735 
-1 1:0.31235938 2:-3.728625 
-0.03005440702384104 1:0.096158203 2:-2.4403125 
-0.2522182870790271 1:0.30969531 2:-4.8235625 
-1 1:0.19564844 2:-3.46 
-1 1:0.22701367 2:-3.6714375 
-1 1:0.34041602 2:-3.856875 
-1 1:0.22355273 2:-2.8776875 
-0.6245956642138739 1:0.3072793 2:-4.848875 
-0.84164281902111 1:0.13230078 2:-1.8993125 
-0.4133713234720676 1:0.33467969 2:-3.48525 
-0.9512038490887798 1:0.25717773 2:-2.1083125 
-1 1:0.19644141 2:-2.87675 
-1 1:0.30219531 2:-2.524375 
-0.02452042298288767 1:0.23221289 2:-4.4115625 
-1 1:0.23557227 2:-1.9678125 
-0.0003039468761735471 1:0.11510742 2:-2.670625 
-1 1:0.20242773 2:-2.74125 
-0.003832346353105617 1:0.076214844 2:-0.8195 
-1 1:0.34413281 2:-2.960375 
-0.6110052545199829 1:0.31198242 2:-2.8375 
-0.8395977019815116 1:0.43593359 2:-4.35875 
-0.6216898772487409 1:0.25038867 2:-3.137 
-0.06949040774222601 1:0.19669336 2:-2.1111875 
-1 1:0.26255859 2:-3.6566875 
-0.9118445126045176 1:0.2154375 2:-2.541125 
-0.1338254349337063 1:0.19974219 2:-2.46175 
-1 1:0.20821484 2:-2.039 
-1 1:0.18863477 2:-2.969625 
-1 1:0.17387305 2:-3.586375 
-0.03994419568057037 1:0.52775391 2:-2.3980625 
-0.1813037192927309 1:0.24451758 2:-2.7610625 
-0.9612865400824002 1:0.23406836 2:-3.316875 
-0.6781841231655429 1:0.36196094 2:-4.796 
-1 1:0.32638281 2:-2.101875 
-1 1:0.32921094 2:-5.0735625 
-0.3413184359041507 1:0.16991992 2:-2.7774375 
-0.2226791159738286 1:0.28778516 2:-4.2623125 
-2.220446049250313e-16 1:0.25627734 2:-1.8748125 
-0.8209442736565061 1:0.27545312 2:-2.4158125 
-1 1:0.26649414 2:-2.323875 
-1 1:0.3078125 2:-3.290375 
-0.8365177994174793 1:0.25304492 2:-2.577 
-0.9237536767703851 1:0.26742578 2:-5.334625 
-1 1:0.40748633 2:-4.45825 
-1 1:0.29189063 2:-3.62475 
-1 1:0.2967832 2:-3.249875 
-1 1:0.17468945 2:-3.070375 
-0.02461783205086521 1:0.087019531 2:-2.105 
-1 1:0.35793945 2:-3.3578125 
-0.0009440949450002165 1:0.15125977 2:-2.6233125 
-1 1:0.33401758 2:-3.5395 
-1 1:0.3845 2:-6.7055 
-1 1:0.33051172 2:-3.44125 
-0.007965719869954764 1:0.1085 2:-1.054 
-1 1:0.29471289 2:-3.5785625 
-0.006482973865185762 1:0.22076563 2:-0.85375 
-0.2463558948028953 1:0.33593555 2:-1.454375 
-1 1:0.28694336 2:-2.7929375 
-1 1:0.24137305 2:-3.8963125 
-0.0253600256419892 1:0.44727148 2:-5.6630625 
-1 1:0.23787109 2:-4.0896875 
-0.977565657100126 1:0.38234766 2:-2.281625 
-1 1:0.31888086 2:-3.5965625 
-0.5518171608151318 1:0.2569082 2:-4.61875 
-0.132461447497383 1:0.49887891 2:-3.0599375 
-0.9999999999999993 1:0.16499609 2:-2.9005 
-1 1:0.26847266 2:-2.5329375 
-0.003821853767031233 1:0.25075391 2:-3.267625 
-0.1433564154364522 1:0.43425977 2:-1.4025 
-0.01275464444949291 1:0.49054687 2:-1.1923125 
-1 1:0.26769531 2:-4.6426875 
-1 1:0.25650781 2:-4.108625 
-1 1:0.29880859 2:-4.723125 
-0.8199160639581963 1:0.43258789 2:-3.1353125 
-0.8174640191341955 1:0.3109375 2:-4.4159375 
-1 1:0.29719141 2:-4.0711875 
-1 1:0.28121875 2:-5.2725 
-0.09941325266739529 1:0.079349609 2:-1.6896875 
-1 1:0.31170117 2:-5.809375 
-1 1:0.24784766 2:-3.7591875 
-0.9980362503883803 1:0.27027148 2:-4.435875 
-1 1:0.20846289 2:-1.83875 
-0.0660824642446555 1:0.41257227 2:-1.71725 
-0.9936486741045156 1:0.434875 2:-4.560125 
-1 1:0.43825586 2:-2.51575 
-0.4122032702924959 1:0.2629043 2:-3.59625 
-0.2080507796455122 1:0.23986133 2:-2.677 
-0.9627978430326054 1:0.1204707 2:-2.2618125 
-0.4201716632040967 1:0.29330469 2:-2.6145 
-1 1:0.25762891 2:-4.3735 
-6.661338147750939e-16 1:0.14902148 2:-2.405 
-0.05135569059411008 1:0.11264453 2:-1.797 
-1 1:0.21791797 2:-3.83625 
-0.09813882920990485 1:0.36560547 2:-5.119625 
-0.8767594393875789 1:0.40345508 2:-5.1710625 
-0.160008935908613 1:0.3658125 2:-1.961625 
-1 1:0.3132207 2:-2.439 
-0.5417143888280422 1:0.30670117 2:-1.691 
-1 1:0.29119141 2:-3.1743125 
-1 1:0.32254492 2:-3.2290625 
-1 1:0.31914844 2:-4.2864375 
-0.01304116100742336 1:0.29705078 2:-1.08675 
-1 1:0.24187695 2:-2.55675 
-1 1:0.25369141 2:-3.0723125 
-0.05550863839159188 1:0.23804687 2:-3.332625 
-1 1:0.34460547 2:-4.783125 
-0.4504659710890826 1:0.11855664 2:-2.1941875 
-1 1:0.17753906 2:-2.79 
-0.887324562365842 1:0.31331641 2:-3.9036875 
-1 1:0.27748437 2:-4.232625 
-0.2346503665169788 1:0.26060352 2:-0.900625 
-0.7170514044903098 1:0.17530078 2:-0.9114375 
-0.3309527606334565 1:0.32876367 2:-2.7605 
-1 1:0.36598633 2:-2.9008125 
-0.8650629513182077 1:0.40342578 2:-6.348125 
-0.9990697334234204 1:0.23747656 2:-3.9735 
-1 1:0.34011523 2:-4.4020625 
-1 1:0.28536914 2:-4.698875 
-0.3987905545783041 1:0.22978125 2:-3.6273125 
-1 1:0.19501367 2:-2.6203125 
-1 1:0.24066016 2:-2.2091875 
-1 1:0.25251953 2:-4.5294375 
-1 1:0.18887891 2:-3.604375 
-1 1:0.25153516 2:-2.034125 
-0.9983991298299072 1:0.28387695 2:-3.0823125 
-1 1:0.29637891 2:-4.25375 
-0.4170613794427163 1:0.35592578 2:-5.0685625 
-1 1:0.30863281 2:-4.3255 
-1 1:0.27022461 2:-3.434875 
-0.303782596482023 1:0.30291602 2:-0.991625 
-0.03763294034254287 1:0.31554102 2:-1.5011875 
-1 1:0.22609766 2:-3.4574375 
-0.8933531059155694 1:0.24112305 2:-2.88025 
-0.01883015788961225 1:0.10355469 2:-1.358375 
-1 1:0.23308594 2:-1.8355 
-1 1:0.34263672 2:-3.112 
-1 1:0.28905078 2:-3.00425 
-0.576721032415038 1:0.25748828 2:-0.9090625 
-1 1:0.29331641 2:-4.4920625 
-0.7129753036741636 1:0.2550293 2:-2.693875 
-0.1008124422913449 1:0.32716602 2:-2.767 
-1 1:0.30524609 2:-3.7535625 
-1 1:0.27432422 2:-2.5110625 
-1 1:0.20570898 2:-3.3461875 
-0.02769111621160293 1:0.4495 2:-2.537375 
-0.06585844372259791 1:0.2174043 2:-3.4804375 
-1 1:0.23525781 2:-3.2718125 
-0.0088198526124659 1:0.11346094 2:-0.9969375 
-1 1:0.3448418 2:-4.1620625 
-0.6029948746902971 1:0.4310957 2:-3.0286875 
-1 1:0.26429297 2:-4.2974375 
-0.006390040887206517 1:0.4512207 2:-2.2161875 
-0.1373405267752846 1:0.21286523 2:-2.987 
-1 1:0.39371289 2:-5.3565 
-0.435445884822311 1:0.21882617 2:-0.8991875 
-1 1:0.27323828 2:-3.409 
-1 1:0.18985547 2:-2.84425 
-0.01028924992638097 1:0.35423242 2:-3.837 
-1 1:0.32971875 2:-3.6864375 
-1 1:0.2912832 2:-3.3300625 
-1 1:0.25959375 2:-4.4963125 
-1 1:0.43663086 2:-4.5245 
-1 1:0.28565039 2:-3.8091875 
-1 1:0.30180859 2:-2.16275 
-1 1:0.23851953 2:-4.312625 
-1 1:0.27366016 2:-3.7085625 
-1 1:0.27574414 2:-3.3558125 
-0.03042272808812885 1:0.35397656 2:-1.859625 
-1 1:0.29921875 2:-5.0480625 
-0.9486238594324216 1:0.24925391 2:-4.0321875 
-0.6295528169799908 1:0.29440625 2:-4.072 
-0.02443415299405736 1:0.5656875 2:-1.8881875 
-0.2168737192096251 1:0.046820312 2:-0.9586875 
-0.006401918080196075 1:0.3006875 2:-3.8331875 
-0.6606318359070349 1:0.31645703 2:-4.6393125 
-0.5632024293524912 1:0.21903711 2:-2.3874375 
-1 1:0.21078516 2:-3.50975 
-1 1:0.25639453 2:-2.3706875 
-0.6289958292631258 1:0.27562305 2:-3.7109375 
-1 1:0.20561914 2:-2.3905625 
-1 1:0.24608203 2:-2.3425625 
-1 1:0.38394531 2:-3.999875 
-0.1308885591481144 1:0.17983594 2:-1.146625 
-0.02577819818705806 1:0.21400977 2:-3.7804375 
-1 1:0.24474805 2:-3.388625 
-1 1:0.41775391 2:-2.2223125 
-0.05182082601140826 1:0.11748047 2:-2.1705 
-0.8794315513118006 1:0.24755078 2:-4.476 
-1 1:0.20381836 2:-2.5619375 
-0.7537151702982384 1:0.32654883 2:-4.3288125 
-0.03074999412405796 1:0.27030078 2:-1.6701875 
-1 1:0.24578125 2:-3.537125 
-0.9999999999999993 1:0.29326953 2:-4.7504375 
-0.1446597210801766 1:0.28910742 2:-3.9309375 
-0.1230231035546749 1:0.18031055 2:-3.44725 
-0.1004234903106829 1:0.18764453 2:-4.048125 
-0.9914430881372716 1:0.22599414 2:-1.5581875 
-0.1637674426052931 1:0.37239258 2:-3.290125 
-1 1:0.1760957 2:-3.3080625 
-0.27622132553948 1:0.30881445 2:-2.2698125 
-1 1:0.29321875 2:-3.302 
-1 1:0.39125781 2:-2.5903125 
-1 1:0.24329687 2:-3.3068125 
-1 1:0.2700332 2:-3.06725 
-0.07529162870953324 1:0.33197852 2:-4.3599375 
-0.9716181350489195 1:0.34260937 2:-1.451625 
-0.002606526819648174 1:0.33002344 2:-4.5489375 
-1 1:0.32796484 2:-5.77075 
-0.9628790100183997 1:0.32152344 2:-4.0238125 
-1 1:0.28 2:-4.6884375 
-0.4653390029608677 1:0.28196289 2:-3.4839375 
-1 1:0.22643555 2:-2.9925625 
-1 1:0.20046875 2:-2.5005 
-1 1:0.23964258 2:-3.02975 
-1 1:0.23572656 2:-3.5988125 
-0.034339444379804 1:0.5255957 2:-5.70775 
-0.04233432028310636 1:0.29725 2:-3.954375 
-0.6445632644205598 1:0.25701367 2:-2.2314375 
-1 1:0.23498242 2:-3.247 
-1 1:0.25719141 2:-3.743625 
-0.3741868031681422 1:0.35893164 2:-4.5775 
-0.2053074810265784 1:0.14244141 2:-2.752 
-1 1:0.20554492 2:-3.8453125 
-1 1:0.3027832 2:-1.9758125 
-0.1383622897546817 1:0.29420313 2:-1.9199375 
-0.08939135290638284 1:0.3429043 2:-4.523625 
-1 1:0.20847656 2:-2.4965625 
-0.8250427120155645 1:0.60116992 2:-1.4695625 
-0.1049144167244042 1:0.54976758 2:-0.798875 
-1 1:0.24304883 2:-3.1459375 
-1 1:0.26878906 2:-2.6270625 
-1 1:0.26645117 2:-3.9381875 
-0.635687182171103 1:0.21803711 2:-2.5533125 
-0.9124646453345884 1:0.20837891 2:-3.922875 
-0.01528905361298039 1:0.44528125 2:-3.1585 
-1 1:0.17652344 2:-2.8240625 
-1 1:0.27764062 2:-4.09275 
-1 1:0.13169336 2:-2.097 
-1 1:0.26779102 2:-3.713875 
-1 1:0.38399023 2:-4.735 
-0.304225591271926 1:0.17355273 2:-3.04975 
-1 1:0.27551563 2:-4.810875 
-0.1626130098745162 1:0.17580078 2:-1.0739375 
-0.8395076105157169 1:0.24606641 2:-4.011125 
-0.2287389337197301 1:0.28016797 2:-2.0644375 
-0.6634903387854538 1:0.27775586 2:-1.43175 
-0.2861210690988289 1:0.3381582 2:-5.9806875 
-1 1:0.33358203 2:-3.0415 
-0.9527598073282239 1:0.23399219 2:-2.62225 
-1 1:0.29649805 2:-4.5945 
-1 1:0.29299805 2:-3.0075 
-0.03200523601649698 1:0.12005273 2:-2.1151875 
-0.5990083368557441 1:0.2595918 2:-3.181375 
-0.006356692230421679 1:0.35310156 2:-2.948625 
-0.2574623137068907 1:0.39512695 2:-4.9090625 
-0.7519603145107259 1:0.41676953 2:-3.57375 
-1 1:0.22242773 2:-3.79525 
-0.01444899081661844 1:0.32204492 2:-2.8611875 
-1 1:0.42836523 2:-3.6604375 
-1 1:0.51585742 2:-6.6545 
-0.004292191618047184 1:0.23089453 2:-1.5915 
-1 1:0.32889453 2:-3.90775 
-1 1:0.42361328 2:-2.841875 
-0.00093026657657957 1:0.37932617 2:-3.9695 
-0.001499958979974447 1:0.52434375 2:-2.0265 
-1 1:0.39195898 2:-3.22275 
-0.6242690523764463 1:0.19591602 2:-3.3183125 
-0.2000313864134488 1:0.1242207 2:-2.5944375 
-1 1:0.40974609 2:-6.5911875 
-1 1:0.19191992 2:-3.187125 
-0.09219790326781217 1:0.24242187 2:-2.8604375 
-1 1:0.21165039 2:-2.319875 
-0.8186468642837402 1:0.40747852 2:-2.684 
-0.004305305898241901 1:0.13687305 2:-2.3974375 
-0.3358470053035374 1:0.35107031 2:-5.908875 
-1 1:0.24916992 2:-4.545 
-0.1107102153216374 1:0.31369727 2:-2.0728125 
-1 1:0.21091211 2:-2.560125 
-0.8323607996208775 1:0.34125391 2:-1.1159375 
-1 1:0.32591797 2:-3.0913125 
-1 1:0.28278906 2:-2.4069375 
-0.9686444691382391 1:0.32077539 2:-4.60375 
-1 1:0.27977539 2:-2.3631875 
-0.8666711387677456 1:0.33852734 2:-1.579375 
-1 1:0.39264844 2:-5.5818125 
-1 1:0.36439648 2:-3.8094375 
-0.150132810155552 1:0.49329102 2:-2.5065625 
-0.9579870063891689 1:0.35101172 2:-3.5235 
-1 1:0.37252148 2:-3.554625 
-1 1:0.18317383 2:-2.6414375 
-0.01872651677959946 1:0.27653906 2:-1.923375 
-1 1:0.31548633 2:-4.1495 
-1 1:0.22942383 2:-3.4251875 
-0.4389320570774051 1:0.1554707 2:-1.6245625 
-1 1:0.27089063 2:-2.5478125 
-1 1:0.36656836 2:-4.133375 
-0.9157818939784615 1:0.22366797 2:-1.3763125 
-0.3425933591908732 1:0.35899219 2:-4.406625 
-0.239948069192403 1:0.18711914 2:-2.3135 
-1 1:0.15616992 2:-2.4105 
-0.5379665585180009 1:0.14630273 2:-2.197625 
-1 1:0.24126758 2:-2.4735 
-0.1058731356197614 1:0.23984961 2:-2.801125 
-1 1:0.27514453 2:-3.4434375 
-0.008659496867868774 1:0.365375 2:-2.8435 
-1 1:0.25279492 2:-3.1105 
-1 1:0.39370508 2:-2.9211875 
-0.392257737621758 1:0.2762207 2:-0.91625 
