svm_type c_svc
kernel_type polynomial
degree 2
gamma 1
coef0 1
nr_class 2
total_sv 1109
rho 0.827309
label 1 -1
nr_sv 542 567
SV
1000 1:0.44066992 2:-4.3504375 
1000 1:0.27822461 2:-4.0888125 
1000 1:0.28741406 2:-4.3654375 
1000 1:0.18921094 2:-3.328375 
1000 1:0.34156641 2:-4.8388125 
1000 1:0.28816211 2:-3.75325 
1000 1:0.42295508 2:-4.58325 
1000 1:0.35011133 2:-4.5961875 
1000 1:0.30645703 2:-2.082 
1000 1:0.33792773 2:-3.1846875 
1000 1:0.41233789 2:-5.5705 
1000 1:0.35138672 2:-4.4420625 
1000 1:0.24904883 2:-4.0290625 
1000 1:0.26214258 2:-4.100125 
1000 1:0.27826172 2:-4.4676875 
1000 1:0.33248828 2:-2.502 
1000 1:0.36280664 2:-5.8456875 
1000 1:0.35701172 2:-4.0114375 
1000 1:0.33430859 2:-3.2810625 
1000 1:0.29611523 2:-5.2068125 
1000 1:0.32277539 2:-3.7033125 
1000 1:0.33418555 2:-2.956375 
1000 1:0.16690234 2:-2.8409375 
1000 1:0.33725781 2:-3.869 
1000 1:0.25451758 2:-1.7416875 
1000 1:0.30048633 2:-3.50575 
1000 1:0.24953906 2:-2.5758125 
1000 1:0.2707207 2:-4.2679375 
1000 1:0.37868359 2:-4.4215 
1000 1:0.22776367 2:-2.785125 
1000 1:0.33098047 2:-2.8483125 
1000 1:0.39789844 2:-2.9333125 
1000 1:0.31657031 2:-3.592375 
1000 1:0.21885156 2:-1.7906875 
1000 1:0.31800195 2:-2.7066875 
1000 1:0.19188281 2:-2.0279375 
1000 1:0.17126758 2:-2.6516875 
1000 1:0.29497461 2:-2.2556875 
1000 1:0.28387305 2:-3.2044375 
1000 1:0.40943945 2:-2.8265625 
1000 1:0.20573242 2:-2.702 
1000 1:0.34373047 2:-3.911375 
1000 1:0.24505859 2:-3.2475 
1000 1:0.26678516 2:-2.513375 
1000 1:0.25408203 2:-4.2065 
1000 1:0.3456543 2:-3.2239375 
1000 1:0.24648828 2:-3.09025 
1000 1:0.19146289 2:-3.1794375 
1000 1:0.32058789 2:-2.162375 
1000 1:0.343625 2:-3.1510625 
1000 1:0.30064063 2:-4.62675 
1000 1:0.25929492 2:-3.3233125 
1000 1:0.23530273 2:-1.1014375 
1000 1:0.28984375 2:-4.7261875 
1000 1:0.25291602 2:-4.2434375 
1000 1:0.20922266 2:-2.4875625 
1000 1:0.18249414 2:-3.0206875 
1000 1:0.2452207 2:-4.069625 
1000 1:0.47007031 2:-3.4156875 
1000 1:0.25875391 2:-3.735125 
1000 1:0.25331055 2:-5.259125 
1000 1:0.33484375 2:-4.3180625 
1000 1:0.19809375 2:-3.069 
1000 1:0.23054297 2:-3.08525 
1000 1:0.22968555 2:-4.1193125 
1000 1:0.39870508 2:-6.2614375 
1000 1:0.33263477 2:-5.3505 
1000 1:0.25126563 2:-2.5884375 
1000 1:0.28254102 2:-2.7315 
1000 1:0.24461719 2:-3.759875 
1000 1:0.30981836 2:-2.747 
1000 1:0.25489844 2:-3.386625 
1000 1:0.28346094 2:-1.1570625 
1000 1:0.26345898 2:-4.1485 
1000 1:0.28462109 2:-2.889125 
1000 1:0.1962832 2:-2.790375 
1000 1:0.16263086 2:-2.6108125 
1000 1:0.17793555 2:-1.9318125 
1000 1:0.28441602 2:-4.591875 
1000 1:0.29831641 2:-1.8839375 
1000 1:0.32322461 2:-4.9383125 
1000 1:0.22491602 2:-2.3835 
1000 1:0.29147852 2:-2.597125 
1000 1:0.19753516 2:-3.424375 
1000 1:0.27897461 2:-2.5580625 
1000 1:0.43238867 2:-2.8535625 
1000 1:0.32033984 2:-3.4545625 
1000 1:0.27245117 2:-3.922625 
1000 1:0.12591406 2:-1.9669375 
1000 1:0.23814258 2:-3.4095 
1000 1:0.3985957 2:-4.82175 
1000 1:0.24329297 2:-3.091 
1000 1:0.25313672 2:-2.7315 
1000 1:0.27132227 2:-3.500875 
1000 1:0.35445117 2:-2.0418125 
1000 1:0.31777148 2:-5.3259375 
1000 1:0.41664844 2:-5.8334375 
1000 1:0.37456445 2:-3.8265 
1000 1:0.29933008 2:-3.1620625 
1000 1:0.17382031 2:-1.9191875 
1000 1:0.16448242 2:-2.1161875 
1000 1:0.37798242 2:-5.36075 
1000 1:0.35523242 2:-5.1198125 
1000 1:0.2519707 2:-2.6255625 
1000 1:0.30011328 2:-3.26075 
1000 1:0.2056543 2:-2.8788125 
1000 1:0.2994707 2:-3.6604375 
1000 1:0.28832227 2:-3.2866875 
1000 1:0.12416602 2:-2.0903125 
1000 1:0.11805469 2:-2.27 
1000 1:0.17107227 2:-1.879375 
1000 1:0.26833398 2:-4.8129375 
1000 1:0.17469141 2:-2.1999375 
1000 1:0.18063281 2:-1.7966875 
1000 1:0.15491016 2:-3.04925 
1000 1:0.23418945 2:-3.1060625 
1000 1:0.34679102 2:-4.3859375 
1000 1:0.18732031 2:-3.1871875 
1000 1:0.24810742 2:-2.2230625 
1000 1:0.20545117 2:-3.250625 
1000 1:0.20155859 2:-2.3331875 
1000 1:0.34156445 2:-3.5378125 
1000 1:0.37650977 2:-3.31375 
1000 1:0.35983789 2:-4.137 
1000 1:0.18253516 2:-3.388375 
1000 1:0.31178516 2:-2.6841875 
1000 1:0.28626953 2:-2.63325 
1000 1:0.3564082 2:-4.6351875 
1000 1:0.29650781 2:-3.8868125 
1000 1:0.31982812 2:-5.0585 
1000 1:0.30227734 2:-2.2331875 
1000 1:0.28037109 2:-1.59875 
1000 1:0.21647656 2:-1.9361875 
1000 1:0.24942188 2:-1.6803125 
1000 1:0.25853125 2:-4.44175 
1000 1:0.21929688 2:-1.9210625 
1000 1:0.3401875 2:-1.4686875 
1000 1:0.32116602 2:-1.6766875 
1000 1:0.23394336 2:-2.904 
1000 1:0.2692793 2:-4.3863125 
1000 1:0.28656836 2:-5.2745 
1000 1:0.34270508 2:-2.6396875 
1000 1:0.22915234 2:-1.374375 
1000 1:0.33480664 2:-2.5214375 
1000 1:0.27562891 2:-3.6761875 
1000 1:0.28976953 2:-3.163375 
1000 1:0.34318555 2:-4.044125 
1000 1:0.26531055 2:-4.804 
1000 1:0.26812109 2:-3.9265625 
1000 1:0.241125 2:-3.359 
1000 1:0.35424609 2:-4.1588125 
1000 1:0.1582793 2:-2.42875 
1000 1:0.2905 2:-5.1194375 
1000 1:0.20248633 2:-1.470125 
1000 1:0.21135742 2:-2.489 
1000 1:0.31603125 2:-3.776875 
1000 1:0.23958398 2:-2.7159375 
1000 1:0.34157617 2:-4.2260625 
1000 1:0.36369141 2:-2.1930625 
1000 1:0.32398242 2:-3.5039375 
1000 1:0.20150586 2:-2.223875 
1000 1:0.21023242 2:-3.081125 
1000 1:0.38706445 2:-4.7500625 
1000 1:0.25750977 2:-2.2086875 
1000 1:0.3180957 2:-4.3368125 
1000 1:0.31791016 2:-3.7708125 
1000 1:0.48707422 2:-3.45225 
1000 1:0.3085 2:-4.161875 
1000 1:0.26771875 2:-2.972875 
1000 1:0.22813086 2:-2.677875 
1000 1:0.40599219 2:-2.685625 
1000 1:0.27122852 2:-3.7273125 
1000 1:0.20182617 2:-3.198125 
1000 1:0.24357227 2:-2.9170625 
1000 1:0.42968359 2:-4.415625 
1000 1:0.27746094 2:-4.6858125 
1000 1:0.16998047 2:-2.7985625 
1000 1:0.11469336 2:-1.1860625 
1000 1:0.34663867 2:-2.43325 
1000 1:0.30842383 2:-5.3401875 
1000 1:0.30995703 2:-2.99925 
1000 1:0.36791797 2:-1.7798125 
1000 1:0.38985742 2:-2.2789375 
1000 1:0.32626953 2:-3.5511875 
1000 1:0.2986543 2:-4.975125 
1000 1:0.1933457 2:-2.478125 
1000 1:0.19559961 2:-2.8805625 
1000 1:0.22288086 2:-0.879125 
1000 1:0.22076758 2:-3.50925 
1000 1:0.44749609 2:-3.6575625 
1000 1:0.18795117 2:-2.6435 
1000 1:0.21619336 2:-3.8670625 
1000 1:0.16503906 2:-2.1281875 
1000 1:0.27644531 2:-2.738125 
1000 1:0.21367188 2:-3.5629375 
1000 1:0.22887305 2:-3.4574375 
1000 1:0.23996094 2:-4.4979375 
1000 1:0.34984961 2:-4.391 
1000 1:0.29217773 2:-3.0855625 
1000 1:0.45689844 2:-4.434625 
1000 1:0.43435742 2:-3.4658125 
1000 1:0.18168164 2:-1.866875 
1000 1:0.1979668 2:-3.116375 
1000 1:0.20913672 2:-3.9043125 
1000 1:0.20894531 2:-4.481875 
1000 1:0.22959961 2:-2.5274375 
1000 1:0.24679883 2:-3.1264375 
1000 1:0.27471484 2:-2.5206875 
1000 1:0.32786133 2:-4.434 
1000 1:0.30963086 2:-2.8083125 
1000 1:0.38985547 2:-3.799625 
1000 1:0.21798437 2:-2.28275 
1000 1:0.26881055 2:-3.0364375 
1000 1:0.20781641 2:-1.73425 
1000 1:0.32364258 2:-0.9266875 
1000 1:0.18230469 2:-3.516875 
1000 1:0.20025195 2:-2.91475 
1000 1:0.19434375 2:-2.10675 
1000 1:0.17934961 2:-4.0168125 
1000 1:0.23202734 2:-1.8263125 
1000 1:0.29225195 2:-2.52325 
1000 1:0.19449023 2:-2.5605 
1000 1:0.22368359 2:-2.012125 
1000 1:0.20332227 2:-4.2685625 
1000 1:0.22722266 2:-2.2946875 
1000 1:0.26252344 2:-3.743625 
1000 1:0.17598047 2:-3.4860625 
1000 1:0.29560156 2:-2.88125 
1000 1:0.33454297 2:-4.7880625 
1000 1:0.33392969 2:-4.0231875 
1000 1:0.30508789 2:-5.8201875 
1000 1:0.26403125 2:-4.804125 
1000 1:0.19893359 2:-3.0593125 
1000 1:0.25470508 2:-0.922875 
1000 1:0.42402148 2:-4.7025625 
1000 1:0.38944922 2:-2.8925625 
1000 1:0.26929297 2:-2.8614375 
1000 1:0.27592773 2:-3.5386875 
1000 1:0.26537109 2:-3.0890625 
1000 1:0.38280273 2:-4.365125 
1000 1:0.23808984 2:-4.31375 
1000 1:0.22843164 2:-2.9856875 
1000 1:0.33358984 2:-2.0735 
1000 1:0.47258203 2:-5.1478125 
1000 1:0.27886328 2:-2.8150625 
1000 1:0.33678711 2:-3.9640625 
1000 1:0.24440234 2:-2.9349375 
1000 1:0.29697656 2:-3.7760625 
1000 1:0.25325586 2:-2.34125 
1000 1:0.23811523 2:-3.25 
1000 1:0.25968164 2:-4.701 
1000 1:0.25855664 2:-4.6235625 
1000 1:0.19732812 2:-3.4299375 
1000 1:0.39165625 2:-3.201875 
1000 1:0.23148828 2:-3.603875 
1000 1:0.38961328 2:-2.5674375 
1000 1:0.53747656 2:-5.9125 
1000 1:0.49851172 2:-4.012375 
1000 1:0.34680664 2:-2.6586875 
1000 1:0.32651172 2:-2.089 
1000 1:0.23910742 2:-3.884375 
1000 1:0.22402539 2:-2.560375 
1000 1:0.19187109 2:-2.8835625 
1000 1:0.25475977 2:-3.0795 
1000 1:0.34861719 2:-3.627625 
1000 1:0.26051563 2:-3.0916875 
1000 1:0.26091406 2:-2.994125 
1000 1:0.18579297 2:-1.535625 
1000 1:0.27365625 2:-5.3413125 
1000 1:0.4163418 2:-3.113875 
1000 1:0.25458203 2:-3.885375 
1000 1:0.17887109 2:-3.1995625 
1000 1:0.16845703 2:-3.3035 
1000 1:0.1959375 2:-2.11625 
1000 1:0.23158594 2:-3.2494375 
1000 1:0.11993555 2:-1.763125 
1000 1:0.19563672 2:-3.308 
1000 1:0.34460352 2:-4.310625 
1000 1:0.27666992 2:-2.86875 
1000 1:0.18776562 2:-4.5545625 
1000 1:0.22798828 2:-2.3349375 
1000 1:0.22554688 2:-3.4891875 
1000 1:0.20121484 2:-2.59925 
1000 1:0.20608203 2:-3.458125 
1000 1:0.20105078 2:-2.6285625 
1000 1:0.30475 2:-3.782375 
1000 1:0.30993359 2:-4.1353125 
1000 1:0.26016406 2:-4.3838125 
1000 1:0.2137168 2:-3.3163125 
1000 1:0.4074082 2:-3.9875 
1000 1:0.25452539 2:-1.412375 
1000 1:0.27808203 2:-3.8909375 
1000 1:0.24561719 2:-2.2079375 
1000 1:0.28167578 2:-4.304125 
1000 1:0.27562695 2:-4.340375 
1000 1:0.24125 2:-3.3565 
1000 1:0.23192383 2:-3.22575 
1000 1:0.28276953 2:-4.7361875 
1000 1:0.34100781 2:-3.5708125 
1000 1:0.23352539 2:-3.975125 
1000 1:0.34244141 2:-3.0976875 
1000 1:0.13290039 2:-2.3090625 
1000 1:0.36560547 2:-4.0115625 
1000 1:0.25330078 2:-2.620125 
1000 1:0.21359375 2:-2.771125 
1000 1:0.32594336 2:-3.5015 
1000 1:0.33538281 2:-3.271875 
1000 1:0.27471094 2:-5.619875 
1000 1:0.24695898 2:-2.8726875 
1000 1:0.25708008 2:-4.588 
1000 1:0.17051563 2:-3.0683125 
1000 1:0.19397852 2:-3.848375 
1000 1:0.19169922 2:-3.3955 
1000 1:0.27269141 2:-2.4061875 
1000 1:0.24682813 2:-3.020875 
1000 1:0.21110352 2:-3.1179375 
1000 1:0.31226367 2:-3.6335625 
1000 1:0.3218125 2:-4.0596875 
1000 1:0.34258594 2:-4.0031875 
1000 1:0.3360625 2:-5.0768125 
1000 1:0.18131836 2:-2.6103125 
1000 1:0.16165234 2:-2.727625 
1000 1:0.2047832 2:-4.6410625 
1000 1:0.20130273 2:-2.4938125 
1000 1:0.252875 2:-4.820875 
1000 1:0.28405273 2:-2.7609375 
1000 1:0.20524805 2:-3.2940625 
1000 1:0.23007227 2:-3.1764375 
1000 1:0.22306445 2:-2.1304375 
1000 1:0.26711914 2:-3.2993125 
1000 1:0.24388867 2:-4.0931875 
1000 1:0.28783594 2:-4.0601875 
1000 1:0.15414062 2:-2.2021875 
1000 1:0.22633984 2:-2.71225 
1000 1:0.24400781 2:-3.856625 
1000 1:0.23644727 2:-3.2451875 
1000 1:0.29218359 2:-3.6641875 
1000 1:0.28443359 2:-2.0958125 
1000 1:0.23073047 2:-1.6185625 
1000 1:0.36822461 2:-3.207625 
1000 1:0.2292832 2:-3.793375 
1000 1:0.23611133 2:-4.131375 
1000 1:0.43701758 2:-4.488375 
1000 1:0.38616211 2:-3.214625 
1000 1:0.31565234 2:-4.6780625 
1000 1:0.19752148 2:-2.3913125 
1000 1:0.22680664 2:-3.8293125 
1000 1:0.17201758 2:-2.700875 
1000 1:0.30742383 2:-3.268875 
1000 1:0.27598047 2:-3.708 
1000 1:0.29252734 2:-2.577 
1000 1:0.27103711 2:-3.3648125 
1000 1:0.32322656 2:-3.5009375 
1000 1:0.22158984 2:-3.21225 
1000 1:0.23028906 2:-4.82625 
1000 1:0.17536328 2:-3.52325 
1000 1:0.24296484 2:-4.9265625 
1000 1:0.20635547 2:-3.31375 
1000 1:0.20316992 2:-3.5863125 
1000 1:0.34807617 2:-3.3745 
1000 1:0.23117383 2:-1.6263125 
1000 1:0.17340039 2:-2.8970625 
1000 1:0.1824375 2:-2.253375 
1000 1:0.22170898 2:-2.994125 
1000 1:0.2059375 2:-3.43675 
1000 1:0.18333789 2:-2.972125 
1000 1:0.32995703 2:-5.0885625 
1000 1:0.34518164 2:-3.089625 
1000 1:0.21728125 2:-3.6040625 
1000 1:0.24790234 2:-2.0054375 
1000 1:0.24279883 2:-4.3206875 
1000 1:0.16273437 2:-3.362 
1000 1:0.14829883 2:-3.12725 
1000 1:0.28289062 2:-4.6854375 
1000 1:0.29769922 2:-3.3219375 
1000 1:0.26974414 2:-2.4686875 
1000 1:0.41063281 2:-3.0335 
1000 1:0.27291406 2:-4.54875 
1000 1:0.33769336 2:-4.9349375 
1000 1:0.37672852 2:-2.83925 
1000 1:0.27688086 2:-3.00525 
1000 1:0.34779297 2:-3.0171875 
1000 1:0.23342188 2:-3.4863125 
1000 1:0.28263867 2:-4.5860625 
1000 1:0.3217832 2:-2.419625 
1000 1:0.39533594 2:-6.7176875 
1000 1:0.28213672 2:-5.9331875 
1000 1:0.32939453 2:-4.4934375 
1000 1:0.32936133 2:-2.6848125 
1000 1:0.32199414 2:-3.3899375 
1000 1:0.21166602 2:-4.4863125 
1000 1:0.28295508 2:-0.9159375 
1000 1:0.28249219 2:-5.382 
1000 1:0.37358398 2:-1.4289375 
1000 1:0.45644531 2:-5.909 
1000 1:0.28070703 2:-3.386625 
1000 1:0.40866992 2:-6.1975625 
1000 1:0.25119922 2:-4.5901875 
1000 1:0.35639844 2:-5.66275 
1000 1:0.29777344 2:-3.685375 
1000 1:0.21851953 2:-2.33275 
1000 1:0.32717578 2:-3.737625 
1000 1:0.28992578 2:-2.24675 
1000 1:0.35313672 2:-3.7525625 
1000 1:0.24664258 2:-2.0425625 
1000 1:0.38183594 2:-2.5176875 
1000 1:0.36061719 2:-4.7583125 
1000 1:0.24798438 2:-1.645375 
1000 1:0.26118359 2:-3.87125 
1000 1:0.16975977 2:-3.0816875 
1000 1:0.33693945 2:-3.259875 
1000 1:0.25019141 2:-3.5898125 
1000 1:0.29958203 2:-3.055375 
1000 1:0.23005273 2:-3.1355625 
1000 1:0.26474414 2:-4.135375 
1000 1:0.39456641 2:-5.40375 
1000 1:0.33640234 2:-3.262875 
1000 1:0.31878516 2:-2.9740625 
1000 1:0.19802344 2:-3.217 
1000 1:0.18999219 2:-2.8030625 
1000 1:0.48124219 2:-4.2619375 
1000 1:0.39850391 2:-5.1421875 
1000 1:0.29498828 2:-3.6255 
1000 1:0.22382227 2:-3.1024375 
1000 1:0.63630273 2:-3.811125 
1000 1:0.39998242 2:-5.83025 
1000 1:0.30944727 2:-4.920875 
1000 1:0.38100195 2:-4.0913125 
1000 1:0.19657227 2:-2.5599375 
1000 1:0.28523633 2:-5.0523125 
1000 1:0.30372656 2:-3.7325 
1000 1:0.34957617 2:-4.8681875 
1000 1:0.22933008 2:-1.4585 
1000 1:0.20953125 2:-2.31975 
1000 1:0.33252148 2:-2.671125 
1000 1:0.33732617 2:-2.0031875 
1000 1:0.24621484 2:-2.1268125 
1000 1:0.26848047 2:-2.389375 
1000 1:0.20867188 2:-2.972625 
1000 1:0.26129297 2:-3.4439375 
1000 1:0.36631055 2:-4.4484375 
1000 1:0.21107031 2:-2.5110625 
1000 1:0.24078906 2:-3.714875 
1000 1:0.36097656 2:-4.47375 
1000 1:0.22273828 2:-3.67025 
1000 1:0.21485938 2:-2.81125 
1000 1:0.15041211 2:-2.840125 
1000 1:0.26586328 2:-1.8378125 
1000 1:0.16663672 2:-0.9226875 
1000 1:0.33104102 2:-2.396 
1000 1:0.24013281 2:-3.9851875 
1000 1:0.29282812 2:-3.0000625 
1000 1:0.21201367 2:-2.6100625 
1000 1:0.25363281 2:-2.1921875 
1000 1:0.31439063 2:-1.372 
1000 1:0.32114258 2:-3.879125 
1000 1:0.34213672 2:-2.21525 
1000 1:0.31833984 2:-3.9101875 
1000 1:0.18915625 2:-2.730375 
1000 1:0.2424082 2:-4.52975 
1000 1:0.12989258 2:-2.002875 
1000 1:0.16420898 2:-2.2751875 
1000 1:0.35279102 2:-1.1444375 
1000 1:0.37254492 2:-3.54475 
1000 1:0.32970117 2:-4.3779375 
1000 1:0.32062891 2:-3.608625 
1000 1:0.23587695 2:-3.104625 
1000 1:0.20524414 2:-2.742625 
1000 1:0.34828516 2:-4.4009375 
1000 1:0.4075293 2:-3.602375 
1000 1:0.27020117 2:-4.633875 
1000 1:0.34442578 2:-4.14075 
1000 1:0.28167188 2:-1.3150625 
1000 1:0.33244727 2:-5.4505 
1000 1:0.25854297 2:-1.9469375 
1000 1:0.28335937 2:-5.64725 
1000 1:0.21907617 2:-2.309 
1000 1:0.20453516 2:-2.7575 
1000 1:0.24589844 2:-2.381375 
1000 1:0.38547461 2:-3.8594375 
1000 1:0.18537305 2:-2.150125 
1000 1:0.2485918 2:-3.072625 
1000 1:0.2670332 2:-4.2991875 
1000 1:0.32821484 2:-3.377375 
1000 1:0.27573242 2:-2.024875 
1000 1:0.27304883 2:-2.7235625 
1000 1:0.35416211 2:-5.13225 
1000 1:0.2853125 2:-2.308875 
1000 1:0.35437891 2:-3.67175 
1000 1:0.48145117 2:-3.388 
1000 1:0.27879883 2:-4.7460625 
1000 1:0.19296289 2:-2.1853125 
1000 1:0.27455664 2:-1.5620625 
1000 1:0.24530078 2:-2.4893125 
1000 1:0.31470898 2:-5.022375 
1000 1:0.37425977 2:-6.9378125 
1000 1:0.18386523 2:-2.3635 
1000 1:0.22955859 2:-3.2878125 
1000 1:0.20196094 2:-2.5460625 
1000 1:0.19316602 2:-1.945125 
1000 1:0.24685352 2:-3.0428125 
1000 1:0.24696484 2:-2.446625 
1000 1:0.26777344 2:-3.47225 
1000 1:0.25980469 2:-4.1055 
1000 1:0.17983789 2:-2.21075 
1000 1:0.44936328 2:-4.8013125 
1000 1:0.41378516 2:-2.7640625 
1000 1:0.3052793 2:-3.3136875 
1000 1:0.20828906 2:-3.446375 
1000 1:0.16669336 2:-3.11175 
1000 1:0.24243945 2:-2.4279375 
1000 1:0.55966797 2:-2.449125 
1000 1:0.27969727 2:-5.0708125 
1000 1:0.34248828 2:-3.007375 
1000 1:0.26470703 2:-3.743375 
1000 1:0.2560957 2:-3.5296875 
1000 1:0.21010352 2:-2.54275 
1000 1:0.33385547 2:-3.1575 
1000 1:0.22311914 2:-3.4271875 
1000 1:0.40074023 2:-6.8451875 
1000 1:0.16269141 2:-2.1070625 
1000 1:0.33954297 2:-2.632375 
1000 1:0.25723242 2:-3.903625 
1000 1:0.41551562 2:-4.2259375 
1000 1:0.2454043 2:-2.608125 
1000 1:0.16996094 2:-2.7726875 
1000 1:0.27501172 2:-4.4645625 
1000 1:0.33283984 2:-3.3153125 
1000 1:0.30686133 2:-6.5006875 
1000 1:0.26757422 2:-3.5734375 
1000 1:0.27630664 2:-2.03475 
1000 1:0.30235937 2:-5.8390625 
1000 1:0.24019922 2:-3.4763125 
1000 1:0.4194082 2:-4.9998125 
1000 1:0.28808594 2:-2.365375 
1000 1:0.3371582 2:-3.8149375 
1000 1:0.29001562 2:-3.314 
1000 1:0.29567383 2:-3.2821875 
1000 1:0.2689082 2:-3.412375 
1000 1:0.24613477 2:-3.1555 
1000 1:0.14553125 2:-1.92825 
1000 1:0.25189063 2:-3.2545 
-1000 1:0.28954102 2:-4.644125 
-1000 1:0.29141602 2:-3.130625 
-1000 1:0.39012109 2:-2.077125 
-1000 1:0.30577539 2:-4.2723125 
-1000 1:0.32394141 2:-4.4250625 
-1000 1:0.30213477 2:-3.89275 
-1000 1:0.31656641 2:-2.7206875 
-1000 1:0.31361914 2:-3.78425 
-1000 1:0.30116602 2:-3.454875 
-1000 1:0.18338477 2:-1.7868125 
-1000 1:0.2812207 2:-4.057375 
-1000 1:0.36934766 2:-3.1859375 
-1000 1:0.30149805 2:-3.2504375 
-1000 1:0.20792578 2:-2.2953125 
-811.0384368564149 1:0.31355664 2:-4.3781875 
-1000 1:0.31866406 2:-3.081875 
-1000 1:0.39345312 2:-2.227625 
-1000 1:0.34135156 2:-3.9849375 
-1000 1:0.17282227 2:-3.03875 
-481.1713801404492 1:0.27570508 2:-1.7501875 
-1000 1:0.2848457 2:-4.2438125 
-1000 1:0.29000391 2:-4.12425 
-1000 1:0.20691602 2:-3.74675 
-1000 1:0.26169922 2:-2.8788125 
-1000 1:0.22383594 2:-2.1114375 
-1000 1:0.32070508 2:-4.3083125 
-1000 1:0.29344141 2:-5.347125 
-1000 1:0.24242383 2:-3.8374375 
-1000 1:0.31138867 2:-2.953875 
-1000 1:0.34798633 2:-4.020125 
-1000 1:0.29919727 2:-3.645375 
-1000 1:0.44145898 2:-2.5428125 
-1000 1:0.26074023 2:-4.97875 
-1000 1:0.19016016 2:-2.035125 
-1000 1:0.42039648 2:-3.2233125 
-1000 1:0.22948242 2:-2.170625 
-1000 1:0.19665234 2:-1.8435 
-1000 1:0.11208398 2:-2.1299375 
-1000 1:0.26782617 2:-3.1501875 
-1000 1:0.35231641 2:-2.5646875 
-1000 1:0.18875977 2:-2.61775 
-1000 1:0.26806055 2:-2.1526875 
-1000 1:0.27436719 2:-2.3890625 
-1000 1:0.22574414 2:-2.3684375 
-1000 1:0.32558398 2:-5.3535625 
-1000 1:0.20630469 2:-3.6949375 
-1000 1:0.26625781 2:-5.1054375 
-1000 1:0.34233203 2:-3.7615 
-678.8471322360921 1:0.28319336 2:-3.9333125 
-1000 1:0.33800977 2:-5.073625 
-1000 1:0.29736914 2:-3.4948125 
-1000 1:0.21820898 2:-2.6646875 
-1000 1:0.35166406 2:-3.349 
-1000 1:0.2959082 2:-2.391625 
-1000 1:0.33640039 2:-2.6640625 
-638.6263768832185 1:0.35373438 2:-2.158625 
-1000 1:0.1092793 2:-0.1195 
-1000 1:0.2551543 2:-2.345875 
-1000 1:0.3046875 2:-2.61025 
-1000 1:0.30416992 2:-2.0409375 
-1000 1:0.33381445 2:-2.8750625 
-1000 1:0.15304688 2:-2.4975 
-1000 1:0.18969141 2:-2.3571875 
-1000 1:0.35352734 2:-2.3345625 
-1000 1:0.16129102 2:-2.2840625 
-1000 1:0.17047266 2:-2.255125 
-1000 1:0.23729883 2:-1.4004375 
-964.9901313221866 1:0.21120898 2:-3.8875625 
-1000 1:0.33769336 2:-4.283375 
-1000 1:0.16104883 2:-3.1120625 
-1000 1:0.18749023 2:-3.19425 
-1000 1:0.32707617 2:-5.3795 
-1000 1:0.24237109 2:-4.1006875 
-1000 1:0.22990625 2:-4.26575 
-1000 1:0.4319082 2:-4.9931875 
-1000 1:0.25826562 2:-1.6623125 
-1000 1:0.35771094 2:-4.2160625 
-1000 1:0.23962695 2:-3.3054375 
-1000 1:0.24601367 2:-2.191 
-282.7578055545242 1:0.38256445 2:-3.61 
-1000 1:0.16482422 2:-2.99575 
-1000 1:0.29109961 2:-4.8304375 
-1000 1:0.27693164 2:-3.3294375 
-1000 1:0.32582617 2:-5.0324375 
-1000 1:0.35406641 2:-3.704375 
-672.6974643039622 1:0.4695332 2:-3.23875 
-1000 1:0.35425195 2:-5.4400625 
-1000 1:0.13395313 2:-2.58675 
-1000 1:0.25859961 2:-4.34675 
-1000 1:0.16411133 2:-2.5801875 
-1000 1:0.16185547 2:-1.519125 
-1000 1:0.1925 2:-3.0773125 
-330.3705677321078 1:0.22388477 2:-3.3609375 
-1000 1:0.3485918 2:-4.0465625 
-1000 1:0.35276562 2:-4.7933125 
-1000 1:0.20505078 2:-3.0623125 
-1000 1:0.15789453 2:-2.7088125 
-1000 1:0.3195957 2:-4.8738125 
-1000 1:0.12512305 2:-2.84225 
-1000 1:0.2555332 2:-4.80425 
-1000 1:0.18543555 2:-3.180375 
-1000 1:0.21612695 2:-4.571875 
-1000 1:0.18949023 2:-2.7203125 
-870.268281371641 1:0.12272852 2:-2.4301875 
-1000 1:0.30238477 2:-4.3874375 
-1000 1:0.23803906 2:-1.2504375 
-1000 1:0.3301582 2:-4.557875 
-1000 1:0.37054687 2:-5.4014375 
-1000 1:0.40966797 2:-3.993875 
-1000 1:0.35889258 2:-6.5419375 
-1000 1:0.28426953 2:-2.9063125 
-1000 1:0.32357812 2:-3.277 
-1000 1:0.30735547 2:-1.987125 
-1000 1:0.22452344 2:-3.2474375 
-1000 1:0.43250195 2:-4.395375 
-1000 1:0.22775977 2:-4.160375 
-1000 1:0.19691602 2:-3.7170625 
-1000 1:0.31275195 2:-2.2413125 
-1000 1:0.2169375 2:-3.0226875 
-1000 1:0.23359961 2:-3.19325 
-1000 1:0.14892383 2:-0.8833125 
-1000 1:0.32233594 2:-3.5528125 
-1000 1:0.10350977 2:-0.1501875 
-1000 1:0.32863477 2:-3.693375 
-1000 1:0.22999023 2:-4.06075 
-1000 1:0.25668555 2:-4.356 
-1000 1:0.31426953 2:-4.364125 
-1000 1:0.4081543 2:-3.5719375 
-1000 1:0.25239648 2:-4.017875 
-1000 1:0.34291602 2:-5.659125 
-1000 1:0.30395312 2:-2.4815625 
-1000 1:0.36775195 2:-2.4995625 
-1000 1:0.15704688 2:-3.08375 
-1000 1:0.25449219 2:-2.45125 
-1000 1:0.25672656 2:-1.856 
-1000 1:0.16949023 2:-1.1785 
-1000 1:0.40182227 2:-3.1219375 
-1000 1:0.32571484 2:-2.687 
-1000 1:0.22255859 2:-2.02525 
-1000 1:0.35457227 2:-3.133 
-8.287874794422695 1:0.35795508 2:-2.40525 
-1000 1:0.28180078 2:-2.841625 
-1000 1:0.30118164 2:-2.975875 
-1000 1:0.2563418 2:-2.9838125 
-1000 1:0.25343945 2:-3.0164375 
-1000 1:0.19023633 2:-2.2865 
-1000 1:0.14889258 2:-2.6009375 
-1000 1:0.19886328 2:-2.5488125 
-1000 1:0.19649414 2:-3.4255 
-1000 1:0.34758984 2:-4.6420625 
-977.4108093192255 1:0.31051172 2:-4.055625 
-1000 1:0.2920332 2:-4.6695 
-1000 1:0.22727734 2:-3.095375 
-1000 1:0.17264844 2:-2.9095625 
-1000 1:0.20287305 2:-3.1580625 
-1000 1:0.17018359 2:-2.38025 
-1000 1:0.20826953 2:-2.767125 
-1000 1:0.26508984 2:-4.06 
-1000 1:0.22986133 2:-2.7025625 
-1000 1:0.37021289 2:-3.356375 
-1000 1:0.24349805 2:-2.2509375 
-204.1125870092177 1:0.19223047 2:-0.8635 
-1000 1:0.18532422 2:-1.690875 
-1000 1:0.33543164 2:-4.2331875 
-1000 1:0.20337109 2:-3.343875 
-1000 1:0.28911719 2:-4.539875 
-1000 1:0.29967383 2:-4.1315625 
-1000 1:0.36720898 2:-2.2955 
-1000 1:0.47977344 2:-3.13125 
-785.8832961582774 1:0.17999219 2:-3.5201875 
-1000 1:0.30563672 2:-5.15925 
-1000 1:0.36126172 2:-3.423875 
-1000 1:0.36684766 2:-5.885625 
-1000 1:0.17897656 2:-3.216625 
-1000 1:0.16884961 2:-3.4281875 
-1000 1:0.17573242 2:-3.1003125 
-1000 1:0.37858984 2:-2.6868125 
-1000 1:0.29455273 2:-1.8113125 
-1000 1:0.19631641 2:-3.776 
-1000 1:0.20250391 2:-3.0280625 
-1000 1:0.1800625 2:-2.518875 
-1000 1:0.38022852 2:-5.2323125 
-1000 1:0.26593359 2:-3.9913125 
-1000 1:0.33136133 2:-4.273 
-1000 1:0.21296484 2:-1.6684375 
-1000 1:0.23607031 2:-2.3098125 
-1000 1:0.17937695 2:-2.999875 
-1000 1:0.36124023 2:-3.3540625 
-1000 1:0.26485742 2:-2.1836875 
-1000 1:0.28158398 2:-3.5241875 
-1000 1:0.28325391 2:-5.2513125 
-1000 1:0.33193359 2:-3.9718125 
-1000 1:0.44560547 2:-3.518625 
-1000 1:0.32344922 2:-5.2779375 
-1000 1:0.24077344 2:-3.4290625 
-1000 1:0.33538672 2:-3.9215625 
-1000 1:0.30768945 2:-2.5954375 
-1000 1:0.21419336 2:-1.8233125 
-1000 1:0.22320313 2:-2.806375 
-1000 1:0.32263086 2:-4.926 
-1000 1:0.37616602 2:-4.028 
-122.0676041397568 1:0.25164063 2:-3.43575 
-1000 1:0.24451562 2:-2.5500625 
-1000 1:0.19193359 2:-1.929375 
-1000 1:0.1796543 2:-4.172875 
-1000 1:0.29772266 2:-2.9845 
-267.1878580089387 1:0.16531836 2:-0.9685 
-900.1404476133362 1:0.32907812 2:-1.86675 
-1000 1:0.28352734 2:-3.212875 
-1000 1:0.23229883 2:-2.5465625 
-1000 1:0.25779102 2:-4.3279375 
-1000 1:0.18485742 2:-3.0564375 
-1000 1:0.26034961 2:-2.928375 
-1000 1:0.26783984 2:-4.52525 
-1000 1:0.20331055 2:-3.11325 
-1000 1:0.20148437 2:-3.4808125 
-1000 1:0.4159707 2:-2.448625 
-1000 1:0.22425781 2:-4.310125 
-1000 1:0.3885957 2:-2.639375 
-1000 1:0.25285937 2:-4.1435625 
-1000 1:0.44216406 2:-4.5275 
-1000 1:0.39798828 2:-2.7364375 
-1000 1:0.22388477 2:-2.2773125 
-1000 1:0.23161719 2:-3.56975 
-1000 1:0.1951543 2:-2.4258125 
-1000 1:0.2800332 2:-3.6730625 
-1000 1:0.30330469 2:-2.7196875 
-1000 1:0.2444375 2:-4.2815625 
-1000 1:0.31042773 2:-4.4314375 
-23.73923439944319 1:0.15563281 2:-3.469125 
-1000 1:0.26800977 2:-2.4195 
-1000 1:0.29695703 2:-4.6118125 
-1000 1:0.35126758 2:-4.4229375 
-1000 1:0.20746289 2:-3.017875 
-1000 1:0.23607227 2:-3.982375 
-1000 1:0.31408984 2:-5.2239375 
-230.9013429928354 1:0.27766797 2:-3.8261875 
-1000 1:0.34810156 2:-5.0919375 
-1000 1:0.24269336 2:-4.49325 
-1000 1:0.18350195 2:-2.1923125 
-1000 1:0.34706836 2:-4.571625 
-1000 1:0.26228125 2:-1.668 
-1000 1:0.3324668 2:-3.562 
-1000 1:0.19701367 2:-2.13925 
-1000 1:0.33487109 2:-3.044875 
-1000 1:0.35609766 2:-2.9411875 
-1000 1:0.31833008 2:-2.2700625 
-1000 1:0.19176563 2:-3.596625 
-1000 1:0.23039844 2:-3.1139375 
-1000 1:0.25456445 2:-3.6688125 
-1000 1:0.20848437 2:-3.6273125 
-1000 1:0.3394668 2:-2.1010625 
-1000 1:0.25320117 2:-3.239875 
-1000 1:0.17408984 2:-3.10925 
-1000 1:0.17638281 2:-2.750875 
-34.73205763791628 1:0.2320293 2:-1.118875 
-1000 1:0.18617969 2:-3.2291875 
-1000 1:0.16998828 2:-1.1355625 
-1000 1:0.17592578 2:-2.996875 
-1000 1:0.32645508 2:-5.77125 
-1000 1:0.20406445 2:-1.2705625 
-1000 1:0.20323047 2:-3.2955625 
-1000 1:0.27363867 2:-2.9935 
-1000 1:0.33039063 2:-4.84375 
-163.6913649257965 1:0.47579297 2:-3.768875 
-1000 1:0.30931641 2:-2.750125 
-1000 1:0.20885547 2:-2.3333125 
-1000 1:0.4513125 2:-2.75075 
-168.21961594408 1:0.19900977 2:-1.1204375 
-1000 1:0.24414648 2:-2.412875 
-1000 1:0.1970332 2:-1.14525 
-1000 1:0.15376367 2:-2.8881875 
-1000 1:0.30839453 2:-3.525375 
-1000 1:0.22082812 2:-2.6729375 
-1000 1:0.17305469 2:-1.5033125 
-1000 1:0.20646875 2:-2.1166875 
-445.0045337615221 1:0.18314453 2:-2.6559375 
-1000 1:0.17117969 2:-2.7189375 
-1000 1:0.17674609 2:-2.923375 
-185.1513898747827 1:0.17536328 2:-2.5829375 
-1000 1:0.29257812 2:-4.753 
-1000 1:0.32137891 2:-4.984375 
-1000 1:0.40830859 2:-5.9036875 
-1000 1:0.25462695 2:-3.4156875 
-1000 1:0.21823438 2:-2.610625 
-1000 1:0.15175 2:-2.97025 
-1000 1:0.32691016 2:-2.5905 
-1000 1:0.35916211 2:-3.00925 
-1000 1:0.25084766 2:-3.399625 
-1000 1:0.18084375 2:-3.0259375 
-1000 1:0.22809766 2:-2.4148125 
-1000 1:0.33852344 2:-3.2181875 
-1000 1:0.24619141 2:-4.186875 
-1000 1:0.21264844 2:-2.9796875 
-1000 1:0.31517969 2:-4.672375 
-1000 1:0.2605957 2:-4.3708125 
-1000 1:0.28069141 2:-5.3175625 
-1000 1:0.16407617 2:-2.637875 
-1000 1:0.24398438 2:-3.719375 
-1000 1:0.27832031 2:-3.4939375 
-1000 1:0.23411719 2:-4.732375 
-1000 1:0.20948242 2:-3.10625 
-371.6339953515966 1:0.18408398 2:-1.84125 
-1000 1:0.26292969 2:-2.64375 
-1000 1:0.32569141 2:-1.9805 
-1000 1:0.27375977 2:-5.0396875 
-1000 1:0.19147852 2:-2.9933125 
-1000 1:0.32245703 2:-3.907375 
-1000 1:0.31895703 2:-3.3794375 
-1000 1:0.25616016 2:-2.35625 
-1000 1:0.40238867 2:-4.4288125 
-1000 1:0.33367383 2:-4.751375 
-1000 1:0.40580078 2:-3.350125 
-1000 1:0.21819531 2:-2.891375 
-1000 1:0.21941992 2:-4.12225 
-1000 1:0.29571094 2:-2.205125 
-1000 1:0.33814844 2:-3.5335 
-1000 1:0.38274023 2:-5.827375 
-1000 1:0.28618945 2:-3.7015625 
-1000 1:0.22406641 2:-3.3175 
-1000 1:0.43747852 2:-3.440125 
-1000 1:0.22061328 2:-3.57275 
-865.8279314596125 1:0.18489648 2:-2.2105625 
-927.6613618827558 1:0.11286719 2:-2.107375 
-1000 1:0.28428125 2:-3.5425 
-1000 1:0.17205664 2:-3.2275 
-1000 1:0.20431055 2:-3.3575625 
-1000 1:0.32287109 2:-2.40375 
-1000 1:0.24892187 2:-2.3585625 
-1000 1:0.23668945 2:-3.4695625 
-1000 1:0.28167578 2:-3.8419375 
-1000 1:0.31989258 2:-1.6335625 
-662.5094483876479 1:0.19107617 2:-2.8655625 
-1000 1:0.32567383 2:-4.7173125 
-1000 1:0.22906641 2:-1.590375 
-1000 1:0.38444141 2:-4.484 
-1000 1:0.31301172 2:-2.7151875 
-1000 1:0.31932422 2:-5.7755 
-1000 1:0.35870508 2:-2.239875 
-1000 1:0.25422266 2:-2.438875 
-1000 1:0.29933594 2:-5.2721875 
-1000 1:0.13604102 2:-2.4754375 
-1000 1:0.37899609 2:-6.203375 
-1000 1:0.24639453 2:-3.246 
-1000 1:0.39700391 2:-2.647125 
-1000 1:0.25590625 2:-4.9785625 
-960.6998643477758 1:0.21044922 2:-4.2815625 
-997.6482721786127 1:0.39082422 2:-2.3981875 
-1000 1:0.2839375 2:-3.751 
-1000 1:0.25346875 2:-4.811125 
-1000 1:0.21389453 2:-2.7635625 
-1000 1:0.4066875 2:-5.1200625 
-1000 1:0.24638867 2:-2.7195625 
-1000 1:0.23267969 2:-4.1489375 
-1000 1:0.26486133 2:-3.8655625 
-1000 1:0.23514258 2:-3.5215 
-1000 1:0.2814668 2:-3.89525 
-1000 1:0.23749609 2:-3.3665625 
-1000 1:0.33677148 2:-2.777375 
-1000 1:0.28462695 2:-4.9796875 
-1000 1:0.20660742 2:-3.4691875 
-510.0673748498765 1:0.32289648 2:-3.127125 
-1000 1:0.25994336 2:-3.6735 
-1000 1:0.19564844 2:-3.46 
-98.9831481650529 1:0.26391602 2:-4.205625 
-1000 1:0.22701367 2:-3.6714375 
-1000 1:0.22355273 2:-2.8776875 
-1000 1:0.1687168 2:-1.07825 
-1000 1:0.33467969 2:-3.48525 
-282.343097302325 1:0.25717773 2:-2.1083125 
-1000 1:0.30219531 2:-2.524375 
-1000 1:0.23208594 2:-4.444875 
-1000 1:0.21975195 2:-2.9699375 
-1000 1:0.30420313 2:-4.8570625 
-1000 1:0.20242773 2:-2.74125 
-1000 1:0.156 2:-3.389625 
-1000 1:0.34413281 2:-2.960375 
-1000 1:0.31198242 2:-2.8375 
-1000 1:0.43593359 2:-4.35875 
-1000 1:0.18112891 2:-2.400875 
-1000 1:0.19974219 2:-2.46175 
-1000 1:0.17387305 2:-3.586375 
-1000 1:0.37132227 2:-2.3320625 
-1000 1:0.24451758 2:-2.7610625 
-1000 1:0.23406836 2:-3.316875 
-1000 1:0.42266211 2:-3.6119375 
-1000 1:0.36196094 2:-4.796 
-1000 1:0.32638281 2:-2.101875 
-1000 1:0.34324414 2:-3.4438125 
-983.9593216999899 1:0.28778516 2:-4.2623125 
-1000 1:0.27545312 2:-2.4158125 
-1000 1:0.3078125 2:-3.290375 
-1000 1:0.40748633 2:-4.45825 
-1000 1:0.29189063 2:-3.62475 
-1000 1:0.21849805 2:-2.5488125 
-1000 1:0.21723047 2:-2.405125 
-1000 1:0.35793945 2:-3.3578125 
-1000 1:0.39500586 2:-4.4770625 
-1000 1:0.22366992 2:-1.713625 
-1000 1:0.3560332 2:-4.8226875 
-1000 1:0.38924414 2:-2.8080625 
-1000 1:0.3845 2:-6.7055 
-1000 1:0.26119531 2:-2.6723125 
-1000 1:0.29471289 2:-3.5785625 
-1000 1:0.28891602 2:-1.8748125 
-275.2644722178669 1:0.22076563 2:-0.85375 
-1000 1:0.28694336 2:-2.7929375 
-1000 1:0.27701758 2:-4.0153125 
-1000 1:0.23787109 2:-4.0896875 
-1000 1:0.19197266 2:-3.4304375 
-1000 1:0.31888086 2:-3.5965625 
-1000 1:0.2569082 2:-4.61875 
-120.2149790686055 1:0.26847266 2:-2.5329375 
-1000 1:0.26769531 2:-4.6426875 
-1000 1:0.25650781 2:-4.108625 
-1000 1:0.29880859 2:-4.723125 
-1000 1:0.3175 2:-5.6600625 
-1000 1:0.24784766 2:-3.7591875 
-1000 1:0.20846289 2:-1.83875 
-1000 1:0.434875 2:-4.560125 
-1000 1:0.23986133 2:-2.677 
-1000 1:0.29330469 2:-2.6145 
-999.3122832270774 1:0.14902148 2:-2.405 
-1000 1:0.21791797 2:-3.83625 
-1000 1:0.40345508 2:-5.1710625 
-1000 1:0.3658125 2:-1.961625 
-1000 1:0.3132207 2:-2.439 
-1000 1:0.29119141 2:-3.1743125 
-1000 1:0.32254492 2:-3.2290625 
-1000 1:0.31914844 2:-4.2864375 
-1000 1:0.24187695 2:-2.55675 
-1000 1:0.25369141 2:-3.0723125 
-1000 1:0.20291211 2:-3.866875 
-241.740002826995 1:0.24443945 2:-3.6415 
-1000 1:0.23804687 2:-3.332625 
-1000 1:0.21876367 2:-3.14925 
-700.3057917722853 1:0.27587695 2:-3.5220625 
-1000 1:0.31331641 2:-3.9036875 
-1000 1:0.36310352 2:-2.8215625 
-1000 1:0.27748437 2:-4.232625 
-1000 1:0.37478125 2:-5.4715 
-1000 1:0.32814648 2:-4.10025 
-1000 1:0.36598633 2:-2.9008125 
-1000 1:0.40342578 2:-6.348125 
-89.66696265441827 1:0.1322207 2:-0.179 
-1000 1:0.23747656 2:-3.9735 
-1000 1:0.22978125 2:-3.6273125 
-1000 1:0.32942969 2:-1.7116875 
-1000 1:0.24066016 2:-2.2091875 
-1000 1:0.25251953 2:-4.5294375 
-1000 1:0.18887891 2:-3.604375 
-1000 1:0.25153516 2:-2.034125 
-1000 1:0.29637891 2:-4.25375 
-1000 1:0.34269922 2:-4.25825 
-1000 1:0.31554102 2:-1.5011875 
-1000 1:0.23308594 2:-1.8355 
-1000 1:0.28305273 2:-2.2699375 
-1000 1:0.34263672 2:-3.112 
-1000 1:0.27044922 2:-2.3269375 
-1000 1:0.2550293 2:-2.693875 
-1000 1:0.32716602 2:-2.767 
-1000 1:0.30524609 2:-3.7535625 
-88.03445687756519 1:0.2174043 2:-3.4804375 
-1000 1:0.22480859 2:-2.255625 
-995.2149626943151 1:0.3448418 2:-4.1620625 
-1000 1:0.21286523 2:-2.987 
-1000 1:0.27323828 2:-3.409 
-1000 1:0.39325977 2:-3.343 
-1000 1:0.2912832 2:-3.3300625 
-1000 1:0.40289063 2:-5.0608125 
-1000 1:0.43663086 2:-4.5245 
-1000 1:0.28565039 2:-3.8091875 
-1000 1:0.30180859 2:-2.16275 
-1000 1:0.23851953 2:-4.312625 
-1000 1:0.27366016 2:-3.7085625 
-1000 1:0.29956055 2:-4.238375 
-1000 1:0.27574414 2:-3.3558125 
-1000 1:0.35397656 2:-1.859625 
-1000 1:0.24925391 2:-4.0321875 
-1000 1:0.3006875 2:-3.8331875 
-1000 1:0.31645703 2:-4.6393125 
-1000 1:0.21078516 2:-3.50975 
-1000 1:0.22916406 2:-3.683875 
-1000 1:0.23586719 2:-4.0855 
-1000 1:0.20561914 2:-2.3905625 
-0.05976562418719384 1:0.17983594 2:-1.146625 
-1000 1:0.2517832 2:-5.5881875 
-1000 1:0.21400977 2:-3.7804375 
-1000 1:0.24474805 2:-3.388625 
-1000 1:0.41775391 2:-2.2223125 
-1000 1:0.20381836 2:-2.5619375 
-1000 1:0.32654883 2:-4.3288125 
-1000 1:0.19230078 2:-1.6540625 
-51.70736847477639 1:0.27030078 2:-1.6701875 
-1000 1:0.42561328 2:-5.0830625 
-1000 1:0.29326953 2:-4.7504375 
-1000 1:0.18764453 2:-4.048125 
-583.7237569993483 1:0.30881445 2:-2.2698125 
-1000 1:0.29321875 2:-3.302 
-1000 1:0.2009082 2:-3.641875 
-1000 1:0.2700332 2:-3.06725 
-1000 1:0.32796484 2:-5.77075 
-1000 1:0.23572656 2:-3.5988125 
-1000 1:0.20554492 2:-3.8453125 
-1000 1:0.3027832 2:-1.9758125 
-1000 1:0.29420313 2:-1.9199375 
-1000 1:0.24304883 2:-3.1459375 
-1000 1:0.26878906 2:-2.6270625 
-1000 1:0.21803711 2:-2.5533125 
-1000 1:0.44528125 2:-3.1585 
-1000 1:0.41218555 2:-5.1688125 
-1000 1:0.17652344 2:-2.8240625 
-1000 1:0.27764062 2:-4.09275 
-1000 1:0.41494922 2:-6.254125 
-1000 1:0.26779102 2:-3.713875 
-1000 1:0.38399023 2:-4.735 
-775.3286405929191 1:0.25162305 2:-3.468375 
-580.9297096342383 1:0.17355273 2:-3.04975 
-670.9156339893528 1:0.2089707 2:-2.9054375 
-1000 1:0.17580078 2:-1.0739375 
-1000 1:0.24606641 2:-4.011125 
-948.3696340943555 1:0.27775586 2:-1.43175 
-1000 1:0.29299805 2:-3.0075 
-1000 1:0.42212695 2:-5.196375 
-1000 1:0.35310156 2:-2.948625 
-1000 1:0.41676953 2:-3.57375 
-1000 1:0.35033594 2:-2.7564375 
-1000 1:0.14139258 2:-2.744625 
-1000 1:0.42836523 2:-3.6604375 
-1000 1:0.27632617 2:-1.724 
-1000 1:0.32889453 2:-3.90775 
-1000 1:0.42361328 2:-2.841875 
-1000 1:0.37932617 2:-3.9695 
-1000 1:0.36358984 2:-4.906375 
-1000 1:0.18862109 2:-3.5570625 
-1000 1:0.27491016 2:-3.939 
-1000 1:0.17054102 2:-1.676875 
-1000 1:0.40974609 2:-6.5911875 
-1000 1:0.19191992 2:-3.187125 
-1000 1:0.40747852 2:-2.684 
-1000 1:0.13687305 2:-2.3974375 
-1000 1:0.34483398 2:-3.801125 
-1000 1:0.28278906 2:-2.4069375 
-1000 1:0.27977539 2:-2.3631875 
-1000 1:0.39264844 2:-5.5818125 
-1000 1:0.43186914 2:-3.553875 
-1000 1:0.35510156 2:-5.9024375 
-1000 1:0.36439648 2:-3.8094375 
-1000 1:0.37252148 2:-3.554625 
-1000 1:0.31548633 2:-4.1495 
-605.5562718235269 1:0.21700781 2:-2.3581875 
-1000 1:0.22942383 2:-3.4251875 
-1000 1:0.1554707 2:-1.6245625 
-1000 1:0.30773633 2:-3.180875 
-1000 1:0.27089063 2:-2.5478125 
-1000 1:0.36656836 2:-4.133375 
-1000 1:0.15616992 2:-2.4105 
-365.0238988227802 1:0.19087891 2:-2.5153125 
-1000 1:0.24126758 2:-2.4735 
-1000 1:0.35942578 2:-2.83575 
-1000 1:0.41975977 2:-3.188 
-1000 1:0.27514453 2:-3.4434375 
-1000 1:0.365375 2:-2.8435 
-1000 1:0.33832227 2:-4.7073125 
-1000 1:0.434375 2:-2.9555625 
-1000 1:0.29617773 2:-2.55825 
-1000 1:0.39370508 2:-2.9211875 
