svm_type c_svc
kernel_type polynomial
degree 2
gamma 1
coef0 1
nr_class 2
total_sv 1089
rho 0.999422
label 1 -1
nr_sv 542 547
SV
0.001 1:0.44066992 2:-4.3504375 
0.001 1:0.27822461 2:-4.0888125 
0.001 1:0.28741406 2:-4.3654375 
0.001 1:0.18921094 2:-3.328375 
0.001 1:0.34156641 2:-4.8388125 
0.001 1:0.28816211 2:-3.75325 
0.001 1:0.42295508 2:-4.58325 
0.001 1:0.35011133 2:-4.5961875 
0.001 1:0.30645703 2:-2.082 
0.001 1:0.33792773 2:-3.1846875 
0.001 1:0.41233789 2:-5.5705 
0.001 1:0.35138672 2:-4.4420625 
0.001 1:0.24904883 2:-4.0290625 
0.001 1:0.26214258 2:-4.100125 
0.001 1:0.27826172 2:-4.4676875 
0.001 1:0.33248828 2:-2.502 
0.001 1:0.36280664 2:-5.8456875 
0.001 1:0.35701172 2:-4.0114375 
0.001 1:0.33430859 2:-3.2810625 
0.001 1:0.29611523 2:-5.2068125 
0.001 1:0.32277539 2:-3.7033125 
0.001 1:0.33418555 2:-2.956375 
0.001 1:0.16690234 2:-2.8409375 
0.001 1:0.33725781 2:-3.869 
0.001 1:0.25451758 2:-1.7416875 
0.001 1:0.30048633 2:-3.50575 
0.001 1:0.24953906 2:-2.5758125 
0.001 1:0.2707207 2:-4.2679375 
0.001 1:0.37868359 2:-4.4215 
0.001 1:0.22776367 2:-2.785125 
0.001 1:0.33098047 2:-2.8483125 
0.001 1:0.39789844 2:-2.9333125 
0.001 1:0.31657031 2:-3.592375 
0.001 1:0.21885156 2:-1.7906875 
0.001 1:0.31800195 2:-2.7066875 
0.001 1:0.19188281 2:-2.0279375 
0.001 1:0.17126758 2:-2.6516875 
0.001 1:0.29497461 2:-2.2556875 
0.001 1:0.28387305 2:-3.2044375 
0.001 1:0.40943945 2:-2.8265625 
0.001 1:0.20573242 2:-2.702 
0.001 1:0.34373047 2:-3.911375 
0.001 1:0.24505859 2:-3.2475 
0.001 1:0.26678516 2:-2.513375 
0.001 1:0.25408203 2:-4.2065 
0.001 1:0.3456543 2:-3.2239375 
0.001 1:0.24648828 2:-3.09025 
0.001 1:0.19146289 2:-3.1794375 
0.001 1:0.32058789 2:-2.162375 
0.001 1:0.343625 2:-3.1510625 
0.001 1:0.30064063 2:-4.62675 
0.001 1:0.25929492 2:-3.3233125 
0.001 1:0.23530273 2:-1.1014375 
0.001 1:0.28984375 2:-4.7261875 
0.001 1:0.25291602 2:-4.2434375 
0.001 1:0.20922266 2:-2.4875625 
0.001 1:0.18249414 2:-3.0206875 
0.001 1:0.2452207 2:-4.069625 
0.001 1:0.47007031 2:-3.4156875 
0.001 1:0.25875391 2:-3.735125 
0.001 1:0.25331055 2:-5.259125 
0.001 1:0.33484375 2:-4.3180625 
0.001 1:0.19809375 2:-3.069 
0.001 1:0.23054297 2:-3.08525 
0.001 1:0.22968555 2:-4.1193125 
0.001 1:0.39870508 2:-6.2614375 
0.001 1:0.33263477 2:-5.3505 
0.001 1:0.25126563 2:-2.5884375 
0.001 1:0.28254102 2:-2.7315 
0.001 1:0.24461719 2:-3.759875 
0.001 1:0.30981836 2:-2.747 
0.001 1:0.25489844 2:-3.386625 
0.001 1:0.28346094 2:-1.1570625 
0.001 1:0.26345898 2:-4.1485 
0.001 1:0.28462109 2:-2.889125 
0.001 1:0.1962832 2:-2.790375 
0.001 1:0.16263086 2:-2.6108125 
0.001 1:0.17793555 2:-1.9318125 
0.001 1:0.28441602 2:-4.591875 
0.001 1:0.29831641 2:-1.8839375 
0.001 1:0.32322461 2:-4.9383125 
0.001 1:0.22491602 2:-2.3835 
0.001 1:0.29147852 2:-2.597125 
0.001 1:0.19753516 2:-3.424375 
0.001 1:0.27897461 2:-2.5580625 
0.001 1:0.43238867 2:-2.8535625 
0.001 1:0.32033984 2:-3.4545625 
0.001 1:0.27245117 2:-3.922625 
0.001 1:0.12591406 2:-1.9669375 
0.001 1:0.23814258 2:-3.4095 
0.001 1:0.3985957 2:-4.82175 
0.001 1:0.24329297 2:-3.091 
0.001 1:0.25313672 2:-2.7315 
0.001 1:0.27132227 2:-3.500875 
0.001 1:0.35445117 2:-2.0418125 
0.001 1:0.31777148 2:-5.3259375 
0.001 1:0.41664844 2:-5.8334375 
0.001 1:0.37456445 2:-3.8265 
0.001 1:0.29933008 2:-3.1620625 
0.001 1:0.17382031 2:-1.9191875 
0.001 1:0.16448242 2:-2.1161875 
0.001 1:0.37798242 2:-5.36075 
0.001 1:0.35523242 2:-5.1198125 
0.001 1:0.2519707 2:-2.6255625 
0.001 1:0.30011328 2:-3.26075 
0.001 1:0.2056543 2:-2.8788125 
0.001 1:0.2994707 2:-3.6604375 
0.001 1:0.28832227 2:-3.2866875 
0.001 1:0.12416602 2:-2.0903125 
0.001 1:0.11805469 2:-2.27 
0.001 1:0.17107227 2:-1.879375 
0.001 1:0.26833398 2:-4.8129375 
0.001 1:0.17469141 2:-2.1999375 
0.001 1:0.18063281 2:-1.7966875 
0.001 1:0.15491016 2:-3.04925 
0.001 1:0.23418945 2:-3.1060625 
0.001 1:0.34679102 2:-4.3859375 
0.001 1:0.18732031 2:-3.1871875 
0.001 1:0.24810742 2:-2.2230625 
0.001 1:0.20545117 2:-3.250625 
0.001 1:0.20155859 2:-2.3331875 
0.001 1:0.34156445 2:-3.5378125 
0.001 1:0.37650977 2:-3.31375 
0.001 1:0.35983789 2:-4.137 
0.001 1:0.18253516 2:-3.388375 
0.001 1:0.31178516 2:-2.6841875 
0.001 1:0.28626953 2:-2.63325 
0.001 1:0.3564082 2:-4.6351875 
0.001 1:0.29650781 2:-3.8868125 
0.001 1:0.31982812 2:-5.0585 
0.001 1:0.30227734 2:-2.2331875 
0.001 1:0.28037109 2:-1.59875 
0.001 1:0.21647656 2:-1.9361875 
0.001 1:0.24942188 2:-1.6803125 
0.001 1:0.25853125 2:-4.44175 
0.001 1:0.21929688 2:-1.9210625 
0.001 1:0.3401875 2:-1.4686875 
0.001 1:0.32116602 2:-1.6766875 
0.001 1:0.23394336 2:-2.904 
0.001 1:0.2692793 2:-4.3863125 
0.001 1:0.28656836 2:-5.2745 
0.001 1:0.34270508 2:-2.6396875 
0.001 1:0.22915234 2:-1.374375 
0.001 1:0.33480664 2:-2.5214375 
0.001 1:0.27562891 2:-3.6761875 
0.001 1:0.28976953 2:-3.163375 
0.001 1:0.34318555 2:-4.044125 
0.001 1:0.26531055 2:-4.804 
0.001 1:0.26812109 2:-3.9265625 
0.001 1:0.241125 2:-3.359 
0.001 1:0.35424609 2:-4.1588125 
0.001 1:0.1582793 2:-2.42875 
0.001 1:0.2905 2:-5.1194375 
0.001 1:0.20248633 2:-1.470125 
0.001 1:0.21135742 2:-2.489 
0.001 1:0.31603125 2:-3.776875 
0.001 1:0.23958398 2:-2.7159375 
0.001 1:0.34157617 2:-4.2260625 
0.001 1:0.36369141 2:-2.1930625 
0.001 1:0.32398242 2:-3.5039375 
0.001 1:0.20150586 2:-2.223875 
0.001 1:0.21023242 2:-3.081125 
0.001 1:0.38706445 2:-4.7500625 
0.001 1:0.25750977 2:-2.2086875 
0.001 1:0.3180957 2:-4.3368125 
0.001 1:0.31791016 2:-3.7708125 
0.001 1:0.48707422 2:-3.45225 
0.001 1:0.3085 2:-4.161875 
0.001 1:0.26771875 2:-2.972875 
0.001 1:0.22813086 2:-2.677875 
0.001 1:0.40599219 2:-2.685625 
0.001 1:0.27122852 2:-3.7273125 
0.001 1:0.20182617 2:-3.198125 
0.001 1:0.24357227 2:-2.9170625 
0.001 1:0.42968359 2:-4.415625 
0.001 1:0.27746094 2:-4.6858125 
0.001 1:0.16998047 2:-2.7985625 
0.001 1:0.11469336 2:-1.1860625 
0.001 1:0.34663867 2:-2.43325 
0.001 1:0.30842383 2:-5.3401875 
0.001 1:0.30995703 2:-2.99925 
0.001 1:0.36791797 2:-1.7798125 
0.001 1:0.38985742 2:-2.2789375 
0.001 1:0.32626953 2:-3.5511875 
0.001 1:0.2986543 2:-4.975125 
0.001 1:0.1933457 2:-2.478125 
0.001 1:0.19559961 2:-2.8805625 
0.001 1:0.22288086 2:-0.879125 
0.001 1:0.22076758 2:-3.50925 
0.001 1:0.44749609 2:-3.6575625 
0.001 1:0.18795117 2:-2.6435 
0.001 1:0.21619336 2:-3.8670625 
0.001 1:0.16503906 2:-2.1281875 
0.001 1:0.27644531 2:-2.738125 
0.001 1:0.21367188 2:-3.5629375 
0.001 1:0.22887305 2:-3.4574375 
0.001 1:0.23996094 2:-4.4979375 
0.001 1:0.34984961 2:-4.391 
0.001 1:0.29217773 2:-3.0855625 
0.001 1:0.45689844 2:-4.434625 
0.001 1:0.43435742 2:-3.4658125 
0.001 1:0.18168164 2:-1.866875 
0.001 1:0.1979668 2:-3.116375 
0.001 1:0.20913672 2:-3.9043125 
0.001 1:0.20894531 2:-4.481875 
0.001 1:0.22959961 2:-2.5274375 
0.001 1:0.24679883 2:-3.1264375 
0.001 1:0.27471484 2:-2.5206875 
0.001 1:0.32786133 2:-4.434 
0.001 1:0.30963086 2:-2.8083125 
0.001 1:0.38985547 2:-3.799625 
0.001 1:0.21798437 2:-2.28275 
0.001 1:0.26881055 2:-3.0364375 
0.001 1:0.20781641 2:-1.73425 
0.001 1:0.32364258 2:-0.9266875 
0.001 1:0.18230469 2:-3.516875 
0.001 1:0.20025195 2:-2.91475 
0.001 1:0.19434375 2:-2.10675 
0.001 1:0.17934961 2:-4.0168125 
0.001 1:0.23202734 2:-1.8263125 
0.001 1:0.29225195 2:-2.52325 
0.001 1:0.19449023 2:-2.5605 
0.001 1:0.22368359 2:-2.012125 
0.001 1:0.20332227 2:-4.2685625 
0.001 1:0.22722266 2:-2.2946875 
0.001 1:0.26252344 2:-3.743625 
0.001 1:0.17598047 2:-3.4860625 
0.001 1:0.29560156 2:-2.88125 
0.001 1:0.33454297 2:-4.7880625 
0.001 1:0.33392969 2:-4.0231875 
0.001 1:0.30508789 2:-5.8201875 
0.001 1:0.26403125 2:-4.804125 
0.001 1:0.19893359 2:-3.0593125 
0.001 1:0.25470508 2:-0.922875 
0.001 1:0.42402148 2:-4.7025625 
0.001 1:0.38944922 2:-2.8925625 
0.001 1:0.26929297 2:-2.8614375 
0.001 1:0.27592773 2:-3.5386875 
0.001 1:0.26537109 2:-3.0890625 
0.001 1:0.38280273 2:-4.365125 
0.001 1:0.23808984 2:-4.31375 
0.001 1:0.22843164 2:-2.9856875 
0.001 1:0.33358984 2:-2.0735 
0.001 1:0.47258203 2:-5.1478125 
0.001 1:0.27886328 2:-2.8150625 
0.001 1:0.33678711 2:-3.9640625 
0.001 1:0.24440234 2:-2.9349375 
0.001 1:0.29697656 2:-3.7760625 
0.001 1:0.25325586 2:-2.34125 
0.001 1:0.23811523 2:-3.25 
0.001 1:0.25968164 2:-4.701 
0.001 1:0.25855664 2:-4.6235625 
0.001 1:0.19732812 2:-3.4299375 
0.001 1:0.39165625 2:-3.201875 
0.001 1:0.23148828 2:-3.603875 
0.001 1:0.38961328 2:-2.5674375 
0.001 1:0.53747656 2:-5.9125 
0.001 1:0.49851172 2:-4.012375 
0.001 1:0.34680664 2:-2.6586875 
0.001 1:0.32651172 2:-2.089 
0.001 1:0.23910742 2:-3.884375 
0.001 1:0.22402539 2:-2.560375 
0.001 1:0.19187109 2:-2.8835625 
0.001 1:0.25475977 2:-3.0795 
0.001 1:0.34861719 2:-3.627625 
0.001 1:0.26051563 2:-3.0916875 
0.001 1:0.26091406 2:-2.994125 
0.001 1:0.18579297 2:-1.535625 
0.001 1:0.27365625 2:-5.3413125 
0.001 1:0.4163418 2:-3.113875 
0.001 1:0.25458203 2:-3.885375 
0.001 1:0.17887109 2:-3.1995625 
0.001 1:0.16845703 2:-3.3035 
0.001 1:0.1959375 2:-2.11625 
0.001 1:0.23158594 2:-3.2494375 
0.001 1:0.11993555 2:-1.763125 
0.001 1:0.19563672 2:-3.308 
0.001 1:0.34460352 2:-4.310625 
0.001 1:0.27666992 2:-2.86875 
0.001 1:0.18776562 2:-4.5545625 
0.001 1:0.22798828 2:-2.3349375 
0.001 1:0.22554688 2:-3.4891875 
0.001 1:0.20121484 2:-2.59925 
0.001 1:0.20608203 2:-3.458125 
0.001 1:0.20105078 2:-2.6285625 
0.001 1:0.30475 2:-3.782375 
0.001 1:0.30993359 2:-4.1353125 
0.001 1:0.26016406 2:-4.3838125 
0.001 1:0.2137168 2:-3.3163125 
0.001 1:0.4074082 2:-3.9875 
0.001 1:0.25452539 2:-1.412375 
0.001 1:0.27808203 2:-3.8909375 
0.001 1:0.24561719 2:-2.2079375 
0.001 1:0.28167578 2:-4.304125 
0.001 1:0.27562695 2:-4.340375 
0.001 1:0.24125 2:-3.3565 
0.001 1:0.23192383 2:-3.22575 
0.001 1:0.28276953 2:-4.7361875 
0.001 1:0.34100781 2:-3.5708125 
0.001 1:0.23352539 2:-3.975125 
0.001 1:0.34244141 2:-3.0976875 
0.001 1:0.13290039 2:-2.3090625 
0.001 1:0.36560547 2:-4.0115625 
0.001 1:0.25330078 2:-2.620125 
0.001 1:0.21359375 2:-2.771125 
0.001 1:0.32594336 2:-3.5015 
0.001 1:0.33538281 2:-3.271875 
0.001 1:0.27471094 2:-5.619875 
0.001 1:0.24695898 2:-2.8726875 
0.001 1:0.25708008 2:-4.588 
0.001 1:0.17051563 2:-3.0683125 
0.001 1:0.19397852 2:-3.848375 
0.001 1:0.19169922 2:-3.3955 
0.001 1:0.27269141 2:-2.4061875 
0.001 1:0.24682813 2:-3.020875 
0.001 1:0.21110352 2:-3.1179375 
0.001 1:0.31226367 2:-3.6335625 
0.001 1:0.3218125 2:-4.0596875 
0.001 1:0.34258594 2:-4.0031875 
0.001 1:0.3360625 2:-5.0768125 
0.001 1:0.18131836 2:-2.6103125 
0.001 1:0.16165234 2:-2.727625 
0.001 1:0.2047832 2:-4.6410625 
0.001 1:0.20130273 2:-2.4938125 
0.001 1:0.252875 2:-4.820875 
0.001 1:0.28405273 2:-2.7609375 
0.001 1:0.20524805 2:-3.2940625 
0.001 1:0.23007227 2:-3.1764375 
0.001 1:0.22306445 2:-2.1304375 
0.001 1:0.26711914 2:-3.2993125 
0.001 1:0.24388867 2:-4.0931875 
0.001 1:0.28783594 2:-4.0601875 
0.001 1:0.15414062 2:-2.2021875 
0.001 1:0.22633984 2:-2.71225 
0.001 1:0.24400781 2:-3.856625 
0.001 1:0.23644727 2:-3.2451875 
0.001 1:0.29218359 2:-3.6641875 
0.001 1:0.28443359 2:-2.0958125 
0.001 1:0.23073047 2:-1.6185625 
0.001 1:0.36822461 2:-3.207625 
0.001 1:0.2292832 2:-3.793375 
0.001 1:0.23611133 2:-4.131375 
0.001 1:0.43701758 2:-4.488375 
0.001 1:0.38616211 2:-3.214625 
0.001 1:0.31565234 2:-4.6780625 
0.001 1:0.19752148 2:-2.3913125 
0.001 1:0.22680664 2:-3.8293125 
0.001 1:0.17201758 2:-2.700875 
0.001 1:0.30742383 2:-3.268875 
0.001 1:0.27598047 2:-3.708 
0.001 1:0.29252734 2:-2.577 
0.001 1:0.27103711 2:-3.3648125 
0.001 1:0.32322656 2:-3.5009375 
0.001 1:0.22158984 2:-3.21225 
0.001 1:0.23028906 2:-4.82625 
0.001 1:0.17536328 2:-3.52325 
0.001 1:0.24296484 2:-4.9265625 
0.001 1:0.20635547 2:-3.31375 
0.001 1:0.20316992 2:-3.5863125 
0.001 1:0.34807617 2:-3.3745 
0.001 1:0.23117383 2:-1.6263125 
0.001 1:0.17340039 2:-2.8970625 
0.001 1:0.1824375 2:-2.253375 
0.001 1:0.22170898 2:-2.994125 
0.001 1:0.2059375 2:-3.43675 
0.001 1:0.18333789 2:-2.972125 
0.001 1:0.32995703 2:-5.0885625 
0.001 1:0.34518164 2:-3.089625 
0.001 1:0.21728125 2:-3.6040625 
0.001 1:0.24790234 2:-2.0054375 
0.001 1:0.24279883 2:-4.3206875 
0.001 1:0.16273437 2:-3.362 
0.001 1:0.14829883 2:-3.12725 
0.001 1:0.28289062 2:-4.6854375 
0.001 1:0.29769922 2:-3.3219375 
0.001 1:0.26974414 2:-2.4686875 
0.001 1:0.41063281 2:-3.0335 
0.001 1:0.27291406 2:-4.54875 
0.001 1:0.33769336 2:-4.9349375 
0.001 1:0.37672852 2:-2.83925 
0.001 1:0.27688086 2:-3.00525 
0.001 1:0.34779297 2:-3.0171875 
0.001 1:0.23342188 2:-3.4863125 
0.001 1:0.28263867 2:-4.5860625 
0.001 1:0.3217832 2:-2.419625 
0.001 1:0.39533594 2:-6.7176875 
0.001 1:0.28213672 2:-5.9331875 
0.001 1:0.32939453 2:-4.4934375 
0.001 1:0.32936133 2:-2.6848125 
0.001 1:0.32199414 2:-3.3899375 
0.001 1:0.21166602 2:-4.4863125 
0.001 1:0.28295508 2:-0.9159375 
0.001 1:0.28249219 2:-5.382 
0.001 1:0.37358398 2:-1.4289375 
0.001 1:0.45644531 2:-5.909 
0.001 1:0.28070703 2:-3.386625 
0.001 1:0.40866992 2:-6.1975625 
0.001 1:0.25119922 2:-4.5901875 
0.001 1:0.35639844 2:-5.66275 
0.001 1:0.29777344 2:-3.685375 
0.001 1:0.21851953 2:-2.33275 
0.001 1:0.32717578 2:-3.737625 
0.001 1:0.28992578 2:-2.24675 
0.001 1:0.35313672 2:-3.7525625 
0.001 1:0.24664258 2:-2.0425625 
0.001 1:0.38183594 2:-2.5176875 
0.001 1:0.36061719 2:-4.7583125 
0.001 1:0.24798438 2:-1.645375 
0.001 1:0.26118359 2:-3.87125 
0.001 1:0.16975977 2:-3.0816875 
0.001 1:0.33693945 2:-3.259875 
0.001 1:0.25019141 2:-3.5898125 
0.001 1:0.29958203 2:-3.055375 
0.001 1:0.23005273 2:-3.1355625 
0.001 1:0.26474414 2:-4.135375 
0.001 1:0.39456641 2:-5.40375 
0.001 1:0.33640234 2:-3.262875 
0.001 1:0.31878516 2:-2.9740625 
0.001 1:0.19802344 2:-3.217 
0.001 1:0.18999219 2:-2.8030625 
0.001 1:0.48124219 2:-4.2619375 
0.001 1:0.39850391 2:-5.1421875 
0.001 1:0.29498828 2:-3.6255 
0.001 1:0.22382227 2:-3.1024375 
0.001 1:0.63630273 2:-3.811125 
0.001 1:0.39998242 2:-5.83025 
0.001 1:0.30944727 2:-4.920875 
0.001 1:0.38100195 2:-4.0913125 
0.001 1:0.19657227 2:-2.5599375 
0.001 1:0.28523633 2:-5.0523125 
0.001 1:0.30372656 2:-3.7325 
0.001 1:0.34957617 2:-4.8681875 
0.001 1:0.22933008 2:-1.4585 
0.001 1:0.20953125 2:-2.31975 
0.001 1:0.33252148 2:-2.671125 
0.001 1:0.33732617 2:-2.0031875 
0.001 1:0.24621484 2:-2.1268125 
0.001 1:0.26848047 2:-2.389375 
0.001 1:0.20867188 2:-2.972625 
0.001 1:0.26129297 2:-3.4439375 
0.001 1:0.36631055 2:-4.4484375 
0.001 1:0.21107031 2:-2.5110625 
0.001 1:0.24078906 2:-3.714875 
0.001 1:0.36097656 2:-4.47375 
0.001 1:0.22273828 2:-3.67025 
0.001 1:0.21485938 2:-2.81125 
0.001 1:0.15041211 2:-2.840125 
0.001 1:0.26586328 2:-1.8378125 
0.001 1:0.16663672 2:-0.9226875 
0.001 1:0.33104102 2:-2.396 
0.001 1:0.24013281 2:-3.9851875 
0.001 1:0.29282812 2:-3.0000625 
0.001 1:0.21201367 2:-2.6100625 
0.001 1:0.25363281 2:-2.1921875 
0.001 1:0.31439063 2:-1.372 
0.001 1:0.32114258 2:-3.879125 
0.001 1:0.34213672 2:-2.21525 
0.001 1:0.31833984 2:-3.9101875 
0.001 1:0.18915625 2:-2.730375 
0.001 1:0.2424082 2:-4.52975 
0.001 1:0.12989258 2:-2.002875 
0.001 1:0.16420898 2:-2.2751875 
0.001 1:0.35279102 2:-1.1444375 
0.001 1:0.37254492 2:-3.54475 
0.001 1:0.32970117 2:-4.3779375 
0.001 1:0.32062891 2:-3.608625 
0.001 1:0.23587695 2:-3.104625 
0.001 1:0.20524414 2:-2.742625 
0.001 1:0.34828516 2:-4.4009375 
0.001 1:0.4075293 2:-3.602375 
0.001 1:0.27020117 2:-4.633875 
0.001 1:0.34442578 2:-4.14075 
0.001 1:0.28167188 2:-1.3150625 
0.001 1:0.33244727 2:-5.4505 
0.001 1:0.25854297 2:-1.9469375 
0.001 1:0.28335937 2:-5.64725 
0.001 1:0.21907617 2:-2.309 
0.001 1:0.20453516 2:-2.7575 
0.001 1:0.24589844 2:-2.381375 
0.001 1:0.38547461 2:-3.8594375 
0.001 1:0.18537305 2:-2.150125 
0.001 1:0.2485918 2:-3.072625 
0.001 1:0.2670332 2:-4.2991875 
0.001 1:0.32821484 2:-3.377375 
0.001 1:0.27573242 2:-2.024875 
0.001 1:0.27304883 2:-2.7235625 
0.001 1:0.35416211 2:-5.13225 
0.001 1:0.2853125 2:-2.308875 
0.001 1:0.35437891 2:-3.67175 
0.001 1:0.48145117 2:-3.388 
0.001 1:0.27879883 2:-4.7460625 
0.001 1:0.19296289 2:-2.1853125 
0.001 1:0.27455664 2:-1.5620625 
0.001 1:0.24530078 2:-2.4893125 
0.001 1:0.31470898 2:-5.022375 
0.001 1:0.37425977 2:-6.9378125 
0.001 1:0.18386523 2:-2.3635 
0.001 1:0.22955859 2:-3.2878125 
0.001 1:0.20196094 2:-2.5460625 
0.001 1:0.19316602 2:-1.945125 
0.001 1:0.24685352 2:-3.0428125 
0.001 1:0.24696484 2:-2.446625 
0.001 1:0.26777344 2:-3.47225 
0.001 1:0.25980469 2:-4.1055 
0.001 1:0.17983789 2:-2.21075 
0.001 1:0.44936328 2:-4.8013125 
0.001 1:0.41378516 2:-2.7640625 
0.001 1:0.3052793 2:-3.3136875 
0.001 1:0.20828906 2:-3.446375 
0.001 1:0.16669336 2:-3.11175 
0.001 1:0.24243945 2:-2.4279375 
0.001 1:0.55966797 2:-2.449125 
0.001 1:0.27969727 2:-5.0708125 
0.001 1:0.34248828 2:-3.007375 
0.001 1:0.26470703 2:-3.743375 
0.001 1:0.2560957 2:-3.5296875 
0.001 1:0.21010352 2:-2.54275 
0.001 1:0.33385547 2:-3.1575 
0.001 1:0.22311914 2:-3.4271875 
0.001 1:0.40074023 2:-6.8451875 
0.001 1:0.16269141 2:-2.1070625 
0.001 1:0.33954297 2:-2.632375 
0.001 1:0.25723242 2:-3.903625 
0.001 1:0.41551562 2:-4.2259375 
0.001 1:0.2454043 2:-2.608125 
0.001 1:0.16996094 2:-2.7726875 
0.001 1:0.27501172 2:-4.4645625 
0.001 1:0.33283984 2:-3.3153125 
0.001 1:0.30686133 2:-6.5006875 
0.001 1:0.26757422 2:-3.5734375 
0.001 1:0.27630664 2:-2.03475 
0.001 1:0.30235937 2:-5.8390625 
0.001 1:0.24019922 2:-3.4763125 
0.001 1:0.4194082 2:-4.9998125 
0.001 1:0.28808594 2:-2.365375 
0.001 1:0.3371582 2:-3.8149375 
0.001 1:0.29001562 2:-3.314 
0.001 1:0.29567383 2:-3.2821875 
0.001 1:0.2689082 2:-3.412375 
0.001 1:0.24613477 2:-3.1555 
0.001 1:0.14553125 2:-1.92825 
0.001 1:0.25189063 2:-3.2545 
-0.001 1:0.20682227 2:-2.31725 
-0.001 1:0.26739844 2:-3.47025 
-0.001 1:0.17676562 2:-2.18075 
-0.001 1:0.33435352 2:-3.808875 
-0.001 1:0.2636875 2:-4.38825 
-0.001 1:0.30213477 2:-3.89275 
-0.001 1:0.33438867 2:-4.930875 
-0.001 1:0.31361914 2:-3.78425 
-0.001 1:0.29473242 2:-3.053 
-0.001 1:0.26391211 2:-4.62975 
-0.001 1:0.47179688 2:-4.263875 
-0.001 1:0.18338477 2:-1.7868125 
-0.001 1:0.20225391 2:-2.3948125 
-0.001 1:0.30149805 2:-3.2504375 
-0.001 1:0.20792578 2:-2.2953125 
-0.001 1:0.33440625 2:-3.9676875 
-0.001 1:0.29270117 2:-3.2854375 
-0.001 1:0.28839453 2:-3.682625 
-0.001 1:0.17422656 2:-3.5231875 
-0.001 1:0.24038672 2:-3.35325 
-0.001 1:0.31611523 2:-3.318625 
-0.001 1:0.2853125 2:-5.6540625 
-0.001 1:0.10989844 2:-1.7845 
-0.001 1:0.23298633 2:-2.002375 
-0.001 1:0.24281055 2:-4.319375 
-0.001 1:0.38176172 2:-3.197125 
-0.001 1:0.33624805 2:-2.221875 
-0.001 1:0.36113672 2:-5.1243125 
-0.001 1:0.34798633 2:-4.020125 
-0.001 1:0.29919727 2:-3.645375 
-0.001 1:0.19016016 2:-2.035125 
-0.001 1:0.16511328 2:-3.0784375 
-0.001 1:0.34317578 2:-3.28275 
-0.001 1:0.37868555 2:-2.908625 
-0.001 1:0.25695703 2:-4.2045 
-0.001 1:0.24360156 2:-4.0944375 
-0.001 1:0.17200195 2:-1.5355625 
-0.001 1:0.19665234 2:-1.8435 
-0.001 1:0.18727148 2:-2.3613125 
-0.001 1:0.2238125 2:-3.79475 
-0.001 1:0.18875977 2:-2.61775 
-0.001 1:0.29429687 2:-3.6584375 
-0.001 1:0.27436719 2:-2.3890625 
-0.001 1:0.35638672 2:-4.4035 
-0.001 1:0.32558398 2:-5.3535625 
-0.001 1:0.33800977 2:-5.073625 
-0.001 1:0.20280859 2:-4.48875 
-0.001 1:0.29736914 2:-3.4948125 
-0.001 1:0.29718555 2:-5.8158125 
-0.001 1:0.28378711 2:-2.2425 
-0.001 1:0.19692188 2:-3.39575 
-0.001 1:0.33640039 2:-2.6640625 
-0.001 1:0.21958984 2:-2.6198125 
-0.001 1:0.24064453 2:-3.48475 
-0.001 1:0.38376562 2:-3.8575625 
-0.001 1:0.27598633 2:-4.2910625 
-0.0002326924531383278 1:0.1092793 2:-0.1195 
-0.001 1:0.2551543 2:-2.345875 
-0.001 1:0.43533203 2:-3.6585 
-0.001 1:0.33625781 2:-1.9894375 
-0.001 1:0.3295625 2:-2.4216875 
-0.001 1:0.33897266 2:-5.44625 
-0.001 1:0.3222207 2:-2.497375 
-0.001 1:0.27315234 2:-2.730375 
-0.001 1:0.17047266 2:-2.255125 
-0.001 1:0.34220117 2:-4.86175 
-0.001 1:0.25205078 2:-2.93175 
-0.001 1:0.41620703 2:-3.46575 
-0.001 1:0.31063477 2:-3.77025 
-0.001 1:0.28365039 2:-2.8665 
-0.001 1:0.26139648 2:-3.9065 
-0.001 1:0.31397852 2:-5.3356875 
-0.001 1:0.27342773 2:-2.5523125 
-0.001 1:0.24593945 2:-2.1311875 
-0.001 1:0.24601367 2:-2.191 
-0.001 1:0.3342832 2:-5.083375 
-0.000955735405257139 1:0.38500977 2:-1.758 
-0.001 1:0.25823242 2:-4.5935 
-0.001 1:0.3622207 2:-4.4836875 
-0.001 1:0.33055078 2:-3.4485 
-0.001 1:0.22565039 2:-2.6808125 
-0.001 1:0.30196484 2:-2.5315 
-0.001 1:0.30962891 2:-2.9985 
-0.001 1:0.20729687 2:-2.8753125 
-0.001 1:0.31998242 2:-4.3355 
-0.001 1:0.25391211 2:-2.442625 
-0.001 1:0.3136582 2:-3.195375 
-0.001 1:0.25118164 2:-1.898125 
-0.001 1:0.23749609 2:-3.4766875 
-0.001 1:0.16313281 2:-2.268625 
-0.001 1:0.24764258 2:-2.31925 
-0.001 1:0.3485918 2:-4.0465625 
-0.001 1:0.23243945 2:-3.1105625 
-0.001 1:0.21748633 2:-2.4785 
-0.001 1:0.34100781 2:-3.860125 
-0.001 1:0.2256875 2:-3.2185625 
-0.001 1:0.29859766 2:-3.285875 
-0.001 1:0.2555332 2:-4.80425 
-0.001 1:0.39208203 2:-3.828125 
-0.001 1:0.18543555 2:-3.180375 
-0.001 1:0.23505273 2:-4.928375 
-0.001 1:0.3482832 2:-5.8353125 
-0.001 1:0.40966797 2:-3.993875 
-0.001 1:0.32357812 2:-3.277 
-0.001 1:0.43250195 2:-4.395375 
-0.001 1:0.27411523 2:-3.071875 
-0.001 1:0.28708789 2:-2.5873125 
-0.001 1:0.20270508 2:-4.2705625 
-0.001 1:0.25876172 2:-4.130375 
-0.001 1:0.3599668 2:-4.7544375 
-0.001 1:0.26076367 2:-5.2565625 
-0.001 1:0.31275195 2:-2.2413125 
-0.001 1:0.21491211 2:-3.60225 
-0.001 1:0.25545703 2:-2.2199375 
-0.001 1:0.33723437 2:-1.4580625 
-0.001 1:0.26342969 2:-3.8723125 
-0.001 1:0.37512109 2:-4.1375 
-0.001 1:0.32233594 2:-3.5528125 
-0.001 1:0.48700977 2:-3.3898125 
-0.001 1:0.20992187 2:-4.632125 
-0.001 1:0.2698418 2:-2.0849375 
-0.0009707442394863664 1:0.52079102 2:-2.4798125 
-0.001 1:0.25077539 2:-1.1349375 
-0.001 1:0.24804492 2:-3.8865 
-0.001 1:0.41662305 2:-5.1686875 
-0.001 1:0.2909043 2:-5.123375 
-0.001 1:0.25036328 2:-3.019875 
-0.001 1:0.36931641 2:-4.372125 
-0.001 1:0.26439062 2:-3.920625 
-0.001 1:0.22754492 2:-2.5660625 
-0.001 1:0.26745508 2:-3.3273125 
-0.001 1:0.22879688 2:-3.8315 
-0.001 1:0.371 2:-3.200125 
-0.001 1:0.25449219 2:-2.45125 
-0.001 1:0.22990234 2:-4.13075 
-0.001 1:0.21582812 2:-3.5631875 
-0.001 1:0.32571484 2:-2.687 
-0.0009912718763378156 1:0.52552539 2:-3.46175 
-0.001 1:0.27933008 2:-2.861125 
-0.001 1:0.19580078 2:-3.2155625 
-0.001 1:0.25565625 2:-1.4544375 
-0.001 1:0.22255859 2:-2.02525 
-0.001 1:0.23245703 2:-1.195625 
-0.001 1:0.30467383 2:-2.7651875 
-0.001 1:0.35457227 2:-3.133 
-0.001 1:0.29856836 2:-1.3805625 
-0.0008908386224627919 1:0.41668164 2:-5.924875 
-0.001 1:0.33180273 2:-4.425125 
-0.001 1:0.30118164 2:-2.975875 
-0.001 1:0.2563418 2:-2.9838125 
-0.001 1:0.27779687 2:-2.887375 
-0.001 1:0.29614063 2:-3.1636875 
-0.001 1:0.27866992 2:-3.1021875 
-0.001 1:0.43040625 2:-3.1189375 
-0.001 1:0.19886328 2:-2.5488125 
-0.001 1:0.2208125 2:-2.5071875 
-0.001 1:0.19649414 2:-3.4255 
-0.001 1:0.34758984 2:-4.6420625 
-0.001 1:0.24904688 2:-4.5860625 
-0.001 1:0.31051172 2:-4.055625 
-0.001 1:0.28972266 2:-3.752625 
-0.001 1:0.28090625 2:-1.948125 
-0.001 1:0.31465625 2:-3.7899375 
-0.001 1:0.39512695 2:-6.255875 
-0.001 1:0.20256055 2:-1.8050625 
-0.001 1:0.20826953 2:-2.767125 
-0.001 1:0.22986133 2:-2.7025625 
-0.001 1:0.17523047 2:-3.4878125 
-0.001 1:0.41253516 2:-4.57525 
-0.001 1:0.33543164 2:-4.2331875 
-0.001 1:0.30451758 2:-4.920125 
-0.001 1:0.29967383 2:-4.1315625 
-0.001 1:0.19261133 2:-1.907375 
-0.001 1:0.1989707 2:-1.7538125 
-0.001 1:0.24077344 2:-3.8563125 
-0.001 1:0.19270117 2:-2.1895 
-0.001 1:0.38346484 2:-2.8445 
-0.001 1:0.30008594 2:-3.7301875 
-0.001 1:0.17999219 2:-3.5201875 
-0.001 1:0.20362305 2:-3.25075 
-0.001 1:0.32610547 2:-3.250875 
-0.001 1:0.27660547 2:-3.0056875 
-0.001 1:0.38566406 2:-5.403625 
-0.001 1:0.31589453 2:-4.6761875 
-0.001 1:0.16573828 2:-3.3041875 
-0.001 1:0.43891406 2:-2.859 
-0.001 1:0.3807207 2:-4.4460625 
-0.001 1:0.19035547 2:-3.197625 
-0.001 1:0.45269336 2:-4.4751875 
-0.001 1:0.30535547 2:-3.164875 
-0.001 1:0.24345117 2:-3.248125 
-0.001 1:0.3564043 2:-3.6638125 
-0.001 1:0.42445703 2:-4.7930625 
-0.001 1:0.31867773 2:-5.0266875 
-0.001 1:0.31481055 2:-3.7885625 
-0.001 1:0.28462695 2:-4.688625 
-0.001 1:0.22320313 2:-2.806375 
-0.001 1:0.38608203 2:-5.83775 
-0.001 1:0.26663086 2:-3.441375 
-0.001 1:0.25924609 2:-4.822625 
-0.001 1:0.2812207 2:-2.873125 
-0.001 1:0.19193359 2:-1.929375 
-0.001 1:0.30986328 2:-2.678625 
-0.001 1:0.28352734 2:-3.212875 
-0.001 1:0.27653711 2:-3.3175625 
-0.001 1:0.23229883 2:-2.5465625 
-0.001 1:0.26330664 2:-1.4164375 
-0.001 1:0.20331055 2:-3.11325 
-0.001 1:0.32075781 2:-5.06075 
-0.001 1:0.34103711 2:-3.227875 
-0.001 1:0.16270117 2:-3.36225 
-0.001 1:0.19823438 2:-3.312625 
-0.001 1:0.22388477 2:-2.2773125 
-0.001 1:0.34167578 2:-2.6451875 
-0.001 1:0.23153711 2:-4.829875 
-0.001 1:0.18877148 2:-3.847 
-0.001 1:0.26469922 2:-4.0971875 
-0.001 1:0.2800332 2:-3.6730625 
-0.001 1:0.30330469 2:-2.7196875 
-0.001 1:0.30875 2:-3.484375 
-0.001 1:0.26757813 2:-4.801875 
-0.001 1:0.21361133 2:-3.8678125 
-0.001 1:0.19511328 2:-3.0749375 
-0.001 1:0.26073828 2:-4.4661875 
-0.001 1:0.34141797 2:-2.0791875 
-0.001 1:0.13434375 2:-2.3210625 
-0.001 1:0.20493945 2:-4.4815625 
-0.001 1:0.32768164 2:-3.8809375 
-0.001 1:0.35126758 2:-4.4229375 
-0.001 1:0.23367578 2:-2.1321875 
-0.001 1:0.28314844 2:-4.734 
-0.001 1:0.36369922 2:-5.36625 
-0.001 1:0.20761914 2:-1.4529375 
-0.001 1:0.26228125 2:-1.668 
-0.001 1:0.32758203 2:-4.008125 
-0.001 1:0.3324668 2:-3.562 
-0.001 1:0.33154688 2:-4.8363125 
-0.001 1:0.19701367 2:-2.13925 
-0.001 1:0.32547656 2:-3.5169375 
-0.001 1:0.22069727 2:-2.997375 
-0.001 1:0.23039844 2:-3.1139375 
-0.001 1:0.46247266 2:-6.5006875 
-0.001 1:0.14812891 2:-1.9295625 
-0.001 1:0.24535742 2:-3.0871875 
-0.001 1:0.22683203 2:-4.1194375 
-0.001 1:0.49461523 2:-4.0245625 
-0.001 1:0.25320117 2:-3.239875 
-0.001 1:0.16792383 2:-3.11075 
-0.001 1:0.2320293 2:-1.118875 
-0.001 1:0.24683398 2:-3.15875 
-0.001 1:0.25876172 2:-4.4411875 
-0.001 1:0.41641016 2:-4.679 
-0.001 1:0.20323047 2:-3.2955625 
-0.001 1:0.22074805 2:-3.112 
-0.001 1:0.41155273 2:-6.8126875 
-0.001 1:0.31787891 2:-2.8479375 
-0.001 1:0.53393555 2:-3.7854375 
-0.001 1:0.30931641 2:-2.750125 
-0.001 1:0.47564063 2:-3.4048125 
-0.001 1:0.25284766 2:-1.5586875 
-0.001 1:0.29061914 2:-4.0594375 
-0.001 1:0.30651367 2:-4.6270625 
-0.001 1:0.34611328 2:-1.1154375 
-0.001 1:0.20885547 2:-2.3333125 
-0.001 1:0.21907031 2:-3.1823125 
-0.001 1:0.17560742 2:-3.198875 
-0.001 1:0.29395313 2:-2.5784375 
-0.001 1:0.25799414 2:-3.7411875 
-0.001 1:0.20646875 2:-2.1166875 
-0.001 1:0.14578711 2:-2.0193125 
-0.001 1:0.22580078 2:-3.2849375 
-0.001 1:0.15469141 2:-3.0516875 
-0.001 1:0.12099414 2:-1.974625 
-0.001 1:0.21239258 2:-2.7041875 
-0.001 1:0.26038281 2:-4.149125 
-0.001 1:0.21199805 2:-3.9019375 
-0.001 1:0.32594531 2:-4.93 
-0.001 1:0.21823438 2:-2.610625 
-0.001 1:0.35916211 2:-3.00925 
-0.001 1:0.18084375 2:-3.0259375 
-0.001 1:0.18891602 2:-2.479875 
-0.001 1:0.24032227 2:-2.5743125 
-0.001 1:0.29291016 2:-3.6591875 
-0.001 1:0.22622461 2:-3.44825 
-0.001 1:0.26120508 2:-4.383875 
-0.001 1:0.26863672 2:-3.92925 
-0.001 1:0.27839453 2:-2.256625 
-0.001 1:0.28249414 2:-2.825 
-0.001 1:0.19264258 2:-2.876 
-0.001 1:0.23759961 2:-3.883125 
-0.001 1:0.22297266 2:-2.9069375 
-0.001 1:0.23999023 2:-4.5229375 
-0.001 1:0.38406055 2:-4.01 
-0.001 1:0.32245703 2:-3.907375 
-0.001 1:0.31895703 2:-3.3794375 
-0.001 1:0.30638672 2:-3.60425 
-0.0009986388604744094 1:0.26500391 2:-5.61825 
-0.001 1:0.22771875 2:-1.64375 
-0.001 1:0.28028516 2:-4.547 
-0.001 1:0.2469043 2:-4.0656875 
-0.001 1:0.40238867 2:-4.4288125 
-0.001 1:0.47945508 2:-4.4569375 
-0.001 1:0.25978906 2:-1.63275 
-0.001 1:0.44792773 2:-5.903 
-0.001 1:0.17069531 2:-1.9250625 
-0.001 1:0.22105273 2:-3.51125 
-0.001 1:0.31925977 2:-1.5941875 
-0.001 1:0.35754883 2:-3.372625 
-0.0005332130077739354 1:0.23632617 2:-4.5579375 
-0.001 1:0.21753125 2:-3.3175 
-0.001 1:0.27617578 2:-2.6374375 
-0.001 1:0.18489648 2:-2.2105625 
-0.001 1:0.26166016 2:-2.042 
-0.001 1:0.27364648 2:-2.1978125 
-0.001 1:0.28428125 2:-3.5425 
-0.001 1:0.38236328 2:-5.1270625 
-0.001 1:0.32287109 2:-2.40375 
-0.001 1:0.26988086 2:-3.72675 
-0.001 1:0.34345898 2:-3.634875 
-0.001 1:0.18390039 2:-3.3836875 
-0.001 1:0.23607227 2:-3.9830625 
-0.001 1:0.18411523 2:-3.1863125 
-0.001 1:0.27155469 2:-3.040875 
-0.001 1:0.15643164 2:-2.609 
-0.001 1:0.26113086 2:-1.6146875 
-0.001 1:0.16494336 2:-2.7305625 
-0.001 1:0.25825195 2:-4.7050625 
-0.001 1:0.25422266 2:-2.438875 
-0.001 1:0.37899609 2:-6.203375 
-0.001 1:0.40867188 2:-3.7954375 
-0.001 1:0.24639453 2:-3.246 
-0.001 1:0.2504668 2:-3.255625 
-0.001 1:0.19735547 2:-3.3311875 
-0.001 1:0.26407422 2:-4.263 
-0.001 1:0.38800586 2:-4.0814375 
-0.001 1:0.19902344 2:-3.5900625 
-0.001 1:0.19360547 2:-2.5951875 
-0.001 1:0.35650586 2:-5.135 
-0.001 1:0.29016016 2:-4.3633125 
-0.001 1:0.21389453 2:-2.7635625 
-0.001 1:0.18033008 2:-2.7246875 
-0.001 1:0.17987109 2:-2.704125 
-0.001 1:0.24638867 2:-2.7195625 
-0.001 1:0.34374219 2:-3.757125 
-0.001 1:0.27758789 2:-5.3843125 
-0.001 1:0.29558789 2:-5.2064375 
-0.001 1:0.2814668 2:-3.89525 
-0.001 1:0.32280273 2:-2.0461875 
-0.001 1:0.32339258 2:-4.312625 
-0.001 1:0.25026758 2:-2.719625 
-0.001 1:0.2743457 2:-3.3559375 
-0.001 1:0.19564844 2:-3.46 
-0.001 1:0.2777832 2:-4.090375 
-0.001 1:0.19799414 2:-3.060125 
-0.001 1:0.33467969 2:-3.48525 
-0.001 1:0.19644141 2:-2.87675 
-0.001 1:0.30219531 2:-2.524375 
-0.001 1:0.38744727 2:-3.2230625 
-0.001 1:0.23957617 2:-2.785375 
-0.001 1:0.23557227 2:-1.9678125 
-0.001 1:0.20242773 2:-2.74125 
-0.001 1:0.16150391 2:-2.4311875 
-0.001 1:0.21822266 2:-3.4904375 
-0.0001091613775372081 1:0.26014062 2:-5.9321875 
-0.001 1:0.34413281 2:-2.960375 
-0.001 1:0.43593359 2:-4.35875 
-0.001 1:0.19669336 2:-2.1111875 
-0.001 1:0.24583008 2:-2.7515625 
-0.001 1:0.14570898 2:-2.8419375 
-0.001 1:0.2154375 2:-2.541125 
-0.001 1:0.21253711 2:-1.875875 
-0.001 1:0.30563867 2:-1.884125 
-0.001 1:0.1716875 2:-2.1968125 
-0.001 1:0.18863477 2:-2.969625 
-0.001 1:0.26146289 2:-3.535125 
-0.001 1:0.21947852 2:-3.2145625 
-0.001 1:0.32638281 2:-2.101875 
-0.001 1:0.2369082 2:-3.1478125 
-0.001 1:0.22866016 2:-3.083125 
-0.001 1:0.16991992 2:-2.7774375 
-0.001 1:0.34985352 2:-2.4348125 
-0.001 1:0.26649414 2:-2.323875 
-0.001 1:0.3555332 2:-3.0255 
-0.001 1:0.23976953 2:-3.0374375 
-0.001 1:0.25304492 2:-2.577 
-0.001 1:0.34035352 2:-2.68275 
-0.001 1:0.38302539 2:-3.317625 
-0.001 1:0.22142969 2:-3.6686875 
-0.001 1:0.23966797 2:-3.09075 
-0.001 1:0.39812109 2:-4.224375 
-0.001 1:0.29189063 2:-3.62475 
-0.001 1:0.4214043 2:-5.82125 
-0.001 1:0.19626367 2:-2.565125 
-0.001 1:0.3845 2:-6.7055 
-0.001 1:0.19900781 2:-2.9758125 
-0.001 1:0.17535547 2:-2.8948125 
-0.001 1:0.34149805 2:-4.603125 
-0.001 1:0.31257617 2:-5.3324375 
-0.001 1:0.26693555 2:-3.574375 
-0.000463480983862755 1:0.2019043 2:-4.556625 
-0.001 1:0.19197266 2:-3.4304375 
-0.001 1:0.38234766 2:-2.281625 
-0.001 1:0.31888086 2:-3.5965625 
-0.001 1:0.2569082 2:-4.61875 
-0.001 1:0.44730469 2:-5.969375 
-0.001 1:0.20806445 2:-2.2381875 
-0.001 1:0.26847266 2:-2.5329375 
-0.0008506860145957291 1:0.49054687 2:-1.1923125 
-0.001 1:0.25650781 2:-4.108625 
-0.001 1:0.24534766 2:-4.24725 
-0.001 1:0.34639453 2:-3.306375 
-0.001 1:0.29880859 2:-4.723125 
-0.001 1:0.35866016 2:-3.0785 
-0.001 1:0.30215625 2:-3.0803125 
-0.001 1:0.25786328 2:-0.944125 
-0.001 1:0.28121875 2:-5.2725 
-0.001 1:0.37888477 2:-1.45675 
-0.001 1:0.24784766 2:-3.7591875 
-0.001 1:0.30577734 2:-2.7071875 
-0.001 1:0.20086914 2:-3.31725 
-0.001 1:0.35373047 2:-2.2044375 
-0.001 1:0.30670117 2:-1.691 
-0.001 1:0.33518359 2:-4.321625 
-0.001 1:0.25369141 2:-3.0723125 
-0.001 1:0.29319922 2:-4.9666875 
-0.001 1:0.28000586 2:-5.0475 
-0.001 1:0.2707832 2:-5.3389375 
-0.001 1:0.34460547 2:-4.783125 
-0.001 1:0.17753906 2:-2.79 
-0.001 1:0.23654492 2:-4.495125 
-0.0009896279305015468 1:0.26060352 2:-0.900625 
-0.001 1:0.23944336 2:-3.7123125 
-0.001 1:0.26426953 2:-3.7528125 
-0.001 1:0.22739063 2:-3.4049375 
-0.001 1:0.23747656 2:-3.9735 
-0.001 1:0.34011523 2:-4.4020625 
-0.001 1:0.19501367 2:-2.6203125 
-0.001 1:0.24066016 2:-2.2091875 
-0.001 1:0.25153516 2:-2.034125 
-0.001 1:0.24247852 2:-2.04975 
-0.001 1:0.28387695 2:-3.0823125 
-0.001 1:0.249 2:-3.5843125 
-0.001 1:0.22609766 2:-3.4574375 
-0.001 1:0.1737207 2:-2.6514375 
-0.001 1:0.24112305 2:-2.88025 
-0.001 1:0.30484766 2:-2.807 
-0.001 1:0.23308594 2:-1.8355 
-0.001 1:0.28905078 2:-3.00425 
-0.001 1:0.305625 2:-5.8485 
-0.001 1:0.38314062 2:-2.5246875 
-5.464741171885606e-06 1:0.40119336 2:-7.3266875 
-0.001 1:0.42158008 2:-4.9910625 
-0.001 1:0.34558203 2:-3.37725 
-0.001 1:0.27432422 2:-2.5110625 
-0.001 1:0.28879688 2:-4.4715 
-0.001 1:0.3448418 2:-4.1620625 
-0.001 1:0.19666016 2:-2.7878125 
-0.001 1:0.26429297 2:-4.2974375 
-0.001 1:0.27839258 2:-5.0685 
-0.001 1:0.4003418 2:-4.8186875 
-0.001 1:0.27323828 2:-3.409 
-0.001 1:0.33639844 2:-4.3919375 
-0.001 1:0.2705 2:-3.3024375 
-0.001 1:0.3290957 2:-2.6263125 
-0.001 1:0.33603906 2:-3.70375 
-0.001 1:0.2912832 2:-3.3300625 
-0.001 1:0.18193164 2:-4.0205 
-0.001 1:0.39505078 2:-4.75675 
-0.0009980724179016367 1:0.37595117 2:-6.845625 
-0.001 1:0.30180859 2:-2.16275 
-0.001 1:0.23851953 2:-4.312625 
-0.001 1:0.27366016 2:-3.7085625 
-0.001 1:0.3277207 2:-3.7340625 
-0.001 1:0.24925391 2:-4.0321875 
-0.001 1:0.28054102 2:-4.74375 
-0.001 1:0.21903711 2:-2.3874375 
-0.001 1:0.25980859 2:-2.995 
-0.001 1:0.25639453 2:-2.3706875 
-0.001 1:0.27055078 2:-1.3105 
-0.001 1:0.24608203 2:-2.3425625 
-0.001 1:0.14083398 2:-2.108625 
-0.001 1:0.32371484 2:-4.491375 
-0.001 1:0.24474805 2:-3.388625 
-0.001 1:0.20381836 2:-2.5619375 
-0.001 1:0.22875781 2:-3.6044375 
-0.001 1:0.338875 2:-3.906625 
-0.001 1:0.2820918 2:-3.37775 
-0.001 1:0.19 2:-2.9119375 
-0.001 1:0.17244727 2:-3.071125 
-0.001 1:0.26782227 2:-4.34 
-0.001 1:0.32152344 2:-4.0238125 
-0.001 1:0.28 2:-4.6884375 
-0.001 1:0.14826172 2:-3.133125 
-0.001 1:0.17928516 2:-2.8095 
-0.001 1:0.22643555 2:-2.9925625 
-0.001 1:0.20046875 2:-2.5005 
-0.001 1:0.23498242 2:-3.247 
-0.001 1:0.25719141 2:-3.743625 
-0.001 1:0.24193164 2:-3.122625 
-0.001 1:0.20847656 2:-2.4965625 
-0.001 1:0.26878906 2:-2.6270625 
-0.001 1:0.27556055 2:-4.5849375 
-0.001 1:0.13169336 2:-2.097 
-0.001 1:0.29655078 2:-0.9794375 
-0.001 1:0.2645 2:-3.494875 
-0.001 1:0.22067578 2:-3.08325 
-0.001 1:0.27551563 2:-4.810875 
-0.001 1:0.26932422 2:-1.75025 
-0.001 1:0.21431445 2:-3.4475625 
-0.001 1:0.31682227 2:-3.2665 
-0.001 1:0.22511328 2:-3.103875 
-0.001 1:0.23399219 2:-2.62225 
-0.001 1:0.26213867 2:-2.9094375 
-0.001 1:0.40937109 2:-2.7834375 
-1.037206949845317e-05 1:0.43723828 2:-7.1905 
-0.001 1:0.42361328 2:-2.841875 
-0.001 1:0.32132422 2:-3.2509375 
-0.001 1:0.21165039 2:-2.319875 
-0.001 1:0.40747852 2:-2.684 
-0.001 1:0.17101563 2:-2.8414375 
-0.001 1:0.31139258 2:-3.1750625 
-0.001 1:0.28324609 2:-4.5954375 
-0.001 1:0.39460156 2:-2.5830625 
-0.001 1:0.31369727 2:-2.0728125 
-0.001 1:0.29625195 2:-4.1665 
-0.001 1:0.32591797 2:-3.0913125 
-0.001 1:0.23927539 2:-3.3649375 
-0.001 1:0.28278906 2:-2.4069375 
-0.001 1:0.27977539 2:-2.3631875 
-0.001 1:0.32321094 2:-4.373875 
-0.001 1:0.39264844 2:-5.5818125 
-0.001 1:0.39511719 2:-3.599125 
-0.001 1:0.37252148 2:-3.554625 
-0.001 1:0.18317383 2:-2.6414375 
-0.001 1:0.13396289 2:-2.110125 
-0.001 1:0.11111719 2:-2.2655 
-0.001 1:0.22942383 2:-3.4251875 
-0.001 1:0.34450977 2:-3.534625 
-0.001 1:0.40333008 2:-3.0384375 
-0.001 1:0.36656836 2:-4.133375 
-0.001 1:0.22366797 2:-1.3763125 
-0.001 1:0.14630273 2:-2.197625 
-0.001 1:0.24126758 2:-2.4735 
-0.001 1:0.36796094 2:-5.66 
-0.001 1:0.27822461 2:-1.836375 
-0.001 1:0.39370508 2:-2.9211875 
-0.001 1:0.2762207 2:-0.91625 
