svm_type c_svc
kernel_type rbf
gamma 10000
nr_class 2
total_sv 5896
rho 0.963852
label 1 -1
nr_sv 1194 4702
SV
0.1 1:0.28954102 2:-4.644125 
0.1 1:0.33150781 2:-1.9401875 
0.1 1:0.41480664 2:-3.7495625 
0.1 1:0.27998633 2:-3.1631875 
0.1 1:0.17680469 2:-0.7626875 
0.1 1:0.41479102 2:-3.7660625 
0.1 1:0.34409766 2:-1.65875 
0.1 1:0.29141602 2:-3.130625 
0.1 1:0.57900781 2:-2.849625 
0.1 1:0.39012109 2:-2.077125 
0.1 1:0.42306055 2:-3.1710625 
0.1 1:0.42260938 2:-4.761125 
0.1 1:0.31656641 2:-2.7206875 
0.1 1:0.31361914 2:-3.78425 
0.1 1:0.30116602 2:-3.454875 
0.1 1:0.29473242 2:-3.053 
0.1 1:0.42530273 2:-3.6656875 
0.1 1:0.41161914 2:-3.4816875 
0.1 1:0.47179688 2:-4.263875 
0.1 1:0.39529102 2:-4.564375 
0.1 1:0.39301562 2:-4.5141875 
0.1 1:0.45131445 2:-4.8573125 
0.1 1:0.39408398 2:-5.8528125 
0.1 1:0.45438281 2:-2.711625 
0.1 1:0.38668359 2:-2.8516875 
0.1 1:0.50985352 2:-2.284 
0.1 1:0.3864375 2:-1.5735 
0.1 1:0.52532227 2:-2.8126875 
0.1 1:0.45753516 2:-3.1154375 
0.1 1:0.3889375 2:-3.2738125 
0.1 1:0.46608398 2:-2.914875 
0.1 1:0.30149805 2:-3.2504375 
0.1 1:0.28036523 2:-3.41475 
0.1 1:0.31999023 2:-3.4375 
0.1 1:0.31866406 2:-3.081875 
0.1 1:0.39345312 2:-2.227625 
0.1 1:0.51370117 2:-4.112625 
0.1 1:0.28839453 2:-3.682625 
0.1 1:0.42789844 2:-4.0163125 
0.1 1:0.27570508 2:-1.7501875 
0.1 1:0.27545117 2:-3.180875 
0.1 1:0.2234082 2:-2.465375 
0.1 1:0.28710156 2:-3.6726875 
0.1 1:0.29000391 2:-4.12425 
0.1 1:0.31611523 2:-3.318625 
0.1 1:0.33362305 2:-3.660375 
0.1 1:0.34348047 2:-2.28275 
0.1 1:0.40778125 2:-2.2558125 
0.1 1:0.31162891 2:-3.9908125 
0.1 1:0.49688477 2:-3.0741875 
0.1 1:0.44555664 2:-2.8524375 
0.1 1:0.26838477 2:-3.1514375 
0.1 1:0.19477539 2:-1.5100625 
0.1 1:0.26169922 2:-2.8788125 
0.1 1:0.42175977 2:-1.934 
0.1 1:0.50997461 2:-1.53175 
0.1 1:0.52543945 2:-1.5133125 
0.1 1:0.5994668 2:-2.6765 
0.1 1:0.32251953 2:-3.13 
0.1 1:0.4480918 2:-3.61075 
0.1 1:0.47799219 2:-2.5883125 
0.1 1:0.38176172 2:-3.197125 
0.1 1:0.36821094 2:-2.479875 
0.1 1:0.33624805 2:-2.221875 
0.1 1:0.31138867 2:-2.953875 
0.1 1:0.28545508 2:-4.1744375 
0.1 1:0.40131641 2:-2.6543125 
0.1 1:0.49073242 2:-3.315625 
0.1 1:0.49304102 2:-2.30275 
0.1 1:0.29399219 2:-2.9063125 
0.1 1:0.34798633 2:-4.020125 
0.1 1:0.29919727 2:-3.645375 
0.1 1:0.44145898 2:-2.5428125 
0.1 1:0.24614648 2:-3.1475 
0.1 1:0.34317578 2:-3.28275 
0.1 1:0.35558789 2:-3.6624375 
0.1 1:0.37868555 2:-2.908625 
0.1 1:0.42039648 2:-3.2233125 
0.1 1:0.35105859 2:-2.2709375 
0.1 1:0.23377734 2:-4.336375 
0.1 1:0.25773828 2:-3.7175625 
0.1 1:0.17488281 2:-1.0215 
0.1 1:0.22948242 2:-2.170625 
0.1 1:0.36972461 2:-1.8185 
0.1 1:0.37283398 2:-2.17775 
0.1 1:0.46744336 2:-3.1958125 
0.1 1:0.43983398 2:-1.9830625 
0.1 1:0.18727148 2:-2.3613125 
0.1 1:0.25310938 2:-3.3103125 
0.1 1:0.29048438 2:-2.908625 
0.1 1:0.3094082 2:-3.7965 
0.1 1:0.26782617 2:-3.1501875 
0.1 1:0.26945117 2:-2.346375 
0.1 1:0.35231641 2:-2.5646875 
0.1 1:0.15948437 2:-2.029 
0.1 1:0.36882227 2:-3.3408125 
0.1 1:0.29429687 2:-3.6584375 
0.1 1:0.26806055 2:-2.1526875 
0.1 1:0.27436719 2:-2.3890625 
0.1 1:0.22574414 2:-2.3684375 
0.1 1:0.34233203 2:-3.7615 
0.1 1:0.31919531 2:-2.3588125 
0.1 1:0.37255469 2:-4.3179375 
0.1 1:0.44328906 2:-1.86225 
0.1 1:0.26541797 2:-2.87675 
0.1 1:0.51979883 2:-1.8845625 
0.1 1:0.53860547 2:-3.504 
0.1 1:0.28378711 2:-2.2425 
0.1 1:0.32110547 2:-2.0231875 
0.1 1:0.35166406 2:-3.349 
0.1 1:0.26153125 2:-3.40475 
0.1 1:0.28976367 2:-2.34075 
0.1 1:0.2684375 2:-2.4340625 
0.1 1:0.44421484 2:-2.4914375 
0.1 1:0.4392168 2:-2.4121875 
0.1 1:0.29695898 2:-1.7955625 
0.1 1:0.27430469 2:-2.704875 
0.1 1:0.2959082 2:-2.391625 
0.1 1:0.33640039 2:-2.6640625 
0.1 1:0.36859766 2:-2.314875 
0.1 1:0.34080859 2:-1.552 
0.1 1:0.27767969 2:-2.165375 
0.1 1:0.30784375 2:-3.0463125 
0.1 1:0.3090957 2:-3.85075 
0.1 1:0.38376562 2:-3.8575625 
0.1 1:0.38344141 2:-3.6039375 
0.1 1:0.35373438 2:-2.158625 
0.1 1:0.31676953 2:-2.14075 
0.1 1:0.2551543 2:-2.345875 
0.1 1:0.40021875 2:-3.975125 
0.1 1:0.37047461 2:-4.07375 
0.1 1:0.43533203 2:-3.6585 
0.1 1:0.34657227 2:-2.2581875 
0.1 1:0.33625781 2:-1.9894375 
0.1 1:0.3046875 2:-2.61025 
0.1 1:0.3295625 2:-2.4216875 
0.1 1:0.30416992 2:-2.0409375 
0.1 1:0.33381445 2:-2.8750625 
0.1 1:0.46308789 2:-2.4643125 
0.1 1:0.454125 2:-2.0156875 
0.1 1:0.30499609 2:-2.81075 
0.1 1:0.34332617 2:-3.66225 
0.1 1:0.35253516 2:-3.5119375 
0.1 1:0.35352734 2:-2.3345625 
0.1 1:0.35586719 2:-4.579125 
0.1 1:0.24919336 2:-1.8699375 
0.1 1:0.3222207 2:-2.497375 
0.1 1:0.52628906 2:-2.6603125 
0.1 1:0.17047266 2:-2.255125 
0.1 1:0.31731445 2:-4.57025 
0.1 1:0.31222266 2:-1.824 
0.1 1:0.23729883 2:-1.4004375 
0.1 1:0.43748438 2:-3.083 
0.1 1:0.44503711 2:-3.56625 
0.1 1:0.28313086 2:-3.6645625 
0.1 1:0.27696094 2:-3.481375 
0.1 1:0.35098438 2:-2.575 
0.1 1:0.2591543 2:-1.780875 
0.1 1:0.18749023 2:-3.19425 
0.1 1:0.24311523 2:-2.8549375 
0.1 1:0.41620703 2:-3.46575 
0.1 1:0.43799805 2:-3.4333125 
0.1 1:0.41267578 2:-2.2394375 
0.1 1:0.37676367 2:-5.549 
0.1 1:0.31 2:-3.2896875 
0.1 1:0.31063477 2:-3.77025 
0.1 1:0.28365039 2:-2.8665 
0.1 1:0.42345313 2:-3.9575 
0.1 1:0.45117969 2:-3.092 
0.1 1:0.42935742 2:-3.0300625 
0.1 1:0.22990625 2:-4.26575 
0.1 1:0.39503906 2:-4.05675 
0.1 1:0.30292383 2:-2.5051875 
0.1 1:0.284625 2:-5.445375 
0.1 1:0.33414648 2:-4.8459375 
0.1 1:0.42413672 2:-4.6000625 
0.1 1:0.42115039 2:-5.187125 
0.1 1:0.39049805 2:-3.56675 
0.1 1:0.44375781 2:-3.0615 
0.1 1:0.47751758 2:-4.1559375 
0.1 1:0.50326758 2:-2.3361875 
0.1 1:0.3230332 2:-5.3358125 
0.1 1:0.33288867 2:-4.261125 
0.1 1:0.29560352 2:-3.0410625 
0.1 1:0.353 2:-2.7285 
0.1 1:0.27342773 2:-2.5523125 
0.1 1:0.33716992 2:-1.6179375 
0.1 1:0.32062109 2:-1.7270625 
0.1 1:0.25826562 2:-1.6623125 
0.1 1:0.31220117 2:-1.354625 
0.1 1:0.42663086 2:-3.637125 
0.1 1:0.47623633 2:-4.3488125 
0.1 1:0.2080957 2:-1.8283125 
0.1 1:0.21630273 2:-1.4938125 
0.1 1:0.25568945 2:-2.894875 
0.1 1:0.33024219 2:-3.121625 
0.1 1:0.34599805 2:-2.140125 
0.1 1:0.24593945 2:-2.1311875 
0.1 1:0.24601367 2:-2.191 
0.1 1:0.24747852 2:-2.792 
0.1 1:0.42885742 2:-3.095875 
0.1 1:0.38256445 2:-3.61 
0.1 1:0.27236914 2:-3.7054375 
0.1 1:0.38957813 2:-2.6315 
0.1 1:0.34983789 2:-4.0816875 
0.1 1:0.35217578 2:-2.085125 
0.1 1:0.39942773 2:-6.0199375 
0.1 1:0.46775 2:-3.990125 
0.1 1:0.38500977 2:-1.758 
0.1 1:0.40404883 2:-2.433875 
0.1 1:0.21495703 2:-1.86225 
0.1 1:0.22565039 2:-2.6808125 
0.1 1:0.27693164 2:-3.3294375 
0.1 1:0.35406641 2:-3.704375 
0.1 1:0.38451172 2:-3.2376875 
0.1 1:0.4695332 2:-3.23875 
0.1 1:0.26488281 2:-3.2199375 
0.1 1:0.22852344 2:-2.6631875 
0.1 1:0.43521875 2:-2.7759375 
0.1 1:0.53756055 2:-1.4563125 
0.1 1:0.25391211 2:-2.442625 
0.1 1:0.28090234 2:-3.5523125 
0.1 1:0.3136582 2:-3.195375 
0.1 1:0.25118164 2:-1.898125 
0.1 1:0.39793555 2:-2.6754375 
0.1 1:0.40866211 2:-2.91425 
0.1 1:0.19125977 2:-2.2409375 
0.1 1:0.39329102 2:-2.96975 
0.1 1:0.4534043 2:-3.5765625 
0.1 1:0.44136914 2:-5.2418125 
0.1 1:0.3462832 2:-4.65725 
0.1 1:0.35276562 2:-4.7933125 
0.1 1:0.40429687 2:-1.10175 
0.1 1:0.38853906 2:-2.2880625 
0.1 1:0.41318555 2:-4.2830625 
0.1 1:0.38029492 2:-2.6636875 
0.1 1:0.33859375 2:-2.1930625 
0.1 1:0.21748633 2:-2.4785 
0.1 1:0.50880273 2:-2.163 
0.1 1:0.459 2:-5.2013125 
0.1 1:0.34100781 2:-3.860125 
0.1 1:0.35734766 2:-2.7428125 
0.1 1:0.33469531 2:-2.93075 
0.1 1:0.26811719 2:-3.05975 
0.1 1:0.3195957 2:-4.8738125 
0.1 1:0.39028711 2:-2.472 
0.1 1:0.39319922 2:-2.43675 
0.1 1:0.39208203 2:-3.828125 
0.1 1:0.42557422 2:-2.0825625 
0.1 1:0.23667969 2:-3.285 
0.1 1:0.41963086 2:-2.7916875 
0.1 1:0.65594141 2:-2.2291875 
0.1 1:0.31175195 2:-2.6984375 
0.1 1:0.37692773 2:-6.066 
0.1 1:0.24733789 2:-3.4609375 
0.1 1:0.23803906 2:-1.2504375 
0.1 1:0.33924023 2:-3.7311875 
0.1 1:0.49211133 2:-2.1145 
0.1 1:0.36394531 2:-1.63875 
0.1 1:0.40451953 2:-1.271 
0.1 1:0.45625781 2:-3.9156875 
0.1 1:0.49548828 2:-3.364375 
0.1 1:0.28426953 2:-2.9063125 
0.1 1:0.43245703 2:-6.32425 
0.1 1:0.35253906 2:-2.61525 
0.1 1:0.348625 2:-2.0160625 
0.1 1:0.44514258 2:-3.364625 
0.1 1:0.30735547 2:-1.987125 
0.1 1:0.29741211 2:-2.8059375 
0.1 1:0.28708789 2:-2.5873125 
0.1 1:0.27220703 2:-1.8994375 
0.1 1:0.4747207 2:-3.821125 
0.1 1:0.45795313 2:-3.3419375 
0.1 1:0.20431836 2:-1.3066875 
0.1 1:0.41103125 2:-1.5165625 
0.1 1:0.31275195 2:-2.2413125 
0.1 1:0.25545703 2:-2.2199375 
0.1 1:0.29102539 2:-2.3373125 
0.1 1:0.33723437 2:-1.4580625 
0.1 1:0.37512109 2:-4.1375 
0.1 1:0.37527344 2:-4.52 
0.1 1:0.42236523 2:-3.9070625 
0.1 1:0.36245508 2:-4.3391875 
0.1 1:0.29295898 2:-4.6575625 
0.1 1:0.40152148 2:-3.35125 
0.1 1:0.22850586 2:-1.869875 
0.1 1:0.28496484 2:-2.3533125 
0.1 1:0.28685352 2:-2.059875 
0.1 1:0.48700977 2:-3.3898125 
0.1 1:0.2698418 2:-2.0849375 
0.1 1:0.58155273 2:-2.5085 
0.1 1:0.52079102 2:-2.4798125 
0.1 1:0.52735156 2:-4.2251875 
0.1 1:0.26952148 2:-1.5008125 
0.1 1:0.36931641 2:-4.372125 
0.1 1:0.22754492 2:-2.5660625 
0.1 1:0.46001953 2:-3.562375 
0.1 1:0.48591406 2:-2.752 
0.1 1:0.27792773 2:-1.9775625 
0.1 1:0.40191016 2:-2.013375 
0.1 1:0.29837891 2:-1.868375 
0.1 1:0.30395312 2:-2.4815625 
0.1 1:0.34070508 2:-1.944125 
0.1 1:0.40689063 2:-2.2748125 
0.1 1:0.36775195 2:-2.4995625 
0.1 1:0.42963477 2:-2.2746875 
0.1 1:0.371 2:-3.200125 
0.1 1:0.24449219 2:-1.5425 
0.1 1:0.25449219 2:-2.45125 
0.1 1:0.32063867 2:-2.9024375 
0.1 1:0.27138867 2:-2.4171875 
0.1 1:0.25672656 2:-1.856 
0.1 1:0.47086914 2:-2.552625 
0.1 1:0.53094922 2:-2.2313125 
0.1 1:0.47037109 2:-1.6984375 
0.1 1:0.40037695 2:-1.956125 
0.1 1:0.40182227 2:-3.1219375 
0.1 1:0.32571484 2:-2.687 
0.1 1:0.52552539 2:-3.46175 
0.1 1:0.50982422 2:-2.602875 
0.1 1:0.38722266 2:-1.817375 
0.1 1:0.32749023 2:-1.7175 
0.1 1:0.2248125 2:-1.0631875 
0.1 1:0.20659375 2:-1.3813125 
0.1 1:0.30467383 2:-2.7651875 
0.1 1:0.2792793 2:-4.419625 
0.1 1:0.40448242 2:-3.771 
0.1 1:0.45885352 2:-2.1756875 
0.1 1:0.27438672 2:-1.98 
0.1 1:0.35455273 2:-2.265 
0.1 1:0.29856836 2:-1.3805625 
0.1 1:0.35795508 2:-2.40525 
0.1 1:0.41151367 2:-2.1315 
0.1 1:0.30921484 2:-2.1234375 
0.1 1:0.28180078 2:-2.841625 
0.1 1:0.30118164 2:-2.975875 
0.1 1:0.25274414 2:-1.9728125 
0.1 1:0.2563418 2:-2.9838125 
0.1 1:0.25343945 2:-3.0164375 
0.1 1:0.27555469 2:-3.6163125 
0.1 1:0.29208203 2:-3.0359375 
0.1 1:0.51782031 2:-2.9840625 
0.1 1:0.55075 2:-2.677 
0.1 1:0.19023633 2:-2.2865 
0.1 1:0.407875 2:-3.1875625 
0.1 1:0.34212109 2:-3.7601875 
0.1 1:0.29614063 2:-3.1636875 
0.1 1:0.20087109 2:-0.9624375 
0.1 1:0.23283398 2:-2.39575 
0.1 1:0.43040625 2:-3.1189375 
0.1 1:0.45213086 2:-3.090875 
0.1 1:0.19886328 2:-2.5488125 
0.1 1:0.2208125 2:-2.5071875 
0.1 1:0.27175977 2:-2.2280625 
0.1 1:0.34951953 2:-2.8583125 
0.1 1:0.31622266 2:-2.7886875 
0.1 1:0.4820332 2:-1.2183125 
0.1 1:0.19142383 2:-2.952 
0.1 1:0.41204297 2:-4.5963125 
0.1 1:0.28090625 2:-1.948125 
0.1 1:0.31465625 2:-3.7899375 
0.1 1:0.40140625 2:-4.0538125 
0.1 1:0.4467832 2:-4.06625 
0.1 1:0.50605664 2:-2.7380625 
0.1 1:0.52707617 2:-4.68575 
0.1 1:0.41253711 2:-2.4326875 
0.1 1:0.23301758 2:-2.77575 
0.1 1:0.22523437 2:-4.4809375 
0.1 1:0.22986133 2:-2.7025625 
0.1 1:0.38278711 2:-1.911375 
0.1 1:0.37021289 2:-3.356375 
0.1 1:0.52820117 2:-3.1533125 
0.1 1:0.22896484 2:-3.422125 
0.1 1:0.53497656 2:-4.1345 
0.1 1:0.42437891 2:-2.695125 
0.1 1:0.35587305 2:-2.288625 
0.1 1:0.38156055 2:-2.6869375 
0.1 1:0.45810547 2:-2.725875 
0.1 1:0.48751172 2:-4.2118125 
0.1 1:0.37243359 2:-3.5903125 
0.1 1:0.28279492 2:-1.9401875 
0.1 1:0.47380469 2:-2.396625 
0.1 1:0.57983398 2:-1.5735625 
0.1 1:0.38264258 2:-2.117875 
0.1 1:0.36764844 2:-3.4171875 
0.1 1:0.29967383 2:-4.1315625 
0.1 1:0.36720898 2:-2.2955 
0.1 1:0.27999414 2:-2.9005 
0.1 1:0.19261133 2:-1.907375 
0.1 1:0.24225781 2:-3.93575 
0.1 1:0.45814258 2:-3.6809375 
0.1 1:0.27367383 2:-2.1773125 
0.1 1:0.4121875 2:-4.211 
0.1 1:0.26678906 2:-3.29475 
0.1 1:0.28736133 2:-3.1313125 
0.1 1:0.4081582 2:-2.5755 
0.1 1:0.40276563 2:-3.0210625 
0.1 1:0.30507812 2:-4.5428125 
0.1 1:0.4871875 2:-3.887125 
0.1 1:0.19270117 2:-2.1895 
0.1 1:0.16695508 2:-1.788625 
0.1 1:0.47977344 2:-3.13125 
0.1 1:0.38346484 2:-2.8445 
0.1 1:0.36126172 2:-3.423875 
0.1 1:0.32610547 2:-3.250875 
0.1 1:0.27660547 2:-3.0056875 
0.1 1:0.44389648 2:-2.2238125 
0.1 1:0.40474805 2:-2.588125 
0.1 1:0.24084375 2:-2.174125 
0.1 1:0.37858984 2:-2.6868125 
0.1 1:0.26692383 2:-3.2095 
0.1 1:0.29455273 2:-1.8113125 
0.1 1:0.25010547 2:-4.1759375 
0.1 1:0.39108984 2:-1.8384375 
0.1 1:0.45036328 2:-3.8025 
0.1 1:0.25866406 2:-5.145625 
0.1 1:0.31988281 2:-3.0180625 
0.1 1:0.49307031 2:-2.892875 
0.1 1:0.44060156 2:-1.6279375 
0.1 1:0.471 2:-3.108 
0.1 1:0.46012695 2:-2.757875 
0.1 1:0.46235742 2:-5.634125 
0.1 1:0.21296484 2:-1.6684375 
0.1 1:0.23607031 2:-2.3098125 
0.1 1:0.25761328 2:-2.3586875 
0.1 1:0.48723242 2:-2.3460625 
0.1 1:0.41818359 2:-4.63875 
0.1 1:0.43891406 2:-2.859 
0.1 1:0.46525391 2:-4.268125 
0.1 1:0.41381055 2:-3.4913125 
0.1 1:0.36124023 2:-3.3540625 
0.1 1:0.3807207 2:-4.4460625 
0.1 1:0.36006641 2:-3.2760625 
0.1 1:0.339125 2:-1.304625 
0.1 1:0.43852344 2:-2.296 
0.1 1:0.396875 2:-1.6061875 
0.1 1:0.36752344 2:-2.3046875 
0.1 1:0.38666406 2:-2.618125 
0.1 1:0.33942383 2:-2.816875 
0.1 1:0.42518555 2:-2.9306875 
0.1 1:0.45269336 2:-4.4751875 
0.1 1:0.40038086 2:-2.0874375 
0.1 1:0.26485742 2:-2.1836875 
0.1 1:0.30535547 2:-3.164875 
0.1 1:0.37462109 2:-4.6270625 
0.1 1:0.24718164 2:-3.4359375 
0.1 1:0.43002148 2:-2.2696875 
0.1 1:0.3902207 2:-3.342375 
0.1 1:0.3564043 2:-3.6638125 
0.1 1:0.39567969 2:-3.775375 
0.1 1:0.44560547 2:-3.518625 
0.1 1:0.45062109 2:-1.7868125 
0.1 1:0.44405469 2:-4.3299375 
0.1 1:0.43075781 2:-3.5646875 
0.1 1:0.42545898 2:-2.3104375 
0.1 1:0.29819141 2:-3.56975 
0.1 1:0.37061719 2:-3.7656875 
0.1 1:0.44163867 2:-4.752125 
0.1 1:0.34638672 2:-3.5878125 
0.1 1:0.37478516 2:-3.9449375 
0.1 1:0.40678711 2:-3.3389375 
0.1 1:0.30768945 2:-2.5954375 
0.1 1:0.33163281 2:-3.3355 
0.1 1:0.44303906 2:-2.2975625 
0.1 1:0.37298047 2:-3.0148125 
0.1 1:0.52864844 2:-2.0689375 
0.1 1:0.36405664 2:-1.8345 
0.1 1:0.46813867 2:-1.7313125 
0.1 1:0.37437891 2:-1.7210625 
0.1 1:0.44779492 2:-1.6871875 
0.1 1:0.32235156 2:-4.26875 
0.1 1:0.37616602 2:-4.028 
0.1 1:0.35502539 2:-1.6113125 
0.1 1:0.42798047 2:-1.8614375 
0.1 1:0.25164063 2:-3.43575 
0.1 1:0.2812207 2:-2.873125 
0.1 1:0.34073438 2:-1.85625 
0.1 1:0.33127734 2:-3.2449375 
0.1 1:0.43997461 2:-1.51125 
0.1 1:0.29558984 2:-2.858 
0.1 1:0.30986328 2:-2.678625 
0.1 1:0.29772266 2:-2.9845 
0.1 1:0.28343945 2:-1.48925 
0.1 1:0.33359961 2:-2.69725 
0.1 1:0.32907812 2:-1.86675 
0.1 1:0.28352734 2:-3.212875 
0.1 1:0.30418555 2:-2.98925 
0.1 1:0.2688418 2:-2.9066875 
0.1 1:0.35154688 2:-4.05375 
0.1 1:0.36387305 2:-2.0845625 
0.1 1:0.26034961 2:-2.928375 
0.1 1:0.3802207 2:-3.17925 
0.1 1:0.39324414 2:-2.4733125 
0.1 1:0.26330664 2:-1.4164375 
0.1 1:0.4159707 2:-2.448625 
0.1 1:0.3885957 2:-2.639375 
0.1 1:0.39798828 2:-2.7364375 
0.1 1:0.33468945 2:-3.2365 
0.1 1:0.43761719 2:-3.33625 
0.1 1:0.34103711 2:-3.227875 
0.1 1:0.22388477 2:-2.2773125 
0.1 1:0.39248828 2:-3.027875 
0.1 1:0.34167578 2:-2.6451875 
0.1 1:0.37977539 2:-2.7740625 
0.1 1:0.42236328 2:-6.1394375 
0.1 1:0.37757422 2:-4.804125 
0.1 1:0.18282422 2:-2.9845625 
0.1 1:0.43889844 2:-2.67725 
0.1 1:0.3836875 2:-4.3201875 
0.1 1:0.50765234 2:-2.22525 
0.1 1:0.4339043 2:-3.1655625 
0.1 1:0.38060742 2:-4.1420625 
0.1 1:0.31829297 2:-3.0553125 
0.1 1:0.30875 2:-3.484375 
0.1 1:0.35816797 2:-1.8958125 
0.1 1:0.33810352 2:-4.35 
0.1 1:0.47415625 2:-4.8995625 
0.1 1:0.31277148 2:-4.653625 
0.1 1:0.38122656 2:-3.5826875 
0.1 1:0.34141797 2:-2.0791875 
0.1 1:0.35726367 2:-4.68325 
0.1 1:0.29078711 2:-2.114 
0.1 1:0.45385156 2:-2.0045625 
0.1 1:0.43955078 2:-1.6426875 
0.1 1:0.38577734 2:-2.6884375 
0.1 1:0.31504492 2:-5.0301875 
0.1 1:0.42924219 2:-6.279125 
0.1 1:0.38738477 2:-2.848625 
0.1 1:0.5178125 2:-2.3533125 
0.1 1:0.33718359 2:-3.04075 
0.1 1:0.34706836 2:-4.571625 
0.1 1:0.33739062 2:-3.35425 
0.1 1:0.3888457 2:-3.347625 
0.1 1:0.26228125 2:-1.668 
0.1 1:0.32758203 2:-4.008125 
0.1 1:0.49133984 2:-4.1626875 
0.1 1:0.54844922 2:-2.60875 
0.1 1:0.2096543 2:-3.3384375 
0.1 1:0.3324668 2:-3.562 
0.1 1:0.26744336 2:-2.9053125 
0.1 1:0.19701367 2:-2.13925 
0.1 1:0.35609766 2:-2.9411875 
0.1 1:0.31833008 2:-2.2700625 
0.1 1:0.2439375 2:-3.4745625 
0.1 1:0.49685547 2:-1.6393125 
0.1 1:0.31225977 2:-1.9321875 
0.1 1:0.25426758 2:-5.0411875 
0.1 1:0.37638477 2:-4.545875 
0.1 1:0.3755918 2:-2.10825 
0.1 1:0.23039844 2:-3.1139375 
0.1 1:0.24535742 2:-3.0871875 
0.1 1:0.49461523 2:-4.0245625 
0.1 1:0.3394668 2:-2.1010625 
0.1 1:0.39830078 2:-2.392625 
0.1 1:0.23882813 2:-3.4575625 
0.1 1:0.3894082 2:-2.3775625 
0.1 1:0.41301172 2:-4.127 
0.1 1:0.35320508 2:-2.8369375 
0.1 1:0.49108398 2:-1.9874375 
0.1 1:0.42745117 2:-4.3916875 
0.1 1:0.38888086 2:-2.0305 
0.1 1:0.25628516 2:-2.2579375 
0.1 1:0.28953516 2:-4.65275 
0.1 1:0.31485156 2:-4.1795 
0.1 1:0.29781641 2:-4.276625 
0.1 1:0.41635938 2:-3.8374375 
0.1 1:0.21245312 2:-2.58725 
0.1 1:0.3705957 2:-2.8569375 
0.1 1:0.30743164 2:-2.150375 
0.1 1:0.35462891 2:-3.405125 
0.1 1:0.27363867 2:-2.9935 
0.1 1:0.3485625 2:-1.658125 
0.1 1:0.28655664 2:-3.3416875 
0.1 1:0.37261328 2:-4.8285 
0.1 1:0.43264453 2:-2.5055 
0.1 1:0.22231836 2:-4.296375 
0.1 1:0.50018164 2:-4.394625 
0.1 1:0.53393555 2:-3.7854375 
0.1 1:0.47579297 2:-3.768875 
0.1 1:0.47564063 2:-3.4048125 
0.1 1:0.32937891 2:-1.713375 
0.1 1:0.47471289 2:-1.781 
0.1 1:0.36937305 2:-4.2165 
0.1 1:0.43727148 2:-4.1584375 
0.1 1:0.30439258 2:-3.55325 
0.1 1:0.28432422 2:-3.0955625 
0.1 1:0.2388457 2:-2.1976875 
0.1 1:0.21323437 2:-1.5406875 
0.1 1:0.49775 2:-2.6403125 
0.1 1:0.64953711 2:-2.5906875 
0.1 1:0.31547266 2:-2.37125 
0.1 1:0.22610547 2:-2.844625 
0.1 1:0.34611328 2:-1.1154375 
0.1 1:0.40441406 2:-2.705 
0.1 1:0.32141992 2:-2.232125 
0.1 1:0.4513125 2:-2.75075 
0.1 1:0.37933789 2:-3.19475 
0.1 1:0.24414648 2:-2.412875 
0.1 1:0.34912305 2:-3.1158125 
0.1 1:0.32032812 2:-4.418125 
0.1 1:0.40728906 2:-2.4464375 
0.1 1:0.33449023 2:-3.8235625 
0.1 1:0.30874805 2:-3.3035 
0.1 1:0.30172266 2:-3.0673125 
0.1 1:0.4058418 2:-3.4255 
0.1 1:0.14666406 2:-2.631125 
0.1 1:0.29395313 2:-2.5784375 
0.1 1:0.3974043 2:-3.18575 
0.1 1:0.13879883 2:-1.968 
0.1 1:0.30839453 2:-3.525375 
0.1 1:0.4420332 2:-3.6693125 
0.1 1:0.26370703 2:-1.8264375 
0.1 1:0.40248242 2:-1.926875 
0.1 1:0.40569336 2:-2.21375 
0.1 1:0.38763477 2:-1.709875 
0.1 1:0.44185156 2:-3.6235 
0.1 1:0.27683008 2:-2.153625 
0.1 1:0.38616211 2:-2.294875 
0.1 1:0.44179297 2:-1.180625 
0.1 1:0.36413281 2:-1.5961875 
0.1 1:0.38197852 2:-3.4344375 
0.1 1:0.28627148 2:-1.2314375 
0.1 1:0.32691016 2:-2.5905 
0.1 1:0.39766406 2:-3.1635625 
0.1 1:0.20154688 2:-2.2619375 
0.1 1:0.35916211 2:-3.00925 
0.1 1:0.32543164 2:-5.8575625 
0.1 1:0.46808789 2:-4.909125 
0.1 1:0.46006445 2:-4.03125 
0.1 1:0.24508984 2:-1.8170625 
0.1 1:0.3315957 2:-3.4609375 
0.1 1:0.29425977 2:-3.531625 
0.1 1:0.22809766 2:-2.4148125 
0.1 1:0.33297852 2:-3.5381875 
0.1 1:0.27979883 2:-1.9578125 
0.1 1:0.45632617 2:-2.167125 
0.1 1:0.29291016 2:-3.6591875 
0.1 1:0.43209766 2:-2.5886875 
0.1 1:0.40568359 2:-4.743125 
0.1 1:0.33852344 2:-3.2181875 
0.1 1:0.49410352 2:-1.903625 
0.1 1:0.55480078 2:-3.3968125 
0.1 1:0.54077734 2:-2.5634375 
0.1 1:0.27026563 2:-4.021375 
0.1 1:0.30878516 2:-2.433625 
0.1 1:0.37463477 2:-3.621625 
0.1 1:0.33430664 2:-3.9859375 
0.1 1:0.30070898 2:-1.913875 
0.1 1:0.36987109 2:-1.69375 
0.1 1:0.4660332 2:-3.523875 
0.1 1:0.20394727 2:-3.174375 
0.1 1:0.35210742 2:-4.3413125 
0.1 1:0.31341016 2:-3.07175 
0.1 1:0.48227734 2:-4.33475 
0.1 1:0.29725586 2:-4.34775 
0.1 1:0.25674023 2:-4.3780625 
0.1 1:0.33169922 2:-2.062625 
0.1 1:0.31082422 2:-3.0363125 
0.1 1:0.3650957 2:-2.9554375 
0.1 1:0.27891211 2:-4.927 
0.1 1:0.32569141 2:-1.9805 
0.1 1:0.24403516 2:-3.33375 
0.1 1:0.42405469 2:-2.2151875 
0.1 1:0.44346484 2:-2.4981875 
0.1 1:0.49497656 2:-2.2388125 
0.1 1:0.4799043 2:-2.1899375 
0.1 1:0.45623047 2:-2.8043125 
0.1 1:0.32245703 2:-3.907375 
0.1 1:0.38885547 2:-2.417625 
0.1 1:0.22771875 2:-1.64375 
0.1 1:0.27932617 2:-4.1611875 
0.1 1:0.30602148 2:-4.477625 
0.1 1:0.25616016 2:-2.35625 
0.1 1:0.37949805 2:-2.4606875 
0.1 1:0.36703125 2:-4.044 
0.1 1:0.4214707 2:-4.5469375 
0.1 1:0.47233984 2:-3.6100625 
0.1 1:0.47945508 2:-4.4569375 
0.1 1:0.40580078 2:-3.350125 
0.1 1:0.25978906 2:-1.63275 
0.1 1:0.23420703 2:-1.3368125 
0.1 1:0.39682227 2:-1.5556875 
0.1 1:0.39370703 2:-3.9125 
0.1 1:0.37240234 2:-3.902125 
0.1 1:0.24129883 2:-2.6834375 
0.1 1:0.21372266 2:-3.2156875 
0.1 1:0.21819531 2:-2.891375 
0.1 1:0.16750391 2:-2.8849375 
0.1 1:0.29571094 2:-2.205125 
0.1 1:0.33814844 2:-3.5335 
0.1 1:0.44792773 2:-5.903 
0.1 1:0.17069531 2:-1.9250625 
0.1 1:0.28618945 2:-3.7015625 
0.1 1:0.31925977 2:-1.5941875 
0.1 1:0.35754883 2:-3.372625 
0.1 1:0.36829492 2:-2.7315 
0.1 1:0.43008203 2:-2.4576875 
0.1 1:0.4265625 2:-1.383125 
0.1 1:0.30707031 2:-1.776375 
0.1 1:0.27617578 2:-2.6374375 
0.1 1:0.26166016 2:-2.042 
0.1 1:0.27364648 2:-2.1978125 
0.1 1:0.25358594 2:-0.9501875 
0.1 1:0.28428125 2:-3.5425 
0.1 1:0.3309082 2:-3.58025 
0.1 1:0.33367383 2:-2.739 
0.1 1:0.25308594 2:-4.6645625 
0.1 1:0.36563477 2:-3.1015 
0.1 1:0.32287109 2:-2.40375 
0.1 1:0.24892187 2:-2.3585625 
0.1 1:0.28037109 2:-3.8800625 
0.1 1:0.34345898 2:-3.634875 
0.1 1:0.36414062 2:-3.597 
0.1 1:0.32834766 2:-1.8000625 
0.1 1:0.15487695 2:-2.084875 
0.1 1:0.37326563 2:-4.7308125 
0.1 1:0.31025977 2:-2.604625 
0.1 1:0.4079668 2:-3.6353125 
0.1 1:0.31291602 2:-3.3015625 
0.1 1:0.18492578 2:-3.3076875 
0.1 1:0.26679102 2:-4.0938125 
0.1 1:0.39617188 2:-4.6318125 
0.1 1:0.31989258 2:-1.6335625 
0.1 1:0.26133203 2:-4.7173125 
0.1 1:0.22961328 2:-4.3941875 
0.1 1:0.27303906 2:-3.471875 
0.1 1:0.27155469 2:-3.040875 
0.1 1:0.38167773 2:-1.8676875 
0.1 1:0.50256445 2:-4.464375 
0.1 1:0.26113086 2:-1.6146875 
0.1 1:0.22906641 2:-1.590375 
0.1 1:0.24961133 2:-3.538375 
0.1 1:0.30421484 2:-4.210125 
0.1 1:0.31301172 2:-2.7151875 
0.1 1:0.41433789 2:-4.3966875 
0.1 1:0.26388086 2:-2.4286875 
0.1 1:0.35870508 2:-2.239875 
0.1 1:0.25422266 2:-2.438875 
0.1 1:0.37899609 2:-6.203375 
0.1 1:0.45989258 2:-2.8385625 
0.1 1:0.33210742 2:-3.9484375 
0.1 1:0.34614648 2:-2.4749375 
0.1 1:0.40867188 2:-3.7954375 
0.1 1:0.37616406 2:-3.7056875 
0.1 1:0.39700391 2:-2.647125 
0.1 1:0.30995313 2:-4.216375 
0.1 1:0.23373633 2:-3.3294375 
0.1 1:0.38800586 2:-4.0814375 
0.1 1:0.54441992 2:-4.3748125 
0.1 1:0.39082422 2:-2.3981875 
0.1 1:0.32529102 2:-3.8465 
0.1 1:0.35028711 2:-1.8460625 
0.1 1:0.31810938 2:-1.90625 
0.1 1:0.47286914 2:-4.1599375 
0.1 1:0.2397168 2:-3.8524375 
0.1 1:0.31316992 2:-2.777625 
0.1 1:0.35650586 2:-5.135 
0.1 1:0.4066875 2:-5.1200625 
0.1 1:0.44498437 2:-3.3908125 
0.1 1:0.46874414 2:-2.178875 
0.1 1:0.24638867 2:-2.7195625 
0.1 1:0.27299023 2:-1.2601875 
0.1 1:0.34374219 2:-3.757125 
0.1 1:0.32280273 2:-2.0461875 
0.1 1:0.38329492 2:-1.7343125 
0.1 1:0.38128516 2:-2.86675 
0.1 1:0.50226563 2:-3.4804375 
0.1 1:0.32582227 2:-3.9795 
0.1 1:0.32643555 2:-3.9843125 
0.1 1:0.33677148 2:-2.777375 
0.1 1:0.31682031 2:-3.3043125 
0.1 1:0.34261133 2:-3.0275 
0.1 1:0.32289648 2:-3.127125 
0.1 1:0.17209766 2:-3.677625 
0.1 1:0.24733008 2:-3.39625 
0.1 1:0.19224414 2:-3.40725 
0.1 1:0.44778516 2:-2.7351875 
0.1 1:0.21661914 2:-2.7246875 
0.1 1:0.32263086 2:-5.6656875 
0.1 1:0.34041602 2:-3.856875 
0.1 1:0.30180469 2:-3.6710625 
0.1 1:0.32941602 2:-2.3140625 
0.1 1:0.35352148 2:-1.8081875 
0.1 1:0.3418125 2:-4.4185625 
0.1 1:0.28764844 2:-2.8450625 
0.1 1:0.35964258 2:-2.9628125 
0.1 1:0.33467969 2:-3.48525 
0.1 1:0.25717773 2:-2.1083125 
0.1 1:0.35426563 2:-2.5839375 
0.1 1:0.30219531 2:-2.524375 
0.1 1:0.38744727 2:-3.2230625 
0.1 1:0.23957617 2:-2.785375 
0.1 1:0.21975195 2:-2.9699375 
0.1 1:0.23557227 2:-1.9678125 
0.1 1:0.19851367 2:-2.452625 
0.1 1:0.28487891 2:-2.8999375 
0.1 1:0.31198242 2:-2.8375 
0.1 1:0.43593359 2:-4.35875 
0.1 1:0.24583008 2:-2.7515625 
0.1 1:0.31608789 2:-2.0230625 
0.1 1:0.38823047 2:-3.969 
0.1 1:0.26628711 2:-3.311375 
0.1 1:0.2614707 2:-3.76825 
0.1 1:0.2154375 2:-2.541125 
0.1 1:0.53006445 2:-2.718375 
0.1 1:0.43607617 2:-2.363125 
0.1 1:0.59253906 2:-2.77375 
0.1 1:0.43018359 2:-4.062625 
0.1 1:0.21253711 2:-1.875875 
0.1 1:0.20956836 2:-2.620875 
0.1 1:0.33180469 2:-5.012375 
0.1 1:0.30563867 2:-1.884125 
0.1 1:0.50798047 2:-2.635 
0.1 1:0.22947852 2:-1.157625 
0.1 1:0.21206055 2:-1.68725 
0.1 1:0.25664063 2:-5.19725 
0.1 1:0.20821484 2:-2.039 
0.1 1:0.31141211 2:-1.650875 
0.1 1:0.52775391 2:-2.3980625 
0.1 1:0.37132227 2:-2.3320625 
0.1 1:0.42245117 2:-2.2446875 
0.1 1:0.45107812 2:-2.0339375 
0.1 1:0.42266211 2:-3.6119375 
0.1 1:0.36345508 2:-3.368625 
0.1 1:0.31237305 2:-1.243125 
0.1 1:0.32638281 2:-2.101875 
0.1 1:0.34324414 2:-3.4438125 
0.1 1:0.23285156 2:-2.8511875 
0.1 1:0.33908984 2:-2.6120625 
0.1 1:0.25696484 2:-2.8865625 
0.1 1:0.22000586 2:-2.8480625 
0.1 1:0.42184766 2:-3.1485625 
0.1 1:0.34985352 2:-2.4348125 
0.1 1:0.25627734 2:-1.8748125 
0.1 1:0.27545312 2:-2.4158125 
0.1 1:0.30731445 2:-2.7576875 
0.1 1:0.40020312 2:-5.3531875 
0.1 1:0.45412305 2:-2.8335 
0.1 1:0.39201758 2:-3.277375 
0.1 1:0.29012891 2:-2.4004375 
0.1 1:0.3078125 2:-3.290375 
0.1 1:0.35733008 2:-2.4945 
0.1 1:0.37652539 2:-2.0765 
0.1 1:0.34035352 2:-2.68275 
0.1 1:0.35717578 2:-3.3101875 
0.1 1:0.38302539 2:-3.317625 
0.1 1:0.2195625 2:-3.7606875 
0.1 1:0.40748633 2:-4.45825 
0.1 1:0.29189063 2:-3.62475 
0.1 1:0.31803516 2:-0.858 
0.1 1:0.2967832 2:-3.249875 
0.1 1:0.21849805 2:-2.5488125 
0.1 1:0.21723047 2:-2.405125 
0.1 1:0.35071875 2:-2.1446875 
0.1 1:0.17598242 2:-3.369 
0.1 1:0.5069082 2:-2.5089375 
0.1 1:0.40707813 2:-1.1791875 
0.1 1:0.38924414 2:-2.8080625 
0.1 1:0.41820312 2:-4.4476875 
0.1 1:0.1862207 2:-1.8210625 
0.1 1:0.33051172 2:-3.44125 
0.1 1:0.26119531 2:-2.6723125 
0.1 1:0.29471289 2:-3.5785625 
0.1 1:0.4627793 2:-3.8699375 
0.1 1:0.28891602 2:-1.8748125 
0.1 1:0.45496094 2:-4.1976875 
0.1 1:0.33593555 2:-1.454375 
0.1 1:0.2871582 2:-5.202125 
0.1 1:0.28694336 2:-2.7929375 
0.1 1:0.35878516 2:-1.594875 
0.1 1:0.37343359 2:-2.9120625 
0.1 1:0.3609707 2:-1.736625 
0.1 1:0.36638086 2:-3.2388125 
0.1 1:0.43455859 2:-1.505125 
0.1 1:0.38234766 2:-2.281625 
0.1 1:0.31888086 2:-3.5965625 
0.1 1:0.32193359 2:-4.249 
0.1 1:0.49887891 2:-3.0599375 
0.1 1:0.20806445 2:-2.2381875 
0.1 1:0.26847266 2:-2.5329375 
0.1 1:0.43425977 2:-1.4025 
0.1 1:0.49054687 2:-1.1923125 
0.1 1:0.34639453 2:-3.306375 
0.1 1:0.43258789 2:-3.1353125 
0.1 1:0.37596094 2:-4.226625 
0.1 1:0.38841797 2:-3.018625 
0.1 1:0.35866016 2:-3.0785 
0.1 1:0.43707422 2:-3.3401875 
0.1 1:0.12336719 2:-2.2634375 
0.1 1:0.37888477 2:-1.45675 
0.1 1:0.29544336 2:-3.8183125 
0.1 1:0.20846289 2:-1.83875 
0.1 1:0.21699023 2:-2.6715 
0.1 1:0.41257227 2:-1.71725 
0.1 1:0.39027148 2:-3.910875 
0.1 1:0.30577734 2:-2.7071875 
0.1 1:0.26130078 2:-1.77575 
0.1 1:0.43825586 2:-2.51575 
0.1 1:0.47210156 2:-2.5506875 
0.1 1:0.35373047 2:-2.2044375 
0.1 1:0.37689063 2:-1.9815 
0.1 1:0.40568945 2:-3.4481875 
0.1 1:0.29330469 2:-2.6145 
0.1 1:0.20203516 2:-1.9925 
0.1 1:0.46979297 2:-3.54825 
0.1 1:0.46249414 2:-4.082 
0.1 1:0.49512891 2:-1.64025 
0.1 1:0.3658125 2:-1.961625 
0.1 1:0.3132207 2:-2.439 
0.1 1:0.30670117 2:-1.691 
0.1 1:0.29613086 2:-3.8143125 
0.1 1:0.29705078 2:-1.08675 
0.1 1:0.24187695 2:-2.55675 
0.1 1:0.45833789 2:-3.199125 
0.1 1:0.25369141 2:-3.0723125 
0.1 1:0.33874023 2:-3.620125 
0.1 1:0.45176563 2:-4.928 
0.1 1:0.24520117 2:-3.8335625 
0.1 1:0.21876367 2:-3.14925 
0.1 1:0.36907422 2:-4.377875 
0.1 1:0.39445898 2:-3.74275 
0.1 1:0.3034707 2:-4.362875 
0.1 1:0.36310352 2:-2.8215625 
0.1 1:0.21710742 2:-3.57425 
0.1 1:0.26060352 2:-0.900625 
0.1 1:0.1994082 2:-2.0345625 
0.1 1:0.31102734 2:-4.2288125 
0.1 1:0.39310937 2:-3.974875 
0.1 1:0.29471094 2:-3.955125 
0.1 1:0.32065234 2:-3.4786875 
0.1 1:0.38345508 2:-2.8543125 
0.1 1:0.38675977 2:-4.5975 
0.1 1:0.36498437 2:-5.0790625 
0.1 1:0.40231445 2:-5.663875 
0.1 1:0.42469531 2:-1.8178125 
0.1 1:0.32876367 2:-2.7605 
0.1 1:0.36598633 2:-2.9008125 
0.1 1:0.31540625 2:-5.0003125 
0.1 1:0.25908398 2:-4.4743125 
0.1 1:0.45823437 2:-2.62375 
0.1 1:0.42650586 2:-1.8313125 
0.1 1:0.32942969 2:-1.7116875 
0.1 1:0.24066016 2:-2.2091875 
0.1 1:0.25153516 2:-2.034125 
0.1 1:0.24247852 2:-2.04975 
0.1 1:0.23672852 2:-2.6773125 
0.1 1:0.28387695 2:-3.0823125 
0.1 1:0.29637891 2:-4.25375 
0.1 1:0.50034766 2:-1.9210625 
0.1 1:0.37928906 2:-3.4013125 
0.1 1:0.47594336 2:-2.7745 
0.1 1:0.34355469 2:-3.5971875 
0.1 1:0.34296484 2:-2.37725 
0.1 1:0.44748633 2:-3.7504375 
0.1 1:0.30484766 2:-2.807 
0.1 1:0.23308594 2:-1.8355 
0.1 1:0.2265332 2:-1.9818125 
0.1 1:0.28305273 2:-2.2699375 
0.1 1:0.34263672 2:-3.112 
0.1 1:0.27044922 2:-2.3269375 
0.1 1:0.28905078 2:-3.00425 
0.1 1:0.21552148 2:-3.5938125 
0.1 1:0.38314062 2:-2.5246875 
0.1 1:0.34419531 2:-1.66775 
0.1 1:0.43210742 2:-3.254625 
0.1 1:0.32331641 2:-2.8158125 
0.1 1:0.2550293 2:-2.693875 
0.1 1:0.38989063 2:-2.975 
0.1 1:0.34558203 2:-3.37725 
0.1 1:0.32716602 2:-2.767 
0.1 1:0.49319727 2:-3.079625 
0.1 1:0.27432422 2:-2.5110625 
0.1 1:0.30510547 2:-4.36925 
0.1 1:0.40251367 2:-3.5608125 
0.1 1:0.4495 2:-2.537375 
0.1 1:0.23525781 2:-3.2718125 
0.1 1:0.28123828 2:-2.438375 
0.1 1:0.22897461 2:-3.203625 
0.1 1:0.31274219 2:-3.13875 
0.1 1:0.273625 2:-3.2185 
0.1 1:0.42280859 2:-3.1426875 
0.1 1:0.4512207 2:-2.2161875 
0.1 1:0.50483789 2:-3.899875 
0.1 1:0.59392578 2:-2.6131875 
0.1 1:0.3290957 2:-2.6263125 
0.1 1:0.39325977 2:-3.343 
0.1 1:0.30180859 2:-2.16275 
0.1 1:0.27366016 2:-3.7085625 
0.1 1:0.27574414 2:-3.3558125 
0.1 1:0.35397656 2:-1.859625 
0.1 1:0.36602734 2:-1.5118125 
0.1 1:0.40507617 2:-2.5451875 
0.1 1:0.28082617 2:-2.2118125 
0.1 1:0.28570312 2:-1.774 
0.1 1:0.43242188 2:-1.561625 
0.1 1:0.52732813 2:-2.161125 
0.1 1:0.5656875 2:-1.8881875 
0.1 1:0.37178516 2:-3.7303125 
0.1 1:0.27910352 2:-3.861875 
0.1 1:0.29399805 2:-3.1081875 
0.1 1:0.18329492 2:-3.2108125 
0.1 1:0.25707813 2:-3.7184375 
0.1 1:0.30579492 2:-2.78075 
0.1 1:0.372 2:-1.93875 
0.1 1:0.30825586 2:-3.884125 
0.1 1:0.36222656 2:-4.23425 
0.1 1:0.34605859 2:-3.7740625 
0.1 1:0.18889648 2:-3.22025 
0.1 1:0.43997461 2:-1.7660625 
0.1 1:0.38224414 2:-3.084 
0.1 1:0.42864844 2:-2.6571875 
0.1 1:0.40037109 2:-2.6249375 
0.1 1:0.22916406 2:-3.683875 
0.1 1:0.32730664 2:-4.8165625 
0.1 1:0.3907793 2:-2.0875625 
0.1 1:0.27055078 2:-1.3105 
0.1 1:0.46410742 2:-4.8941875 
0.1 1:0.20561914 2:-2.3905625 
0.1 1:0.24608203 2:-2.3425625 
0.1 1:0.38394531 2:-3.999875 
0.1 1:0.25060937 2:-5.4385 
0.1 1:0.41775391 2:-2.2223125 
0.1 1:0.20381836 2:-2.5619375 
0.1 1:0.338875 2:-3.906625 
0.1 1:0.3464043 2:-3.0483125 
0.1 1:0.42498437 2:-3.7625625 
0.1 1:0.52079883 2:-3.961125 
0.1 1:0.46446094 2:-3.1174375 
0.1 1:0.50749414 2:-4.0415625 
0.1 1:0.2820918 2:-3.37775 
0.1 1:0.33263867 2:-3.347125 
0.1 1:0.3054375 2:-1.9735625 
0.1 1:0.30674414 2:-2.46875 
0.1 1:0.22599414 2:-1.5581875 
0.1 1:0.22520898 2:-3.5239375 
0.1 1:0.37239258 2:-3.290125 
0.1 1:0.17244727 2:-3.071125 
0.1 1:0.47981836 2:-2.9349375 
0.1 1:0.29727539 2:-3.397 
0.1 1:0.30881445 2:-2.2698125 
0.1 1:0.29321875 2:-3.302 
0.1 1:0.39125781 2:-2.5903125 
0.1 1:0.38560742 2:-3.2704375 
0.1 1:0.30654297 2:-2.1839375 
0.1 1:0.34260937 2:-1.451625 
0.1 1:0.32152344 2:-4.0238125 
0.1 1:0.50777344 2:-3.3566875 
0.1 1:0.45166016 2:-4.38775 
0.1 1:0.34605078 2:-4.539 
0.1 1:0.51006055 2:-1.950875 
0.1 1:0.46969531 2:-2.3004375 
0.1 1:0.27541992 2:-5.0645625 
0.1 1:0.41696289 2:-3.655625 
0.1 1:0.25701367 2:-2.2314375 
0.1 1:0.45213672 2:-3.742375 
0.1 1:0.39397461 2:-5.0691875 
0.1 1:0.3027832 2:-1.9758125 
0.1 1:0.29420313 2:-1.9199375 
0.1 1:0.50944336 2:-3.7714375 
0.1 1:0.60116992 2:-1.4695625 
0.1 1:0.54976758 2:-0.798875 
0.1 1:0.26674219 2:-3.784625 
0.1 1:0.24304883 2:-3.1459375 
0.1 1:0.26878906 2:-2.6270625 
0.1 1:0.28439453 2:-2.960375 
0.1 1:0.21825195 2:-3.4581875 
0.1 1:0.22953125 2:-4.0635 
0.1 1:0.27570117 2:-2.78825 
0.1 1:0.44528125 2:-3.1585 
0.1 1:0.12339844 2:-2.0333125 
0.1 1:0.20134375 2:-1.7034375 
0.1 1:0.44310742 2:-3.224625 
0.1 1:0.35807031 2:-2.4820625 
0.1 1:0.3515918 2:-1.2735625 
0.1 1:0.44529687 2:-1.3795 
0.1 1:0.28163281 2:-3.179375 
0.1 1:0.29655078 2:-0.9794375 
0.1 1:0.29110156 2:-2.9788125 
0.1 1:0.38279883 2:-3.2830625 
0.1 1:0.46189453 2:-3.329875 
0.1 1:0.28016797 2:-2.0644375 
0.1 1:0.26932422 2:-1.75025 
0.1 1:0.31682227 2:-3.2665 
0.1 1:0.35025195 2:-4.0530625 
0.1 1:0.33358203 2:-3.0415 
0.1 1:0.37255273 2:-4.0279375 
0.1 1:0.28870508 2:-4.330625 
0.1 1:0.36936914 2:-3.5874375 
0.1 1:0.47980859 2:-3.3043125 
0.1 1:0.27773047 2:-3.5765625 
0.1 1:0.31573633 2:-3.224125 
0.1 1:0.29299805 2:-3.0075 
0.1 1:0.37058984 2:-3.2365 
0.1 1:0.17296875 2:-1.639 
0.1 1:0.34441992 2:-2.5821875 
0.1 1:0.38938672 2:-1.4563125 
0.1 1:0.3668457 2:-1.7016875 
0.1 1:0.35310156 2:-2.948625 
0.1 1:0.39997852 2:-2.023 
0.1 1:0.41947266 2:-3.2993125 
0.1 1:0.43007617 2:-2.785 
0.1 1:0.44330078 2:-2.477875 
0.1 1:0.41676953 2:-3.57375 
0.1 1:0.35033594 2:-2.7564375 
0.1 1:0.3831875 2:-2.1104375 
0.1 1:0.40937109 2:-2.7834375 
0.1 1:0.24726953 2:-1.332625 
0.1 1:0.46533398 2:-3.3760625 
0.1 1:0.32204492 2:-2.8611875 
0.1 1:0.38089844 2:-3.7419375 
0.1 1:0.42836523 2:-3.6604375 
0.1 1:0.41648047 2:-2.96775 
0.1 1:0.42250391 2:-2.2156875 
0.1 1:0.51585742 2:-6.6545 
0.1 1:0.33559961 2:-4.079875 
0.1 1:0.27632617 2:-1.724 
0.1 1:0.23089453 2:-1.5915 
0.1 1:0.32889453 2:-3.90775 
0.1 1:0.5284082 2:-3.2651875 
0.1 1:0.42361328 2:-2.841875 
0.1 1:0.52434375 2:-2.0265 
0.1 1:0.4947168 2:-2.6748125 
0.1 1:0.49741406 2:-2.678875 
0.1 1:0.36358984 2:-4.906375 
0.1 1:0.44803711 2:-4.523 
0.1 1:0.43280273 2:-3.691 
0.1 1:0.33156445 2:-3.9391875 
0.1 1:0.25251367 2:-3.199625 
0.1 1:0.20988281 2:-2.778625 
0.1 1:0.40037109 2:-2.33225 
0.1 1:0.17054102 2:-1.676875 
0.1 1:0.32132422 2:-3.2509375 
0.1 1:0.42325586 2:-2.9004375 
0.1 1:0.24242187 2:-2.8604375 
0.1 1:0.21165039 2:-2.319875 
0.1 1:0.40747852 2:-2.684 
0.1 1:0.39734961 2:-4.196375 
0.1 1:0.41735742 2:-1.526375 
0.1 1:0.43618359 2:-2.817625 
0.1 1:0.34886523 2:-2.161625 
0.1 1:0.32977539 2:-2.2985625 
0.1 1:0.31139258 2:-3.1750625 
0.1 1:0.39460156 2:-2.5830625 
0.1 1:0.31369727 2:-2.0728125 
0.1 1:0.34693359 2:-2.9148125 
0.1 1:0.34125391 2:-1.1159375 
0.1 1:0.32591797 2:-3.0913125 
0.1 1:0.23927539 2:-3.3649375 
0.1 1:0.2566543 2:-2.5156875 
0.1 1:0.28278906 2:-2.4069375 
0.1 1:0.42980078 2:-3.1031875 
0.1 1:0.27977539 2:-2.3631875 
0.1 1:0.34071484 2:-2.841 
0.1 1:0.35675586 2:-2.232875 
0.1 1:0.37282227 2:-1.704 
0.1 1:0.33852734 2:-1.579375 
0.1 1:0.35805469 2:-1.609 
0.1 1:0.49850195 2:-4.2493125 
0.1 1:0.43819336 2:-6.483 
0.1 1:0.43186914 2:-3.553875 
0.1 1:0.39511719 2:-3.599125 
0.1 1:0.45349219 2:-1.922625 
0.1 1:0.56148633 2:-3.396 
0.1 1:0.34235156 2:-2.1496875 
0.1 1:0.49329102 2:-2.5065625 
0.1 1:0.35101172 2:-3.5235 
0.1 1:0.37252148 2:-3.554625 
0.1 1:0.39533203 2:-2.349875 
0.1 1:0.41361328 2:-2.1330625 
0.1 1:0.21700781 2:-2.3581875 
0.1 1:0.34277734 2:-2.4906875 
0.1 1:0.1554707 2:-1.6245625 
0.1 1:0.34450977 2:-3.534625 
0.1 1:0.45466992 2:-2.942125 
0.1 1:0.30773633 2:-3.180875 
0.1 1:0.50227539 2:-3.744 
0.1 1:0.51713281 2:-3.2915625 
0.1 1:0.27089063 2:-2.5478125 
0.1 1:0.35908984 2:-2.934875 
0.1 1:0.40333008 2:-3.0384375 
0.1 1:0.36656836 2:-4.133375 
0.1 1:0.48641992 2:-1.735875 
0.1 1:0.39318359 2:-3.0641875 
0.1 1:0.32316602 2:-2.5864375 
0.1 1:0.2394668 2:-3.7249375 
0.1 1:0.24126758 2:-2.4735 
0.1 1:0.32408008 2:-3.10675 
0.1 1:0.41975977 2:-3.188 
0.1 1:0.36944336 2:-1.555 
0.1 1:0.27822461 2:-1.836375 
0.1 1:0.41796875 2:-3.0170625 
0.1 1:0.434375 2:-2.9555625 
0.1 1:0.31038086 2:-3.6683125 
0.1 1:0.59758984 2:-2.2580625 
-0.0634552880710422 1:0.3410918 2:-4.5289375 
-0.0345693595800583 1:0.44413086 2:-5.4968125 
-0.03876241846415959 1:0.23100195 2:-2.88675 
-0.01576813971106557 1:0.20027539 2:-3.534375 
-0.01233297778811644 1:0.29193555 2:-4.3520625 
-0.02924212917089773 1:0.20337891 2:-3.3363125 
-0.01511324093313457 1:0.12304297 2:-0.707875 
-0.01135251327444057 1:0.11385937 2:-0.931375 
-0.01215892432678781 1:0.11537109 2:-0.386 
-0.01072624298117283 1:0.10228125 2:-0.3788125 
-0.01313802092493162 1:0.15481055 2:-3.29475 
-0.01194908919071147 1:0.20914258 2:-3.79575 
-0.07733141897866883 1:0.44066992 2:-4.3504375 
-0.02969378212227814 1:0.14204297 2:-1.8194375 
-0.01465441933487299 1:0.20682227 2:-2.31725 
-0.01744422574584805 1:0.27822461 2:-4.0888125 
-0.00212273467898022 1:0.19740234 2:-4.139 
-0.004234681255875752 1:0.28341602 2:-4.0206875 
-0.005391198386264688 1:0.21297852 2:-4.493375 
-0.03000375358976775 1:0.14896484 2:-0.9749375 
-0.02772186469208243 1:0.12761914 2:-3.1504375 
-0.0124448682267233 1:0.12889648 2:-0.521625 
-0.02908358588548487 1:0.14435352 2:-2.1880625 
-0.02486465655608687 1:0.16850195 2:-3.7725625 
-0.02164102217175515 1:0.35700391 2:-5.1086875 
-0.02085465339835712 1:0.21798242 2:-3.359625 
-0.02440763160914081 1:0.32469141 2:-4.671125 
-0.02301697705248561 1:0.30232617 2:-5.9131875 
-0.0006647978882808216 1:0.27167383 2:-5.0855 
-0.01546505217812625 1:0.1438125 2:-0.2509375 
-0.007213100757602953 1:0.24815234 2:-3.5175 
-0.01308748657437832 1:0.25998047 2:-4.9770625 
-0.008262499954026399 1:0.16880273 2:-3.3520625 
-0.01723256980529324 1:0.2253418 2:-3.977875 
-0.01642630817420702 1:0.18921094 2:-3.328375 
-0.01647868109174969 1:0.16395313 2:-2.691875 
-0.005402092006974018 1:0.23323633 2:-4.245875 
-0.04757688245360905 1:0.34156641 2:-4.8388125 
-0.005123851878024252 1:0.22111914 2:-4.2523125 
-0.009845973006441966 1:0.26739844 2:-3.47025 
-0.02621942221004042 1:0.17676562 2:-2.18075 
-0.02204442187638584 1:0.23461914 2:-3.3475 
-0.04173463460656754 1:0.42295508 2:-4.58325 
-0.02986693775711791 1:0.35011133 2:-4.5961875 
-0.03582937954953177 1:0.30577539 2:-4.2723125 
-0.1 1:0.26988281 2:-3.781125 
-0.06080585111427658 1:0.30645703 2:-2.082 
-0.02127003668169142 1:0.11708789 2:-2.7410625 
-0.03608504893025141 1:0.33792773 2:-3.1846875 
-0.02129370304454882 1:0.14866406 2:-0.3103125 
-0.06026331949662486 1:0.32394141 2:-4.4250625 
-0.03593272297266681 1:0.41233789 2:-5.5705 
-0.03077317324983031 1:0.35138672 2:-4.4420625 
-0.07967370571129492 1:0.37638086 2:-6.194875 
-0.0332423207895359 1:0.30213477 2:-3.89275 
-0.08079937205753415 1:0.26610156 2:-3.7638125 
-0.01968458417985941 1:0.24904883 2:-4.0290625 
-0.0216758918073251 1:0.25138281 2:-4.99325 
-0.008094631079325929 1:0.20269141 2:-3.6675625 
-0.02087182070993987 1:0.27826172 2:-4.4676875 
-0.01025021430249584 1:0.1857832 2:-3.4355625 
-0.01402085976338118 1:0.26391211 2:-4.62975 
-0.07318397892662606 1:0.33248828 2:-2.502 
-0.01432420996291299 1:0.13327539 2:-0.8525 
-0.02298055575362871 1:0.30964648 2:-4.949125 
-0.01857154167784391 1:0.31595508 2:-5.7154375 
-0.0218750123879114 1:0.25022266 2:-4.73425 
-0.02661757721019234 1:0.304 2:-4.2009375 
-0.02681838966388998 1:0.39480078 2:-5.1758125 
-0.08797323863401738 1:0.40496289 2:-6.0150625 
-0.0269358098546997 1:0.29694531 2:-3.1875 
-0.02491108766522959 1:0.170125 2:-0.8236875 
-0.01968137719231339 1:0.31182031 2:-5.115875 
-0.009246482035322853 1:0.3134707 2:-3.9344375 
-0.02647355038630073 1:0.3470957 2:-5.96525 
-0.03087929262916034 1:0.18338477 2:-1.7868125 
-0.03504693346040996 1:0.36280664 2:-5.8456875 
-0.008929814690415797 1:0.15353516 2:-2.9208125 
-0.01876310959138533 1:0.18854883 2:-1.38175 
-0.02122300411963516 1:0.34718164 2:-5.0629375 
-0.02305163607484872 1:0.21601367 2:-2.9423125 
-0.01368453512791946 1:0.27704883 2:-4.812625 
-0.03670923548024072 1:0.3785957 2:-3.982125 
-0.01549300173973722 1:0.33870313 2:-4.6759375 
-0.01558116459810195 1:0.25520508 2:-4.975 
-0.04425516612137978 1:0.35701172 2:-4.0114375 
-0.02269647725266109 1:0.36472656 2:-5.27075 
-0.1 1:0.29733594 2:-3.103625 
-0.1 1:0.20225391 2:-2.3948125 
-0.01069507673929321 1:0.2812207 2:-4.057375 
-0.0712031551943679 1:0.33430859 2:-3.2810625 
-0.01129870531637583 1:0.25219727 2:-3.65825 
-0.006775222754925636 1:0.32179492 2:-4.5561875 
-0.01272080491128175 1:0.25332422 2:-3.5625625 
-0.02954653962134723 1:0.32887109 2:-4.583875 
-0.03427272785429883 1:0.32455469 2:-6.3529375 
-0.02792088784825908 1:0.32277539 2:-3.7033125 
-0.02059719013979401 1:0.25852344 2:-4.745875 
-0.0219478819780333 1:0.33418555 2:-2.956375 
-0.01335558623446833 1:0.30691406 2:-4.4438125 
-0.09092801601180803 1:0.36934766 2:-3.1859375 
-0.005271791267238516 1:0.32936523 2:-4.9815 
-0.01205592482142357 1:0.16690234 2:-2.8409375 
-0.01654265458705323 1:0.27851172 2:-5.1588125 
-0.01231901129841996 1:0.161375 2:-3.141875 
-0.09083534129536594 1:0.33725781 2:-3.869 
-0.03787765949128574 1:0.4166543 2:-6.32025 
-0.02811275495206035 1:0.22682812 2:-0.9900625 
-0.01494329634719344 1:0.30006445 2:-4.989 
-0.01260480236162913 1:0.18958984 2:-3.7131875 
-0.004709646317770369 1:0.14505859 2:-0.5869375 
-0.01951483863520626 1:0.25207813 2:-5.338125 
-0.0342117630261779 1:0.24014258 2:-2.9931875 
-0.02183013077834423 1:0.17768945 2:-0.8363125 
-0.01234524142237556 1:0.15851172 2:-2.733375 
-0.01863291542808293 1:0.39188867 2:-5.9671875 
-0.02419530140272742 1:0.36164258 2:-5.9445 
-0.04201524518882624 1:0.25451758 2:-1.7416875 
-0.02647054874070076 1:0.30048633 2:-3.50575 
-0.00125825489242763 1:0.20572852 2:-3.8619375 
-0.02451164710355279 1:0.12221289 2:-1.896 
-0.0009774023284511144 1:0.093220703 2:-0.5623125 
-0.02953561509191671 1:0.20792578 2:-2.2953125 
-0.03053942306292928 1:0.34291211 2:-6.461375 
-0.01112144576810128 1:0.21591406 2:-3.963125 
-0.0414523466186401 1:0.31355664 2:-4.3781875 
-0.02014135541831327 1:0.16754883 2:-3.00825 
-0.01867952931858624 1:0.2195957 2:-4.1358125 
-0.01206707612515337 1:0.1409375 2:-0.6854375 
-0.008082600430783956 1:0.15616016 2:-3.1676875 
-0.02072719860241713 1:0.16002539 2:-2.419375 
-0.0187538930762976 1:0.19998828 2:-4.3165625 
-0.03100914007710992 1:0.13074219 2:-1.6263125 
-0.02201200355399857 1:0.19980273 2:-2.6626875 
-0.007864357971606173 1:0.28785156 2:-4.107875 
-0.02060630315864499 1:0.2707207 2:-4.2679375 
-0.02156683977007178 1:0.1929668 2:-3.8806875 
-0.01403906875728757 1:0.12535156 2:-2.5491875 
-0.02411357343212095 1:0.25545898 2:-3.367125 
-0.1 1:0.34135156 2:-3.9849375 
-0.01880796024938502 1:0.34923437 2:-6.008875 
-0.03619623595523594 1:0.37868359 2:-4.4215 
-0.02163415097910659 1:0.15301367 2:-0.3863125 
-0.01437897359300211 1:0.17422656 2:-3.5231875 
-0.01848732162114813 1:0.21604492 2:-4.5743125 
-0.008330797521416728 1:0.24427539 2:-4.5516875 
-0.01617773254750982 1:0.15451758 2:-3.617125 
-0.002878577853906059 1:0.20004297 2:-3.977 
-0.004232480700320944 1:0.17282227 2:-3.03875 
-0.01794041563681297 1:0.16155273 2:-2.772875 
-0.01791427030275772 1:0.13370312 2:-0.8206875 
-0.03467064447042001 1:0.19053711 2:-0.814 
-0.03101320023193177 1:0.31669531 2:-5.9090625 
-0.06274017959801984 1:0.36500586 2:-4.0619375 
-0.02130986626667912 1:0.22575 2:-0.9669375 
-0.02232179816244967 1:0.10354883 2:-0.8704375 
-0.09098076930440305 1:0.22776367 2:-2.785125 
-0.009892643003819415 1:0.13164844 2:-0.6746875 
-0.01549995142045136 1:0.29884375 2:-5.16125 
-0.02623197937340982 1:0.14570117 2:-0.6723125 
-0.01981093566730657 1:0.23999219 2:-3.8719375 
-0.02380905384178111 1:0.17437305 2:-1.1169375 
-0.01023166656674233 1:0.14452539 2:-0.301 
-0.01298330408407133 1:0.18840039 2:-3.832625 
-0.01089329626925754 1:0.25895117 2:-4.7979375 
-0.000436104626737353 1:0.24378906 2:-4.7823125 
-0.005927621319212449 1:0.2848457 2:-4.2438125 
-0.02048579513518917 1:0.29211523 2:-5.5613125 
-0.05808440087105646 1:0.33098047 2:-2.8483125 
-0.02933267244793167 1:0.39789844 2:-2.9333125 
-0.009407957287457944 1:0.13310156 2:-0.8990625 
-0.01110764051243152 1:0.16800391 2:-4.0455 
-0.01110002395126425 1:0.19798242 2:-3.7665 
-0.003799658429918729 1:0.18447266 2:-3.474625 
-0.001280611959427355 1:0.19091211 2:-3.9148125 
-0.0145188481422036 1:0.10353711 2:-0.32425 
-0.008973244543435519 1:0.11791602 2:-0.928125 
-0.01369871613607293 1:0.2853125 2:-5.6540625 
-0.1 1:0.31657031 2:-3.592375 
-0.01244725198006566 1:0.25561523 2:-4.500125 
-0.01300307908359438 1:0.15707422 2:-0.3799375 
-0.02965917086363264 1:0.10989844 2:-1.7845 
-0.0358171668793105 1:0.21885156 2:-1.7906875 
-0.02457369819711758 1:0.23658008 2:-4.75075 
-0.1 1:0.31800195 2:-2.7066875 
-0.005154852802145116 1:0.19408008 2:-3.92775 
-0.009587904588090432 1:0.18142773 2:-3.918625 
-0.02837344525738561 1:0.19188281 2:-2.0279375 
-0.008209008498972603 1:0.1593418 2:-2.700125 
-0.02537416366011915 1:0.13867773 2:-2.1584375 
-0.01031757598204578 1:0.17995508 2:-2.70825 
-0.02303484536604437 1:0.17126758 2:-2.6516875 
-0.001679297967863334 1:0.19194531 2:-3.868625 
-0.01565540441901403 1:0.26805664 2:-5.3481875 
-0.01432641525008074 1:0.29497461 2:-2.2556875 
-0.01491320083705579 1:0.17952344 2:-0.905875 
-0.01608374945842512 1:0.2980332 2:-4.735125 
-0.01057043391264917 1:0.1520625 2:-0.365125 
-0.01675388383262821 1:0.37451172 2:-5.1918125 
-0.02373912793853086 1:0.36505469 2:-6.3261875 
-0.09485151968820379 1:0.28387305 2:-3.2044375 
-0.006979675276775056 1:0.22577344 2:-4.980125 
-0.01343402328512772 1:0.1064707 2:-1.0458125 
-0.01525871573843744 1:0.1932832 2:-2.9311875 
-0.03295910033616198 1:0.17110742 2:-3.0755625 
-0.02930159025756934 1:0.23298633 2:-2.002375 
-0.1 1:0.33290039 2:-3.62125 
-0.0338269504337112 1:0.22383594 2:-2.1114375 
-0.006870157097783131 1:0.20191211 2:-3.6116875 
-0.03714416626613934 1:0.40943945 2:-2.8265625 
-0.08099722838184001 1:0.31775 2:-3.28175 
-0.01459745861144016 1:0.20573242 2:-2.702 
-0.02085130338850993 1:0.1710625 2:-3.46225 
-0.03002814867904208 1:0.076144531 2:-1.757125 
-0.0334640222492413 1:0.26702148 2:-5.8805 
-0.015396962642863 1:0.29344141 2:-5.347125 
-0.02165077672866744 1:0.24877344 2:-4.000875 
-0.01352392392930459 1:0.15307227 2:-0.6921875 
-0.003798715298410915 1:0.28038086 2:-4.51125 
-0.04178044939129652 1:0.4447832 2:-5.192375 
-0.03637811342058375 1:0.44478125 2:-4.250625 
-0.1 1:0.34373047 2:-3.911375 
-0.01098549918137479 1:0.24305469 2:-4.645625 
-0.01092515733092052 1:0.14643359 2:-0.4403125 
-0.02813804385180188 1:0.19324805 2:-1.237 
-0.0284710651143294 1:0.27416016 2:-5.666125 
-0.03336555999694647 1:0.32563867 2:-6.033 
-0.0360287458237378 1:0.30793359 2:-6.8123125 
-0.06152842450059678 1:0.24226758 2:-5.4451875 
-0.05913668951446768 1:0.34991016 2:-4.7875 
-0.03611715950179914 1:0.28956836 2:-6.3693125 
-0.03588325052487903 1:0.30739453 2:-6.3014375 
-0.01401746653516805 1:0.2695293 2:-5.3064375 
-0.02679180451165319 1:0.2875332 2:-5.1054375 
-0.02297452844118018 1:0.32865234 2:-6.080125 
-0.03060300881837635 1:0.33945508 2:-5.1548125 
-0.01862711217095313 1:0.34478125 2:-5.5698125 
-0.04801278447355108 1:0.25563281 2:-5.0321875 
-0.0339065924536871 1:0.10011719 2:-1.7415625 
-0.0008067158985755607 1:0.090535156 2:-0.549875 
-0.02861858063148426 1:0.1034375 2:-2.272875 
-0.0227029032532435 1:0.10009375 2:-2.2575 
-0.03586894761527794 1:0.089693359 2:-1.929 
-0.01252185000965328 1:0.2907207 2:-4.073875 
-0.06759465057550754 1:0.18330469 2:-1.0176875 
-0.1 1:0.26678516 2:-2.513375 
-0.002228203907385873 1:0.36113672 2:-5.1243125 
-0.008309913784488083 1:0.35733008 2:-5.43475 
-0.022578809234171 1:0.36351563 2:-4.783125 
-0.01430407958560681 1:0.13256836 2:-0.4560625 
-0.02618010374937979 1:0.14360156 2:-2.328 
-0.008133615162700249 1:0.13386133 2:-1.2381875 
-0.01174681370097617 1:0.25408203 2:-4.2065 
-0.1 1:0.19375391 2:-2.2433125 
-0.01107077788926527 1:0.17743945 2:-2.8775625 
-0.02081749663101058 1:0.24010547 2:-3.806125 
-0.04367234204054468 1:0.17836914 2:-2.2420625 
-0.01078336998195902 1:0.18582227 2:-3.371625 
-0.03530712017498392 1:0.3866875 2:-5.8071875 
-0.001833653785315886 1:0.23699023 2:-4.6709375 
-0.01520787701803506 1:0.20204297 2:-4.244125 
-0.0008941221337642191 1:0.18260156 2:-3.7633125 
-0.01945166488407053 1:0.24741992 2:-3.6719375 
-0.005138871608753615 1:0.31241797 2:-5.316625 
-0.01871432155890946 1:0.29004102 2:-4.75775 
-0.02852930097387413 1:0.20066016 2:-0.89125 
-0.04767045118059384 1:0.18073242 2:-3.306625 
-0.01508213977254205 1:0.22704492 2:-4.5253125 
-0.01246472673203201 1:0.17343359 2:-3.47525 
-0.01157148546728104 1:0.187875 2:-3.811875 
-0.05444999541163437 1:0.27054883 2:-3.8561875 
-0.01994182867320049 1:0.31945313 2:-3.7214375 
-0.02811198057226127 1:0.22024414 2:-0.4883125 
-0.1 1:0.3456543 2:-3.2239375 
-0.0590574579608401 1:0.19016016 2:-2.035125 
-0.01412993812178143 1:0.13918359 2:-0.2368125 
-0.00526696905404286 1:0.16511328 2:-3.0784375 
-0.1 1:0.22986914 2:-4.2670625 
-0.006554834406383137 1:0.22860547 2:-3.5635625 
-0.007495950466978604 1:0.16456055 2:-2.7685625 
-0.03039240176637101 1:0.35155469 2:-4.9226875 
-0.005635364500032393 1:0.19022461 2:-2.65175 
-0.007188374537155462 1:0.14582422 2:-0.899875 
-0.09474057527492599 1:0.24648828 2:-3.09025 
-0.01133581474460643 1:0.27569727 2:-5.115 
-0.01168549137702644 1:0.17742578 2:-3.540875 
-0.007946018987517607 1:0.2153418 2:-4.1908125 
-0.007540814470743347 1:0.22478906 2:-4.116125 
-0.02020821662392697 1:0.22826562 2:-4.2855625 
-0.02522752390995148 1:0.11248828 2:-0.94625 
-0.006796075462356423 1:0.19146289 2:-3.1794375 
-0.01642715438270394 1:0.11079297 2:-1.479125 
-0.01052510941887114 1:0.17953516 2:-3.5239375 
-0.002397554919971112 1:0.23526758 2:-3.806875 
-0.0102848784744398 1:0.22725781 2:-4.50175 
-0.0125111697156835 1:0.14000195 2:-0.3459375 
-0.09095693303028386 1:0.21878516 2:-3.5774375 
-0.02188191232104703 1:0.24295898 2:-4.509125 
-0.0305514367511947 1:0.17200195 2:-1.5355625 
-0.01360754593162871 1:0.20408203 2:-4.0919375 
-0.1 1:0.18525781 2:-3.2083125 
-0.01388241050691925 1:0.21332617 2:-4.2690625 
-0.03011080403164731 1:0.31200586 2:-4.8094375 
-0.01575293725426574 1:0.17664258 2:-0.5855625 
-0.04383022039560383 1:0.32058789 2:-2.162375 
-0.03531762261891216 1:0.40533789 2:-6.4565 
-2.586634055629566e-06 1:0.27999219 2:-5.3160625 
-0.01315935550904016 1:0.35347656 2:-4.989375 
-0.04794748685634673 1:0.19665234 2:-1.8435 
-0.004668883846932134 1:0.27144727 2:-4.3475 
-0.004902109942914083 1:0.11981641 2:-0.8105625 
-0.01363063921968272 1:0.17929883 2:-3.351875 
-0.00387955262668518 1:0.20003516 2:-3.9598125 
-0.07132666759544348 1:0.18567383 2:-3.1919375 
-0.01251419302347461 1:0.23300781 2:-4.5359375 
-0.03296980111607808 1:0.11208398 2:-2.1299375 
-0.0803248680706263 1:0.29791797 2:-4.2606875 
-0.0271785964339075 1:0.21219141 2:-4.848875 
-0.01116710829010661 1:0.24193359 2:-4.4168125 
-0.01282778017638014 1:0.13382422 2:-2.432 
-0.04481879765114924 1:0.33174023 2:-5.8703125 
-0.01717771029706228 1:0.15559375 2:-1.099625 
-0.02813687690287214 1:0.343625 2:-3.1510625 
-0.02600644574499268 1:0.27994922 2:-4.938125 
-0.02290927766247333 1:0.25383398 2:-5.38075 
-0.0339793458706055 1:0.094105469 2:-1.25525 
-0.006614002164815085 1:0.19883789 2:-3.663375 
-0.001364654904627394 1:0.2238125 2:-3.79475 
-0.004093555734159704 1:0.16731445 2:-3.6010625 
-0.004399534219778737 1:0.20133789 2:-4.279625 
-0.01643794866376886 1:0.22071289 2:-3.80325 
-0.02542330518785804 1:0.32777344 2:-5.440125 
-0.002128006133284288 1:0.16658594 2:-0.6339375 
-0.02283022800227641 1:0.26242773 2:-3.55675 
-0.01927041023363846 1:0.11014844 2:-2.056 
-0.01193588722978562 1:0.15299414 2:-3.1221875 
-0.005830517880115511 1:0.15137891 2:-3.006625 
-0.01857654246287435 1:0.27254883 2:-4.6736875 
-0.010368586593275 1:0.30064063 2:-4.62675 
-0.02477653973631536 1:0.13091406 2:-0.335375 
-0.01469180222124683 1:0.26129492 2:-2.958625 
-0.01819426170644333 1:0.22720898 2:-3.548 
-0.006587382652589735 1:0.18875977 2:-2.61775 
-0.0005650567267870832 1:0.19955273 2:-3.771 
-0.01003825969903432 1:0.23842773 2:-4.6815 
-0.03142976629205091 1:0.21311133 2:-0.706 
-0.009064456758686668 1:0.27325391 2:-4.1274375 
-0.03187109742550598 1:0.25929492 2:-3.3233125 
-0.003626499419336658 1:0.19726367 2:-3.866375 
-0.007494143025449079 1:0.20499219 2:-4.49775 
-0.005302371516532626 1:0.23277148 2:-3.7389375 
-0.03459374380487718 1:0.23530273 2:-1.1014375 
-0.01522271930026275 1:0.33430664 2:-5.211375 
-0.02905264763979017 1:0.29704883 2:-3.9256875 
-0.03493088388359327 1:0.088027344 2:-1.490625 
-0.01027066667988039 1:0.28984375 2:-4.7261875 
-0.005095325169567585 1:0.35638672 2:-4.4035 
-0.02770473714217235 1:0.18099805 2:-0.7325625 
-0.009184743408122285 1:0.33105664 2:-4.730375 
-0.009119649335152366 1:0.25291602 2:-4.2434375 
-0.01442248671215116 1:0.20922266 2:-2.4875625 
-0.002071984417609117 1:0.22247266 2:-3.88825 
-0.003131924169922776 1:0.18249414 2:-3.0206875 
-0.02230614795601138 1:0.23956055 2:-4.2628125 
-0.01088049880987998 1:0.23852734 2:-3.167 
-0.01957712016930799 1:0.21736328 2:-4.1575 
-0.02088454831649053 1:0.25207227 2:-3.5475625 
-0.02199726938194072 1:0.13950195 2:-0.3895625 
-0.01348793283740835 1:0.31178906 2:-5.2914375 
-0.05844365617499672 1:0.47007031 2:-3.4156875 
-0.02784601340918619 1:0.42903711 2:-5.4879375 
-0.008341902626679828 1:0.26625781 2:-5.1054375 
-0.03174195580151673 1:0.34298242 2:-4.6171875 
-0.001837214554799969 1:0.32689258 2:-5.5529375 
-0.01621155852750833 1:0.31602344 2:-4.9779375 
-0.01829472430457024 1:0.20891211 2:-4.05275 
-0.0185417074853837 1:0.25875391 2:-3.735125 
-0.01214994441959147 1:0.28319336 2:-3.9333125 
-0.0338426223190465 1:0.32301953 2:-5.892625 
-0.0173119421325941 1:0.25331055 2:-5.259125 
-0.01737646485029209 1:0.2803125 2:-4.0429375 
-0.02206731437754261 1:0.33800977 2:-5.073625 
-0.01522391163761255 1:0.33484375 2:-4.3180625 
-0.003902872243946778 1:0.30759375 2:-4.9255 
-0.01736139686051956 1:0.14158398 2:-1.0695625 
-0.009481786464233477 1:0.19809375 2:-3.069 
-0.01839071389461409 1:0.28779688 2:-4.5116875 
-0.04664472079530188 1:0.29525195 2:-4.3768125 
-0.005412645101513625 1:0.20727734 2:-4.0871875 
-0.001031458391343468 1:0.22968555 2:-4.1193125 
-0.02732046408049488 1:0.17242188 2:-3.959375 
-0.01254380789192488 1:0.20280859 2:-4.48875 
-0.01907868177635486 1:0.34061719 2:-4.7765625 
-0.02296707991875674 1:0.39870508 2:-6.2614375 
-0.000537910553525589 1:0.2919043 2:-4.370125 
-0.03520600026693113 1:0.32891211 2:-3.746125 
-0.01500167014260689 1:0.26540234 2:-4.78625 
-0.0109104643336026 1:0.33263477 2:-5.3505 
-0.02649270503124154 1:0.34503711 2:-5.2139375 
-0.00962452476066572 1:0.35856055 2:-4.7313125 
-0.02831385138323256 1:0.25126563 2:-2.5884375 
-0.008350781715515718 1:0.17087891 2:-0.721875 
-0.01926370365208716 1:0.1547793 2:-0.430125 
-0.03602932861313723 1:0.2579707 2:-2.818 
-0.1 1:0.31813086 2:-3.305625 
-0.03508310467385276 1:0.29736914 2:-3.4948125 
-0.01825667716209862 1:0.34364453 2:-4.4915 
-0.02604721120186315 1:0.241625 2:-0.6540625 
-0.01093983286980982 1:0.25074023 2:-3.61675 
-0.02244900421948996 1:0.33061523 2:-4.770625 
-0.03546330688447472 1:0.17457617 2:-0.277875 
-0.01432581135964424 1:0.18857422 2:-0.419 
-0.03613111916293749 1:0.38066602 2:-7.1104375 
-0.01210421221070412 1:0.30735742 2:-5.0974375 
-0.035884511503085 1:0.37532617 2:-3.6785 
-0.003334121792893274 1:0.33907031 2:-5.9951875 
-0.03595432932312959 1:0.23095117 2:-0.7899375 
-0.01418980866058073 1:0.29718555 2:-5.8158125 
-0.06772264010662035 1:0.2319375 2:-3.6893125 
-0.02995112699705652 1:0.13936914 2:-2.2974375 
-0.02725614131090875 1:0.35479102 2:-5.16575 
-0.02035125171872176 1:0.18749414 2:-3.6476875 
-0.07899419800511651 1:0.21820898 2:-2.6646875 
-0.03296521905058764 1:0.32238477 2:-4.7973125 
-0.03005164949737573 1:0.338125 2:-5.053 
-0.003386557267509873 1:0.19692188 2:-3.39575 
-0.01753882216559749 1:0.28254102 2:-2.7315 
-0.009289839594134874 1:0.24461719 2:-3.759875 
-0.02268446371011983 1:0.31208594 2:-5.566 
-0.005249674010313621 1:0.25940625 2:-5.0618125 
-0.02337456379296629 1:0.37076953 2:-6.1594375 
-0.003491903124910058 1:0.22047656 2:-4.6383125 
-0.1 1:0.2610918 2:-2.924625 
-0.0267812097988126 1:0.25489844 2:-3.386625 
-0.01598013112949631 1:0.13761328 2:-0.2299375 
-0.02279182625943116 1:0.27346484 2:-5.3194375 
-0.02562672978231545 1:0.25101953 2:-5.5248125 
-0.01892812467327411 1:0.36164258 2:-6.250875 
-0.01835334417047679 1:0.22314258 2:-3.736875 
-0.05774977138429341 1:0.21958984 2:-2.6198125 
-0.03625488796532569 1:0.28346094 2:-1.1570625 
-0.004040039123977324 1:0.19083008 2:-3.947625 
-0.01794942495208616 1:0.16535352 2:-3.2903125 
-0.004923324762997727 1:0.19467773 2:-4.1794375 
-0.02386003572662337 1:0.21100977 2:-3.42 
-0.02828574801802808 1:0.19796094 2:-2.50025 
-0.009649773264317096 1:0.20363477 2:-4.17475 
-0.01378135048610716 1:0.12943359 2:-0.3091875 
-0.0151824125098703 1:0.27598633 2:-4.2910625 
-0.06172384890937668 1:0.11845703 2:-2.042875 
-0.01765074392550122 1:0.32173047 2:-4.30175 
-0.02712452347456409 1:0.19902539 2:-0.705375 
-0.02367319991696187 1:0.26604102 2:-4.314875 
-0.07354204714804154 1:0.28462109 2:-2.889125 
-0.01352059031894541 1:0.26405078 2:-4.7771875 
-0.01045446293468828 1:0.18641211 2:-3.39775 
-0.01221232616576694 1:0.11714258 2:-0.2729375 
-0.01294457867388782 1:0.1849043 2:-3.6331875 
-0.0362923371641273 1:0.1092793 2:-0.1195 
-0.01341498926544421 1:0.11400195 2:-1.7169375 
-0.02417713971418506 1:0.16263086 2:-2.6108125 
-0.001732250894531235 1:0.14020508 2:-2.8765 
-0.01681905783750589 1:0.13629297 2:-3.055125 
-0.053986223590796 1:0.17793555 2:-1.9318125 
-0.001505818000426646 1:0.2215957 2:-3.9154375 
-0.006156026924482032 1:0.13987891 2:-0.900375 
-0.02358225680223024 1:0.1466582 2:-0.7234375 
-0.02233281216602869 1:0.13289453 2:-2.4026875 
-0.02880782231022383 1:0.35932617 2:-6.08425 
-0.004082712504922148 1:0.30709375 2:-4.985375 
-0.03456572388785295 1:0.18685742 2:-0.795125 
-0.02816847323492594 1:0.35232031 2:-6.1666875 
-0.0157824555701307 1:0.33277148 2:-4.6433125 
-0.03498863820877304 1:0.21762695 2:-3.75125 
-0.004768800614415258 1:0.21633789 2:-4.034625 
-0.02009682770762011 1:0.26931836 2:-4.2143125 
-0.03079151798355217 1:0.12933398 2:-2.5115 
-0.02306386986901206 1:0.11480469 2:-2.3643125 
-0.01360892202503834 1:0.098416016 2:-0.5598125 
-0.02470285353858393 1:0.18373828 2:-0.7175625 
-0.01562873199727827 1:0.26214258 2:-3.674 
-0.009948429403949039 1:0.30012305 2:-4.593625 
-0.03640448091917622 1:0.39472266 2:-4.070375 
-0.02248715334097439 1:0.20873242 2:-0.837375 
-0.01564386146644809 1:0.26691406 2:-3.8111875 
-0.01819550237011504 1:0.25833789 2:-4.347125 
-0.02488002153654847 1:0.19811523 2:-0.6894375 
-0.07516000711497753 1:0.18969141 2:-2.3571875 
-0.02361005193917548 1:0.26433008 2:-4.84575 
-0.03997843389406716 1:0.18283203 2:-1.520625 
-0.01943199889151557 1:0.20782617 2:-3.9805 
-0.02694778781776153 1:0.16129102 2:-2.2840625 
-0.01298130882933193 1:0.2401582 2:-4.4295625 
-0.006847382769719509 1:0.19905273 2:-3.9894375 
-0.03432566331583548 1:0.35225586 2:-5.7073125 
-0.01737615882814691 1:0.1512207 2:-0.6226875 
-0.1 1:0.29831641 2:-1.8839375 
-0.01177281728322821 1:0.10675781 2:-0.5901875 
-0.02085948164380852 1:0.18683984 2:-4.0678125 
-0.0259925067436652 1:0.13518945 2:-1.040625 
-0.02479049386098136 1:0.32322461 2:-4.9383125 
-0.006710489352982246 1:0.27804688 2:-4.8784375 
-0.02557769833558809 1:0.12067969 2:-1.18375 
-0.01570588636463305 1:0.10128711 2:-0.4778125 
-0.02242941333798804 1:0.20678516 2:-3.22225 
-0.01569841050182232 1:0.21120898 2:-3.8875625 
-0.01397498107220553 1:0.15191211 2:-2.062875 
-0.03380971938364388 1:0.34220117 2:-4.86175 
-0.006263619572401513 1:0.33769336 2:-4.283375 
-0.02274648824225701 1:0.1440918 2:-0.530375 
-0.001058987578194226 1:0.12871094 2:-0.45625 
-0.03584600267397289 1:0.22491602 2:-2.3835 
-0.04504481876415817 1:0.25205078 2:-2.93175 
-0.02269368599914958 1:0.16104883 2:-3.1120625 
-0.002956948017243273 1:0.15054688 2:-0.7015 
-0.08061894406822337 1:0.29147852 2:-2.597125 
-0.02090942267835744 1:0.30457617 2:-4.800375 
-0.1 1:0.25076563 2:-3.720375 
-0.02689359638014785 1:0.32707617 2:-5.3795 
-0.0297551874193337 1:0.40452344 2:-5.27575 
-0.0439549949480628 1:0.21123242 2:-3.571625 
-0.0480394014433401 1:0.26273438 2:-3.28225 
-0.01214273417151594 1:0.16298828 2:-3.2735 
-0.0108696013001719 1:0.14931836 2:-3.0621875 
-0.001823516153096238 1:0.27837695 2:-4.208625 
-0.02880383222761612 1:0.40959766 2:-4.346125 
-0.08566122385806756 1:0.31158398 2:-5.0321875 
-0.009482243462837416 1:0.24237109 2:-4.1006875 
-0.01986518409219652 1:0.30485937 2:-4.899375 
-0.0107761494553227 1:0.15584961 2:-2.3285625 
-0.005272271621206698 1:0.16167383 2:-3.40125 
-0.01594138184083399 1:0.19753516 2:-3.424375 
-0.01833763541503608 1:0.35706836 2:-5.6120625 
-0.01574755423792512 1:0.34130664 2:-5.77475 
-0.02935211980902921 1:0.30417187 2:-4.292125 
-0.09288579159488256 1:0.22023828 2:-1.059 
-0.1 1:0.27897461 2:-2.5580625 
-0.0435009601612498 1:0.41410156 2:-6.125625 
-0.01587019042682523 1:0.36448047 2:-5.8969375 
-0.01759819609435856 1:0.24679687 2:-4.9829375 
-0.004514365164613232 1:0.30953711 2:-4.07725 
-0.03588265277490016 1:0.40051758 2:-6.0948125 
-0.02775811455235108 1:0.4319082 2:-4.9931875 
-0.1 1:0.43238867 2:-2.8535625 
-0.01275003948592324 1:0.26139648 2:-3.9065 
-0.00754822940276181 1:0.30964844 2:-4.2974375 
-0.02647738747273914 1:0.33800977 2:-5.994625 
-0.04908338986737549 1:0.31397852 2:-5.3356875 
-0.01610439091713834 1:0.1968457 2:-2.86375 
-0.01810696727083544 1:0.23047852 2:-4.1770625 
-0.01559539679515984 1:0.25808594 2:-4.2791875 
-0.0574553339991152 1:0.19747266 2:-1.3880625 
-0.01093038515989578 1:0.25609961 2:-4.8286875 
-0.01560514125994462 1:0.18425391 2:-2.939625 
-0.02678014041085251 1:0.25841797 2:-3.5398125 
-0.01154403471605509 1:0.19793945 2:-4.1524375 
-0.017900206246743 1:0.22748242 2:-4.72475 
-0.02136972831781347 1:0.34739258 2:-4.986 
-0.02570500276017057 1:0.163125 2:-2.3531875 
-0.03566274199673289 1:0.46158789 2:-6.3245 
-0.03293285902974263 1:0.35771094 2:-4.2160625 
-0.007722249396988548 1:0.28666016 2:-4.5425625 
-0.01296418428645268 1:0.21938672 2:-3.08825 
-0.02091056178746098 1:0.12100586 2:-0.6644375 
-0.03277990975482512 1:0.32033984 2:-3.4545625 
-0.004791827520208186 1:0.27245117 2:-3.922625 
-0.0104653888806397 1:0.24570312 2:-4.9655625 
-0.04806732455926097 1:0.12591406 2:-1.9669375 
-0.02770742255516939 1:0.10470117 2:-2.0403125 
-0.02719944772186161 1:0.23814258 2:-3.4095 
-0.01109814133567472 1:0.25066016 2:-5.3246875 
-0.00773524259447614 1:0.3985957 2:-4.82175 
-0.01748785134581845 1:0.37860742 2:-5.246875 
-0.04745636261474476 1:0.31887695 2:-4.1925625 
-0.001391899737457937 1:0.18341992 2:-0.5265625 
-0.03016826333830175 1:0.35455664 2:-3.95475 
-0.02063349056455373 1:0.16482422 2:-2.99575 
-0.0300527596030041 1:0.11273828 2:-2.7833125 
-0.03610713913490202 1:0.068253906 2:-1.364625 
-0.02114901006224008 1:0.28221484 2:-5.066125 
-0.02268287322434936 1:0.29109961 2:-4.8304375 
-0.08004458301830908 1:0.25057227 2:-4.1718125 
-0.02876241373014704 1:0.25313672 2:-2.7315 
-0.01123567518851725 1:0.33359375 2:-4.6084375 
-0.1 1:0.32633594 2:-3.9435 
-0.01304989178232563 1:0.2777832 2:-4.788875 
-0.005262889489960785 1:0.24210937 2:-3.6994375 
-0.02129034084466036 1:0.27132227 2:-3.500875 
-0.01299564171726344 1:0.21739453 2:-3.4963125 
-0.0266145843738559 1:0.15173438 2:-0.3281875 
-0.008926682194894139 1:0.32655273 2:-4.7643125 
-0.03623173034515334 1:0.35445117 2:-2.0418125 
-0.01636007546039547 1:0.17936523 2:-0.338875 
-0.03392139498307778 1:0.39511133 2:-5.375 
-0.004929796826627864 1:0.3342832 2:-5.083375 
-0.008412381250565372 1:0.2340332 2:-4.46175 
-0.02057248459167035 1:0.37238281 2:-5.6673125 
-0.02733092308651172 1:0.22475195 2:-0.9225625 
-0.003383582890085853 1:0.25823242 2:-4.5935 
-0.002982220568667867 1:0.23397852 2:-4.0256875 
-0.05015907334184345 1:0.33091797 2:-5.019 
-0.0026004768794684 1:0.13105469 2:-0.5008125 
-0.02166021139284452 1:0.35248828 2:-6.0931875 
-0.02422169830695871 1:0.23925195 2:-3.3940625 
-0.01564356676814837 1:0.3622207 2:-4.4836875 
-0.1 1:0.29116406 2:-4.66075 
-0.001841543175518601 1:0.20435938 2:-4.2846875 
-0.04134008688736076 1:0.31777148 2:-5.3259375 
-0.0284673368078153 1:0.41664844 2:-5.8334375 
-0.09733001082326162 1:0.33055078 2:-3.4485 
-0.03909620084841289 1:0.37456445 2:-3.8265 
-0.0278631756078152 1:0.45618164 2:-6.5829375 
-0.0289309798126634 1:0.33854297 2:-5.295 
-0.03904371967723932 1:0.23009766 2:-1.691 
-0.0225682299486402 1:0.33728711 2:-5.5165625 
-0.02063220802712773 1:0.18363672 2:-3.9099375 
-0.02312898716478259 1:0.22813477 2:-4.2560625 
-0.01914086533573673 1:0.21339063 2:-4.5384375 
-0.01926022080120765 1:0.18858594 2:-4.2381875 
-0.02875156027968334 1:0.30248438 2:-5.774375 
-0.1 1:0.29933008 2:-3.1620625 
-0.01371116204916832 1:0.16525 2:-3.4219375 
-0.08553056169310599 1:0.30196484 2:-2.5315 
-0.02235500880017017 1:0.17890234 2:-3.84675 
-0.09144780654913395 1:0.17382031 2:-1.9191875 
-0.01620041694102425 1:0.16448242 2:-2.1161875 
-0.005735063410347957 1:0.15940039 2:-3.1838125 
-0.01590908166946119 1:0.18441602 2:-3.94975 
-0.01682371896411494 1:0.19592383 2:-3.6909375 
-0.008102529197802641 1:0.28154297 2:-5.29975 
-0.02745370514659312 1:0.37798242 2:-5.36075 
-0.003866325153846162 1:0.34221484 2:-5.6703125 
-0.06998740653022098 1:0.30962891 2:-2.9985 
-0.1 1:0.36295508 2:-4.2379375 
-0.03497435331914958 1:0.34278125 2:-6.560875 
-0.08458624318658566 1:0.27819727 2:-3.7015 
-0.003691381302343559 1:0.35523242 2:-5.1198125 
-0.02044059709135354 1:0.19549805 2:-3.938375 
-0.02673711745739858 1:0.2519707 2:-2.6255625 
-0.08575873081148741 1:0.30011328 2:-3.26075 
-0.01223550736786187 1:0.20729687 2:-2.8753125 
-0.02663069137377905 1:0.18889648 2:-4.22575 
-0.0238087269198322 1:0.2056543 2:-2.8788125 
-0.01178405711794325 1:0.35425195 2:-5.4400625 
-0.03576297340962362 1:0.41484961 2:-3.875875 
-0.0158130554231784 1:0.12190039 2:-2.296 
-0.0105168538926762 1:0.34974219 2:-5.7724375 
-0.03420960834414627 1:0.34451172 2:-5.8075 
-0.1 1:0.29421289 2:-4.131125 
-0.03300603171651098 1:0.37671289 2:-6.0123125 
-0.03588612442622574 1:0.35028711 2:-6.351625 
-0.0183775826422965 1:0.27958203 2:-4.9163125 
-0.0218445471302888 1:0.18833008 2:-0.6915625 
-0.01339640741303427 1:0.30873633 2:-5.4584375 
-0.04151090114685416 1:0.3164668 2:-4.8870625 
-0.1 1:0.2994707 2:-3.6604375 
-0.03589587182949447 1:0.52801953 2:-5.481 
-0.03387336617327506 1:0.24236328 2:-2.9716875 
-0.01919383168247515 1:0.15331641 2:-1.8380625 
-0.02726570778773402 1:0.28832227 2:-3.2866875 
-0.04294693920111023 1:0.16313281 2:-2.268625 
-0.02011119541692659 1:0.13395313 2:-2.58675 
-0.02308030909733672 1:0.12416602 2:-2.0903125 
-0.03389164490262206 1:0.11805469 2:-2.27 
-0.01050847141239343 1:0.13006055 2:-2.3679375 
-0.004190397862069225 1:0.19339844 2:-3.679375 
-0.0338124388763737 1:0.17107227 2:-1.879375 
-0.02029546275728671 1:0.11523828 2:-0.337875 
-0.007591874783478391 1:0.13840234 2:-2.729 
-0.01890664360362433 1:0.26833398 2:-4.8129375 
-0.0009875179884909491 1:0.34674805 2:-4.9859375 
-0.03570237703672594 1:0.45111328 2:-4.638 
-0.01437548672354493 1:0.25723828 2:-4.764 
-0.02100415218220259 1:0.31473047 2:-4.4974375 
-0.04807464146993692 1:0.21329102 2:-1.593375 
-0.03355269340397163 1:0.18063281 2:-1.7966875 
-0.007223822808449325 1:0.15491016 2:-3.04925 
-0.02408921967312148 1:0.2734082 2:-5.0863125 
-0.0005574029998756669 1:0.25859961 2:-4.34675 
-0.004477446241966609 1:0.24764258 2:-2.31925 
-0.03406041217383593 1:0.18626758 2:-0.37225 
-0.01510073568968323 1:0.16411133 2:-2.5801875 
-0.01676481422852528 1:0.28378711 2:-4.067625 
-0.01925231002513447 1:0.11413086 2:-0.477125 
-0.009340105466231194 1:0.25251563 2:-4.2004375 
-0.03409146295592652 1:0.16185547 2:-1.519125 
-0.01366481054616266 1:0.31507617 2:-5.15525 
-0.02699066600506982 1:0.1925 2:-3.0773125 
-0.005997439732732569 1:0.15530469 2:-3.2506875 
-0.008433748015097317 1:0.14279883 2:-0.327 
-0.008437175519773502 1:0.22388477 2:-3.3609375 
-0.009675586639977196 1:0.15260742 2:-0.6134375 
-0.1 1:0.21511719 2:-2.72775 
-0.01089547339726723 1:0.13732227 2:-0.7014375 
-0.1 1:0.3485918 2:-4.0465625 
-0.01941965048882022 1:0.31817187 2:-5.0755625 
-0.03247326585165033 1:0.24395898 2:-0.680875 
-0.01276976095512141 1:0.1829375 2:-3.3390625 
-0.02248688025718943 1:0.31899414 2:-5.4053125 
-0.02046044848275918 1:0.35138672 2:-6.545875 
-0.01949336224333138 1:0.41430469 2:-6.158625 
-0.02302373904484134 1:0.37499023 2:-5.383375 
-0.02318863296343239 1:0.10433789 2:-0.7885625 
-0.009647632903224535 1:0.23649805 2:-4.5658125 
-0.01499760584305138 1:0.20575391 2:-4.6519375 
-0.02118096350393205 1:0.27231445 2:-5.374625 
-0.05073170049788198 1:0.25099805 2:-3.2134375 
-0.0185808864127983 1:0.14129492 2:-0.4656875 
-0.1 1:0.23243945 2:-3.1105625 
-0.01498440923330395 1:0.19805664 2:-3.72775 
-0.00611783137754217 1:0.37476758 2:-6.0885625 
-0.01255662195837648 1:0.17656641 2:-3.490125 
-0.02231977500259722 1:0.19914648 2:-3.0976875 
-0.01959993691790782 1:0.30496484 2:-3.691125 
-0.02066170882641237 1:0.20505078 2:-3.0623125 
-0.008902655115245905 1:0.12355664 2:-0.64775 
-0.009680068716208634 1:0.2316875 2:-4.8935 
-0.02867474993959013 1:0.31034766 2:-5.7493125 
-0.0162098569868797 1:0.22929492 2:-4.1615 
-0.03160901529774193 1:0.11562891 2:-3.0084375 
-0.02374238963866216 1:0.23031055 2:-5.0878125 
-0.02089210681657718 1:0.16800195 2:-3.5446875 
-0.02327415621341478 1:0.34679102 2:-4.3859375 
-0.01552698989142093 1:0.15789453 2:-2.7088125 
-0.01495265329044793 1:0.17549609 2:-3.947 
-0.0172667499922931 1:0.17961133 2:-3.1675625 
-0.02079988234237895 1:0.26556641 2:-4.6180625 
-0.02980113945149671 1:0.30944727 2:-5.53075 
-0.006626175708543744 1:0.2256875 2:-3.2185625 
-0.1 1:0.18064844 2:-2.9850625 
-0.02844691955445006 1:0.23392188 2:-4.871875 
-0.01351326037851303 1:0.33296875 2:-5.5289375 
-0.008726694817214924 1:0.18468164 2:-3.602 
-0.004344796681352567 1:0.16250977 2:-0.47425 
-0.01182455453681906 1:0.082808594 2:-0.74025 
-0.03365520191624733 1:0.12512305 2:-2.84225 
-0.01991308519156546 1:0.1929082 2:-3.553125 
-0.01507053617234237 1:0.28356641 2:-4.7535 
-0.03118589055169627 1:0.29859766 2:-3.285875 
-0.01907183389386251 1:0.14485938 2:-0.651875 
-0.05937073793206873 1:0.46312695 2:-4.068625 
-0.1 1:0.42146484 2:-5.1829375 
-0.02392699823525367 1:0.11633203 2:-2.3460625 
-0.02675842732440025 1:0.32608203 2:-5.2506875 
-0.01842214964575556 1:0.12472852 2:-2.3263125 
-0.008783191681651663 1:0.084984375 2:-0.5738125 
-0.003329283776467918 1:0.17423047 2:-3.274 
-0.01551899208546624 1:0.17481445 2:-0.4135 
-0.01152525930731554 1:0.2555332 2:-4.80425 
-0.009388405130154237 1:0.10628906 2:-0.8430625 
-0.006491839726727455 1:0.10816211 2:-1.3498125 
-0.006143687111224137 1:0.21854297 2:-4.6409375 
-0.007277516418869479 1:0.20317578 2:-3.6855625 
-0.02674939503812807 1:0.11371484 2:-1.3401875 
-0.003611333266310651 1:0.25586328 2:-3.9335625 
-0.0008890489469948622 1:0.32747266 2:-4.7500625 
-0.0008584470350633558 1:0.23319531 2:-4.466125 
-0.01941044073765902 1:0.16481641 2:-0.7265625 
-0.01709662062078587 1:0.32270898 2:-4.6103125 
-0.03269701813744663 1:0.17062695 2:-1.560375 
-0.01028408704608146 1:0.11067187 2:-0.37425 
-0.01763674322518771 1:0.40318555 2:-5.302875 
-0.05187187851928673 1:0.36505078 2:-3.2536875 
-0.01681010673279609 1:0.14517578 2:-1.09425 
-0.01808483706921377 1:0.21433203 2:-0.5856875 
-0.008735020000895769 1:0.22533789 2:-4.357625 
-0.01679554335632199 1:0.27674609 2:-4.354375 
-0.01737989050761845 1:0.18949023 2:-2.7203125 
-0.05143856165015107 1:0.29157422 2:-3.5221875 
-0.02375165592601584 1:0.1915625 2:-0.5208125 
-0.05356330939602863 1:0.31746484 2:-3.2116875 
-0.01764082703511949 1:0.21916016 2:-2.79625 
-0.04836074030562912 1:0.33836133 2:-3.841 
-0.03020633304331798 1:0.37276172 2:-6.2431875 
-0.01113245007866659 1:0.12272852 2:-2.4301875 
-0.01378358666188837 1:0.21350781 2:-4.545 
-0.02752690994090756 1:0.36864453 2:-5.4316875 
-0.01238082942337402 1:0.13022852 2:-0.74225 
-0.08765604580423639 1:0.24605078 2:-3.83775 
-0.004356287281687129 1:0.17794922 2:-0.6195625 
-0.04887957321509859 1:0.36882813 2:-4.353 
-0.02480637160998078 1:0.30238477 2:-4.3874375 
-0.01126532620401868 1:0.11771094 2:-0.544125 
-0.01246285447096759 1:0.23582422 2:-4.853875 
-0.01840440625160716 1:0.13186523 2:-0.550625 
-0.01370386635084821 1:0.20805078 2:-3.4991875 
-0.1 1:0.30545898 2:-3.800375 
-0.03275442665577893 1:0.28728125 2:-5.9145 
-0.01138920520416171 1:0.13156836 2:-0.504875 
-0.007178012298430101 1:0.18129297 2:-3.7985625 
-0.002705357549902532 1:0.18807031 2:-4.1786875 
-0.03423928194885439 1:0.27955469 2:-5.9626875 
-0.01970813168581011 1:0.23505273 2:-4.928375 
-0.006516288916654126 1:0.21657813 2:-4.06625 
-0.1 1:0.24810742 2:-2.2230625 
-0.01092999855494617 1:0.28495703 2:-4.809125 
-0.008500674795793551 1:0.1880293 2:-0.5796875 
-0.01199356606789364 1:0.31384961 2:-5.691875 
-0.006993416050314684 1:0.22788086 2:-4.53975 
-0.02128282028569317 1:0.19277148 2:-0.5951875 
-0.01647201316244035 1:0.29710352 2:-5.6455625 
-0.02558018239048037 1:0.18422461 2:-4.210375 
-0.02184289840876344 1:0.3482832 2:-5.8353125 
-0.03482468867324334 1:0.22143555 2:-0.4406875 
-0.02777205420796412 1:0.3301582 2:-4.557875 
-0.05659021030709396 1:0.23467969 2:-3.3324375 
-0.02724412056019701 1:0.37054687 2:-5.4014375 
-0.0311421796877257 1:0.22935352 2:-0.6626875 
-0.02093742247771733 1:0.14379492 2:-0.279 
-0.03610316971126062 1:0.24325195 2:-0.4575625 
-0.01367447915976266 1:0.20766602 2:-4.0169375 
-0.007727004063166797 1:0.12187695 2:-0.573875 
-0.02548058254377862 1:0.29980664 2:-6.0154375 
-0.01149124714428778 1:0.24275586 2:-4.3421875 
-0.005072803829895495 1:0.20545117 2:-3.250625 
-0.1 1:0.22049219 2:-2.84775 
-0.01574365561301496 1:0.26083398 2:-3.8071875 
-0.01145248976689612 1:0.19327734 2:-3.2901875 
-0.03583641704552304 1:0.40097656 2:-4.777375 
-0.03178587236665392 1:0.40899219 2:-5.5123125 
-0.006406353398218677 1:0.33034961 2:-5.5365 
-0.00145839785222035 1:0.40966797 2:-3.993875 
-0.01668485977886605 1:0.35889258 2:-6.5419375 
-0.003339527837398666 1:0.21073242 2:-4.0100625 
-0.0284482340412744 1:0.19202344 2:-4.285125 
-0.01531126240029418 1:0.20251562 2:-4.3700625 
-0.02331265350571345 1:0.15200391 2:-2.9595625 
-0.004701155332612708 1:0.21664258 2:-3.8098125 
-0.001098989913900117 1:0.27623242 2:-3.7608125 
-0.003732377370308781 1:0.26469922 2:-4.9360625 
-0.08698508200908653 1:0.30438672 2:-2.5859375 
-0.004169254617053966 1:0.20708398 2:-4.1880625 
-0.02110950439017156 1:0.33651953 2:-5.174875 
-0.03426567591513985 1:0.3979668 2:-6.434375 
-0.02079177788332478 1:0.12307812 2:-0.750125 
-0.00451566387952831 1:0.1842832 2:-2.837 
-0.0167760707438161 1:0.22956055 2:-3.8821875 
-0.02099472678045612 1:0.14494531 2:-0.4871875 
-0.04642690238875673 1:0.24186328 2:-3.3234375 
-0.02588874533513907 1:0.20155859 2:-2.3331875 
-0.03494570050320248 1:0.071806641 2:-0.5965625 
-0.004326606469353247 1:0.17389258 2:-3.409 
-0.03321849108443118 1:0.1174043 2:-2.6358125 
-0.02234439926894007 1:0.10868945 2:-0.1948125 
-0.01420365861937604 1:0.16311719 2:-0.6065 
-0.01223677276269211 1:0.22452344 2:-3.2474375 
-0.1 1:0.43250195 2:-4.395375 
-0.04496900405596851 1:0.22277734 2:-1.3945 
-0.02574992487370869 1:0.32654492 2:-4.898875 
-0.02504900365537416 1:0.11905273 2:-0.72825 
-0.1 1:0.34156445 2:-3.5378125 
-0.009191718576481538 1:0.19804102 2:-3.9090625 
-0.01042324835950541 1:0.18999414 2:-3.513125 
-0.02482702918801227 1:0.13659961 2:-1.093125 
-0.003140989006281225 1:0.22808398 2:-3.1641875 
-0.001552866880781434 1:0.17517187 2:-3.7431875 
-0.02281550395520428 1:0.16690234 2:-0.4658125 
-0.007005359181794813 1:0.21409375 2:-4.2804375 
-0.02996629863371382 1:0.22221484 2:-4.77875 
-0.006081299241185086 1:0.18996484 2:-3.868 
-0.07003801429292381 1:0.37650977 2:-3.31375 
-0.002582835927139371 1:0.1603125 2:-3.0386875 
-0.004530191308790329 1:0.20270508 2:-4.2705625 
-0.02435678857342355 1:0.28389648 2:-5.61625 
-0.007956679304309789 1:0.16031641 2:-3.5353125 
-0.003540538679771759 1:0.20483398 2:-3.5325625 
-0.0213352135186201 1:0.20847656 2:-4.722875 
-0.009501756109332557 1:0.13354297 2:-0.4223125 
-0.007777913143482775 1:0.26085938 2:-4.9448125 
-0.03933985841039597 1:0.27905078 2:-4.1588125 
-0.02691964648014195 1:0.37187109 2:-5.5975 
-0.02598712234971412 1:0.36937305 2:-4.2505625 
-0.01603267185563546 1:0.19214258 2:-4.0940625 
-0.02074245546296324 1:0.30452148 2:-5.4704375 
-0.01037467245503134 1:0.31933203 2:-4.76475 
-0.01267118322184436 1:0.15263867 2:-0.5178125 
-0.02244081768259321 1:0.23942969 2:-5.0089375 
-0.01614001934678136 1:0.3599668 2:-4.7544375 
-0.07046959174056751 1:0.32683008 2:-4.0153125 
-0.08729081467943246 1:0.22425781 2:-3.2 
-0.02230501816137537 1:0.10730469 2:-2.29425 
-0.02136095718209552 1:0.25314258 2:-3.9844375 
-0.001922488183859849 1:0.26076367 2:-5.2565625 
-0.01563294390998102 1:0.29941016 2:-4.748375 
-0.02843280680831253 1:0.39997852 2:-5.778625 
-0.09509008641564701 1:0.35983789 2:-4.137 
-0.03146727061539911 1:0.22716406 2:-0.7374375 
-0.02448937771583515 1:0.31458398 2:-6.05 
-0.01369703610306539 1:0.21747852 2:-0.8331875 
-0.009944966394502578 1:0.16792383 2:-3.2284375 
-0.009045862140189286 1:0.18253516 2:-3.388375 
-0.03247379072535725 1:0.10040234 2:-2.00375 
-0.02693886867239337 1:0.26610156 2:-3.9569375 
-0.01788340474025979 1:0.2016543 2:-3.640125 
-0.1 1:0.2945 2:-4.27725 
-0.1 1:0.31178516 2:-2.6841875 
-0.01507805524095501 1:0.1644043 2:-0.570625 
-0.01127436891867099 1:0.31336523 2:-3.929875 
-0.0713903363952508 1:0.28626953 2:-2.63325 
-0.02236213446869307 1:0.30566992 2:-4.4906875 
-0.03280431189939366 1:0.3564082 2:-4.6351875 
-0.01691737513723929 1:0.14757227 2:-0.2563125 
-0.0354343990355514 1:0.16332227 2:-0.216 
-0.01136532102227891 1:0.23108984 2:-4.202 
-0.01187190450323212 1:0.15466797 2:-3.45675 
-0.02852876334217486 1:0.27755664 2:-5.39075 
-0.002489857079704726 1:0.16967773 2:-3.1008125 
-0.03076865202833617 1:0.1427832 2:-3.6198125 
-0.008413347324986206 1:0.2169375 2:-3.0226875 
-0.02254948686840086 1:0.2695293 2:-5.125 
-0.0383000822063132 1:0.29650781 2:-3.8868125 
-0.01864440144106966 1:0.26342969 2:-3.8723125 
-0.0008587489091556309 1:0.31982812 2:-5.0585 
-0.03563416390481638 1:0.35349219 2:-6.191 
-0.01453202817446424 1:0.11821484 2:-0.8154375 
-0.008274928580097454 1:0.20795703 2:-3.82 
-0.05462368599315623 1:0.30227734 2:-2.2331875 
-0.00939089067527127 1:0.17360938 2:-3.395625 
-0.01159008084930374 1:0.13314062 2:-0.5588125 
-0.004818838364407821 1:0.27646094 2:-4.252875 
-0.005908252456443404 1:0.31701953 2:-3.7220625 
-0.01314017797683231 1:0.3061543 2:-5.050625 
-0.03644644697674285 1:0.28037109 2:-1.59875 
-0.005459059912797235 1:0.12799414 2:-0.743125 
-0.01827150496475044 1:0.19992188 2:-2.851375 
-0.008005680478531783 1:0.20174609 2:-3.821375 
-0.01212980666809333 1:0.13647852 2:-0.844625 
-0.008507656971170022 1:0.23818945 2:-4.0943125 
-0.03281716560584302 1:0.21647656 2:-1.9361875 
-0.04131993889251281 1:0.24942188 2:-1.6803125 
-0.1 1:0.30717578 2:-3.554125 
-0.01306363680775934 1:0.15538281 2:-0.9361875 
-0.04046139977447646 1:0.23359961 2:-3.19325 
-0.003133025182190479 1:0.24318555 2:-3.649125 
-0.02489654902216191 1:0.16656641 2:-0.6311875 
-0.007858565907557376 1:0.14892383 2:-0.8833125 
-0.01515278502343444 1:0.11047852 2:-0.599625 
-0.03736581455314378 1:0.16515039 2:-2.889875 
-0.01892043327205709 1:0.14280859 2:-2.5488125 
-0.01590611162955798 1:0.13817969 2:-0.2635 
-0.02636317571376642 1:0.21555273 2:-0.8249375 
-0.01364552394917007 1:0.29338672 2:-4.0900625 
-0.01162959517676978 1:0.1419707 2:-0.6945625 
-0.002282926113172268 1:0.20560742 2:-3.632625 
-0.01181479182019043 1:0.23883203 2:-4.6520625 
-0.02791268665104949 1:0.10350977 2:-0.1501875 
-0.04888280108390312 1:0.20520508 2:-3.3331875 
-0.0266791069011329 1:0.085785156 2:-0.5461875 
-0.01742417335418663 1:0.094929688 2:-0.6895 
-0.01055696063567551 1:0.17077148 2:-3.607875 
-0.03387602503023242 1:0.10053125 2:-1.1860625 
-0.05737384820072148 1:0.2175918 2:-2.9788125 
-0.03104112644236395 1:0.28458984 2:-5.68975 
-0.025020733128614 1:0.30542383 2:-4.773875 
-0.004454390377151063 1:0.27972656 2:-5.766375 
-0.001002718753597698 1:0.32863477 2:-3.693375 
-0.02146826507250292 1:0.11340039 2:-0.3565625 
-0.01455765130498146 1:0.2487207 2:-5.019875 
-0.004576547563098332 1:0.25544727 2:-3.8409375 
-0.01370963784720247 1:0.23692383 2:-5.2616875 
-0.0006788696275746415 1:0.14101758 2:-2.5933125 
-0.02325808763545317 1:0.16048437 2:-0.496375 
-0.1 1:0.28302148 2:-3.572375 
-0.02917598518130723 1:0.41108008 2:-4.3343125 
-0.03092159269057881 1:0.41492578 2:-5.714125 
-0.02091277025328413 1:0.14639062 2:-1.8294375 
-0.01296554062506689 1:0.20992187 2:-4.632125 
-0.003834775977494005 1:0.12647656 2:-0.446 
-0.01404418289073041 1:0.20183789 2:-3.868875 
-0.05591733519132331 1:0.22999023 2:-4.06075 
-0.008033312286868962 1:0.25668555 2:-4.356 
-0.02198019836714805 1:0.11014062 2:-0.635375 
-0.00961047390246253 1:0.22020313 2:-4.3205625 
-0.004909081797150827 1:0.22654883 2:-3.437625 
-0.03112051847047093 1:0.24110547 2:-0.6 
-0.004568119821398385 1:0.30117969 2:-5.2889375 
-0.03609954221385457 1:0.41219531 2:-7.08375 
-0.01602328684609514 1:0.33055664 2:-5.0335 
-0.03651461811947246 1:0.42868164 2:-3.7133125 
-0.03606261827118765 1:0.25077539 2:-1.1349375 
-0.01784094384278613 1:0.2899082 2:-4.8065 
-0.002974644894606193 1:0.24804492 2:-3.8865 
-0.02774724915719534 1:0.37899609 2:-5.7434375 
-0.0215004320151611 1:0.41662305 2:-5.1686875 
-0.00702314474263146 1:0.28256055 2:-4.3718125 
-0.02642174400393479 1:0.21479102 2:-3.233 
-0.02363133800090789 1:0.24308984 2:-3.6590625 
-0.02223509290535067 1:0.35747656 2:-4.5548125 
-0.01424741457220068 1:0.14623242 2:-1.0671875 
-0.02626456641310391 1:0.23011133 2:-4.3325 
-0.03061172195017963 1:0.24608203 2:-3.8506875 
-0.006761725452313564 1:0.15272266 2:-0.494 
-0.01125871728881045 1:0.12414258 2:-2.3363125 
-0.1 1:0.25036328 2:-3.019875 
-0.01184585167974735 1:0.14039648 2:-2.7203125 
-0.02348946205915279 1:0.091390625 2:-0.3915625 
-0.02138453910029525 1:0.20551367 2:-0.3664375 
-0.02393978321991687 1:0.29452344 2:-5.858625 
-0.005329125396971057 1:0.25061328 2:-4.3894375 
-0.0190649147172465 1:0.20934961 2:-3.377625 
-0.007982052462136865 1:0.16712305 2:-0.8416875 
-0.01537048987722886 1:0.4081543 2:-3.5719375 
-0.02717163034229941 1:0.19735156 2:-0.4304375 
-0.03615913982977176 1:0.16803906 2:-1.3530625 
-0.0135653991653089 1:0.25239648 2:-4.017875 
-0.02342116020115315 1:0.2040625 2:-3.052875 
-0.02190541329684323 1:0.26439062 2:-3.920625 
-0.02247880568381654 1:0.30863867 2:-3.7415625 
-0.02705205672382682 1:0.10358594 2:-0.9358125 
-0.006261574747226217 1:0.13442383 2:-3.32075 
-0.02295812138631196 1:0.21526367 2:-4.8820625 
-0.02042932316887486 1:0.17791992 2:-1.055 
-0.03603496743041967 1:0.33484766 2:-6.761375 
-0.01815864268343947 1:0.12116602 2:-0.2950625 
-0.02474050772250908 1:0.24987891 2:-4.8996875 
-0.01999417511377569 1:0.23505469 2:-3.79325 
-0.01200482455429625 1:0.24758789 2:-4.41875 
-0.03286251346121602 1:0.21929688 2:-1.9210625 
-0.006599713533138224 1:0.14933984 2:-2.861125 
-0.01219559109652353 1:0.18032227 2:-3.4590625 
-0.01138397858126335 1:0.17063867 2:-3.44675 
-0.004236420863363621 1:0.17878906 2:-0.7194375 
-0.02964660630952631 1:0.3395625 2:-5.95575 
-0.1 1:0.30339062 2:-3.2913125 
-0.06617226747810503 1:0.30611523 2:-2.9101875 
-0.0695074857797954 1:0.35369336 2:-3.8585 
-0.0006217506222069291 1:0.15715234 2:-3.00575 
-0.01907194211132585 1:0.11716797 2:-0.493375 
-0.009917553848555381 1:0.14992773 2:-0.4365625 
-0.02412629956616972 1:0.34291602 2:-5.659125 
-0.1 1:0.15420898 2:-1.619875 
-0.02279212008940029 1:0.33361914 2:-6.093125 
-0.03641929424609561 1:0.47209961 2:-4.102375 
-0.00582501795874709 1:0.0925 2:-0.405875 
-0.01026648221081594 1:0.25830664 2:-4.3925625 
-0.02635858952298883 1:0.18490625 2:-4.305 
-0.01702812185490915 1:0.22350586 2:-3.3078125 
-0.001714722360740328 1:0.14753516 2:-0.62325 
-0.05540114141967609 1:0.26745508 2:-3.3273125 
-0.08176708260382945 1:0.3401875 2:-1.4686875 
-0.01066227147486765 1:0.1494082 2:-2.75125 
-0.02995043132377116 1:0.11567383 2:-2.49925 
-0.001664382067991471 1:0.10614258 2:-0.2461875 
-0.003030811067023513 1:0.15603125 2:-3.233625 
-0.008476997975564837 1:0.1967793 2:-4.2446875 
-0.0214058073289394 1:0.13176758 2:-0.3184375 
-0.01141013094935479 1:0.11671289 2:-0.85325 
-0.03795892088218747 1:0.32116602 2:-1.6766875 
-0.02856090110040925 1:0.37918555 2:-4.8870625 
-0.00948806005425612 1:0.18440625 2:-0.6248125 
-0.01273701091177436 1:0.24992773 2:-4.3128125 
-0.0238399570706268 1:0.1776582 2:-3.817625 
-0.01733386287526559 1:0.15704688 2:-3.08375 
-0.0211102381185414 1:0.15686523 2:-0.94725 
-0.05174318221310106 1:0.21329492 2:-2.4545 
-0.0259723451485892 1:0.23394336 2:-2.904 
-0.008506378537588278 1:0.30151758 2:-5.2821875 
-0.00925534561427795 1:0.25153906 2:-3.174125 
-0.009595165579469656 1:0.2692793 2:-4.3863125 
-0.009498738691052288 1:0.27834961 2:-3.9286875 
-0.0222087203040624 1:0.16303125 2:-1.1005625 
-0.02512401027787964 1:0.28398047 2:-4.0013125 
-0.01496211823722654 1:0.26083203 2:-4.1255 
-0.02365053280714935 1:0.14702148 2:-1.28975 
-0.00821139474595497 1:0.12066406 2:-0.7008125 
-0.01128191665842183 1:0.25520117 2:-4.0563125 
-0.007104651511684658 1:0.23622656 2:-4.2471875 
-0.00111580539329198 1:0.232125 2:-4.18675 
-0.01491382929255593 1:0.15460156 2:-3.2545625 
-0.01577372134494309 1:0.30117187 2:-4.8214375 
-0.04359024531825689 1:0.39258008 2:-5.3465 
-0.01436287004339104 1:0.22081836 2:-3.715625 
-0.01629867621964043 1:0.2052832 2:-4.142 
-0.02930795432073932 1:0.16949023 2:-1.1785 
-0.00509691399674859 1:0.15358594 2:-0.56225 
-0.01507171156768307 1:0.14886328 2:-0.40175 
-0.009731053453675451 1:0.22990234 2:-4.13075 
-0.007762268343673885 1:0.22949023 2:-4.5896875 
-0.009922390391687555 1:0.21582812 2:-3.5631875 
-0.03140048357637942 1:0.26061719 2:-5.466125 
-0.02560483598118102 1:0.1994375 2:-0.463375 
-0.01364735916446269 1:0.12764062 2:-0.390375 
-0.09493926462584382 1:0.34270508 2:-2.6396875 
-0.03452116058914698 1:0.48716016 2:-4.86025 
-0.02000878745444068 1:0.11573242 2:-0.4068125 
-0.02074586260585967 1:0.22626367 2:-4.0438125 
-0.02051901696736624 1:0.22915234 2:-1.374375 
-0.01570363245699059 1:0.19008789 2:-3.046375 
-0.02416799674720076 1:0.14358984 2:-3.1105 
-0.08273217782440814 1:0.27933008 2:-2.861125 
-0.03455572463000445 1:0.33480664 2:-2.5214375 
-0.06778027978654297 1:0.19580078 2:-3.2155625 
-0.03629222589457703 1:0.25565625 2:-1.4544375 
-0.03602251225164363 1:0.40971094 2:-4.368375 
-0.03331644054199245 1:0.39804688 2:-4.837375 
-0.01848351057178499 1:0.13794531 2:-0.4776875 
-0.0007524371862140896 1:0.28095313 2:-3.7199375 
-0.02170588298567194 1:0.22255859 2:-2.02525 
-0.03403332748995599 1:0.31239258 2:-3.335375 
-0.03609276529598995 1:0.23245703 2:-1.195625 
-0.0254891881962262 1:0.16217188 2:-2.327625 
-0.01092059695740543 1:0.10803516 2:-0.1565625 
-0.008158274692706604 1:0.17663867 2:-3.0438125 
-0.02134729988813394 1:0.32786328 2:-5.173 
-0.01057726644235169 1:0.25234375 2:-3.647875 
-0.01829696655746602 1:0.14883398 2:-2.7278125 
-0.0103457556862708 1:0.13883789 2:-0.8361875 
-0.01243922116702094 1:0.33233008 2:-5.5936875 
-0.02521971574997895 1:0.1969668 2:-4.3445625 
-0.02073637600328954 1:0.10207617 2:-1.067 
-0.03339784120315675 1:0.40561133 2:-5.3205 
-0.03994368114240618 1:0.35457227 2:-3.133 
-0.02737473548106889 1:0.34549414 2:-5.2533125 
-0.01571542161528611 1:0.15241797 2:-2.6614375 
-0.004015940243647323 1:0.21329492 2:-4.0851875 
-0.01143792481225497 1:0.11921875 2:-0.508875 
-0.009621550451370402 1:0.24530469 2:-4.861 
-0.0131447877713383 1:0.28219141 2:-5.6 
-0.01533688278427364 1:0.12054883 2:-0.5316875 
-0.02581031718245413 1:0.35357227 2:-5.38325 
-0.02526764230109143 1:0.41668164 2:-5.924875 
-0.01788185348706116 1:0.19209375 2:-0.4173125 
-0.09904698029066608 1:0.28976953 2:-3.163375 
-0.01282378496585112 1:0.34318555 2:-4.044125 
-0.00152734957732409 1:0.20821875 2:-4.0215 
-0.04046124560181003 1:0.33180273 2:-4.425125 
-0.005540371538561688 1:0.26812109 2:-3.9265625 
-0.001346118257241502 1:0.17717383 2:-3.5808125 
-0.03477059411870548 1:0.11959766 2:-2.1474375 
-0.02014137740038927 1:0.29933398 2:-5.322 
-0.03537951251489138 1:0.25238086 2:-5.8245 
-0.04335785681385111 1:0.27779687 2:-2.887375 
-0.04839351851784215 1:0.241125 2:-3.359 
-0.02596634152263884 1:0.23483594 2:-5.0375 
-0.0207184247538479 1:0.20562109 2:-4.42025 
-0.0242038250038135 1:0.35424609 2:-4.1588125 
-0.02914099523246522 1:0.39354883 2:-5.9889375 
-0.01552108624791526 1:0.29261328 2:-3.979625 
-0.001982360104499262 1:0.14889258 2:-2.6009375 
-0.01330674297246083 1:0.10664258 2:-1.4766875 
-0.0122111767177181 1:0.19991992 2:-3.5648125 
-0.01270603360978776 1:0.26975781 2:-5.03375 
-0.01039419080601647 1:0.12649023 2:-0.3653125 
-0.07791824676232675 1:0.27866992 2:-3.1021875 
-0.01256082229360822 1:0.1582793 2:-2.42875 
-0.02363681854740474 1:0.11307227 2:-2.4548125 
-0.01063193525872952 1:0.2905 2:-5.1194375 
-0.008343227576717568 1:0.14036523 2:-2.703625 
-0.01582958487081696 1:0.15107227 2:-3.094 
-0.007929568630801203 1:0.18976758 2:-4.0565625 
-0.02282078501478114 1:0.19635547 2:-4.2664375 
-0.03538394375299117 1:0.34725 2:-6.13525 
-0.02239177341121251 1:0.27174219 2:-5.023125 
-0.06044723271464822 1:0.29874609 2:-4.2219375 
-0.03605203081709407 1:0.42217578 2:-5.0205625 
-0.03567763815143229 1:0.46201172 2:-5.260375 
-0.01632862538910542 1:0.34758984 2:-4.6420625 
-0.01056467094774383 1:0.24689063 2:-3.7405625 
-0.009159256366025634 1:0.18139648 2:-0.618875 
-0.001286682503243053 1:0.24904688 2:-4.5860625 
-0.0868330421400125 1:0.32765234 2:-4.0785625 
-0.02516090453037284 1:0.35916992 2:-5.396 
-0.02374382598761582 1:0.31051172 2:-4.055625 
-0.03344493367962934 1:0.21677539 2:-1.36575 
-0.01861412625760466 1:0.41588477 2:-5.7424375 
-0.008456001411745274 1:0.090236328 2:-0.73775 
-0.004455050409646991 1:0.17447852 2:-3.6551875 
-0.06258631953450683 1:0.32420508 2:-5.0073125 
-0.01694340672466996 1:0.28972266 2:-3.752625 
-0.04888373386081427 1:0.2536543 2:-5.4265 
-0.02364382779538585 1:0.21825586 2:-3.408625 
-0.03468945163242219 1:0.26871289 2:-3.656875 
-0.009798754547351352 1:0.18232422 2:-0.7585 
-0.03158760076021183 1:0.27801758 2:-3.6923125 
-0.01648199686809192 1:0.39512695 2:-6.255875 
-0.02066322435682879 1:0.27195508 2:-4.1985625 
-0.01282598438301625 1:0.32285156 2:-5.26975 
-0.016141617609297 1:0.264375 2:-3.62875 
-0.01329824358234704 1:0.1652832 2:-0.774875 
-0.0016144759664313 1:0.35478711 2:-6.158125 
-0.01319350599220842 1:0.22727734 2:-3.095375 
-0.0352243436130828 1:0.20256055 2:-1.8050625 
-0.02550322481730999 1:0.28978516 2:-5.5816875 
-0.01819507021483646 1:0.17563477 2:-3.6879375 
-0.0008420975897814268 1:0.1608125 2:-3.3086875 
-0.01772272213376877 1:0.17264844 2:-2.9095625 
-0.02219400244089936 1:0.096822266 2:-0.44275 
-0.03498674960870066 1:0.20248633 2:-1.470125 
-0.02013498138570378 1:0.15878711 2:-2.5393125 
-0.01157880680702639 1:0.20133203 2:-3.4996875 
-0.005933609135139501 1:0.24851367 2:-4.4968125 
-0.02485383283860606 1:0.15209375 2:-0.8670625 
-0.02847863723261923 1:0.17018359 2:-2.38025 
-0.02723425414181735 1:0.28478516 2:-5.7710625 
-0.015528170622232 1:0.28486719 2:-3.718875 
-0.008879613760495168 1:0.26508984 2:-4.06 
-0.02286024693252278 1:0.090865234 2:-0.7323125 
-0.04486412266599923 1:0.21135742 2:-2.489 
-0.01203012383445435 1:0.18523242 2:-3.55875 
-0.01346767874971776 1:0.17116602 2:-2.7844375 
-0.03056875491737221 1:0.17518555 2:-0.4829375 
-0.08634284085777465 1:0.31603125 2:-3.776875 
-0.03602249955859649 1:0.15018359 2:-0.1978125 
-0.02371044581311022 1:0.19461914 2:-1.3445625 
-0.02271463911706117 1:0.27323438 2:-4.118625 
-0.06004070944210152 1:0.23958398 2:-2.7159375 
-0.01026002019335233 1:0.15276953 2:-0.793625 
-0.01262371491371557 1:0.10781641 2:-0.6705 
-0.02836109441144663 1:0.34157617 2:-4.2260625 
-0.002606952626953003 1:0.20696875 2:-3.8543125 
-0.007295563024011323 1:0.096380859 2:-0.32325 
-0.005110494502554302 1:0.11195312 2:-0.3650625 
-0.01367993163285328 1:0.10279687 2:-0.2023125 
-0.01319257383543497 1:0.15537305 2:-0.8425 
-0.04762746800804232 1:0.24349805 2:-2.2509375 
-0.03609650204319678 1:0.26716211 2:-0.6474375 
-0.03149578117809571 1:0.41253516 2:-4.57525 
-0.02848018878708158 1:0.24172656 2:-0.6289375 
-0.03025478594615982 1:0.19223047 2:-0.8635 
-0.0350274511940135 1:0.21121289 2:-0.41525 
-0.02638334509106436 1:0.38126953 2:-4.8755625 
-0.02190150007781988 1:0.20566406 2:-0.5256875 
-0.0115587792906449 1:0.10585156 2:-0.4585 
-0.01790622492723894 1:0.19273242 2:-3.776 
-0.03487729820490149 1:0.18532422 2:-1.690875 
-0.006196908978574612 1:0.33543164 2:-4.2331875 
-0.002365993273745435 1:0.14759375 2:-0.6025625 
-0.01565845096287224 1:0.24038672 2:-4.892 
-0.02771998948208676 1:0.15058984 2:-0.7519375 
-0.02809676557417462 1:0.30451758 2:-4.920125 
-0.005348609270150073 1:0.28648438 2:-5.312 
-0.005897999009660435 1:0.1065625 2:-1.722625 
-0.02776978229210864 1:0.10953125 2:-1.2106875 
-0.01855659933577214 1:0.16791992 2:-3.2544375 
-0.03228124344283584 1:0.073541016 2:-0.704625 
-0.02219408054065025 1:0.19408398 2:-3.2364375 
-0.01756374637875805 1:0.17599805 2:-0.4551875 
-0.1 1:0.37572656 2:-4.8021875 
-0.03226569623640452 1:0.40841602 2:-5.890375 
-0.01996417565104475 1:0.16974609 2:-0.8895625 
-0.03899129989164482 1:0.19689648 2:-1.5423125 
-0.04662332854249249 1:0.33573047 2:-4.2478125 
-0.01940084535963622 1:0.24195703 2:-3.4858125 
-0.006420384972335765 1:0.12619336 2:-0.4399375 
-0.0183941024434518 1:0.1387832 2:-0.2895 
-0.03650135378335959 1:0.24887109 2:-0.7735625 
-0.03276827140949903 1:0.45636133 2:-5.3300625 
-0.0343928083322938 1:0.48122461 2:-4.6288125 
-0.0200253908323172 1:0.22131836 2:-0.972 
-0.002797329912887281 1:0.14681641 2:-0.7633125 
-0.004504792020066373 1:0.33568945 2:-4.6773125 
-0.01381671350858825 1:0.10086328 2:-0.3555 
-0.02046843011086159 1:0.14864063 2:-0.8965625 
-0.02532574757486872 1:0.26274414 2:-5.226375 
-0.01159892193994198 1:0.089394531 2:-0.407625 
-0.02339114750806076 1:0.11748828 2:-0.8951875 
-0.02852650636007016 1:0.077960938 2:-0.51175 
-0.02450367003814788 1:0.12290039 2:-2.5601875 
-0.02369315893748353 1:0.10139063 2:-0.265875 
-0.0235433310755329 1:0.15570703 2:-0.706375 
-0.02328548151873011 1:0.33235938 2:-5.230375 
-0.02683811519498122 1:0.44980664 2:-3.9481875 
-0.03113515872900985 1:0.37691602 2:-4.8575625 
-0.03594654427659672 1:0.1989707 2:-1.7538125 
-0.001634408432892437 1:0.32289844 2:-3.9433125 
-0.05113160943033593 1:0.36369141 2:-2.1930625 
-0.03640620367217859 1:0.25078516 2:-2.29325 
-0.006270972653901207 1:0.12149023 2:-0.6396875 
-0.01248723610737376 1:0.19994727 2:-3.95225 
-0.09422516945684831 1:0.20061523 2:-1.3003125 
-0.01032211743041864 1:0.21743555 2:-0.8601875 
-0.02722659161846361 1:0.34958789 2:-6.155125 
-0.002680335780563884 1:0.29985352 2:-5.4546875 
-0.003119336990187772 1:0.26062305 2:-4.298875 
-0.00169649551348694 1:0.27255078 2:-4.94375 
-0.02312127686505262 1:0.27678516 2:-4.6961875 
-0.02825606863263675 1:0.20523633 2:-0.7739375 
-0.08609900756948941 1:0.24077344 2:-3.8563125 
-0.01933091231286359 1:0.13147852 2:-2.66425 
-0.06749457160652914 1:0.25610352 2:-4.7163125 
-0.02113740944048231 1:0.18399219 2:-0.6701875 
-0.01954400994662581 1:0.094521484 2:-0.787 
-0.001888354974914156 1:0.2078125 2:-4.278 
-0.03035458881764383 1:0.093222656 2:-0.914125 
-0.007702153522690835 1:0.23533594 2:-0.856375 
-0.06818453893533508 1:0.23345117 2:-1.063375 
-0.1 1:0.28416211 2:-1.2368125 
-0.01563682842756151 1:0.21667773 2:-5.065875 
-0.02059408630312771 1:0.18671094 2:-0.538125 
-0.03345876980079088 1:0.17999414 2:-0.934875 
-0.03149438020985618 1:0.20324609 2:-0.926125 
-0.004632290385918005 1:0.19198828 2:-0.5795625 
-0.02796130966741223 1:0.17612305 2:-1.000625 
-0.01086569894460057 1:0.30008594 2:-3.7301875 
-0.0152160421427823 1:0.28879492 2:-3.6378125 
-0.007737072942084033 1:0.16385352 2:-3.171875 
-0.02460027926367281 1:0.14821484 2:-2.779125 
-0.04485882192482202 1:0.20150586 2:-2.223875 
-0.01908495456661324 1:0.079640625 2:-0.79925 
-0.01529874107407812 1:0.11673633 2:-2.6884375 
-0.01304960181895875 1:0.26252539 2:-4.9896875 
-0.007265418193987674 1:0.13176172 2:-0.646875 
-0.03162507420531377 1:0.24884961 2:-0.97475 
-0.0152073368830544 1:0.28505859 2:-5.2948125 
-0.01253173552668745 1:0.28702539 2:-5.30925 
-0.004068017849317209 1:0.28710938 2:-4.5034375 
-0.01002508921469978 1:0.21092969 2:-3.133125 
-0.03206083343262217 1:0.32681055 2:-5.6421875 
-0.09495370449218607 1:0.21583203 2:-3.4614375 
-0.02172943424598198 1:0.31766992 2:-6.3675 
-0.01237576397984127 1:0.25287305 2:-4.3624375 
-0.02638915342095095 1:0.27832422 2:-5.4890625 
-0.02028980327765974 1:0.22498242 2:-4.971 
-0.01216095168655534 1:0.30970703 2:-5.2878125 
-0.02903520263871199 1:0.22991602 2:-5.1326875 
-0.01704070143202413 1:0.2037168 2:-4.164625 
-0.009037522198875299 1:0.17627734 2:-3.7154375 
-0.02739201004482855 1:0.21023242 2:-3.081125 
-0.005893019918960677 1:0.22471289 2:-4.2440625 
-0.01072066904762452 1:0.14767578 2:-2.7695625 
-0.01914115821540358 1:0.29110156 2:-4.4441875 
-0.1 1:0.32047656 2:-5.663 
-0.03079014638509915 1:0.36684766 2:-5.885625 
-0.053079742871477 1:0.17897656 2:-3.216625 
-0.007072838027139703 1:0.12444727 2:-0.638875 
-0.007415056166485023 1:0.165625 2:-2.978625 
-0.025888618348127 1:0.28688477 2:-4.852125 
-0.002664220028736267 1:0.29137109 2:-5.3916875 
-0.02929618733555986 1:0.13932031 2:-1.2410625 
-0.02086142142222337 1:0.38566406 2:-5.403625 
-0.00112556497472599 1:0.25096484 2:-4.1090625 
-0.01241020997427721 1:0.16872461 2:-2.8725625 
-0.01175822703811386 1:0.22574219 2:-3.81975 
-0.02283787935878791 1:0.2184043 2:-3.258125 
-0.01707963471631671 1:0.24298438 2:-3.9543125 
-0.002067003387857334 1:0.21582617 2:-4.73525 
-0.07657119187414604 1:0.28108203 2:-3.5603125 
-0.01438551128635094 1:0.31639063 2:-4.31275 
-0.01816554961163412 1:0.25782422 2:-4.0645625 
-0.009398531696517276 1:0.29443555 2:-4.777625 
-0.01201470921296704 1:0.15181445 2:-2.9251875 
-0.02085402050454102 1:0.20250391 2:-3.0280625 
-0.02387049405396348 1:0.1800625 2:-2.518875 
-0.00449770431767138 1:0.19228711 2:-3.721375 
-0.003700463036718198 1:0.16573828 2:-3.3041875 
-0.02112509901331246 1:0.15448633 2:-3.7628125 
-0.02863722715290462 1:0.3138457 2:-6.0845625 
-0.03630315185064945 1:0.067634766 2:-1.410875 
-0.02607684493825424 1:0.26593359 2:-3.9913125 
-0.01941908620835697 1:0.21158789 2:-3.901625 
-0.005130772341835542 1:0.3624082 2:-4.4905625 
-0.02019818590350861 1:0.19523047 2:-0.8776875 
-0.04157110973569542 1:0.2646582 2:-3.4330625 
-0.030191611293898 1:0.39014258 2:-6.121875 
-0.09143329817447352 1:0.33136133 2:-4.273 
-0.02498390298323425 1:0.28554492 2:-5.41175 
-0.05707226335487318 1:0.21893164 2:-4.2990625 
-0.01664016875610574 1:0.26200195 2:-4.2871875 
-0.003500267772904082 1:0.38319141 2:-5.44775 
-0.01410831362280495 1:0.18878906 2:-3.0636875 
-0.007445523180694493 1:0.17265039 2:-3.02575 
-0.02513901956326765 1:0.089236328 2:-0.6251875 
-0.03605159475158079 1:0.40245898 2:-4.9370625 
-0.04254284809241811 1:0.27881836 2:-4.3296875 
-0.01641595342711374 1:0.17937695 2:-2.999875 
-0.0196985511500587 1:0.29432422 2:-5.3350625 
-0.01118308548566662 1:0.22025 2:-3.0306875 
-0.02285384233253007 1:0.21678516 2:-3.9260625 
-0.01894910083851405 1:0.19554297 2:-3.01125 
-0.01794549070937013 1:0.14333789 2:-2.5066875 
-0.02063129245617443 1:0.15925781 2:-2.598 
-0.01271494475737067 1:0.13710156 2:-2.3773125 
-0.01698061663137407 1:0.091064453 2:-0.33625 
-0.001884087747274832 1:0.19486914 2:-3.263375 
-0.002169574483403639 1:0.2285293 2:-4.7909375 
-0.01793913919567985 1:0.32294922 2:-4.96825 
-0.009938103717389202 1:0.25946094 2:-4.9086875 
-0.03407894251226329 1:0.19035547 2:-3.197625 
-0.03203682363523475 1:0.36457422 2:-5.483875 
