svm_type c_svc
kernel_type rbf
gamma 1000
nr_class 2
total_sv 3752
rho 0.867016
label 1 -1
nr_sv 1194 2558
SV
0.1 1:0.28954102 2:-4.644125 
0.1 1:0.33150781 2:-1.9401875 
0.1 1:0.41480664 2:-3.7495625 
0.1 1:0.27998633 2:-3.1631875 
0.1 1:0.17680469 2:-0.7626875 
0.1 1:0.41479102 2:-3.7660625 
0.1 1:0.34409766 2:-1.65875 
0.1 1:0.29141602 2:-3.130625 
0.1 1:0.57900781 2:-2.849625 
0.1 1:0.39012109 2:-2.077125 
0.1 1:0.42306055 2:-3.1710625 
0.1 1:0.42260938 2:-4.761125 
0.1 1:0.31656641 2:-2.7206875 
0.1 1:0.31361914 2:-3.78425 
0.1 1:0.30116602 2:-3.454875 
0.1 1:0.29473242 2:-3.053 
0.1 1:0.42530273 2:-3.6656875 
0.1 1:0.41161914 2:-3.4816875 
0.1 1:0.47179688 2:-4.263875 
0.1 1:0.39529102 2:-4.564375 
0.1 1:0.39301562 2:-4.5141875 
0.1 1:0.45131445 2:-4.8573125 
0.1 1:0.39408398 2:-5.8528125 
0.1 1:0.45438281 2:-2.711625 
0.1 1:0.38668359 2:-2.8516875 
0.1 1:0.50985352 2:-2.284 
0.1 1:0.3864375 2:-1.5735 
0.1 1:0.52532227 2:-2.8126875 
0.1 1:0.45753516 2:-3.1154375 
0.1 1:0.3889375 2:-3.2738125 
0.1 1:0.46608398 2:-2.914875 
0.1 1:0.30149805 2:-3.2504375 
0.1 1:0.28036523 2:-3.41475 
0.1 1:0.31999023 2:-3.4375 
0.1 1:0.31866406 2:-3.081875 
0.1 1:0.39345312 2:-2.227625 
0.1 1:0.51370117 2:-4.112625 
0.1 1:0.28839453 2:-3.682625 
0.1 1:0.42789844 2:-4.0163125 
0.1 1:0.27570508 2:-1.7501875 
0.1 1:0.27545117 2:-3.180875 
0.1 1:0.2234082 2:-2.465375 
0.1 1:0.28710156 2:-3.6726875 
0.1 1:0.29000391 2:-4.12425 
0.1 1:0.31611523 2:-3.318625 
0.1 1:0.33362305 2:-3.660375 
0.1 1:0.34348047 2:-2.28275 
0.1 1:0.40778125 2:-2.2558125 
0.1 1:0.31162891 2:-3.9908125 
0.1 1:0.49688477 2:-3.0741875 
0.1 1:0.44555664 2:-2.8524375 
0.1 1:0.26838477 2:-3.1514375 
0.1 1:0.19477539 2:-1.5100625 
0.1 1:0.26169922 2:-2.8788125 
0.1 1:0.42175977 2:-1.934 
0.1 1:0.50997461 2:-1.53175 
0.1 1:0.52543945 2:-1.5133125 
0.1 1:0.5994668 2:-2.6765 
0.1 1:0.32251953 2:-3.13 
0.1 1:0.4480918 2:-3.61075 
0.1 1:0.47799219 2:-2.5883125 
0.1 1:0.38176172 2:-3.197125 
0.1 1:0.36821094 2:-2.479875 
0.1 1:0.33624805 2:-2.221875 
0.1 1:0.31138867 2:-2.953875 
0.1 1:0.28545508 2:-4.1744375 
0.1 1:0.40131641 2:-2.6543125 
0.1 1:0.49073242 2:-3.315625 
0.1 1:0.49304102 2:-2.30275 
0.1 1:0.29399219 2:-2.9063125 
0.1 1:0.34798633 2:-4.020125 
0.1 1:0.29919727 2:-3.645375 
0.1 1:0.44145898 2:-2.5428125 
0.1 1:0.24614648 2:-3.1475 
0.1 1:0.34317578 2:-3.28275 
0.1 1:0.35558789 2:-3.6624375 
0.1 1:0.37868555 2:-2.908625 
0.1 1:0.42039648 2:-3.2233125 
0.1 1:0.35105859 2:-2.2709375 
0.1 1:0.23377734 2:-4.336375 
0.1 1:0.25773828 2:-3.7175625 
0.1 1:0.17488281 2:-1.0215 
0.1 1:0.22948242 2:-2.170625 
0.1 1:0.36972461 2:-1.8185 
0.1 1:0.37283398 2:-2.17775 
0.1 1:0.46744336 2:-3.1958125 
0.1 1:0.43983398 2:-1.9830625 
0.1 1:0.18727148 2:-2.3613125 
0.1 1:0.25310938 2:-3.3103125 
0.1 1:0.29048438 2:-2.908625 
0.1 1:0.3094082 2:-3.7965 
0.1 1:0.26782617 2:-3.1501875 
0.1 1:0.26945117 2:-2.346375 
0.1 1:0.35231641 2:-2.5646875 
0.1 1:0.15948437 2:-2.029 
0.1 1:0.36882227 2:-3.3408125 
0.1 1:0.29429687 2:-3.6584375 
0.1 1:0.26806055 2:-2.1526875 
0.1 1:0.27436719 2:-2.3890625 
0.1 1:0.22574414 2:-2.3684375 
0.1 1:0.34233203 2:-3.7615 
0.1 1:0.31919531 2:-2.3588125 
0.1 1:0.37255469 2:-4.3179375 
0.1 1:0.44328906 2:-1.86225 
0.1 1:0.26541797 2:-2.87675 
0.1 1:0.51979883 2:-1.8845625 
0.1 1:0.53860547 2:-3.504 
0.1 1:0.28378711 2:-2.2425 
0.1 1:0.32110547 2:-2.0231875 
0.1 1:0.35166406 2:-3.349 
0.1 1:0.26153125 2:-3.40475 
0.1 1:0.28976367 2:-2.34075 
0.1 1:0.2684375 2:-2.4340625 
0.1 1:0.44421484 2:-2.4914375 
0.1 1:0.4392168 2:-2.4121875 
0.1 1:0.29695898 2:-1.7955625 
0.1 1:0.27430469 2:-2.704875 
0.1 1:0.2959082 2:-2.391625 
0.1 1:0.33640039 2:-2.6640625 
0.1 1:0.36859766 2:-2.314875 
0.1 1:0.34080859 2:-1.552 
0.1 1:0.27767969 2:-2.165375 
0.1 1:0.30784375 2:-3.0463125 
0.1 1:0.3090957 2:-3.85075 
0.1 1:0.38376562 2:-3.8575625 
0.1 1:0.38344141 2:-3.6039375 
0.1 1:0.35373438 2:-2.158625 
0.1 1:0.31676953 2:-2.14075 
0.1 1:0.2551543 2:-2.345875 
0.1 1:0.40021875 2:-3.975125 
0.1 1:0.37047461 2:-4.07375 
0.1 1:0.43533203 2:-3.6585 
0.1 1:0.34657227 2:-2.2581875 
0.1 1:0.33625781 2:-1.9894375 
0.1 1:0.3046875 2:-2.61025 
0.1 1:0.3295625 2:-2.4216875 
0.1 1:0.30416992 2:-2.0409375 
0.1 1:0.33381445 2:-2.8750625 
0.1 1:0.46308789 2:-2.4643125 
0.1 1:0.454125 2:-2.0156875 
0.1 1:0.30499609 2:-2.81075 
0.1 1:0.34332617 2:-3.66225 
0.1 1:0.35253516 2:-3.5119375 
0.1 1:0.35352734 2:-2.3345625 
0.1 1:0.35586719 2:-4.579125 
0.1 1:0.24919336 2:-1.8699375 
0.1 1:0.3222207 2:-2.497375 
0.1 1:0.52628906 2:-2.6603125 
0.1 1:0.17047266 2:-2.255125 
0.1 1:0.31731445 2:-4.57025 
0.1 1:0.31222266 2:-1.824 
0.1 1:0.23729883 2:-1.4004375 
0.1 1:0.43748438 2:-3.083 
0.1 1:0.44503711 2:-3.56625 
0.1 1:0.28313086 2:-3.6645625 
0.1 1:0.27696094 2:-3.481375 
0.1 1:0.35098438 2:-2.575 
0.1 1:0.2591543 2:-1.780875 
0.1 1:0.18749023 2:-3.19425 
0.1 1:0.24311523 2:-2.8549375 
0.1 1:0.41620703 2:-3.46575 
0.1 1:0.43799805 2:-3.4333125 
0.1 1:0.41267578 2:-2.2394375 
0.1 1:0.37676367 2:-5.549 
0.1 1:0.31 2:-3.2896875 
0.1 1:0.31063477 2:-3.77025 
0.1 1:0.28365039 2:-2.8665 
0.1 1:0.42345313 2:-3.9575 
0.1 1:0.45117969 2:-3.092 
0.1 1:0.42935742 2:-3.0300625 
0.1 1:0.22990625 2:-4.26575 
0.1 1:0.39503906 2:-4.05675 
0.1 1:0.30292383 2:-2.5051875 
0.1 1:0.284625 2:-5.445375 
0.1 1:0.33414648 2:-4.8459375 
0.1 1:0.42413672 2:-4.6000625 
0.1 1:0.42115039 2:-5.187125 
0.1 1:0.39049805 2:-3.56675 
0.1 1:0.44375781 2:-3.0615 
0.1 1:0.47751758 2:-4.1559375 
0.1 1:0.50326758 2:-2.3361875 
0.1 1:0.3230332 2:-5.3358125 
0.1 1:0.33288867 2:-4.261125 
0.1 1:0.29560352 2:-3.0410625 
0.1 1:0.353 2:-2.7285 
0.1 1:0.27342773 2:-2.5523125 
0.1 1:0.33716992 2:-1.6179375 
0.1 1:0.32062109 2:-1.7270625 
0.1 1:0.25826562 2:-1.6623125 
0.1 1:0.31220117 2:-1.354625 
0.1 1:0.42663086 2:-3.637125 
0.1 1:0.47623633 2:-4.3488125 
0.1 1:0.2080957 2:-1.8283125 
0.1 1:0.21630273 2:-1.4938125 
0.1 1:0.25568945 2:-2.894875 
0.1 1:0.33024219 2:-3.121625 
0.1 1:0.34599805 2:-2.140125 
0.1 1:0.24593945 2:-2.1311875 
0.1 1:0.24601367 2:-2.191 
0.1 1:0.24747852 2:-2.792 
0.1 1:0.42885742 2:-3.095875 
0.1 1:0.38256445 2:-3.61 
0.1 1:0.27236914 2:-3.7054375 
0.1 1:0.38957813 2:-2.6315 
0.1 1:0.34983789 2:-4.0816875 
0.1 1:0.35217578 2:-2.085125 
0.1 1:0.39942773 2:-6.0199375 
0.1 1:0.46775 2:-3.990125 
0.1 1:0.38500977 2:-1.758 
0.1 1:0.40404883 2:-2.433875 
0.1 1:0.21495703 2:-1.86225 
0.1 1:0.22565039 2:-2.6808125 
0.1 1:0.27693164 2:-3.3294375 
0.1 1:0.35406641 2:-3.704375 
0.1 1:0.38451172 2:-3.2376875 
0.1 1:0.4695332 2:-3.23875 
0.1 1:0.26488281 2:-3.2199375 
0.1 1:0.22852344 2:-2.6631875 
0.1 1:0.43521875 2:-2.7759375 
0.1 1:0.53756055 2:-1.4563125 
0.1 1:0.25391211 2:-2.442625 
0.1 1:0.28090234 2:-3.5523125 
0.1 1:0.3136582 2:-3.195375 
0.1 1:0.25118164 2:-1.898125 
0.1 1:0.39793555 2:-2.6754375 
0.1 1:0.40866211 2:-2.91425 
0.1 1:0.19125977 2:-2.2409375 
0.1 1:0.39329102 2:-2.96975 
0.1 1:0.4534043 2:-3.5765625 
0.1 1:0.44136914 2:-5.2418125 
0.1 1:0.3462832 2:-4.65725 
0.1 1:0.35276562 2:-4.7933125 
0.1 1:0.40429687 2:-1.10175 
0.1 1:0.38853906 2:-2.2880625 
0.1 1:0.41318555 2:-4.2830625 
0.1 1:0.38029492 2:-2.6636875 
0.1 1:0.33859375 2:-2.1930625 
0.1 1:0.21748633 2:-2.4785 
0.1 1:0.50880273 2:-2.163 
0.1 1:0.459 2:-5.2013125 
0.1 1:0.34100781 2:-3.860125 
0.1 1:0.35734766 2:-2.7428125 
0.1 1:0.33469531 2:-2.93075 
0.1 1:0.26811719 2:-3.05975 
0.1 1:0.3195957 2:-4.8738125 
0.1 1:0.39028711 2:-2.472 
0.1 1:0.39319922 2:-2.43675 
0.1 1:0.39208203 2:-3.828125 
0.1 1:0.42557422 2:-2.0825625 
0.1 1:0.23667969 2:-3.285 
0.1 1:0.41963086 2:-2.7916875 
0.1 1:0.65594141 2:-2.2291875 
0.1 1:0.31175195 2:-2.6984375 
0.1 1:0.37692773 2:-6.066 
0.1 1:0.24733789 2:-3.4609375 
0.1 1:0.23803906 2:-1.2504375 
0.1 1:0.33924023 2:-3.7311875 
0.1 1:0.49211133 2:-2.1145 
0.1 1:0.36394531 2:-1.63875 
0.1 1:0.40451953 2:-1.271 
0.1 1:0.45625781 2:-3.9156875 
0.1 1:0.49548828 2:-3.364375 
0.1 1:0.28426953 2:-2.9063125 
0.1 1:0.43245703 2:-6.32425 
0.1 1:0.35253906 2:-2.61525 
0.1 1:0.348625 2:-2.0160625 
0.1 1:0.44514258 2:-3.364625 
0.1 1:0.30735547 2:-1.987125 
0.1 1:0.29741211 2:-2.8059375 
0.1 1:0.28708789 2:-2.5873125 
0.1 1:0.27220703 2:-1.8994375 
0.1 1:0.4747207 2:-3.821125 
0.1 1:0.45795313 2:-3.3419375 
0.1 1:0.20431836 2:-1.3066875 
0.1 1:0.41103125 2:-1.5165625 
0.1 1:0.31275195 2:-2.2413125 
0.1 1:0.25545703 2:-2.2199375 
0.1 1:0.29102539 2:-2.3373125 
0.1 1:0.33723437 2:-1.4580625 
0.1 1:0.37512109 2:-4.1375 
0.1 1:0.37527344 2:-4.52 
0.1 1:0.42236523 2:-3.9070625 
0.1 1:0.36245508 2:-4.3391875 
0.1 1:0.29295898 2:-4.6575625 
0.1 1:0.40152148 2:-3.35125 
0.1 1:0.22850586 2:-1.869875 
0.1 1:0.28496484 2:-2.3533125 
0.1 1:0.28685352 2:-2.059875 
0.1 1:0.48700977 2:-3.3898125 
0.1 1:0.2698418 2:-2.0849375 
0.1 1:0.58155273 2:-2.5085 
0.1 1:0.52079102 2:-2.4798125 
0.1 1:0.52735156 2:-4.2251875 
0.1 1:0.26952148 2:-1.5008125 
0.1 1:0.36931641 2:-4.372125 
0.1 1:0.22754492 2:-2.5660625 
0.1 1:0.46001953 2:-3.562375 
0.1 1:0.48591406 2:-2.752 
0.1 1:0.27792773 2:-1.9775625 
0.1 1:0.40191016 2:-2.013375 
0.1 1:0.29837891 2:-1.868375 
0.1 1:0.30395312 2:-2.4815625 
0.1 1:0.34070508 2:-1.944125 
0.1 1:0.40689063 2:-2.2748125 
0.1 1:0.36775195 2:-2.4995625 
0.1 1:0.42963477 2:-2.2746875 
0.1 1:0.371 2:-3.200125 
0.1 1:0.24449219 2:-1.5425 
0.1 1:0.25449219 2:-2.45125 
0.1 1:0.32063867 2:-2.9024375 
0.1 1:0.27138867 2:-2.4171875 
0.1 1:0.25672656 2:-1.856 
0.1 1:0.47086914 2:-2.552625 
0.1 1:0.53094922 2:-2.2313125 
0.1 1:0.47037109 2:-1.6984375 
0.1 1:0.40037695 2:-1.956125 
0.1 1:0.40182227 2:-3.1219375 
0.1 1:0.32571484 2:-2.687 
0.1 1:0.52552539 2:-3.46175 
0.1 1:0.50982422 2:-2.602875 
0.1 1:0.38722266 2:-1.817375 
0.1 1:0.32749023 2:-1.7175 
0.1 1:0.2248125 2:-1.0631875 
0.1 1:0.20659375 2:-1.3813125 
0.1 1:0.30467383 2:-2.7651875 
0.1 1:0.2792793 2:-4.419625 
0.1 1:0.40448242 2:-3.771 
0.1 1:0.45885352 2:-2.1756875 
0.1 1:0.27438672 2:-1.98 
0.1 1:0.35455273 2:-2.265 
0.1 1:0.29856836 2:-1.3805625 
0.1 1:0.35795508 2:-2.40525 
0.1 1:0.41151367 2:-2.1315 
0.1 1:0.30921484 2:-2.1234375 
0.1 1:0.28180078 2:-2.841625 
0.1 1:0.30118164 2:-2.975875 
0.1 1:0.25274414 2:-1.9728125 
0.1 1:0.2563418 2:-2.9838125 
0.1 1:0.25343945 2:-3.0164375 
0.1 1:0.27555469 2:-3.6163125 
0.1 1:0.29208203 2:-3.0359375 
0.1 1:0.51782031 2:-2.9840625 
0.1 1:0.55075 2:-2.677 
0.1 1:0.19023633 2:-2.2865 
0.1 1:0.407875 2:-3.1875625 
0.1 1:0.34212109 2:-3.7601875 
0.1 1:0.29614063 2:-3.1636875 
0.1 1:0.20087109 2:-0.9624375 
0.1 1:0.23283398 2:-2.39575 
0.1 1:0.43040625 2:-3.1189375 
0.1 1:0.45213086 2:-3.090875 
0.1 1:0.19886328 2:-2.5488125 
0.1 1:0.2208125 2:-2.5071875 
0.1 1:0.27175977 2:-2.2280625 
0.1 1:0.34951953 2:-2.8583125 
0.1 1:0.31622266 2:-2.7886875 
0.1 1:0.4820332 2:-1.2183125 
0.1 1:0.19142383 2:-2.952 
0.1 1:0.41204297 2:-4.5963125 
0.1 1:0.28090625 2:-1.948125 
0.1 1:0.31465625 2:-3.7899375 
0.1 1:0.40140625 2:-4.0538125 
0.1 1:0.4467832 2:-4.06625 
0.1 1:0.50605664 2:-2.7380625 
0.1 1:0.52707617 2:-4.68575 
0.1 1:0.41253711 2:-2.4326875 
0.1 1:0.23301758 2:-2.77575 
0.1 1:0.22523437 2:-4.4809375 
0.1 1:0.22986133 2:-2.7025625 
0.1 1:0.38278711 2:-1.911375 
0.1 1:0.37021289 2:-3.356375 
0.1 1:0.52820117 2:-3.1533125 
0.1 1:0.22896484 2:-3.422125 
0.1 1:0.53497656 2:-4.1345 
0.1 1:0.42437891 2:-2.695125 
0.1 1:0.35587305 2:-2.288625 
0.1 1:0.38156055 2:-2.6869375 
0.1 1:0.45810547 2:-2.725875 
0.1 1:0.48751172 2:-4.2118125 
0.1 1:0.37243359 2:-3.5903125 
0.1 1:0.28279492 2:-1.9401875 
0.1 1:0.47380469 2:-2.396625 
0.1 1:0.57983398 2:-1.5735625 
0.1 1:0.38264258 2:-2.117875 
0.1 1:0.36764844 2:-3.4171875 
0.1 1:0.29967383 2:-4.1315625 
0.1 1:0.36720898 2:-2.2955 
0.1 1:0.27999414 2:-2.9005 
0.1 1:0.19261133 2:-1.907375 
0.1 1:0.24225781 2:-3.93575 
0.1 1:0.45814258 2:-3.6809375 
0.1 1:0.27367383 2:-2.1773125 
0.1 1:0.4121875 2:-4.211 
0.1 1:0.26678906 2:-3.29475 
0.1 1:0.28736133 2:-3.1313125 
0.1 1:0.4081582 2:-2.5755 
0.1 1:0.40276563 2:-3.0210625 
0.1 1:0.30507812 2:-4.5428125 
0.1 1:0.4871875 2:-3.887125 
0.1 1:0.19270117 2:-2.1895 
0.1 1:0.16695508 2:-1.788625 
0.1 1:0.47977344 2:-3.13125 
0.1 1:0.38346484 2:-2.8445 
0.1 1:0.36126172 2:-3.423875 
0.1 1:0.32610547 2:-3.250875 
0.1 1:0.27660547 2:-3.0056875 
0.1 1:0.44389648 2:-2.2238125 
0.1 1:0.40474805 2:-2.588125 
0.1 1:0.24084375 2:-2.174125 
0.1 1:0.37858984 2:-2.6868125 
0.1 1:0.26692383 2:-3.2095 
0.1 1:0.29455273 2:-1.8113125 
0.1 1:0.25010547 2:-4.1759375 
0.1 1:0.39108984 2:-1.8384375 
0.1 1:0.45036328 2:-3.8025 
0.1 1:0.25866406 2:-5.145625 
0.1 1:0.31988281 2:-3.0180625 
0.1 1:0.49307031 2:-2.892875 
0.1 1:0.44060156 2:-1.6279375 
0.1 1:0.471 2:-3.108 
0.1 1:0.46012695 2:-2.757875 
0.1 1:0.46235742 2:-5.634125 
0.1 1:0.21296484 2:-1.6684375 
0.1 1:0.23607031 2:-2.3098125 
0.1 1:0.25761328 2:-2.3586875 
0.1 1:0.48723242 2:-2.3460625 
0.1 1:0.41818359 2:-4.63875 
0.1 1:0.43891406 2:-2.859 
0.1 1:0.46525391 2:-4.268125 
0.1 1:0.41381055 2:-3.4913125 
0.1 1:0.36124023 2:-3.3540625 
0.1 1:0.3807207 2:-4.4460625 
0.1 1:0.36006641 2:-3.2760625 
0.1 1:0.339125 2:-1.304625 
0.1 1:0.43852344 2:-2.296 
0.1 1:0.396875 2:-1.6061875 
0.1 1:0.36752344 2:-2.3046875 
0.1 1:0.38666406 2:-2.618125 
0.1 1:0.33942383 2:-2.816875 
0.1 1:0.42518555 2:-2.9306875 
0.1 1:0.45269336 2:-4.4751875 
0.1 1:0.40038086 2:-2.0874375 
0.1 1:0.26485742 2:-2.1836875 
0.1 1:0.30535547 2:-3.164875 
0.1 1:0.37462109 2:-4.6270625 
0.1 1:0.24718164 2:-3.4359375 
0.1 1:0.43002148 2:-2.2696875 
0.1 1:0.3902207 2:-3.342375 
0.1 1:0.3564043 2:-3.6638125 
0.1 1:0.39567969 2:-3.775375 
0.1 1:0.44560547 2:-3.518625 
0.1 1:0.45062109 2:-1.7868125 
0.1 1:0.44405469 2:-4.3299375 
0.1 1:0.43075781 2:-3.5646875 
0.1 1:0.42545898 2:-2.3104375 
0.1 1:0.29819141 2:-3.56975 
0.1 1:0.37061719 2:-3.7656875 
0.1 1:0.44163867 2:-4.752125 
0.1 1:0.34638672 2:-3.5878125 
0.1 1:0.37478516 2:-3.9449375 
0.1 1:0.40678711 2:-3.3389375 
0.1 1:0.30768945 2:-2.5954375 
0.1 1:0.33163281 2:-3.3355 
0.1 1:0.44303906 2:-2.2975625 
0.1 1:0.37298047 2:-3.0148125 
0.1 1:0.52864844 2:-2.0689375 
0.1 1:0.36405664 2:-1.8345 
0.1 1:0.46813867 2:-1.7313125 
0.1 1:0.37437891 2:-1.7210625 
0.1 1:0.44779492 2:-1.6871875 
0.1 1:0.32235156 2:-4.26875 
0.1 1:0.37616602 2:-4.028 
0.1 1:0.35502539 2:-1.6113125 
0.1 1:0.42798047 2:-1.8614375 
0.1 1:0.25164063 2:-3.43575 
0.1 1:0.2812207 2:-2.873125 
0.1 1:0.34073438 2:-1.85625 
0.1 1:0.33127734 2:-3.2449375 
0.1 1:0.43997461 2:-1.51125 
0.1 1:0.29558984 2:-2.858 
0.1 1:0.30986328 2:-2.678625 
0.1 1:0.29772266 2:-2.9845 
0.1 1:0.28343945 2:-1.48925 
0.1 1:0.33359961 2:-2.69725 
0.1 1:0.32907812 2:-1.86675 
0.1 1:0.28352734 2:-3.212875 
0.1 1:0.30418555 2:-2.98925 
0.1 1:0.2688418 2:-2.9066875 
0.1 1:0.35154688 2:-4.05375 
0.1 1:0.36387305 2:-2.0845625 
0.1 1:0.26034961 2:-2.928375 
0.1 1:0.3802207 2:-3.17925 
0.1 1:0.39324414 2:-2.4733125 
0.1 1:0.26330664 2:-1.4164375 
0.1 1:0.4159707 2:-2.448625 
0.1 1:0.3885957 2:-2.639375 
0.1 1:0.39798828 2:-2.7364375 
0.1 1:0.33468945 2:-3.2365 
0.1 1:0.43761719 2:-3.33625 
0.1 1:0.34103711 2:-3.227875 
0.1 1:0.22388477 2:-2.2773125 
0.1 1:0.39248828 2:-3.027875 
0.1 1:0.34167578 2:-2.6451875 
0.1 1:0.37977539 2:-2.7740625 
0.1 1:0.42236328 2:-6.1394375 
0.1 1:0.37757422 2:-4.804125 
0.1 1:0.18282422 2:-2.9845625 
0.1 1:0.43889844 2:-2.67725 
0.1 1:0.3836875 2:-4.3201875 
0.1 1:0.50765234 2:-2.22525 
0.1 1:0.4339043 2:-3.1655625 
0.1 1:0.38060742 2:-4.1420625 
0.1 1:0.31829297 2:-3.0553125 
0.1 1:0.30875 2:-3.484375 
0.1 1:0.35816797 2:-1.8958125 
0.1 1:0.33810352 2:-4.35 
0.1 1:0.47415625 2:-4.8995625 
0.1 1:0.31277148 2:-4.653625 
0.1 1:0.38122656 2:-3.5826875 
0.1 1:0.34141797 2:-2.0791875 
0.1 1:0.35726367 2:-4.68325 
0.1 1:0.29078711 2:-2.114 
0.1 1:0.45385156 2:-2.0045625 
0.1 1:0.43955078 2:-1.6426875 
0.1 1:0.38577734 2:-2.6884375 
0.1 1:0.31504492 2:-5.0301875 
0.1 1:0.42924219 2:-6.279125 
0.1 1:0.38738477 2:-2.848625 
0.1 1:0.5178125 2:-2.3533125 
0.1 1:0.33718359 2:-3.04075 
0.1 1:0.34706836 2:-4.571625 
0.1 1:0.33739062 2:-3.35425 
0.1 1:0.3888457 2:-3.347625 
0.1 1:0.26228125 2:-1.668 
0.1 1:0.32758203 2:-4.008125 
0.1 1:0.49133984 2:-4.1626875 
0.1 1:0.54844922 2:-2.60875 
0.1 1:0.2096543 2:-3.3384375 
0.1 1:0.3324668 2:-3.562 
0.1 1:0.26744336 2:-2.9053125 
0.1 1:0.19701367 2:-2.13925 
0.1 1:0.35609766 2:-2.9411875 
0.1 1:0.31833008 2:-2.2700625 
0.1 1:0.2439375 2:-3.4745625 
0.1 1:0.49685547 2:-1.6393125 
0.1 1:0.31225977 2:-1.9321875 
0.1 1:0.25426758 2:-5.0411875 
0.1 1:0.37638477 2:-4.545875 
0.1 1:0.3755918 2:-2.10825 
0.1 1:0.23039844 2:-3.1139375 
0.1 1:0.24535742 2:-3.0871875 
0.1 1:0.49461523 2:-4.0245625 
0.1 1:0.3394668 2:-2.1010625 
0.1 1:0.39830078 2:-2.392625 
0.1 1:0.23882813 2:-3.4575625 
0.1 1:0.3894082 2:-2.3775625 
0.1 1:0.41301172 2:-4.127 
0.1 1:0.35320508 2:-2.8369375 
0.1 1:0.49108398 2:-1.9874375 
0.1 1:0.42745117 2:-4.3916875 
0.1 1:0.38888086 2:-2.0305 
0.1 1:0.25628516 2:-2.2579375 
0.1 1:0.28953516 2:-4.65275 
0.1 1:0.31485156 2:-4.1795 
0.1 1:0.29781641 2:-4.276625 
0.1 1:0.41635938 2:-3.8374375 
0.1 1:0.21245312 2:-2.58725 
0.1 1:0.3705957 2:-2.8569375 
0.1 1:0.30743164 2:-2.150375 
0.1 1:0.35462891 2:-3.405125 
0.1 1:0.27363867 2:-2.9935 
0.1 1:0.3485625 2:-1.658125 
0.1 1:0.28655664 2:-3.3416875 
0.1 1:0.37261328 2:-4.8285 
0.1 1:0.43264453 2:-2.5055 
0.1 1:0.22231836 2:-4.296375 
0.1 1:0.50018164 2:-4.394625 
0.1 1:0.53393555 2:-3.7854375 
0.1 1:0.47579297 2:-3.768875 
0.1 1:0.47564063 2:-3.4048125 
0.1 1:0.32937891 2:-1.713375 
0.1 1:0.47471289 2:-1.781 
0.1 1:0.36937305 2:-4.2165 
0.1 1:0.43727148 2:-4.1584375 
0.1 1:0.30439258 2:-3.55325 
0.1 1:0.28432422 2:-3.0955625 
0.1 1:0.2388457 2:-2.1976875 
0.1 1:0.21323437 2:-1.5406875 
0.1 1:0.49775 2:-2.6403125 
0.1 1:0.64953711 2:-2.5906875 
0.1 1:0.31547266 2:-2.37125 
0.1 1:0.22610547 2:-2.844625 
0.1 1:0.34611328 2:-1.1154375 
0.1 1:0.40441406 2:-2.705 
0.1 1:0.32141992 2:-2.232125 
0.1 1:0.4513125 2:-2.75075 
0.1 1:0.37933789 2:-3.19475 
0.1 1:0.24414648 2:-2.412875 
0.1 1:0.34912305 2:-3.1158125 
0.1 1:0.32032812 2:-4.418125 
0.1 1:0.40728906 2:-2.4464375 
0.1 1:0.33449023 2:-3.8235625 
0.1 1:0.30874805 2:-3.3035 
0.1 1:0.30172266 2:-3.0673125 
0.1 1:0.4058418 2:-3.4255 
0.1 1:0.14666406 2:-2.631125 
0.1 1:0.29395313 2:-2.5784375 
0.1 1:0.3974043 2:-3.18575 
0.1 1:0.13879883 2:-1.968 
0.1 1:0.30839453 2:-3.525375 
0.1 1:0.4420332 2:-3.6693125 
0.1 1:0.26370703 2:-1.8264375 
0.1 1:0.40248242 2:-1.926875 
0.1 1:0.40569336 2:-2.21375 
0.1 1:0.38763477 2:-1.709875 
0.1 1:0.44185156 2:-3.6235 
0.1 1:0.27683008 2:-2.153625 
0.1 1:0.38616211 2:-2.294875 
0.1 1:0.44179297 2:-1.180625 
0.1 1:0.36413281 2:-1.5961875 
0.1 1:0.38197852 2:-3.4344375 
0.1 1:0.28627148 2:-1.2314375 
0.1 1:0.32691016 2:-2.5905 
0.1 1:0.39766406 2:-3.1635625 
0.1 1:0.20154688 2:-2.2619375 
0.1 1:0.35916211 2:-3.00925 
0.1 1:0.32543164 2:-5.8575625 
0.1 1:0.46808789 2:-4.909125 
0.1 1:0.46006445 2:-4.03125 
0.1 1:0.24508984 2:-1.8170625 
0.1 1:0.3315957 2:-3.4609375 
0.1 1:0.29425977 2:-3.531625 
0.1 1:0.22809766 2:-2.4148125 
0.1 1:0.33297852 2:-3.5381875 
0.1 1:0.27979883 2:-1.9578125 
0.1 1:0.45632617 2:-2.167125 
0.1 1:0.29291016 2:-3.6591875 
0.1 1:0.43209766 2:-2.5886875 
0.1 1:0.40568359 2:-4.743125 
0.1 1:0.33852344 2:-3.2181875 
0.1 1:0.49410352 2:-1.903625 
0.1 1:0.55480078 2:-3.3968125 
0.1 1:0.54077734 2:-2.5634375 
0.1 1:0.27026563 2:-4.021375 
0.1 1:0.30878516 2:-2.433625 
0.1 1:0.37463477 2:-3.621625 
0.1 1:0.33430664 2:-3.9859375 
0.1 1:0.30070898 2:-1.913875 
0.1 1:0.36987109 2:-1.69375 
0.1 1:0.4660332 2:-3.523875 
0.1 1:0.20394727 2:-3.174375 
0.1 1:0.35210742 2:-4.3413125 
0.1 1:0.31341016 2:-3.07175 
0.1 1:0.48227734 2:-4.33475 
0.1 1:0.29725586 2:-4.34775 
0.1 1:0.25674023 2:-4.3780625 
0.1 1:0.33169922 2:-2.062625 
0.1 1:0.31082422 2:-3.0363125 
0.1 1:0.3650957 2:-2.9554375 
0.1 1:0.27891211 2:-4.927 
0.1 1:0.32569141 2:-1.9805 
0.1 1:0.24403516 2:-3.33375 
0.1 1:0.42405469 2:-2.2151875 
0.1 1:0.44346484 2:-2.4981875 
0.1 1:0.49497656 2:-2.2388125 
0.1 1:0.4799043 2:-2.1899375 
0.1 1:0.45623047 2:-2.8043125 
0.1 1:0.32245703 2:-3.907375 
0.1 1:0.38885547 2:-2.417625 
0.1 1:0.22771875 2:-1.64375 
0.1 1:0.27932617 2:-4.1611875 
0.1 1:0.30602148 2:-4.477625 
0.1 1:0.25616016 2:-2.35625 
0.1 1:0.37949805 2:-2.4606875 
0.1 1:0.36703125 2:-4.044 
0.1 1:0.4214707 2:-4.5469375 
0.1 1:0.47233984 2:-3.6100625 
0.1 1:0.47945508 2:-4.4569375 
0.1 1:0.40580078 2:-3.350125 
0.1 1:0.25978906 2:-1.63275 
0.1 1:0.23420703 2:-1.3368125 
0.1 1:0.39682227 2:-1.5556875 
0.1 1:0.39370703 2:-3.9125 
0.1 1:0.37240234 2:-3.902125 
0.1 1:0.24129883 2:-2.6834375 
0.1 1:0.21372266 2:-3.2156875 
0.1 1:0.21819531 2:-2.891375 
0.1 1:0.16750391 2:-2.8849375 
0.1 1:0.29571094 2:-2.205125 
0.1 1:0.33814844 2:-3.5335 
0.1 1:0.44792773 2:-5.903 
0.1 1:0.17069531 2:-1.9250625 
0.1 1:0.28618945 2:-3.7015625 
0.1 1:0.31925977 2:-1.5941875 
0.1 1:0.35754883 2:-3.372625 
0.1 1:0.36829492 2:-2.7315 
0.1 1:0.43008203 2:-2.4576875 
0.1 1:0.4265625 2:-1.383125 
0.1 1:0.30707031 2:-1.776375 
0.1 1:0.27617578 2:-2.6374375 
0.1 1:0.26166016 2:-2.042 
0.1 1:0.27364648 2:-2.1978125 
0.1 1:0.25358594 2:-0.9501875 
0.1 1:0.28428125 2:-3.5425 
0.1 1:0.3309082 2:-3.58025 
0.1 1:0.33367383 2:-2.739 
0.1 1:0.25308594 2:-4.6645625 
0.1 1:0.36563477 2:-3.1015 
0.1 1:0.32287109 2:-2.40375 
0.1 1:0.24892187 2:-2.3585625 
0.1 1:0.28037109 2:-3.8800625 
0.1 1:0.34345898 2:-3.634875 
0.1 1:0.36414062 2:-3.597 
0.1 1:0.32834766 2:-1.8000625 
0.1 1:0.15487695 2:-2.084875 
0.1 1:0.37326563 2:-4.7308125 
0.1 1:0.31025977 2:-2.604625 
0.1 1:0.4079668 2:-3.6353125 
0.1 1:0.31291602 2:-3.3015625 
0.1 1:0.18492578 2:-3.3076875 
0.1 1:0.26679102 2:-4.0938125 
0.1 1:0.39617188 2:-4.6318125 
0.1 1:0.31989258 2:-1.6335625 
0.1 1:0.26133203 2:-4.7173125 
0.1 1:0.22961328 2:-4.3941875 
0.1 1:0.27303906 2:-3.471875 
0.1 1:0.27155469 2:-3.040875 
0.1 1:0.38167773 2:-1.8676875 
0.1 1:0.50256445 2:-4.464375 
0.1 1:0.26113086 2:-1.6146875 
0.1 1:0.22906641 2:-1.590375 
0.1 1:0.24961133 2:-3.538375 
0.1 1:0.30421484 2:-4.210125 
0.1 1:0.31301172 2:-2.7151875 
0.1 1:0.41433789 2:-4.3966875 
0.1 1:0.26388086 2:-2.4286875 
0.1 1:0.35870508 2:-2.239875 
0.1 1:0.25422266 2:-2.438875 
0.1 1:0.37899609 2:-6.203375 
0.1 1:0.45989258 2:-2.8385625 
0.1 1:0.33210742 2:-3.9484375 
0.1 1:0.34614648 2:-2.4749375 
0.1 1:0.40867188 2:-3.7954375 
0.1 1:0.37616406 2:-3.7056875 
0.1 1:0.39700391 2:-2.647125 
0.1 1:0.30995313 2:-4.216375 
0.1 1:0.23373633 2:-3.3294375 
0.1 1:0.38800586 2:-4.0814375 
0.1 1:0.54441992 2:-4.3748125 
0.1 1:0.39082422 2:-2.3981875 
0.1 1:0.32529102 2:-3.8465 
0.1 1:0.35028711 2:-1.8460625 
0.1 1:0.31810938 2:-1.90625 
0.1 1:0.47286914 2:-4.1599375 
0.1 1:0.2397168 2:-3.8524375 
0.1 1:0.31316992 2:-2.777625 
0.1 1:0.35650586 2:-5.135 
0.1 1:0.4066875 2:-5.1200625 
0.1 1:0.44498437 2:-3.3908125 
0.1 1:0.46874414 2:-2.178875 
0.1 1:0.24638867 2:-2.7195625 
0.1 1:0.27299023 2:-1.2601875 
0.1 1:0.34374219 2:-3.757125 
0.1 1:0.32280273 2:-2.0461875 
0.1 1:0.38329492 2:-1.7343125 
0.1 1:0.38128516 2:-2.86675 
0.1 1:0.50226563 2:-3.4804375 
0.1 1:0.32582227 2:-3.9795 
0.1 1:0.32643555 2:-3.9843125 
0.1 1:0.33677148 2:-2.777375 
0.1 1:0.31682031 2:-3.3043125 
0.1 1:0.34261133 2:-3.0275 
0.1 1:0.32289648 2:-3.127125 
0.1 1:0.17209766 2:-3.677625 
0.1 1:0.24733008 2:-3.39625 
0.1 1:0.19224414 2:-3.40725 
0.1 1:0.44778516 2:-2.7351875 
0.1 1:0.21661914 2:-2.7246875 
0.1 1:0.32263086 2:-5.6656875 
0.1 1:0.34041602 2:-3.856875 
0.1 1:0.30180469 2:-3.6710625 
0.1 1:0.32941602 2:-2.3140625 
0.1 1:0.35352148 2:-1.8081875 
0.1 1:0.3418125 2:-4.4185625 
0.1 1:0.28764844 2:-2.8450625 
0.1 1:0.35964258 2:-2.9628125 
0.1 1:0.33467969 2:-3.48525 
0.1 1:0.25717773 2:-2.1083125 
0.1 1:0.35426563 2:-2.5839375 
0.1 1:0.30219531 2:-2.524375 
0.1 1:0.38744727 2:-3.2230625 
0.1 1:0.23957617 2:-2.785375 
0.1 1:0.21975195 2:-2.9699375 
0.1 1:0.23557227 2:-1.9678125 
0.1 1:0.19851367 2:-2.452625 
0.1 1:0.28487891 2:-2.8999375 
0.1 1:0.31198242 2:-2.8375 
0.1 1:0.43593359 2:-4.35875 
0.1 1:0.24583008 2:-2.7515625 
0.1 1:0.31608789 2:-2.0230625 
0.1 1:0.38823047 2:-3.969 
0.1 1:0.26628711 2:-3.311375 
0.1 1:0.2614707 2:-3.76825 
0.1 1:0.2154375 2:-2.541125 
0.1 1:0.53006445 2:-2.718375 
0.1 1:0.43607617 2:-2.363125 
0.1 1:0.59253906 2:-2.77375 
0.1 1:0.43018359 2:-4.062625 
0.1 1:0.21253711 2:-1.875875 
0.1 1:0.20956836 2:-2.620875 
0.1 1:0.33180469 2:-5.012375 
0.1 1:0.30563867 2:-1.884125 
0.1 1:0.50798047 2:-2.635 
0.1 1:0.22947852 2:-1.157625 
0.1 1:0.21206055 2:-1.68725 
0.1 1:0.25664063 2:-5.19725 
0.1 1:0.20821484 2:-2.039 
0.1 1:0.31141211 2:-1.650875 
0.1 1:0.52775391 2:-2.3980625 
0.1 1:0.37132227 2:-2.3320625 
0.1 1:0.42245117 2:-2.2446875 
0.1 1:0.45107812 2:-2.0339375 
0.1 1:0.42266211 2:-3.6119375 
0.1 1:0.36345508 2:-3.368625 
0.1 1:0.31237305 2:-1.243125 
0.1 1:0.32638281 2:-2.101875 
0.1 1:0.34324414 2:-3.4438125 
0.1 1:0.23285156 2:-2.8511875 
0.1 1:0.33908984 2:-2.6120625 
0.1 1:0.25696484 2:-2.8865625 
0.1 1:0.22000586 2:-2.8480625 
0.1 1:0.42184766 2:-3.1485625 
0.1 1:0.34985352 2:-2.4348125 
0.1 1:0.25627734 2:-1.8748125 
0.1 1:0.27545312 2:-2.4158125 
0.1 1:0.30731445 2:-2.7576875 
0.1 1:0.40020312 2:-5.3531875 
0.1 1:0.45412305 2:-2.8335 
0.1 1:0.39201758 2:-3.277375 
0.1 1:0.29012891 2:-2.4004375 
0.1 1:0.3078125 2:-3.290375 
0.1 1:0.35733008 2:-2.4945 
0.1 1:0.37652539 2:-2.0765 
0.1 1:0.34035352 2:-2.68275 
0.1 1:0.35717578 2:-3.3101875 
0.1 1:0.38302539 2:-3.317625 
0.1 1:0.2195625 2:-3.7606875 
0.1 1:0.40748633 2:-4.45825 
0.1 1:0.29189063 2:-3.62475 
0.1 1:0.31803516 2:-0.858 
0.1 1:0.2967832 2:-3.249875 
0.1 1:0.21849805 2:-2.5488125 
0.1 1:0.21723047 2:-2.405125 
0.1 1:0.35071875 2:-2.1446875 
0.1 1:0.17598242 2:-3.369 
0.1 1:0.5069082 2:-2.5089375 
0.1 1:0.40707813 2:-1.1791875 
0.1 1:0.38924414 2:-2.8080625 
0.1 1:0.41820312 2:-4.4476875 
0.1 1:0.1862207 2:-1.8210625 
0.1 1:0.33051172 2:-3.44125 
0.1 1:0.26119531 2:-2.6723125 
0.1 1:0.29471289 2:-3.5785625 
0.1 1:0.4627793 2:-3.8699375 
0.1 1:0.28891602 2:-1.8748125 
0.1 1:0.45496094 2:-4.1976875 
0.1 1:0.33593555 2:-1.454375 
0.1 1:0.2871582 2:-5.202125 
0.1 1:0.28694336 2:-2.7929375 
0.1 1:0.35878516 2:-1.594875 
0.1 1:0.37343359 2:-2.9120625 
0.1 1:0.3609707 2:-1.736625 
0.1 1:0.36638086 2:-3.2388125 
0.1 1:0.43455859 2:-1.505125 
0.1 1:0.38234766 2:-2.281625 
0.1 1:0.31888086 2:-3.5965625 
0.1 1:0.32193359 2:-4.249 
0.1 1:0.49887891 2:-3.0599375 
0.1 1:0.20806445 2:-2.2381875 
0.1 1:0.26847266 2:-2.5329375 
0.1 1:0.43425977 2:-1.4025 
0.1 1:0.49054687 2:-1.1923125 
0.1 1:0.34639453 2:-3.306375 
0.1 1:0.43258789 2:-3.1353125 
0.1 1:0.37596094 2:-4.226625 
0.1 1:0.38841797 2:-3.018625 
0.1 1:0.35866016 2:-3.0785 
0.1 1:0.43707422 2:-3.3401875 
0.1 1:0.12336719 2:-2.2634375 
0.1 1:0.37888477 2:-1.45675 
0.1 1:0.29544336 2:-3.8183125 
0.1 1:0.20846289 2:-1.83875 
0.1 1:0.21699023 2:-2.6715 
0.1 1:0.41257227 2:-1.71725 
0.1 1:0.39027148 2:-3.910875 
0.1 1:0.30577734 2:-2.7071875 
0.1 1:0.26130078 2:-1.77575 
0.1 1:0.43825586 2:-2.51575 
0.1 1:0.47210156 2:-2.5506875 
0.1 1:0.35373047 2:-2.2044375 
0.1 1:0.37689063 2:-1.9815 
0.1 1:0.40568945 2:-3.4481875 
0.1 1:0.29330469 2:-2.6145 
0.1 1:0.20203516 2:-1.9925 
0.1 1:0.46979297 2:-3.54825 
0.1 1:0.46249414 2:-4.082 
0.1 1:0.49512891 2:-1.64025 
0.1 1:0.3658125 2:-1.961625 
0.1 1:0.3132207 2:-2.439 
0.1 1:0.30670117 2:-1.691 
0.1 1:0.29613086 2:-3.8143125 
0.1 1:0.29705078 2:-1.08675 
0.1 1:0.24187695 2:-2.55675 
0.1 1:0.45833789 2:-3.199125 
0.1 1:0.25369141 2:-3.0723125 
0.1 1:0.33874023 2:-3.620125 
0.1 1:0.45176563 2:-4.928 
0.1 1:0.24520117 2:-3.8335625 
0.1 1:0.21876367 2:-3.14925 
0.1 1:0.36907422 2:-4.377875 
0.1 1:0.39445898 2:-3.74275 
0.1 1:0.3034707 2:-4.362875 
0.1 1:0.36310352 2:-2.8215625 
0.1 1:0.21710742 2:-3.57425 
0.1 1:0.26060352 2:-0.900625 
0.1 1:0.1994082 2:-2.0345625 
0.1 1:0.31102734 2:-4.2288125 
0.1 1:0.39310937 2:-3.974875 
0.1 1:0.29471094 2:-3.955125 
0.1 1:0.32065234 2:-3.4786875 
0.1 1:0.38345508 2:-2.8543125 
0.1 1:0.38675977 2:-4.5975 
0.1 1:0.36498437 2:-5.0790625 
0.1 1:0.40231445 2:-5.663875 
0.1 1:0.42469531 2:-1.8178125 
0.1 1:0.32876367 2:-2.7605 
0.1 1:0.36598633 2:-2.9008125 
0.1 1:0.31540625 2:-5.0003125 
0.1 1:0.25908398 2:-4.4743125 
0.1 1:0.45823437 2:-2.62375 
0.1 1:0.42650586 2:-1.8313125 
0.1 1:0.32942969 2:-1.7116875 
0.1 1:0.24066016 2:-2.2091875 
0.1 1:0.25153516 2:-2.034125 
0.1 1:0.24247852 2:-2.04975 
0.1 1:0.23672852 2:-2.6773125 
0.1 1:0.28387695 2:-3.0823125 
0.1 1:0.29637891 2:-4.25375 
0.1 1:0.50034766 2:-1.9210625 
0.1 1:0.37928906 2:-3.4013125 
0.1 1:0.47594336 2:-2.7745 
0.1 1:0.34355469 2:-3.5971875 
0.1 1:0.34296484 2:-2.37725 
0.1 1:0.44748633 2:-3.7504375 
0.1 1:0.30484766 2:-2.807 
0.1 1:0.23308594 2:-1.8355 
0.1 1:0.2265332 2:-1.9818125 
0.1 1:0.28305273 2:-2.2699375 
0.1 1:0.34263672 2:-3.112 
0.1 1:0.27044922 2:-2.3269375 
0.1 1:0.28905078 2:-3.00425 
0.1 1:0.21552148 2:-3.5938125 
0.1 1:0.38314062 2:-2.5246875 
0.1 1:0.34419531 2:-1.66775 
0.1 1:0.43210742 2:-3.254625 
0.1 1:0.32331641 2:-2.8158125 
0.1 1:0.2550293 2:-2.693875 
0.1 1:0.38989063 2:-2.975 
0.1 1:0.34558203 2:-3.37725 
0.1 1:0.32716602 2:-2.767 
0.1 1:0.49319727 2:-3.079625 
0.1 1:0.27432422 2:-2.5110625 
0.1 1:0.30510547 2:-4.36925 
0.1 1:0.40251367 2:-3.5608125 
0.1 1:0.4495 2:-2.537375 
0.1 1:0.23525781 2:-3.2718125 
0.1 1:0.28123828 2:-2.438375 
0.1 1:0.22897461 2:-3.203625 
0.1 1:0.31274219 2:-3.13875 
0.1 1:0.273625 2:-3.2185 
0.1 1:0.42280859 2:-3.1426875 
0.1 1:0.4512207 2:-2.2161875 
0.1 1:0.50483789 2:-3.899875 
0.1 1:0.59392578 2:-2.6131875 
0.1 1:0.3290957 2:-2.6263125 
0.1 1:0.39325977 2:-3.343 
0.1 1:0.30180859 2:-2.16275 
0.1 1:0.27366016 2:-3.7085625 
0.1 1:0.27574414 2:-3.3558125 
0.1 1:0.35397656 2:-1.859625 
0.1 1:0.36602734 2:-1.5118125 
0.1 1:0.40507617 2:-2.5451875 
0.1 1:0.28082617 2:-2.2118125 
0.1 1:0.28570312 2:-1.774 
0.1 1:0.43242188 2:-1.561625 
0.1 1:0.52732813 2:-2.161125 
0.1 1:0.5656875 2:-1.8881875 
0.1 1:0.37178516 2:-3.7303125 
0.1 1:0.27910352 2:-3.861875 
0.1 1:0.29399805 2:-3.1081875 
0.1 1:0.18329492 2:-3.2108125 
0.1 1:0.25707813 2:-3.7184375 
0.1 1:0.30579492 2:-2.78075 
0.1 1:0.372 2:-1.93875 
0.1 1:0.30825586 2:-3.884125 
0.1 1:0.36222656 2:-4.23425 
0.1 1:0.34605859 2:-3.7740625 
0.1 1:0.18889648 2:-3.22025 
0.1 1:0.43997461 2:-1.7660625 
0.1 1:0.38224414 2:-3.084 
0.1 1:0.42864844 2:-2.6571875 
0.1 1:0.40037109 2:-2.6249375 
0.1 1:0.22916406 2:-3.683875 
0.1 1:0.32730664 2:-4.8165625 
0.1 1:0.3907793 2:-2.0875625 
0.1 1:0.27055078 2:-1.3105 
0.1 1:0.46410742 2:-4.8941875 
0.1 1:0.20561914 2:-2.3905625 
0.1 1:0.24608203 2:-2.3425625 
0.1 1:0.38394531 2:-3.999875 
0.1 1:0.25060937 2:-5.4385 
0.1 1:0.41775391 2:-2.2223125 
0.1 1:0.20381836 2:-2.5619375 
0.1 1:0.338875 2:-3.906625 
0.1 1:0.3464043 2:-3.0483125 
0.1 1:0.42498437 2:-3.7625625 
0.1 1:0.52079883 2:-3.961125 
0.1 1:0.46446094 2:-3.1174375 
0.1 1:0.50749414 2:-4.0415625 
0.1 1:0.2820918 2:-3.37775 
0.1 1:0.33263867 2:-3.347125 
0.1 1:0.3054375 2:-1.9735625 
0.1 1:0.30674414 2:-2.46875 
0.1 1:0.22599414 2:-1.5581875 
0.1 1:0.22520898 2:-3.5239375 
0.1 1:0.37239258 2:-3.290125 
0.1 1:0.17244727 2:-3.071125 
0.1 1:0.47981836 2:-2.9349375 
0.1 1:0.29727539 2:-3.397 
0.1 1:0.30881445 2:-2.2698125 
0.1 1:0.29321875 2:-3.302 
0.1 1:0.39125781 2:-2.5903125 
0.1 1:0.38560742 2:-3.2704375 
0.1 1:0.30654297 2:-2.1839375 
0.1 1:0.34260937 2:-1.451625 
0.1 1:0.32152344 2:-4.0238125 
0.1 1:0.50777344 2:-3.3566875 
0.1 1:0.45166016 2:-4.38775 
0.1 1:0.34605078 2:-4.539 
0.1 1:0.51006055 2:-1.950875 
0.1 1:0.46969531 2:-2.3004375 
0.1 1:0.27541992 2:-5.0645625 
0.1 1:0.41696289 2:-3.655625 
0.1 1:0.25701367 2:-2.2314375 
0.1 1:0.45213672 2:-3.742375 
0.1 1:0.39397461 2:-5.0691875 
0.1 1:0.3027832 2:-1.9758125 
0.1 1:0.29420313 2:-1.9199375 
0.1 1:0.50944336 2:-3.7714375 
0.1 1:0.60116992 2:-1.4695625 
0.1 1:0.54976758 2:-0.798875 
0.1 1:0.26674219 2:-3.784625 
0.1 1:0.24304883 2:-3.1459375 
0.1 1:0.26878906 2:-2.6270625 
0.1 1:0.28439453 2:-2.960375 
0.1 1:0.21825195 2:-3.4581875 
0.1 1:0.22953125 2:-4.0635 
0.1 1:0.27570117 2:-2.78825 
0.1 1:0.44528125 2:-3.1585 
0.1 1:0.12339844 2:-2.0333125 
0.1 1:0.20134375 2:-1.7034375 
0.1 1:0.44310742 2:-3.224625 
0.1 1:0.35807031 2:-2.4820625 
0.1 1:0.3515918 2:-1.2735625 
0.1 1:0.44529687 2:-1.3795 
0.1 1:0.28163281 2:-3.179375 
0.1 1:0.29655078 2:-0.9794375 
0.1 1:0.29110156 2:-2.9788125 
0.1 1:0.38279883 2:-3.2830625 
0.1 1:0.46189453 2:-3.329875 
0.1 1:0.28016797 2:-2.0644375 
0.1 1:0.26932422 2:-1.75025 
0.1 1:0.31682227 2:-3.2665 
0.1 1:0.35025195 2:-4.0530625 
0.1 1:0.33358203 2:-3.0415 
0.1 1:0.37255273 2:-4.0279375 
0.1 1:0.28870508 2:-4.330625 
0.1 1:0.36936914 2:-3.5874375 
0.1 1:0.47980859 2:-3.3043125 
0.1 1:0.27773047 2:-3.5765625 
0.1 1:0.31573633 2:-3.224125 
0.1 1:0.29299805 2:-3.0075 
0.1 1:0.37058984 2:-3.2365 
0.1 1:0.17296875 2:-1.639 
0.1 1:0.34441992 2:-2.5821875 
0.1 1:0.38938672 2:-1.4563125 
0.1 1:0.3668457 2:-1.7016875 
0.1 1:0.35310156 2:-2.948625 
0.1 1:0.39997852 2:-2.023 
0.1 1:0.41947266 2:-3.2993125 
0.1 1:0.43007617 2:-2.785 
0.1 1:0.44330078 2:-2.477875 
0.1 1:0.41676953 2:-3.57375 
0.1 1:0.35033594 2:-2.7564375 
0.1 1:0.3831875 2:-2.1104375 
0.1 1:0.40937109 2:-2.7834375 
0.1 1:0.24726953 2:-1.332625 
0.1 1:0.46533398 2:-3.3760625 
0.1 1:0.32204492 2:-2.8611875 
0.1 1:0.38089844 2:-3.7419375 
0.1 1:0.42836523 2:-3.6604375 
0.1 1:0.41648047 2:-2.96775 
0.1 1:0.42250391 2:-2.2156875 
0.1 1:0.51585742 2:-6.6545 
0.1 1:0.33559961 2:-4.079875 
0.1 1:0.27632617 2:-1.724 
0.1 1:0.23089453 2:-1.5915 
0.1 1:0.32889453 2:-3.90775 
0.1 1:0.5284082 2:-3.2651875 
0.1 1:0.42361328 2:-2.841875 
0.1 1:0.52434375 2:-2.0265 
0.1 1:0.4947168 2:-2.6748125 
0.1 1:0.49741406 2:-2.678875 
0.1 1:0.36358984 2:-4.906375 
0.1 1:0.44803711 2:-4.523 
0.1 1:0.43280273 2:-3.691 
0.1 1:0.33156445 2:-3.9391875 
0.1 1:0.25251367 2:-3.199625 
0.1 1:0.20988281 2:-2.778625 
0.1 1:0.40037109 2:-2.33225 
0.1 1:0.17054102 2:-1.676875 
0.1 1:0.32132422 2:-3.2509375 
0.1 1:0.42325586 2:-2.9004375 
0.1 1:0.24242187 2:-2.8604375 
0.1 1:0.21165039 2:-2.319875 
0.1 1:0.40747852 2:-2.684 
0.1 1:0.39734961 2:-4.196375 
0.1 1:0.41735742 2:-1.526375 
0.1 1:0.43618359 2:-2.817625 
0.1 1:0.34886523 2:-2.161625 
0.1 1:0.32977539 2:-2.2985625 
0.1 1:0.31139258 2:-3.1750625 
0.1 1:0.39460156 2:-2.5830625 
0.1 1:0.31369727 2:-2.0728125 
0.1 1:0.34693359 2:-2.9148125 
0.1 1:0.34125391 2:-1.1159375 
0.1 1:0.32591797 2:-3.0913125 
0.1 1:0.23927539 2:-3.3649375 
0.1 1:0.2566543 2:-2.5156875 
0.1 1:0.28278906 2:-2.4069375 
0.1 1:0.42980078 2:-3.1031875 
0.1 1:0.27977539 2:-2.3631875 
0.1 1:0.34071484 2:-2.841 
0.1 1:0.35675586 2:-2.232875 
0.1 1:0.37282227 2:-1.704 
0.1 1:0.33852734 2:-1.579375 
0.1 1:0.35805469 2:-1.609 
0.1 1:0.49850195 2:-4.2493125 
0.1 1:0.43819336 2:-6.483 
0.1 1:0.43186914 2:-3.553875 
0.1 1:0.39511719 2:-3.599125 
0.1 1:0.45349219 2:-1.922625 
0.1 1:0.56148633 2:-3.396 
0.1 1:0.34235156 2:-2.1496875 
0.1 1:0.49329102 2:-2.5065625 
0.1 1:0.35101172 2:-3.5235 
0.1 1:0.37252148 2:-3.554625 
0.1 1:0.39533203 2:-2.349875 
0.1 1:0.41361328 2:-2.1330625 
0.1 1:0.21700781 2:-2.3581875 
0.1 1:0.34277734 2:-2.4906875 
0.1 1:0.1554707 2:-1.6245625 
0.1 1:0.34450977 2:-3.534625 
0.1 1:0.45466992 2:-2.942125 
0.1 1:0.30773633 2:-3.180875 
0.1 1:0.50227539 2:-3.744 
0.1 1:0.51713281 2:-3.2915625 
0.1 1:0.27089063 2:-2.5478125 
0.1 1:0.35908984 2:-2.934875 
0.1 1:0.40333008 2:-3.0384375 
0.1 1:0.36656836 2:-4.133375 
0.1 1:0.48641992 2:-1.735875 
0.1 1:0.39318359 2:-3.0641875 
0.1 1:0.32316602 2:-2.5864375 
0.1 1:0.2394668 2:-3.7249375 
0.1 1:0.24126758 2:-2.4735 
0.1 1:0.32408008 2:-3.10675 
0.1 1:0.41975977 2:-3.188 
0.1 1:0.36944336 2:-1.555 
0.1 1:0.27822461 2:-1.836375 
0.1 1:0.41796875 2:-3.0170625 
0.1 1:0.434375 2:-2.9555625 
0.1 1:0.31038086 2:-3.6683125 
0.1 1:0.59758984 2:-2.2580625 
-0.01633759893944904 1:0.3410918 2:-4.5289375 
-0.08693466663566247 1:0.44413086 2:-5.4968125 
-0.07344760433069963 1:0.23100195 2:-2.88675 
-0.09326194432769797 1:0.29193555 2:-4.3520625 
-0.03266462750903303 1:0.20337891 2:-3.3363125 
-0.001940059504976095 1:0.20914258 2:-3.79575 
-0.1 1:0.44066992 2:-4.3504375 
-0.06751233595723194 1:0.14204297 2:-1.8194375 
-0.0194362700645465 1:0.27822461 2:-4.0888125 
-0.002930990581819282 1:0.19740234 2:-4.139 
-0.01338887099197776 1:0.14896484 2:-0.9749375 
-0.01140276619642191 1:0.20930078 2:-3.767125 
-0.006105818721917013 1:0.17407813 2:-3.443375 
-0.08509143933555716 1:0.12761914 2:-3.1504375 
-0.01178269873949102 1:0.21798242 2:-3.359625 
-0.06263856341198466 1:0.32469141 2:-4.671125 
-0.002714529727133858 1:0.30232617 2:-5.9131875 
-0.02280152126345934 1:0.1438125 2:-0.2509375 
-0.002853094029067112 1:0.25998047 2:-4.9770625 
-0.0009100809340440441 1:0.16880273 2:-3.3520625 
-0.003784238868428349 1:0.2253418 2:-3.977875 
-0.01724482780818528 1:0.14176563 2:-2.326 
-0.04599152482067308 1:0.16395313 2:-2.691875 
-0.001436207235670245 1:0.34156641 2:-4.8388125 
-0.003112932047836636 1:0.22111914 2:-4.2523125 
-0.002901874910719523 1:0.23461914 2:-3.3475 
-0.003190212992141139 1:0.28325195 2:-4.861125 
-0.1 1:0.42295508 2:-4.58325 
-0.001410802511592033 1:0.18283984 2:-1.0160625 
-0.1 1:0.35011133 2:-4.5961875 
-0.09056071578964085 1:0.26988281 2:-3.781125 
-0.1 1:0.30645703 2:-2.082 
-0.0813529873482553 1:0.11708789 2:-2.7410625 
-0.1 1:0.33792773 2:-3.1846875 
-0.00649303640769807 1:0.14866406 2:-0.3103125 
-0.06883255357382853 1:0.32394141 2:-4.4250625 
-0.08750651676734973 1:0.41233789 2:-5.5705 
-0.07661502066478668 1:0.37638086 2:-6.194875 
-0.0343219224105038 1:0.30213477 2:-3.89275 
-0.1 1:0.26610156 2:-3.7638125 
-0.006416920902864758 1:0.20053906 2:-3.7035 
-0.04139520561614834 1:0.33696094 2:-4.6469375 
-0.01001310988138739 1:0.27826172 2:-4.4676875 
-0.1 1:0.33248828 2:-2.502 
-0.01130161883524554 1:0.30964648 2:-4.949125 
-0.01204507009087183 1:0.31595508 2:-5.7154375 
-0.05521819032734564 1:0.25022266 2:-4.73425 
-0.01673498054158853 1:0.304 2:-4.2009375 
-0.005544744087530018 1:0.39480078 2:-5.1758125 
-0.1 1:0.40496289 2:-6.0150625 
-0.1 1:0.29694531 2:-3.1875 
-0.03877273888302763 1:0.170125 2:-0.8236875 
-0.06757582576968611 1:0.18338477 2:-1.7868125 
-0.03281959695800384 1:0.36280664 2:-5.8456875 
-0.07363231603914996 1:0.18854883 2:-1.38175 
-0.002225692847613242 1:0.34718164 2:-5.0629375 
-0.1 1:0.3785957 2:-3.982125 
-0.01726901128103945 1:0.25520508 2:-4.975 
-0.08194802871782622 1:0.35701172 2:-4.0114375 
-0.1 1:0.29733594 2:-3.103625 
-0.1 1:0.20225391 2:-2.3948125 
-0.01220513061683183 1:0.2812207 2:-4.057375 
-0.1 1:0.33430859 2:-3.2810625 
-0.1 1:0.32179492 2:-4.5561875 
-0.04273057615953509 1:0.32455469 2:-6.3529375 
-0.004648665661806547 1:0.31819336 2:-4.47875 
-0.00172057355286562 1:0.25239062 2:-3.4129375 
-0.1 1:0.33418555 2:-2.956375 
-0.1 1:0.36934766 2:-3.1859375 
-0.007160847095620577 1:0.16690234 2:-2.8409375 
-0.1 1:0.33725781 2:-3.869 
-0.1 1:0.4166543 2:-6.32025 
-0.003157174651695351 1:0.30006445 2:-4.989 
-0.001255022199118738 1:0.17768945 2:-0.8363125 
-0.003134271903615382 1:0.15851172 2:-2.733375 
-0.05560751331768448 1:0.36164258 2:-5.9445 
-0.1 1:0.25451758 2:-1.7416875 
-0.006675395234507439 1:0.2030957 2:-3.4150625 
-0.002576570654845531 1:0.20572852 2:-3.8619375 
-0.04928132348949903 1:0.12221289 2:-1.896 
-0.1 1:0.20792578 2:-2.2953125 
-0.02247123599080279 1:0.34291211 2:-6.461375 
-0.00132178712576786 1:0.21591406 2:-3.963125 
-0.06269826640808603 1:0.33440625 2:-3.9676875 
-0.002262618986881178 1:0.31355664 2:-4.3781875 
-0.01873129710683225 1:0.1409375 2:-0.6854375 
-0.05818991736951808 1:0.24953906 2:-2.5758125 
-0.004375772983096682 1:0.24633398 2:-4.1683125 
-0.0034943822557221 1:0.1327793 2:-0.6373125 
-0.01438341528586527 1:0.25545898 2:-3.367125 
-0.1 1:0.34135156 2:-3.9849375 
-0.03538912308039745 1:0.37868359 2:-4.4215 
-0.009085426014966246 1:0.29270117 2:-3.2854375 
-0.002041097386377615 1:0.21387305 2:-4.0073125 
-0.002301991811582749 1:0.15301367 2:-0.3863125 
-0.005615564791222325 1:0.21604492 2:-4.5743125 
-0.01799399234956597 1:0.24427539 2:-4.5516875 
-0.01302171814695332 1:0.17282227 2:-3.03875 
-0.02341279920958078 1:0.13370312 2:-0.8206875 
-0.03190313550749515 1:0.31669531 2:-5.9090625 
-0.1 1:0.36500586 2:-4.0619375 
-0.1 1:0.22776367 2:-2.785125 
-0.004708496247034113 1:0.29884375 2:-5.16125 
-0.01882760443362459 1:0.29211523 2:-5.5613125 
-0.03974403671944422 1:0.24038672 2:-3.35325 
-0.1 1:0.33098047 2:-2.8483125 
-0.1 1:0.39789844 2:-2.9333125 
-0.03565488772523509 1:0.13310156 2:-0.8990625 
-0.0006853488114716052 1:0.20749805 2:-4.2295 
-0.1 1:0.31657031 2:-3.592375 
-0.1 1:0.21885156 2:-1.7906875 
-0.1 1:0.31800195 2:-2.7066875 
-0.06986435033368711 1:0.13867773 2:-2.1584375 
-0.1 1:0.29497461 2:-2.2556875 
-0.01400615963913298 1:0.17952344 2:-0.905875 
-0.01161469757690915 1:0.1520625 2:-0.365125 
-0.002606060122660542 1:0.37451172 2:-5.1918125 
-0.02181603082064561 1:0.36505469 2:-6.3261875 
-0.1 1:0.28387305 2:-3.2044375 
-0.01852549098129992 1:0.17110742 2:-3.0755625 
-0.1 1:0.23298633 2:-2.002375 
-0.1 1:0.33290039 2:-3.62125 
-0.03045698359470735 1:0.22383594 2:-2.1114375 
-0.1 1:0.40943945 2:-2.8265625 
-0.1 1:0.31775 2:-3.28175 
-0.0784673132650168 1:0.076144531 2:-1.757125 
-0.1 1:0.26702148 2:-5.8805 
-0.01722058759713802 1:0.24877344 2:-4.000875 
-0.003167439484668454 1:0.15307227 2:-0.6921875 
-0.1 1:0.4447832 2:-5.192375 
-0.1 1:0.44478125 2:-4.250625 
-0.1 1:0.34373047 2:-3.911375 
-0.02055037297212069 1:0.22581641 2:-4.0114375 
-0.003119455911518112 1:0.14643359 2:-0.4403125 
-0.05075526146873161 1:0.19324805 2:-1.237 
-0.02835457756764748 1:0.32563867 2:-6.033 
-0.1 1:0.30793359 2:-6.8123125 
-0.08129338357335095 1:0.24226758 2:-5.4451875 
-0.1 1:0.34991016 2:-4.7875 
-0.1 1:0.28956836 2:-6.3693125 
-0.1 1:0.30739453 2:-6.3014375 
-0.003540994428063118 1:0.24242383 2:-3.8374375 
-0.006011797460945158 1:0.2875332 2:-5.1054375 
-0.01791865199030703 1:0.33945508 2:-5.1548125 
-0.003950534059152688 1:0.34478125 2:-5.5698125 
-0.07121143957817111 1:0.089693359 2:-1.929 
-0.1 1:0.18330469 2:-1.0176875 
-0.1 1:0.26678516 2:-2.513375 
-0.007567974526915905 1:0.24306445 2:-4.2538125 
-0.009416997178104566 1:0.13256836 2:-0.4560625 
-0.002781780378066839 1:0.25408203 2:-4.2065 
-0.1 1:0.19375391 2:-2.2433125 
-0.008839813635379119 1:0.17743945 2:-2.8775625 
-0.004625770459433676 1:0.24010547 2:-3.806125 
-0.06970010234281446 1:0.17836914 2:-2.2420625 
-0.00999533364051914 1:0.18582227 2:-3.371625 
-0.00819604542037863 1:0.3866875 2:-5.8071875 
-0.008489208354770291 1:0.23387695 2:-4.2503125 
-0.04501266442339517 1:0.31241797 2:-5.316625 
-0.007726544134142993 1:0.27054883 2:-3.8561875 
-0.06422258693617751 1:0.22024414 2:-0.4883125 
-0.1 1:0.3456543 2:-3.2239375 
-0.03632641708790006 1:0.19016016 2:-2.035125 
-0.01756633930713775 1:0.13918359 2:-0.2368125 
-0.1 1:0.22986914 2:-4.2670625 
-0.01763832285184502 1:0.2849375 2:-5.4588125 
-0.01881695164199944 1:0.16456055 2:-2.7685625 
-0.002325434184070996 1:0.25695703 2:-4.2045 
-0.03743820087143204 1:0.35155469 2:-4.9226875 
-0.009114946633198848 1:0.17742578 2:-3.540875 
-0.001403055139462095 1:0.2153418 2:-4.1908125 
-0.02035737980674185 1:0.22826562 2:-4.2855625 
-0.03998579316084744 1:0.11248828 2:-0.94625 
-0.09433276857299584 1:0.11079297 2:-1.479125 
-0.09724988828048596 1:0.21878516 2:-3.5774375 
-0.06918876002331417 1:0.18525781 2:-3.2083125 
-0.01701692658874089 1:0.31200586 2:-4.8094375 
-0.1 1:0.32058789 2:-2.162375 
-0.1 1:0.40533789 2:-6.4565 
-0.02396150746331587 1:0.35347656 2:-4.989375 
-0.1 1:0.19665234 2:-1.8435 
-0.005590805480575173 1:0.23300781 2:-4.5359375 
-0.02079913129166893 1:0.11208398 2:-2.1299375 
-0.06171469490589958 1:0.21219141 2:-4.848875 
-0.1 1:0.33174023 2:-5.8703125 
-0.01996889006433137 1:0.15559375 2:-1.099625 
-0.1 1:0.343625 2:-3.1510625 
-0.001122857971582571 1:0.27994922 2:-4.938125 
-0.01181009745415372 1:0.25383398 2:-5.38075 
-0.09886623887268989 1:0.094105469 2:-1.25525 
-0.05247320319941728 1:0.26242773 2:-3.55675 
-0.001210037039849227 1:0.14530859 2:-0.7505625 
-0.002468789796924064 1:0.13091406 2:-0.335375 
-0.1 1:0.26129492 2:-2.958625 
-0.05493920850697936 1:0.19955273 2:-3.771 
-0.01836420161688589 1:0.21311133 2:-0.706 
-0.07871254673229193 1:0.25929492 2:-3.3233125 
-0.0550607170467727 1:0.23530273 2:-1.1014375 
-0.01476132035214543 1:0.088027344 2:-1.490625 
-0.02700988810220538 1:0.35638672 2:-4.4035 
-0.004856170299939951 1:0.18099805 2:-0.7325625 
-0.1 1:0.20922266 2:-2.4875625 
-0.1 1:0.47007031 2:-3.4156875 
-0.005655372256582217 1:0.34298242 2:-4.6171875 
-0.03343914750852592 1:0.20891211 2:-4.05275 
-0.02737753940378962 1:0.28319336 2:-3.9333125 
-0.004298050880676843 1:0.23894141 2:-3.915 
-0.01560669270050727 1:0.2803125 2:-4.0429375 
-0.01690924627601469 1:0.33800977 2:-5.073625 
-0.001520536859746855 1:0.14158398 2:-1.0695625 
-0.001643512781100898 1:0.24241602 2:-4.259875 
-0.006805913539030105 1:0.19809375 2:-3.069 
-0.05342399201396045 1:0.23054297 2:-3.08525 
-0.05579608823235006 1:0.29525195 2:-4.3768125 
-0.00649831634743942 1:0.20727734 2:-4.0871875 
-0.05365667472000004 1:0.17242188 2:-3.959375 
-0.02066225448568754 1:0.20280859 2:-4.48875 
-0.005643957606308711 1:0.34061719 2:-4.7765625 
-0.03287096563861353 1:0.39870508 2:-6.2614375 
-0.1 1:0.32891211 2:-3.746125 
-0.01349937157832435 1:0.33263477 2:-5.3505 
-0.02430931203810626 1:0.34503711 2:-5.2139375 
-0.04411428354620923 1:0.35856055 2:-4.7313125 
-0.02466065951457833 1:0.17087891 2:-0.721875 
-0.1 1:0.2579707 2:-2.818 
-0.1 1:0.31813086 2:-3.305625 
-0.01268884325089129 1:0.29736914 2:-3.4948125 
-0.003594223679923712 1:0.32033008 2:-5.8004375 
-0.08204500788511357 1:0.17457617 2:-0.277875 
-0.06543169766519086 1:0.38066602 2:-7.1104375 
-0.01667710371562109 1:0.30735742 2:-5.0974375 
-0.1 1:0.37532617 2:-3.6785 
-0.03284907869467138 1:0.23095117 2:-0.7899375 
-0.06233813380354614 1:0.2319375 2:-3.6893125 
-0.02029961329772918 1:0.13936914 2:-2.2974375 
-0.0309778534071766 1:0.35479102 2:-5.16575 
-0.1 1:0.21820898 2:-2.6646875 
-0.04824834698620684 1:0.32238477 2:-4.7973125 
-0.02592575409056228 1:0.338125 2:-5.053 
-0.01627960493475589 1:0.19692188 2:-3.39575 
-0.09067306271751743 1:0.28254102 2:-2.7315 
-0.1 1:0.30981836 2:-2.747 
-2.59126828464801e-05 1:0.27745898 2:-4.6110625 
-0.009349749489126036 1:0.25940625 2:-5.0618125 
-0.1 1:0.2610918 2:-2.924625 
-0.02979706534805288 1:0.27346484 2:-5.3194375 
-0.03806664628584149 1:0.36164258 2:-6.250875 
-0.1 1:0.28346094 2:-1.1570625 
-0.003907335724066898 1:0.21100977 2:-3.42 
-0.08222053983759545 1:0.11845703 2:-2.042875 
-0.03107763227287895 1:0.19902539 2:-0.705375 
-0.006814703584908583 1:0.26604102 2:-4.314875 
-0.1 1:0.28462109 2:-2.889125 
-0.006765389782365955 1:0.26405078 2:-4.7771875 
-0.0182276850187116 1:0.1849043 2:-3.6331875 
-0.1 1:0.1092793 2:-0.1195 
-0.02166576316267808 1:0.11400195 2:-1.7169375 
-0.06602512524684764 1:0.17793555 2:-1.9318125 
-0.004999609209383505 1:0.1466582 2:-0.7234375 
-0.008929363657196227 1:0.13289453 2:-2.4026875 
-0.04611004405460521 1:0.35932617 2:-6.08425 
-0.03198766642322137 1:0.18685742 2:-0.795125 
-0.008708127035099107 1:0.15216406 2:-1.026125 
-0.009480641455059891 1:0.35232031 2:-6.1666875 
-0.01662983223521117 1:0.33277148 2:-4.6433125 
-0.007013839288013004 1:0.21762695 2:-3.75125 
-0.1 1:0.39472266 2:-4.070375 
-0.006372348934415824 1:0.25833789 2:-4.347125 
-0.01752438848174168 1:0.19811523 2:-0.6894375 
-0.1 1:0.18969141 2:-2.3571875 
-0.1 1:0.18283203 2:-1.520625 
-0.0363708498351447 1:0.20782617 2:-3.9805 
-0.001984633661111738 1:0.2401582 2:-4.4295625 
-0.03360071583129462 1:0.35225586 2:-5.7073125 
-0.0008583169676815161 1:0.1512207 2:-0.6226875 
-0.1 1:0.29831641 2:-1.8839375 
-0.01170849171198922 1:0.32322461 2:-4.9383125 
-0.005650377782930755 1:0.27804688 2:-4.8784375 
-0.01452153191204899 1:0.12067969 2:-1.18375 
-0.0154660110843649 1:0.20678516 2:-3.22225 
-0.0367169848407891 1:0.15191211 2:-2.062875 
-0.07566107030323674 1:0.34220117 2:-4.86175 
-0.01102826118462544 1:0.12871094 2:-0.45625 
-0.1 1:0.22491602 2:-2.3835 
-0.03146452495781692 1:0.25205078 2:-2.93175 
-0.001218488863050637 1:0.15054688 2:-0.7015 
-0.1 1:0.29147852 2:-2.597125 
-0.1 1:0.25076563 2:-3.720375 
-0.0048301355184509 1:0.32707617 2:-5.3795 
-0.03583989891599101 1:0.40452344 2:-5.27575 
-0.01094802103591197 1:0.40959766 2:-4.346125 
-0.1 1:0.31158398 2:-5.0321875 
-0.002035632423379452 1:0.24237109 2:-4.1006875 
-0.03291930501347775 1:0.30417187 2:-4.292125 
-0.04669422812748023 1:0.22023828 2:-1.059 
-0.1 1:0.27897461 2:-2.5580625 
-0.1 1:0.41410156 2:-6.125625 
-0.04700965160332288 1:0.40051758 2:-6.0948125 
-0.09418679645441455 1:0.4319082 2:-4.9931875 
-0.1 1:0.43238867 2:-2.8535625 
-4.743228488657616e-05 1:0.19857227 2:-3.7183125 
-0.01905702664434773 1:0.23833789 2:-3.5234375 
-0.009268435157923492 1:0.25808594 2:-4.2791875 
-0.02540016371607851 1:0.19747266 2:-1.3880625 
-0.003611126853617369 1:0.25609961 2:-4.8286875 
-0.1 1:0.46158789 2:-6.3245 
-0.1 1:0.35771094 2:-4.2160625 
-0.001971808270690906 1:0.16691602 2:-3.3095625 
-0.1 1:0.32033984 2:-3.4545625 
-0.1 1:0.12591406 2:-1.9669375 
-0.0921716012138335 1:0.10470117 2:-2.0403125 
-0.04776553253165441 1:0.23814258 2:-3.4095 
-0.09930543156403614 1:0.31887695 2:-4.1925625 
-0.1 1:0.35455664 2:-3.95475 
-0.003505457322532091 1:0.28611328 2:-4.2628125 
-0.006683197992571789 1:0.16482422 2:-2.99575 
-0.08796091526997267 1:0.11273828 2:-2.7833125 
-0.1 1:0.068253906 2:-1.364625 
-0.005535666421259565 1:0.29109961 2:-4.8304375 
-0.05535893319716242 1:0.25057227 2:-4.1718125 
-0.1 1:0.32633594 2:-3.9435 
-0.01857700337255141 1:0.24210937 2:-3.6994375 
-0.001965764611283982 1:0.21739453 2:-3.4963125 
-0.008238765430743804 1:0.15173438 2:-0.3281875 
-0.03563450477170734 1:0.16550391 2:-3.13475 
-0.1 1:0.35445117 2:-2.0418125 
-0.1 1:0.37238281 2:-5.6673125 
-0.01363707169430989 1:0.33074023 2:-4.362625 
-0.01917444490968686 1:0.22475195 2:-0.9225625 
-0.07344943024713035 1:0.33091797 2:-5.019 
-0.008646524252396023 1:0.13105469 2:-0.5008125 
-0.1 1:0.23925195 2:-3.3940625 
-0.1 1:0.29116406 2:-4.66075 
-0.03616280114083632 1:0.31777148 2:-5.3259375 
-0.1 1:0.33055078 2:-3.4485 
-0.09400248947228432 1:0.45618164 2:-6.5829375 
-0.01475130895139571 1:0.33854297 2:-5.295 
-0.1 1:0.23009766 2:-1.691 
-0.04582991174903601 1:0.33728711 2:-5.5165625 
-0.0007601058598896704 1:0.22813477 2:-4.2560625 
-0.0009843856710030519 1:0.22560547 2:-4.3295 
-0.025307222841866 1:0.30248438 2:-5.774375 
-0.1 1:0.29933008 2:-3.1620625 
-0.1 1:0.30196484 2:-2.5315 
-0.1 1:0.17382031 2:-1.9191875 
-0.03952561345552505 1:0.093355469 2:-1.65375 
-0.02111516694130749 1:0.19592383 2:-3.6909375 
-0.1 1:0.30962891 2:-2.9985 
-0.1 1:0.36295508 2:-4.2379375 
-0.06855575203192964 1:0.34278125 2:-6.560875 
-0.05799150173462036 1:0.27819727 2:-3.7015 
-0.008936637272367633 1:0.19549805 2:-3.938375 
-0.0499948282084565 1:0.2519707 2:-2.6255625 
-0.1 1:0.30011328 2:-3.26075 
-0.00473330450148074 1:0.2481582 2:-3.858375 
-0.1 1:0.41484961 2:-3.875875 
-0.02247321768830045 1:0.12190039 2:-2.296 
-0.003417432479799681 1:0.21472266 2:-3.5068125 
-0.05428331971504975 1:0.20530664 2:-2.8386875 
-0.009034219906221306 1:0.34451172 2:-5.8075 
-0.1 1:0.29421289 2:-4.131125 
-0.0143070839703023 1:0.37671289 2:-6.0123125 
-0.06040681365566922 1:0.35028711 2:-6.351625 
-0.001181165488468463 1:0.27958203 2:-4.9163125 
-0.005841911264139992 1:0.30993359 2:-5.042375 
-0.004057566365457756 1:0.3164668 2:-4.8870625 
-0.1 1:0.2994707 2:-3.6604375 
-0.1 1:0.52801953 2:-5.481 
-0.09481374251073166 1:0.16313281 2:-2.268625 
-0.0294474066305732 1:0.11805469 2:-2.27 
-0.01773037523060305 1:0.19339844 2:-3.679375 
-0.06015098027686002 1:0.17107227 2:-1.879375 
-0.02645812971058638 1:0.11523828 2:-0.337875 
-0.007854182496318156 1:0.34674805 2:-4.9859375 
-0.1 1:0.45111328 2:-4.638 
-0.003479765063219553 1:0.31473047 2:-4.4974375 
-0.1 1:0.21329102 2:-1.593375 
-0.1 1:0.18063281 2:-1.7966875 
-0.1 1:0.24764258 2:-2.31925 
-0.02792648547216137 1:0.29622656 2:-4.78775 
-0.01735470591232095 1:0.28788477 2:-4.9349375 
-0.02608752934290952 1:0.14279883 2:-0.327 
-0.0008150858321694222 1:0.15260742 2:-0.6134375 
-0.06469897200703094 1:0.21511719 2:-2.72775 
-0.1 1:0.3485918 2:-4.0465625 
-0.005576841783814288 1:0.31817187 2:-5.0755625 
-0.08155829758525288 1:0.24395898 2:-0.680875 
-0.003509371479040152 1:0.31899414 2:-5.4053125 
-0.001685532139964381 1:0.19691211 2:-3.7371875 
-0.005274350845610324 1:0.10433789 2:-0.7885625 
-0.06979764127128978 1:0.20575391 2:-4.6519375 
-0.1 1:0.25099805 2:-3.2134375 
-0.002574600188745416 1:0.14129492 2:-0.4656875 
-0.0007601873530328076 1:0.17656641 2:-3.490125 
-0.009545571599981881 1:0.30496484 2:-3.691125 
-0.06305731181733748 1:0.31034766 2:-5.7493125 
-0.007467138528693684 1:0.22929492 2:-4.1615 
-0.1 1:0.11562891 2:-3.0084375 
-0.09544534071347885 1:0.34679102 2:-4.3859375 
-0.01284452007822196 1:0.15789453 2:-2.7088125 
-0.002988642466809922 1:0.26556641 2:-4.6180625 
-0.00493793700415082 1:0.30944727 2:-5.53075 
-0.1 1:0.18064844 2:-2.9850625 
-0.01890404462253126 1:0.18468164 2:-3.602 
-0.0633012409914082 1:0.12512305 2:-2.84225 
-0.03467700998381289 1:0.1929082 2:-3.553125 
-0.0291232875223031 1:0.21860547 2:-3.1045625 
-0.1 1:0.29859766 2:-3.285875 
-0.1 1:0.46312695 2:-4.068625 
-0.03604364665061553 1:0.42146484 2:-5.1829375 
-0.009322906170257522 1:0.32608203 2:-5.2506875 
-0.007363591926696799 1:0.17423047 2:-3.274 
-0.01362264219505319 1:0.17481445 2:-0.4135 
-0.01810639110333589 1:0.2555332 2:-4.80425 
-0.01550746983304534 1:0.16481641 2:-0.7265625 
-0.01097055940435672 1:0.17062695 2:-1.560375 
-0.1 1:0.36505078 2:-3.2536875 
-0.01352334397317455 1:0.14517578 2:-1.09425 
-0.009003911636849177 1:0.21433203 2:-0.5856875 
-0.1 1:0.31746484 2:-3.2116875 
-0.08199761742357611 1:0.21916016 2:-2.79625 
-0.1 1:0.33836133 2:-3.841 
-0.01220043732998839 1:0.25605273 2:-4.287875 
-0.007944941501352913 1:0.36864453 2:-5.4316875 
-0.06080871577396428 1:0.24605078 2:-3.83775 
-0.1 1:0.36882813 2:-4.353 
-0.05768867521888577 1:0.30238477 2:-4.3874375 
-0.005137354849860186 1:0.20805078 2:-3.4991875 
-0.1 1:0.30545898 2:-3.800375 
-0.01509574649058079 1:0.28728125 2:-5.9145 
-0.02560693842818423 1:0.27955469 2:-5.9626875 
-0.02155135655923152 1:0.098625 2:-0.66875 
-0.1 1:0.24810742 2:-2.2230625 
-0.01545270768188101 1:0.28495703 2:-4.809125 
-0.009933629983361031 1:0.22788086 2:-4.53975 
-0.0342250733349372 1:0.19277148 2:-0.5951875 
-0.01027796138743358 1:0.22143555 2:-0.4406875 
-0.02557233915867232 1:0.3301582 2:-4.557875 
-0.09065513815181891 1:0.23467969 2:-3.3324375 
-0.03504415506689484 1:0.37054687 2:-5.4014375 
-0.1 1:0.24325195 2:-0.4575625 
-0.1 1:0.22049219 2:-2.84775 
-0.07813128159035701 1:0.40097656 2:-4.777375 
-0.03977602138974577 1:0.40899219 2:-5.5123125 
-0.006884945964040788 1:0.3327168 2:-4.190125 
-0.1 1:0.40966797 2:-3.993875 
-0.07497607389641199 1:0.35889258 2:-6.5419375 
-0.007387662449492226 1:0.21073242 2:-4.0100625 
-0.0139955298431886 1:0.27623242 2:-3.7608125 
-0.0009489847162093079 1:0.26469922 2:-4.9360625 
-0.1 1:0.30438672 2:-2.5859375 
-0.1 1:0.32357812 2:-3.277 
-0.003077611293587145 1:0.29669727 2:-5.4954375 
-0.01985414972666555 1:0.20708398 2:-4.1880625 
-0.003235389273454923 1:0.33651953 2:-5.174875 
-0.05905090348134037 1:0.3979668 2:-6.434375 
-0.02273558809921785 1:0.17334375 2:-3.4825625 
-0.008611369661798212 1:0.12307812 2:-0.750125 
-0.009649886251966274 1:0.23485742 2:-4.6140625 
-0.01114193395827251 1:0.22956055 2:-3.8821875 
-0.003497834133328508 1:0.14494531 2:-0.4871875 
-0.007231081502846784 1:0.24186328 2:-3.3234375 
-0.08602460560097175 1:0.071806641 2:-0.5965625 
-0.001521097380962367 1:0.17389258 2:-3.409 
-0.005413067496108952 1:0.16311719 2:-0.6065 
-0.1 1:0.43250195 2:-4.395375 
-0.1 1:0.22277734 2:-1.3945 
-0.1 1:0.27411523 2:-3.071875 
-0.1 1:0.34156445 2:-3.5378125 
-0.01256819374668635 1:0.19804102 2:-3.9090625 
-0.02180408911264961 1:0.13659961 2:-1.093125 
-0.009624757874126987 1:0.21409375 2:-4.2804375 
-0.1 1:0.37650977 2:-3.31375 
-0.00131189490486035 1:0.28389648 2:-5.61625 
-0.009696988892256255 1:0.13354297 2:-0.4223125 
-0.03147254251169317 1:0.26085938 2:-4.9448125 
-0.06267808207790269 1:0.27905078 2:-4.1588125 
-0.01920170722642023 1:0.36937305 2:-4.2505625 
-0.01277868194857315 1:0.30452148 2:-5.4704375 
-0.1 1:0.32683008 2:-4.0153125 
-0.1 1:0.22425781 2:-3.2 
-0.01957834111551252 1:0.29941016 2:-4.748375 
-0.07813193984013264 1:0.39997852 2:-5.778625 
-0.1 1:0.35983789 2:-4.137 
-0.02626576066445845 1:0.31458398 2:-6.05 
-0.02035377040758037 1:0.21747852 2:-0.8331875 
-0.03635803970420461 1:0.18253516 2:-3.388375 
-0.04226516579197698 1:0.26610156 2:-3.9569375 
-0.06227962599559523 1:0.2945 2:-4.27725 
-0.1 1:0.31178516 2:-2.6841875 
-0.002273366287978653 1:0.1644043 2:-0.570625 
-0.1 1:0.28626953 2:-2.63325 
-0.04634383130398909 1:0.3564082 2:-4.6351875 
-0.02704557938691738 1:0.14757227 2:-0.2563125 
-0.08806246261573554 1:0.16332227 2:-0.216 
-0.0191604197733784 1:0.23864648 2:-4.581875 
-1.780982998518684e-05 1:0.15566016 2:-2.349875 
-0.09928868985149318 1:0.1427832 2:-3.6198125 
-0.003142567861935293 1:0.2695293 2:-5.125 
-0.006411430062854191 1:0.31982812 2:-5.0585 
-0.05752707789967424 1:0.35349219 2:-6.191 
-0.1 1:0.30227734 2:-2.2331875 
-0.03364288063955494 1:0.27646094 2:-4.252875 
-0.1 1:0.28037109 2:-1.59875 
-0.001540131996576322 1:0.19992188 2:-2.851375 
-0.007588211150291495 1:0.20174609 2:-3.821375 
-0.06993847648441383 1:0.21647656 2:-1.9361875 
-0.1 1:0.24942188 2:-1.6803125 
-0.1 1:0.30717578 2:-3.554125 
-0.0050896337224329 1:0.23359961 2:-3.19325 
-0.01564783079063509 1:0.16656641 2:-0.6311875 
-0.01269313213086908 1:0.16515039 2:-2.889875 
-0.03140973193437875 1:0.14280859 2:-2.5488125 
-0.05894198856515302 1:0.21555273 2:-0.8249375 
-0.1 1:0.32233594 2:-3.5528125 
-0.01379049802477594 1:0.23883203 2:-4.6520625 
-0.04558822324802395 1:0.10350977 2:-0.1501875 
-0.03304199275775431 1:0.20520508 2:-3.3331875 
-0.09591103970423606 1:0.10053125 2:-1.1860625 
-0.1 1:0.2175918 2:-2.9788125 
-0.04979813231701444 1:0.32863477 2:-3.693375 
-0.003014409181973215 1:0.25544727 2:-3.8409375 
-0.1 1:0.28302148 2:-3.572375 
-0.1 1:0.41108008 2:-4.3343125 
-0.006983617058178599 1:0.14639062 2:-1.8294375 
-0.002932823117806864 1:0.25853125 2:-4.44175 
-0.01460981086431301 1:0.12647656 2:-0.446 
-0.001353493930052744 1:0.22999023 2:-4.06075 
-0.001875012252697169 1:0.24110547 2:-0.6 
-0.07931728292358906 1:0.41219531 2:-7.08375 
-0.1 1:0.42868164 2:-3.7133125 
-0.1 1:0.25077539 2:-1.1349375 
-0.001261685747030601 1:0.24804492 2:-3.8865 
-0.04099961340160399 1:0.37899609 2:-5.7434375 
-0.06254872414324518 1:0.41662305 2:-5.1686875 
-0.01411102088830976 1:0.24308984 2:-3.6590625 
-0.08490206312605719 1:0.35747656 2:-4.5548125 
-0.02313146604388218 1:0.14623242 2:-1.0671875 
-0.01700303488989069 1:0.23011133 2:-4.3325 
-0.004156247475090862 1:0.24608203 2:-3.8506875 
-0.1 1:0.25036328 2:-3.019875 
-0.01796115676470965 1:0.091390625 2:-0.3915625 
-0.08838698032365885 1:0.20551367 2:-0.3664375 
-0.001739264356745083 1:0.20934961 2:-3.377625 
-0.1 1:0.4081543 2:-3.5719375 
-0.04461589544815395 1:0.16803906 2:-1.3530625 
-0.01664453471590334 1:0.25239648 2:-4.017875 
-0.04714823055235337 1:0.2040625 2:-3.052875 
-0.007873882019953324 1:0.10358594 2:-0.9358125 
-0.01263474860425146 1:0.17791992 2:-1.055 
-0.09578542660124198 1:0.33484766 2:-6.761375 
-0.01679958194567623 1:0.24987891 2:-4.8996875 
-0.1 1:0.21929688 2:-1.9210625 
-0.003000898235136871 1:0.18032227 2:-3.4590625 
-0.03360303838464058 1:0.3395625 2:-5.95575 
-0.1 1:0.30339062 2:-3.2913125 
-0.1 1:0.30611523 2:-2.9101875 
-0.09157154511588313 1:0.35369336 2:-3.8585 
-0.0007018650677353737 1:0.15715234 2:-3.00575 
-0.1 1:0.15420898 2:-1.619875 
-0.1 1:0.47209961 2:-4.102375 
-0.08371778607361262 1:0.18490625 2:-4.305 
-0.007630935738094941 1:0.2723418 2:-3.8523125 
-0.1 1:0.26745508 2:-3.3273125 
-0.1 1:0.3401875 2:-1.4686875 
-0.0125578639212109 1:0.20652539 2:-3.2526875 
-0.01944640042271008 1:0.1494082 2:-2.75125 
-0.05309573034835915 1:0.11567383 2:-2.49925 
-0.02983461637463518 1:0.22879688 2:-3.8315 
-0.1 1:0.32116602 2:-1.6766875 
-0.01078083608861406 1:0.37918555 2:-4.8870625 
-0.0338661527824816 1:0.18440625 2:-0.6248125 
-0.1 1:0.21329492 2:-2.4545 
-0.008881349761231816 1:0.30151758 2:-5.2821875 
-0.1 1:0.25153906 2:-3.174125 
-0.03290465480723399 1:0.14702148 2:-1.28975 
-0.009339130270087377 1:0.30117187 2:-4.8214375 
-0.04272377745183832 1:0.39258008 2:-5.3465 
-0.001480126595948462 1:0.2052832 2:-4.142 
-0.06435522519520748 1:0.16949023 2:-1.1785 
-0.01209486116053661 1:0.14886328 2:-0.40175 
-0.01488669839270498 1:0.22949023 2:-4.5896875 
-0.02208371562950825 1:0.12764062 2:-0.390375 
-0.00146211536141536 1:0.23815625 2:-3.5234375 
-0.1 1:0.34270508 2:-2.6396875 
-0.1 1:0.48716016 2:-4.86025 
-0.1 1:0.22915234 2:-1.374375 
-0.1 1:0.27933008 2:-2.861125 
-0.1 1:0.33480664 2:-2.5214375 
-0.1 1:0.25565625 2:-1.4544375 
-0.1 1:0.40971094 2:-4.368375 
-0.0662325339841385 1:0.39804688 2:-4.837375 
-0.001022681429691788 1:0.13794531 2:-0.4776875 
-0.1 1:0.27562891 2:-3.6761875 
-0.08130945576954769 1:0.22255859 2:-2.02525 
-0.1 1:0.31239258 2:-3.335375 
-0.09369223496643647 1:0.23245703 2:-1.195625 
-0.02003618863737018 1:0.16217188 2:-2.327625 
-0.01768701222756299 1:0.14883398 2:-2.7278125 
-0.006194289004625608 1:0.33233008 2:-5.5936875 
-0.03267277509474235 1:0.1969668 2:-4.3445625 
-0.05223996058211298 1:0.10207617 2:-1.067 
-0.008033410696769328 1:0.40561133 2:-5.3205 
-0.1 1:0.35457227 2:-3.133 
-0.03264344050826952 1:0.34549414 2:-5.2533125 
-0.009842327073679163 1:0.15241797 2:-2.6614375 
-0.003012320159636551 1:0.12054883 2:-0.5316875 
-0.1 1:0.28976953 2:-3.163375 
-0.1 1:0.34318555 2:-4.044125 
-0.006913672955690439 1:0.20821875 2:-4.0215 
-0.07464724005492959 1:0.33180273 2:-4.425125 
-0.009612350769315967 1:0.16033594 2:-3.4038125 
-0.009381956221291343 1:0.11959766 2:-2.1474375 
-0.03399928625194062 1:0.33639062 2:-5.632125 
-0.1 1:0.25238086 2:-5.8245 
-0.1 1:0.27779687 2:-2.887375 
-0.008194761616172018 1:0.1732793 2:-3.3630625 
-0.003857639443333423 1:0.26975781 2:-5.03375 
-0.006269027121038561 1:0.12649023 2:-0.3653125 
-0.1 1:0.27866992 2:-3.1021875 
-0.02226764718659749 1:0.11307227 2:-2.4548125 
-0.002069891561572159 1:0.2905 2:-5.1194375 
-0.03932407565621157 1:0.34725 2:-6.13525 
-0.1 1:0.29874609 2:-4.2219375 
-0.04907164221042017 1:0.42217578 2:-5.0205625 
-0.1 1:0.46201172 2:-5.260375 
-0.1 1:0.32765234 2:-4.0785625 
-0.07879648973512182 1:0.41588477 2:-5.7424375 
-0.002064273296106822 1:0.32420508 2:-5.0073125 
-0.03167934752242808 1:0.1652832 2:-0.774875 
-0.02154107479622284 1:0.22727734 2:-3.095375 
-0.007492251882530588 1:0.28978516 2:-5.5816875 
-0.1 1:0.20248633 2:-1.470125 
-0.001573539028677893 1:0.15878711 2:-2.5393125 
-0.006401019602361617 1:0.20133203 2:-3.4996875 
-0.00745342260021794 1:0.15209375 2:-0.8670625 
-0.1 1:0.21135742 2:-2.489 
-0.02697965653099688 1:0.17518555 2:-0.4829375 
-0.1 1:0.31603125 2:-3.776875 
-0.03020403332789993 1:0.15018359 2:-0.1978125 
-0.004020441208569729 1:0.13851953 2:-0.4943125 
-0.1 1:0.23958398 2:-2.7159375 
-0.01797794690810987 1:0.15276953 2:-0.793625 
-0.002070544444230777 1:0.25145898 2:-4.9026875 
-0.06516300513225706 1:0.10279687 2:-0.2023125 
-0.1 1:0.24349805 2:-2.2509375 
-0.03159315128304681 1:0.28607422 2:-5.5879375 
-0.1 1:0.26716211 2:-0.6474375 
-0.1 1:0.41253516 2:-4.57525 
-0.01901747806845508 1:0.24172656 2:-0.6289375 
-0.03353850816010992 1:0.19223047 2:-0.8635 
-0.09046548889772557 1:0.21121289 2:-0.41525 
-0.01465895666981353 1:0.38126953 2:-4.8755625 
-0.014852139658667 1:0.1553125 2:-0.3605 
-0.1 1:0.18532422 2:-1.690875 
-0.01234245549126238 1:0.15058984 2:-0.7519375 
-0.0263667632694647 1:0.30451758 2:-4.920125 
-0.02491469042135038 1:0.1065625 2:-1.722625 
-0.04672377322560831 1:0.073541016 2:-0.704625 
-0.01476435050129696 1:0.19408398 2:-3.2364375 
-0.09772163467499054 1:0.37572656 2:-4.8021875 
-0.0266388147552858 1:0.40841602 2:-5.890375 
-0.004437392714783743 1:0.16974609 2:-0.8895625 
-0.01325344859287861 1:0.23030078 2:-4.562125 
-0.1 1:0.19689648 2:-1.5423125 
-0.004845235225242929 1:0.33573047 2:-4.2478125 
-0.004942565626584572 1:0.12619336 2:-0.4399375 
-0.009372495994844765 1:0.1387832 2:-0.2895 
-0.09098407505351583 1:0.24887109 2:-0.7735625 
-0.05574831240656123 1:0.45636133 2:-5.3300625 
-0.02823833893304289 1:0.48122461 2:-4.6288125 
-0.005764360524638537 1:0.14864063 2:-0.8965625 
-0.007706745167963233 1:0.17506445 2:-2.9646875 
-0.001357345808956709 1:0.11748828 2:-0.8951875 
-0.09401389343276674 1:0.077960938 2:-0.51175 
-0.01069194849861779 1:0.10139063 2:-0.265875 
-0.009518352647210184 1:0.15570703 2:-0.706375 
-0.1 1:0.44980664 2:-3.9481875 
-0.07326255410928656 1:0.1989707 2:-1.7538125 
-0.01884196003634159 1:0.32289844 2:-3.9433125 
-0.1 1:0.36369141 2:-2.1930625 
-0.09020609445071448 1:0.25078516 2:-2.29325 
-0.02056198883150495 1:0.31211133 2:-5.5661875 
-0.1 1:0.20061523 2:-1.3003125 
-0.03342816348841783 1:0.34958789 2:-6.155125 
-0.01102319756496586 1:0.27255078 2:-4.94375 
-0.01201914434877598 1:0.27678516 2:-4.6961875 
-0.09723165253610257 1:0.24077344 2:-3.8563125 
-0.1 1:0.32398242 2:-3.5039375 
-0.09115917238784346 1:0.093222656 2:-0.914125 
-0.07925055984196044 1:0.23345117 2:-1.063375 
-0.1 1:0.28416211 2:-1.2368125 
-0.03057548787514565 1:0.20324609 2:-0.926125 
-0.1 1:0.28879492 2:-3.6378125 
-0.02849514304745955 1:0.14821484 2:-2.779125 
-0.1 1:0.20150586 2:-2.223875 
-0.007853633835801741 1:0.11673633 2:-2.6884375 
-0.006120717429509752 1:0.17999219 2:-3.5201875 
-0.003905082011418502 1:0.26462695 2:-4.9809375 
-0.1 1:0.24884961 2:-0.97475 
-0.01508755090864727 1:0.33143359 2:-5.4431875 
-0.01364357064878156 1:0.21092969 2:-3.133125 
-0.01975614536264182 1:0.32681055 2:-5.6421875 
-0.07137454925928566 1:0.21583203 2:-3.4614375 
-0.001140093369224519 1:0.25287305 2:-4.3624375 
-0.01936699772897194 1:0.27832422 2:-5.4890625 
-0.0263441082408821 1:0.22498242 2:-4.971 
-0.01616986780899296 1:0.30970703 2:-5.2878125 
-0.08465932518581296 1:0.22991602 2:-5.1326875 
-0.03637180006811311 1:0.16495703 2:-2.8470625 
-0.009702547261885283 1:0.29110156 2:-4.4441875 
-0.06689662888366177 1:0.32047656 2:-5.663 
-0.0009890211055819779 1:0.36684766 2:-5.885625 
-0.008767510609839727 1:0.17897656 2:-3.216625 
-0.01273458648823639 1:0.12444727 2:-0.638875 
-0.008927305611516938 1:0.17573242 2:-3.1003125 
-0.02151887269786311 1:0.28688477 2:-4.852125 
-0.001194251613350239 1:0.29137109 2:-5.3916875 
-0.04386735832368956 1:0.13932031 2:-1.2410625 
-0.002764585429143724 1:0.38566406 2:-5.403625 
-0.001618935168907322 1:0.25096484 2:-4.1090625 
-0.001838722113469666 1:0.16872461 2:-2.8725625 
-0.05686156435944958 1:0.2184043 2:-3.258125 
-0.002025180770579727 1:0.24298438 2:-3.9543125 
-0.1 1:0.28108203 2:-3.5603125 
-0.003357994298827005 1:0.29443555 2:-4.777625 
-0.01752864946154508 1:0.20250391 2:-3.0280625 
-0.08637472070810044 1:0.15448633 2:-3.7628125 
-0.03658595787662251 1:0.3138457 2:-6.0845625 
-0.09748370963813976 1:0.067634766 2:-1.410875 
-0.03837981789978564 1:0.2646582 2:-3.4330625 
-0.1 1:0.33136133 2:-4.273 
-0.001072940256694615 1:0.21893164 2:-4.2990625 
-0.01971668105709389 1:0.26200195 2:-4.2871875 
-0.008039262651176845 1:0.17265039 2:-3.02575 
-0.04317899015888473 1:0.089236328 2:-0.6251875 
-0.07824567026072524 1:0.40245898 2:-4.9370625 
-0.04161426790741666 1:0.27881836 2:-4.3296875 
-0.006636850235990027 1:0.17937695 2:-2.999875 
-0.001761404978667847 1:0.29432422 2:-5.3350625 
-0.1 1:0.28633789 2:-3.591 
-0.01101056353791399 1:0.19554297 2:-3.01125 
-0.01075809953614021 1:0.15925781 2:-2.598 
-0.02632994407423317 1:0.13710156 2:-2.3773125 
-0.02201095224146135 1:0.32294922 2:-4.96825 
-0.009257217764530045 1:0.19035547 2:-3.197625 
-0.004037654566081628 1:0.36457422 2:-5.483875 
-0.04383598238762203 1:0.20147461 2:-0.6586875 
-0.1 1:0.38073633 2:-3.9090625 
-0.05646824528668942 1:0.28158398 2:-3.5241875 
-0.001915708375775106 1:0.29444336 2:-5.786 
-0.02569137437518684 1:0.24007813 2:-4.6259375 
-0.02937554310313058 1:0.38706445 2:-4.7500625 
-0.008411782437041791 1:0.12742188 2:-0.7746875 
-0.03063982136048619 1:0.1367793 2:-1.2078125 
-0.01738336644904614 1:0.26664453 2:-5.2673125 
-0.1 1:0.28401758 2:-3.2515625 
-0.1 1:0.30668164 2:-3.5968125 
-0.05659768548355495 1:0.33461719 2:-6.2285 
-0.0008619348560389196 1:0.28325391 2:-5.2513125 
-0.00809977290647396 1:0.16594141 2:-2.926125 
-0.007170026308276684 1:0.1735625 2:-0.5236875 
-0.1 1:0.33193359 2:-3.9718125 
-0.1 1:0.25750977 2:-2.2086875 
-0.01249922460993329 1:0.20395117 2:-3.1853125 
-0.01501001448718814 1:0.18241406 2:-1.7259375 
-0.004326393688565389 1:0.24598828 2:-4.489875 
-0.1 1:0.31791016 2:-3.7708125 
-0.06379781757583575 1:0.42445703 2:-4.7930625 
-0.007407123768861839 1:0.21626563 2:-3.61525 
-0.02193359347247824 1:0.31331836 2:-5.234625 
-0.04522268875742254 1:0.34806836 2:-4.6636875 
-0.003042103975720764 1:0.14100391 2:-0.72 
-0.1 1:0.48707422 2:-3.45225 
-0.02360701427580032 1:0.27118945 2:-5.1365625 
-0.01839073068325717 1:0.3085 2:-4.161875 
-0.05885086823930698 1:0.14162305 2:-1.396 
-0.02121576704626131 1:0.31481055 2:-3.7885625 
-0.1 1:0.26771875 2:-2.972875 
-0.07841456592836921 1:0.22709961 2:-3.6794375 
-0.1 1:0.22813086 2:-2.677875 
-0.01940713260545739 1:0.27708008 2:-6.11525 
-0.1 1:0.40599219 2:-2.685625 
-0.1 1:0.35265234 2:-4.1054375 
-0.06885764285349771 1:0.231125 2:-0.94875 
-0.02550713200718782 1:0.27122852 2:-3.7273125 
-0.02134745859765318 1:0.19192969 2:-3.6740625 
-0.00801271934680825 1:0.20182617 2:-3.198125 
-0.1 1:0.24357227 2:-2.9170625 
-0.1 1:0.24077344 2:-3.4290625 
-0.1 1:0.42968359 2:-4.415625 
-0.1 1:0.37522461 2:-4.0751875 
-0.1 1:0.33538672 2:-3.9215625 
-0.05907172745461249 1:0.21932617 2:-4.9929375 
-0.01581671885390015 1:0.16998047 2:-2.7985625 
-0.1 1:0.17835937 2:-2.29925 
-0.003816688483457175 1:0.24723047 2:-4.4385 
-0.1 1:0.081978516 2:-1.5713125 
-0.1 1:0.34663867 2:-2.43325 
-0.008778578244506063 1:0.24713086 2:-4.376625 
-0.009028267364177113 1:0.30842383 2:-5.3401875 
-0.001337241861025482 1:0.20826953 2:-3.633 
-0.09758434622420206 1:0.060169922 2:-0.6791875 
-0.07458740109596576 1:0.30098828 2:-6.4419375 
-0.1 1:0.21419336 2:-1.8233125 
-0.01519781761187349 1:0.36860742 2:-5.2060625 
-0.02645754530525048 1:0.24781445 2:-4.7665625 
-0.1 1:0.19113086 2:-0.9529375 
-0.1 1:0.31378711 2:-4.869 
-0.07387219642427495 1:0.37411719 2:-4.8251875 
-0.009519371697001179 1:0.32263086 2:-4.926 
-0.01508313083855156 1:0.21592969 2:-0.6776875 
-0.02886557974549007 1:0.20744336 2:-3.7363125 
-0.0270750521704453 1:0.13743359 2:-0.297875 
-0.01857775869526482 1:0.31410352 2:-5.3563125 
-0.04917917327343257 1:0.26366992 2:-3.5430625 
-0.1 1:0.30995703 2:-2.99925 
-0.04648472513071133 1:0.37716016 2:-5.5358125 
-0.1 1:0.32399805 2:-3.6455625 
-0.1 1:0.38608203 2:-5.83775 
-0.007761166893756727 1:0.25649609 2:-4.84025 
-0.1 1:0.36791797 2:-1.7798125 
-0.08621075962586101 1:0.15073828 2:-3.9104375 
-0.01195944346909428 1:0.12208984 2:-0.3139375 
-0.08315385431664364 1:0.11468945 2:-2.700125 
-0.1 1:0.38985742 2:-2.2789375 
-0.006794234263160493 1:0.28354492 2:-5.3231875 
-0.01267182879919014 1:0.14385742 2:-0.716375 
-0.06637430938136198 1:0.31990625 2:-4.2178125 
-0.1 1:0.30313867 2:-3.5388125 
-0.02513094633358916 1:0.33349023 2:-5.87225 
-0.1 1:0.32626953 2:-3.5511875 
-0.006961985560716651 1:0.31567578 2:-5.128625 
-0.004715764053427776 1:0.2986543 2:-4.975125 
-0.00425808545189197 1:0.23536914 2:-4.077375 
-0.001650255259818202 1:0.28410352 2:-5.23025 
-0.1 1:0.24451562 2:-2.5500625 
-0.05354859889114898 1:0.22288086 2:-0.879125 
-0.006291674986988119 1:0.23297852 2:-3.4668125 
-0.03094986628823522 1:0.11691992 2:-0.5206875 
-0.02030625131557588 1:0.29096289 2:-5.5216875 
-0.0232858596262356 1:0.2641543 2:-3.894125 
-0.04344871882455021 1:0.17454883 2:-3.9793125 
-0.0132380513049135 1:0.2190332 2:-3.64075 
-0.1 1:0.34370508 2:-6.6133125 
-0.0194340329919864 1:0.37031445 2:-6.1486875 
-0.1 1:0.44749609 2:-3.6575625 
-0.06104056113306294 1:0.13053516 2:-1.8559375 
-0.007453023697214213 1:0.18212695 2:-3.0996875 
-0.002894836435957592 1:0.18545703 2:-3.2850625 
-0.0171854652952384 1:0.25119336 2:-5.2188125 
-0.03567836176033612 1:0.17179883 2:-4.12625 
-0.02486674256982435 1:0.16503906 2:-2.1281875 
-0.03116515020799062 1:0.19510156 2:-0.5563125 
-0.1 1:0.23229883 2:-2.5465625 
-0.01703317369558753 1:0.26604883 2:-5.25375 
-0.03963299267125671 1:0.22887305 2:-3.4574375 
-0.003548001602290524 1:0.25031445 2:-4.073125 
-0.01376678763146862 1:0.12993359 2:-1.4123125 
-0.004112602753443605 1:0.34984961 2:-4.391 
-0.1 1:0.39774414 2:-6.05375 
-0.1 1:0.29217773 2:-3.0855625 
-0.01020183200940346 1:0.23177344 2:-4.517375 
-0.1 1:0.45689844 2:-4.434625 
-0.1 1:0.43435742 2:-3.4658125 
-0.04328264972334774 1:0.30616797 2:-4.56425 
-0.1 1:0.18168164 2:-1.866875 
-0.0009673552455612159 1:0.25779102 2:-4.3279375 
-0.01956359405465158 1:0.17220508 2:-3.4438125 
-0.007419739090279888 1:0.095126953 2:-1.0759375 
-0.1 1:0.17704492 2:-3.367875 
-0.009001168970367552 1:0.2479082 2:-4.1050625 
-0.001364633899924297 1:0.17710352 2:-0.5270625 
-0.02890024972356374 1:0.22074023 2:-4.273625 
-0.02852843397882967 1:0.34316602 2:-5.2844375 
-0.01863906131173286 1:0.20857617 2:-3.8 
-0.005161718917198429 1:0.26783984 2:-4.52525 
-0.009295295096162226 1:0.16742383 2:-3.3311875 
-0.1 1:0.37414063 2:-4.146625 
-0.007560166714682196 1:0.31331055 2:-5.447375 
-0.0166984301602376 1:0.2322793 2:-4.3825625 
-0.04880319278232354 1:0.11232422 2:-2.5880625 
-0.02668645722401558 1:0.29976758 2:-5.8829375 
-0.04345515989587121 1:0.2493457 2:-4.6851875 
-0.01105099106997241 1:0.24185742 2:-3.9803125 
-0.01114525571066298 1:0.22425781 2:-4.310125 
-0.1 1:0.22959961 2:-2.5274375 
-0.09788578472975319 1:0.24679883 2:-3.1264375 
-0.1 1:0.27471484 2:-2.5206875 
-0.00314989558382914 1:0.25238281 2:-3.4760625 
-0.03602011569087983 1:0.24211719 2:-3.517375 
-0.01189678221207674 1:0.32075781 2:-5.06075 
-0.1 1:0.30963086 2:-2.8083125 
-0.06915857397486405 1:0.24479297 2:-1.2194375 
-0.1 1:0.38985547 2:-3.799625 
-0.0034880047322001 1:0.23379883 2:-4.032375 
-0.09230690010220163 1:0.21798437 2:-2.28275 
-0.1 1:0.26881055 2:-3.0364375 
-0.1 1:0.29874609 2:-4.3555625 
-0.1 1:0.32364258 2:-0.9266875 
-0.1 1:0.40190039 2:-4.0061875 
-0.05665603759268228 1:0.35883984 2:-5.7729375 
-0.1 1:0.41519336 2:-4.189625 
-0.01414094918813243 1:0.38049805 2:-4.2808125 
-0.02274376643171499 1:0.20025195 2:-2.91475 
-0.0754862226418961 1:0.19434375 2:-2.10675 
-0.04797350860757821 1:0.14209961 2:-2.4654375 
-0.1 1:0.23202734 2:-1.8263125 
-0.1 1:0.29225195 2:-2.52325 
-0.01033545945361654 1:0.22368359 2:-2.012125 
-0.00800366976910338 1:0.19210547 2:-3.7350625 
-0.04910327899928753 1:0.13560352 2:-2.6184375 
-0.1 1:0.19761133 2:-2.0180625 
-0.02497468681987714 1:0.26706836 2:-5.5515625 
-0.02213118098953591 1:0.16909375 2:-2.936 
-0.005719982938977966 1:0.24146484 2:-4.1600625 
-0.1 1:0.29729883 2:-3.9883125 
-0.01031563602340746 1:0.19203906 2:-0.745625 
-0.02037358533162665 1:0.13571484 2:-1.0553125 
-0.01535957922493157 1:0.31609375 2:-4.556375 
-0.006142006001090778 1:0.16033008 2:-0.694875 
-0.002262463309527933 1:0.29176172 2:-4.8688125 
-0.07074901460233771 1:0.23667383 2:-3.7280625 
-0.005506288529855304 1:0.18955664 2:-0.8383125 
-0.1 1:0.1951543 2:-2.4258125 
-0.1 1:0.31636133 2:-2.7805 
-0.06919658077911983 1:0.26469922 2:-4.0971875 
-0.003371144044169997 1:0.14779688 2:-0.9204375 
-0.1 1:0.29560156 2:-2.88125 
-0.02960402334073046 1:0.29336914 2:-4.1166875 
-0.1 1:0.2800332 2:-3.6730625 
-0.1 1:0.30330469 2:-2.7196875 
-0.08945275112235238 1:0.30932617 2:-3.8633125 
-0.02259178482301882 1:0.15913672 2:-2.57275 
-0.003612465182318917 1:0.22549609 2:-3.8956875 
-0.009858092637711416 1:0.28198828 2:-4.9028125 
-0.05686570329644522 1:0.29849609 2:-3.9649375 
-0.00523087622391091 1:0.13903711 2:-0.8685625 
-0.06748673834834293 1:0.27883984 2:-3.5875625 
-0.1 1:0.29921875 2:-4.207375 
-0.05084744253126447 1:0.18621875 2:-1.0839375 
-0.1 1:0.30803125 2:-3.0019375 
-0.01049652515305228 1:0.18212695 2:-3.46125 
-0.0551454529797645 1:0.24957031 2:-3.7960625 
-0.001835332134276078 1:0.26896484 2:-3.7311875 
-0.06540090383869661 1:0.33392969 2:-4.0231875 
-0.02723764716323106 1:0.26403125 2:-4.804125 
-0.005962856427919098 1:0.34219727 2:-5.2260625 
-0.01285960231447815 1:0.35018164 2:-5.125875 
-0.05587271543772014 1:0.18048437 2:-4.2701875 
-0.1 1:0.41067188 2:-4.9038125 
-0.09290591598593881 1:0.18467578 2:-2.040125 
-0.09112697918663742 1:0.26073828 2:-4.4661875 
-0.09738550033689355 1:0.21780273 2:-2.6044375 
-0.1 1:0.26800977 2:-2.4195 
-0.004251046285726927 1:0.39191602 2:-5.2935 
-0.1 1:0.37720898 2:-5.5465625 
-0.003897818595866515 1:0.20227148 2:-3.4111875 
-0.01817899342384924 1:0.284875 2:-5.496625 
-0.02176593889596774 1:0.19711133 2:-3.1739375 
-0.02414456245412688 1:0.1249668 2:-0.989125 
-0.01828503952746517 1:0.13434375 2:-2.3210625 
-0.001468709761571831 1:0.28873242 2:-4.8899375 
-0.007620494722871649 1:0.30873047 2:-4.7131875 
-0.00344623959150554 1:0.2971875 2:-5.19825 
-0.07561899631923868 1:0.20493945 2:-4.4815625 
-0.1 1:0.27028711 2:-2.9045 
-0.1 1:0.36425586 2:-4.5600625 
-0.09948281482185686 1:0.27479297 2:-3.251625 
-0.1 1:0.33624023 2:-6.860125 
-0.0227696024578454 1:0.29853516 2:-5.612 
-0.03401552143193514 1:0.32768164 2:-3.8809375 
-0.0006086506019115646 1:0.29023828 2:-4.9870625 
-0.006720844703618354 1:0.16164258 2:-0.3683125 
-0.06438732302209672 1:0.35126758 2:-4.4229375 
-0.008006718713267875 1:0.24494141 2:-4.1144375 
-0.02990492924559302 1:0.30526953 2:-5.664125 
-0.05535752745454428 1:0.096986328 2:-2.1764375 
-0.0110345008003659 1:0.2751875 2:-4.6055625 
-0.02404243785972604 1:0.20746289 2:-3.017875 
-0.1 1:0.23367578 2:-2.1321875 
-0.02288436384949455 1:0.092449219 2:-1.3479375 
-0.03117822211271642 1:0.32485938 2:-5.72375 
-0.1 1:0.43530664 2:-4.53675 
-0.003826173663422566 1:0.31599023 2:-4.90325 
-0.1 1:0.36966211 2:-4.90725 
-0.03105556673908606 1:0.36369922 2:-5.36625 
-0.01844074647105176 1:0.36968945 2:-4.4983125 
-0.04052460426498523 1:0.38264844 2:-5.1065 
-0.01743565564052111 1:0.13055664 2:-2.9695625 
-0.01897467969137261 1:0.1299375 2:-2.358625 
-0.001404423458355955 1:0.27766797 2:-3.8261875 
-0.003576206925438829 1:0.34810156 2:-5.0919375 
-0.09481141825672731 1:0.18350195 2:-2.1923125 
-0.003707967428760629 1:0.32619922 2:-5.0000625 
-0.007383898077651746 1:0.25 2:-4.624625 
-0.03330797242801517 1:0.31619727 2:-6.3761875 
-0.00677147261124621 1:0.1375918 2:-0.3901875 
-0.004801948336478785 1:0.25470508 2:-0.922875 
-0.03320836431157437 1:0.20789648 2:-4.8635625 
-0.01295795523732932 1:0.23712891 2:-4.3549375 
-0.1 1:0.31189453 2:-5.001625 
-0.09184797241970041 1:0.42402148 2:-4.7025625 
-0.1 1:0.38944922 2:-2.8925625 
-0.01835274006684581 1:0.27653906 2:-3.705375 
-0.0159825713941703 1:0.40123242 2:-5.4555625 
-0.01659877522864821 1:0.32946484 2:-5.1068125 
-0.1 1:0.26929297 2:-2.8614375 
-0.1 1:0.27592773 2:-3.5386875 
-0.00156886867913598 1:0.30473828 2:-5.8505 
-0.04799111109639499 1:0.26537109 2:-3.0890625 
-0.006319675942739782 1:0.24992773 2:-4.1205 
-0.001569465351645313 1:0.28028516 2:-4.858875 
-0.01103860232590587 1:0.17914844 2:-3.2561875 
-0.003460593097104915 1:0.2922207 2:-5.43275 
-0.08572569268198052 1:0.38280273 2:-4.365125 
-0.08613008652298106 1:0.15527148 2:-3.574 
-0.02857759060502757 1:0.30915625 2:-4.5255 
-0.1 1:0.33487109 2:-3.044875 
-0.07598217945870907 1:0.37858984 2:-6.0868125 
-0.01620373672402323 1:0.25044922 2:-4.85525 
-0.06023230166969431 1:0.34523242 2:-6.061875 
-0.08339090086498548 1:0.21053711 2:-3.5961875 
-0.003372654590872541 1:0.18050977 2:-2.87525 
-0.01619630089008912 1:0.17253516 2:-3.41425 
-0.02707525438335864 1:0.33458398 2:-5.768125 
-0.01660505844460743 1:0.11569922 2:-0.68975 
-0.1 1:0.32547656 2:-3.5169375 
-0.05789232340461154 1:0.23971289 2:-2.3139375 
-0.07728786871008611 1:0.29676953 2:-4.008375 
-0.03117173666542588 1:0.38610742 2:-6.1371875 
-0.003319966059087129 1:0.28595703 2:-5.3775625 
-0.00865924208448334 1:0.19512891 2:-2.7455625 
-0.01490504044429477 1:0.13530273 2:-0.4311875 
-0.01016209973292655 1:0.38570117 2:-6.1624375 
-0.02803265171078339 1:0.16294336 2:-0.344 
-0.1 1:0.1665918 2:-2.88275 
-0.004493521661317607 1:0.21351367 2:-4.0935625 
-0.04200985511648375 1:0.10410156 2:-0.1661875 
-0.06769382440093111 1:0.14648633 2:-3.2020625 
-0.01047095655269315 1:0.24331641 2:-4.9111875 
-0.09918077549926357 1:0.25605469 2:-4.37625 
-0.1 1:0.49560547 2:-4.876 
-0.1 1:0.46247266 2:-6.5006875 
-0.1 1:0.14812891 2:-1.9295625 
-0.002246649798493286 1:0.29831055 2:-5.1241875 
-0.009458760852245885 1:0.17526562 2:-0.863125 
-0.0009550254020806353 1:0.26202148 2:-4.5193125 
-0.006479522567803455 1:0.20848437 2:-3.6273125 
-0.02319583410192264 1:0.34056836 2:-6.399125 
-0.004368689110454917 1:0.20293359 2:-3.7611875 
-0.005481314070840852 1:0.32004297 2:-4.86475 
-0.01242548457723997 1:0.20121875 2:-4.0243125 
-0.06330296432282036 1:0.23904492 2:-4.1831875 
-0.001563371067982822 1:0.17408984 2:-3.10925 
-0.005392510096875286 1:0.24000977 2:-3.822125 
-0.0116636775468259 1:0.24218555 2:-4.0425625 
-0.005628974545610725 1:0.25950391 2:-5.104375 
-0.02598597245742466 1:0.2320293 2:-1.118875 
-0.1 1:0.33358984 2:-2.0735 
-0.1 1:0.47258203 2:-5.1478125 
-0.1 1:0.30161523 2:-4.6424375 
-0.04547887965584689 1:0.24683398 2:-3.15875 
-0.00314917413663903 1:0.25876172 2:-4.4411875 
-0.07929928874464845 1:0.31580664 2:-4.41175 
-0.002161329351351951 1:0.19822656 2:-4.0500625 
-0.02614463282123369 1:0.20151953 2:-4.1438125 
-0.06605237756648426 1:0.22644727 2:-1.011625 
-0.0008271808900138788 1:0.22788867 2:-3.7604375 
-0.0048065944974175 1:0.18129492 2:-0.608375 
-0.004430957093022641 1:0.21207031 2:-3.7689375 
-0.1 1:0.27886328 2:-2.8150625 
-0.1 1:0.27945898 2:-3.1124375 
-0.01006520783078325 1:0.12610742 2:-0.953125 
-0.007340241373785323 1:0.17592578 2:-2.996875 
-0.05505885895698609 1:0.24993945 2:-5.5373125 
-0.1 1:0.45806641 2:-2.8064375 
-0.002979824821189365 1:0.19478711 2:-3.9204375 
-0.05602808414266122 1:0.3104043 2:-6.1365 
-0.01901614250089613 1:0.26445508 2:-4.4808125 
-0.0770174850890344 1:0.38851953 2:-5.6038125 
-0.1 1:0.33355664 2:-3.210625 
-0.01692851889811165 1:0.2874082 2:-4.2813125 
-0.06531392388770194 1:0.34438281 2:-4.893 
-0.003610094514220285 1:0.32344922 2:-4.7141875 
-0.08387692346616507 1:0.20406445 2:-1.2705625 
-0.01359619979022037 1:0.31721875 2:-5.6945 
-0.001534241244841192 1:0.20263086 2:-3.304875 
-0.01282345293514407 1:0.17159961 2:-0.75375 
-0.03835156990506511 1:0.15628906 2:-3.502625 
-0.05105471181095448 1:0.13750977 2:-3.2733125 
-0.0328846790607388 1:0.13548828 2:-3.4148125 
-0.002137022646960473 1:0.30438672 2:-5.9503125 
-0.001229404958485652 1:0.21832617 2:-3.3679375 
-0.1 1:0.25325586 2:-2.34125 
-0.02051141393648974 1:0.22593945 2:-3.865125 
-0.06087989784358989 1:0.39398437 2:-5.7020625 
-0.01112354552788323 1:0.22749609 2:-2.9654375 
-0.06875535524097556 1:0.39117773 2:-4.3866875 
-0.03013455705434942 1:0.4509043 2:-6.5925625 
-0.02081759033527602 1:0.30637695 2:-5.419 
-0.00365405680171059 1:0.23757422 2:-3.913375 
-0.08790568878866369 1:0.19241016 2:-3.4095625 
-0.07892445025789226 1:0.33039063 2:-4.84375 
-0.1 1:0.38054102 2:-4.196375 
-0.05964930144992107 1:0.20280469 2:-1.346875 
-0.01561115981782396 1:0.12201367 2:-2.4213125 
-0.0121576058269835 1:0.12524609 2:-0.281875 
-0.1 1:0.39165625 2:-3.201875 
-0.05008849685683989 1:0.23148828 2:-3.603875 
-0.1 1:0.41826953 2:-5.916375 
-0.00962583948008626 1:0.32592969 2:-5.55525 
-0.1 1:0.41155273 2:-6.8126875 
-0.01133377301211084 1:0.33544727 2:-5.1939375 
-0.1 1:0.31787891 2:-2.8479375 
-0.0764914757889414 1:0.12785937 2:-3.4310625 
-0.001928591624088662 1:0.28100586 2:-4.2859375 
-0.09248721063551167 1:0.32580078 2:-5.342 
-0.008290857687293556 1:0.1505293 2:-1.2823125 
-0.00624116610163785 1:0.16164062 2:-0.879 
-0.06600411903774039 1:0.3574375 2:-5.559125 
-0.1 1:0.38961328 2:-2.5674375 
-0.1 1:0.30931641 2:-2.750125 
-0.1 1:0.53747656 2:-5.9125 
-0.1 1:0.37639453 2:-2.792375 
-0.1 1:0.3757207 2:-4.5140625 
-0.002335354757908192 1:0.30483594 2:-5.0721875 
-0.006206625446825875 1:0.24554492 2:-4.076375 
-0.005395527957758652 1:0.29496094 2:-4.4983125 
-0.02682573959089396 1:0.1924707 2:-2.783375 
-0.1 1:0.15526172 2:-2.0664375 
-0.003086317989901018 1:0.21766992 2:-0.907375 
-0.1 1:0.49851172 2:-4.012375 
-0.1 1:0.25284766 2:-1.5586875 
-0.04538997727017602 1:0.12036133 2:-1.40125 
-0.1 1:0.34680664 2:-2.6586875 
-0.03502002852901184 1:0.17372852 2:-0.3841875 
-0.1 1:0.32651172 2:-2.089 
-0.1 1:0.22789648 2:-4.39775 
-0.003939890560332287 1:0.37286523 2:-4.83775 
-0.1 1:0.22402539 2:-2.560375 
-0.01639395471475827 1:0.15975391 2:-3.0234375 
-0.0233893640548973 1:0.19187109 2:-2.8835625 
-0.01994614229811261 1:0.19408398 2:-3.9269375 
-0.02078338583612665 1:0.25475977 2:-3.0795 
-0.00804432524450544 1:0.15900781 2:-0.5613125 
-0.01194669705166948 1:0.302 2:-6.17125 
-0.08874451937503591 1:0.42748242 2:-5.4629375 
-0.0819153009062801 1:0.20885547 2:-2.3333125 
-0.1 1:0.34861719 2:-3.627625 
-0.02649713341601929 1:0.31765234 2:-5.4841875 
-0.1 1:0.26035937 2:-1.318125 
-0.02274815650861973 1:0.19900977 2:-1.1204375 
-0.02549090025690937 1:0.35835547 2:-6.3311875 
-0.01057566663190733 1:0.15591602 2:-3.776625 
-0.003038507836326105 1:0.21005664 2:-3.972625 
-0.1 1:0.26091406 2:-2.994125 
-0.0007488092525346232 1:0.21072852 2:-3.4869375 
-0.02943838650515188 1:0.18579297 2:-1.535625 
-0.01256432640954296 1:0.24624609 2:-5.011375 
-0.09470369709709497 1:0.27323437 2:-4.4154375 
-0.004597294081601523 1:0.20010547 2:-4.0784375 
-0.007828274113488527 1:0.32371875 2:-4.4525 
-0.05623645792747539 1:0.34186523 2:-5.8350625 
-0.1 1:0.1970332 2:-1.14525 
-0.1 1:0.41975 2:-5.11875 
-0.07194843850479356 1:0.16182812 2:-3.80425 
-0.01047925774529474 1:0.27365625 2:-5.3413125 
-0.04110968371224891 1:0.094730469 2:-0.640625 
-0.1 1:0.4163418 2:-3.113875 
-0.08486314430900645 1:0.21717383 2:-4.7938125 
-0.001261040910001201 1:0.20620898 2:-3.808125 
-0.01831342593102307 1:0.36168359 2:-5.30275 
-0.06310876892728284 1:0.083269531 2:-1.9089375 
-0.07431052884340958 1:0.11993555 2:-1.763125 
-0.01978317967620107 1:0.17083203 2:-4.0699375 
-0.008221722579910246 1:0.18546289 2:-3.118 
-0.0003555641646391045 1:0.16924805 2:-2.906375 
-0.1 1:0.077263672 2:-1.0995 
-0.1 1:0.22082812 2:-2.6729375 
-0.1 1:0.20934766 2:-2.263375 
-0.02908334061621398 1:0.29868555 2:-5.44775 
-0.05201343995777005 1:0.2247832 2:-3.946875 
-0.09450164291289929 1:0.18941211 2:-4.615375 
-0.09409605602436608 1:0.20357617 2:-2.9443125 
-0.1 1:0.25332031 2:-3.16875 
-0.1 1:0.34460352 2:-4.310625 
-0.07982893860853792 1:0.17305469 2:-1.5033125 
-0.07432707161976777 1:0.28529688 2:-4.429 
-0.1 1:0.27666992 2:-2.86875 
-0.09316026958100583 1:0.18776562 2:-4.5545625 
-0.01241256034724398 1:0.15938086 2:-2.61975 
-0.02052835571107342 1:0.30045117 2:-5.435 
-0.1 1:0.22798828 2:-2.3349375 
-0.002955308887303665 1:0.1082207 2:-2.2316875 
-0.02206267167668727 1:0.089660156 2:-0.3435 
-0.06691618200401696 1:0.2639082 2:-5.1389375 
-0.04480260803440957 1:0.32763281 2:-5.387875 
-0.003069131710890456 1:0.21848242 2:-4.455375 
-0.1 1:0.23383398 2:-2.8864375 
-0.01467942974760792 1:0.18030859 2:-2.8774375 
-0.1 1:0.14578711 2:-2.0193125 
-0.007418978474331962 1:0.17117969 2:-2.7189375 
-0.0802512224464854 1:0.1397793 2:-3.1024375 
-0.01719558000776491 1:0.18048438 2:-3.661 
-0.0165439580576689 1:0.13674414 2:-2.6331875 
-0.02061564745350199 1:0.17422852 2:-3.18075 
-0.09372017144682851 1:0.23544531 2:-5.3535 
-0.004145989894329762 1:0.25723633 2:-4.8356875 
-0.01821841809319382 1:0.23702539 2:-4.615 
-0.01270196973308474 1:0.21655469 2:-4.2428125 
-0.05045037654738169 1:0.26776367 2:-4.0185625 
-0.001994939736917736 1:0.17430664 2:-3.45025 
-0.005724781871405941 1:0.18235938 2:-3.0129375 
-0.002124797889632748 1:0.28030664 2:-4.3249375 
-0.0410258777693826 1:0.12099414 2:-1.974625 
-0.002126079299911323 1:0.26507812 2:-4.737375 
-0.03139630770378188 1:0.21239258 2:-2.7041875 
-0.004870594868216666 1:0.29257812 2:-4.753 
-0.01392535276515046 1:0.31054102 2:-4.9661875 
-0.004261761521176722 1:0.32594531 2:-4.93 
-0.0131380655006732 1:0.30372656 2:-5.6384375 
-0.05562553618174824 1:0.16408984 2:-3.7249375 
-0.02195642497974781 1:0.21741797 2:-3.3318125 
-0.07712429521942525 1:0.249375 2:-5.0311875 
-0.1 1:0.2242832 2:-4.2979375 
-0.02793267182024523 1:0.11088867 2:-0.5460625 
-0.02082812547550126 1:0.18622852 2:-3.6644375 
-0.006500326968285309 1:0.18686914 2:-3.620375 
-0.03396371996979876 1:0.11741211 2:-0.589875 
-0.07182839700198629 1:0.24426367 2:-5.466 
-0.003354149109796179 1:0.21610352 2:-3.9500625 
-0.01196196035781423 1:0.26659766 2:-4.8791875 
-0.04488570208315986 1:0.099441406 2:-2.0795 
-0.01324657679222767 1:0.18109961 2:-2.77675 
-0.09014093417657114 1:0.38156445 2:-5.0653125 
-0.1 1:0.23675195 2:-3.4498125 
-0.04688289270686257 1:0.36026172 2:-5.9035625 
-0.02222234628173671 1:0.31123828 2:-5.179625 
-0.02858426922271257 1:0.10909375 2:-1.11075 
-0.08082402253648326 1:0.20121484 2:-2.59925 
-0.007546514781139743 1:0.20608203 2:-3.458125 
-0.1 1:0.38328516 2:-4.62175 
-0.003909096565034157 1:0.29635937 2:-5.16975 
-0.08009013377885053 1:0.20105078 2:-2.6285625 
-0.08621732762710389 1:0.075421875 2:-0.745375 
-0.008232089414232762 1:0.28732031 2:-5.3385 
-0.02758914033942556 1:0.12333398 2:-0.8314375 
-0.01488535614386133 1:0.20501758 2:-3.4073125 
-0.01442247651196318 1:0.2760918 2:-4.324 
-0.009541818597588805 1:0.39990039 2:-5.5281875 
-0.1 1:0.30475 2:-3.782375 
-0.05133595958879105 1:0.30993359 2:-4.1353125 
-0.01090351204040854 1:0.26016406 2:-4.3838125 
-0.006212803128798294 1:0.2137168 2:-3.3163125 
-0.01948765697628561 1:0.23767383 2:-4.242625 
-0.1 1:0.4074082 2:-3.9875 
-0.0250926978985598 1:0.10788672 2:-0.7638125 
-0.02777738422219522 1:0.11741602 2:-0.7308125 
-0.05886381878704956 1:0.15626562 2:-1.477 
-0.0223613323069267 1:0.12882031 2:-0.76225 
-0.09565006976329546 1:0.2464082 2:-3.9310625 
-0.1 1:0.43591602 2:-5.860375 
-0.007217190385220673 1:0.13360547 2:-0.4934375 
-0.1 1:0.25452539 2:-1.412375 
-0.01180604666690446 1:0.30384375 2:-4.66825 
-0.06211231740560519 1:0.27808203 2:-3.8909375 
-0.03403765177254949 1:0.24755859 2:-4.672875 
-0.06546253801261662 1:0.37999023 2:-5.022125 
-0.05225613260883855 1:0.26012891 2:-0.84825 
-0.03365053160466706 1:0.21192969 2:-0.6360625 
-0.01066589035628777 1:0.35570117 2:-4.8763125 
-0.01679909233213031 1:0.15686523 2:-1.1291875 
-0.0547590315231596 1:0.19995117 2:-4.736 
-0.04339045356146773 1:0.099912109 2:-0.2281875 
-0.005786909057599478 1:0.19703906 2:-3.5065 
-0.002785007800410633 1:0.18596875 2:-3.7434375 
-0.1 1:0.24561719 2:-2.2079375 
-0.0118461938171556 1:0.28167578 2:-4.304125 
-0.1 1:0.15744727 2:-3.6728125 
-0.02406478623818858 1:0.10485156 2:-0.66725 
-0.02701189799262493 1:0.18289453 2:-3.3156875 
-0.0006305922433509498 1:0.18084375 2:-3.0259375 
-0.04625429084536357 1:0.18053125 2:-4.25075 
-0.0004765654864312718 1:0.15552148 2:-3.5993125 
-0.04021932092079774 1:0.17432422 2:-2.6551875 
-0.02407031423768107 1:0.11030664 2:-0.315125 
-0.007416774880658712 1:0.137 2:-0.6551875 
-0.1 1:0.27892383 2:-4.925875 
-0.0008804040046349263 1:0.29904102 2:-4.7209375 
-0.1 1:0.45997461 2:-6.2921875 
-0.0009198592532897454 1:0.17188867 2:-0.9570625 
-0.01253517389422834 1:0.12803125 2:-1.108625 
-0.008675815000736081 1:0.22859766 2:-4.4310625 
-0.006450035721970192 1:0.29339648 2:-3.8018125 
-0.1 1:0.34348242 2:-3.792 
-0.02711909215617539 1:0.32123828 2:-5.983375 
-0.00941919918914768 1:0.22622461 2:-3.44825 
-0.1 1:0.39061133 2:-3.7198125 
-0.00906751054111451 1:0.20137891 2:-0.74275 
-0.003130407010389013 1:0.26610937 2:-4.7318125 
-0.01621794686468801 1:0.12868945 2:-0.7908125 
-0.04445291335330492 1:0.23483008 2:-3.5435 
-0.09444771729780339 1:0.097283203 2:-2.3428125 
-0.07648798293125111 1:0.088455078 2:-2.1455 
-0.008632150721103675 1:0.15875781 2:-2.5898125 
-0.06923727229345497 1:0.18442383 2:-2.95375 
-0.1 1:0.34100781 2:-3.5708125 
-0.01701303612880167 1:0.35369141 2:-5.0035 
-0.01513084039222293 1:0.34079687 2:-4.7308125 
-0.0349856500175777 1:0.20068359 2:-0.5784375 
-0.01448811404079215 1:0.20431445 2:-3.215375 
-0.0006023433987696436 1:0.273875 2:-5.762125 
-0.004145016709646778 1:0.28875781 2:-4.933 
-0.05322202313799905 1:0.24149023 2:-4.4803125 
-0.01163662149015205 1:0.33615625 2:-4.82075 
-0.1 1:0.27839453 2:-2.256625 
-0.006447750211462178 1:0.26938086 2:-3.7621875 
-0.1 1:0.34244141 2:-3.0976875 
-0.0117354749697205 1:0.13290039 2:-2.3090625 
-0.1 1:0.48474609 2:-6.674125 
-0.1 1:0.36560547 2:-4.0115625 
-0.001293437224756364 1:0.31896094 2:-5.0758125 
-0.03446657975990795 1:0.42489258 2:-5.367 
-0.01800111979817952 1:0.28961328 2:-5.0679375 
-0.04266495770885952 1:0.28564844 2:-5.3563125 
-0.01158998118843347 1:0.37045117 2:-4.9888125 
-0.002708367959548508 1:0.17236133 2:-3.4455 
-0.08623728999654472 1:0.2542207 2:-4.6595 
-0.1 1:0.28249414 2:-2.825 
-0.1 1:0.40465039 2:-3.5784375 
-0.1 1:0.25330078 2:-2.620125 
-0.09753080409063256 1:0.18132617 2:-3.2220625 
-0.03721324145920741 1:0.27832031 2:-3.4939375 
-0.03324496930515879 1:0.15187109 2:-2.5178125 
-0.0009286449226598562 1:0.21206641 2:-3.21275 
-0.06025206135995924 1:0.22549609 2:-5.097125 
-0.07532701512753574 1:0.13378516 2:-3.048875 
-0.009630076562754077 1:0.31617773 2:-5.575875 
-0.06448517524571432 1:0.33393945 2:-5.0185 
-0.03845858030983506 1:0.34069922 2:-4.6513125 
-0.02970580094354532 1:0.24345898 2:-4.058625 
-0.00765708072994975 1:0.14796484 2:-3.1890625 
-0.074585034934846 1:0.18408398 2:-1.84125 
-0.06199264113322533 1:0.090345703 2:-0.9753125 
-0.01200377553987784 1:0.23999023 2:-4.5229375 
-0.0334556404298569 1:0.089603516 2:-0.2883125 
-0.08757696352757924 1:0.23705078 2:-3.43175 
-0.01714537763605976 1:0.19753125 2:-3.80925 
-0.1 1:0.29553906 2:-3.6444375 
-0.1 1:0.26292969 2:-2.64375 
-0.03425289836416589 1:0.25910937 2:-4.9125 
-0.1 1:0.21359375 2:-2.771125 
-0.1 1:0.32594336 2:-3.5015 
-0.1 1:0.33538281 2:-3.271875 
-0.003154866285401041 1:0.27375977 2:-5.0396875 
-0.007610447354960392 1:0.45030664 2:-4.5109375 
-0.1 1:0.38406055 2:-4.01 
-0.004372077753746785 1:0.18870117 2:-3.0108125 
-0.1 1:0.31895703 2:-3.3794375 
-0.01710496330043341 1:0.32026367 2:-6.1031875 
-0.1 1:0.24695898 2:-2.8726875 
-0.03634273035536835 1:0.31149023 2:-4.888 
-0.02641903908374519 1:0.26500391 2:-5.61825 
-0.006615461618439428 1:0.16867969 2:-0.6488125 
-0.02402506439140498 1:0.082208984 2:-0.7716875 
-0.005704254859963448 1:0.17051563 2:-3.0683125 
-0.002850923678963782 1:0.29332227 2:-5.5399375 
-0.004551423342430886 1:0.20055078 2:-4.0369375 
-0.01387344504065428 1:0.12323242 2:-0.380125 
-0.1 1:0.27269141 2:-2.4061875 
-0.004201559297016239 1:0.27074414 2:-3.84525 
-0.002880423036460189 1:0.26807813 2:-5.1476875 
-0.1 1:0.40238867 2:-4.4288125 
-0.01794419045163005 1:0.33367383 2:-4.751375 
-0.002791980191275323 1:0.23014453 2:-0.8570625 
-0.0180804636250755 1:0.32538672 2:-5.82175 
-0.003754909156195326 1:0.16304102 2:-0.7679375 
-0.0122399594738436 1:0.18848047 2:-3.5241875 
-0.03629503094886462 1:0.24758789 2:-4.2194375 
-0.02618997970197179 1:0.20600586 2:-0.7874375 
-0.05912197015698592 1:0.24682813 2:-3.020875 
-0.05387540502994412 1:0.12804883 2:-2.8983125 
-0.1 1:0.3155957 2:-4.250125 
-0.08009299797539482 1:0.14104297 2:-2.236375 
-0.01086701784223117 1:0.25391016 2:-3.94825 
-0.01411281018098669 1:0.15958984 2:-2.8121875 
-0.008550856669231305 1:0.26205273 2:-4.2426875 
-0.001871776978998576 1:0.2588418 2:-4.531875 
-0.008203298753514098 1:0.20157422 2:-3.8138125 
-0.08709605116046558 1:0.087685547 2:-0.4531875 
-0.01158995866295106 1:0.21110352 2:-3.1179375 
-0.0382685906321706 1:0.13850586 2:-3.0759375 
-0.007438643899064883 1:0.23009766 2:-4.3459375 
-0.1 1:0.31226367 2:-3.6335625 
-0.0429666562079213 1:0.35580078 2:-6.299125 
-0.01797292173656827 1:0.36611328 2:-5.1491875 
-0.008082839661153085 1:0.20986328 2:-4.2008125 
-0.02676907567481164 1:0.15374414 2:-2.988625 
-0.03923407019394003 1:0.34071094 2:-6.2910625 
-0.09047588696040543 1:0.3218125 2:-4.0596875 
-0.06879361687463872 1:0.34258594 2:-4.0031875 
-0.03113884375213526 1:0.21088477 2:-4.1166875 
-0.005029933415171933 1:0.23025 2:-4.340625 
-0.003198147771214015 1:0.18216992 2:-2.539625 
-0.0519792283876286 1:0.22105273 2:-3.51125 
-0.07183433366610967 1:0.090515625 2:-0.3639375 
-0.07349946436353291 1:0.25020898 2:-5.5086875 
-0.009192202089644949 1:0.23166406 2:-4.7021875 
-0.005149149782362641 1:0.25088867 2:-4.781375 
-0.001503957489716023 1:0.2322168 2:-4.5760625 
-0.1 1:0.20376172 2:-0.978 
-0.004099066361545525 1:0.29986719 2:-4.7735 
-0.01671879296171848 1:0.19877344 2:-3.577625 
-0.007269275972223827 1:0.13136719 2:-0.8565625 
-0.1 1:0.35527734 2:-2.8031875 
-0.1 1:0.43747852 2:-3.440125 
-0.06607785412520095 1:0.22061328 2:-3.57275 
-0.01034611844757155 1:0.23155859 2:-4.342375 
-0.01818185909002579 1:0.21753125 2:-3.3175 
-0.01676240236957959 1:0.25088867 2:-3.4085 
-0.02041467982060136 1:0.20583594 2:-3.8805625 
-0.03991188210979552 1:0.3435332 2:-5.4168125 
-0.1 1:0.51403125 2:-6.2425 
-0.0006292707240324602 1:0.24883203 2:-4.1166875 
-0.00518858174327269 1:0.18489648 2:-2.2105625 
-0.01062699498508521 1:0.12463281 2:-2.6011875 
-0.05498755348491954 1:0.12140039 2:-1.143 
-0.009354890609424822 1:0.13299805 2:-2.9773125 
-0.05626975835376488 1:0.15904297 2:-3.7005625 
-0.0009193470468831233 1:0.252875 2:-4.820875 
-0.00424484647715158 1:0.29289063 2:-5.652375 
-0.00204254104479383 1:0.24917187 2:-4.7546875 
-0.06977093101642742 1:0.19398438 2:-4.392625 
-0.0124707761417622 1:0.28824609 2:-6.03575 
-0.0303267596362051 1:0.38236328 2:-5.1270625 
-0.1 1:0.28405273 2:-2.7609375 
-0.06097050927534231 1:0.14473438 2:-2.6431875 
-0.02114230891559927 1:0.31454688 2:-4.9918125 
-0.1 1:0.27037305 2:-5.205125 
-0.05018383834713442 1:0.21675391 2:-1.0773125 
-0.07667826258866377 1:0.36413867 2:-6.3994375 
-0.02896293004550458 1:0.41241016 2:-5.256375 
-0.02374241987247618 1:0.19777344 2:-3.8985625 
-0.07538710391896383 1:0.093474609 2:-2.29 
-0.004551161926588554 1:0.084939453 2:-1.6044375 
-0.07748267345725841 1:0.16586328 2:-4.110875 
-0.09031692846152947 1:0.089224609 2:-2.2149375 
-0.09941900542297685 1:0.22306445 2:-2.1304375 
-0.05006883312521846 1:0.29255078 2:-4.3645 
-0.1 1:0.26711914 2:-3.2993125 
-0.002419757484594715 1:0.10687305 2:-0.574 
-0.02332369189875691 1:0.27263477 2:-4.8355625 
-0.01263678821660714 1:0.31027734 2:-5.6106875 
-0.1 1:0.23668945 2:-3.4695625 
-0.0118262571079466 1:0.18877148 2:-3.6405625 
-0.0904297433987846 1:0.28799609 2:-4.1228125 
-0.09350001605480487 1:0.18665039 2:-4.4296875 
-0.1 1:0.38253711 2:-4.640375 
-0.01293922304348084 1:0.15877148 2:-2.7178125 
-0.007413213725922074 1:0.25711914 2:-4.0904375 
-0.006051045691880228 1:0.22389453 2:-3.9030625 
-0.02168589516666485 1:0.18165039 2:-2.6295 
-0.03115478015572654 1:0.13429297 2:-3.16725 
-0.08670134810249348 1:0.25813672 2:-5.1858125 
-0.004837869967113645 1:0.23004102 2:-4.380125 
-0.1 1:0.23113867 2:-2.8440625 
-0.02963407423281755 1:0.38785547 2:-6.0408125 
-0.03646171674239483 1:0.089160156 2:-1.664875 
-0.0633405386027527 1:0.18658008 2:-1.3195 
-0.02489365621381895 1:0.35895312 2:-5.38 
-0.0006967096543860523 1:0.1601543 2:-3.1286875 
-0.004172978068422206 1:0.17123437 2:-3.3623125 
-0.02193472777541009 1:0.1675918 2:-3.143 
-0.1 1:0.32640039 2:-3.9146875 
-0.02360339906310646 1:0.28174219 2:-4.3183125 
-0.03622593746508469 1:0.22812891 2:-3.6428125 
-0.03204690967417285 1:0.088017578 2:-0.839125 
-0.001756445170864741 1:0.18004883 2:-0.660875 
